-1.676986217498779297e-01
4.219095408916473389e-02
-1.313515901565551758e-01
-2.075317800045013428e-01
-2.756141424179077148e-01
-4.178052842617034912e-01
-1.336492896080017090e-01
-3.723374605178833008e-01
-3.033031523227691650e-01
-9.005066752433776855e-02
-2.780291438102722168e-01
-3.942209482192993164e-01
-4.770609736442565918e-01
-1.139344424009323120e-01
-1.317968964576721191e-01
-2.215420901775360107e-01
-2.244038581848144531e-01
-8.918270468711853027e-02
-1.708535850048065186e-01
1.124610081315040588e-01
-1.354054212570190430e-01
8.418506383895874023e-02
-3.696313127875328064e-02
-2.162605822086334229e-01
-4.318426549434661865e-01
-3.834040760993957520e-01
-2.387394011020660400e-01
-2.732704877853393555e-01
-4.250793457031250000e-01
-1.515900641679763794e-01
-1.286021322011947632e-01
-2.695010602474212646e-01
-1.161282286047935486e-01
-2.863611578941345215e-01
-6.496337801218032837e-02
-1.691603809595108032e-01
-7.366528362035751343e-02
-3.443937897682189941e-01
1.123780012130737305e-02
-2.190451472997665405e-01
-1.360432207584381104e-01
-2.548057436943054199e-01
-1.123842447996139526e-01
6.910314410924911499e-02
-1.998691111803054810e-01
-1.264554560184478760e-01
-3.570117056369781494e-02
-7.819083333015441895e-02
1.482841670513153076e-01
-8.301005512475967407e-02
-3.503986299037933350e-01
-3.992672562599182129e-01
-3.670310676097869873e-01
-7.677075266838073730e-02
-3.568720817565917969e-01
-3.697867393493652344e-01
-2.903468310832977295e-01
-3.727630828507244587e-04
8.618234843015670776e-02
-2.055123448371887207e-01
-2.129643857479095459e-01
-3.621956110000610352e-01
-1.731548905372619629e-01
-1.491357851773500443e-02
-1.017927229404449463e-01
-2.525954246520996094e-01
-8.632282167673110962e-02
-8.803367614746093750e-02
1.134582906961441040e-01
-2.716407179832458496e-01
-4.721676930785179138e-02
1.576300412416458130e-01
-2.679099440574645996e-01
-2.943015694618225098e-01
-2.616715729236602783e-01
-2.317490428686141968e-01
1.797893494367599487e-01
-1.830478161573410034e-01
-3.714854717254638672e-01
-1.398946940898895264e-01
-2.539737820625305176e-01
1.239428296685218811e-01
-3.136842548847198486e-01
-2.653649449348449707e-01
7.215437293052673340e-01
1.563067883253097534e-01
-4.468873143196105957e-01
-1.663216501474380493e-01
-4.933663308620452881e-01
-4.254886806011199951e-01
-4.292425811290740967e-01
1.965594245120882988e-03
-3.920794427394866943e-01
-3.185021132230758667e-02
5.554751027375459671e-03
-2.584986984729766846e-01
4.901226162910461426e-01
-4.261888563632965088e-01
-3.102429807186126709e-01
-9.709904342889785767e-02
-7.938797026872634888e-02
-2.262795567512512207e-01
-1.374269276857376099e-01
-3.943029940128326416e-01
2.304758876562118530e-01
-4.324080646038055420e-01
-3.349704742431640625e-01
-4.374664425849914551e-01
-2.454521805047988892e-01
-6.979589164257049561e-02
-2.154629677534103394e-01
-5.425607562065124512e-01
-1.285469383001327515e-01
-3.309092819690704346e-01
-4.422980844974517822e-01
1.334711462259292603e-01
-2.175872586667537689e-02
-3.673532009124755859e-01
5.533453226089477539e-01
3.482521176338195801e-01
-1.660945266485214233e-01
-3.906816542148590088e-01
-1.256197690963745117e-01
-1.167163345962762833e-02
-1.796994805335998535e-01
-3.658025264739990234e-01
-1.451914012432098389e-01
-1.784616410732269287e-01
-3.606122136116027832e-01
-2.127226442098617554e-01
-8.888896554708480835e-02
-6.138229966163635254e-01
-7.391463220119476318e-02
-3.809434771537780762e-01
1.661928743124008179e-02
-1.596742868423461914e-01
-2.802251577377319336e-01
-1.517572104930877686e-01
-3.410993218421936035e-01
-4.467026293277740479e-01
-5.094148516654968262e-01
-4.541384279727935791e-01
-4.580108225345611572e-01
-1.415292266756296158e-02
-9.711468219757080078e-02
-3.703842163085937500e-01
-4.151826202869415283e-01
-5.174089670181274414e-01
-1.465273648500442505e-01
-2.938429415225982666e-01
-2.799343764781951904e-01
-2.001541852951049805e-01
8.461663872003555298e-02
-3.247656226158142090e-01
-6.625647842884063721e-02
-3.369164168834686279e-01
-1.829939037561416626e-01
-2.292239814996719360e-01
-3.104760684072971344e-02
-1.500500291585922241e-01
-3.230528533458709717e-01
-2.605631351470947266e-01
-2.821106016635894775e-01
-3.504004478454589844e-01
-3.560615181922912598e-01
-5.694118142127990723e-01
-3.418697118759155273e-01
-1.350730806589126587e-01
-3.695014417171478271e-01
2.723890915513038635e-02
-2.128512412309646606e-01
2.623735964298248291e-01
-3.632110655307769775e-01
-3.887706398963928223e-01
-4.156138300895690918e-01
-4.272199869155883789e-01
1.372709572315216064e-01
8.786352723836898804e-02
-2.023229598999023438e-01
-1.764806807041168213e-01
-3.582288324832916260e-01
7.814847631379961967e-04
-3.559614419937133789e-01
-2.440382242202758789e-01
4.950425028800964355e-02
-3.920538350939750671e-02
-4.455374777317047119e-01
1.849353015422821045e-01
1.845296621322631836e-01
-3.822396397590637207e-01
2.131125517189502716e-02
-1.380641758441925049e-01
-3.361391425132751465e-01
-5.114281177520751953e-02
-2.026791423559188843e-01
-1.514163017272949219e-01
1.410110741853713989e-01
-3.260361552238464355e-01
-4.790176451206207275e-01
-2.258569896221160889e-01
-1.252115964889526367e-01
-6.015549898147583008e-01
1.176346018910408020e-01
-1.543166786432266235e-01
-2.071453034877777100e-01
-1.728708297014236450e-01
-5.106933042407035828e-02
-3.517588078975677490e-01
-2.510651946067810059e-01
-2.584668695926666260e-01
1.900243163108825684e-01
2.289922386407852173e-01
-2.286001294851303101e-01
-1.166410073637962341e-01
3.367472290992736816e-01
-4.663546979427337646e-01
1.870289295911788940e-01
-1.055035516619682312e-01
-7.857584953308105469e-02
9.349978715181350708e-02
-2.291894555091857910e-01
-1.869167238473892212e-01
-2.028537094593048096e-01
-2.750394940376281738e-01
1.586926402524113655e-03
-3.345206081867218018e-01
-2.078210934996604919e-02
-3.829871714115142822e-01
-1.321363747119903564e-01
-4.863092005252838135e-01
1.039393022656440735e-01
9.295139461755752563e-02
-4.536070227622985840e-01
-3.049399852752685547e-01
-1.690225154161453247e-01
-1.713657528162002563e-01
-1.559235751628875732e-01
-1.661770641803741455e-01
-4.453233480453491211e-01
-3.179424703121185303e-01
-4.511924982070922852e-01
2.721064984798431396e-01
-2.617569863796234131e-01
5.301773920655250549e-02
1.605667173862457275e-02
8.348410576581954956e-02
-3.412485718727111816e-01
4.462979733943939209e-01
-1.591738872230052948e-02
-3.024978339672088623e-01
-1.203070357441902161e-01
1.434255540370941162e-01
-2.989554107189178467e-01
8.781710267066955566e-02
-2.962262928485870361e-01
-2.362540364265441895e-01
-1.625015586614608765e-01
3.864599764347076416e-02
2.270354330539703369e-01
1.010008975863456726e-01
-6.683092117309570312e-01
-1.226640194654464722e-01
-1.646189838647842407e-01
-4.152460396289825439e-01
-6.909805536270141602e-01
1.898269355297088623e-01
-6.283502280712127686e-02
-5.831928923726081848e-02
-6.019942760467529297e-01
3.572076559066772461e-01
-8.615230768918991089e-02
-3.924712836742401123e-01
-2.033283859491348267e-01
-2.543522417545318604e-01
2.514984086155891418e-02
1.844116002321243286e-01
-1.062792465090751648e-01
2.080895239487290382e-03
2.371405996382236481e-02
-2.407820224761962891e-01
-2.027834206819534302e-01
-3.455886542797088623e-01
-5.842859745025634766e-01
1.489360779523849487e-01
-7.183199524879455566e-01
-7.735121529549360275e-03
2.046185880899429321e-01
-2.014391869306564331e-01
6.933788210153579712e-02
-1.749279536306858063e-02
-3.268485367298126221e-01
-1.402179002761840820e-01
2.037518844008445740e-02
-2.634032666683197021e-01
3.071063943207263947e-02
-1.621752828359603882e-01
1.890719234943389893e-01
-1.066944971680641174e-01
3.065857104957103729e-02
-9.220490604639053345e-02
2.705256938934326172e-01
-4.219277203083038330e-02
1.946036368608474731e-01
-9.249866940081119537e-03
1.711246520280838013e-01
1.881749629974365234e-01
-7.677701115608215332e-01
-6.097173094749450684e-01
-3.423545062541961670e-01
-4.335898905992507935e-02
1.371142864227294922e-01
-4.017407894134521484e-01
-2.294111065566539764e-02
4.984731599688529968e-02
-2.835673280060291290e-03
-1.686511933803558350e-01
-7.895074784755706787e-02
-1.880249232053756714e-01
-3.355074208229780197e-03
-3.537740409374237061e-01
-2.886066213250160217e-02
4.552897065877914429e-02
5.017829313874244690e-02
-1.848371326923370361e-02
1.342212110757827759e-01
-3.152183592319488525e-01
-4.949999451637268066e-01
1.950002908706665039e-01
-3.200746178627014160e-01
-7.616971731185913086e-01
-1.456307917833328247e-01
-1.731999777257442474e-02
-1.855140030384063721e-01
-1.367304027080535889e-01
-1.726745367050170898e-01
2.503705024719238281e-01
-3.740041255950927734e-01
1.035902425646781921e-01
-2.331912815570831299e-01
5.183820426464080811e-02
3.311543762683868408e-01
1.236821487545967102e-01
8.680708706378936768e-02
2.131309062242507935e-01
-1.758535802364349365e-01
-2.378001064062118530e-01
-1.331562697887420654e-01
8.140403777360916138e-02
5.263733863830566406e-02
-6.541584432125091553e-02
-2.616467885673046112e-02
-2.964149415493011475e-01
-1.355927735567092896e-01
-4.313776791095733643e-01
6.842256989330053329e-03
-6.901327520608901978e-02
-1.548392772674560547e-01
-7.320212572813034058e-02
-1.126196905970573425e-01
-2.096454948186874390e-01
3.330834805965423584e-01
-1.196241676807403564e-01
-3.336986303329467773e-01
-4.891724586486816406e-01
-1.893382519483566284e-01
1.410333812236785889e-01
5.778707191348075867e-02
-4.582604169845581055e-01
1.976039558649063110e-01
-2.402020692825317383e-01
-5.255602002143859863e-01
-4.538919311016798019e-03
-4.900473356246948242e-02
1.496954709291458130e-01
2.181344479322433472e-01
4.012131690979003906e-01
4.709009453654289246e-02
-4.226486086845397949e-01
4.217301681637763977e-02
3.963475581258535385e-03
2.413428127765655518e-01
1.458922773599624634e-01
-2.250157445669174194e-01
-9.400839358568191528e-02
-4.866550862789154053e-01
8.294409513473510742e-02
-2.080051451921463013e-01
1.918761879205703735e-01
-7.382548600435256958e-02
-4.333496093750000000e-01
1.213286668062210083e-01
1.337162703275680542e-01
-1.687892340123653412e-02
-1.237031668424606323e-01
1.901603490114212036e-01
-6.171286106109619141e-01
-3.133316636085510254e-01
-1.080169454216957092e-01
1.864250451326370239e-01
1.423857510089874268e-01
-1.168301030993461609e-01
-3.593328222632408142e-02
-9.995630383491516113e-02
-6.997867487370967865e-03
-1.181006133556365967e-01
7.694560289382934570e-02
-1.700746715068817139e-01
5.329707637429237366e-02
2.332790195941925049e-01
-4.607252478599548340e-01
-9.886483848094940186e-02
2.788986861705780029e-01
-2.461896538734436035e-01
-4.385077953338623047e-01
4.347071424126625061e-02
8.806897699832916260e-02
-5.731968283653259277e-01
-3.102050423622131348e-01
1.518813818693161011e-01
-2.745080292224884033e-01
-2.819977402687072754e-01
-4.150756634771823883e-03
-5.290271639823913574e-01
1.202639192342758179e-01
-1.132411956787109375e-01
-2.574031800031661987e-02
-2.308398634195327759e-01
2.936196625232696533e-01
6.848005205392837524e-02
-8.613979071378707886e-02
-3.919546008110046387e-01
5.639762803912162781e-02
4.708337485790252686e-01
1.659210324287414551e-01
-6.168927624821662903e-02
-2.754101157188415527e-01
-6.941590309143066406e-01
2.626993693411350250e-02
-2.511429190635681152e-01
-3.162731826305389404e-01
1.277546882629394531e-01
-4.184745624661445618e-02
6.953711807727813721e-02
2.512586712837219238e-01
3.296165764331817627e-01
-1.302868276834487915e-01
2.198006808757781982e-01
9.289577603340148926e-02
-2.458551377058029175e-01
-2.713780105113983154e-01
2.275359034538269043e-01
3.370431661605834961e-01
1.602851897478103638e-01
8.596543967723846436e-02
1.068950667977333069e-01
-1.558743976056575775e-02
9.376922249794006348e-02
-4.133476316928863525e-01
-1.928775906562805176e-01
-5.091526359319686890e-02
-2.912319600582122803e-01
-4.414627254009246826e-01
-1.758847683668136597e-01
-2.530252337455749512e-01
-3.282847702503204346e-01
-1.236574128270149231e-01
5.321175977587699890e-02
2.659281194210052490e-01
-1.425170153379440308e-01
-9.416906163096427917e-03
4.954441264271736145e-02
-5.860732197761535645e-01
-6.774123013019561768e-02
4.488494619727134705e-02
-4.406011104583740234e-02
5.875459685921669006e-02
-3.050334155559539795e-01
3.760105669498443604e-01
-3.642704486846923828e-01
-3.263371288776397705e-01
1.235769838094711304e-01
-5.137973427772521973e-01
-3.179431557655334473e-01
-4.144922494888305664e-01
3.210308402776718140e-02
-2.566627860069274902e-01
-1.161585450172424316e-01
2.010354548692703247e-01
-5.336878895759582520e-01
-4.414453506469726562e-01
3.883692249655723572e-02
1.027791798114776611e-01
5.611219257116317749e-02
5.551553145051002502e-02
-1.271151453256607056e-01
-3.617308139801025391e-01
-3.452729284763336182e-01
2.416103482246398926e-01
-3.628206849098205566e-01
1.388125717639923096e-01
-3.929522261023521423e-02
-9.728530794382095337e-02
-3.963166102766990662e-02
3.027249574661254883e-01
1.705586761236190796e-01
-2.198122814297676086e-02
-1.227874495089054108e-02
1.436410248279571533e-01
-2.804276645183563232e-01
1.716991215944290161e-01
-3.969155251979827881e-01
2.187941968441009521e-01
-4.180203378200531006e-01
3.515585064888000488e-01
-2.292867749929428101e-01
-6.926408410072326660e-02
3.540303707122802734e-01
1.840297132730484009e-01
1.039566285908222198e-02
-1.620529443025588989e-01
6.096740365028381348e-01
2.704116702079772949e-01
-5.097854137420654297e-02
1.032841354608535767e-01
-1.274499110877513885e-02
-1.312590837478637695e-01
-1.146457567811012268e-01
1.213870942592620850e-01
2.565161287784576416e-01
-3.843966722488403320e-01
-2.672343850135803223e-01
6.624726951122283936e-02
-9.214758127927780151e-02
-3.241089284420013428e-01
-1.216493695974349976e-01
1.054112464189529419e-01
-4.863760899752378464e-03
-1.686603277921676636e-01
4.299561679363250732e-01
2.753601074218750000e-01
4.699532389640808105e-01
2.930234670639038086e-01
-2.477048486471176147e-01
5.179005861282348633e-02
-1.983959414064884186e-02
-1.181427463889122009e-01
-1.014172211289405823e-01
1.481921970844268799e-02
-9.757018089294433594e-02
-2.831055223941802979e-01
3.160393834114074707e-01
-4.268948137760162354e-01
1.169660687446594238e-01
-6.870012730360031128e-02
3.258726894855499268e-01
-3.403185307979583740e-01
7.508847117424011230e-02
2.423589080572128296e-01
3.666038811206817627e-01
6.606218963861465454e-02
-3.950183987617492676e-01
-6.329434365034103394e-02
-1.661416143178939819e-02
3.690241277217864990e-02
2.230355292558670044e-01
4.265471100807189941e-01
1.808411478996276855e-01
-2.756165713071823120e-02
1.856237053871154785e-01
-2.668862044811248779e-01
4.053594768047332764e-01
5.816083028912544250e-02
2.794355750083923340e-01
2.946987934410572052e-02
2.862899899482727051e-01
-1.772422194480895996e-01
-1.493413895368576050e-01
7.957804203033447266e-02
-3.273603618144989014e-01
1.844402402639389038e-01
-4.953830242156982422e-01
4.364600777626037598e-02
-4.256801009178161621e-01
-5.961712598800659180e-01
3.153853490948677063e-02
-4.877917766571044922e-01
7.672557234764099121e-02
-9.917633980512619019e-02
-3.661378622055053711e-01
-8.927059918642044067e-02
-8.561023510992527008e-03
-3.030669391155242920e-01
1.382047235965728760e-01
2.270924001932144165e-01
-2.840480953454971313e-02
-2.045812159776687622e-01
-5.179361701011657715e-01
4.728330969810485840e-01
3.185728937387466431e-02
2.112465351819992065e-01
8.240855485200881958e-02
-8.581204712390899658e-02
-1.914193183183670044e-01
2.231724411249160767e-01
-1.345077604055404663e-01
-1.194334030151367188e-01
-2.047492414712905884e-01
2.736546695232391357e-01
2.168257236480712891e-01
-9.166377782821655273e-02
2.088448703289031982e-01
7.454575598239898682e-02
-9.440276771783828735e-02
-2.673383653163909912e-01
2.093801796436309814e-01
-3.122642450034618378e-02
-4.696574062108993530e-02
-2.652729116380214691e-02
-4.794788733124732971e-02
-3.219874948263168335e-02
3.441600799560546875e-01
-4.767910391092300415e-02
-1.772441118955612183e-01
-6.929755210876464844e-02
-1.605140864849090576e-01
1.203148066997528076e-02
3.159788623452186584e-02
-6.933743134140968323e-03
5.571651086211204529e-02
-2.245456874370574951e-01
8.389785885810852051e-01
-3.883901238441467285e-01
-2.489200532436370850e-01
-1.664810478687286377e-01
3.323713541030883789e-01
3.789962828159332275e-01
-9.771565347909927368e-02
-8.837518095970153809e-02
-8.829449862241744995e-02
8.130621165037155151e-02
4.705617949366569519e-02
2.289671301841735840e-01
-7.880054414272308350e-02
2.293780744075775146e-01
3.227060735225677490e-01
4.484754521399736404e-03
1.887199729681015015e-01
1.345298904925584793e-02
-5.022787302732467651e-02
3.382366299629211426e-01
1.646586693823337555e-02
-5.821987986564636230e-01
6.002506241202354431e-02
7.226959615945816040e-02
-3.030105261132121086e-03
-4.832611419260501862e-03
1.980530619621276855e-01
-2.654428184032440186e-01
-1.642460674047470093e-01
1.127046346664428711e-01
3.474499285221099854e-01
1.664702296257019043e-01
3.382464647293090820e-01
2.188793271780014038e-01
-1.665461510419845581e-01
1.843794584274291992e-01
1.732880175113677979e-01
-1.040887832641601562e-01
1.006790846586227417e-01
4.331243783235549927e-02
1.880454570055007935e-01
-1.036952733993530273e-01
4.554887861013412476e-02
2.674952149391174316e-01
-2.002040892839431763e-01
-1.898619979619979858e-01
1.034917905926704407e-01
1.363352984189987183e-01
3.155330428853631020e-03
-2.011398226022720337e-01
-1.395675837993621826e-01
4.477848857641220093e-02
-1.633971780538558960e-01
-2.355852425098419189e-01
2.975079119205474854e-01
-2.559474706649780273e-01
-5.300087854266166687e-02
-5.407190695405006409e-02
-6.231503188610076904e-02
4.032473266124725342e-01
-2.292558103799819946e-01
-1.223946660757064819e-01
-4.877948760986328125e-01
-2.064770907163619995e-01
3.100157678127288818e-01
2.657573483884334564e-02
3.280654847621917725e-01
-4.207907617092132568e-01
5.240368098020553589e-02
2.602424621582031250e-01
-5.925985574722290039e-01
2.265478670597076416e-01
1.994013488292694092e-01
2.244506776332855225e-01
2.288573980331420898e-01
-1.566635668277740479e-01
-4.176251292228698730e-01
-3.404526412487030029e-01
4.802024960517883301e-01
4.555269330739974976e-02
-9.742273017764091492e-03
2.670095115900039673e-02
-1.669264435768127441e-01
-4.283772408962249756e-02
8.123922161757946014e-03
2.426843643188476562e-01
-8.690494112670421600e-03
1.084116846323013306e-01
-2.602616250514984131e-01
-3.487083315849304199e-02
-1.966913789510726929e-01
3.284138441085815430e-02
5.068902373313903809e-01
2.713146805763244629e-01
-5.782514810562133789e-02
2.776163518428802490e-01
1.617155075073242188e-01
1.089460495859384537e-02
2.519285678863525391e-01
1.306730210781097412e-01
-1.288050264120101929e-01
3.034428656101226807e-01
-4.224009066820144653e-02
2.868794202804565430e-01
1.780450530350208282e-02
1.828602999448776245e-01
1.701568067073822021e-01
3.140337169170379639e-01
4.752402305603027344e-01
6.413742154836654663e-02
-1.572386175394058228e-01
-7.755462825298309326e-02
3.186903297901153564e-01
-2.038352042436599731e-01
-1.650874018669128418e-01
-1.089149564504623413e-01
9.313781559467315674e-02
1.196905747056007385e-01
-7.052516192197799683e-02
2.072174847126007080e-01
2.375240176916122437e-01
1.154008973389863968e-02
-1.097756922245025635e-01
-6.419039964675903320e-01
2.558164298534393311e-01
-3.286239504814147949e-01
8.237279206514358521e-02
1.499818563461303711e-01
-4.414211958646774292e-02
-5.586274862289428711e-01
-4.819599911570549011e-02
-3.138726651668548584e-01
-1.600545942783355713e-01
1.087984293699264526e-01
-3.232476487755775452e-02
-1.169280409812927246e-01
-8.302856981754302979e-02
2.041362971067428589e-01
-2.303088605403900146e-01
-6.624783277511596680e-01
-1.897683739662170410e-01
-3.310233354568481445e-01
5.428117886185646057e-02
-3.617173135280609131e-01
-1.607419848442077637e-01
-1.696020662784576416e-01
-2.454783022403717041e-01
-5.364582315087318420e-02
-3.459448516368865967e-01
-5.842500925064086914e-01
-2.259563952684402466e-01
-5.613752603530883789e-01
-3.756340742111206055e-01
-2.831517755985260010e-01
-9.262366592884063721e-02
-7.359867691993713379e-01
-1.740745753049850464e-01
-8.363281488418579102e-01
-8.248801827430725098e-01
6.721592694520950317e-02
-2.262153774499893188e-01
-3.768012225627899170e-01
-9.899688512086868286e-02
-6.446274518966674805e-01
-2.139667570590972900e-01
9.589532390236854553e-03
-4.820351898670196533e-01
9.378039836883544922e-02
-2.581797242164611816e-01
-2.584396302700042725e-01
-9.131885319948196411e-02
-2.624400258064270020e-01
-7.769099473953247070e-01
-2.176731526851654053e-01
-3.982231318950653076e-01
-5.358766913414001465e-01
-7.294321060180664062e-01
-5.705966949462890625e-01
-2.634286582469940186e-01
-8.048829436302185059e-01
-1.717093586921691895e-01
-2.805685400962829590e-01
-2.902106940746307373e-01
-5.882470607757568359e-01
-1.107786893844604492e-01
-3.201501667499542236e-01
-2.461288422346115112e-01
-8.862509727478027344e-01
-5.181688070297241211e-01
-5.710809230804443359e-01
-4.264450669288635254e-01
-7.272767424583435059e-01
9.788670390844345093e-02
-2.864283323287963867e-01
-2.335321307182312012e-01
-5.658457279205322266e-01
2.002785652875900269e-01
-1.328541189432144165e-01
-5.587223172187805176e-01
-2.647159397602081299e-01
-1.442126333713531494e-01
-5.289483070373535156e-01
-6.069727540016174316e-01
-8.048006892204284668e-02
-2.592624723911285400e-01
-4.082210734486579895e-02
4.106661677360534668e-01
-8.045605570077896118e-02
1.649462580680847168e-01
-5.485101938247680664e-01
-2.163072973489761353e-01
-2.278411686420440674e-01
-6.173546314239501953e-01
-6.313424110412597656e-01
-4.993779361248016357e-01
-1.859274953603744507e-01
-3.295327723026275635e-01
-5.334894657135009766e-01
-5.880799293518066406e-01
-1.773678958415985107e-01
-4.688395261764526367e-01
-2.764770686626434326e-01
-2.389333248138427734e-01
7.932397536933422089e-03
-9.426089376211166382e-02
-4.345293939113616943e-01
-5.071203112602233887e-01
-6.136702895164489746e-01
-4.416244924068450928e-01
-4.859736263751983643e-01
-4.216241464018821716e-02
-6.046716570854187012e-01
-6.922038793563842773e-01
-4.145006537437438965e-01
-1.901907771825790405e-01
-1.299451887607574463e-01
-5.056660175323486328e-01
-4.984919130802154541e-01
1.798659749329090118e-02
-2.984183728694915771e-01
-2.659448981285095215e-01
-4.583232402801513672e-01
-5.670481324195861816e-01
-2.950855791568756104e-01
2.151083201169967651e-01
-1.904062181711196899e-01
-6.106523275375366211e-01
-2.809632122516632080e-01
-4.383561313152313232e-01
-2.242907285690307617e-01
-6.217819452285766602e-01
-2.051675617694854736e-01
-2.966879121959209442e-02
-3.648502826690673828e-01
-7.311871051788330078e-01
-5.609146356582641602e-01
-2.814283668994903564e-01
-2.977378368377685547e-01
-8.532754331827163696e-02
-5.532408952713012695e-01
2.684177756309509277e-01
-2.333120107650756836e-01
-2.912567257881164551e-01
-9.829457104206085205e-02
-1.504542678594589233e-01
-9.616199135780334473e-02
-3.093030452728271484e-01
8.606067299842834473e-02
-2.531241774559020996e-01
2.001685053110122681e-01
-7.505621016025543213e-02
-2.875219285488128662e-01
-2.598960325121879578e-02
-6.221715211868286133e-01
-4.093670547008514404e-01
-1.452984064817428589e-01
2.938531339168548584e-02
-1.632201522588729858e-01
-4.270280599594116211e-01
-2.062900513410568237e-01
5.623206123709678650e-02
-5.383843183517456055e-01
7.648412138223648071e-02
-2.440961897373199463e-01
-5.346496701240539551e-01
-3.318018913269042969e-01
-6.577849984169006348e-01
-2.708542644977569580e-01
-4.910973906517028809e-01
1.309522539377212524e-01
-3.113171756267547607e-01
-2.939659655094146729e-01
-4.092061221599578857e-01
-2.563188672065734863e-01
-7.088307142257690430e-01
-2.221524566411972046e-01
-1.101550832390785217e-01
-5.774302780628204346e-02
-3.604944646358489990e-01
1.161425467580556870e-02
-3.382794931530952454e-02
-1.876735240221023560e-01
-6.320859789848327637e-01
-1.853539943695068359e-01
-3.671276271343231201e-01
-3.899188339710235596e-01
-5.192181468009948730e-01
-9.083730578422546387e-01
4.523698613047599792e-02
-8.322315663099288940e-02
-1.203704774379730225e-01
-2.996516227722167969e-01
-4.005987644195556641e-01
-1.124111637473106384e-01
-6.447806954383850098e-01
9.678594768047332764e-02
-9.816496074199676514e-02
-1.332904100418090820e-01
-2.630441784858703613e-01
-1.497666835784912109e-01
-5.171260833740234375e-01
-7.157340645790100098e-01
-2.722640633583068848e-01
-8.315714448690414429e-02
-3.491377830505371094e-02
-2.053664028644561768e-01
3.630169630050659180e-01
-3.895487189292907715e-01
-5.964177846908569336e-01
-4.153751730918884277e-01
-3.588333129882812500e-01
-6.063311696052551270e-01
-3.661188483238220215e-01
-6.569227576255798340e-01
-1.601909101009368896e-01
-3.205041885375976562e-01
-2.383927255868911743e-01
-2.750258445739746094e-01
-1.329246014356613159e-01
-3.464094102382659912e-01
-4.310995340347290039e-01
3.694836422801017761e-02
-5.651282072067260742e-01
-4.305498003959655762e-01
-6.443874835968017578e-01
-4.373922049999237061e-01
-7.281557917594909668e-01
-6.003310903906822205e-02
1.016268134117126465e-01
-8.740408420562744141e-01
-9.363847225904464722e-02
-5.092982649803161621e-01
-3.648444116115570068e-01
-3.230291306972503662e-01
-2.762391567230224609e-01
2.206971794366836548e-01
-5.049631595611572266e-01
-5.233469009399414062e-01
-5.327795743942260742e-01
-3.350263535976409912e-01
-4.547941684722900391e-01
-4.032273292541503906e-01
-2.632233314216136932e-02
-3.290736973285675049e-01
3.939926158636808395e-03
-5.497885495424270630e-02
-3.523901402950286865e-01
-2.590632438659667969e-01
4.134136438369750977e-02
-3.818829357624053955e-01
-3.347237780690193176e-02
-5.716611742973327637e-01
-2.137086540460586548e-01
-1.959650218486785889e-01
-1.698814630508422852e-01
-7.318539619445800781e-01
-2.499200552701950073e-01
-3.819457888603210449e-01
-7.459584474563598633e-01
-2.114843577146530151e-01
-2.370451688766479492e-01
4.249340668320655823e-02
-3.172909319400787354e-01
-1.090600043535232544e-01
-2.037549465894699097e-01
-1.999951899051666260e-01
-4.381856881082057953e-03
-2.487417012453079224e-01
-6.779602169990539551e-01
-2.844302654266357422e-01
6.886023283004760742e-02
-3.078130185604095459e-01
-3.068042099475860596e-01
-2.230347245931625366e-01
