-3.573358952999114990e-01
-3.879140317440032959e-01
-2.629746198654174805e-01
1.222026348114013672e-01
-3.135944604873657227e-01
-2.706669569015502930e-01
-2.248627543449401855e-01
-1.269857734441757202e-01
-2.352788150310516357e-01
-2.872073948383331299e-01
-2.199845761060714722e-01
-4.130327701568603516e-01
-4.433336853981018066e-01
6.564401835203170776e-02
-4.831461310386657715e-01
1.774766445159912109e-01
6.512329727411270142e-02
-7.201031595468521118e-02
1.212768480181694031e-01
-3.190482854843139648e-01
-4.558613896369934082e-01
-3.116491138935089111e-01
-4.020684659481048584e-01
-1.651432923972606659e-02
-2.313107997179031372e-01
-2.646367996931076050e-02
-1.965827643871307373e-01
-1.180395558476448059e-01
-3.361110109835863113e-03
-2.197007089853286743e-01
-4.032131731510162354e-01
9.788002818822860718e-02
-4.759421199560165405e-02
-5.969176888465881348e-01
-2.716400325298309326e-01
-1.497720032930374146e-01
-2.077238261699676514e-01
-3.106825947761535645e-01
-2.751891911029815674e-01
-2.434751689434051514e-01
-1.139394715428352356e-01
-4.206592440605163574e-01
-2.107075303792953491e-01
-1.634519696235656738e-01
-2.737039625644683838e-01
-3.933733403682708740e-01
-9.088235348463058472e-02
-1.749423593282699585e-01
-1.765616983175277710e-01
-1.717141866683959961e-01
-2.070679068565368652e-01
-5.857083201408386230e-01
-1.493914276361465454e-01
-4.884512722492218018e-01
-9.739702939987182617e-02
5.890092998743057251e-02
-3.402076661586761475e-01
-2.192500978708267212e-01
-4.321469664573669434e-01
1.518666446208953857e-01
1.202497705817222595e-01
-2.340382188558578491e-01
-3.006738722324371338e-01
-6.428889185190200806e-02
-5.315744280815124512e-01
-1.852216720581054688e-01
-2.936199605464935303e-01
-1.355226337909698486e-01
-3.282731771469116211e-02
-1.568595170974731445e-01
1.636698842048645020e-01
-1.823753416538238525e-01
-5.727249979972839355e-01
1.995537988841533661e-02
-2.870740294456481934e-01
-2.709020674228668213e-01
-4.202011227607727051e-01
-3.148785233497619629e-01
-1.554705500602722168e-01
-2.197123169898986816e-01
-3.253568112850189209e-01
-1.959746778011322021e-01
2.312011569738388062e-01
-1.683840900659561157e-01
-7.777323573827743530e-02
-1.393767744302749634e-01
-3.187893927097320557e-01
-5.796561241149902344e-01
-3.087399601936340332e-01
3.154578851535916328e-03
-3.302218616008758545e-01
-3.353256285190582275e-01
-1.089615821838378906e-01
-2.861426211893558502e-02
-2.924647629261016846e-01
1.431152597069740295e-02
-2.082010805606842041e-01
-5.414314270019531250e-01
-1.606608331203460693e-01
-2.146432101726531982e-01
-1.953768283128738403e-01
-3.799719214439392090e-01
-4.044325947761535645e-01
-2.790551185607910156e-01
1.234597340226173401e-02
-4.378989338874816895e-01
5.392650887370109558e-02
-1.224208474159240723e-01
-3.101178109645843506e-01
-3.628652393817901611e-01
-4.393264055252075195e-01
8.600807934999465942e-02
-3.440691530704498291e-01
-1.988336145877838135e-01
9.688399732112884521e-02
-2.955773770809173584e-01
-4.677755832672119141e-01
-4.607824981212615967e-01
-3.804273009300231934e-01
-1.344948709011077881e-01
-2.923156023025512695e-01
-3.996156156063079834e-01
2.225329354405403137e-02
-1.672756224870681763e-01
-3.621893227100372314e-01
2.592659927904605865e-02
-2.823002636432647705e-01
-3.558250367641448975e-01
-2.088674455881118774e-01
-3.223516345024108887e-01
-2.339494973421096802e-01
-1.308276355266571045e-01
1.250001192092895508e-01
-1.198719814419746399e-01
-3.971513360738754272e-02
-2.617737352848052979e-01
-2.755281031131744385e-01
-3.524672985076904297e-01
-3.568136692047119141e-01
1.735836565494537354e-01
-1.943908184766769409e-01
-2.060206830501556396e-01
-4.355460405349731445e-01
-1.129466742277145386e-01
-4.795008599758148193e-01
2.608456015586853027e-01
-2.843310534954071045e-01
-5.541469454765319824e-01
-5.948591232299804688e-01
-3.561774790287017822e-01
-2.633406519889831543e-01
-4.337923824787139893e-01
-4.581783413887023926e-01
-2.205592542886734009e-01
8.223567157983779907e-02
-3.192958235740661621e-01
-1.519566476345062256e-01
8.012770861387252808e-02
-4.743447303771972656e-01
-4.452940523624420166e-01
-2.587194144725799561e-01
-5.023740530014038086e-01
-4.363930523395538330e-01
-4.400836303830146790e-02
-2.678484618663787842e-01
1.904886662960052490e-01
1.283873319625854492e-01
-3.438144177198410034e-02
1.620509326457977295e-01
-3.733579218387603760e-01
-2.100128531455993652e-01
-3.479704260826110840e-01
-1.590826809406280518e-01
2.789596794173121452e-03
-3.314051628112792969e-01
-1.532216966152191162e-01
-3.280527591705322266e-01
-2.286828607320785522e-01
-5.780875086784362793e-01
-2.103515863418579102e-01
-1.949697434902191162e-01
-2.045244723558425903e-01
-1.613650657236576080e-02
-3.478312194347381592e-01
-4.187997579574584961e-01
-2.471714019775390625e-01
-4.139949083328247070e-01
-2.026635855436325073e-01
-2.993238270282745361e-01
-5.680425763130187988e-01
-2.029674798250198364e-01
-4.369349777698516846e-01
-4.934047758579254150e-01
3.401319384574890137e-01
-1.282010227441787720e-01
-2.969255745410919189e-01
2.920670509338378906e-01
-4.108875095844268799e-01
-5.830892827361822128e-03
-2.765790820121765137e-01
2.543398439884185791e-01
-2.603163719177246094e-01
6.909494102001190186e-02
-2.540902197360992432e-01
-5.217908620834350586e-01
9.956900030374526978e-02
-1.735263466835021973e-01
-2.889269888401031494e-01
2.012919932603836060e-01
-4.594697654247283936e-01
-5.156831145286560059e-01
-3.524593710899353027e-01
-2.704123407602310181e-02
-5.002486109733581543e-01
-3.679504394531250000e-01
-3.367642462253570557e-01
8.300527930259704590e-02
1.232041120529174805e-01
1.899180747568607330e-02
-1.942080110311508179e-01
3.338919486850500107e-03
-4.810490012168884277e-01
-1.496388167142868042e-01
-5.986757278442382812e-01
-4.924107193946838379e-01
-4.440746009349822998e-01
-1.337946951389312744e-01
-2.313709855079650879e-01
-3.240971863269805908e-01
-1.116248890757560730e-01
-6.901867687702178955e-02
-1.472756564617156982e-01
-3.341485932469367981e-02
-1.030715480446815491e-01
-1.486281901597976685e-01
-1.780495196580886841e-01
-1.860857903957366943e-01
-1.654089093208312988e-01
-2.213925719261169434e-01
-3.357917666435241699e-01
1.961369365453720093e-01
-2.045556157827377319e-01
-2.601898312568664551e-01
-1.585497558116912842e-01
-4.299272000789642334e-01
2.402174659073352814e-02
-1.777997314929962158e-01
-3.063933253288269043e-01
-2.427995949983596802e-02
1.284040212631225586e-01
1.807458698749542236e-02
-3.456364274024963379e-01
-3.027029037475585938e-01
-1.935295164585113525e-01
-2.015775889158248901e-01
-4.367664754390716553e-01
5.063256248831748962e-02
-1.480894684791564941e-01
-8.597471117973327637e-01
1.759286820888519287e-01
7.598718255758285522e-02
-4.313403964042663574e-01
-3.155886232852935791e-01
4.241030663251876831e-02
-4.815514013171195984e-02
-9.344920516014099121e-02
1.238138452172279358e-01
-3.328884243965148926e-01
-3.168114423751831055e-01
-3.920731693506240845e-02
-1.884906440973281860e-01
1.184969767928123474e-01
5.961886644363403320e-01
-3.091663308441638947e-02
2.217940986156463623e-01
-7.511480152606964111e-02
-3.780887648463249207e-02
-1.226831376552581787e-01
5.331875383853912354e-02
-3.341562747955322266e-01
9.557650238275527954e-02
-1.627712249755859375e-01
-1.455814093351364136e-01
-8.211600780487060547e-02
1.017417907714843750e-01
-2.736189365386962891e-01
2.553893625736236572e-01
6.523449718952178955e-02
2.823246121406555176e-01
1.396653056144714355e-01
-3.045485615730285645e-01
-1.722764521837234497e-01
-4.494151473045349121e-02
8.203625329770147800e-04
-2.168260365724563599e-01
-4.796090349555015564e-02
1.313308347016572952e-02
-2.643945813179016113e-01
-1.408636420965194702e-01
1.930641680955886841e-01
-3.231470584869384766e-01
-5.203177332878112793e-01
-9.151511639356613159e-02
-2.957448661327362061e-01
2.058323323726654053e-01
-2.323800027370452881e-01
1.338508278131484985e-01
-8.454282283782958984e-01
1.643527001142501831e-01
-2.980829179286956787e-01
-9.719555824995040894e-02
1.441362351179122925e-01
-1.167233884334564209e-01
-1.590425521135330200e-01
-2.366622090339660645e-01
3.238070523366332054e-03
-3.195650279521942139e-01
2.047894895076751709e-02
-1.792199462652206421e-01
1.699301451444625854e-01
-4.072910249233245850e-01
-1.872417926788330078e-01
-7.676097750663757324e-01
-1.521597504615783691e-01
1.134488135576248169e-01
-1.946931704878807068e-02
3.401890099048614502e-01
-5.166233777999877930e-01
-4.758030772209167480e-01
9.552322328090667725e-02
-2.192855626344680786e-01
1.258045285940170288e-01
-4.400928914546966553e-01
-1.428348720073699951e-01
1.108982339501380920e-01
-1.025403384119272232e-02
-3.398856222629547119e-01
-6.249636039137840271e-02
-4.240116477012634277e-02
-6.262600421905517578e-01
-5.884971097111701965e-02
-3.152279853820800781e-01
1.518721133470535278e-02
-1.563084721565246582e-01
-1.892290860414505005e-01
3.064743429422378540e-02
-1.691809110343456268e-02
-2.313747107982635498e-01
-1.782178133726119995e-01
-3.336927294731140137e-02
-2.748063504695892334e-01
-2.791422009468078613e-01
5.998157337307929993e-02
-3.363770246505737305e-01
1.371125690639019012e-02
3.593697398900985718e-02
-2.311062067747116089e-01
-2.672756016254425049e-01
-1.628014072775840759e-02
6.977904587984085083e-02
-1.840235292911529541e-01
-2.075767517089843750e-01
1.168131455779075623e-01
-8.155957609415054321e-02
-1.978886872529983521e-01
-2.311858721077442169e-02
-7.973355650901794434e-01
8.978225290775299072e-02
-1.345492433756589890e-02
-7.445877790451049805e-01
2.376985251903533936e-01
-6.484950333833694458e-02
-2.238956093788146973e-01
-3.315876424312591553e-01
-6.513420939445495605e-01
3.971397131681442261e-02
-2.285302430391311646e-01
-4.800378084182739258e-01
3.558832034468650818e-02
-9.067118167877197266e-02
-3.948654830455780029e-01
2.546440362930297852e-01
-1.762393563985824585e-01
-2.022809386253356934e-01
-2.461654990911483765e-01
3.767286241054534912e-02
-8.865217864513397217e-02
-3.072017990052700043e-02
1.628386974334716797e-01
-2.046399116516113281e-01
7.720544934272766113e-02
-3.053787648677825928e-01
1.615190953016281128e-01
-1.466267257928848267e-01
-1.118210032582283020e-01
9.811109304428100586e-02
9.960529208183288574e-02
1.945104449987411499e-02
-7.585553079843521118e-02
-5.710924863815307617e-01
-8.109034597873687744e-02
3.245880305767059326e-01
-7.171215862035751343e-02
8.329661190509796143e-02
-3.843116164207458496e-01
-1.262224745005369186e-02
-3.702034354209899902e-01
-5.013044476509094238e-01
-1.965530365705490112e-01
-1.246438622474670410e-01
3.683465719223022461e-02
1.314209401607513428e-01
-7.228832691907882690e-02
-2.181596159934997559e-01
-3.081024885177612305e-01
-2.433890700340270996e-01
-1.504595428705215454e-01
1.624793112277984619e-01
7.003427296876907349e-02
-5.650715902447700500e-02
1.648717075586318970e-01
-4.928398877382278442e-02
1.067935749888420105e-01
-7.172482609748840332e-01
8.312017470598220825e-02
-2.327979169785976410e-02
-1.206893101334571838e-02
-3.624355792999267578e-01
-7.018046081066131592e-02
-5.614861473441123962e-02
6.448823958635330200e-02
-2.254511415958404541e-01
7.834573835134506226e-02
1.489620655775070190e-02
-2.490220665931701660e-01
-9.237937629222869873e-02
3.464985638856887817e-02
-4.334867000579833984e-01
-2.058516442775726318e-01
-4.882619157433509827e-02
1.375214010477066040e-01
-3.562628477811813354e-02
-3.494971245527267456e-02
1.551955640316009521e-01
-7.176211476325988770e-02
-2.197778075933456421e-01
-3.775689378380775452e-02
-3.267045617103576660e-01
-3.029390871524810791e-01
7.430801540613174438e-02
1.756683886051177979e-01
-2.016870677471160889e-02
3.615855798125267029e-02
1.657005697488784790e-01
-8.592388033866882324e-02
1.097736284136772156e-01
2.984711527824401855e-01
-5.167588591575622559e-02
1.192034557461738586e-01
-4.982527792453765869e-01
7.320937514305114746e-02
-6.533461809158325195e-02
-4.809877276420593262e-01
-2.575308680534362793e-01
2.210522294044494629e-01
-4.737526774406433105e-01
-1.690918952226638794e-01
-3.642893433570861816e-01
1.058290228247642517e-01
-4.414936602115631104e-01
-1.338554769754409790e-01
6.757640838623046875e-02
2.446584254503250122e-01
2.228436619043350220e-01
-5.253956913948059082e-01
-1.898442357778549194e-01
1.154783144593238831e-01
-4.580231010913848877e-01
-1.737294942140579224e-01
-1.954334676265716553e-01
-2.507265806198120117e-01
9.475715458393096924e-02
-2.509218640625476837e-02
-1.992614120244979858e-01
-1.835438460111618042e-01
-8.777999132871627808e-02
-1.203867867588996887e-01
-9.274192154407501221e-02
-5.760528892278671265e-02
-1.324853450059890747e-01
1.002378985285758972e-01
-1.132500767707824707e-01
-5.961688607931137085e-02
-6.433458998799324036e-03
-1.500260382890701294e-01
-9.820396453142166138e-02
2.094922661781311035e-01
1.024955138564109802e-01
-1.423211842775344849e-01
-2.394132614135742188e-01
-2.138244509696960449e-01
9.071835130453109741e-02
-3.057362139225006104e-02
-1.211501285433769226e-01
-1.369726508855819702e-01
2.733851373195648193e-01
-3.041341342031955719e-02
-4.836022853851318359e-01
1.280243843793869019e-01
-2.153721824288368225e-02
-9.399171173572540283e-02
-3.390265405178070068e-01
-2.383383661508560181e-01
1.200945526361465454e-01
6.745463609695434570e-01
4.239910542964935303e-01
2.635861933231353760e-01
-6.534580141305923462e-02
5.386637523770332336e-02
-2.417072653770446777e-01
2.622630000114440918e-01
4.961611703038215637e-02
3.518597185611724854e-01
1.030052080750465393e-01
7.687771320343017578e-02
2.187228351831436157e-01
8.173780888319015503e-02
3.022709488868713379e-01
3.456999063491821289e-01
-2.683336436748504639e-01
4.321224391460418701e-01
-1.098293289542198181e-01
-1.712690889835357666e-01
3.134124279022216797e-01
-2.546780407428741455e-01
-1.973250508308410645e-01
2.411264553666114807e-02
-5.375593900680541992e-01
8.263418078422546387e-02
-1.656169742345809937e-01
-3.395251035690307617e-01
1.851473152637481689e-01
-1.174017861485481262e-01
5.210260748863220215e-01
3.700995743274688721e-01
7.458289712667465210e-02
-7.547393441200256348e-02
-1.783438622951507568e-01
1.913054101169109344e-02
4.057722166180610657e-02
2.931011915206909180e-01
5.042709526605904102e-04
-2.641827464103698730e-01
7.652077823877334595e-02
-2.378814667463302612e-01
-3.060888946056365967e-01
2.534647583961486816e-01
-1.958928406238555908e-01
-3.497393727302551270e-01
-1.896006464958190918e-01
-1.128736585378646851e-01
2.287427037954330444e-01
1.370427664369344711e-02
-3.135958686470985413e-03
-1.874681711196899414e-01
-1.111519336700439453e-01
-1.509470790624618530e-01
5.776801332831382751e-02
6.007407233119010925e-02
-1.600252836942672729e-01
1.842122077941894531e-01
2.924861311912536621e-01
-2.805202901363372803e-01
1.446149349212646484e-01
-3.278239369392395020e-01
-2.720925509929656982e-01
-2.382650412619113922e-02
-3.774536028504371643e-02
-3.066633343696594238e-01
-1.381569653749465942e-01
-4.265056252479553223e-01
-1.771292984485626221e-01
5.160342454910278320e-01
-2.337149530649185181e-01
2.814446985721588135e-01
-2.447801232337951660e-01
6.038850545883178711e-02
3.294955193996429443e-02
1.580539345741271973e-01
-3.660614788532257080e-02
2.497628182172775269e-01
1.231870949268341064e-01
3.778314590454101562e-02
1.221388652920722961e-01
3.327288925647735596e-01
-7.196648120880126953e-01
-2.665439844131469727e-01
-1.021843478083610535e-01
-6.218737363815307617e-02
2.054322510957717896e-01
-3.795289993286132812e-01
-4.462549090385437012e-02
3.072722554206848145e-01
6.628721952438354492e-02
-1.522107701748609543e-02
2.146351784467697144e-01
-2.788750827312469482e-01
-2.518794536590576172e-01
-4.718753397464752197e-01
-3.305379450321197510e-01
6.256707012653350830e-02
1.494663804769515991e-01
1.525971442461013794e-01
2.042570412158966064e-01
-2.208796888589859009e-01
-2.257736958563327789e-02
2.369465231895446777e-01
3.174852728843688965e-01
2.321970313787460327e-01
1.723462343215942383e-01
2.552344202995300293e-01
1.627016663551330566e-01
1.954899132251739502e-01
-2.466509491205215454e-01
-3.329961001873016357e-02
-3.220416232943534851e-02
-2.586226165294647217e-01
1.052983775734901428e-01
4.268401861190795898e-02
4.569463804364204407e-02
3.858975768089294434e-01
-3.696045875549316406e-01
2.898879349231719971e-01
-7.539252936840057373e-02
-3.008909523487091064e-01
1.905201822519302368e-01
-7.331427931785583496e-02
1.420828551054000854e-01
4.708578437566757202e-02
-3.552814200520515442e-02
9.886902570724487305e-02
2.355810403823852539e-01
1.126501709222793579e-01
-8.483134210109710693e-02
-4.630796313285827637e-01
1.216500531882047653e-02
-1.365087777376174927e-01
1.485999226570129395e-01
-2.341722846031188965e-01
-1.655185967683792114e-01
-1.825530827045440674e-01
-5.205432698130607605e-02
3.453941643238067627e-01
7.852040976285934448e-02
-1.521595269441604614e-01
7.532860338687896729e-02
1.899659484624862671e-01
-3.056951165199279785e-01
2.000539749860763550e-01
1.094489619135856628e-01
-8.395867049694061279e-02
-3.681121766567230225e-02
9.887847304344177246e-02
-4.819122850894927979e-01
1.995678097009658813e-01
-4.861911833286285400e-01
5.656654760241508484e-02
7.761685177683830261e-03
-3.071434199810028076e-01
1.351355910301208496e-01
1.115307584404945374e-01
-2.263281308114528656e-02
1.723306179046630859e-01
-1.807460784912109375e-01
-2.285550832748413086e-01
3.702059090137481689e-01
-1.777328401803970337e-01
6.150063127279281616e-02
-5.492464303970336914e-01
4.285119473934173584e-01
-3.994128704071044922e-01
-7.490557432174682617e-02
-1.494198590517044067e-01
2.688050568103790283e-01
-1.706691458821296692e-02
4.613458812236785889e-01
2.656760513782501221e-01
-2.152728736400604248e-01
-2.856890857219696045e-01
1.450501531362533569e-01
1.359878480434417725e-02
2.950122952461242676e-01
-1.697054207324981689e-01
5.567540526390075684e-01
-1.857001483440399170e-01
2.696542441844940186e-02
9.079425781965255737e-02
2.397899050265550613e-03
-2.349127680063247681e-01
2.292020022869110107e-01
-2.236700430512428284e-02
7.716332376003265381e-02
7.301454246044158936e-02
-3.567520976066589355e-01
4.712274670600891113e-02
-4.024732485413551331e-02
-2.919654548168182373e-01
1.378580927848815918e-01
3.188538253307342529e-01
6.618141382932662964e-02
-3.358587324619293213e-01
3.771248161792755127e-01
5.252947211265563965e-01
-5.503835622221231461e-03
3.603121042251586914e-01
2.496347296983003616e-03
-5.026808008551597595e-02
-3.289989009499549866e-02
-4.442494511604309082e-01
2.038730867207050323e-02
-2.071698009967803955e-01
-1.635853499174118042e-01
9.526006132364273071e-02
-1.183738186955451965e-01
1.252530142664909363e-02
2.701899409294128418e-02
2.107803672552108765e-01
2.746445536613464355e-01
-5.931956768035888672e-01
-3.892359435558319092e-01
-4.442663192749023438e-01
1.153916269540786743e-01
1.994089186191558838e-01
-4.038080945611000061e-02
-2.439182400703430176e-01
-2.890234589576721191e-01
-2.939370274543762207e-01
-1.684862524271011353e-01
-2.580245770514011383e-02
-1.938286274671554565e-01
-4.799220860004425049e-01
7.779010385274887085e-02
4.099971801042556763e-02
-1.035575196146965027e-01
1.027197763323783875e-01
-3.412617743015289307e-01
-1.467226594686508179e-01
-2.697547078132629395e-01
-1.287214010953903198e-01
-1.050619706511497498e-01
-9.863395988941192627e-02
-9.702827036380767822e-02
-9.492634981870651245e-02
1.872503459453582764e-01
3.048498034477233887e-01
-3.852541446685791016e-01
-2.235587835311889648e-01
-4.636211693286895752e-01
3.946206346154212952e-02
2.126522362232208252e-01
1.693814806640148163e-02
-2.417237311601638794e-01
1.951283961534500122e-01
-1.050616130232810974e-01
1.359514892101287842e-01
-2.168168276548385620e-01
1.519842594861984253e-01
1.331093311309814453e-01
-1.320700645446777344e-01
-4.908064305782318115e-01
-1.305742710828781128e-01
2.897565066814422607e-01
-5.051215291023254395e-01
2.994315698742866516e-02
-3.050373494625091553e-01
-7.587732672691345215e-01
-3.384085744619369507e-02
-4.515697807073593140e-02
-7.116442918777465820e-01
-4.421480894088745117e-01
-2.140860855579376221e-01
-7.883785367012023926e-01
-6.213173270225524902e-03
-2.679401636123657227e-01
-5.822720378637313843e-02
-2.419177442789077759e-01
-3.738155588507652283e-02
-3.740952014923095703e-01
-1.065052151679992676e-01
-3.197199851274490356e-02
-7.483383417129516602e-01
-1.069442331790924072e-01
-4.295582771301269531e-01
-1.492888927459716797e-01
-4.390626400709152222e-02
-6.152467131614685059e-01
-5.238138437271118164e-01
-6.102658510208129883e-01
6.464929133653640747e-02
1.773890852928161621e-01
-5.797529220581054688e-02
4.117401242256164551e-01
-4.013182222843170166e-01
-1.516428291797637939e-01
-3.305356204509735107e-01
-3.112984597682952881e-01
-7.070854902267456055e-01
-3.936908245086669922e-01
-3.288753032684326172e-01
-2.527396380901336670e-01
1.915289461612701416e-01
8.674719370901584625e-03
-6.688817143440246582e-01
-5.238629579544067383e-01
-2.403030991554260254e-01
-5.442550778388977051e-01
-4.239330589771270752e-01
-5.972133278846740723e-01
-2.682610414922237396e-03
-6.741316318511962891e-01
-1.113704293966293335e-01
-2.472313344478607178e-01
-5.169509649276733398e-01
-5.459296703338623047e-01
-6.536185741424560547e-01
-5.136422514915466309e-01
-7.191915512084960938e-01
-6.148352026939392090e-01
-2.039878815412521362e-01
-1.917030960321426392e-01
-4.623727202415466309e-01
-4.524500966072082520e-01
-3.116743862628936768e-01
-2.152066528797149658e-01
-4.819410443305969238e-01
-1.763411313295364380e-01
-5.789664983749389648e-01
-7.257050275802612305e-01
3.549289107322692871e-01
-5.899977087974548340e-01
-5.177764892578125000e-01
1.685725450515747070e-01
-5.697798132896423340e-01
-9.199208021163940430e-02
-1.888032108545303345e-01
-4.222406744956970215e-01
2.265141755342483521e-01
-1.902574896812438965e-01
-2.231691628694534302e-01
-1.456345170736312866e-01
-1.762368232011795044e-01
-4.748592618852853775e-03
-5.824258923530578613e-01
-2.791112363338470459e-01
-3.125053942203521729e-01
-4.306876957416534424e-01
-2.939049601554870605e-01
-5.303491950035095215e-01
-6.268973350524902344e-01
-2.729112207889556885e-01
-6.305051445960998535e-01
-2.723307311534881592e-01
-5.092876553535461426e-01
1.214579492807388306e-01
-3.875737190246582031e-01
-4.297250807285308838e-01
6.950276292627677321e-05
-4.545192718505859375e-01
-4.847379326820373535e-01
-4.355686306953430176e-01
-6.717223525047302246e-01
-5.344690084457397461e-01
-2.137948274612426758e-01
-2.641918063163757324e-01
-1.810081005096435547e-01
-2.740528583526611328e-01
-2.169801592826843262e-01
-4.804399907588958740e-01
-5.214735865592956543e-01
-1.997689157724380493e-01
4.207250848412513733e-02
-3.035103082656860352e-01
-2.189006656408309937e-01
-4.612795114517211914e-01
-3.029406666755676270e-01
-5.409384369850158691e-01
-1.238240376114845276e-01
-4.101491272449493408e-01
-2.748959958553314209e-01
-2.736204862594604492e-01
-2.945957779884338379e-01
-1.237386092543601990e-01
2.706080079078674316e-01
-3.143692612648010254e-01
-5.813029408454895020e-01
-5.011736750602722168e-01
-5.286617279052734375e-01
1.265477091073989868e-01
-3.064654171466827393e-01
-4.139586985111236572e-01
-1.195192635059356689e-01
-1.261246390640735626e-02
-2.465065121650695801e-01
-2.441148906946182251e-01
-1.144266277551651001e-01
-5.616854429244995117e-01
-1.872935146093368530e-01
-4.070191383361816406e-01
-1.309452056884765625e-01
-2.386825233697891235e-01
-4.419280886650085449e-01
-7.627371698617935181e-02
-4.311485588550567627e-01
-3.179418444633483887e-01
-4.888370931148529053e-01
-2.754476070404052734e-01
-2.766762673854827881e-01
-5.170736908912658691e-01
-3.101032972335815430e-01
-3.599976897239685059e-01
-3.778990805149078369e-01
-2.682204544544219971e-01
-4.032419025897979736e-01
-5.816685035824775696e-02
-1.121418029069900513e-01
-6.295599341392517090e-01
1.846485212445259094e-02
-5.914170742034912109e-01
-8.176338076591491699e-01
-1.144082546234130859e-01
1.677079349756240845e-01
5.617391318082809448e-02
-2.357799857854843140e-01
-6.090204715728759766e-01
-2.744321227073669434e-01
-1.527154296636581421e-01
-3.794699534773826599e-02
4.223622381687164307e-02
-1.722784042358398438e-01
4.228162020444869995e-02
-2.058218270540237427e-01
-2.958776652812957764e-01
-1.349849551916122437e-01
-3.914290666580200195e-01
-1.779730021953582764e-01
-2.406927198171615601e-01
-4.420139193534851074e-01
1.260983943939208984e-01
-1.824491769075393677e-01
-3.815537393093109131e-01
-1.067169755697250366e-01
-1.503783315420150757e-01
5.310174543410539627e-03
-6.699509173631668091e-02
-3.833749592304229736e-01
-2.907657325267791748e-01
-2.534767091274261475e-01
-1.003476791083812714e-02
-3.177558779716491699e-01
-4.145043790340423584e-01
-1.231486424803733826e-01
-8.186011910438537598e-01
2.790060639381408691e-01
-4.912622869014739990e-01
-3.704713582992553711e-01
-4.786899983882904053e-01
-6.618164777755737305e-01
-4.163428843021392822e-01
-3.687208294868469238e-01
-5.902093276381492615e-02
-1.941209733486175537e-01
-2.113429158926010132e-01
-6.538369506597518921e-02
-6.414610147476196289e-01
1.521542221307754517e-01
-3.842741847038269043e-01
2.327953875064849854e-01
-3.118407428264617920e-01
-1.824175417423248291e-01
-4.595642983913421631e-01
-4.118393957614898682e-01
-3.131198585033416748e-01
-1.283520907163619995e-01
-3.279460072517395020e-01
6.947050243616104126e-02
-4.119473695755004883e-01
1.316016912460327148e-01
-7.562263607978820801e-01
-6.775524616241455078e-01
-2.445481866598129272e-01
-2.141686901450157166e-02
1.434355378150939941e-01
-3.602760136127471924e-01
-2.849217355251312256e-01
-6.706560254096984863e-01
-7.402672767639160156e-01
-1.209717243909835815e-01
-8.675547838211059570e-01
-1.733480691909790039e-01
-3.153910934925079346e-01
-3.339611589908599854e-01
-5.049315690994262695e-01
-1.645393222570419312e-01
-4.889820516109466553e-01
1.417616307735443115e-01
-2.205647230148315430e-01
-2.826681137084960938e-01
-6.656908392906188965e-01
-2.373528927564620972e-01
-4.416516423225402832e-01
-6.470364928245544434e-01
-5.884185433387756348e-02
-3.285362422466278076e-01
-1.274456456303596497e-02
2.428048290312290192e-03
-9.437763094902038574e-01
-6.616224050521850586e-01
-4.138689935207366943e-01
-2.045828290283679962e-02
-4.267240688204765320e-02
7.299198955297470093e-02
1.085777208209037781e-01
-5.328457951545715332e-01
-4.556165933609008789e-01
