3.068840801715850830e-01 -7.431011646986007690e-02 4.927805662155151367e-01 2.014175653457641602e-01 3.115628957748413086e-01 5.900108814239501953e-01 3.134338930249214172e-02 2.137770652770996094e-01 3.556182682514190674e-01 4.072837904095649719e-02 -4.058832824230194092e-01 3.579005599021911621e-01 -4.462809115648269653e-02 -4.037744402885437012e-01 -3.362633883953094482e-01 -3.013541698455810547e-01 -2.115429639816284180e-01 4.832096165046095848e-04 -4.955933988094329834e-02 3.028154969215393066e-01 -7.428810745477676392e-02 1.610877066850662231e-01 1.794757843017578125e-01 9.746384806931018829e-03 -2.368480712175369263e-01 -6.778176873922348022e-02 1.765637099742889404e-01 -1.791587322950363159e-01 -5.363780260086059570e-02 1.317454129457473755e-01 5.829596519470214844e-02
3.575865030288696289e-01 1.701871007680892944e-01 -1.811732649803161621e-01 -1.270186752080917358e-01 -1.482986658811569214e-01 -2.034025490283966064e-01 1.704043000936508179e-01 1.142565086483955383e-01 1.339554786682128906e-01 6.177552416920661926e-02 -3.579348325729370117e-01 9.053976088762283325e-02 -1.862261742353439331e-01 -7.722621411085128784e-02 -4.566813111305236816e-01 2.981194257736206055e-01 2.924872934818267822e-01 -1.860129088163375854e-01 -4.019993841648101807e-01 4.950459003448486328e-01 3.383704125881195068e-01 -2.265864759683609009e-01 -9.553270787000656128e-02 2.295543551445007324e-01 -3.525149524211883545e-01 -3.392448648810386658e-02 3.253155946731567383e-01 2.637258172035217285e-02 9.634432196617126465e-02 -7.654206454753875732e-02 1.391331553459167480e-01
-3.960357308387756348e-01 4.530031383037567139e-01 1.080995723605155945e-01 1.011216118931770325e-01 2.514155639801174402e-04 -5.120569467544555664e-01 -6.704872846603393555e-02 -2.995444238185882568e-01 2.083619982004165649e-01 3.620902448892593384e-02 1.598694324493408203e-01 1.929096579551696777e-01 1.044899150729179382e-01 -2.942959778010845184e-02 -1.544926501810550690e-02 -2.203959375619888306e-01 1.433592587709426880e-01 2.794821560382843018e-01 1.038203537464141846e-01 -6.889183819293975830e-02 1.579301059246063232e-02 1.530572623014450073e-01 2.257450819015502930e-01 3.042388260364532471e-01 2.179693281650543213e-01 -4.494056478142738342e-02 -1.308610290288925171e-01 5.106670781970024109e-03 1.497494131326675415e-01 -6.158154457807540894e-02 5.572828650474548340e-02
4.680922925472259521e-01 -3.335027992725372314e-01 5.874092690646648407e-03 2.367335259914398193e-01 1.728377193212509155e-01 -9.847775846719741821e-02 1.831244826316833496e-01 -2.565510571002960205e-01 -6.715080738067626953e-01 1.276935487985610962e-01 6.388047337532043457e-01 4.811809062957763672e-01 5.085557103157043457e-01 -8.618848323822021484e-01 -1.976303607225418091e-01 3.863649666309356689e-01 -2.927899360656738281e-01 -5.844045877456665039e-01 -5.034633446484804153e-03 -1.353415399789810181e-01 -3.117870092391967773e-01 3.055220842361450195e-02 -1.339215040206909180e-01 2.314767837524414062e-01 9.253114461898803711e-01 -6.566993892192840576e-02 1.464104205369949341e-01 1.007541060447692871e+00 4.069560766220092773e-01 1.642177999019622803e-01 -8.002106547355651855e-01
1.589172482490539551e-01 -1.013859584927558899e-01 -2.514187991619110107e-02 -1.905870288610458374e-01 -2.173482179641723633e-01 4.315494596958160400e-01 4.310014545917510986e-01 1.049343049526214600e-01 -1.408818513154983521e-01 -3.867557048797607422e-01 -5.903149843215942383e-01 -4.069784283638000488e-01 4.490100145339965820e-01 -5.061656236648559570e-01 -3.079961836338043213e-01 -1.248844042420387268e-01 2.630396783351898193e-01 -1.379299312829971313e-01 -1.682250201702117920e-02 5.582139492034912109e-01 5.644572377204895020e-01 2.952638268470764160e-01 1.437550336122512817e-01 5.854276418685913086e-01 2.716645896434783936e-01 -4.506535828113555908e-01 -4.329153597354888916e-01 5.975043177604675293e-01 -3.453853428363800049e-01 -1.586440578103065491e-02 9.727330505847930908e-02
2.488384395837783813e-01 4.890357330441474915e-02 -1.422677487134933472e-01 -1.717313379049301147e-01 -4.181535840034484863e-01 -2.698148488998413086e-01 4.295262694358825684e-01 -3.520814776420593262e-01 -4.303309321403503418e-01 1.820208579301834106e-01 -2.475738152861595154e-02 4.616585671901702881e-01 -2.018464505672454834e-01 -1.193283721804618835e-01 -3.266602158546447754e-01 4.856653213500976562e-01 -3.330389857292175293e-01 -3.544783890247344971e-01 -2.966076433658599854e-01 5.506737232208251953e-01 4.550983384251594543e-02 8.643067628145217896e-02 -4.628201127052307129e-01 -3.450297415256500244e-01 4.531669616699218750e-02 3.349425494670867920e-01 3.796199560165405273e-01 1.922936551272869110e-02 -7.509975880384445190e-02 -1.424397826194763184e-01 2.295937389135360718e-01
1.162828952074050903e-01 2.780106365680694580e-01 9.399233013391494751e-02 1.927156001329421997e-01 4.226849973201751709e-02 6.307160854339599609e-01 9.862175583839416504e-01 8.455246686935424805e-02 1.869433075189590454e-01 2.370399236679077148e-01 -5.745222568511962891e-01 -1.216254476457834244e-02 -2.925610840320587158e-01 -2.572896778583526611e-01 -1.033708333969116211e+00 4.358049631118774414e-01 2.822238802909851074e-01 -6.626505255699157715e-01 -8.016268014907836914e-01 6.629199385643005371e-01 6.972451210021972656e-01 -1.877561211585998535e-01 -5.630161166191101074e-01 1.901278346776962280e-01 8.853446692228317261e-02 -5.832896232604980469e-01 -2.299780994653701782e-01 2.902376949787139893e-01 1.852937787771224976e-01 -2.050629071891307831e-02 -3.558982610702514648e-01
5.401226878166198730e-01 1.548254489898681641e-01 2.573600113391876221e-01 4.930566251277923584e-02 -3.001956939697265625e-01 -5.482866615056991577e-02 4.141710326075553894e-02 -1.586060076951980591e-01 1.806448400020599365e-02 -1.960736215114593506e-01 -7.027573138475418091e-02 1.268088370561599731e-01 5.568690132349729538e-03 4.066001623868942261e-02 1.270094066858291626e-01 -1.766321435570716858e-02 -2.507294341921806335e-02 -1.267656981945037842e-01 3.895745798945426941e-02 9.535241872072219849e-02 1.904939860105514526e-01 9.654177725315093994e-02 -1.137131601572036743e-01 -4.381893575191497803e-02 -9.095402061939239502e-02 1.465152204036712646e-01 -1.944673359394073486e-01 -9.061980247497558594e-02 -6.219092756509780884e-02 -1.505651175975799561e-01 2.921980619430541992e-01
-3.514379560947418213e-01 1.114577651023864746e-01 2.805554866790771484e-01 4.799548685550689697e-01 -3.923812136054039001e-02 -1.279684305191040039e-01 -3.285783156752586365e-02 4.650017023086547852e-01 1.921067237854003906e-01 6.947672367095947266e-01 3.015040159225463867e-01 1.768853366374969482e-01 -1.502849906682968140e-01 -1.822179257869720459e-01 1.187605485320091248e-01 -2.466728985309600830e-01 6.892742961645126343e-02 1.379558742046356201e-01 1.220285445451736450e-01 2.075029611587524414e-01 1.647201180458068848e-01 2.109978906810283661e-02 -1.871732622385025024e-01 1.358679533004760742e-01 2.753164470195770264e-01 -1.921580433845520020e-01 -1.556514054536819458e-01 -1.790009066462516785e-02 1.038266569375991821e-01 -5.958598572760820389e-03 2.096813730895519257e-02
2.225880473852157593e-01 -2.755062878131866455e-01 -5.100442469120025635e-02 1.104581728577613831e-01 2.204440832138061523e-01 2.817902266979217529e-01 -1.452544480562210083e-01 -3.406438529491424561e-01 2.248169034719467163e-01 1.650101095438003540e-01 -2.901948392391204834e-01 7.324968278408050537e-02 -2.897163480520248413e-02 -2.815859317779541016e-01 -1.742521971464157104e-01 -6.910974979400634766e-01 1.935509741306304932e-01 -1.816771775484085083e-01 1.213420741260051727e-02 2.205552300438284874e-03 1.180227249860763550e-01 -1.738269478082656860e-01 6.078850626945495605e-01 9.818496555089950562e-02 -1.721606105566024780e-01 -3.458549082279205322e-01 5.703769996762275696e-02 -4.140977188944816589e-02 4.017658829689025879e-01 3.510179817676544189e-01 -1.852045506238937378e-01
5.718858838081359863e-01 -1.136247888207435608e-01 9.908340126276016235e-02 -1.396516989916563034e-02 -4.141806811094284058e-02 -8.601046353578567505e-02 -1.121387584134936333e-03 -1.081648282706737518e-02 2.752777636051177979e-01 -1.897449791431427002e-01 7.312234640121459961e-01 -2.477441877126693726e-01 -2.555650174617767334e-01 4.270540177822113037e-01 2.112627625465393066e-01 1.189562007784843445e-01 -3.827830255031585693e-01 2.505014240741729736e-01 1.951214224100112915e-01 2.217896729707717896e-01 1.330171227455139160e-01 -9.192730486392974854e-02 -9.340105205774307251e-02 -6.579077243804931641e-02 2.152067869901657104e-01 -7.203537225723266602e-02 -2.469561398029327393e-01 1.593240946531295776e-01 -1.068115904927253723e-01 -1.725831925868988037e-01 -2.922036647796630859e-01
4.146198630332946777e-01 1.568346917629241943e-01 1.285891234874725342e-01 2.704493105411529541e-01 1.653306931257247925e-01 9.850776195526123047e-02 3.743722736835479736e-01 5.825783014297485352e-01 -5.376900434494018555e-01 8.013055473566055298e-02 -8.131416887044906616e-02 4.780730307102203369e-01 4.754038453102111816e-01 -1.375311911106109619e-01 -6.392279267311096191e-02 2.004302889108657837e-01 -4.172461032867431641e-01 -1.055737510323524475e-01 -1.703989654779434204e-01 1.807579249143600464e-01 -1.144388616085052490e-01 2.911521792411804199e-01 -8.524587750434875488e-01 -2.009349316358566284e-01 6.314346194267272949e-02 4.487476646900177002e-01 2.504704706370830536e-02 -1.752465069293975830e-01 -3.211428821086883545e-01 3.642525374889373779e-01 7.988324761390686035e-02
3.204933404922485352e-01 5.949167609214782715e-01 -2.278796434402465820e-01 -3.365147113800048828e-01 -3.285001814365386963e-01 -9.177286028861999512e-01 1.345404982566833496e-01 1.417795866727828979e-01 7.840814441442489624e-02 2.349207848310470581e-01 -4.008471593260765076e-02 2.972196936607360840e-01 -3.260654509067535400e-01 3.641196712851524353e-02 -8.662398904561996460e-02 2.199418991804122925e-01 2.993436902761459351e-02 7.214274257421493530e-02 3.031185828149318695e-02 -5.416051298379898071e-02 -4.886541143059730530e-02 -1.259858906269073486e-02 9.129838645458221436e-02 1.088984087109565735e-01 -1.492017209529876709e-01 5.484508872032165527e-01 2.971737384796142578e-01 -7.289838045835494995e-02 1.768297553062438965e-01 -3.360965549945831299e-01 1.173540800809860229e-01
2.287482172250747681e-01 -5.475267171859741211e-01 -1.036166995763778687e-01 3.253298103809356689e-01 6.457886099815368652e-02 1.930304914712905884e-01 -6.422583479434251785e-03 -1.234574615955352783e-01 4.057588279247283936e-01 1.446109861135482788e-01 3.772661387920379639e-01 1.667869538068771362e-01 -4.295821115374565125e-02 3.453718423843383789e-01 2.417588382959365845e-01 8.469111919403076172e-01 -4.240264594554901123e-01 -1.596203595399856567e-01 -1.076487898826599121e-01 3.369082808494567871e-01 -4.416413605213165283e-01 -3.724507987499237061e-01 2.451379895210266113e-01 9.575089067220687866e-02 1.579217761754989624e-01 -2.126374095678329468e-02 2.940039038658142090e-01 2.593228220939636230e-01 1.834556013345718384e-01 -4.570378661155700684e-01 -6.267083436250686646e-02
-1.221975803375244141e+00 -2.139495760202407837e-01 -1.578167378902435303e-01 4.996321722865104675e-02 6.428967416286468506e-02 7.593440413475036621e-01 5.400040149688720703e-01 -6.160456221550703049e-03 5.413619801402091980e-02 1.063459292054176331e-01 2.255437150597572327e-02 -2.507219314575195312e-01 -1.453711241483688354e-01 6.349191069602966309e-02 -1.010771375149488449e-03 -2.721279263496398926e-01 -4.693616926670074463e-02 -2.138572931289672852e-01 -2.012457847595214844e-01 -1.850061714649200439e-01 1.668653450906276703e-02 2.492880523204803467e-01 -7.555533051490783691e-01 4.741020202636718750e-01 1.142891645431518555e-01 -8.733653277158737183e-02 1.395443081855773926e-01 2.804004251956939697e-01 2.214835435152053833e-01 1.671868413686752319e-01 -2.159633040428161621e-01
5.669736862182617188e-01 4.196200892329216003e-02 8.773425221443176270e-02 2.818201780319213867e-01 -3.208764269948005676e-02 -2.178272008895874023e-01 -2.669415436685085297e-02 -7.059118151664733887e-02 1.181991100311279297e-01 -2.516856193542480469e-01 1.968219578266143799e-01 6.140326336026191711e-02 -1.014796495437622070e-01 -3.302558511495590210e-02 1.766737736761569977e-02 -7.838516682386398315e-02 -2.590636312961578369e-01 5.204473808407783508e-02 1.287170350551605225e-01 2.212312072515487671e-01 1.197277605533599854e-01 7.871320843696594238e-02 -4.747205600142478943e-02 -1.786591112613677979e-01 1.100351661443710327e-01 -4.188761711120605469e-01 -3.778106868267059326e-01 2.721635624766349792e-03 -7.288055866956710815e-02 -3.068445064127445221e-02 -7.959549129009246826e-02
8.301515579223632812e-01 3.477804958820343018e-01 3.010709881782531738e-01 1.523324400186538696e-01 2.006731778383255005e-01 1.705292314291000366e-01 -1.480715628713369370e-02 8.072771131992340088e-03 2.987707555294036865e-01 9.738896787166595459e-02 -3.460379689931869507e-02 -6.287477165460586548e-02 1.414687484502792358e-01 1.733144968748092651e-01 -2.732739448547363281e-01 1.877837926149368286e-01 9.178523719310760498e-02 -1.335958540439605713e-01 -2.687235772609710693e-01 -9.707136452198028564e-02 1.471154838800430298e-01 -2.825363539159297943e-02 -3.634516149759292603e-02 -4.393743574619293213e-01 -1.316396147012710571e-01 -1.774984449148178101e-01 -3.130388855934143066e-01 7.442591339349746704e-02 -7.448744028806686401e-02 2.297711968421936035e-01 1.570605486631393433e-01
7.666766643524169922e-01 1.040240675210952759e-01 3.196016848087310791e-01 2.119842320680618286e-01 6.178126111626625061e-02 2.784624397754669189e-01 -1.044839844107627869e-01 -1.207360252737998962e-01 -7.978738285601139069e-03 -3.852656483650207520e-01 -1.193361654877662659e-01 -5.139039829373359680e-02 -3.936099708080291748e-01 -4.999598488211631775e-02 -2.563823945820331573e-02 -1.383649557828903198e-01 -2.698501050472259521e-01 -1.079227123409509659e-02 7.783156819641590118e-03 -5.404497683048248291e-02 -1.941332817077636719e-01 -1.216649264097213745e-01 6.248747557401657104e-02 5.438588093966245651e-03 -1.581750661134719849e-01 -1.801499426364898682e-01 -1.840680092573165894e-01 -8.747611194849014282e-02 1.371562033891677856e-01 -1.443531066179275513e-01 2.882040664553642273e-02
-2.536810934543609619e-01 -2.841054499149322510e-01 -1.507203467190265656e-02 4.568460211157798767e-02 1.266558319330215454e-01 1.844914406538009644e-01 3.494928181171417236e-01 -1.804927140474319458e-01 -1.038897186517715454e-01 5.385428071022033691e-01 -4.518043100833892822e-01 6.009609699249267578e-01 -1.195144206285476685e-01 -3.277551531791687012e-01 -2.817040681838989258e-01 2.526853978633880615e-01 8.646088093519210815e-02 -2.874397635459899902e-01 -1.301800161600112915e-01 4.859143793582916260e-01 3.535094261169433594e-01 5.648193508386611938e-02 -5.586264729499816895e-01 -6.336352229118347168e-02 -8.330018073320388794e-02 5.123249292373657227e-01 4.506711065769195557e-01 4.930871725082397461e-02 2.279307879507541656e-02 -2.069448381662368774e-01 2.221584767103195190e-01
4.504695236682891846e-01 -3.370634615421295166e-01 -2.848540544509887695e-01 -1.345464140176773071e-01 -1.899832040071487427e-01 -1.853748857975006104e-01 3.566066026687622070e-01 -1.606800556182861328e-01 -1.753505319356918335e-01 2.095980644226074219e-01 4.603371396660804749e-02 -2.031099498271942139e-01 1.375648658722639084e-02 -2.523083686828613281e-01 1.064849942922592163e-01 -4.270278662443161011e-02 1.740716770291328430e-02 1.294558495283126831e-01 1.230913400650024414e-01 2.100443691015243530e-01 -4.511532932519912720e-02 -1.763489395380020142e-01 -1.581630706787109375e-01 5.669521689414978027e-01 1.426584422588348389e-01 -2.755863964557647705e-01 2.848229557275772095e-02 3.988648951053619385e-01 9.315019100904464722e-02 -3.920089825987815857e-02 -2.352762520313262939e-01
2.012985944747924805e-01 3.798828423023223877e-01 8.243168890476226807e-02 -2.527392655611038208e-02 -1.528741326183080673e-02 -3.937838599085807800e-02 2.188917398452758789e-01 -4.152798056602478027e-01 -9.408722817897796631e-02 2.955968081951141357e-01 -4.161025583744049072e-02 1.954253911972045898e-01 -3.506772220134735107e-01 -3.689421117305755615e-01 -2.840721309185028076e-01 5.076340585947036743e-02 -3.530960381031036377e-01 -3.140857517719268799e-01 -1.632664054632186890e-01 -3.163535147905349731e-02 -1.918392330408096313e-01 -1.024981662631034851e-01 -3.191718161106109619e-01 5.158440023660659790e-02 3.246805369853973389e-01 -3.155167400836944580e-01 1.041112095117568970e-01 3.098288178443908691e-01 1.438420116901397705e-01 -3.324151635169982910e-01 -2.714229226112365723e-01
5.148926749825477600e-02 -1.844109594821929932e-01 3.158302307128906250e-01 1.817913502454757690e-01 1.346872597932815552e-01 7.338219135999679565e-02 -5.506873503327369690e-02 -5.801573991775512695e-01 -1.982229501008987427e-01 -2.574331164360046387e-01 1.829724572598934174e-02 -1.062608003616333008e+00 -8.682528138160705566e-02 4.211959242820739746e-01 4.152759015560150146e-01 2.552407681941986084e-01 3.336408734321594238e-01 1.656930446624755859e-01 3.763723075389862061e-01 2.085877060890197754e-01 2.583432793617248535e-01 -3.827132880687713623e-01 2.101642079651355743e-02 3.721878826618194580e-01 1.709051877260208130e-01 -1.836572140455245972e-01 -1.159654706716537476e-01 3.786357343196868896e-01 7.759299874305725098e-02 -1.074335649609565735e-01 -2.645759880542755127e-01
-1.348239183425903320e-01 -7.143978495150804520e-03 -7.187543809413909912e-02 2.197985500097274780e-01 4.274202585220336914e-01 -2.830186486244201660e-01 -7.402519136667251587e-02 3.255659043788909912e-01 -3.411971330642700195e-01 -3.841875493526458740e-01 -1.830863207578659058e-01 2.993532270193099976e-02 -4.144171625375747681e-02 2.319345027208328247e-01 1.343017369508743286e-01 -5.726200342178344727e-01 1.634544879198074341e-01 2.713765501976013184e-01 1.442389935255050659e-01 -4.228423535823822021e-01 5.967957153916358948e-02 2.726683318614959717e-01 -2.720040678977966309e-01 9.508954733610153198e-02 7.921911031007766724e-02 -3.628059476613998413e-02 -5.747860670089721680e-01 3.081322014331817627e-01 4.557270556688308716e-02 4.893212914466857910e-01 -2.379596680402755737e-01
4.478071630001068115e-01 -1.670197397470474243e-01 -9.662307798862457275e-02 1.865316554903984070e-02 4.320897161960601807e-02 -5.358974933624267578e-01 -2.963605523109436035e-01 6.407256722450256348e-01 -1.288472115993499756e-02 -3.131891191005706787e-01 -9.524993598461151123e-02 -4.843479692935943604e-01 4.914349913597106934e-01 1.704502105712890625e-01 3.352811634540557861e-01 -3.805728256702423096e-01 8.950834721326828003e-02 2.216568291187286377e-01 2.296225875616073608e-01 -6.027823090553283691e-01 -7.774492353200912476e-02 -2.876685559749603271e-01 1.946864277124404907e-01 9.413881599903106689e-02 2.072605863213539124e-02 -4.022187292575836182e-01 -5.430081393569707870e-03 -6.041933968663215637e-02 -6.053791642189025879e-01 -2.053028047084808350e-01 -1.557269543409347534e-01
-1.978833824396133423e-01 2.292719781398773193e-01 -3.217638283967971802e-02 4.221989810466766357e-01 2.997488081455230713e-01 2.064475864171981812e-01 1.046694815158843994e-01 9.199687242507934570e-01 1.894905976951122284e-02 -5.243928637355566025e-03 -2.274890244007110596e-01 2.906906008720397949e-01 -4.899248853325843811e-02 1.679802685976028442e-01 -1.708492040634155273e-01 -1.112492308020591736e-01 -2.755923867225646973e-01 -8.666699752211570740e-03 -1.488740444183349609e-01 -1.274420619010925293e-01 -2.216175347566604614e-01 -6.753263622522354126e-02 -1.122318431735038757e-01 -8.647078275680541992e-02 -2.786811590194702148e-01 2.665040493011474609e-01 4.755569398403167725e-01 -7.629404962062835693e-02 -3.487564623355865479e-01 -4.850311875343322754e-01 3.836358785629272461e-01
-3.468863293528556824e-02 1.813659816980361938e-01 4.791596233844757080e-01 3.391426503658294678e-01 3.681690096855163574e-01 5.821219086647033691e-01 -1.077986285090446472e-01 2.195080928504467010e-02 -1.959982216358184814e-01 3.676281273365020752e-01 -3.091467320919036865e-01 -3.700785338878631592e-01 2.624155282974243164e-01 -1.587124168872833252e-01 5.123747047036886215e-03 1.186666712164878845e-01 1.152276694774627686e-01 1.484760046005249023e-01 1.015561893582344055e-01 1.192105785012245178e-01 -1.181598305702209473e-01 -6.107761859893798828e-01 9.811969846487045288e-02 3.483621180057525635e-01 4.364435076713562012e-01 -9.953045248985290527e-01 5.193460583686828613e-01 4.362165629863739014e-01 1.939093619585037231e-01 -3.882354795932769775e-01 -8.702216744422912598e-01
3.359196484088897705e-01 1.076994016766548157e-01 3.493301868438720703e-01 6.353954970836639404e-02 1.207537874579429626e-01 -3.578322529792785645e-01 1.952502876520156860e-01 5.725601911544799805e-01 -2.157807797193527222e-01 3.696635067462921143e-01 -2.907205522060394287e-01 5.342373251914978027e-01 6.752493381500244141e-01 -7.015032172203063965e-01 -3.139935135841369629e-01 1.665355265140533447e-01 -1.756758093833923340e-01 -3.202882111072540283e-01 -1.737904399633407593e-01 4.212357699871063232e-01 1.017335727810859680e-01 -3.179461359977722168e-01 -1.729900091886520386e-01 -3.869947195053100586e-01 -4.096412956714630127e-01 -4.701573029160499573e-02 2.462098449468612671e-01 -2.396300435066223145e-02 1.133596617728471756e-02 -2.518671154975891113e-01 2.065067887306213379e-01
7.280929684638977051e-01 -5.587363243103027344e-01 9.886973351240158081e-02 -9.349089115858078003e-02 4.732416570186614990e-02 -5.146422386169433594e-01 -3.854617178440093994e-01 3.588511645793914795e-01 -2.560973726212978363e-02 -2.733538150787353516e-01 6.501668691635131836e-01 4.285909608006477356e-02 4.539058506488800049e-01 3.082602657377719879e-02 2.285638004541397095e-01 4.565816521644592285e-01 2.817365825176239014e-01 9.354610741138458252e-02 4.349338263273239136e-02 2.673798799514770508e-01 -1.161265820264816284e-01 3.232171833515167236e-01 5.862857103347778320e-01 2.552065066993236542e-03 3.109357357025146484e-01 -3.315044799819588661e-03 6.944580078125000000e-01 1.893556416034698486e-01 -4.969668760895729065e-02 1.868316829204559326e-01 -1.238738521933555603e-01
5.431472063064575195e-01 2.048013061285018921e-01 2.176993638277053833e-01 1.453922837972640991e-01 1.114938855171203613e-01 -1.804035156965255737e-01 4.269133806228637695e-01 -1.154635399580001831e-01 6.862182170152664185e-02 1.971238106489181519e-01 -4.204447939991950989e-02 5.513752102851867676e-01 -2.617158740758895874e-02 -3.757539689540863037e-01 -3.453161120414733887e-01 -1.109064072370529175e-01 -7.161129266023635864e-02 -1.209158748388290405e-01 -1.560525745153427124e-01 8.903916925191879272e-03 -1.013202071189880371e-01 -9.817132353782653809e-02 -2.947081029415130615e-01 -4.281907528638839722e-02 -2.623278796672821045e-01 -2.979702549055218697e-03 8.096072077751159668e-02 1.332049965858459473e-01 -2.106404863297939301e-02 -8.889147080481052399e-03 1.232450678944587708e-01
6.219166517257690430e-01 -1.159617826342582703e-01 -1.039431393146514893e-01 -8.036665618419647217e-03 9.156728163361549377e-03 -7.315027713775634766e-02 -4.350029230117797852e-01 -1.142176613211631775e-01 4.733831584453582764e-01 1.796789020299911499e-01 6.921423673629760742e-01 -2.869516611099243164e-01 -3.189347684383392334e-01 -6.262064576148986816e-01 2.236705273389816284e-02 -1.626230590045452118e-02 -2.979373335838317871e-01 -1.662199944257736206e-01 -1.731949299573898315e-02 4.393103998154401779e-03 -1.932792812585830688e-01 -2.219314724206924438e-01 5.813207626342773438e-01 5.007207393646240234e-01 -6.001131609082221985e-02 -2.891401052474975586e-01 -2.351819574832916260e-01 -5.375063419342041016e-02 2.211968004703521729e-01 -3.106091730296611786e-02 -7.522876560688018799e-02
2.761971652507781982e-01 1.335236579179763794e-01 -1.601875014603137970e-02 2.220104485750198364e-01 -3.582452656701207161e-03 2.506459653377532959e-01 -3.649463355541229248e-01 2.066522687673568726e-01 3.561067283153533936e-01 -6.541445106267929077e-02 -1.031742095947265625e-01 1.699958294630050659e-01 -1.553733944892883301e-01 -7.381253689527511597e-02 -2.087330371141433716e-01 -5.043334960937500000e-01 -2.198719829320907593e-01 1.004820805974304676e-04 -3.257350623607635498e-02 -3.524502217769622803e-01 -2.469487041234970093e-01 -2.909755334258079529e-02 3.245160281658172607e-01 -2.862368226051330566e-01 -1.946175396442413330e-01 -1.023737639188766479e-01 -1.606832146644592285e-01 3.254389856010675430e-03 4.002119302749633789e-01 4.677201434969902039e-02 -4.787767678499221802e-02
1.014436006546020508e+00 -3.868354558944702148e-01 2.661127150058746338e-01 1.375304102897644043e+00 5.564798042178153992e-02 1.713364571332931519e-01 -1.326587796211242676e-01 -2.196209579706192017e-01 8.457722514867782593e-02 -1.100607067346572876e-01 -4.913191497325897217e-02 -2.734627723693847656e-01 -4.655434191226959229e-02 -3.549369750544428825e-03 -1.296379566192626953e-01 -4.613222479820251465e-01 1.644420325756072998e-01 3.403794486075639725e-03 4.229602590203285217e-02 -2.432177960872650146e-01 -1.151588335633277893e-01 1.288685202598571777e-01 -9.891390800476074219e-02 -4.639613032341003418e-01 5.754145607352256775e-02 5.863145738840103149e-02 -6.317456811666488647e-02 1.397446542978286743e-01 3.577340394258499146e-02 1.453196108341217041e-01 -2.587269246578216553e-01
6.387442350387573242e-01 -1.278636008501052856e-01 3.073437511920928955e-01 3.226321637630462646e-01 1.422218829393386841e-01 1.781742423772811890e-01 -2.916039526462554932e-02 -1.632455037906765938e-03 1.223005205392837524e-01 -2.903822958469390869e-01 8.177333325147628784e-02 -1.441017836332321167e-01 -1.536172479391098022e-01 -1.973851919174194336e-01 -2.866327576339244843e-02 -7.878999412059783936e-02 -1.521132439374923706e-01 1.516482140868902206e-02 9.885614365339279175e-02 1.434153616428375244e-01 -3.117660433053970337e-02 3.026083409786224365e-01 2.003912031650543213e-01 -5.788315087556838989e-02 -1.757469475269317627e-01 1.069311425089836121e-01 -1.566088497638702393e-01 1.096822917461395264e-01 3.195225447416305542e-02 3.360260277986526489e-02 5.047668218612670898e-01
-1.815754771232604980e-01 -7.714451104402542114e-02 -1.996956020593643188e-01 -3.342692181468009949e-02 -2.051247656345367432e-01 1.908185891807079315e-02 -3.321982920169830322e-01 2.834998965263366699e-01 4.409266412258148193e-01 7.046702504158020020e-01 1.223836913704872131e-01 -8.715944737195968628e-02 6.797080039978027344e-01 -2.163805216550827026e-01 -2.536343038082122803e-01 -1.431701481342315674e-01 2.091209217905998230e-02 -5.162080526351928711e-01 -3.680915534496307373e-01 -3.002773523330688477e-01 -6.188267469406127930e-01 -3.278972208499908447e-01 4.404613375663757324e-01 1.784054934978485107e-02 9.167004376649856567e-02 -4.443425238132476807e-01 3.927176892757415771e-01 -1.676522195339202881e-01 5.308294296264648438e-01 -3.253004848957061768e-01 -1.140699908137321472e-01
-9.908635169267654419e-02 3.623401224613189697e-01 7.700957357883453369e-03 -7.046075910329818726e-02 -1.456215530633926392e-01 -1.417855173349380493e-01 2.280310913920402527e-02 -3.645407855510711670e-01 1.190159693360328674e-01 2.744403183460235596e-01 5.118449926376342773e-01 1.887352019548416138e-01 -4.746775031089782715e-01 9.559623897075653076e-02 3.315097391605377197e-01 1.373319625854492188e-01 -8.045930415391921997e-02 3.246116340160369873e-01 3.861519396305084229e-01 -1.644149571657180786e-01 -3.273304700851440430e-01 1.295948773622512817e-01 -1.045028716325759888e-01 -2.774672769010066986e-02 -1.802726835012435913e-01 3.699114620685577393e-01 1.859277933835983276e-01 -1.163817420601844788e-01 -4.200187921524047852e-01 6.289169937372207642e-02 2.523389458656311035e-01
7.923822104930877686e-02 4.583588242530822754e-01 9.983711838722229004e-01 2.878788411617279053e-01 4.709469974040985107e-01 2.897962033748626709e-01 -2.251320518553256989e-02 -4.245885610580444336e-01 1.559029519557952881e-01 -3.298914134502410889e-01 -1.169863715767860413e-01 -6.832098960876464844e-01 1.447849422693252563e-01 -3.415396213531494141e-01 1.842379420995712280e-01 2.596262991428375244e-01 5.137339830398559570e-01 3.990953788161277771e-02 3.001048266887664795e-01 1.734766513109207153e-01 2.109181135892868042e-01 -2.459801882505416870e-01 -1.445529162883758545e-01 -3.076674342155456543e-01 4.085801243782043457e-01 -3.387788236141204834e-01 -1.033966690301895142e-01 9.252951294183731079e-02 -8.015550673007965088e-03 -3.327738642692565918e-01 -1.450448334217071533e-01
1.931254118680953979e-01 1.001840829849243164e-01 -9.040368348360061646e-02 -8.473823964595794678e-02 -2.129242867231369019e-01 5.853242874145507812e-01 3.739848434925079346e-01 2.804368734359741211e-01 -5.946634411811828613e-01 4.558496922254562378e-02 -4.315899014472961426e-01 1.896047145128250122e-01 -1.664962023496627808e-01 -4.526085555553436279e-01 -1.860992461442947388e-01 -1.309067010879516602e-01 -1.092769205570220947e-01 -1.075554713606834412e-01 -2.088176012039184570e-01 3.052333295345306396e-01 9.824470430612564087e-02 -6.787794232368469238e-01 -5.072646960616111755e-02 3.902079761028289795e-01 -1.166677027940750122e-01 4.118766263127326965e-02 2.846823930740356445e-01 1.776980757713317871e-01 -1.829378902912139893e-01 -3.036654293537139893e-01 -7.257313281297683716e-02
2.125820517539978027e-01 4.785044789314270020e-01 -3.287222981452941895e-02 -1.524042040109634399e-01 -1.886787712574005127e-01 -1.902780532836914062e-01 -3.150610923767089844e-01 8.584945462644100189e-03 -1.484377533197402954e-01 -2.233811616897583008e-01 -6.684000045061111450e-02 -2.146800160408020020e-01 1.190409902483224869e-02 2.522421181201934814e-01 7.174074649810791016e-02 -3.953624963760375977e-01 -3.115795850753784180e-01 2.661063671112060547e-01 2.814527750015258789e-01 -2.260934412479400635e-01 -2.627969384193420410e-01 3.013299591839313507e-02 2.297662645578384399e-01 1.915181428194046021e-02 1.104774922132492065e-01 -3.147415220737457275e-01 -5.349243283271789551e-01 2.004026770591735840e-01 3.953283727169036865e-01 1.058199107646942139e-01 -1.976453810930252075e-01
7.525653243064880371e-01 7.208810746669769287e-02 2.366673648357391357e-01 3.516493439674377441e-01 1.034631207585334778e-01 5.844889879226684570e-01 -1.529676914215087891e-01 -4.611241817474365234e-01 -7.326544262468814850e-03 1.867235898971557617e-01 -2.239689379930496216e-01 1.247671470046043396e-01 3.904097080230712891e-01 2.747274041175842285e-01 2.716416418552398682e-01 8.338753134012222290e-03 -5.069693922996520996e-02 1.553719788789749146e-01 1.346156895160675049e-01 -1.286614406853914261e-02 -1.090080961585044861e-01 1.272643059492111206e-01 1.620224118232727051e-01 1.613611876964569092e-01 3.793001472949981689e-01 7.793499529361724854e-02 3.821238130331039429e-02 2.218982279300689697e-01 4.909159839153289795e-01 -1.446623951196670532e-01 -1.898665726184844971e-01
7.051188498735427856e-02 1.977450847625732422e-01 8.103124499320983887e-01 6.791184544563293457e-01 4.394544363021850586e-01 3.216361105442047119e-01 1.511811017990112305e-01 -1.599114686250686646e-01 -7.114213705062866211e-01 4.472659826278686523e-01 3.118621110916137695e-01 4.458700716495513916e-01 2.287817597389221191e-01 -3.399764746427536011e-02 -1.934209764003753662e-01 1.309894919395446777e-01 -3.509365618228912354e-01 1.444577872753143311e-01 -1.028766632080078125e-01 -3.657869994640350342e-01 -2.848384678363800049e-01 -1.487140655517578125e-01 -3.266786336898803711e-01 6.676441431045532227e-02 1.480331569910049438e-01 8.826611191034317017e-02 -1.201440542936325073e-01 3.096375167369842529e-01 -1.081213355064392090e-01 1.505163162946701050e-01 -9.196452051401138306e-02
3.094624578952789307e-01 8.988719433546066284e-02 1.182547137141227722e-01 1.540303528308868408e-01 -4.445498064160346985e-02 1.857075393199920654e-01 2.073698788881301880e-01 -1.362509727478027344e-01 -1.999735683202743530e-01 3.532037511467933655e-02 -1.408016961067914963e-02 2.140859961509704590e-01 3.187591582536697388e-02 -4.532095044851303101e-02 -9.546983987092971802e-02 7.730627898126840591e-03 2.085668146610260010e-01 -1.436408609151840210e-01 -1.483420878648757935e-01 3.870362341403961182e-01 2.955094724893569946e-02 -4.231716990470886230e-01 -1.055773720145225525e-01 -2.508256137371063232e-01 -3.197522461414337158e-01 -1.787407249212265015e-01 -1.576752513647079468e-01 -8.378639072179794312e-02 1.778043806552886963e-01 -4.277390241622924805e-02 3.154823929071426392e-02
2.402342706918716431e-01 1.670917272567749023e-01 1.285057514905929565e-01 1.290326267480850220e-01 2.182271480560302734e-01 2.581929862499237061e-01 1.041366457939147949e-01 -2.002055794000625610e-01 2.090719640254974365e-01 -3.355730175971984863e-01 -3.986043632030487061e-01 -1.662824153900146484e-01 4.427870810031890869e-01 1.875153183937072754e-01 -9.301844984292984009e-03 -3.133065998554229736e-02 5.177629590034484863e-01 -2.330075055360794067e-01 -2.078043669462203979e-01 -1.258934438228607178e-01 -6.190626416355371475e-03 -1.048860102891921997e-01 -3.357890546321868896e-01 -4.720664117485284805e-03 1.651081740856170654e-01 -1.555888913571834564e-02 -3.474299907684326172e-01 2.089307606220245361e-01 2.642701864242553711e-01 -4.167028367519378662e-01 -1.802837662398815155e-02
-3.150302171707153320e-01 5.110661983489990234e-01 1.491995602846145630e-01 3.284355401992797852e-01 1.335984468460083008e-01 -2.983094155788421631e-01 1.538651287555694580e-01 -2.193124890327453613e-01 -6.108994781970977783e-02 2.223612517118453979e-01 -9.216652065515518188e-02 3.124231994152069092e-01 2.311708480119705200e-01 9.627322107553482056e-02 2.313288301229476929e-02 5.861885379999876022e-03 -1.741461157798767090e-01 5.726634711027145386e-02 2.202318981289863586e-02 -4.404597729444503784e-02 -1.523661315441131592e-01 1.847997456789016724e-01 -4.440971463918685913e-02 6.453689932823181152e-02 -3.775532171130180359e-02 3.429549634456634521e-01 -3.590990230441093445e-02 -6.285292655229568481e-02 8.669004775583744049e-03 -2.067419886589050293e-02 3.495164215564727783e-01
4.555184841156005859e-01 -8.742523938417434692e-02 4.050061702728271484e-01 3.238985240459442139e-01 2.340353131294250488e-01 -1.221451833844184875e-01 -1.762910783290863037e-01 6.085662245750427246e-01 -9.019291610457003117e-05 -3.717284202575683594e-01 -1.999308615922927856e-01 -1.156318709254264832e-01 -1.199598610401153564e-01 5.258300900459289551e-01 3.829043805599212646e-01 -6.712723523378372192e-02 4.745557606220245361e-01 6.444014310836791992e-01 5.202828049659729004e-01 -3.044823706150054932e-01 1.769331097602844238e-02 1.553185135126113892e-01 2.415968030691146851e-01 2.366384118795394897e-01 1.153935670852661133e+00 -3.380578458309173584e-01 -1.786113232374191284e-01 9.135758876800537109e-01 2.494210302829742432e-01 9.008736163377761841e-02 -8.843238353729248047e-01
3.398561477661132812e-01 -3.501987829804420471e-02 1.080033835023641586e-03 1.854133456945419312e-01 -3.567110048606991768e-03 2.880311608314514160e-01 2.843778207898139954e-02 2.415550202131271362e-01 2.991551160812377930e-01 1.358833047561347485e-03 -3.458721935749053955e-01 -7.384579628705978394e-02 -2.540120780467987061e-01 1.395227164030075073e-01 4.915774241089820862e-02 -1.961136311292648315e-01 -4.041422009468078613e-01 -4.802866280078887939e-02 -9.089317172765731812e-02 7.009995728731155396e-02 -1.967080980539321899e-01 3.718111291527748108e-02 3.375389873981475830e-01 7.610384374856948853e-02 -2.013754844665527344e-01 1.163635030388832092e-01 -2.416897714138031006e-01 -1.548746526241302490e-01 1.114222556352615356e-01 2.175408452749252319e-01 -1.789313107728958130e-01
2.408418571576476097e-03 -5.773345828056335449e-01 2.992239408195018768e-02 4.334938898682594299e-02 4.450186621397733688e-03 -3.732361793518066406e-01 -1.801016777753829956e-01 4.073313474655151367e-01 -4.840983077883720398e-02 6.503912210464477539e-01 2.536856830120086670e-01 1.675511151552200317e-01 1.539640128612518311e-01 4.570855796337127686e-01 9.550413489341735840e-02 3.860607743263244629e-01 -2.853367924690246582e-01 4.880423843860626221e-02 -1.355518400669097900e-01 -1.631375998258590698e-01 -2.630352973937988281e-01 -7.418349385261535645e-01 -4.416769742965698242e-02 -3.871273398399353027e-01 -3.516465425491333008e-01 -2.204507887363433838e-01 6.612777113914489746e-01 -1.433282494544982910e-01 -4.156261682510375977e-02 -2.901884913444519043e-01 -3.052651695907115936e-02
7.733468711376190186e-02 -2.011621892452239990e-01 -2.708456218242645264e-01 -9.350139647722244263e-02 -1.529884338378906250e-01 -9.109953045845031738e-01 2.001912146806716919e-01 -7.336577773094177246e-02 -9.024044871330261230e-02 1.860908418893814087e-01 1.248389575630426407e-02 2.534646093845367432e-01 -1.771855056285858154e-01 -7.810384035110473633e-02 -8.810500055551528931e-02 3.303399085998535156e-01 -3.264701068401336670e-01 -1.375900655984878540e-01 -1.493071615695953369e-01 3.111717998981475830e-01 1.259412765502929688e-01 -2.482923716306686401e-01 -3.697334229946136475e-01 -3.459507822990417480e-01 -1.169729009270668030e-01 -6.922846287488937378e-02 4.240355491638183594e-01 2.068198099732398987e-02 2.579550025984644890e-03 -1.946469210088253021e-02 -1.657831110060214996e-02
-2.364319860935211182e-01 2.631765007972717285e-01 -1.673038303852081299e-01 -2.960535883903503418e-01 -3.112994134426116943e-01 -3.805892467498779297e-01 6.348414421081542969e-01 -7.205913662910461426e-01 -4.919528961181640625e-01 -1.385124325752258301e-01 -3.018039166927337646e-01 3.309146463871002197e-01 8.208300918340682983e-03 -9.128576517105102539e-01 -5.308558940887451172e-01 9.308925829827785492e-03 -1.405893415212631226e-01 -6.865600347518920898e-01 -2.684307098388671875e-01 4.381030499935150146e-01 1.888162791728973389e-01 3.512013852596282959e-01 1.454440038651227951e-02 3.082571029663085938e-01 3.472754657268524170e-01 1.935106366872787476e-01 3.543772399425506592e-01 -5.737771838903427124e-02 -7.219830751419067383e-01 5.234978720545768738e-02 -6.316905468702316284e-02
4.303236305713653564e-02 6.115530058741569519e-02 -1.868267357349395752e-01 -2.205803543329238892e-01 -1.081438437104225159e-01 -1.436234831809997559e+00 -8.770266920328140259e-02 1.331052780151367188e-01 3.089550696313381195e-02 6.397769600152969360e-02 -1.602327227592468262e-01 -2.129642479121685028e-02 -2.007789313793182373e-01 3.720068931579589844e-01 -7.285832613706588745e-02 1.280284672975540161e-01 5.133840069174766541e-02 3.452216833829879761e-02 -2.336869835853576660e-01 1.155503764748573303e-01 2.575158476829528809e-01 -3.344543278217315674e-01 -1.984201371669769287e-02 3.321877121925354004e-02 -2.091185450553894043e-01 -1.598225161433219910e-02 -1.271441485732793808e-02 2.667197026312351227e-02 -5.868050828576087952e-02 -3.412607014179229736e-01 -1.057244986295700073e-01
6.850053556263446808e-03 8.214548826217651367e-01 9.869834035634994507e-02 -5.624065175652503967e-02 -1.486870050430297852e-01 -1.401287615299224854e-01 5.392435938119888306e-02 -4.917288124561309814e-01 -8.520779013633728027e-02 -5.512608215212821960e-02 2.041094452142715454e-01 1.750551350414752960e-02 -3.050712943077087402e-01 -1.631618291139602661e-01 -8.059156686067581177e-02 2.386153042316436768e-01 -2.110046893358230591e-01 -3.483811914920806885e-01 -1.425250619649887085e-01 4.764234274625778198e-02 -2.478553801774978638e-01 3.738699853420257568e-02 2.485261708498001099e-01 -6.942065805196762085e-02 2.592194676399230957e-01 3.766064643859863281e-01 1.370617449283599854e-01 1.055584028363227844e-01 4.349767565727233887e-01 1.252707988023757935e-01 -1.360157430171966553e-01
3.592552244663238525e-01 1.074026823043823242e-01 -2.613354027271270752e-01 -4.639760553836822510e-01 -5.098809599876403809e-01 -9.530389308929443359e-01 -3.466631472110748291e-02 -3.612862527370452881e-01 -9.531296789646148682e-02 5.166273117065429688e-01 1.966407001018524170e-01 5.614467859268188477e-01 -5.621976684778928757e-03 3.971334099769592285e-01 -3.501896187663078308e-02 -2.940573394298553467e-01 -4.570373296737670898e-01 -2.677381597459316254e-02 -1.589128226041793823e-01 -4.799187555909156799e-02 -1.656320542097091675e-01 -2.019789069890975952e-01 9.921026229858398438e-02 -4.821225106716156006e-01 1.799854189157485962e-01 3.580572605133056641e-01 3.503988683223724365e-01 2.056513130664825439e-01 3.054679930210113525e-01 -3.389381170272827148e-01 -1.308421790599822998e-01
3.851297795772552490e-01 4.250344932079315186e-01 -5.995215103030204773e-02 -4.780629873275756836e-01 -3.190139532089233398e-01 6.936422586441040039e-01 1.653326004743576050e-01 2.480522096157073975e-01 -2.157144844532012939e-01 3.330377638339996338e-01 -2.032191008329391479e-01 6.045812368392944336e-01 1.724590063095092773e-01 -3.070297241210937500e-01 -2.576609551906585693e-01 1.042571570724248886e-02 1.622214168310165405e-02 -2.313799709081649780e-01 -1.761149019002914429e-01 7.214219123125076294e-02 -3.822031617164611816e-02 -4.011739790439605713e-01 6.741725653409957886e-02 -1.959723681211471558e-01 -1.981493532657623291e-01 1.020032837986946106e-01 1.765449792146682739e-01 2.109259665012359619e-01 -7.632597535848617554e-02 -5.183411836624145508e-01 1.039457842707633972e-01
3.197383880615234375e-01 -4.151062369346618652e-01 -4.512232914566993713e-02 4.083386957645416260e-01 2.442083805799484253e-01 2.863087952136993408e-01 -2.243594080209732056e-01 1.600752919912338257e-01 2.586564421653747559e-01 -8.064917474985122681e-02 -3.311046063899993896e-01 -1.729463227093219757e-02 -2.682071626186370850e-01 -2.634700834751129150e-01 -2.756505906581878662e-01 1.681300550699234009e-01 1.631207019090652466e-01 -1.627761125564575195e-01 -2.184314876794815063e-01 4.760055840015411377e-01 3.303081393241882324e-01 2.054991722106933594e-01 -1.296473480761051178e-02 6.382756680250167847e-02 -1.423436701297760010e-01 2.651043534278869629e-01 -3.654949367046356201e-02 -2.311498373746871948e-01 -2.511768937110900879e-01 1.001541912555694580e-01 6.047976389527320862e-02
1.816680878400802612e-01 -2.154080569744110107e-01 -4.386231303215026855e-01 -4.227744638919830322e-01 -1.694028079509735107e-02 3.933973014354705811e-01 2.862809598445892334e-01 2.108630985021591187e-01 7.204379886388778687e-02 5.040549635887145996e-01 1.839720159769058228e-01 4.642127454280853271e-01 -3.860137164592742920e-01 2.545017600059509277e-01 -1.599635183811187744e-01 -2.443383485078811646e-01 -1.900938600301742554e-01 1.732207536697387695e-01 6.214680615812540054e-03 1.433700323104858398e-02 9.879576414823532104e-02 2.673881649971008301e-01 -2.711103558540344238e-01 -7.105207443237304688e-01 -1.620385497808456421e-01 2.834573090076446533e-01 8.610081672668457031e-02 -5.098905563354492188e-01 3.285709619522094727e-01 -5.527960509061813354e-02 5.249272584915161133e-01
-5.956092476844787598e-01 8.319352753460407257e-03 -7.932151854038238525e-02 -2.126762829720973969e-02 1.775100082159042358e-02 3.844449222087860107e-01 8.921919018030166626e-02 -3.772543072700500488e-01 -1.402998715639114380e-01 2.263425886631011963e-01 2.423189580440521240e-01 -1.154349558055400848e-02 -3.709583878517150879e-01 -4.353491961956024170e-01 2.500685453414916992e-01 -4.600441157817840576e-01 -3.200124204158782959e-01 1.406900137662887573e-01 4.500178992748260498e-01 3.060248866677284241e-02 1.304190158843994141e-01 -2.302110195159912109e-01 2.975099086761474609e-01 2.602664828300476074e-01 -2.405379116535186768e-01 7.031700760126113892e-02 3.321201726794242859e-02 3.208152204751968384e-02 -6.566163301467895508e-01 -1.760743260383605957e-01 2.158064842224121094e-01
-2.035318464040756226e-01 3.428672552108764648e-01 -1.476529240608215332e-01 -9.651704877614974976e-02 -9.991317242383956909e-02 2.522017657756805420e-01 2.908104062080383301e-01 -1.818160712718963623e-01 -5.044809356331825256e-02 -9.324637800455093384e-02 -2.219667881727218628e-01 -1.756242364645004272e-01 -4.528658986091613770e-01 2.462482452392578125e-02 -2.093445211648941040e-01 -6.829268485307693481e-02 8.873452991247177124e-02 -2.155661731958389282e-01 -2.857728302478790283e-01 1.342333406209945679e-01 1.116259321570396423e-01 2.292573153972625732e-01 -9.829023480415344238e-02 1.149958223104476929e-01 -2.960269451141357422e-01 1.735323220491409302e-01 -5.825071930885314941e-01 8.806549757719039917e-02 5.442743301391601562e-01 1.626108586788177490e-01 3.013045489788055420e-01
4.516661167144775391e-01 4.858295619487762451e-01 4.335852563381195068e-01 1.593720316886901855e-01 8.599720895290374756e-02 9.470329433679580688e-02 5.439141392707824707e-01 -6.299283355474472046e-02 -7.854793220758438110e-02 -1.338974237442016602e-01 2.119981497526168823e-01 2.078585624694824219e-01 -1.666371971368789673e-01 -2.013535946607589722e-01 1.515029072761535645e-01 6.354280561208724976e-02 -2.246484607458114624e-01 1.700481623411178589e-01 2.372299134731292725e-01 9.032873064279556274e-02 3.536250442266464233e-02 9.097079932689666748e-02 -1.396247744560241699e-01 -1.663238555192947388e-01 3.475831449031829834e-01 -6.254544854164123535e-02 6.614032387733459473e-02 1.170323118567466736e-01 -8.322694152593612671e-02 -7.962454855442047119e-02 -1.308151185512542725e-01
2.104120254516601562e-01 2.512121796607971191e-01 -1.654844544827938080e-02 -2.041960656642913818e-01 -2.521148622035980225e-01 3.944193124771118164e-01 5.358030796051025391e-01 3.272916376590728760e-01 4.326910078525543213e-01 1.106112122535705566e+00 -5.126522183418273926e-01 1.537530869245529175e-01 -9.507124125957489014e-02 1.564795970916748047e-01 -3.779197037220001221e-01 -3.217383027076721191e-01 -1.846456825733184814e-01 -1.434032768011093140e-01 -3.925804197788238525e-01 5.920520517975091934e-03 -3.020012080669403076e-01 -6.931711733341217041e-02 -5.112659931182861328e-01 5.134266614913940430e-01 3.828709423542022705e-01 3.807823956012725830e-01 2.535696923732757568e-01 1.020196229219436646e-01 5.961369872093200684e-01 -2.375098168849945068e-01 -4.600341320037841797e-01
2.909117937088012695e-01 -1.551556289196014404e-01 1.067567169666290283e-01 2.478965073823928833e-01 8.675561100244522095e-02 5.483267307281494141e-01 1.763243786990642548e-02 -1.192465648055076599e-01 -1.274163722991943359e-01 -1.938326805830001831e-01 -4.216129481792449951e-01 2.152275741100311279e-01 -6.231204047799110413e-02 -2.185797691345214844e-01 -1.750030964612960815e-01 2.316505461931228638e-01 8.754020184278488159e-02 -1.124769151210784912e-01 -1.330133825540542603e-01 -6.306549906730651855e-02 4.961684346199035645e-02 1.723925918340682983e-01 -1.402045935392379761e-01 -3.657356277108192444e-02 6.494594812393188477e-01 -6.371420621871948242e-01 -1.557534337043762207e-01 5.972554683685302734e-01 7.504308819770812988e-01 4.920963644981384277e-01 -8.298906683921813965e-01
2.516934871673583984e-01 2.230689525604248047e-01 4.989535510540008545e-01 5.896057486534118652e-01 4.934962689876556396e-01 2.007908523082733154e-01 -2.313550114631652832e-01 5.455005168914794922e-01 1.989405602216720581e-01 1.098329871892929077e-01 -9.957972913980484009e-02 8.071788400411605835e-02 -2.400206215679645538e-02 1.994884908199310303e-01 1.569865047931671143e-01 -2.914219796657562256e-01 -3.873920999467372894e-03 5.198787525296211243e-02 -5.651584640145301819e-02 -1.431437134742736816e-01 -1.422704309225082397e-01 2.909022569656372070e-01 -9.894265979528427124e-02 -6.484892368316650391e-01 -2.191343754529953003e-01 -1.214388161897659302e-01 -5.490794777870178223e-01 -1.311084926128387451e-01 3.141396641731262207e-01 4.299451112747192383e-01 4.351353943347930908e-01
2.591067850589752197e-01 1.446002721786499023e-01 1.491922140121459961e-01 2.206847816705703735e-01 2.549602389335632324e-01 -2.282064408063888550e-01 2.953768074512481689e-01 -5.821951627731323242e-01 8.681058883666992188e-02 1.956430524587631226e-01 -2.327328920364379883e-01 1.144301667809486389e-01 -6.376293897628784180e-01 5.109502002596855164e-02 1.255352795124053955e-01 -1.755135953426361084e-01 3.361469879746437073e-02 3.861008211970329285e-02 -1.409104652702808380e-02 1.802139878273010254e-01 3.137753307819366455e-01 -2.706848382949829102e-01 -4.656560719013214111e-01 -1.174445822834968567e-01 -9.948296099901199341e-02 -1.763781458139419556e-01 -5.041746422648429871e-02 -2.580537497997283936e-01 -2.234630584716796875e-01 2.389964163303375244e-01 5.921541154384613037e-02
2.310004085302352905e-01 -2.886094450950622559e-01 -2.167292982339859009e-01 -3.064906001091003418e-01 -2.084681093692779541e-01 7.616251707077026367e-01 6.008877158164978027e-01 -1.218437179923057556e-01 2.525562047958374023e-01 4.011066257953643799e-01 -2.977364361286163330e-01 1.604333817958831787e-01 -2.704462110996246338e-01 -2.114377170801162720e-01 -8.734808117151260376e-02 3.970800340175628662e-01 -3.035818040370941162e-01 7.665137201547622681e-02 4.066289216279983521e-02 3.074961900711059570e-01 2.194191515445709229e-02 5.860947445034980774e-02 -4.567835032939910889e-01 4.533009529113769531e-01 -2.619588971138000488e-01 1.814185082912445068e-01 2.143849283456802368e-01 -1.202586293220520020e-01 -5.030531287193298340e-01 -2.498052567243576050e-01 2.239240705966949463e-01
2.288507819175720215e-01 -1.957022398710250854e-02 -4.430737495422363281e-01 -1.526224017143249512e-01 -1.172490790486335754e-01 -8.706719279289245605e-01 -1.564469337463378906e-01 1.065952144563198090e-02 5.769239366054534912e-02 4.663136973977088928e-02 -3.767175376415252686e-01 7.786171138286590576e-02 -1.506256908178329468e-01 4.802180081605911255e-02 -3.973099961876869202e-02 1.583350896835327148e-01 -4.969549179077148438e-01 9.022206813097000122e-02 -1.079290360212326050e-02 -1.180476974695920944e-03 -2.835888266563415527e-01 3.026358410716056824e-02 -7.904360443353652954e-02 -2.424271255731582642e-01 2.974772453308105469e-02 6.500375270843505859e-02 1.632088571786880493e-01 5.893756821751594543e-02 1.113696172833442688e-01 -8.346625417470932007e-02 -3.555337339639663696e-02
6.128652095794677734e-01 1.066745594143867493e-01 -5.864994525909423828e-01 2.460841536521911621e-01 -1.032034009695053101e-01 1.906052418053150177e-02 6.566323339939117432e-02 -1.197467595338821411e-01 1.359781175851821899e-01 3.753046095371246338e-01 3.225039839744567871e-01 4.398939907550811768e-01 -9.753933548927307129e-02 5.582427233457565308e-02 -7.552280277013778687e-02 -5.108227953314781189e-02 -2.951269149780273438e-01 1.280912607908248901e-01 5.300736054778099060e-02 5.504427477717399597e-02 8.574682287871837616e-03 -1.111052557826042175e-01 -3.561719954013824463e-01 -1.919460296630859375e-01 -1.746891587972640991e-01 -1.397381871938705444e-01 6.533783674240112305e-01 8.431726694107055664e-02 -1.598405390977859497e-01 -9.150593727827072144e-02 1.996919512748718262e-01
2.759172618389129639e-01 2.343908250331878662e-01 4.122748970985412598e-01 1.721456050872802734e-01 7.614202052354812622e-02 -1.034446246922016144e-02 3.141588717699050903e-02 1.954541914165019989e-02 7.166098058223724365e-02 6.501005291938781738e-01 -3.670618832111358643e-01 3.405686914920806885e-01 -4.570566583424806595e-03 -2.469187825918197632e-01 -2.901960909366607666e-01 2.131764292716979980e-01 1.153183802962303162e-01 -5.921110510826110840e-01 -4.060476422309875488e-01 5.300460457801818848e-01 3.081805706024169922e-01 -3.052690923213958740e-01 -3.496211469173431396e-01 -2.210901230573654175e-01 5.123394727706909180e-01 -1.836830824613571167e-01 -3.909736406058073044e-03 -1.268939959118142724e-04 -2.118315547704696655e-01 -2.788311839103698730e-01 -2.244244217872619629e-01
6.157962679862976074e-01 -3.384792804718017578e-01 1.284811738878488541e-02 1.881639361381530762e-01 3.424410521984100342e-02 5.335593223571777344e-02 4.631462991237640381e-01 4.976587295532226562e-01 6.928324699401855469e-01 3.088285624980926514e-01 -2.644213438034057617e-01 1.917970180511474609e-01 4.846448004245758057e-01 -3.046250529587268829e-02 -1.789012551307678223e-01 2.429280616343021393e-02 1.477189362049102783e-01 1.202555224299430847e-01 -5.284980311989784241e-02 2.295440286397933960e-01 2.613233327865600586e-01 1.227740421891212463e-01 -2.481513470411300659e-01 3.151390552520751953e-01 -2.160293310880661011e-01 -2.755220830440521240e-01 6.439601629972457886e-02 -3.962605595588684082e-01 -6.469091176986694336e-01 1.088061705231666565e-01 7.496383041143417358e-02
1.627760678529739380e-01 2.128358036279678345e-01 6.179391741752624512e-01 3.990427851676940918e-01 4.147782325744628906e-01 4.786432385444641113e-01 -3.125652670860290527e-01 -5.954737775027751923e-03 6.848616600036621094e-01 -1.655034124851226807e-01 3.304948806762695312e-01 -3.534488976001739502e-01 -5.056720972061157227e-02 2.014003098011016846e-01 3.057471811771392822e-01 1.103482991456985474e-01 8.010880649089813232e-02 -9.590118378400802612e-02 2.010033093392848969e-02 1.648805290460586548e-01 4.413264617323875427e-02 3.359151184558868408e-01 2.065026611089706421e-01 1.190141215920448303e-01 -1.623224467039108276e-01 2.294103652238845825e-01 -1.419067531824111938e-01 3.796532005071640015e-02 4.371647536754608154e-01 -6.480862200260162354e-02 1.019992381334304810e-01
4.309581816196441650e-01 -5.140566229820251465e-01 -2.833991050720214844e-01 1.942386627197265625e-01 -9.008797816932201385e-03 -2.060781568288803101e-01 -5.038499087095260620e-02 -1.926278620958328247e-01 7.533047348260879517e-02 7.976806908845901489e-02 9.861608594655990601e-02 -1.826615184545516968e-01 -2.946206629276275635e-01 1.245708391070365906e-01 -4.864518716931343079e-02 -3.242943584918975830e-01 1.645896285772323608e-01 1.928890347480773926e-01 1.201382577419281006e-01 -2.446873299777507782e-02 1.023944616317749023e-01 4.293604195117950439e-02 8.068439364433288574e-02 9.461352974176406860e-02 2.172832004725933075e-02 -1.940724104642868042e-01 1.832666397094726562e-01 2.173725813627243042e-01 4.379100799560546875e-01 7.260486483573913574e-03 -1.705393642187118530e-01
2.231763154268264771e-01 -5.392294526100158691e-01 -1.852585226297378540e-01 -2.812548577785491943e-01 -5.155280232429504395e-01 -7.011038064956665039e-01 2.432648986577987671e-01 2.124604135751724243e-01 3.559185862541198730e-01 3.636988103389739990e-01 -5.324383378028869629e-01 1.841347068548202515e-01 -6.870977282524108887e-01 2.411631494760513306e-02 -4.780575335025787354e-01 3.885411098599433899e-02 -2.952590286731719971e-01 -2.447012364864349365e-01 -4.342470169067382812e-01 3.076437413692474365e-01 -3.944487310945987701e-03 1.435193568468093872e-01 9.784481488168239594e-03 2.385626174509525299e-02 -1.078474372625350952e-01 1.767219156026840210e-01 3.874601125717163086e-01 -2.236540466547012329e-01 2.196246981620788574e-01 5.940590426325798035e-02 5.825240910053253174e-02
4.365366697311401367e-01 -3.242948949337005615e-01 3.247860074043273926e-02 -9.605406969785690308e-02 -1.658444106578826904e-01 2.593951225280761719e-01 1.787933856248855591e-01 1.003562510013580322e-01 8.591442108154296875e-01 1.173544898629188538e-01 -5.497922301292419434e-01 5.664812773466110229e-02 -7.902762293815612793e-01 1.949865967035293579e-01 -4.470113217830657959e-01 2.738862037658691406e-01 -2.464170008897781372e-01 -1.560758352279663086e-01 -4.434179067611694336e-01 1.988412737846374512e-01 1.257644593715667725e-02 7.145295292139053345e-02 -9.128589183092117310e-02 8.144041523337364197e-03 -8.231552243232727051e-01 5.489282011985778809e-01 -2.666420862078666687e-02 -8.188579678535461426e-01 2.484876364469528198e-01 -3.650514036417007446e-02 7.402131557464599609e-01
1.936563253402709961e-01 -4.918994009494781494e-01 3.507984280586242676e-01 5.902438163757324219e-01 2.551386952400207520e-01 -4.029844701290130615e-01 2.467442750930786133e-01 -4.053479135036468506e-01 -7.135943509638309479e-03 -6.003565192222595215e-01 -3.039065515622496605e-03 -6.562744975090026855e-01 -6.330288201570510864e-02 1.771927475929260254e-01 -1.045495644211769104e-01 -1.604647040367126465e-01 4.698523283004760742e-01 2.124983072280883789e-01 1.001472622156143188e-01 -8.506188541650772095e-02 -5.286141764372587204e-03 2.780611068010330200e-02 -1.247656941413879395e-01 1.390095204114913940e-01 -1.663579046726226807e-01 -4.882529973983764648e-01 -1.316328197717666626e-01 3.251872658729553223e-01 3.516084849834442139e-01 3.100368976593017578e-01 -1.889919638633728027e-01
4.116384685039520264e-01 6.401003897190093994e-02 4.417649507522583008e-01 1.046315357089042664e-01 -1.962993592023849487e-01 3.024769127368927002e-01 2.090011537075042725e-02 2.994020581245422363e-01 4.276287183165550232e-02 -8.287538588047027588e-02 -2.682364284992218018e-01 -2.115097343921661377e-01 -2.531934082508087158e-01 -2.845866233110427856e-02 -5.554458126425743103e-02 2.086054980754852295e-01 -2.168619483709335327e-01 -6.554384529590606689e-02 -1.293539255857467651e-01 2.947721779346466064e-01 -1.171841695904731750e-01 5.119571834802627563e-02 1.585258096456527710e-01 2.401607185602188110e-01 1.471094787120819092e-01 -6.001937016844749451e-02 -1.553985923528671265e-01 4.721149206161499023e-01 6.690476089715957642e-02 1.556885838508605957e-01 -5.685763433575630188e-02
1.438039690256118774e-01 -3.550923168659210205e-01 -1.942430138587951660e-01 5.373591929674148560e-02 -1.271756589412689209e-01 -9.395493865013122559e-01 -1.249523907899856567e-01 -3.730256259441375732e-01 -5.827594920992851257e-02 2.211150377988815308e-01 1.901845782995223999e-01 1.291592419147491455e-01 -4.295562505722045898e-01 1.212562322616577148e-01 7.932029664516448975e-02 7.412378787994384766e-01 -1.137375161051750183e-01 1.151463016867637634e-01 7.658985257148742676e-02 3.069519102573394775e-01 1.090320125222206116e-01 1.552565395832061768e-01 -1.321242451667785645e-01 -2.637695670127868652e-01 -1.915404796600341797e-01 -1.235381588339805603e-01 3.448010087013244629e-01 2.161631584167480469e-01 9.642090648412704468e-02 1.762257814407348633e-01 6.101262988522648811e-04
2.063706964254379272e-01 1.621508151292800903e-01 5.032928586006164551e-01 1.337640434503555298e-01 -6.134805083274841309e-02 -1.033283919095993042e-01 -2.921716310083866119e-02 3.494119644165039062e-01 5.433965101838111877e-02 5.369928479194641113e-01 1.756847836077213287e-02 3.239622414112091064e-01 1.271238327026367188e-01 -7.040450572967529297e-01 -4.068315923213958740e-01 5.473911762237548828e-01 -8.419685065746307373e-02 -5.183048844337463379e-01 -2.980895340442657471e-01 5.698639750480651855e-01 1.474710553884506226e-01 -4.362061917781829834e-01 3.847949504852294922e-01 1.110090874135494232e-02 -9.188199043273925781e-02 -7.875679433345794678e-02 7.407552599906921387e-01 -8.676086366176605225e-02 -7.978387922048568726e-02 -7.576979398727416992e-01 9.043079614639282227e-02
1.044211164116859436e-01 -4.074928760528564453e-01 -6.907516717910766602e-02 2.779800295829772949e-01 -4.104873538017272949e-02 -2.542267143726348877e-01 1.155764162540435791e-01 9.212780743837356567e-02 7.000796794891357422e-01 -2.475836873054504395e-01 -2.148596048355102539e-01 -1.507785618305206299e-01 -6.785720586776733398e-01 1.246268972754478455e-01 -1.570617258548736572e-01 5.561979115009307861e-02 1.363511979579925537e-01 -3.714015241712331772e-03 -1.312901675701141357e-01 4.289606213569641113e-02 2.350026667118072510e-01 2.585436403751373291e-01 -2.622847855091094971e-01 -7.732558250427246094e-02 -3.660303950309753418e-01 5.063812732696533203e-01 1.536327749490737915e-01 -6.024358272552490234e-01 -1.305075585842132568e-01 -2.759896814823150635e-01 4.013498425483703613e-01
1.009738296270370483e-01 -1.436668932437896729e-01 -4.087548255920410156e-01 3.783648088574409485e-02 -1.629550457000732422e-01 -3.233739137649536133e-01 -6.895616650581359863e-03 3.290603682398796082e-02 2.312074601650238037e-01 -1.990211904048919678e-01 4.690322875976562500e-01 -7.186593115329742432e-02 9.881664067506790161e-02 -2.733311355113983154e-01 1.735751330852508545e-01 6.591225862503051758e-01 -2.975217103958129883e-01 -2.750986255705356598e-02 5.946622043848037720e-02 2.306717336177825928e-01 -2.195260226726531982e-01 -2.155369073152542114e-01 1.343588531017303467e-01 1.899946182966232300e-01 -6.531124114990234375e-01 -1.335197389125823975e-01 3.380082249641418457e-01 -8.296561986207962036e-02 8.533503860235214233e-03 -1.914134472608566284e-01 6.693543791770935059e-01
1.851479262113571167e-01 8.831318467855453491e-02 7.861939072608947754e-01 3.893477916717529297e-01 3.407752811908721924e-01 -8.993329852819442749e-02 1.705016642808914185e-01 -3.339149057865142822e-02 1.659077405929565430e-02 -4.434653520584106445e-01 -7.280112802982330322e-02 -1.144682168960571289e-01 2.237010747194290161e-01 1.630662083625793457e-01 5.121451243758201599e-02 2.427079081535339355e-01 -8.620916306972503662e-02 -1.156155616044998169e-01 -1.398514658212661743e-01 8.238879591226577759e-02 -1.093616485595703125e-01 2.298224568367004395e-01 -6.107607856392860413e-02 8.381109684705734253e-02 2.307114377617835999e-02 1.253312528133392334e-01 -2.215447723865509033e-01 1.473870873451232910e-02 2.686734199523925781e-01 1.807773560285568237e-01 2.899580635130405426e-03
8.921086788177490234e-01 -5.059055089950561523e-01 -1.543936729431152344e-01 1.265801191329956055e+00 4.362398982048034668e-01 6.728348881006240845e-02 4.461239650845527649e-02 -9.586887061595916748e-02 -2.780695632100105286e-02 1.197658851742744446e-01 1.064332574605941772e-01 2.248725667595863342e-02 1.977047175168991089e-01 -5.169892683625221252e-02 -9.103257209062576294e-02 -9.834869951009750366e-02 -3.321417868137359619e-01 8.688392490148544312e-02 5.556335672736167908e-03 -2.118672430515289307e-01 -3.396994471549987793e-01 2.812689542770385742e-02 -4.706219583749771118e-02 -3.606624156236648560e-02 -1.714878380298614502e-01 8.859454840421676636e-02 -1.247975453734397888e-01 1.283325105905532837e-01 1.922644078731536865e-01 -1.299447417259216309e-01 -1.203137040138244629e-01
1.097913607954978943e-01 6.038187742233276367e-01 2.316100001335144043e-01 -2.389403246343135834e-02 -8.446284569799900055e-03 9.639534950256347656e-01 -3.342789411544799805e-01 3.032068312168121338e-01 8.474563062191009521e-02 4.031438753008842468e-02 -1.408171206712722778e-01 -3.468848466873168945e-01 4.247750639915466309e-01 -2.266640514135360718e-01 -1.306306868791580200e-01 -1.758226901292800903e-01 3.057282567024230957e-01 -2.856429815292358398e-01 -1.600804924964904785e-01 2.045116871595382690e-01 8.506833761930465698e-02 6.898076087236404419e-02 6.760036945343017578e-01 -1.224851757287979126e-01 2.207209318876266479e-01 -3.917345106601715088e-01 -5.516674518585205078e-01 5.386446118354797363e-01 3.591597378253936768e-01 4.252233803272247314e-01 -8.536370992660522461e-01
9.063177108764648438e-01 1.287259161472320557e-01 6.183354258537292480e-01 3.420595228672027588e-01 -2.324969023466110229e-01 3.349042534828186035e-01 -1.066400483250617981e-01 4.197781682014465332e-01 -5.370440706610679626e-02 -2.457205802202224731e-01 1.824059188365936279e-01 -1.213586702942848206e-01 1.477278303354978561e-02 -2.289509922266006470e-01 -2.645171284675598145e-01 1.869713701307773590e-02 -5.130861401557922363e-01 -2.679482996463775635e-01 -2.273077070713043213e-01 -1.263498365879058838e-01 -4.574582874774932861e-01 -4.567642137408256531e-02 -3.963671624660491943e-02 1.893297210335731506e-02 -8.187174052000045776e-02 -2.853348851203918457e-01 -1.095066294074058533e-01 3.049659729003906250e-01 3.935187458992004395e-01 1.353717893362045288e-01 -1.815716177225112915e-01
8.306635916233062744e-02 2.143272608518600464e-01 -8.070667274296283722e-03 2.991661429405212402e-01 2.749356925487518311e-01 -5.359140634536743164e-01 -7.577273845672607422e-01 -1.175899431109428406e-02 -5.529847741127014160e-01 2.638385295867919922e-01 2.090387046337127686e-01 4.398081898689270020e-01 -4.353522509336471558e-02 1.790436506271362305e-01 5.186491608619689941e-01 -1.952037811279296875e-01 -4.462646842002868652e-01 1.698395013809204102e-01 2.421627640724182129e-01 -1.009876847267150879e+00 -6.962022185325622559e-01 -2.701889872550964355e-01 2.961852550506591797e-01 -2.829939424991607666e-01 7.500679790973663330e-02 2.117234915494918823e-01 1.624297946691513062e-01 -7.439601421356201172e-02 3.549565672874450684e-01 -3.618972003459930420e-02 -2.435127086937427521e-02
6.079675555229187012e-01 -2.463195472955703735e-01 4.537865817546844482e-01 7.258787155151367188e-01 4.203945100307464600e-01 3.050216734409332275e-01 2.256382405757904053e-01 -1.540085822343826294e-01 3.073454499244689941e-01 -1.296549141407012939e-01 -9.027242660522460938e-02 -7.395288348197937012e-02 4.293743968009948730e-01 2.473233044147491455e-01 -3.141824901103973389e-01 -1.129010394215583801e-01 -1.663879677653312683e-02 5.567449610680341721e-03 -2.427366189658641815e-02 -4.599912464618682861e-02 -5.180648714303970337e-02 1.214683875441551208e-01 -2.744284570217132568e-01 -9.347972273826599121e-02 -2.935727536678314209e-01 3.333646655082702637e-01 -6.116127967834472656e-01 -3.263126313686370850e-01 -9.469643980264663696e-02 9.090379625558853149e-02 8.271011710166931152e-02
5.816338956356048584e-02 2.636507749557495117e-01 -4.931958764791488647e-02 -1.148785427212715149e-01 -2.821626663208007812e-01 -1.469452828168869019e-01 -2.262030839920043945e-01 -6.565831303596496582e-01 3.449626863002777100e-01 1.258106715977191925e-02 1.511236280202865601e-01 6.254387646913528442e-02 -3.870535790920257568e-01 7.743779569864273071e-02 1.859172582626342773e-01 -1.285985261201858521e-01 -1.896747201681137085e-01 1.009410172700881958e-01 1.970541775226593018e-01 -2.236471921205520630e-01 -1.770049929618835449e-01 -1.195200812071561813e-02 -7.498079538345336914e-02 -4.275797903537750244e-01 -1.694423109292984009e-01 4.324934184551239014e-01 3.057968616485595703e-02 -3.686088621616363525e-01 -3.285171985626220703e-01 -1.451341509819030762e-01 3.216789364814758301e-01
1.706572771072387695e-01 5.460654944181442261e-02 5.325260162353515625e-01 5.427320003509521484e-01 2.958320081233978271e-01 2.541638016700744629e-01 -5.231521558016538620e-03 2.003600746393203735e-01 4.443531334400177002e-01 -1.324243694543838501e-01 -1.889007687568664551e-01 -3.046068549156188965e-01 2.426597326993942261e-01 -5.891892313957214355e-02 -2.231058925390243530e-01 -4.823763966560363770e-01 1.130236759781837463e-01 -1.371328234672546387e-01 -3.651721775531768799e-01 1.311654597520828247e-01 1.531713157892227173e-01 2.746487259864807129e-01 1.474667489528656006e-01 2.998026311397552490e-01 -1.087810471653938293e-01 -7.409894466400146484e-02 -2.844647765159606934e-01 -2.532526850700378418e-01 2.026197463274002075e-01 -3.266436234116554260e-02 3.247708678245544434e-01
-4.277494251728057861e-01 6.769778728485107422e-01 4.355410337448120117e-01 2.748669981956481934e-01 1.631639748811721802e-01 -1.151829957962036133e-01 2.207037359476089478e-01 -2.507188543677330017e-02 -5.579860135912895203e-02 4.063424766063690186e-01 2.490617185831069946e-01 7.935649901628494263e-02 1.236465293914079666e-02 -7.506146430969238281e-01 -1.100623980164527893e-01 2.363688051700592041e-01 7.904170453548431396e-02 3.066548891365528107e-02 1.221017315983772278e-01 6.347690820693969727e-01 2.445715516805648804e-01 -4.772758781909942627e-01 2.195622324943542480e-01 6.007288694381713867e-01 2.681063115596771240e-01 -4.582457542419433594e-01 3.159436583518981934e-01 5.686967819929122925e-02 -5.812111496925354004e-01 -5.867663025856018066e-01 -2.413132786750793457e-01
1.655863076448440552e-01 -9.559823572635650635e-02 -4.246681034564971924e-01 -1.729531139135360718e-01 -3.737739026546478271e-01 -5.916658639907836914e-01 -7.592708617448806763e-02 1.231741383671760559e-01 1.486002951860427856e-01 -2.198473783209919930e-03 1.131597831845283508e-01 -3.892845287919044495e-02 -1.562743932008743286e-01 -2.875963151454925537e-01 -1.206087172031402588e-01 3.600872457027435303e-01 -6.302176415920257568e-02 7.777513563632965088e-02 1.195877194404602051e-01 4.149383306503295898e-01 2.238547988235950470e-02 -1.652907431125640869e-01 3.217233717441558838e-01 2.345573157072067261e-02 -1.347732096910476685e-01 1.462578177452087402e-01 3.101523406803607941e-02 -2.981038093566894531e-01 -5.902051553130149841e-02 -2.339251190423965454e-01 3.581253588199615479e-01
2.384474575519561768e-01 -1.603406071662902832e-01 2.367267310619354248e-01 4.927459061145782471e-01 3.561646342277526855e-01 1.819265335798263550e-01 -3.724851012229919434e-01 -1.672625541687011719e-01 2.673850059509277344e-01 -1.029543504118919373e-01 -1.362336874008178711e-01 -5.379809066653251648e-02 -4.063443243503570557e-01 3.020622581243515015e-02 3.876411318778991699e-01 4.105207324028015137e-01 -4.182020723819732666e-01 1.037734746932983398e-01 2.184680402278900146e-01 1.145725045353174210e-02 -4.562997445464134216e-02 -2.310255728662014008e-02 1.837374642491340637e-02 -4.727701544761657715e-01 -1.988287419080734253e-01 2.665985003113746643e-02 -2.358515113592147827e-01 -1.414607465267181396e-01 -1.463146954774856567e-01 -8.814263343811035156e-02 2.236817926168441772e-01
9.422405958175659180e-01 -1.248704791069030762e-01 5.286204814910888672e-01 1.656034886837005615e-01 -2.183036357164382935e-01 2.705077528953552246e-01 2.463637441396713257e-01 1.653065085411071777e-01 1.399722695350646973e-01 -4.011890664696693420e-02 1.159734651446342468e-01 5.692034959793090820e-01 2.882811129093170166e-01 -1.311959624290466309e-01 -3.591267466545104980e-01 -4.698222037404775620e-03 -8.419540524482727051e-02 -1.427902560681104660e-02 -5.673238635063171387e-02 -2.743262946605682373e-01 -1.074331104755401611e-01 1.193063706159591675e-01 -2.586565315723419189e-01 3.015703260898590088e-01 4.552974700927734375e-01 -2.237921021878719330e-02 -1.278351098299026489e-01 1.429203990846872330e-02 1.264844387769699097e-01 -3.776585459709167480e-01 -1.413899958133697510e-01
3.208314478397369385e-01 4.648104012012481689e-01 3.361140787601470947e-01 2.927413880825042725e-01 1.941224336624145508e-01 4.220194518566131592e-01 2.937268018722534180e-01 2.454886883497238159e-01 -6.447565276175737381e-03 -1.527404338121414185e-01 -4.120790660381317139e-01 1.739348024129867554e-01 3.438577353954315186e-01 -8.825528621673583984e-02 -5.250775814056396484e-01 -9.532479196786880493e-02 4.528548195958137512e-02 -1.856789737939834595e-01 -2.377802729606628418e-01 1.714222133159637451e-01 2.876287102699279785e-01 1.206419710069894791e-02 -2.277362495660781860e-01 3.268921375274658203e-01 2.449707239866256714e-01 1.671405285596847534e-01 -5.813272297382354736e-02 1.189270690083503723e-01 6.551980972290039062e-02 -2.442762851715087891e-01 1.078301295638084412e-02
-1.845362186431884766e-01 2.260078489780426025e-01 -5.500157475471496582e-01 -5.542845129966735840e-01 -6.750649213790893555e-01 2.990474402904510498e-01 1.146074905991554260e-01 2.684905529022216797e-01 -1.514756530523300171e-01 -1.093984246253967285e-01 -1.316591799259185791e-01 -1.109217554330825806e-01 -1.941343098878860474e-01 6.470954418182373047e-01 1.357300430536270142e-01 5.885497108101844788e-02 9.961313754320144653e-02 1.379313170909881592e-01 -6.016500294208526611e-02 2.129597216844558716e-01 9.595302492380142212e-02 3.323632180690765381e-01 -2.414266616106033325e-01 -2.501874864101409912e-01 -3.073724806308746338e-01 2.388013899326324463e-01 4.289907515048980713e-01 -3.001013072207570076e-03 -7.351886481046676636e-02 4.609517380595207214e-02 2.877489030361175537e-01
4.360901713371276855e-01 -1.150402724742889404e-01 7.331334948539733887e-01 6.015961170196533203e-01 3.431424498558044434e-01 3.412646949291229248e-01 6.291047930717468262e-01 9.176832623779773712e-03 -2.699829638004302979e-01 -2.911665737628936768e-01 -2.170969694852828979e-01 1.387995332479476929e-01 2.792320214211940765e-02 2.343450672924518585e-02 1.881970465183258057e-01 8.080796152353286743e-02 3.101397752761840820e-01 -1.139046922326087952e-01 -5.704921856522560120e-02 -1.730355471372604370e-01 -2.137538540409877896e-04 1.296281516551971436e-01 -3.358065187931060791e-01 1.450084745883941650e-01 1.895012855529785156e-01 2.606593370437622070e-01 2.512934207916259766e-01 1.102817058563232422e-01 2.906431555747985840e-01 1.402858644723892212e-01 -1.501438617706298828e-01
3.351471722126007080e-01 1.584527641534805298e-01 -4.623136222362518311e-01 -6.491874456405639648e-01 -6.143907904624938965e-01 2.082827538251876831e-01 1.283611804246902466e-01 -2.120264917612075806e-01 -1.628012210130691528e-02 9.324159622192382812e-01 2.302116155624389648e-02 -6.667619198560714722e-02 4.110386967658996582e-01 1.226536929607391357e-01 -2.655372023582458496e-01 -1.758765727281570435e-01 -2.519758045673370361e-01 -1.661949753761291504e-01 -3.079721331596374512e-01 3.173433542251586914e-01 -1.078912913799285889e-01 -3.156988918781280518e-01 1.314967572689056396e-01 -1.145227700471878052e-01 3.929499536752700806e-02 3.282068669795989990e-01 5.125939249992370605e-01 2.706560678780078888e-02 -5.338029265403747559e-01 -4.133065640926361084e-01 7.652986794710159302e-02
-1.451543532311916351e-02 2.542493678629398346e-02 2.785000801086425781e-01 2.142585813999176025e-02 -2.719837427139282227e-01 -4.782530292868614197e-02 -5.858494434505701065e-03 3.429275751113891602e-01 1.770018041133880615e-01 2.982165431603789330e-03 3.560069501399993896e-01 -1.308882683515548706e-01 -1.946253180503845215e-01 2.407516390085220337e-01 1.244379729032516479e-01 -6.668604910373687744e-02 1.963336318731307983e-01 1.754690557718276978e-01 2.098269313573837280e-01 5.151049233973026276e-03 3.643076401203870773e-03 1.155236214399337769e-01 1.321117673069238663e-02 -5.084103345870971680e-02 -9.052811190485954285e-03 -1.640240103006362915e-01 -2.389848530292510986e-01 2.776635289192199707e-01 5.490468144416809082e-01 7.547852396965026855e-02 -9.848218411207199097e-02
-3.136191144585609436e-02 2.609283924102783203e-01 -2.262679636478424072e-01 -1.445968449115753174e-01 -1.412449032068252563e-01 -3.658742010593414307e-01 -9.655749797821044922e-02 -8.394338935613632202e-02 -3.029471039772033691e-01 1.880694180727005005e-01 9.428065270185470581e-02 1.651090085506439209e-01 -5.793348699808120728e-02 1.463790535926818848e-01 2.903827428817749023e-01 -1.161316409707069397e-01 4.422045648097991943e-01 2.366013973951339722e-01 3.712854161858558655e-02 1.555062234401702881e-01 4.990376830101013184e-01 -3.079211115837097168e-01 -1.924889385700225830e-01 -3.569114506244659424e-01 -2.479903772473335266e-02 1.217901855707168579e-01 -1.794589012861251831e-01 3.433570638298988342e-02 -1.041209045797586441e-02 -5.498365685343742371e-02 2.637111209332942963e-02
7.068744301795959473e-01 2.207881808280944824e-01 1.380586773157119751e-01 1.848080158233642578e-01 2.277328521013259888e-01 2.210774123668670654e-01 -3.653371334075927734e-02 -5.574081093072891235e-02 2.615796029567718506e-01 6.153131276369094849e-02 2.319148331880569458e-01 1.624268591403961182e-01 -4.164699912071228027e-01 8.113677799701690674e-02 -8.425210416316986084e-02 7.396326959133148193e-02 -8.572155237197875977e-02 1.962178945541381836e-02 -1.063812300562858582e-01 1.400115340948104858e-01 3.505138214677572250e-03 2.887539938092231750e-02 -4.012555629014968872e-02 1.455768048763275146e-01 -1.279699057340621948e-01 1.982925646007061005e-02 -2.016389369964599609e-01 7.449269294738769531e-02 2.873802781105041504e-01 3.449325263500213623e-02 7.987257093191146851e-02
6.857737898826599121e-01 5.031326040625572205e-02 6.015047430992126465e-01 3.463237881660461426e-01 8.695038408041000366e-02 1.520841121673583984e-01 3.223946988582611084e-01 1.453731209039688110e-01 -4.837807714939117432e-01 -1.220751330256462097e-01 -4.517614245414733887e-01 2.504523396492004395e-01 1.492443382740020752e-01 1.947592347860336304e-01 -2.923334836959838867e-01 -4.047431945800781250e-01 8.914069086313247681e-02 -4.382731020450592041e-02 -2.092290073633193970e-01 -7.394181936979293823e-02 1.985842585563659668e-01 -5.388253554701805115e-02 -7.351777702569961548e-02 2.024452686309814453e-01 3.260323544964194298e-03 -8.026851713657379150e-02 -2.170673459768295288e-01 5.389541983604431152e-01 1.899542063474655151e-01 3.583678007125854492e-01 -1.815909445285797119e-01
3.448559343814849854e-01 -2.731666564941406250e-01 1.417470872402191162e-01 1.918670684099197388e-01 7.659870386123657227e-02 5.965529084205627441e-01 1.294735819101333618e-01 1.139724068343639374e-02 -7.473142743110656738e-01 -1.533405631780624390e-01 -1.244278475642204285e-01 5.508865043520927429e-02 -3.075806498527526855e-01 1.746630817651748657e-01 -7.583687454462051392e-02 -2.874198555946350098e-01 -3.961814939975738525e-02 1.435171365737915039e-01 1.694552302360534668e-01 1.276497635990381241e-02 3.566731512546539307e-02 1.427490115165710449e-01 -1.491225361824035645e-01 -5.646668076515197754e-01 2.087842673063278198e-01 -8.934456855058670044e-02 5.871875677257776260e-03 5.717419981956481934e-01 3.348710536956787109e-01 4.264715909957885742e-01 -3.350051939487457275e-01
4.692512452602386475e-01 -2.591387033462524414e-01 -4.070382565259933472e-02 2.741127610206604004e-01 1.002155020833015442e-01 1.761294901371002197e-01 -3.922256175428628922e-03 3.248064219951629639e-02 2.447238564491271973e-01 -1.706143617630004883e-01 -5.559291690587997437e-02 -2.636664807796478271e-01 -1.934758424758911133e-01 1.044791378080844879e-02 2.931994386017322540e-02 -9.467033296823501587e-02 3.973163962364196777e-01 8.476108312606811523e-02 -3.048446262255311012e-03 1.618428081274032593e-01 5.717496201395988464e-02 7.494293153285980225e-02 1.730846017599105835e-01 2.751942574977874756e-01 -3.132007271051406860e-02 -7.434561103582382202e-02 9.128660708665847778e-02 7.270043343305587769e-02 3.295664489269256592e-01 -7.118090987205505371e-02 -1.128461118787527084e-02
3.679845333099365234e-01 2.482246011495590210e-01 4.157057031989097595e-02 3.427531719207763672e-01 2.935037612915039062e-01 -1.037572622299194336e-01 -1.305768489837646484e-01 -2.154100835323333740e-01 1.561675220727920532e-01 6.854098290205001831e-02 -9.545435011386871338e-02 3.218135833740234375e-01 -1.572735458612442017e-01 -1.118364259600639343e-01 -2.087766490876674652e-02 2.732548415660858154e-01 -5.097098648548126221e-02 1.757292151451110840e-01 2.643585205078125000e-01 4.246526211500167847e-02 -2.590197622776031494e-01 1.407159417867660522e-01 8.467716164886951447e-03 1.717353016138076782e-01 5.949201434850692749e-02 -1.562515944242477417e-01 -7.056901603937149048e-02 -1.504232436418533325e-01 4.597015678882598877e-01 -8.720796555280685425e-03 1.330336928367614746e-01
3.637092113494873047e-01 -3.236684799194335938e-01 -3.576199710369110107e-02 -4.076020419597625732e-02 -7.657111436128616333e-02 -2.955356538295745850e-01 -8.616244792938232422e-02 -4.236183464527130127e-01 8.638176321983337402e-02 -1.261163800954818726e-01 2.039347290992736816e-01 -3.882416291162371635e-03 -3.605123758316040039e-01 -2.167200595140457153e-01 1.718387752771377563e-02 3.796982765197753906e-01 -2.027701288461685181e-01 -1.485544294118881226e-01 -2.326896972954273224e-02 -9.223434329032897949e-02 -1.696114540100097656e-01 3.829549252986907959e-02 2.178597301244735718e-01 1.865258067846298218e-01 -2.236020416021347046e-01 1.896809786558151245e-01 2.642141878604888916e-01 1.290627270936965942e-01 2.886596024036407471e-01 -1.450814027339220047e-02 3.254317939281463623e-01
-3.627665936946868896e-01 1.910564303398132324e-01 1.337787359952926636e-01 -3.008288331329822540e-02 -1.571606546640396118e-01 -6.221768260002136230e-01 4.436486661434173584e-01 -2.411751598119735718e-01 3.618744313716888428e-01 7.406115531921386719e-01 -5.572493001818656921e-02 5.257560014724731445e-01 -3.998233973979949951e-01 -3.607846200466156006e-01 -3.730135262012481689e-01 6.296095252037048340e-01 1.443723887205123901e-01 -4.731161594390869141e-01 -3.589248955249786377e-01 5.393125414848327637e-01 2.094499468803405762e-01 -2.585807740688323975e-01 -6.829065829515457153e-02 1.784132868051528931e-01 2.717747353017330170e-02 -7.531391382217407227e-01 5.597873926162719727e-01 -7.504558563232421875e-02 2.505137026309967041e-01 -7.740764319896697998e-02 -3.512474650051444769e-04
-6.114187464118003845e-02 5.520179867744445801e-01 1.452816128730773926e-01 1.649018824100494385e-01 1.184816956520080566e-01 -5.101395249366760254e-01 -2.612680196762084961e-01 3.362676799297332764e-01 -3.165198564529418945e-01 3.284845948219299316e-01 1.806299984455108643e-01 2.453243285417556763e-01 2.692377567291259766e-01 1.390614639967679977e-02 1.051052063703536987e-01 -6.489206105470657349e-02 -1.352055072784423828e-01 -5.701127927750349045e-03 1.825009733438491821e-01 -4.411140978336334229e-01 -3.597792983055114746e-01 -1.116755902767181396e-01 1.690576374530792236e-01 -2.982256710529327393e-01 -6.767660379409790039e-02 3.851367533206939697e-02 1.788800209760665894e-01 1.695980876684188843e-01 -9.862550534307956696e-03 -2.779018878936767578e-01 6.202466040849685669e-02
2.319438904523849487e-01 3.229003548622131348e-01 -2.033600807189941406e-01 -2.168387919664382935e-01 -1.673944443464279175e-01 -1.472750753164291382e-01 -3.931739330291748047e-01 -7.289806604385375977e-01 -3.816098570823669434e-01 4.033999741077423096e-01 3.316422700881958008e-01 1.624733209609985352e-01 9.476954489946365356e-02 3.827883303165435791e-02 4.018248021602630615e-01 2.230675518512725830e-02 -5.980662107467651367e-01 1.015215292572975159e-01 2.488252073526382446e-01 1.534420698881149292e-01 -1.693748831748962402e-01 -5.618117451667785645e-01 7.339830975979566574e-03 -7.669122219085693359e-01 -3.171228766441345215e-01 3.575229644775390625e-01 1.355897337198257446e-01 -4.430848360061645508e-01 -6.759043931961059570e-01 -4.131380617618560791e-01 1.865251809358596802e-01
7.013439536094665527e-01 -1.320960465818643570e-03 4.904815256595611572e-01 1.501612663269042969e-01 -2.369783073663711548e-01 5.866793990135192871e-01 -8.476093411445617676e-02 2.041953057050704956e-01 3.469731509685516357e-01 -2.127903997898101807e-01 7.973501831293106079e-02 -1.223481968045234680e-01 1.659020334482192993e-01 4.986539110541343689e-02 -7.511030137538909912e-02 3.090950548648834229e-01 4.357698261737823486e-01 2.081910967826843262e-01 2.011516988277435303e-01 3.061834275722503662e-01 2.888057827949523926e-01 -4.348573740571737289e-03 -3.882472217082977295e-01 -9.436392039060592651e-02 1.778911203145980835e-01 1.100938208401203156e-02 8.796750567853450775e-03 3.009153008460998535e-01 -4.141665399074554443e-01 -1.329244673252105713e-01 -1.365031860768795013e-02
-2.489730119705200195e-01 -8.250118792057037354e-02 1.399541459977626801e-02 2.046997100114822388e-02 1.772767156362533569e-01 -3.487518727779388428e-01 1.182384192943572998e-01 -4.411578774452209473e-01 1.449541002511978149e-01 -4.253076314926147461e-01 -6.720431894063949585e-02 -4.427843987941741943e-01 -5.652421712875366211e-01 2.645328342914581299e-01 2.456998378038406372e-01 -1.435554176568984985e-01 1.704344898462295532e-01 4.859715104103088379e-01 3.229340314865112305e-01 -1.477841585874557495e-01 6.343617290258407593e-02 3.039628565311431885e-01 1.343729645013809204e-01 -6.947014927864074707e-01 -7.621093839406967163e-02 5.723872184753417969e-01 -2.381345778703689575e-01 -2.894273698329925537e-01 6.794376671314239502e-02 1.433419138193130493e-01 4.533021450042724609e-01
6.572939455509185791e-02 9.322196245193481445e-02 2.129289656877517700e-01 -3.951935768127441406e-01 -4.195249974727630615e-01 3.867252171039581299e-01 -2.286132425069808960e-02 -5.392421409487724304e-02 2.128170281648635864e-01 -2.064951658248901367e-01 -3.683190047740936279e-01 -2.638161480426788330e-01 -2.236850857734680176e-01 -2.669681906700134277e-01 -8.129873126745223999e-02 7.784044742584228516e-02 -3.241482377052307129e-02 -2.191288322210311890e-01 -1.828028708696365356e-01 3.278262913227081299e-01 2.222861647605895996e-01 -3.914834558963775635e-02 1.206272393465042114e-01 1.430956572294235229e-01 2.257039546966552734e-01 4.890244603157043457e-01 1.410943716764450073e-01 -2.772920578718185425e-02 5.933953523635864258e-01 -5.728777647018432617e-01 7.864075154066085815e-02
3.376310169696807861e-01 1.869126409292221069e-01 1.250742822885513306e-01 2.143191397190093994e-01 -9.871795028448104858e-02 1.774202845990657806e-02 3.153519034385681152e-01 -5.974168702960014343e-02 -3.360216021537780762e-01 4.985098540782928467e-01 1.849062442779541016e-01 4.099327921867370605e-01 1.563835591077804565e-01 -2.754963934421539307e-01 -8.558612316846847534e-02 2.862568199634552002e-01 -1.762455552816390991e-01 -3.174656033515930176e-01 -8.092425018548965454e-02 -1.484107784926891327e-02 -4.051176086068153381e-02 -1.236029490828514099e-01 -7.317075878381729126e-02 7.713474333286285400e-02 -2.055010795593261719e-01 8.321171253919601440e-02 1.666224896907806396e-01 -2.460660412907600403e-02 -1.012946218252182007e-01 -9.362027049064636230e-02 7.798637449741363525e-02
7.894016504287719727e-01 -4.079617559909820557e-01 -1.595163494348526001e-01 2.120563015341758728e-02 -5.139089375734329224e-02 1.102253347635269165e-01 3.521538972854614258e-01 4.110748693346977234e-02 -1.585853695869445801e-01 8.309528976678848267e-02 5.426899716258049011e-02 3.260327279567718506e-01 -2.068963460624217987e-02 -2.221869379281997681e-01 -8.057057857513427734e-02 1.373597532510757446e-01 -5.506196022033691406e-01 -2.302713692188262939e-02 -4.606517776846885681e-02 4.909825623035430908e-01 -1.342190504074096680e-01 -3.259702026844024658e-01 -1.214375123381614685e-01 -3.648549318313598633e-02 -3.233326226472854614e-02 1.682446300983428955e-01 2.584048509597778320e-01 -4.881868660449981689e-01 2.071670256555080414e-02 -1.311312615871429443e-01 -1.412143856287002563e-01
5.577968955039978027e-01 -1.918940544128417969e-01 -7.150179147720336914e-02 3.658123314380645752e-02 -1.324023753404617310e-01 -1.386189013719558716e-01 2.600594758987426758e-01 -4.904238972812891006e-03 -7.317717671394348145e-01 3.526146411895751953e-01 9.162746369838714600e-02 6.122198700904846191e-01 2.760827243328094482e-01 2.065371535718441010e-02 -3.015212118625640869e-01 2.851334214210510254e-01 -2.514607906341552734e-01 -3.237321972846984863e-01 -3.221737742424011230e-01 1.120380759239196777e-01 6.564909964799880981e-02 -1.767791360616683960e-01 -7.157050967216491699e-01 -7.207729220390319824e-01 -2.420033067464828491e-01 3.624517321586608887e-01 4.534890055656433105e-01 -2.104311883449554443e-01 -2.160245031118392944e-01 -1.695623397827148438e-01 2.332348823547363281e-01
2.014038860797882080e-01 5.271999239921569824e-01 3.730943500995635986e-01 -1.558880135416984558e-02 6.476648151874542236e-02 2.897237055003643036e-02 2.797281742095947266e-01 -5.363911986351013184e-01 -2.882041335105895996e-01 -1.802171915769577026e-01 -1.093674451112747192e-01 -4.759610071778297424e-02 -3.528250455856323242e-01 -2.108071446418762207e-01 -7.958766072988510132e-02 6.302316188812255859e-01 -4.409451484680175781e-01 -2.164409905672073364e-01 -3.737686574459075928e-02 4.719285070896148682e-01 -2.553397715091705322e-01 -1.341252028942108154e-01 1.745626926422119141e-01 1.218113973736763000e-01 -9.109544754028320312e-02 -3.431548550724983215e-02 -1.483865380287170410e-01 2.198615521192550659e-01 1.244795545935630798e-01 1.485246419906616211e-01 -6.253286451101303101e-02
3.000449240207672119e-01 9.699336290359497070e-01 3.530479669570922852e-01 1.390387713909149170e-01 1.591128557920455933e-01 -8.739671856164932251e-02 -4.638908803462982178e-01 -3.180903196334838867e-01 3.658627569675445557e-01 5.806313082575798035e-02 2.215540111064910889e-01 -2.004120498895645142e-01 -4.252416789531707764e-01 7.239794731140136719e-02 2.772563099861145020e-01 7.289493083953857422e-02 -2.302809618413448334e-02 1.967618018388748169e-01 1.834190934896469116e-01 -1.201986372470855713e-01 -7.703772187232971191e-02 -2.271248996257781982e-01 5.865846872329711914e-01 -1.246996298432350159e-01 -6.709799170494079590e-03 -1.878237724304199219e-01 -1.456755250692367554e-01 -2.729763686656951904e-01 -3.966960310935974121e-01 -2.811692953109741211e-01 -1.273798197507858276e-01
-3.410549089312553406e-02 -4.675779640674591064e-01 -2.566095590591430664e-01 1.944309845566749573e-02 -2.816656790673732758e-02 -8.081120997667312622e-02 -3.003606200218200684e-01 -2.563519179821014404e-01 3.983494937419891357e-01 2.579134516417980194e-02 -4.588843882083892822e-02 -2.332199215888977051e-01 2.986862361431121826e-01 1.642515659332275391e-01 -7.647465914487838745e-02 2.527226507663726807e-01 -2.958271205425262451e-01 -2.517580687999725342e-01 -1.962723135948181152e-01 2.438696920871734619e-01 -4.746330901980400085e-02 2.931884722784161568e-03 4.007584750652313232e-01 -2.479431331157684326e-01 -2.351434379816055298e-01 -3.652518093585968018e-01 -3.284670114517211914e-01 2.269739843904972076e-02 -2.155430465936660767e-01 1.827971637248992920e-01 -1.593336015939712524e-01
2.716885209083557129e-01 3.612633347511291504e-01 4.080540239810943604e-01 4.067995250225067139e-01 4.826470315456390381e-01 -1.142286896705627441e+00 -2.013487964868545532e-01 -4.758276343345642090e-01 1.430649310350418091e-01 4.274938628077507019e-02 -2.633577883243560791e-01 -2.404769510030746460e-02 -1.759836822748184204e-01 7.527469843626022339e-02 -9.685437381267547607e-02 3.728298097848892212e-02 -2.382079362869262695e-01 5.185088887810707092e-02 5.605908110737800598e-02 -5.307734012603759766e-01 -2.481666654348373413e-01 2.389357984066009521e-01 2.476040869951248169e-01 -2.959477901458740234e-01 4.255322515964508057e-01 -1.451269835233688354e-01 -2.936312854290008545e-01 5.622422099113464355e-01 -8.721011877059936523e-02 1.453583985567092896e-01 -4.682742059230804443e-01
2.336212247610092163e-01 -4.561941325664520264e-01 1.044992879033088684e-01 -6.904200464487075806e-02 -5.920685082674026489e-02 5.373964458703994751e-02 -6.303989794105291367e-03 5.129957795143127441e-01 6.097537279129028320e-01 2.709037363529205322e-01 4.184533357620239258e-01 8.036462217569351196e-02 1.986635476350784302e-01 -1.777736097574234009e-01 -1.371175050735473633e-01 1.828482896089553833e-01 4.350156188011169434e-01 -3.829713761806488037e-01 -2.689518928527832031e-01 -8.779821544885635376e-02 2.356392294168472290e-01 -2.211632132530212402e-01 -2.608091831207275391e-01 -4.009555280208587646e-01 -3.295929729938507080e-01 -7.422493100166320801e-01 -4.402913153171539307e-01 -4.404283463954925537e-01 1.004862412810325623e-01 -6.220443546772003174e-02 2.443051338195800781e-01
2.093078345060348511e-01 7.939959876239299774e-03 -9.239929169416427612e-02 1.166100949048995972e-01 -1.082774028182029724e-01 -6.773564964532852173e-02 1.890371888875961304e-01 -9.923914074897766113e-02 -3.132500350475311279e-01 2.205221801996231079e-01 -1.988172382116317749e-01 4.070885479450225830e-01 1.601147353649139404e-01 -2.897717952728271484e-01 -2.579256296157836914e-01 -8.589859306812286377e-02 -1.543776690959930420e-01 -6.976965814828872681e-02 -4.609105736017227173e-02 -2.541722543537616730e-02 3.551600128412246704e-02 2.213272638618946075e-02 -3.633980154991149902e-01 -2.027612924575805664e-01 -1.376641243696212769e-01 7.722559571266174316e-02 3.378719389438629150e-01 1.442292630672454834e-01 3.341757059097290039e-01 -1.647005975246429443e-02 3.217171728610992432e-01
3.941198885440826416e-01 -4.698079526424407959e-01 -1.423370987176895142e-01 -1.041774451732635498e-01 -1.769038476049900055e-02 1.775153428316116333e-01 7.063879817724227905e-02 -2.289725840091705322e-01 -6.233151555061340332e-01 3.047035634517669678e-01 8.193172812461853027e-01 -1.498710513114929199e-01 3.762359619140625000e-01 -7.451307773590087891e-01 -8.026634901762008667e-02 1.626028567552566528e-01 -3.529103100299835205e-01 8.628361858427524567e-03 2.368541508913040161e-01 2.188803851604461670e-01 -2.138193696737289429e-01 -3.597586154937744141e-01 2.919679582118988037e-01 1.020831391215324402e-01 -3.693829849362373352e-02 -1.702074855566024780e-01 5.366381406784057617e-01 7.958340644836425781e-02 -2.121288478374481201e-01 -6.516924500465393066e-02 -2.681528031826019287e-01
-3.771641850471496582e-01 -5.684468429535627365e-03 -4.524298757314682007e-02 -2.337716072797775269e-01 -7.631329447031021118e-02 -8.037253469228744507e-02 2.486808151006698608e-01 2.993377447128295898e-01 -2.215744853019714355e-01 5.327495932579040527e-01 -2.273770570755004883e-01 2.352174520492553711e-01 2.418349385261535645e-01 -3.722346723079681396e-01 -2.210022956132888794e-01 1.963682919740676880e-01 -5.651404857635498047e-01 -3.129993379116058350e-01 -1.745694875717163086e-01 2.746404409408569336e-01 -1.603233516216278076e-01 -2.324936166405677795e-02 -1.859447360038757324e-01 1.048198640346527100e-01 7.456121593713760376e-02 1.755781769752502441e-01 2.442423403263092041e-01 2.034838497638702393e-01 -3.272949159145355225e-01 -2.070032060146331787e-02 -1.356533616781234741e-01
3.965510725975036621e-01 -4.833764135837554932e-01 1.464249193668365479e-01 7.028351426124572754e-01 1.981072425842285156e-01 3.195360004901885986e-01 -4.053986072540283203e-02 5.464925989508628845e-02 4.443223774433135986e-02 -1.533606052398681641e-01 -1.867565363645553589e-01 -2.664005458354949951e-01 -8.603217452764511108e-02 -2.627499401569366455e-01 -9.200404398143291473e-03 -2.436908632516860962e-01 -7.842161506414413452e-02 -7.415764033794403076e-02 -5.135965347290039062e-02 1.024197787046432495e-01 -1.158461812883615494e-02 4.009868502616882324e-01 1.551033705472946167e-01 -6.334373354911804199e-02 3.197736442089080811e-01 7.957703620195388794e-02 -1.867592036724090576e-01 1.895429641008377075e-01 2.637801766395568848e-01 2.890051305294036865e-01 -2.726255059242248535e-01
2.702971398830413818e-01 -1.617526262998580933e-02 3.310249373316764832e-02 -1.217014435678720474e-02 -9.482313878834247589e-03 9.186862707138061523e-01 -1.076534092426300049e-01 4.089184403419494629e-01 2.816548943519592285e-01 2.773000299930572510e-01 3.544638752937316895e-01 -5.094621181488037109e-01 -6.106496602296829224e-02 -4.572884142398834229e-01 1.017705574631690979e-01 -4.820046573877334595e-02 2.473292052745819092e-01 1.931614279747009277e-01 1.996855586767196655e-01 3.465180099010467529e-01 7.600175589323043823e-02 2.112498432397842407e-01 -6.958171725273132324e-02 -4.574939906597137451e-01 -2.924372553825378418e-01 -2.385803759098052979e-01 -3.943927288055419922e-01 -5.082713961601257324e-01 1.470687985420227051e-01 4.215696454048156738e-01 2.024870216846466064e-01
-3.480527922511100769e-02 -4.161250889301300049e-01 1.079619973897933960e-01 2.303142696619033813e-01 -7.225577533245086670e-02 -4.156631231307983398e-01 -1.892060041427612305e-01 -3.451710045337677002e-01 -1.901863068342208862e-01 -6.334069371223449707e-02 1.498315781354904175e-01 -1.147562116384506226e-01 -2.364629060029983521e-01 2.483262419700622559e-01 6.137011945247650146e-02 -1.435682773590087891e-01 -3.283645510673522949e-01 2.759107947349548340e-02 -9.826625883579254150e-02 -1.230280473828315735e-01 -3.160090446472167969e-01 -2.454372346401214600e-01 9.043170511722564697e-02 -1.844170391559600830e-01 -1.252018380910158157e-02 -7.299771904945373535e-02 -4.960423335433006287e-02 1.644777357578277588e-01 2.225344926118850708e-01 -5.160060152411460876e-02 -6.412643939256668091e-02
4.236748814582824707e-01 2.457390539348125458e-03 -5.201597809791564941e-01 -2.907044291496276855e-01 -2.173570543527603149e-01 -7.731458544731140137e-01 1.056902408599853516e-01 -1.849049031734466553e-01 5.674286279827356339e-03 1.656344085931777954e-01 -2.025993615388870239e-01 2.016212493181228638e-01 -2.156860232353210449e-01 6.981846690177917480e-02 -3.006623983383178711e-01 8.453541249036788940e-02 -2.400714531540870667e-02 -5.548760294914245605e-02 -2.781114578247070312e-01 5.654609575867652893e-02 -1.901935636997222900e-01 3.457872197031974792e-02 -8.040170185267925262e-03 9.641695767641067505e-02 7.809954136610031128e-02 1.335716992616653442e-01 6.183276697993278503e-02 2.920299172401428223e-01 3.929580450057983398e-01 -3.033821284770965576e-02 -3.603703379631042480e-01
5.197980999946594238e-01 1.476177126169204712e-01 1.172953620553016663e-01 -6.829432398080825806e-02 9.510924667119979858e-02 -1.890956163406372070e-01 -2.446387261152267456e-01 8.016765117645263672e-01 3.558504879474639893e-01 2.598687410354614258e-01 2.472849637269973755e-01 -2.661688439548015594e-02 6.201627254486083984e-01 1.077875718474388123e-01 1.009491980075836182e-01 1.655116379261016846e-01 9.425386786460876465e-02 -3.482219576835632324e-02 -3.068870306015014648e-02 -1.310789585113525391e-01 5.611655861139297485e-02 -7.473624348640441895e-01 1.649932116270065308e-01 6.598163396120071411e-02 1.062806174159049988e-01 -5.708579421043395996e-01 -1.050114110112190247e-01 5.965472757816314697e-02 -3.236859440803527832e-01 -3.064632713794708252e-01 -3.155984282493591309e-01
-2.830348722636699677e-02 4.088329672813415527e-01 6.232842206954956055e-01 6.434467434883117676e-01 5.657450556755065918e-01 -1.016145125031471252e-01 2.529314756393432617e-01 5.091030523180961609e-02 -1.245102584362030029e-01 7.721504569053649902e-01 -5.896505340933799744e-02 2.514326274394989014e-01 -3.409327566623687744e-01 2.527512907981872559e-01 -1.418369561433792114e-01 -1.901379376649856567e-01 -2.048277705907821655e-01 -2.413735724985599518e-02 -9.600859880447387695e-02 -3.399798274040222168e-01 -3.372458219528198242e-01 -1.181994006037712097e-01 -9.457363188266754150e-02 5.740680098533630371e-01 6.525886710733175278e-03 1.539198011159896851e-01 3.635315001010894775e-01 4.380662441253662109e-01 2.390998788177967072e-02 -3.604973554611206055e-01 7.619956135749816895e-02
-6.185987591743469238e-02 -4.568859934806823730e-01 1.068924963474273682e-01 4.665101170539855957e-01 6.597617864608764648e-01 -1.336045265197753906e-01 2.663758993148803711e-01 -2.329527437686920166e-01 2.170306444168090820e-01 -1.885246187448501587e-01 -1.838969141244888306e-01 -3.249533772468566895e-01 -5.368480458855628967e-02 1.710519641637802124e-01 3.648596405982971191e-01 -3.103446066379547119e-01 1.232435926795005798e-01 2.064675986766815186e-01 1.203003749251365662e-01 1.674493849277496338e-01 8.549749106168746948e-02 5.011697858572006226e-02 -3.100296258926391602e-01 4.188845753669738770e-01 -2.407500520348548889e-02 2.983800321817398071e-02 -3.462031185626983643e-01 2.082399129867553711e-01 4.085911214351654053e-01 -1.413916051387786865e-02 -4.236527159810066223e-02
1.158194318413734436e-01 -2.800806760787963867e-01 4.044734239578247070e-01 6.351389884948730469e-01 2.676252424716949463e-01 -1.839397847652435303e-01 2.788311839103698730e-01 -1.542346328496932983e-01 2.426951378583908081e-01 -1.664056628942489624e-01 -5.915915369987487793e-01 -3.133726418018341064e-01 -3.291007280349731445e-01 -1.675864309072494507e-02 -3.189881443977355957e-01 -2.407905757427215576e-01 -2.090570777654647827e-01 -1.210570409893989563e-01 -2.704862058162689209e-01 -8.489833772182464600e-02 -1.232676655054092407e-01 1.076889112591743469e-01 3.496534526348114014e-01 4.535634517669677734e-01 -3.526917099952697754e-01 2.089010328054428101e-01 -2.513109445571899414e-01 -1.296902745962142944e-01 1.774815469980239868e-01 2.683524787425994873e-01 2.138579040765762329e-01
7.861878275871276855e-01 8.538945019245147705e-02 3.368436992168426514e-01 4.850480854511260986e-01 -2.965981066226959229e-01 -9.937945753335952759e-02 2.730350941419601440e-02 1.326588839292526245e-01 -8.475094288587570190e-02 -7.983193546533584595e-02 -8.238486945629119873e-02 2.211419120430946350e-02 -1.820436120033264160e-01 -1.204146891832351685e-01 -2.837712690234184265e-02 -2.690317630767822266e-01 -1.532585024833679199e-01 8.409833908081054688e-02 1.202992573380470276e-01 -7.078603655099868774e-02 1.193709298968315125e-01 -3.106777369976043701e-02 -1.035924404859542847e-01 -7.196547836065292358e-02 2.432151325047016144e-02 -3.818182507529854774e-03 1.037434954196214676e-02 -1.772794872522354126e-01 8.393954485654830933e-02 -3.709829449653625488e-01 9.222202003002166748e-02
