1.926908455789089203e-02 -8.170764148235321045e-02 7.194489706307649612e-03 2.253918908536434174e-03 -8.173116482794284821e-03 -2.733953595161437988e-01 1.480202794075012207e+00 -1.313388198614120483e-01 -3.640490472316741943e-01 -1.503175706602632999e-03 3.080844879150390625e-03 2.179571427404880524e-03 9.630592912435531616e-02 -6.938664317131042480e-01 -3.944794181734323502e-03 -9.371235035359859467e-03 -3.221926093101501465e-02 -6.396799087524414062e-01 1.640819758176803589e-01 1.119376975111663342e-03 -4.193795919418334961e-01 -1.647556782700121403e-04 1.320143491029739380e-01 -7.749380078166723251e-03 -9.257562160491943359e-01 3.726775944232940674e-01 3.329597879201173782e-03 -5.926113128662109375e-01 -1.071588229387998581e-02 -6.495484709739685059e-02 -6.442332267761230469e-01 -6.130286958068609238e-03 -2.775558233261108398e-01 4.292907938361167908e-02 -8.422077298164367676e-01 -2.201450802385807037e-02 -8.471843466395512223e-05 6.658467650413513184e-01 7.951213046908378601e-03 2.104296721518039703e-02 1.627289652824401855e-01 7.954716566018760204e-04 4.599052772391587496e-05 -8.134812815114855766e-04 1.115193009376525879e+00 1.211665570735931396e-01 1.889410545118153095e-03 2.544717490673065186e-01 1.021903395652770996e+00 -4.173728171736001968e-03 -4.759389848913997412e-04 -1.029540002346038818e-01 1.425561262294650078e-03 5.080527067184448242e-02 -6.822066307067871094e-01 -5.659956932067871094e-01 5.219951868057250977e-01 1.571098342537879944e-03 -8.326662182807922363e-01 -1.482324674725532532e-03 -7.937503457069396973e-01 5.302896723151206970e-03 5.488021270139142871e-05 -4.477787297219038010e-04 1.199577450752258301e+00 2.420766651630401611e-01 1.041457243263721466e-02 4.725351035594940186e-01 -1.121255874633789062e+00 -1.048247236758470535e-02 5.619451999664306641e-01 -2.814961969852447510e-01 -5.493487697094678879e-03 2.762700989842414856e-02 4.249920845031738281e-01 -4.049067501910030842e-05 -1.874592970125377178e-03 4.931602180004119873e-01 9.984002113342285156e-01 -3.937900364398956299e-01 1.697910251095890999e-03 -1.826911717653274536e-01 9.468246996402740479e-02 -8.819458484649658203e-01 -8.009992539882659912e-03 -3.269670531153678894e-03 -1.881163120269775391e-01 -7.351881861686706543e-01 -1.073281001299619675e-02 1.790358917787671089e-03 -4.680012352764606476e-03 -5.735644605010747910e-03 7.226214278489351273e-03 7.562309969216585159e-03 2.750120162963867188e-01 -1.788019947707653046e-02 -1.505706906318664551e+00 1.326558063738048077e-03 3.368295729160308838e-01 9.788689762353897095e-02 1.229606047272682190e-01 -3.668376207351684570e-01 -1.836314797401428223e-01 1.745853223837912083e-03 -4.903908353298902512e-03 -2.243020106106996536e-03 -2.160675637423992157e-02 -1.002379059791564941e+00 8.402895927429199219e-02 -9.783302247524261475e-02 -9.117582812905311584e-04 2.822936177253723145e-01 -6.736341714859008789e-01 -2.777312099933624268e-01 4.230753183364868164e-01 1.065370533615350723e-02 2.007497008889913559e-03 9.866696596145629883e-02 -5.740674212574958801e-03 -5.764031410217285156e-02 -4.573970567435026169e-03 4.249128699302673340e-01 -1.016310136765241623e-02 4.582813680171966553e-01 5.921484436839818954e-03 4.045215845108032227e-01 -2.337492071092128754e-02 2.888145484030246735e-02 -1.009197950363159180e+00 -6.787337660789489746e-01 -5.894220899790525436e-03 -5.440026521682739258e-01 -1.661798357963562012e-02 1.214381456375122070e+00 -1.466411650180816650e-01 1.547305345535278320e+00 6.171055138111114502e-02 5.495761036872863770e-01 6.313693709671497345e-03 3.004736602306365967e-01 -1.502855271100997925e-01 1.652637496590614319e-02 -1.963689690455794334e-03 -1.394611299037933350e-01 -5.793523192405700684e-01 4.206983447074890137e-01 -2.808248698711395264e-01 2.087222412228584290e-02 1.130859017372131348e+00 -4.069128073751926422e-03 6.018119165673851967e-04 1.225317716598510742e+00 -1.582738570868968964e-02 -1.295279827900230885e-03 8.482686281204223633e-01 -6.584969232790172100e-04 5.864104256033897400e-03 -3.673015534877777100e-01 -6.075930595397949219e-01 5.306563898921012878e-02 -1.144134998321533203e+00 -3.647713065147399902e-01 -2.159542441368103027e-01 -2.475219080224633217e-03 -1.188161550089716911e-03 5.128655117005109787e-03 -3.554212744347751141e-04 1.085767030715942383e+00 6.474078297615051270e-01 7.218605373054742813e-03 1.838017255067825317e-02 5.697598457336425781e-01 1.545928767882287502e-03 -2.944953143596649170e-01 -1.124204173684120178e-01 -1.314646303653717041e-01 6.991399824619293213e-02 1.820510951802134514e-03 -1.427112817764282227e-01 -4.976790547370910645e-01 -7.516179680824279785e-01 -6.537314653396606445e-01 2.595564536750316620e-02 -3.372611536178737879e-05 -4.386131763458251953e-01 8.158697187900543213e-02 9.957385063171386719e-02 5.440901517868041992e-01 2.583792083896696568e-04 -4.625666886568069458e-03 -2.101434320211410522e-01 -2.705532312393188477e-01 -1.147091269493103027e+00 9.332445263862609863e-02 9.783156514167785645e-01 2.220591157674789429e-01 -1.609787531197071075e-02 1.270741343498229980e+00 1.636172458529472351e-02 -3.109520766884088516e-03 -1.480464544147253036e-02 1.946692913770675659e-01 1.344577322015538812e-05 1.473023295402526855e-01 -1.153683543205261230e+00 -4.058776497840881348e-01 6.393519043922424316e-01 4.864579066634178162e-03 4.342788364738225937e-03 -4.059180244803428650e-02 -6.898585706949234009e-03 3.236197866499423981e-03 3.270607888698577881e-01 4.400826618075370789e-02 4.388556815683841705e-03 4.964446998201310635e-04 5.756695289164781570e-03 2.702371776103973389e-01 9.247578680515289307e-02 -5.995581150054931641e-01 9.007425308227539062e-01 -4.369571397546678782e-04 -1.170200877822935581e-03 3.559406101703643799e-01 3.498509824275970459e-01 6.228633522987365723e-01 -1.818082481622695923e-02 -7.681111339479684830e-03 2.565718721598386765e-03 3.540804376825690269e-03 -1.933781616389751434e-02 -3.345841467380523682e-01 7.451500892639160156e-01 -5.828249733895063400e-03 7.741251960396766663e-03 1.008157655596733093e-01 -5.344623327255249023e-01 -1.105601787567138672e-01 1.972426660358905792e-03 1.673997938632965088e-01 3.897259477525949478e-03 4.907479584217071533e-01 -1.107013583183288574e+00 2.209636420011520386e-01 -2.523303264752030373e-03 4.637143760919570923e-02 5.701286718249320984e-03 1.675124913454055786e-01 5.185208916664123535e-01 -1.039489507675170898e+00 -2.178905755281448364e-01 -3.510782960802316666e-03 -2.848379546776413918e-03 3.396944701671600342e-02 -1.283239340409636497e-03 -1.925428807735443115e-01
