1.102503389120101929e-01
-3.902340531349182129e-01
-2.973358929157257080e-01
-8.450143039226531982e-02
-2.691001594066619873e-01
8.290752023458480835e-02
-4.798605293035507202e-02
-2.428825795650482178e-01
9.408402442932128906e-02
-1.391574293375015259e-01
-4.525310993194580078e-01
-3.412801325321197510e-01
-4.963551759719848633e-01
6.477542966604232788e-02
3.536368012428283691e-01
1.255192793905735016e-02
-2.664014101028442383e-01
2.716383039951324463e-01
-3.077979199588298798e-02
-4.108726978302001953e-01
-2.035802006721496582e-01
-1.715966910123825073e-01
1.384650319814682007e-01
-3.082964122295379639e-01
-1.630721390247344971e-01
-8.639156073331832886e-02
-4.705757200717926025e-01
-3.651337027549743652e-01
-4.498462975025177002e-01
-6.679686158895492554e-02
-4.708587527275085449e-01
-3.938849270343780518e-01
-2.363734692335128784e-01
-1.433378756046295166e-01
-2.792924046516418457e-01
-1.763586848974227905e-01
2.182451784610748291e-01
-3.498079776763916016e-01
-3.183716833591461182e-01
-3.229072391986846924e-01
-1.881741881370544434e-01
-4.228170216083526611e-01
-1.804456710815429688e-01
8.439034968614578247e-02
-2.187618464231491089e-01
-4.063617885112762451e-01
-2.251954674720764160e-01
-3.109211027622222900e-01
-4.252862632274627686e-01
-4.417957961559295654e-01
-1.250564604997634888e-01
-2.842645645141601562e-01
-6.458412408828735352e-01
-3.197508677840232849e-02
-4.862165451049804688e-01
5.103497533127665520e-04
-1.878551542758941650e-01
-5.579962134361267090e-01
-2.541333436965942383e-01
-4.643572121858596802e-02
-1.352005898952484131e-01
5.475968122482299805e-02
-1.850400567054748535e-01
-3.734208345413208008e-01
-5.679756402969360352e-02
-1.909587234258651733e-01
-4.560061991214752197e-01
-4.488694667816162109e-01
-1.604680120944976807e-01
-1.989130228757858276e-01
-3.320714533329010010e-01
-7.173491269350051880e-02
-7.135801762342453003e-02
-2.916750013828277588e-01
-3.728819265961647034e-02
-4.498788714408874512e-01
-4.316642880439758301e-02
-3.525118529796600342e-02
-3.662002086639404297e-01
-5.559488385915756226e-02
-3.678492084145545959e-02
-3.705590069293975830e-01
-6.759677827358245850e-02
4.986245930194854736e-01
-1.352199316024780273e-01
7.194123417139053345e-02
7.859456539154052734e-02
-3.822391629219055176e-01
4.517732560634613037e-02
-4.739252328872680664e-01
-1.657441854476928711e-01
-2.078837528824806213e-02
-2.785392403602600098e-01
-3.460610806941986084e-01
-1.672696620225906372e-01
-6.049018502235412598e-01
-3.703317046165466309e-01
-1.759780496358871460e-01
-4.145375788211822510e-01
-1.782233715057373047e-01
1.465984582901000977e-01
5.928607285022735596e-02
2.844702303409576416e-01
-1.279971003532409668e-01
-3.127397000789642334e-01
-2.812550067901611328e-01
-3.410744071006774902e-01
-6.007952615618705750e-02
-3.034691214561462402e-01
-1.130792126059532166e-01
-3.281600773334503174e-01
-3.298040330410003662e-01
3.466720879077911377e-02
-2.295152842998504639e-01
-3.126387298107147217e-01
-3.567522168159484863e-01
-1.258781403303146362e-01
-5.023109167814254761e-02
-3.760394454002380371e-01
-2.761583626270294189e-01
-2.733327746391296387e-01
-3.610264658927917480e-01
-5.543974786996841431e-02
3.380145505070686340e-02
-1.915924102067947388e-01
-2.504650354385375977e-01
-8.928488194942474365e-02
-2.413916401565074921e-02
-1.904424093663692474e-02
-1.932157129049301147e-01
-1.031790301203727722e-01
1.617023348808288574e-01
-2.382200062274932861e-01
-2.797438204288482666e-01
-9.149775654077529907e-02
-4.482602700591087341e-02
-2.459758818149566650e-01
-1.428399384021759033e-01
-2.561731338500976562e-01
-2.171951383352279663e-01
1.593158245086669922e-01
-2.380606383085250854e-01
-2.146497815847396851e-01
-1.751846969127655029e-01
-5.901960283517837524e-02
-1.774103939533233643e-01
-1.661832332611083984e-01
-3.772768676280975342e-01
-1.873788237571716309e-01
6.902806460857391357e-02
-2.544517517089843750e-01
-5.273329019546508789e-01
1.098078489303588867e-01
1.312139481306076050e-01
-2.993797361850738525e-01
-4.688528776168823242e-01
-4.249472618103027344e-01
-3.473839759826660156e-01
1.334410756826400757e-01
-1.810532510280609131e-01
-3.015791773796081543e-01
-1.060724183917045593e-01
-3.102354705333709717e-01
-2.689699828624725342e-01
3.046454489231109619e-01
1.878452487289905548e-02
-1.568538695573806763e-01
-2.237979471683502197e-01
-1.774585247039794922e-01
-3.778171837329864502e-01
-8.020656183362007141e-03
-2.594391703605651855e-01
-6.265123188495635986e-02
-3.273383975028991699e-01
-3.484291732311248779e-01
-4.440221488475799561e-01
-1.304477304220199585e-01
-3.439507782459259033e-01
3.201806172728538513e-02
-5.127562284469604492e-01
-4.527799412608146667e-02
1.724342070519924164e-02
-2.968122363090515137e-01
-1.528794616460800171e-01
-1.229568645358085632e-01
-1.713426709175109863e-01
-2.727030813694000244e-01
-3.420675694942474365e-01
-2.697155177593231201e-01
-4.414900839328765869e-01
-4.259042143821716309e-01
-3.605917990207672119e-01
9.698931872844696045e-02
-2.199812978506088257e-02
-4.789152741432189941e-01
-8.871107548475265503e-02
5.273653566837310791e-02
1.064396724104881287e-01
-2.288119196891784668e-01
-1.887833178043365479e-01
-2.546553313732147217e-01
-3.514409959316253662e-01
-1.137648895382881165e-01
-4.281028509140014648e-01
-2.537964582443237305e-01
-2.302405089139938354e-01
-4.891951084136962891e-01
-4.170719087123870850e-01
-1.883707046508789062e-01
-4.331864714622497559e-01
-4.659361541271209717e-01
9.661652147769927979e-04
-4.718804359436035156e-01
9.249138832092285156e-02
3.116615116596221924e-01
-1.248746961355209351e-01
-1.897693127393722534e-01
-3.017928004264831543e-01
-3.021090626716613770e-01
-2.377145290374755859e-01
-2.949518710374832153e-02
-1.528265625238418579e-01
-1.943454593420028687e-01
-5.241809785366058350e-02
-1.965720653533935547e-01
-4.461278021335601807e-01
-1.748097240924835205e-01
-2.182258814573287964e-01
-3.162196278572082520e-01
-3.720166683197021484e-01
-3.026624023914337158e-01
-4.713956117630004883e-01
-3.600866794586181641e-01
-1.303844451904296875e-01
-4.000613987445831299e-01
-3.680862188339233398e-01
-3.368230760097503662e-01
-1.845573261380195618e-02
8.310364186763763428e-02
-2.049856930971145630e-01
-2.918946184217929840e-02
-2.635197639465332031e-01
-3.530905842781066895e-01
-3.141422867774963379e-01
-6.331351399421691895e-02
-1.150467917323112488e-01
-2.890819013118743896e-01
-2.530904114246368408e-01
-4.431609213352203369e-01
-4.585869312286376953e-01
-4.497564733028411865e-01
1.032996177673339844e-01
-1.698397397994995117e-01
-2.170141637325286865e-01
-2.857639789581298828e-01
-2.699781358242034912e-01
3.021578550338745117e+00
2.666272878646850586e+00
2.869872808456420898e+00
3.088861465454101562e+00
2.923433542251586914e+00
3.152940273284912109e+00
3.105729341506958008e+00
2.544646263122558594e+00
2.764544248580932617e+00
2.437081575393676758e+00
3.097280740737915039e+00
3.101086616516113281e+00
2.753252983093261719e+00
3.045341968536376953e+00
3.563925266265869141e+00
2.922820568084716797e+00
2.735161781311035156e+00
3.391901731491088867e+00
2.812861204147338867e+00
2.929188013076782227e+00
2.938884496688842773e+00
3.177959918975830078e+00
3.195513248443603516e+00
2.497839689254760742e+00
2.664334058761596680e+00
2.826496839523315430e+00
2.479170322418212891e+00
2.609109401702880859e+00
2.639807939529418945e+00
3.063284873962402344e+00
2.971845388412475586e+00
2.944082021713256836e+00
2.950620889663696289e+00
3.193790197372436523e+00
2.846747159957885742e+00
2.836034297943115234e+00
2.937842130661010742e+00
2.580433368682861328e+00
2.916763544082641602e+00
2.766447067260742188e+00
2.953665494918823242e+00
2.784603595733642578e+00
2.994783401489257812e+00
3.272970914840698242e+00
3.106617212295532227e+00
2.793059587478637695e+00
2.556470632553100586e+00
3.162197113037109375e+00
2.480872154235839844e+00
3.105037927627563477e+00
3.194983720779418945e+00
2.608258962631225586e+00
2.603537082672119141e+00
3.023166894912719727e+00
2.523562669754028320e+00
3.165138244628906250e+00
2.819501399993896484e+00
2.191715955734252930e+00
3.192524909973144531e+00
2.875765323638916016e+00
3.000317573547363281e+00
3.037265539169311523e+00
3.053566694259643555e+00
2.940161943435668945e+00
3.007880449295043945e+00
2.957707643508911133e+00
2.863786935806274414e+00
2.763920545578002930e+00
2.743329048156738281e+00
2.996267318725585938e+00
2.520609378814697266e+00
3.156915426254272461e+00
3.017330884933471680e+00
2.027393579483032227e+00
2.977231740951538086e+00
2.263533115386962891e+00
2.704279184341430664e+00
3.120013713836669922e+00
3.161394119262695312e+00
3.093568325042724609e+00
3.129888057708740234e+00
3.018777847290039062e+00
2.935264348983764648e+00
3.189328432083129883e+00
3.016292333602905273e+00
2.916808843612670898e+00
2.986284255981445312e+00
2.095385551452636719e+00
2.823072195053100586e+00
2.640220642089843750e+00
2.493772506713867188e+00
3.071882247924804688e+00
2.999063491821289062e+00
2.701911211013793945e+00
2.684188127517700195e+00
2.953666210174560547e+00
3.088392496109008789e+00
3.140617847442626953e+00
3.235698938369750977e+00
3.357575893402099609e+00
3.076477527618408203e+00
3.234489917755126953e+00
3.321512222290039062e+00
2.973185539245605469e+00
2.911067724227905273e+00
3.071599245071411133e+00
2.822651147842407227e+00
3.025037050247192383e+00
2.623342514038085938e+00
3.250463008880615234e+00
2.772359848022460938e+00
2.783176422119140625e+00
2.945991516113281250e+00
2.705506563186645508e+00
2.758733272552490234e+00
2.588185310363769531e+00
3.130599498748779297e+00
2.798158168792724609e+00
2.904834032058715820e+00
3.149710178375244141e+00
2.923788547515869141e+00
2.646112203598022461e+00
3.052246332168579102e+00
2.829197645187377930e+00
2.829587936401367188e+00
2.565166711807250977e+00
2.856290340423583984e+00
2.954364061355590820e+00
3.187948226928710938e+00
3.235731840133666992e+00
2.910661220550537109e+00
3.130507946014404297e+00
2.866618633270263672e+00
3.129012346267700195e+00
2.848018884658813477e+00
3.119378089904785156e+00
2.775574922561645508e+00
3.046534538269042969e+00
2.724539279937744141e+00
2.749105691909790039e+00
2.961074829101562500e+00
2.703729867935180664e+00
2.493141412734985352e+00
3.114279508590698242e+00
2.765971660614013672e+00
3.043052911758422852e+00
2.992111206054687500e+00
2.742539405822753906e+00
2.895714759826660156e+00
2.998499631881713867e+00
3.039430141448974609e+00
3.051733255386352539e+00
2.857327222824096680e+00
3.097627162933349609e+00
3.058202505111694336e+00
2.675499916076660156e+00
2.933977603912353516e+00
2.594959497451782227e+00
2.950055360794067383e+00
3.106207132339477539e+00
2.556777954101562500e+00
2.931001901626586914e+00
3.062886953353881836e+00
2.723266363143920898e+00
3.019404649734497070e+00
3.093374729156494141e+00
2.806321620941162109e+00
2.859489679336547852e+00
3.046643257141113281e+00
2.574614524841308594e+00
3.170423746109008789e+00
2.826977729797363281e+00
3.203444957733154297e+00
3.041305780410766602e+00
2.630123376846313477e+00
2.803074598312377930e+00
2.992247343063354492e+00
2.225985527038574219e+00
3.048428535461425781e+00
2.588025093078613281e+00
2.963833808898925781e+00
3.203521013259887695e+00
2.718618154525756836e+00
3.065599203109741211e+00
2.787214756011962891e+00
3.212096691131591797e+00
2.774601697921752930e+00
2.845324039459228516e+00
3.092981100082397461e+00
2.466589212417602539e+00
2.762564182281494141e+00
2.591610908508300781e+00
3.095446825027465820e+00
3.052515745162963867e+00
2.859442472457885742e+00
3.089793682098388672e+00
3.223442554473876953e+00
3.084110260009765625e+00
2.454882383346557617e+00
3.014481544494628906e+00
3.013854980468750000e+00
2.813785791397094727e+00
2.895077228546142578e+00
2.485655546188354492e+00
2.543770551681518555e+00
3.021605491638183594e+00
2.574248313903808594e+00
2.935736179351806641e+00
2.791183948516845703e+00
2.464758396148681641e+00
2.612333059310913086e+00
3.194320678710937500e+00
2.623456239700317383e+00
3.023180484771728516e+00
3.212795019149780273e+00
2.971063613891601562e+00
2.939350366592407227e+00
2.654922723770141602e+00
2.770984172821044922e+00
2.838388919830322266e+00
2.975641965866088867e+00
3.038690090179443359e+00
2.836906433105468750e+00
2.723224163055419922e+00
2.956293344497680664e+00
2.741468667984008789e+00
3.019644737243652344e+00
2.933438301086425781e+00
2.626858234405517578e+00
2.563327789306640625e+00
2.994147300720214844e+00
2.930134296417236328e+00
3.037476301193237305e+00
2.905437707901000977e+00
2.680184364318847656e+00
3.250156164169311523e+00
2.437152385711669922e+00
2.836580276489257812e+00
2.730498552322387695e+00
2.705611705780029297e+00
2.456735849380493164e+00
2.721904993057250977e+00
2.776651859283447266e+00
3.110542535781860352e+00
2.804686069488525391e+00
3.099701404571533203e+00
2.857004165649414062e+00
2.953281402587890625e+00
2.583159208297729492e+00
2.945931673049926758e+00
2.594415426254272461e+00
3.104981184005737305e+00
2.991175651550292969e+00
2.619551420211791992e+00
2.997847795486450195e+00
3.081671714782714844e+00
2.743169963359832764e-01
-2.825675904750823975e-01
-1.072409600019454956e-01
-2.686072289943695068e-01
3.597514927387237549e-01
5.161147713661193848e-01
-2.028319239616394043e-01
9.564089030027389526e-02
-1.993323266506195068e-01
-8.969016373157501221e-02
9.197959303855895996e-02
-4.638298228383064270e-02
2.136395722627639771e-01
9.357508271932601929e-02
4.268405437469482422e-01
-3.938874304294586182e-01
-1.660816669464111328e-01
-4.808233380317687988e-01
-2.255618870258331299e-01
1.160934343934059143e-01
-3.891829401254653931e-02
3.894098103046417236e-01
-2.658990025520324707e-01
1.300091762095689774e-02
1.853223517537117004e-02
7.484175264835357666e-02
-9.190004318952560425e-02
3.951528668403625488e-02
-2.906684949994087219e-02
1.922949552536010742e-01
1.850362122058868408e-01
3.578162938356399536e-02
2.135274745523929596e-02
7.033392786979675293e-02
9.325451217591762543e-03
1.771863102912902832e-01
1.634908765554428101e-01
-3.722545877099037170e-02
-8.207822591066360474e-02
-1.558010131120681763e-01
4.984616935253143311e-01
-4.368621855974197388e-02
-1.736171096563339233e-01
2.410545945167541504e-01
-8.819550275802612305e-02
-6.014872808009386063e-03
8.273850381374359131e-02
9.354652464389801025e-02
1.224571280181407928e-02
1.536509022116661072e-02
1.987798959016799927e-01
-2.781264483928680420e-01
-1.088806912302970886e-01
-1.470120102167129517e-01
-1.537897437810897827e-02
3.282000124454498291e-01
-2.585424780845642090e-01
9.550747275352478027e-02
7.279192563146352768e-03
-2.805261015892028809e-01
-2.919314801692962646e-01
1.319025605916976929e-01
-2.694347500801086426e-01
8.996028453111648560e-03
2.863239310681819916e-02
-3.096275925636291504e-01
2.404737286269664764e-02
2.060680687427520752e-01
-1.156972497701644897e-01
1.032054275274276733e-01
3.089678287506103516e-02
2.398192286491394043e-01
-1.663109213113784790e-01
5.501438379287719727e-01
4.419776797294616699e-01
6.715654730796813965e-01
1.874280571937561035e-01
-2.076449841260910034e-01
-1.568723618984222412e-01
-4.167029261589050293e-01
4.637818634510040283e-01
-1.659180223941802979e-01
-2.930911779403686523e-01
-4.810088276863098145e-01
2.356728464365005493e-01
3.125123977661132812e-01
1.136491447687149048e-01
-4.339077770709991455e-01
-9.305010735988616943e-02
-1.024863421916961670e-01
-3.722941279411315918e-01
-3.181326091289520264e-01
-1.441547870635986328e-01
1.630908064544200897e-02
1.018380075693130493e-01
-2.996604442596435547e-01
-2.384567856788635254e-01
3.557882010936737061e-01
1.291869729757308960e-01
-2.219211608171463013e-01
1.970364153385162354e-01
2.278961539268493652e-01
3.508838713169097900e-01
-1.259389221668243408e-01
7.549129426479339600e-02
-2.590982913970947266e-01
2.725697755813598633e-01
-2.246620506048202515e-01
1.490629184991121292e-02
-3.383262455463409424e-01
-8.926094323396682739e-02
-1.973646134138107300e-01
4.447960853576660156e-02
-1.130192875862121582e-01
1.661674492061138153e-02
-1.557274605147540569e-03
3.110822439193725586e-01
-6.528934091329574585e-02
2.250793129205703735e-01
-1.356005817651748657e-01
-2.812973260879516602e-01
2.566728554666042328e-02
-8.058661967515945435e-02
-1.862543821334838867e-02
5.473395809531211853e-03
5.498445630073547363e-01
-3.837516605854034424e-01
-1.946729719638824463e-01
3.824387788772583008e-01
3.248253092169761658e-02
-1.163979619741439819e-01
5.091844797134399414e-01
5.391969159245491028e-02
-1.765200644731521606e-01
-1.089532375335693359e-01
-2.425452917814254761e-01
-4.711081087589263916e-02
-2.537195980548858643e-01
2.278863489627838135e-01
-1.168566122651100159e-01
-2.929913103580474854e-01
-1.079571321606636047e-01
3.611657321453094482e-01
-1.094865128397941589e-01
6.400839984416961670e-02
-3.989133611321449280e-02
-2.511882483959197998e-01
1.710074096918106079e-01
-5.384201183915138245e-02
1.386348307132720947e-01
-1.008703187108039856e-01
1.344328373670578003e-01
-4.468783140182495117e-01
-1.731428653001785278e-01
1.079488079994916916e-02
8.941883593797683716e-02
2.711290307343006134e-02
4.029928240925073624e-03
-2.456654459238052368e-01
3.218166232109069824e-01
-3.538970369845628738e-03
1.365348547697067261e-01
-3.110027313232421875e-01
1.776123344898223877e-01
-3.166356980800628662e-01
3.824188411235809326e-01
-1.344995647668838501e-01
1.523925811052322388e-01
-3.626556098461151123e-01
-9.909339249134063721e-03
-3.227744996547698975e-01
-2.158769220113754272e-02
1.386441737413406372e-01
-3.561593219637870789e-02
-1.427601370960474014e-02
-1.642783731222152710e-01
5.890951752662658691e-01
6.132197380065917969e-01
5.046344399452209473e-01
-1.567962765693664551e-02
1.655643731355667114e-01
2.685340344905853271e-01
-1.759128719568252563e-01
-6.101395487785339355e-01
1.184425354003906250e-01
2.187581360340118408e-01
2.463057786226272583e-01
1.927693784236907959e-01
-2.491858899593353271e-01
2.221031635999679565e-01
-2.186796218156814575e-01
-6.931645423173904419e-02
3.783687055110931396e-01
-5.184177756309509277e-01
4.157026857137680054e-02
-1.596317589282989502e-01
2.637912333011627197e-01
3.041945397853851318e-01
3.483522832393646240e-01
-1.048744320869445801e-01
-1.841860264539718628e-02
-1.953105032444000244e-01
-1.294538378715515137e-01
-7.674693316221237183e-02
2.233095616102218628e-01
1.851516067981719971e-01
3.451795876026153564e-02
7.526626810431480408e-03
3.416993319988250732e-01
3.077093884348869324e-02
1.334604173898696899e-01
-3.004860579967498779e-01
8.504944294691085815e-02
-1.801957637071609497e-01
-3.972138464450836182e-01
1.351450234651565552e-01
-1.077452488243579865e-02
4.493146017193794250e-02
2.865546643733978271e-01
-1.895362585783004761e-01
1.840819567441940308e-01
7.152582705020904541e-02
1.849009990692138672e-01
-4.815595597028732300e-02
1.146889999508857727e-01
-1.716814190149307251e-01
2.124738246202468872e-01
-3.251372277736663818e-01
-1.155297681689262390e-01
-6.178076937794685364e-02
-1.939415633678436279e-01
-1.737863123416900635e-01
1.208792254328727722e-01
2.007874287664890289e-02
-7.397116720676422119e-02
-2.229640930891036987e-01
2.520998753607273102e-02
1.076499149203300476e-01
1.088544651865959167e-01
1.902146488428115845e-01
4.021231234073638916e-01
-5.229571089148521423e-02
1.224087737500667572e-02
5.267465952783823013e-03
-2.461969293653964996e-02
3.643409609794616699e-01
1.237744241952896118e-01
-3.170761466026306152e-01
-2.761985920369625092e-02
4.084971547126770020e-02
-6.392255425453186035e-02
4.282122850418090820e-01
2.340337783098220825e-01
-6.458414345979690552e-02
-1.963032409548759460e-02
3.343056142330169678e-01
-4.510745704174041748e-01
-1.840737760066986084e-01
-5.387707948684692383e-01
-3.295342028141021729e-01
4.314390942454338074e-02
-2.456903904676437378e-01
1.554882079362869263e-01
8.593158423900604248e-02
1.055735796689987183e-01
8.701546490192413330e-02
-2.997018992900848389e-01
-4.584270715713500977e-01
-4.123619496822357178e-01
-4.933454096317291260e-01
-4.046902954578399658e-01
-3.602397739887237549e-01
-4.410431385040283203e-01
3.026438355445861816e-01
-6.347990036010742188e-01
-5.022729039192199707e-01
-3.671410381793975830e-01
-1.648110896348953247e-01
7.742096483707427979e-02
-1.911483854055404663e-01
-2.392568290233612061e-01
8.245214819908142090e-03
-3.550570905208587646e-01
-1.458018720149993896e-01
-1.490122526884078979e-01
1.383134275674819946e-01
1.529471576213836670e-01
-5.529299974441528320e-01
-3.465723097324371338e-01
-4.948711693286895752e-01
-6.777914166450500488e-01
-1.837323755025863647e-01
1.303571760654449463e-01
-2.063072025775909424e-01
-5.564553737640380859e-01
-5.212914943695068359e-01
-3.943670094013214111e-01
-1.412930786609649658e-01
-2.378810942173004150e-01
-4.067598879337310791e-01
-1.811031252145767212e-02
-4.125439822673797607e-01
-4.257051348686218262e-01
7.948175817728042603e-02
-2.546036243438720703e-01
-4.297056794166564941e-01
-1.511107385158538818e-01
-1.132698580622673035e-01
-4.443426057696342468e-02
-3.810941278934478760e-01
-5.033119916915893555e-01
1.600866019725799561e-01
-2.226881086826324463e-01
-3.297241032123565674e-01
-4.867825508117675781e-01
-2.059814333915710449e-01
-5.714786648750305176e-01
-2.503294646739959717e-01
-7.033787369728088379e-01
-5.146066546440124512e-01
-3.971464931964874268e-01
-4.007829725742340088e-01
-2.681941092014312744e-01
-3.114913105964660645e-01
-2.414158731698989868e-01
-7.155466079711914062e-01
-1.445296853780746460e-01
-6.205806732177734375e-01
-3.217266201972961426e-01
-5.169543623924255371e-01
2.227216660976409912e-01
2.214210852980613708e-02
-3.262914419174194336e-01
-6.491758823394775391e-01
-7.671596109867095947e-02
-4.670103639364242554e-02
5.415581539273262024e-02
-2.755946815013885498e-01
-1.423147618770599365e-01
1.015340536832809448e-01
6.422679871320724487e-02
-8.883967995643615723e-02
-5.804984569549560547e-01
-3.050008416175842285e-01
-7.875260710716247559e-01
-2.581452131271362305e-01
1.470104604959487915e-01
-4.216449800878763199e-03
-1.682623624801635742e-01
-7.639245390892028809e-01
-1.129674240946769714e-01
4.570294171571731567e-03
-3.453468531370162964e-02
2.282552868127822876e-01
2.922510206699371338e-01
-5.795571953058242798e-02
-4.688705503940582275e-01
-5.964331030845642090e-01
-5.087845772504806519e-02
-1.352230925112962723e-02
-4.526675343513488770e-01
1.758544892072677612e-01
-3.646081686019897461e-01
-1.531931906938552856e-01
-4.124537110328674316e-01
-3.997685313224792480e-01
-6.493027210235595703e-01
-5.076820850372314453e-01
-5.964927673339843750e-01
-5.267194509506225586e-01
-5.410444736480712891e-01
-3.113628327846527100e-01
-3.289920687675476074e-01
-1.237779334187507629e-01
-3.745366632938385010e-01
-5.440176129341125488e-01
1.526764184236526489e-01
-1.261673718690872192e-01
-3.013357222080230713e-01
-3.894124329090118408e-01
-4.970738887786865234e-01
-9.878187626600265503e-02
3.291150331497192383e-01
-3.413324356079101562e-01
-2.253270000219345093e-01
-3.025956638157367706e-02
-2.057853490114212036e-01
-1.185920182615518570e-02
-3.319306969642639160e-01
1.612044423818588257e-01
-6.143980026245117188e-01
-8.200394511222839355e-01
-1.224163845181465149e-01
-1.267755776643753052e-01
-5.804464817047119141e-01
-1.972088366746902466e-01
-9.179718792438507080e-02
-3.901948630809783936e-01
-5.176035165786743164e-01
-2.623588740825653076e-01
-2.748777568340301514e-01
1.374093741178512573e-01
-3.832006156444549561e-01
-6.313937902450561523e-01
-4.523367285728454590e-01
-4.052746295928955078e-01
-1.278456449508666992e-01
-3.392041027545928955e-01
-5.113131403923034668e-01
-5.477632880210876465e-01
-1.862689554691314697e-01
-4.052381515502929688e-01
-1.920214295387268066e-01
-7.201124429702758789e-01
-9.862505830824375153e-03
-6.876779794692993164e-01
-2.958266139030456543e-01
-6.489839553833007812e-01
-4.587396681308746338e-01
-4.422793686389923096e-01
-2.011379152536392212e-01
2.349285781383514404e-02
-7.017994523048400879e-01
-4.577044248580932617e-01
-1.796699762344360352e-01
-2.972699999809265137e-01
-1.835882663726806641e-02
-3.099445998668670654e-01
-5.192127823829650879e-01
-2.160324454307556152e-01
-5.211232304573059082e-01
-1.805145740509033203e-01
-4.188753664493560791e-01
-5.670791864395141602e-02
-1.123200878500938416e-01
-1.710661053657531738e-01
-5.715678334236145020e-01
-1.825600862503051758e-02
-3.478588759899139404e-01
-2.489009052515029907e-01
-4.299946725368499756e-01
-1.204982027411460876e-01
-5.695906281471252441e-01
-2.891204953193664551e-01
-6.014001369476318359e-01
-3.312181830406188965e-01
-4.266445040702819824e-01
-2.937588095664978027e-01
-4.211900755763053894e-02
9.494175016880035400e-02
-5.538145303726196289e-01
-6.323379874229431152e-01
-4.190278649330139160e-01
-1.520158797502517700e-01
-3.231399953365325928e-01
-1.830683797597885132e-01
-5.239205360412597656e-01
-5.576901435852050781e-01
-1.831666231155395508e-01
-2.473784834146499634e-01
-4.756095111370086670e-01
-7.465711981058120728e-02
-3.054220080375671387e-01
-5.019056200981140137e-01
3.720952942967414856e-02
-2.471279799938201904e-01
-6.138653680682182312e-02
3.994278237223625183e-02
-5.106177181005477905e-02
-2.726981639862060547e-01
-2.539465427398681641e-01
-2.684628069400787354e-01
4.318478107452392578e-01
-1.662078201770782471e-01
-3.803678452968597412e-01
-6.367812752723693848e-01
-1.158394888043403625e-01
-3.144391179084777832e-01
-1.902612149715423584e-01
-5.607084631919860840e-01
3.923815116286277771e-02
-3.004309237003326416e-01
-1.028623804450035095e-01
-1.028056591749191284e-01
-1.595207452774047852e-01
-5.072634816169738770e-01
-1.931165754795074463e-01
-2.062013745307922363e-01
-9.248042106628417969e-02
-2.314840555191040039e-01
-4.112181663513183594e-01
-2.988046407699584961e-01
-2.001886963844299316e-01
-6.713606119155883789e-01
-6.293069124221801758e-01
-3.250707387924194336e-01
1.973602548241615295e-02
4.803353175520896912e-02
-7.735065370798110962e-02
-6.029595732688903809e-01
-7.308483719825744629e-01
8.963062614202499390e-02
-1.204476654529571533e-01
-6.020008325576782227e-01
-2.252777218818664551e-01
-3.893525004386901855e-01
-1.934617012739181519e-01
-1.829668134450912476e-01
-7.067808508872985840e-01
-8.784353733062744141e-02
-4.757226109504699707e-01
-6.766523122787475586e-01
