-1.247947919182479382e-03 6.964250802993774414e-01 1.201604306697845459e-01 -5.161742120981216431e-02 -8.886638679541647434e-04 -1.653077080845832825e-03 -3.739122152328491211e-01 1.149368658661842346e-02 1.023190736770629883e+00 7.862331867218017578e-01 -8.662344887852668762e-03 2.257728278636932373e-01 -6.954097747802734375e-01 2.666079490154515952e-05 4.598451778292655945e-03 -2.179236412048339844e-01 8.434114046394824982e-03 1.508336216211318970e-01 1.965661533176898956e-03 -1.779845566488802433e-03 1.436804421246051788e-02 -4.422292709350585938e-01 7.546270638704299927e-02 4.623349606990814209e-01 -1.658069193363189697e-01 6.208115722984075546e-03 2.842883467674255371e-01 3.438075482845306396e-01 5.933362245559692383e-01 -1.336131710559129715e-03 2.607624512165784836e-03 3.550027906894683838e-01 -5.809433758258819580e-03 2.079061523545533419e-04 9.781137341633439064e-04 -2.957250177860260010e-01 1.004478335380554199e-02 3.458997979760169983e-02 -2.620523609220981598e-02 5.935029983520507812e-01 7.258026394993066788e-03 -6.548649165779352188e-03 -8.286178112030029297e-01 5.802765861153602600e-02 -1.970047503709793091e-02 2.874769568443298340e-01 -1.068267226219177246e-02 5.438982844352722168e-01 2.238030731678009033e-01 5.650765821337699890e-02 7.848110198974609375e-01 3.082607872784137726e-03 -6.424734592437744141e-01 1.859842985868453979e-02 2.575981020927429199e-01 9.949858784675598145e-01 4.930069744586944580e-01 6.024502683430910110e-03 7.790422998368740082e-03 -4.408349990844726562e-01 -2.107377164065837860e-02 2.474447455824702047e-06 -2.714484557509422302e-02 3.005158603191375732e-01 7.190563483163714409e-04 -2.452488392591476440e-01 -5.917480215430259705e-03 -9.849159978330135345e-03 5.868819355964660645e-01 2.203460969030857086e-02 1.271692812442779541e-01 -4.595029354095458984e-01 -2.807224988937377930e-01 9.849275229498744011e-04 1.664691209793090820e+00 3.311536274850368500e-04 1.238069497048854828e-03 3.776112571358680725e-03 -2.628441154956817627e-01 -1.814050250686705112e-03 1.673263162374496460e-01 -4.515108093619346619e-02 -7.111602276563644409e-02 1.057396829128265381e-01 -4.094946980476379395e-01 -3.690044861286878586e-03 -3.155013546347618103e-03 -5.898614600300788879e-02 -6.952478289604187012e-01 -1.097913503646850586e+00 2.603929489850997925e-03 3.047182108275592327e-04 6.641279458999633789e-01 3.575244219973683357e-03 2.678155712783336639e-02 2.808779664337635040e-02 2.187632955610752106e-03 1.162538155913352966e-01 1.354904174804687500e+00 2.719142707064747810e-03 -7.273405790328979492e-01 -5.881365388631820679e-02 5.999739170074462891e-01 6.458180546760559082e-01 1.166245085187256336e-03 4.420698285102844238e-01 -4.927916228771209717e-01 6.762688755989074707e-01 -3.789502894505858421e-03 8.706342428922653198e-02 3.149775438942015171e-04 -6.323301233351230621e-03 3.568778978660702705e-03 7.343435287475585938e-01 -9.123564697802066803e-03 -2.289726734161376953e-01 -3.260837984271347523e-04 3.744112700223922729e-02 9.411290287971496582e-02 1.030012406408786774e-02 1.909753656946122646e-03 -1.524552702903747559e-03 7.286790013313293457e-02 -3.787704277783632278e-03 2.356580086052417755e-02 1.551315188407897949e-01 -2.354868203401565552e-01 7.853172719478607178e-04 8.416164517402648926e-01 -1.279750823974609375e+00 -7.532892823219299316e-01 8.291290998458862305e-01 2.233269251883029938e-02 -6.693537347018718719e-03 -2.487350720912218094e-03 3.399532139301300049e-01 -6.283987164497375488e-01 -1.446082234382629395e+00 1.906351298093795776e-01 4.066730849444866180e-03 -7.091893553733825684e-01 1.075746305286884308e-02 1.394253671169281006e-01 -4.248408600687980652e-02 1.355974585749208927e-03 -1.562416106462478638e-01 1.219577074050903320e+00 -1.574230641126632690e-01 -2.513299882411956787e-02 -1.178188204765319824e+00 -1.211789608001708984e+00 6.710408488288521767e-04 9.973067045211791992e-01 -3.074175445362925529e-03 -2.869513351470232010e-03 6.813102401793003082e-03 -2.695523202419281006e-01 -5.031198263168334961e-01 -1.909512877464294434e-01 -1.620812527835369110e-02 3.662036731839179993e-02 -4.120770394802093506e-01 -1.209153175354003906e+00 8.275455236434936523e-02 4.719724506139755249e-02 -3.455974860116839409e-03 4.515167176723480225e-01 -5.300081148743629456e-02 1.422233879566192627e-01 2.511096652597188950e-03 -9.129720926284790039e-01 3.880685269832611084e-01 -3.440704941749572754e-01 1.586103579029440880e-03 -7.320744991302490234e-01 2.479704320430755615e-01 -2.166442722082138062e-01 6.185494363307952881e-03 1.067840084433555603e-01 3.139682859182357788e-02 8.630620241165161133e-01 -8.083461783826351166e-03 -3.601053962484002113e-03 -3.509193360805511475e-01 1.618449330329895020e+00 -4.023450613021850586e-01 -1.635519117116928101e-01 -6.249040365219116211e-03 8.159247227013111115e-03 -4.537925496697425842e-02 5.245717167854309082e-01 -4.639880731701850891e-03 -4.222616553306579590e-01 6.471869349479675293e-01 3.946478827856481075e-04 -3.626078250817954540e-04 -1.662048399448394775e-01 -1.247642785310745239e-01 -2.144247264368459582e-04 2.056580632925033569e-01 -4.512087106704711914e-01 -1.357838418334722519e-02 -4.963498562574386597e-02 -3.420765744522213936e-03 3.438448309898376465e-01 2.976089715957641602e-01 7.801903411746025085e-03 -1.323645830154418945e+00 2.727790176868438721e-01 -6.211695671081542969e-01 2.385733416303992271e-03 7.105930708348751068e-03 1.637761481106281281e-03 6.142793595790863037e-02 2.855625003576278687e-03 2.057865727692842484e-03 1.142961345613002777e-02 -7.729583978652954102e-01 6.911844015121459961e-01 -1.771273440681397915e-03 1.775821670889854431e-02 -4.038907063659280539e-04 -8.157557845115661621e-01 -1.147477701306343079e-02 -1.515363436192274094e-02 -6.452265661209821701e-03 3.708912525326013565e-03 -2.585321664810180664e-03 -1.001736640930175781e+00 3.055929904803633690e-03 -1.063815411180257797e-02 3.370150178670883179e-02 3.563035046681761742e-03 9.676488116383552551e-03 6.949219852685928345e-02 -1.300528529100120068e-03 7.441464066505432129e-02 -1.153622046113014221e-01 -4.336881339550018311e-01 1.557577848434448242e-01 -3.489319682121276855e-01 3.014081418514251709e-01 -2.655619680881500244e-01 1.102931681089103222e-03 -4.951749742031097412e-01 4.137836992740631104e-01 -3.280193209648132324e-01 -2.596758604049682617e-01 9.652814269065856934e-02 9.565510787069797516e-03 -7.043868303298950195e-02 -2.619085311889648438e-01 3.851239383220672607e-01 -4.280772805213928223e-02 -2.572795152664184570e-01 -2.249752636998891830e-03
