-3.370853066444396973e-01
-1.469784379005432129e-01
-4.606447815895080566e-01
-3.004126846790313721e-01
-2.677198648452758789e-01
-3.487252593040466309e-01
-2.848484516143798828e-01
-2.305551022291183472e-01
-8.757075667381286621e-02
-5.306045413017272949e-01
-2.154134213924407959e-01
-1.000091582536697388e-01
-3.981089293956756592e-01
-2.624829113483428955e-01
-8.392281085252761841e-02
-2.907773852348327637e-01
-1.806573569774627686e-01
-1.474793106317520142e-01
-4.212868213653564453e-01
-8.902861177921295166e-02
-4.158923029899597168e-01
-1.689375489950180054e-01
1.666655242443084717e-01
-3.258549571037292480e-01
-3.203069567680358887e-01
-4.262931644916534424e-01
-8.680938184261322021e-02
-1.113623827695846558e-01
-2.772729694843292236e-01
-2.459798753261566162e-01
7.880342602729797363e-01
-4.335925877094268799e-01
-2.178404778242111206e-01
-2.124570906162261963e-01
-3.583892881870269775e-01
-2.223992794752120972e-01
-2.665900290012359619e-01
-2.476661279797554016e-02
-2.930641174316406250e-01
-2.835645079612731934e-01
-3.351531922817230225e-01
2.995882332324981689e-01
-6.132983043789863586e-02
-2.324624508619308472e-01
-5.091679841279983521e-02
-3.373612836003303528e-02
-1.141275167465209961e-01
-1.344289164990186691e-02
-2.731144130229949951e-01
-2.609650790691375732e-01
-2.045653462409973145e-01
-3.424387872219085693e-01
-1.966804452240467072e-02
-2.086982317268848419e-02
-3.134586662054061890e-02
1.175633147358894348e-01
-1.386969387531280518e-01
8.531368337571620941e-03
-5.091575980186462402e-01
-4.227809011936187744e-01
-3.407872915267944336e-01
-1.181910112500190735e-01
-3.990371525287628174e-01
8.423429727554321289e-01
1.978479176759719849e-01
-3.353067636489868164e-01
-5.526418685913085938e-01
-6.299534440040588379e-02
-3.048684298992156982e-01
-3.260748386383056641e-01
-8.840897679328918457e-02
1.022520195692777634e-02
-3.049363009631633759e-02
-4.825476408004760742e-01
-2.478141635656356812e-01
-2.893463969230651855e-01
-1.476580183953046799e-02
-2.335367351770401001e-02
1.656833887100219727e-01
5.221594572067260742e-01
-1.639820635318756104e-02
-4.729651510715484619e-01
-3.304519057273864746e-01
7.935748249292373657e-02
-7.212994247674942017e-02
-1.984823495149612427e-01
-1.613849550485610962e-01
-2.407027035951614380e-01
-3.254685103893280029e-01
1.399347037076950073e-01
-1.938086301088333130e-01
9.022386511787772179e-04
-9.122302383184432983e-02
7.815888151526451111e-03
-3.231777250766754150e-01
-2.092479914426803589e-01
-2.972693145275115967e-01
1.022070124745368958e-01
-3.901541829109191895e-01
-4.605454802513122559e-01
-3.654068708419799805e-01
-6.264239549636840820e-01
-3.988844454288482666e-01
-3.169596493244171143e-01
-5.232009887695312500e-01
-2.943383455276489258e-01
-3.746576607227325439e-02
2.175532653927803040e-02
1.677941083908081055e-01
-2.132008075714111328e-01
-2.256208807229995728e-01
5.880338549613952637e-01
-1.696281731128692627e-01
-3.444497585296630859e-01
-3.736979141831398010e-02
6.849583238363265991e-03
-3.459310159087181091e-02
-3.728241026401519775e-01
-3.239009380340576172e-01
-2.850149273872375488e-01
-4.931317269802093506e-01
-3.651139512658119202e-02
-4.940666854381561279e-01
-2.506555914878845215e-01
-3.358058333396911621e-01
-1.926044970750808716e-01
-3.396749496459960938e-01
-2.146124094724655151e-01
-3.493045568466186523e-01
-2.243809103965759277e-01
-2.302087992429733276e-01
-1.767075955867767334e-01
-1.654686480760574341e-01
1.784439235925674438e-01
-4.811412096023559570e-01
-3.705321848392486572e-01
-4.626359343528747559e-01
-1.103445217013359070e-01
-3.715985715389251709e-01
-2.876495420932769775e-01
-1.845625489950180054e-01
2.954606115818023682e-01
-3.236827552318572998e-01
-2.023358196020126343e-01
5.170415714383125305e-02
-1.953713744878768921e-01
-1.399056762456893921e-01
-2.711220681667327881e-01
1.882223188877105713e-01
1.403172966092824936e-02
5.996266007423400879e-02
5.460023507475852966e-02
-1.326803714036941528e-01
-6.093274429440498352e-02
-2.098034620285034180e-01
1.332636922597885132e-01
-3.007072210311889648e-01
-4.947506263852119446e-02
-4.446959197521209717e-01
-1.200090795755386353e-01
-8.511485904455184937e-02
-1.404425054788589478e-01
-8.227819204330444336e-02
8.039214648306369781e-03
-8.496784418821334839e-02
5.582622066140174866e-02
-2.321578562259674072e-01
-5.350728705525398254e-02
-3.425055146217346191e-01
-1.423575580120086670e-01
-2.419740408658981323e-01
-1.065240353345870972e-01
-1.439670622348785400e-01
-7.092572003602981567e-02
1.414127796888351440e-01
-3.229250907897949219e-01
-3.285415470600128174e-02
-2.892072796821594238e-01
-6.653494387865066528e-02
-2.574283778667449951e-01
1.166398823261260986e-01
-3.024506270885467529e-01
-3.864317536354064941e-01
-3.397189676761627197e-01
-3.473416343331336975e-02
-1.421904414892196655e-01
-2.425134927034378052e-01
-3.377085328102111816e-01
-3.260152041912078857e-01
-3.878318965435028076e-01
-2.707106471061706543e-01
-7.914677262306213379e-02
-3.502939641475677490e-01
-1.085178926587104797e-02
4.159829393029212952e-02
-3.529889881610870361e-01
-3.985945284366607666e-01
-3.583275377750396729e-01
-2.886517345905303955e-01
-4.098485410213470459e-01
3.684860467910766602e-01
-3.562199771404266357e-01
-4.460566043853759766e-01
-4.005886614322662354e-02
-5.644745230674743652e-01
-4.239132702350616455e-01
-2.100372761487960815e-01
-2.461203634738922119e-01
-3.205860555171966553e-01
-3.896888792514801025e-01
-2.617738842964172363e-01
-2.712261080741882324e-01
-2.864216268062591553e-01
-1.173783764243125916e-01
-1.483913511037826538e-01
-3.221863210201263428e-01
-1.539534479379653931e-01
-3.248236477375030518e-01
6.066479086875915527e-01
-3.013873100280761719e-01
-2.842465639114379883e-01
2.090177126228809357e-02
-3.238360285758972168e-01
-3.034560978412628174e-01
-3.802703022956848145e-01
-3.262799978256225586e-01
-1.579731404781341553e-01
-4.920406639575958252e-01
-4.945711493492126465e-01
-3.931505382061004639e-01
-1.065644472837448120e-01
-2.839311063289642334e-01
-2.994553148746490479e-01
1.742332130670547485e-01
-2.989067435264587402e-01
-3.078503012657165527e-01
-3.937461674213409424e-01
-3.071666657924652100e-01
4.833244979381561279e-01
8.329960703849792480e-02
-4.612381756305694580e-01
-1.574654877185821533e-01
-1.672337502241134644e-01
-3.983481228351593018e-01
-2.245777994394302368e-01
7.834882289171218872e-02
1.453206315636634827e-02
-3.287714719772338867e-01
-2.942870557308197021e-01
-3.551884293556213379e-01
-3.302126228809356689e-01
-2.995519153773784637e-02
-3.617869615554809570e-01
-1.096988841891288757e-01
2.630991339683532715e-01
-3.276171982288360596e-01
-4.369592666625976562e-01
-3.431565761566162109e-01
-3.376158475875854492e-01
-4.025866091251373291e-02
-9.783580899238586426e-02
-4.602201282978057861e-01
-1.832603812217712402e-01
-1.559416949748992920e-01
-2.269468642771244049e-02
-1.890306472778320312e-01
-9.092441946268081665e-02
6.313005834817886353e-02
-1.495556682348251343e-01
3.957929555326700211e-03
1.205329969525337219e-01
-8.401325345039367676e-01
2.283149361610412598e-01
-1.556031852960586548e-01
-3.476999700069427490e-01
-1.264038383960723877e-01
-3.327921628952026367e-01
-2.380053251981735229e-01
3.217383921146392822e-01
-1.313363611698150635e-01
5.241838097572326660e-02
-4.340639412403106689e-01
3.760448470711708069e-02
-4.312158375978469849e-02
-7.133526355028152466e-02
-4.389891326427459717e-01
6.803789734840393066e-02
1.773703098297119141e-01
-1.335539016872644424e-02
-2.485206723213195801e-01
-2.288978397846221924e-01
-1.189077347517013550e-01
-1.726079583168029785e-01
-8.026964962482452393e-02
-2.032203078269958496e-01
-3.305273354053497314e-01
-2.043355852365493774e-01
1.137051880359649658e-01
-7.668346166610717773e-01
-1.849953457713127136e-02
6.395794451236724854e-02
-1.386503726243972778e-01
6.982867419719696045e-02
-7.303106039762496948e-02
-3.288643062114715576e-01
-2.496465295553207397e-01
-3.495993316173553467e-01
-1.735649257898330688e-01
-2.052745670080184937e-01
-2.320314049720764160e-01
2.562866508960723877e-01
3.268688172101974487e-02
-1.041478067636489868e-01
-6.370369344949722290e-02
-1.133148819208145142e-01
-1.652034521102905273e-01
-1.441234499216079712e-01
9.869100153446197510e-02
-4.932575523853302002e-01
3.727617263793945312e-01
2.415131181478500366e-01
-4.456516802310943604e-01
1.458777487277984619e-01
3.933363035321235657e-02
-2.359608113765716553e-01
-3.275514021515846252e-02
-4.288934469223022461e-01
-8.299466222524642944e-02
4.098425433039665222e-02
3.747757151722908020e-02
2.934442833065986633e-02
-2.868157438933849335e-02
3.801459446549415588e-02
5.576639249920845032e-02
9.828232973814010620e-02
1.592966020107269287e-01
4.229296743869781494e-02
1.323542594909667969e-01
-2.213487327098846436e-01
9.722533077001571655e-02
-2.108134031295776367e-01
2.081076651811599731e-01
3.091538883745670319e-02
-2.552998065948486328e-01
-3.992927074432373047e-01
-4.984121397137641907e-02
7.408047467470169067e-02
1.563179045915603638e-01
-3.031823039054870605e-01
-3.251177072525024414e-01
1.950236260890960693e-01
1.195382355945184827e-04
-1.937527060508728027e-01
6.343009322881698608e-02
-9.609253704547882080e-02
-1.755060255527496338e-01
-2.877401411533355713e-01
1.133023127913475037e-01
-8.429982513189315796e-02
-3.289227783679962158e-01
-2.807685136795043945e-01
-2.958599925041198730e-01
8.299092203378677368e-02
4.049189686775207520e-01
1.999378055334091187e-01
1.062379181385040283e-01
-3.755829483270645142e-02
4.164579510688781738e-02
-1.641803383827209473e-01
-9.389410167932510376e-02
1.794404238462448120e-01
-1.842539906501770020e-01
1.852533221244812012e-01
-9.057983011007308960e-02
-2.585389912128448486e-01
-7.396572232246398926e-01
-3.843677043914794922e-01
1.596960872411727905e-01
2.284533530473709106e-01
2.342677675187587738e-02
1.856228262186050415e-01
7.677176594734191895e-02
-2.327130734920501709e-01
-2.250914834439754486e-02
-5.230156779289245605e-01
-3.484639525413513184e-01
-3.432532399892807007e-02
-3.344589844346046448e-02
-3.235771059989929199e-01
1.892221271991729736e-01
-4.940482974052429199e-01
-2.239968180656433105e-01
-8.207757771015167236e-02
2.114649116992950439e-01
1.143957525491714478e-01
-1.773794442415237427e-01
-2.697867341339588165e-02
1.889378726482391357e-01
-5.191273093223571777e-01
-2.038810998201370239e-01
7.472979277372360229e-02
3.444747626781463623e-02
-2.129545658826828003e-01
1.034678053110837936e-02
1.756218820810317993e-01
-3.049402870237827301e-02
2.772006765007972717e-02
1.870458424091339111e-01
1.012362763285636902e-01
1.269403845071792603e-01
-3.774771690368652344e-01
-3.425543382763862610e-02
-2.607984840869903564e-01
-5.682445690035820007e-02
-6.854357123374938965e-01
3.706426545977592468e-02
1.034655347466468811e-01
1.262834817171096802e-01
-4.929907023906707764e-01
1.974218785762786865e-01
-5.532698705792427063e-02
1.101366952061653137e-01
-6.875676661729812622e-02
2.069694697856903076e-01
-1.809310615062713623e-01
5.546711757779121399e-02
-2.907424271106719971e-01
5.025270208716392517e-02
-2.445630729198455811e-02
-2.290137857198715210e-01
-1.815183460712432861e-01
-4.374921917915344238e-01
9.356347471475601196e-02
-2.391032874584197998e-03
-5.430017113685607910e-01
-5.860927104949951172e-01
3.388479351997375488e-01
1.370975673198699951e-01
-4.253799319267272949e-01
-1.910241693258285522e-01
-1.226018145680427551e-01
-1.519572734832763672e-01
-3.137896656990051270e-01
-1.001551300287246704e-01
1.499636769294738770e-01
-2.583894133567810059e-01
1.929927766323089600e-01
1.825419999659061432e-02
-1.939196288585662842e-01
-3.974197804927825928e-02
1.819991767406463623e-01
-3.097601234912872314e-01
-6.353126764297485352e-01
-5.212874412536621094e-01
-6.918802857398986816e-02
1.399234533309936523e-01
1.242142468690872192e-01
-3.724751174449920654e-01
-1.390004903078079224e-01
7.833343744277954102e-02
-6.725004315376281738e-01
-4.133739173412322998e-01
8.647584915161132812e-02
-3.060427606105804443e-01
2.099940739572048187e-02
-1.421078741550445557e-01
-1.988946944475173950e-01
3.011545836925506592e-01
-1.480799317359924316e-01
-2.499789744615554810e-01
-1.304235905408859253e-01
-2.418407611548900604e-02
-2.406724691390991211e-01
-2.153342068195343018e-01
1.068218573927879333e-01
1.401197761297225952e-01
3.467930853366851807e-02
1.875555217266082764e-01
-4.452612102031707764e-01
-2.753632366657257080e-01
-1.361331790685653687e-01
5.306407110765576363e-04
-6.321963388472795486e-03
-3.256462216377258301e-01
-4.267220795154571533e-01
-2.658142447471618652e-01
-2.472819015383720398e-02
2.399143762886524200e-02
-8.918288350105285645e-02
2.004940360784530640e-01
-3.830180764198303223e-01
-4.203150793910026550e-02
-3.843461275100708008e-01
3.018627464771270752e-01
1.361865401268005371e-01
9.970455616712570190e-02
-3.108544647693634033e-01
-2.480111550539731979e-03
-5.068013072013854980e-01
-4.829923212528228760e-01
-3.202680945396423340e-01
1.198106929659843445e-01
8.718282729387283325e-02
-2.943072617053985596e-01
-7.709246128797531128e-02
-1.293806126341223717e-04
-8.864253759384155273e-02
-1.517021059989929199e-01
-1.264845579862594604e-02
4.438070952892303467e-02
3.065609335899353027e-01
2.329043485224246979e-02
-5.373039748519659042e-03
4.948012530803680420e-01
-2.300744503736495972e-02
-1.520713791251182556e-02
-1.152586378157138824e-02
-6.515771895647048950e-02
-7.606308907270431519e-02
-2.166759409010410309e-02
-9.290879964828491211e-02
1.079137697815895081e-01
-3.435480892658233643e-01
2.299219518899917603e-01
-1.643263250589370728e-01
-6.852609571069478989e-03
3.678349032998085022e-02
-4.923660755157470703e-01
-4.519249126315116882e-02
-5.168109536170959473e-01
1.923922300338745117e-01
1.324750334024429321e-01
-1.142000779509544373e-02
1.796443164348602295e-01
3.668554425239562988e-01
-8.177222311496734619e-02
2.530799508094787598e-01
3.698112815618515015e-02
2.271399348974227905e-01
2.837274782359600067e-02
-1.358827352523803711e-01
-1.168874874711036682e-01
-3.572173416614532471e-01
-3.469348847866058350e-01
-2.298769503831863403e-01
-2.240218371152877808e-01
1.691640466451644897e-01
-4.654391109943389893e-01
1.547928303480148315e-01
-3.502473533153533936e-01
1.146683767437934875e-01
5.209660902619361877e-02
1.255103945732116699e-01
6.132893562316894531e-01
3.975555598735809326e-01
1.422922015190124512e-01
3.825940787792205811e-01
-2.200252562761306763e-01
3.432500958442687988e-01
2.247523218393325806e-01
-4.363584145903587341e-02
7.943546026945114136e-02
-1.127570122480392456e-01
-1.781873106956481934e-01
2.255139052867889404e-01
2.736624181270599365e-01
-3.663727268576622009e-02
-6.477796286344528198e-02
-3.322044909000396729e-01
-2.152892500162124634e-01
-9.589982032775878906e-02
-1.451534479856491089e-01
1.215253621339797974e-01
2.084663659334182739e-01
-4.379387199878692627e-02
-5.275693535804748535e-01
-5.715008378028869629e-01
-1.334245875477790833e-02
8.026246912777423859e-03
-2.652704715728759766e-01
1.384254395961761475e-01
-5.177257955074310303e-02
-5.196063593029975891e-02
-1.532900035381317139e-01
-4.953652620315551758e-01
-2.456920444965362549e-01
-3.910038471221923828e-01
-2.890711426734924316e-01
-7.810179144144058228e-02
-1.442430913448333740e-01
9.038913249969482422e-02
7.329888939857482910e-01
5.688464641571044922e-02
1.492388099431991577e-01
3.296415507793426514e-02
-4.887111485004425049e-01
-3.088796138763427734e-01
-2.352506220340728760e-01
1.769921556115150452e-02
-3.954835534095764160e-01
-1.855206489562988281e-01
-2.722528576850891113e-01
2.138718403875827789e-02
2.963004112243652344e-01
5.080576986074447632e-03
-3.267073333263397217e-01
2.069740742444992065e-02
-6.887113302946090698e-02
-7.228289544582366943e-02
4.155571758747100830e-01
8.103621751070022583e-02
7.071464508771896362e-02
8.086930215358734131e-02
-6.332299113273620605e-02
-1.291993819177150726e-02
3.107140064239501953e-01
-2.349837422370910645e-01
-9.634233266115188599e-02
-7.485803216695785522e-02
2.959697693586349487e-02
2.284004539251327515e-01
6.149589270353317261e-02
1.030538901686668396e-01
-2.873643040657043457e-01
2.733265459537506104e-01
-2.170662879943847656e-01
1.421577334403991699e-01
-3.590255975723266602e-02
-1.110091432929039001e-01
-1.509296745061874390e-01
-2.524932622909545898e-01
3.142403066158294678e-01
6.559694558382034302e-02
-1.693254709243774414e-02
-8.420731127262115479e-02
-1.719566644169390202e-04
-1.905121356248855591e-01
1.151071935892105103e-01
3.437156975269317627e-01
1.053332239389419556e-01
5.084620788693428040e-02
-5.117616429924964905e-02
1.851963624358177185e-02
4.280988872051239014e-01
2.365362942218780518e-01
2.558762431144714355e-01
-6.932409852743148804e-02
-1.549851596355438232e-01
1.056876182556152344e-01
-2.283866703510284424e-01
1.395540982484817505e-01
2.174903750419616699e-01
-4.475511610507965088e-01
-2.675026655197143555e-01
3.612582683563232422e-01
-2.789253294467926025e-01
-3.242318630218505859e-01
-3.873484730720520020e-01
1.536364853382110596e-01
2.198564261198043823e-01
5.234373360872268677e-02
-2.836744785308837891e-01
-1.077306047081947327e-01
-1.189855709671974182e-01
-1.827189028263092041e-01
2.568504810333251953e-01
-6.294509023427963257e-02
1.871849000453948975e-01
-1.676752581261098385e-03
-9.340309351682662964e-02
-4.614880084991455078e-01
-9.575647860765457153e-02
2.174991518259048462e-01
6.223513484001159668e-01
-2.330421805381774902e-01
-5.632491111755371094e-01
4.282506704330444336e-01
-1.274606883525848389e-01
-7.879438251256942749e-02
4.670524001121520996e-01
-1.481596473604440689e-02
-2.277764976024627686e-01
-4.682371020317077637e-02
2.671138048171997070e-01
-8.687672019004821777e-02
-1.324135661125183105e-01
9.395520389080047607e-02
2.485715597867965698e-02
-3.069538474082946777e-01
2.596110850572586060e-02
-3.978234231472015381e-01
5.260953903198242188e-01
5.760422348976135254e-01
-7.830283045768737793e-02
4.067476093769073486e-01
3.633273839950561523e-01
-3.141321837902069092e-01
5.893753468990325928e-02
2.548241317272186279e-01
-3.059826791286468506e-01
-2.893927395343780518e-01
-1.375394873321056366e-02
5.864140763878822327e-02
2.946528606116771698e-02
6.571255624294281006e-02
-2.100658565759658813e-01
2.768798172473907471e-01
-1.291473060846328735e-01
-2.199583649635314941e-01
4.752184450626373291e-02
-1.200693100690841675e-01
1.292839199304580688e-01
-3.770686984062194824e-01
3.777572512626647949e-02
1.351609528064727783e-01
1.604611128568649292e-01
-3.419484496116638184e-01
-5.114414542913436890e-02
2.794930040836334229e-01
-1.674688905477523804e-01
1.698758155107498169e-01
-3.357360139489173889e-02
-7.394674420356750488e-02
-8.416602015495300293e-02
1.843825541436672211e-02
1.072915568947792053e-01
-1.128451451659202576e-01
-1.686180382966995239e-02
4.581729322671890259e-02
6.434319168329238892e-02
5.888189673423767090e-01
4.617131650447845459e-01
8.635569363832473755e-03
-4.723079502582550049e-01
-1.674739569425582886e-01
1.682390123605728149e-01
1.826081126928329468e-01
5.669089034199714661e-02
1.981703639030456543e-01
1.041304245591163635e-01
-5.956388637423515320e-02
1.957331746816635132e-01
-2.865474224090576172e-01
-8.271241560578346252e-03
1.683962345123291016e-01
-2.504945695400238037e-01
1.071571558713912964e-01
5.998996645212173462e-02
4.260677471756935120e-02
2.942736744880676270e-01
-3.710670769214630127e-01
-1.173723489046096802e-01
-3.390509262681007385e-02
3.599682748317718506e-01
-3.224691152572631836e-01
1.757512390613555908e-01
1.084715314209461212e-02
-1.207548007369041443e-01
-2.533394694328308105e-01
4.425402730703353882e-02
-7.689210027456283569e-02
-2.925069034099578857e-01
-2.447586655616760254e-01
-7.488052546977996826e-02
5.457399040460586548e-02
1.852350980043411255e-01
-1.399610638618469238e-01
-8.525723963975906372e-02
-6.929779648780822754e-01
-3.388022184371948242e-01
-3.002594411373138428e-01
-7.076321840286254883e-01
-1.766278743743896484e-01
-2.038933634757995605e-01
-2.003812938928604126e-01
-4.647266268730163574e-01
-6.182047724723815918e-01
-5.696882009506225586e-01
4.291352257132530212e-02
-6.291070580482482910e-01
-5.346982479095458984e-01
-2.380706518888473511e-01
-4.289458096027374268e-01
-3.037349581718444824e-01
-8.518069982528686523e-02
-5.763602852821350098e-01
-2.082091271877288818e-01
9.599670022726058960e-02
-4.112955629825592041e-01
-4.807369783520698547e-02
-3.654658049345016479e-02
1.584457606077194214e-01
3.687269985675811768e-02
-4.356397986412048340e-01
-1.457517892122268677e-01
-3.938711881637573242e-01
-5.529979467391967773e-01
-3.020022809505462646e-01
-2.332487255334854126e-01
6.380519270896911621e-02
-1.164809148758649826e-02
-6.630653142929077148e-01
-1.898124665021896362e-01
-2.121756523847579956e-01
-1.180057823657989502e-01
-4.465983510017395020e-01
-5.928415060043334961e-01
-2.529618442058563232e-01
-2.474715709686279297e-01
5.357533097267150879e-01
-2.420828342437744141e-01
-1.843238323926925659e-01
-5.526096224784851074e-01
-8.440199890173971653e-04
-6.004900112748146057e-02
-2.478661686182022095e-01
-2.785847783088684082e-01
-7.274790853261947632e-02
-1.017409339547157288e-01
-6.225409731268882751e-02
-5.846402645111083984e-01
-2.684355154633522034e-02
-4.753179252147674561e-01
-5.625435113906860352e-01
-3.035486936569213867e-01
-2.215702384710311890e-01
-2.395235598087310791e-01
-1.192232295870780945e-01
-5.459195375442504883e-01
1.327060759067535400e-01
-3.693895041942596436e-01
4.310411587357521057e-02
-6.392216682434082031e-02
-9.831397235393524170e-02
1.637735031545162201e-02
-2.495930343866348267e-01
-2.736036181449890137e-01
-3.753364682197570801e-01
-1.152361705899238586e-01
-1.060745492577552795e-01
-3.141268491744995117e-01
-6.076527237892150879e-01
1.742556393146514893e-01
-4.741394519805908203e-01
-2.476075142621994019e-01
-4.574524462223052979e-01
-7.976326942443847656e-01
1.157744079828262329e-01
-6.096630096435546875e-01
-1.100987568497657776e-01
-1.761199347674846649e-02
-6.041265130043029785e-01
4.861972294747829437e-03
-3.995768725872039795e-01
-1.777101606130599976e-01
-1.571835279464721680e-01
-3.385849893093109131e-01
-3.348117470741271973e-01
-5.018928647041320801e-01
-4.791952371597290039e-01
-6.494586467742919922e-01
-3.027437627315521240e-01
-6.398243904113769531e-01
-4.557628184556961060e-02
-1.548725515604019165e-01
1.342563778162002563e-01
-6.118487119674682617e-01
-2.775315642356872559e-01
-5.757331848144531250e-01
2.847037017345428467e-01
-4.627019464969635010e-01
-1.866852492094039917e-01
-6.899954080581665039e-01
-1.943305581808090210e-01
-2.975960671901702881e-01
-7.744662761688232422e-01
-5.310603976249694824e-01
-6.256321668624877930e-01
-7.725945673882961273e-03
-4.466299712657928467e-02
-6.144244074821472168e-01
9.288649260997772217e-02
-4.772228300571441650e-01
-7.084677815437316895e-01
-2.953603565692901611e-01
-2.605443596839904785e-01
-5.776578187942504883e-01
-6.268826723098754883e-01
-3.881936073303222656e-01
-1.149675622582435608e-01
-2.350832670927047729e-01
-4.420376941561698914e-02
1.740809231996536255e-01
1.604756526648998260e-02
-4.961665272712707520e-01
-4.650622904300689697e-01
-2.016700357198715210e-01
-3.844380974769592285e-01
-3.536789417266845703e-01
-2.247877418994903564e-01
-1.446695625782012939e-01
-2.082940489053726196e-01
-1.766093969345092773e-01
-1.364901661872863770e-01
-5.756073594093322754e-01
1.736144870519638062e-01
-7.127470374107360840e-01
-5.383856892585754395e-01
-3.676954209804534912e-01
-4.534587860107421875e-01
-2.086129188537597656e-01
-1.757107526063919067e-01
-6.417532563209533691e-01
-6.320700645446777344e-01
-2.008593678474426270e-01
-9.266036003828048706e-02
-5.411067008972167969e-01
1.299549788236618042e-01
-4.473614096641540527e-01
-5.752848386764526367e-01
-3.527110219001770020e-01
-5.914939641952514648e-01
-3.073559999465942383e-01
2.296277135610580444e-01
-6.857109069824218750e-01
-1.955674141645431519e-01
-3.319856226444244385e-01
-3.357992172241210938e-01
-2.090635746717453003e-01
-3.082976937294006348e-01
-4.452734887599945068e-01
3.504141271114349365e-01
-1.549841277301311493e-02
-4.560951292514801025e-01
-3.555061221122741699e-01
-2.397981584072113037e-01
-5.667465329170227051e-01
-6.585007905960083008e-02
-3.259831368923187256e-01
-2.632631063461303711e-01
-2.132174223661422729e-01
-3.665383458137512207e-01
-5.317848920822143555e-01
-1.482361704111099243e-01
-1.247610151767730713e-01
-8.083728700876235962e-02
-5.981059074401855469e-01
-3.285913467407226562e-01
-5.242944359779357910e-01
1.463349461555480957e-01
-4.119976982474327087e-02
-5.677942037582397461e-01
1.638073027133941650e-01
-1.037416160106658936e-01
-3.853886425495147705e-01
-5.999462604522705078e-01
3.025061488151550293e-01
-4.678726792335510254e-01
-7.959706783294677734e-01
-6.386252641677856445e-01
-2.479070723056793213e-01
-5.590806007385253906e-01
-4.342198371887207031e-01
-5.640959739685058594e-01
-3.141531646251678467e-01
-4.027274847030639648e-01
-6.236159801483154297e-01
-2.673373185098171234e-02
-1.232581511139869690e-01
-6.544921398162841797e-01
-4.657607972621917725e-01
-2.454243302345275879e-01
-2.714762091636657715e-01
-2.151578813791275024e-01
-9.665229916572570801e-02
-2.453934103250503540e-01
-4.182889461517333984e-01
-2.294373810291290283e-01
-2.986048758029937744e-01
3.420344889163970947e-01
-4.874156713485717773e-01
-5.502478480339050293e-01
-4.802098572254180908e-01
-5.660837292671203613e-01
-1.162359863519668579e-02
-6.842774152755737305e-01
-3.075183928012847900e-01
2.687315344810485840e-01
-4.878875240683555603e-02
-8.067633956670761108e-02
-4.171581566333770752e-01
-5.607435703277587891e-01
-1.628851294517517090e-01
-8.063099533319473267e-02
-1.262525171041488647e-01
-4.214611053466796875e-01
-9.333203732967376709e-02
-2.089226990938186646e-01
-1.968676690012216568e-03
-1.529841721057891846e-01
-1.732484549283981323e-01
-6.551181077957153320e-01
-2.828240096569061279e-01
-4.799280762672424316e-01
-2.650760412216186523e-01
-5.013273358345031738e-01
-1.304003298282623291e-01
-2.580139040946960449e-01
6.264448910951614380e-02
-6.268072724342346191e-01
1.582010686397552490e-01
-2.475475221872329712e-01
-2.315750271081924438e-01
-5.756460428237915039e-01
4.436590895056724548e-02
-3.167694509029388428e-01
-1.725013256072998047e-01
-6.982186436653137207e-01
-2.301103621721267700e-01
-1.680393964052200317e-01
-1.130981668829917908e-01
-4.538596048951148987e-02
-6.271895766258239746e-01
-4.649606943130493164e-01
