-4.048372507095336914e-01
-1.980828493833541870e-01
-3.693288266658782959e-01
-3.580300807952880859e-01
-2.511128783226013184e-01
-3.634011149406433105e-01
-3.165519237518310547e-01
-1.898506730794906616e-01
-1.079042777419090271e-01
-5.300389528274536133e-01
-2.250998616218566895e-01
-1.213547810912132263e-01
-3.804579377174377441e-01
-2.569310963153839111e-01
-1.735762134194374084e-02
-2.839033901691436768e-01
-2.494974583387374878e-01
-1.121482700109481812e-01
-3.774925172328948975e-01
-1.185561046004295349e-01
-4.069811403751373291e-01
-2.038982659578323364e-01
2.261568307876586914e-01
-3.922978937625885010e-01
-2.977277934551239014e-01
-3.507235348224639893e-01
-7.199611514806747437e-02
-1.282048374414443970e-01
-2.425348460674285889e-01
-3.315901756286621094e-01
7.840166687965393066e-01
-4.059704244136810303e-01
-2.254389971494674683e-01
-2.081733047962188721e-01
-4.420378804206848145e-01
-2.161023914813995361e-01
-2.614352703094482422e-01
-3.839863836765289307e-02
-2.567293345928192139e-01
-2.462050914764404297e-01
-2.654198110103607178e-01
1.983980238437652588e-01
-9.426264464855194092e-02
-2.086385190486907959e-01
-5.858359858393669128e-02
-1.058543100953102112e-01
-1.395661681890487671e-01
-1.110809370875358582e-01
-2.075008898973464966e-01
-3.612069487571716309e-01
-2.044419348239898682e-01
-2.795376181602478027e-01
-1.208281666040420532e-01
-5.720005929470062256e-02
1.117128180339932442e-03
9.166172146797180176e-02
-1.032671928405761719e-01
-4.192944243550300598e-02
-4.881298243999481201e-01
-3.648651838302612305e-01
-3.574150800704956055e-01
-7.551262527704238892e-02
-4.118711352348327637e-01
8.422021865844726562e-01
2.315695732831954956e-01
-3.057057559490203857e-01
-4.637667238712310791e-01
-1.523547470569610596e-01
-2.353857010602951050e-01
-3.072707056999206543e-01
-1.240998581051826477e-01
-2.386720106005668640e-02
-7.900599390268325806e-02
-4.344371557235717773e-01
-2.146926820278167725e-01
-2.980525195598602295e-01
2.302616462111473083e-02
-7.242485135793685913e-02
1.451068222522735596e-01
4.834390580654144287e-01
-1.023606806993484497e-01
-4.706112742424011230e-01
-2.860282063484191895e-01
1.535674929618835449e-01
-1.384203135967254639e-01
-2.241700887680053711e-01
-1.938218325376510620e-01
-1.540986150503158569e-01
-2.751519083976745605e-01
1.966761052608489990e-01
-2.755948007106781006e-01
5.445612221956253052e-02
-1.714840680360794067e-01
3.488956019282341003e-02
-2.872334718704223633e-01
-1.985740065574645996e-01
-3.083787560462951660e-01
5.164937302470207214e-02
-2.868324518203735352e-01
-4.011403024196624756e-01
-3.238427639007568359e-01
-6.697511076927185059e-01
-4.254997074604034424e-01
-3.187375366687774658e-01
-5.109357833862304688e-01
-3.729974031448364258e-01
3.161995671689510345e-03
8.518064394593238831e-03
6.060815975069999695e-02
-1.973598301410675049e-01
-1.385809779167175293e-01
5.276923179626464844e-01
-1.148970052599906921e-01
-3.495530188083648682e-01
5.209349840879440308e-02
-6.498953793197870255e-03
-6.277664750814437866e-02
-3.277221024036407471e-01
-3.473650813102722168e-01
-2.894424498081207275e-01
-4.647034406661987305e-01
1.951042935252189636e-02
-4.037722647190093994e-01
-2.070602625608444214e-01
-2.233098596334457397e-01
-3.115359842777252197e-01
-3.464888036251068115e-01
-3.189911246299743652e-01
-4.372878074645996094e-01
-2.439465373754501343e-01
-2.097000926733016968e-01
-1.567258834838867188e-01
-2.855492234230041504e-01
1.904915124177932739e-01
-4.759445488452911377e-01
-3.537664711475372314e-01
-3.764970898628234863e-01
-9.826460480690002441e-02
-3.099297881126403809e-01
-2.661640346050262451e-01
-2.576724588871002197e-01
2.675643563270568848e-01
-4.172924458980560303e-01
-2.676136493682861328e-01
-4.480624198913574219e-02
-1.386367231607437134e-01
-1.917148530483245850e-01
-2.589577734470367432e-01
2.876906692981719971e-01
6.862922571599483490e-03
6.520038470625877380e-03
-1.077489834278821945e-02
-1.283236294984817505e-01
-1.297467947006225586e-01
-2.589716911315917969e-01
1.203456073999404907e-01
-3.553028702735900879e-01
-1.190562453120946884e-02
-4.028860926628112793e-01
-1.701269000768661499e-01
-6.604626029729843140e-02
-6.375857442617416382e-02
-7.365708798170089722e-02
-8.547332882881164551e-02
-1.057686731219291687e-01
1.437295526266098022e-01
-1.424733996391296387e-01
-4.568160802591592073e-04
-3.350853621959686279e-01
-1.394119113683700562e-01
-3.229683339595794678e-01
-1.440780758857727051e-01
-5.859313905239105225e-02
-1.118952259421348572e-01
7.333702594041824341e-02
-3.064385652542114258e-01
-1.023248955607414246e-01
-2.323590219020843506e-01
-4.373787716031074524e-02
-3.038907945156097412e-01
1.290258318185806274e-01
-2.689700126647949219e-01
-3.987447023391723633e-01
-3.671645224094390869e-01
-1.476757377386093140e-01
-1.425889879465103149e-01
-2.405135631561279297e-01
-3.019753098487854004e-01
-2.246698141098022461e-01
-3.286524116992950439e-01
-2.163863629102706909e-01
-5.716309323906898499e-02
-3.029452264308929443e-01
-1.218324154615402222e-02
4.067744687199592590e-02
-2.988783717155456543e-01
-4.534322321414947510e-01
-3.311965465545654297e-01
-1.965515464544296265e-01
-4.389818608760833740e-01
4.158929288387298584e-01
-4.168451130390167236e-01
-4.950238764286041260e-01
6.275453418493270874e-02
-6.759555935859680176e-01
-3.641206026077270508e-01
-1.986573040485382080e-01
-2.256980687379837036e-01
-2.799304127693176270e-01
-4.976863861083984375e-01
-3.114406764507293701e-01
-3.314059972763061523e-01
-2.588187456130981445e-01
-3.780273348093032837e-02
-1.411006301641464233e-01
-3.608896136283874512e-01
-1.894745379686355591e-01
-3.326812088489532471e-01
5.663915872573852539e-01
-2.880654036998748779e-01
-2.292661964893341064e-01
1.337811946868896484e-01
-3.274040818214416504e-01
-4.045670926570892334e-01
-4.052195549011230469e-01
-3.871864676475524902e-01
-1.309549957513809204e-01
-4.856623411178588867e-01
-4.383745789527893066e-01
-3.234863877296447754e-01
-6.633218377828598022e-02
-2.661116719245910645e-01
-2.450270652770996094e-01
2.399870306253433228e-01
-3.873039484024047852e-01
-3.243942856788635254e-01
-4.235809147357940674e-01
-3.937904238700866699e-01
4.665517508983612061e-01
5.848106741905212402e-02
-5.329532027244567871e-01
-7.544597983360290527e-02
-1.197825521230697632e-01
-4.712717533111572266e-01
-1.205046176910400391e-01
4.466993734240531921e-02
-2.071884518954902887e-04
-3.166432380676269531e-01
-2.879897952079772949e-01
-3.086076974868774414e-01
-2.241223007440567017e-01
-6.778802722692489624e-02
-2.736380696296691895e-01
-4.007870331406593323e-02
2.342990934848785400e-01
-3.091022372245788574e-01
2.587055444717407227e+00
2.608530044555664062e+00
2.706249475479125977e+00
3.010905504226684570e+00
2.845139741897583008e+00
2.513680458068847656e+00
2.818411111831665039e+00
2.783742666244506836e+00
2.991767644882202148e+00
2.805767536163330078e+00
2.852328300476074219e+00
3.022362232208251953e+00
2.837173700332641602e+00
3.002448558807373047e+00
3.170629501342773438e+00
2.157585144042968750e+00
3.237033128738403320e+00
2.888183355331420898e+00
2.593735694885253906e+00
2.868567466735839844e+00
2.648257970809936523e+00
2.823923110961914062e+00
3.266664028167724609e+00
2.808641195297241211e+00
3.006020545959472656e+00
2.626839637756347656e+00
3.009166002273559570e+00
2.962861061096191406e+00
2.908785343170166016e+00
2.589441776275634766e+00
3.127865314483642578e+00
3.131230592727661133e+00
2.984122514724731445e+00
2.721388339996337891e+00
2.783873796463012695e+00
2.829718351364135742e+00
2.814513683319091797e+00
2.972739219665527344e+00
2.816804170608520508e+00
2.727600574493408203e+00
2.747079372406005859e+00
3.126495599746704102e+00
2.217581987380981445e+00
2.975956678390502930e+00
3.031006813049316406e+00
2.918099641799926758e+00
3.024928331375122070e+00
2.893850326538085938e+00
2.685713052749633789e+00
2.728445291519165039e+00
2.711663722991943359e+00
2.774963378906250000e+00
2.818406581878662109e+00
2.829519033432006836e+00
3.251194238662719727e+00
3.027382612228393555e+00
2.956382274627685547e+00
2.924740076065063477e+00
2.918055772781372070e+00
2.851858854293823242e+00
2.852305173873901367e+00
3.063931703567504883e+00
2.505949258804321289e+00
3.352880954742431641e+00
3.259560108184814453e+00
2.608223915100097656e+00
3.136143684387207031e+00
3.014931440353393555e+00
2.780956745147705078e+00
3.016494035720825195e+00
2.596160411834716797e+00
2.884807109832763672e+00
2.981468677520751953e+00
3.024497270584106445e+00
3.011257648468017578e+00
3.004106044769287109e+00
3.041635513305664062e+00
3.045043706893920898e+00
3.070820808410644531e+00
3.199841499328613281e+00
3.102179288864135742e+00
3.177354097366333008e+00
2.830278158187866211e+00
3.052906274795532227e+00
2.790782451629638672e+00
3.164303779602050781e+00
3.000501155853271484e+00
2.754272460937500000e+00
2.593778848648071289e+00
2.988219976425170898e+00
3.027842760086059570e+00
3.099645853042602539e+00
2.638673782348632812e+00
2.714806556701660156e+00
3.210379362106323242e+00
2.997109889984130859e+00
2.847053050994873047e+00
3.027514934539794922e+00
2.871113300323486328e+00
2.772781372070312500e+00
2.735063552856445312e+00
3.118142843246459961e+00
2.892699003219604492e+00
2.636412620544433594e+00
2.721395730972290039e+00
2.710831880569458008e+00
3.141535043716430664e+00
3.355555295944213867e+00
3.165093660354614258e+00
3.096161603927612305e+00
2.953909873962402344e+00
3.099433183670043945e+00
2.821105003356933594e+00
2.862647533416748047e+00
3.203706979751586914e+00
2.854926109313964844e+00
3.177174091339111328e+00
2.925360441207885742e+00
2.740483522415161133e+00
2.313065767288208008e+00
2.554222345352172852e+00
3.121416330337524414e+00
3.285838842391967773e+00
2.960985898971557617e+00
3.155394315719604492e+00
3.051955223083496094e+00
2.736607789993286133e+00
2.960665941238403320e+00
2.461562633514404297e+00
2.612013816833496094e+00
2.972373723983764648e+00
2.978292703628540039e+00
2.722713947296142578e+00
3.189616918563842773e+00
2.472888231277465820e+00
2.784021615982055664e+00
2.960860013961791992e+00
3.213525772094726562e+00
3.139230251312255859e+00
2.794817924499511719e+00
2.986626863479614258e+00
3.227284669876098633e+00
2.536459922790527344e+00
2.854217529296875000e+00
3.134502887725830078e+00
3.002840042114257812e+00
2.784040212631225586e+00
3.025069713592529297e+00
3.132083892822265625e+00
3.006145000457763672e+00
3.062147140502929688e+00
3.158519029617309570e+00
3.129347801208496094e+00
3.091043710708618164e+00
2.617822408676147461e+00
2.971379280090332031e+00
2.755728483200073242e+00
2.944941520690917969e+00
2.301296234130859375e+00
3.031388998031616211e+00
3.073269128799438477e+00
3.100495815277099609e+00
2.478930473327636719e+00
3.154350519180297852e+00
2.992398023605346680e+00
3.095554113388061523e+00
2.897317409515380859e+00
3.154533624649047852e+00
2.850507020950317383e+00
2.994599103927612305e+00
2.678343057632446289e+00
3.054942607879638672e+00
3.014102458953857422e+00
2.825662374496459961e+00
2.793823719024658203e+00
2.585419178009033203e+00
3.067030668258666992e+00
3.048808097839355469e+00
2.465722322463989258e+00
2.387182474136352539e+00
3.357924699783325195e+00
3.147381067276000977e+00
2.512553215026855469e+00
2.870761394500732422e+00
2.932568073272705078e+00
2.853843688964843750e+00
2.629307270050048828e+00
2.922785520553588867e+00
3.168920755386352539e+00
2.748650789260864258e+00
3.161897897720336914e+00
3.012614250183105469e+00
2.752011060714721680e+00
2.939847707748413086e+00
3.217472076416015625e+00
2.699195623397827148e+00
2.346353054046630859e+00
2.438144207000732422e+00
2.973183870315551758e+00
3.197205543518066406e+00
3.174881458282470703e+00
2.653327703475952148e+00
2.923123359680175781e+00
3.051949977874755859e+00
2.340162754058837891e+00
2.621438026428222656e+00
3.101469516754150391e+00
2.706416368484497070e+00
2.982060194015502930e+00
2.865301132202148438e+00
2.839192390441894531e+00
3.325296640396118164e+00
2.881936788558959961e+00
2.760751962661743164e+00
2.819398880004882812e+00
2.988509178161621094e+00
2.808615446090698242e+00
2.793626785278320312e+00
3.131808042526245117e+00
3.123082399368286133e+00
3.019251108169555664e+00
3.194950342178344727e+00
2.581620931625366211e+00
2.743652582168579102e+00
2.818960428237915039e+00
2.992091178894042969e+00
2.969002962112426758e+00
2.722779512405395508e+00
2.600169658660888672e+00
2.740914821624755859e+00
2.917597532272338867e+00
2.991765975952148438e+00
2.900043725967407227e+00
3.157485723495483398e+00
2.629301071166992188e+00
2.904010295867919922e+00
2.586756706237792969e+00
3.319629907608032227e+00
3.112458467483520508e+00
3.063331365585327148e+00
2.738177061080932617e+00
2.999900341033935547e+00
2.454844713211059570e+00
2.535158872604370117e+00
2.733246326446533203e+00
3.080348491668701172e+00
3.050455808639526367e+00
2.661841392517089844e+00
2.912853479385375977e+00
3.002414941787719727e+00
2.878918409347534180e+00
2.813184022903442383e+00
2.999907970428466797e+00
3.015961170196533203e+00
3.301585674285888672e+00
2.961323022842407227e+00
-1.123995259404182434e-01
5.443424582481384277e-01
3.903568536043167114e-02
2.086272649466991425e-02
-3.096677549183368683e-02
2.695847302675247192e-02
-1.155000329017639160e-01
-2.625637315213680267e-02
-5.264814943075180054e-02
6.203322485089302063e-02
-3.767123222351074219e-01
1.750057935714721680e-01
-1.134804040193557739e-01
-1.932892249897122383e-03
4.359814152121543884e-02
-4.579454362392425537e-01
-8.168254047632217407e-02
-4.829027652740478516e-01
1.988117396831512451e-01
1.539912372827529907e-01
-3.493778873234987259e-03
2.178121507167816162e-01
4.124622046947479248e-01
-3.785533364862203598e-03
2.289590835571289062e-01
-1.350357662886381149e-02
1.572864353656768799e-01
-2.109139598906040192e-02
-8.630624413490295410e-02
-7.836237549781799316e-03
-2.886832356452941895e-01
-3.090940415859222412e-01
-2.145821005105972290e-01
-2.153317332267761230e-01
8.033090084791183472e-02
-3.763163387775421143e-01
2.136723548173904419e-01
-2.773473858833312988e-01
1.807121187448501587e-01
2.895537763833999634e-02
4.696173220872879028e-02
6.182331442832946777e-01
3.775980472564697266e-01
1.852030903100967407e-01
4.408659934997558594e-01
-2.460748553276062012e-01
2.473846226930618286e-01
2.463615536689758301e-01
-4.154755920171737671e-02
1.923232153058052063e-02
-2.054409533739089966e-01
-1.633118242025375366e-01
2.596013247966766357e-01
2.815019190311431885e-01
-2.267966046929359436e-02
-5.967800691723823547e-02
-3.569795787334442139e-01
-2.730872035026550293e-01
-1.098373308777809143e-01
-1.280619055032730103e-01
7.365459948778152466e-02
2.213990986347198486e-01
2.476620674133300781e-02
-5.932903885841369629e-01
-4.630580544471740723e-01
-3.852596506476402283e-02
-7.476147264242172241e-02
-2.005081325769424438e-01
1.552975773811340332e-01
-9.399532340466976166e-03
-5.310719460248947144e-02
-1.482041329145431519e-01
-3.944807052612304688e-01
-1.515468358993530273e-01
-4.250505268573760986e-01
-2.626709043979644775e-01
-8.588568866252899170e-02
-1.810811311006546021e-01
3.158564120531082153e-02
7.188100218772888184e-01
1.013196930289268494e-01
1.223556026816368103e-01
1.190058514475822449e-01
-5.101508498191833496e-01
-3.028745949268341064e-01
-2.561800777912139893e-01
2.807668596506118774e-02
-4.173315167427062988e-01
-1.696647852659225464e-01
-2.501344382762908936e-01
-1.593540422618389130e-02
2.927829623222351074e-01
4.526059702038764954e-02
-3.529102206230163574e-01
7.816746830940246582e-02
-4.537219926714897156e-02
-2.116332389414310455e-02
4.435991346836090088e-01
9.875564277172088623e-02
6.587897986173629761e-02
1.101684421300888062e-01
8.163142949342727661e-03
8.061426877975463867e-02
2.663590610027313232e-01
-3.022576868534088135e-01
-1.695866286754608154e-01
2.239178121089935303e-02
4.406602308154106140e-02
1.788471341133117676e-01
8.856628835201263428e-02
1.253925412893295288e-01
-3.013009727001190186e-01
2.990632653236389160e-01
-1.975214630365371704e-01
6.269396096467971802e-02
-2.765000052750110626e-02
-1.089933142066001892e-01
-1.342028230428695679e-01
-3.082345426082611084e-01
2.617774605751037598e-01
1.181363910436630249e-01
8.668129146099090576e-02
8.267031051218509674e-03
6.094030290842056274e-02
-2.032902687788009644e-01
1.958318203687667847e-01
3.449394702911376953e-01
3.720712289214134216e-02
1.011884585022926331e-01
-7.612088322639465332e-02
-1.775932125747203827e-02
4.166733324527740479e-01
2.616110742092132568e-01
2.195281684398651123e-01
-3.365298733115196228e-02
-1.953574419021606445e-01
2.884100750088691711e-02
-2.727562487125396729e-01
7.947426289319992065e-02
1.466443389654159546e-01
-4.452801346778869629e-01
-2.789796590805053711e-01
4.432091712951660156e-01
-2.431858330965042114e-01
-3.079064786434173584e-01
-4.188118278980255127e-01
2.098922431468963623e-01
1.996499449014663696e-01
7.694023102521896362e-02
-3.635025620460510254e-01
-1.248998194932937622e-01
-2.369844168424606323e-01
-1.488691568374633789e-01
2.740780115127563477e-01
-7.338234037160873413e-02
1.498012095689773560e-01
6.302671041339635849e-03
-1.160878017544746399e-01
-5.059251785278320312e-01
-1.220892667770385742e-01
2.583894729614257812e-01
5.437214374542236328e-01
-2.882641255855560303e-01
-5.450361371040344238e-01
3.372626900672912598e-01
-2.055575251579284668e-01
-1.874664425849914551e-01
4.077065289020538330e-01
-9.870690852403640747e-02
-2.433477640151977539e-01
1.284803729504346848e-02
3.451011776924133301e-01
-9.072145819664001465e-02
-1.240737736225128174e-01
1.041269302368164062e-01
1.036518346518278122e-02
-2.898231744766235352e-01
-3.893730789422988892e-02
-4.265643954277038574e-01
5.245594978332519531e-01
5.364047884941101074e-01
-3.596124239265918732e-03
4.306859672069549561e-01
3.911578059196472168e-01
-1.907698363065719604e-01
7.679232209920883179e-02
1.671174019575119019e-01
-3.224470317363739014e-01
-3.296081423759460449e-01
5.678199976682662964e-02
1.364545524120330811e-01
-5.835193023085594177e-02
1.186764910817146301e-01
-2.166695147752761841e-01
2.609147131443023682e-01
-1.142244040966033936e-01
-1.955316215753555298e-01
1.563696376979351044e-02
-5.435561016201972961e-02
1.562286019325256348e-01
-2.941026985645294189e-01
8.363346755504608154e-02
1.878120452165603638e-01
1.570048779249191284e-01
-2.812678515911102295e-01
-1.032915413379669189e-01
2.706828415393829346e-01
-9.716732054948806763e-02
2.656372189521789551e-01
1.432945020496845245e-02
-1.047573015093803406e-01
-1.868364810943603516e-01
1.151647120714187622e-01
9.728922694921493530e-02
-7.540021091699600220e-02
5.183692276477813721e-02
-1.713875494897365570e-02
1.243795379996299744e-01
5.886330008506774902e-01
3.958666920661926270e-01
-1.880545355379581451e-02
-4.199445545673370361e-01
-1.408510059118270874e-01
1.813702136278152466e-01
7.559204101562500000e-02
6.036718259565532207e-04
2.450194209814071655e-01
9.835066646337509155e-02
-7.587195932865142822e-02
1.702856123447418213e-01
-2.935200929641723633e-01
-2.576833032071590424e-02
1.522811353206634521e-01
-2.318729609251022339e-01
2.020981013774871826e-01
1.102071776986122131e-01
-7.485587894916534424e-02
2.757174670696258545e-01
-4.236854910850524902e-01
-8.845628798007965088e-02
7.035709172487258911e-02
3.587382137775421143e-01
-3.889718949794769287e-01
1.171019375324249268e-01
2.590691857039928436e-02
-1.495639681816101074e-01
-2.676254808902740479e-01
1.184451133012771606e-01
-6.962121278047561646e-02
-2.291685640811920166e-01
-1.412554681301116943e-01
4.160299152135848999e-02
1.084556058049201965e-01
1.899238824844360352e-01
-1.797245293855667114e-01
-4.957268759608268738e-02
-6.369929909706115723e-01
-3.702956438064575195e-01
-2.662528157234191895e-01
-7.272613644599914551e-01
-1.755695790052413940e-01
-1.209584027528762817e-01
-2.027578949928283691e-01
-4.175983965396881104e-01
-5.988717079162597656e-01
-5.702091455459594727e-01
9.335535578429698944e-03
-5.745601058006286621e-01
-4.617868959903717041e-01
-2.092010080814361572e-01
-4.626979529857635498e-01
-3.445398211479187012e-01
-6.549964845180511475e-02
-4.635848701000213623e-01
-2.696380019187927246e-01
1.892036013305187225e-02
-3.993403315544128418e-01
2.427828125655651093e-02
-1.521434038877487183e-01
2.061826139688491821e-01
-4.293514939490705729e-04
-4.364031255245208740e-01
-2.046152204275131226e-01
-4.604325890541076660e-01
-5.780053734779357910e-01
-3.806515634059906006e-01
-2.576635777950286865e-01
5.823571979999542236e-02
9.644477814435958862e-02
-6.440616250038146973e-01
-1.870797574520111084e-01
-2.546082735061645508e-01
-2.092136442661285400e-01
-3.918451368808746338e-01
-6.552935838699340820e-01
-1.879048049449920654e-01
-2.471629083156585693e-01
4.994810521602630615e-01
-2.025017440319061279e-01
-1.794436424970626831e-01
-5.711045265197753906e-01
-2.962561137974262238e-02
-4.837693274021148682e-02
-1.809802204370498657e-01
-2.115184664726257324e-01
-5.066841468214988708e-02
-9.006918221712112427e-02
-1.168547645211219788e-01
-5.473171472549438477e-01
-3.919777646660804749e-02
-4.929170310497283936e-01
-5.183271765708923340e-01
-2.272256761789321899e-01
-2.696170806884765625e-01
-2.461666166782379150e-01
-1.051273941993713379e-01
-5.051853656768798828e-01
1.283178031444549561e-01
-4.103646874427795410e-01
1.345524471253156662e-02
9.698825888335704803e-03
-1.313951015472412109e-01
2.739487588405609131e-02
-2.638150453567504883e-01
-3.403663337230682373e-01
-3.863027691841125488e-01
-1.341769248247146606e-01
-1.707549989223480225e-01
-3.355443477630615234e-01
-6.993219256401062012e-01
1.257217377424240112e-01
-5.470859408378601074e-01
-3.154370784759521484e-01
-4.969195127487182617e-01
-8.920207023620605469e-01
4.241389781236648560e-02
-6.262784600257873535e-01
-5.490790680050849915e-02
5.682060122489929199e-02
-6.146797537803649902e-01
2.927688509225845337e-02
-4.395466446876525879e-01
-1.369054466485977173e-01
-1.069867163896560669e-01
-4.085229039192199707e-01
-3.621180951595306396e-01
-4.530710279941558838e-01
-5.156867504119873047e-01
-6.365913748741149902e-01
-3.162287473678588867e-01
-6.668425798416137695e-01
-2.804825082421302795e-03
-1.858443766832351685e-01
7.656113803386688232e-02
-6.476298570632934570e-01
-3.529042005538940430e-01
-5.900932550430297852e-01
3.595365285873413086e-01
-3.842858672142028809e-01
-2.365749180316925049e-01
-6.396996378898620605e-01
-1.951557993888854980e-01
-3.827021420001983643e-01
-7.836522459983825684e-01
-5.276964902877807617e-01
-5.329927206039428711e-01
-8.273644745349884033e-02
-4.180706664919853210e-02
-5.934575796127319336e-01
2.885562181472778320e-02
-4.650762081146240234e-01
-7.110605239868164062e-01
-3.657143414020538330e-01
-1.657826900482177734e-01
-6.493619084358215332e-01
-5.435972213745117188e-01
-4.161753654479980469e-01
-1.550867557525634766e-01
-2.846301198005676270e-01
-6.061194464564323425e-02
1.826903671026229858e-01
4.425128549337387085e-02
-5.362880229949951172e-01
-4.059656858444213867e-01
-2.819027006626129150e-01
-4.568109512329101562e-01
-3.246620893478393555e-01
-1.445984542369842529e-01
-1.428991854190826416e-01
-2.692195475101470947e-01
-2.333534657955169678e-01
-5.619665235280990601e-02
-6.286175847053527832e-01
2.465254217386245728e-01
-7.372176647186279297e-01
-5.571209788322448730e-01
-4.005199670791625977e-01
-4.520918130874633789e-01
-1.834111660718917847e-01
-2.769645750522613525e-01
-6.611466407775878906e-01
-5.663608312606811523e-01
-2.459289878606796265e-01
-1.711309105157852173e-01
-6.339909434318542480e-01
1.984760165214538574e-02
-3.806942999362945557e-01
-6.516774892807006836e-01
-3.625895380973815918e-01
-6.144748330116271973e-01
-2.897382080554962158e-01
2.678398489952087402e-01
-6.412941813468933105e-01
-1.757128685712814331e-01
-3.651764988899230957e-01
-2.131738215684890747e-01
-2.813963890075683594e-01
-3.414771854877471924e-01
-3.837199509143829346e-01
3.519335687160491943e-01
8.084064349532127380e-03
-4.363276362419128418e-01
-2.760000228881835938e-01
-2.369204312562942505e-01
-5.468817949295043945e-01
-3.074368461966514587e-02
-3.854638636112213135e-01
-2.190427929162979126e-01
-1.302796155214309692e-01
-2.988770008087158203e-01
-5.642459392547607422e-01
-7.345175743103027344e-02
-2.163790762424468994e-01
-8.181100338697433472e-02
-6.481779813766479492e-01
-2.245373129844665527e-01
-6.007027029991149902e-01
1.026462540030479431e-01
7.664368301630020142e-02
-5.043784379959106445e-01
1.186774373054504395e-01
-1.813167780637741089e-01
-3.541222512722015381e-01
-5.760540962219238281e-01
3.348276317119598389e-01
-4.756944775581359863e-01
-7.590938806533813477e-01
-6.549404859542846680e-01
-2.467104494571685791e-01
-5.555894970893859863e-01
-4.334233403205871582e-01
-6.168302297592163086e-01
-2.895296514034271240e-01
-4.217264056205749512e-01
-5.580009222030639648e-01
-2.119496278464794159e-02
-1.372738182544708252e-01
-6.602992415428161621e-01
-5.133839249610900879e-01
-1.871976405382156372e-01
-3.712966144084930420e-01
-2.109083682298660278e-01
-8.016720414161682129e-02
-2.399107217788696289e-01
-4.067893028259277344e-01
-2.788078188896179199e-01
-3.912725746631622314e-01
3.137350082397460938e-01
-4.047103524208068848e-01
-5.711049437522888184e-01
-5.207583308219909668e-01
-5.058308243751525879e-01
-9.824116528034210205e-02
-6.025099754333496094e-01
-2.097358554601669312e-01
3.071939349174499512e-01
-6.436246447265148163e-03
-1.373971700668334961e-01
-4.495169818401336670e-01
-5.704026222229003906e-01
-9.839486330747604370e-02
-6.644789129495620728e-02
-9.924622625112533569e-02
-5.069912672042846680e-01
-1.390210390090942383e-01
-8.681397140026092529e-02
1.047790795564651489e-01
-2.458675652742385864e-01
-1.982104033231735229e-01
-5.835562944412231445e-01
-1.838659346103668213e-01
-5.555855631828308105e-01
-2.438933849334716797e-01
-4.635143578052520752e-01
-2.602971717715263367e-02
-2.474430501461029053e-01
-3.701231628656387329e-02
-6.135639548301696777e-01
7.441428303718566895e-02
-2.917493581771850586e-01
-2.892194092273712158e-01
-5.541792511940002441e-01
5.276720225811004639e-02
-2.483605146408081055e-01
-1.814667731523513794e-01
-6.263313293457031250e-01
-1.407652944326400757e-01
-2.518531978130340576e-01
-6.001410260796546936e-02
-1.285321265459060669e-01
-6.628136634826660156e-01
-4.534008502960205078e-01
