1.222798302769660950e-01
-2.517254948616027832e-01
-4.257499575614929199e-01
-4.110094625502824783e-03
-2.712971568107604980e-01
-1.190746761858463287e-02
-2.827762663364410400e-01
-2.192814350128173828e-01
1.152324862778186798e-02
-4.853898286819458008e-01
4.855412244796752930e-01
-2.578833401203155518e-01
-3.998020291328430176e-01
-9.535270929336547852e-02
-1.335269957780838013e-01
3.619838356971740723e-01
-2.057744413614273071e-01
-1.634443849325180054e-01
1.299626380205154419e-01
-2.794111669063568115e-01
-4.447290003299713135e-01
2.727651596069335938e-01
-5.082825422286987305e-01
1.893635541200637817e-01
-4.231889545917510986e-01
-4.508165419101715088e-01
-7.480944693088531494e-02
-1.313540488481521606e-01
-9.135708957910537720e-02
-2.531025707721710205e-01
2.005869708955287933e-02
-4.497500061988830566e-01
-3.196168243885040283e-01
-3.408843576908111572e-01
-1.131548434495925903e-01
-2.561225593090057373e-01
-2.793781757354736328e-01
-3.340250849723815918e-01
-4.664658606052398682e-01
-2.332523167133331299e-01
1.504117399454116821e-01
-2.750408947467803955e-01
-1.052336394786834717e-01
-9.696295112371444702e-02
-1.882012784481048584e-01
-4.414019584655761719e-01
-1.981702297925949097e-01
-3.611209690570831299e-01
-2.316246032714843750e-01
-3.116131424903869629e-01
-4.111200869083404541e-01
-4.493932723999023438e-01
-3.375107347965240479e-01
-7.097797095775604248e-02
-3.370421230792999268e-01
-2.984982728958129883e-01
-2.229015678167343140e-01
-2.651690840721130371e-01
-3.271850645542144775e-01
-2.961474359035491943e-01
3.867835551500320435e-02
-1.225924789905548096e-01
-2.439974695444107056e-01
-1.309618204832077026e-01
-2.942897081375122070e-01
-1.961356960237026215e-02
-3.104643225669860840e-01
-8.532948046922683716e-02
-1.820127367973327637e-01
-4.118252992630004883e-01
-8.153858035802841187e-02
1.320858448743820190e-01
1.204116046428680420e-01
-3.525809198617935181e-02
-3.657958209514617920e-01
-2.776213586330413818e-01
-3.085366487503051758e-01
-1.205484271049499512e-01
-3.214679658412933350e-01
-2.221681326627731323e-01
-2.050109058618545532e-01
-4.371046423912048340e-01
-2.039757966995239258e-01
-1.073557436466217041e-01
-1.161173507571220398e-01
3.281412124633789062e-01
-3.696798086166381836e-01
-5.461264848709106445e-01
-1.335479617118835449e-01
-4.023968577384948730e-01
-3.234743699431419373e-02
-1.762963235378265381e-01
-4.944916367530822754e-01
-4.663241505622863770e-01
-2.596450448036193848e-01
-1.842047572135925293e-01
1.142894849181175232e-01
-7.538806647062301636e-02
-3.213285207748413086e-01
-4.752240180969238281e-01
-3.311845660209655762e-01
-3.463434576988220215e-01
-1.798962056636810303e-01
-1.632622778415679932e-01
6.494909524917602539e-03
-3.213961124420166016e-01
-3.521978855133056641e-01
-3.307538628578186035e-01
-4.922645688056945801e-01
-3.471560776233673096e-01
1.386716216802597046e-01
-2.318577617406845093e-01
-6.911188364028930664e-02
-5.453385710716247559e-01
-1.389124095439910889e-01
-2.798961699008941650e-01
-2.252739369869232178e-01
-6.620410084724426270e-02
-4.662475585937500000e-01
-2.104050070047378540e-01
5.455851554870605469e-02
3.000633977353572845e-02
-5.047380328178405762e-01
-1.572559922933578491e-01
-3.254784345626831055e-01
-2.415700852870941162e-01
-1.887217313051223755e-01
-2.869344651699066162e-01
2.916763536632061005e-02
5.399579554796218872e-02
-5.353433489799499512e-01
-3.702258765697479248e-01
-1.037558019161224365e-01
-1.736723035573959351e-01
-2.701081335544586182e-01
-5.280928015708923340e-01
-6.070793271064758301e-01
-6.980688124895095825e-02
3.425552695989608765e-02
-6.014047563076019287e-02
-4.851925969123840332e-01
-2.972357533872127533e-02
-3.591196238994598389e-01
1.082711219787597656e-01
-4.278161227703094482e-01
-3.283117413520812988e-01
1.120728403329849243e-01
-4.425373971462249756e-01
-7.699150592088699341e-02
-5.090759992599487305e-01
-3.805557787418365479e-01
-5.893877148628234863e-01
-2.260034978389739990e-01
-1.289314124733209610e-02
-1.589473634958267212e-01
-8.339780569076538086e-02
2.789405286312103271e-01
-4.319194555282592773e-01
1.440786104649305344e-02
-3.483432233333587646e-01
-4.883037805557250977e-01
-3.386972546577453613e-01
-5.058302357792854309e-02
-9.502083808183670044e-02
-1.417001802474260330e-02
-2.823312878608703613e-01
-2.921996712684631348e-01
-1.095293313264846802e-01
-6.126920506358146667e-02
-2.010654360055923462e-01
-1.717480570077896118e-01
-1.022284403443336487e-01
-3.347559869289398193e-01
-5.578167438507080078e-01
-2.331913262605667114e-01
-2.464438378810882568e-01
-1.535861045122146606e-01
-5.174111127853393555e-01
-1.754322648048400879e-01
-8.731479197740554810e-02
1.306176334619522095e-01
-4.153906404972076416e-01
-3.679647743701934814e-01
4.112408682703971863e-02
-1.677862256765365601e-01
-1.939857453107833862e-01
-2.407465875148773193e-01
-1.636255830526351929e-01
-2.267892062664031982e-01
-3.113659322261810303e-01
-5.713220313191413879e-02
-1.489927619695663452e-01
2.344705909490585327e-01
-1.914024055004119873e-01
-3.725982010364532471e-01
-2.466797381639480591e-01
-5.304311513900756836e-01
-1.163024082779884338e-01
-2.030363827943801880e-01
-3.878557980060577393e-01
-4.241140782833099365e-01
-1.950921863317489624e-01
-3.214360475540161133e-01
-2.840135395526885986e-01
-1.990455985069274902e-01
-3.388668000698089600e-01
-4.095495343208312988e-01
1.007605642080307007e-01
-3.343504965305328369e-01
-3.738354742527008057e-01
-1.802091449499130249e-01
-6.470593810081481934e-02
-2.407808601856231689e-01
-5.857173204421997070e-01
-2.130888849496841431e-01
2.197511345148086548e-01
-6.826244294643402100e-02
1.514825075864791870e-01
-3.177896738052368164e-01
-1.399717330932617188e-01
-2.348018586635589600e-01
-3.215346336364746094e-01
-3.349260687828063965e-01
5.234898999333381653e-03
-4.994988441467285156e-01
1.479089707136154175e-01
-3.014252185821533203e-01
-3.520960807800292969e-01
-1.948727853596210480e-02
2.385052293539047241e-01
-6.260503530502319336e-01
-1.077256575226783752e-01
-2.516217529773712158e-01
-3.007422387599945068e-01
1.030289679765701294e-01
-2.368591874837875366e-01
-1.517854034900665283e-01
-2.677818834781646729e-01
-2.815923281013965607e-02
-2.695927619934082031e-01
-2.267478257417678833e-01
-3.774953782558441162e-01
-5.361847877502441406e-01
-5.725641250610351562e-01
-3.764924108982086182e-01
-5.454611182212829590e-01
-1.725485920906066895e-02
-2.788553833961486816e-01
-3.088803291320800781e-01
-2.311002165079116821e-01
-9.711617231369018555e-02
3.385144770145416260e-01
1.082108244299888611e-01
-5.960197448730468750e-01
-3.895706534385681152e-01
-1.445967704057693481e-01
3.137675762176513672e+00
2.982795238494873047e+00
2.361111164093017578e+00
2.853028059005737305e+00
2.898895263671875000e+00
3.124834299087524414e+00
2.161000967025756836e+00
3.199381589889526367e+00
2.634970664978027344e+00
2.644233465194702148e+00
3.399539232254028320e+00
3.012266635894775391e+00
2.963050127029418945e+00
2.924647331237792969e+00
2.520721912384033203e+00
3.147917509078979492e+00
3.066137552261352539e+00
2.984332323074340820e+00
3.071575403213500977e+00
2.663902044296264648e+00
3.128808498382568359e+00
3.118321657180786133e+00
2.776360988616943359e+00
3.147746562957763672e+00
2.906766414642333984e+00
2.547633647918701172e+00
3.047481536865234375e+00
2.737594842910766602e+00
2.970953941345214844e+00
2.264449357986450195e+00
2.893674135208129883e+00
3.007736682891845703e+00
2.845782756805419922e+00
2.998528957366943359e+00
3.157106399536132812e+00
3.049776315689086914e+00
3.054677248001098633e+00
2.774946212768554688e+00
2.873338937759399414e+00
2.777911901473999023e+00
3.035678863525390625e+00
2.936575889587402344e+00
2.998130798339843750e+00
3.218197584152221680e+00
2.693264484405517578e+00
2.720087766647338867e+00
2.937874317169189453e+00
2.694353342056274414e+00
3.049228429794311523e+00
2.853195190429687500e+00
2.772383689880371094e+00
2.939304351806640625e+00
2.789773225784301758e+00
2.756794214248657227e+00
2.723284006118774414e+00
2.930420398712158203e+00
2.693933010101318359e+00
2.892621517181396484e+00
3.076398611068725586e+00
2.616180419921875000e+00
3.108814001083374023e+00
2.853749990463256836e+00
2.693117856979370117e+00
2.840893507003784180e+00
3.082728862762451172e+00
2.622386693954467773e+00
2.935386896133422852e+00
2.985936641693115234e+00
2.431017637252807617e+00
2.626272201538085938e+00
2.968440055847167969e+00
2.893311738967895508e+00
3.175079584121704102e+00
2.996508836746215820e+00
2.624453783035278320e+00
2.510602235794067383e+00
3.111974477767944336e+00
2.833396911621093750e+00
2.647929430007934570e+00
2.961381912231445312e+00
3.187584161758422852e+00
2.684440135955810547e+00
2.958869218826293945e+00
2.996494770050048828e+00
2.962549686431884766e+00
3.290866136550903320e+00
2.687225818634033203e+00
3.220249652862548828e+00
2.625396966934204102e+00
3.030195474624633789e+00
2.880647420883178711e+00
2.901887416839599609e+00
3.130400896072387695e+00
2.929147481918334961e+00
2.567913293838500977e+00
3.035341024398803711e+00
3.046548604965209961e+00
2.961005687713623047e+00
3.030160188674926758e+00
2.543603897094726562e+00
2.600116252899169922e+00
2.743079900741577148e+00
2.728181123733520508e+00
3.013532400131225586e+00
3.152374982833862305e+00
2.693800449371337891e+00
2.530835390090942383e+00
2.889327287673950195e+00
2.710638999938964844e+00
3.050207853317260742e+00
3.107376813888549805e+00
2.943931818008422852e+00
3.033518552780151367e+00
2.592357873916625977e+00
2.892931938171386719e+00
2.955032587051391602e+00
2.989825010299682617e+00
3.151854753494262695e+00
2.577079296112060547e+00
2.531025409698486328e+00
2.805202245712280273e+00
2.782567977905273438e+00
2.656362771987915039e+00
2.924091577529907227e+00
2.876274347305297852e+00
3.031752586364746094e+00
3.188955068588256836e+00
3.012764692306518555e+00
3.127413511276245117e+00
3.350062847137451172e+00
2.342685461044311523e+00
2.337490797042846680e+00
3.074106931686401367e+00
3.097229957580566406e+00
2.951040029525756836e+00
3.090224742889404297e+00
2.605623960494995117e+00
2.958420753479003906e+00
2.906117200851440430e+00
3.019803762435913086e+00
2.785114526748657227e+00
3.281384706497192383e+00
2.746320724487304688e+00
3.271614074707031250e+00
2.712037801742553711e+00
2.817600727081298828e+00
3.015896797180175781e+00
2.557636022567749023e+00
2.972846746444702148e+00
2.155434608459472656e+00
2.340014219284057617e+00
3.236235141754150391e+00
2.778545618057250977e+00
3.185045957565307617e+00
2.852127313613891602e+00
2.900851964950561523e+00
2.957286834716796875e+00
2.880581378936767578e+00
3.202263832092285156e+00
2.696743965148925781e+00
2.657170057296752930e+00
2.495569705963134766e+00
2.865721464157104492e+00
3.302957296371459961e+00
2.887147188186645508e+00
2.969761133193969727e+00
2.986698865890502930e+00
3.012639999389648438e+00
3.103855848312377930e+00
3.138000011444091797e+00
2.827374696731567383e+00
2.993685007095336914e+00
2.768646955490112305e+00
2.824335813522338867e+00
2.555316686630249023e+00
2.791111469268798828e+00
2.899739027023315430e+00
3.043592214584350586e+00
2.686009168624877930e+00
2.902862787246704102e+00
3.267162561416625977e+00
2.788840532302856445e+00
2.932763338088989258e+00
2.912818431854248047e+00
2.911638259887695312e+00
2.982363700866699219e+00
2.912046670913696289e+00
3.003737926483154297e+00
3.046720027923583984e+00
3.128330945968627930e+00
3.221815586090087891e+00
2.883020639419555664e+00
2.992643594741821289e+00
2.963743209838867188e+00
2.889937162399291992e+00
3.005418300628662109e+00
2.919698953628540039e+00
2.987194538116455078e+00
2.979124069213867188e+00
2.940105438232421875e+00
2.541622877120971680e+00
3.052710533142089844e+00
3.104686498641967773e+00
3.030092000961303711e+00
3.079712390899658203e+00
2.503688097000122070e+00
3.200959444046020508e+00
2.991792440414428711e+00
2.995453596115112305e+00
2.892435073852539062e+00
2.728538036346435547e+00
3.178111791610717773e+00
2.912299871444702148e+00
2.699307680130004883e+00
2.670516252517700195e+00
3.099137783050537109e+00
2.897650718688964844e+00
3.285312652587890625e+00
2.716415643692016602e+00
3.056900262832641602e+00
2.837230443954467773e+00
2.793949604034423828e+00
3.055609703063964844e+00
2.381749153137207031e+00
2.515784502029418945e+00
3.093271970748901367e+00
2.979946613311767578e+00
2.559155941009521484e+00
2.564656734466552734e+00
3.092073440551757812e+00
3.178694963455200195e+00
3.182357072830200195e+00
2.978413105010986328e+00
2.960713148117065430e+00
3.217257976531982422e+00
3.007377147674560547e+00
3.061709642410278320e+00
2.695884227752685547e+00
3.101526498794555664e+00
2.639141082763671875e+00
2.795978069305419922e+00
2.592671871185302734e+00
3.102866888046264648e+00
2.794631719589233398e+00
2.820820808410644531e+00
2.838646888732910156e+00
2.740983724594116211e+00
2.846771955490112305e+00
2.871267557144165039e+00
2.997769117355346680e+00
2.669661521911621094e+00
3.322654247283935547e+00
3.077313899993896484e+00
2.865549325942993164e+00
2.107856273651123047e+00
2.970333814620971680e+00
2.780014872550964355e-01
-2.427955865859985352e-01
-6.769665479660034180e-01
-1.555984765291213989e-01
3.663749694824218750e-01
-1.510768830776214600e-01
5.214546918869018555e-01
-1.665078252553939819e-01
2.825981676578521729e-01
-1.037259697914123535e-01
-2.329422831535339355e-01
1.586575992405414581e-02
-1.144954711198806763e-01
2.748485207557678223e-01
3.496492654085159302e-02
-5.215079188346862793e-01
-4.957251995801925659e-02
-1.834607124328613281e-02
3.968549370765686035e-01
-9.822595864534378052e-02
1.933359727263450623e-02
-4.126455485820770264e-01
1.103829070925712585e-01
3.452679514884948730e-01
1.109574735164642334e-01
2.401077188551425934e-02
6.156161800026893616e-02
-6.110825389623641968e-02
6.868801265954971313e-02
5.520276427268981934e-01
1.484107822179794312e-01
2.361733466386795044e-01
4.005188941955566406e-01
1.746543645858764648e-01
3.913795650005340576e-01
-7.537639141082763672e-02
1.784350872039794922e-01
-2.861516922712326050e-02
2.114245668053627014e-02
-1.329556852579116821e-01
-1.293411701917648315e-01
1.961829984793439507e-04
8.501868695020675659e-02
4.598363637924194336e-01
-3.818114995956420898e-01
6.655935198068618774e-02
-1.413203626871109009e-01
2.438819557428359985e-01
1.542908102273941040e-01
5.264851078391075134e-02
3.752116262912750244e-01
-9.173211641609668732e-03
-4.715968072414398193e-01
-2.230910509824752808e-01
-4.605209082365036011e-02
1.068768203258514404e-01
6.314564496278762817e-02
-1.573759466409683228e-01
-3.488749265670776367e-01
-9.475171566009521484e-02
-5.477876216173171997e-02
-7.299011945724487305e-02
2.914068400859832764e-01
6.915357708930969238e-02
9.282091632485389709e-03
1.353322863578796387e-01
-1.291375420987606049e-02
-2.186445593833923340e-01
-2.872964441776275635e-01
1.159242615103721619e-01
2.094654291868209839e-01
4.260942339897155762e-01
3.944228589534759521e-02
-5.171626806259155273e-02
1.522500813007354736e-01
-3.596191480755805969e-02
1.422494649887084961e-01
-7.953500375151634216e-03
-2.432117909193038940e-01
-1.670636683702468872e-01
8.812456578016281128e-02
-7.104565203189849854e-02
3.543644845485687256e-01
1.782045215368270874e-01
1.143000274896621704e-01
-5.176853537559509277e-01
-7.580754347145557404e-03
-1.952303200960159302e-02
6.522083282470703125e-02
8.717275341041386127e-04
-2.129886150360107422e-01
-3.890406191349029541e-01
1.628570258617401123e-01
9.985946118831634521e-02
-3.141779899597167969e-01
2.217478305101394653e-02
6.926050782203674316e-01
1.573090702295303345e-01
7.352915406227111816e-02
-4.488024860620498657e-02
-2.389488965272903442e-01
5.673823505640029907e-02
-1.180227026343345642e-01
-1.553480792790651321e-02
-3.527861833572387695e-01
-2.271714508533477783e-01
-1.040858998894691467e-01
2.877771854400634766e-01
3.702550530433654785e-01
6.644923985004425049e-02
-4.372028112411499023e-01
-5.691345781087875366e-02
-3.667863309383392334e-01
6.610358506441116333e-02
-2.961777448654174805e-01
1.667540520429611206e-01
8.744675666093826294e-02
4.736847579479217529e-01
2.096565663814544678e-01
1.034165397286415100e-01
-2.185189723968505859e-01
-2.734762132167816162e-01
2.091218531131744385e-01
1.324273273348808289e-02
-2.130174450576305389e-02
-8.317358791828155518e-02
1.224807202816009521e-01
2.778405547142028809e-01
-1.780961453914642334e-01
-5.960704088211059570e-01
1.558806896209716797e-01
-1.359989345073699951e-01
-1.834546029567718506e-02
-4.016727209091186523e-01
1.401402871124446392e-03
-1.684091426432132721e-02
-9.276180714368820190e-02
6.613699346780776978e-02
-2.480152994394302368e-01
-6.017503514885902405e-02
-1.275589615106582642e-01
3.722556829452514648e-01
-4.686279594898223877e-01
4.571250975131988525e-01
1.458178162574768066e-01
-3.538295924663543701e-01
6.513133645057678223e-01
1.924336254596710205e-01
3.594567179679870605e-01
-5.367044210433959961e-01
-4.529080353677272797e-03
1.261563003063201904e-01
-4.403494298458099365e-02
7.431894540786743164e-02
-1.098641678690910339e-01
-4.441331326961517334e-01
-2.350609451532363892e-01
-2.859056293964385986e-01
5.485526323318481445e-01
1.304197609424591064e-01
-1.360272467136383057e-01
-2.045305669307708740e-01
3.273272514343261719e-02
2.486462146043777466e-01
4.913169424980878830e-03
5.094881728291511536e-02
-2.761823534965515137e-01
-9.875247627496719360e-02
-1.388196647167205811e-01
9.224908798933029175e-02
2.444963157176971436e-01
-1.433027982711791992e-01
1.497227046638727188e-02
-2.203322015702724457e-02
2.517248503863811493e-02
3.541651368141174316e-01
8.699384331703186035e-02
1.883006691932678223e-01
2.164824455976486206e-01
-8.571824431419372559e-02
5.152960419654846191e-01
-2.439918220043182373e-01
-1.931115090847015381e-01
1.384447515010833740e-01
-2.551720738410949707e-01
1.526288986206054688e-01
-2.062606364488601685e-01
3.139052689075469971e-01
1.279718875885009766e-01
-6.991932541131973267e-02
-3.911700248718261719e-01
-9.443373978137969971e-02
-6.904856860637664795e-02
-2.665743827819824219e-01
-1.938890665769577026e-01
1.285229921340942383e-01
-7.104386389255523682e-02
6.253393739461898804e-02
-8.760209381580352783e-02
-2.557329535484313965e-01
-2.107898592948913574e-01
-3.174505233764648438e-01
-7.354161236435174942e-03
-2.741235196590423584e-01
-1.179478019475936890e-01
-2.086213380098342896e-01
2.885387837886810303e-01
3.090448081493377686e-01
-3.150201439857482910e-01
1.164178177714347839e-01
1.359818875789642334e-01
-2.818389236927032471e-01
-7.156477868556976318e-02
5.634054169058799744e-02
-9.972056001424789429e-02
6.087852716445922852e-01
-5.387330800294876099e-02
-3.509868979454040527e-01
-5.007859691977500916e-02
1.361311376094818115e-01
1.522590219974517822e-01
8.962998539209365845e-02
1.010878533124923706e-01
3.677425086498260498e-01
7.036028802394866943e-02
4.037142693996429443e-01
-2.882644236087799072e-01
3.003856865689158440e-03
3.979925811290740967e-01
1.554382741451263428e-01
2.522973120212554932e-01
-2.200324237346649170e-01
2.326689511537551880e-01
-1.551687717437744141e-01
-1.968947947025299072e-01
-3.279578983783721924e-01
1.317008137702941895e-01
2.886503003537654877e-02
1.255504488945007324e-01
2.607876062393188477e-01
-2.439562529325485229e-01
-1.196158155798912048e-01
-1.614281982183456421e-01
-4.858316853642463684e-03
1.117263808846473694e-01
-7.376037538051605225e-02
2.541932463645935059e-01
3.443134427070617676e-01
1.141016706824302673e-01
-7.571575045585632324e-02
-3.254763185977935791e-01
-6.024159789085388184e-01
1.855491250753402710e-01
-1.169595271348953247e-01
-5.270255208015441895e-01
1.746782362461090088e-01
-6.439625024795532227e-01
-6.742687821388244629e-01
-4.794121533632278442e-02
-7.459586858749389648e-01
-2.905361354351043701e-01
-3.442352414131164551e-01
-1.448235362768173218e-01
2.093069553375244141e-01
7.690977305173873901e-02
-1.700791120529174805e-01
-3.668319582939147949e-01
-2.157902717590332031e-01
-3.437093794345855713e-01
-6.122645735740661621e-01
-7.082084417343139648e-01
2.344881445169448853e-01
-2.033208459615707397e-01
1.600122004747390747e-01
1.870451420545578003e-01
-6.579571962356567383e-01
5.170243605971336365e-02
1.101166382431983948e-01
-4.401380419731140137e-01
-4.155420362949371338e-01
-3.545877933502197266e-01
-9.248305857181549072e-02
-4.172434210777282715e-01
-7.449982762336730957e-01
-4.458542168140411377e-01
-2.303298115730285645e-01
-1.222839280962944031e-01
-3.212456405162811279e-01
-6.800296306610107422e-01
-1.985204815864562988e-01
2.543832063674926758e-01
1.021804213523864746e-01
-5.298125743865966797e-01
-8.516372181475162506e-03
1.372975558042526245e-01
-3.266324400901794434e-01
-2.418141961097717285e-01
1.137872487306594849e-01
1.376372724771499634e-01
6.289001554250717163e-02
7.675330340862274170e-02
-1.256039142608642578e-01
-5.540362596511840820e-01
-1.938406527042388916e-01
-4.639119207859039307e-01
-6.893396377563476562e-01
-6.005898118019104004e-01
-5.652399659156799316e-01
-4.382051154971122742e-02
-6.749559640884399414e-01
-5.832623839378356934e-01
-2.038642168045043945e-01
-4.351142048835754395e-01
-7.863325625658035278e-02
-2.302954494953155518e-01
-3.882629573345184326e-01
-5.124099254608154297e-01
-3.617862462997436523e-01
-2.110285609960556030e-01
-3.057059347629547119e-01
-1.173995658755302429e-01
-3.046778738498687744e-01
-3.680506348609924316e-01
-2.023906707763671875e-01
-6.405813694000244141e-01
-2.431367188692092896e-01
-4.285196661949157715e-01
-3.654697537422180176e-01
4.265642911195755005e-02
-2.237180471420288086e-01
-2.382826656103134155e-01
6.911088526248931885e-02
-4.456141293048858643e-01
-3.145632147789001465e-01
-3.777596056461334229e-01
2.128919810056686401e-01
-4.764891862869262695e-01
-4.013071656227111816e-01
-3.126513957977294922e-01
-1.855274438858032227e-01
-3.280587196350097656e-01
-3.475531190633773804e-02
-6.727319359779357910e-01
-2.572035491466522217e-01
-1.557107269763946533e-01
-9.786786884069442749e-02
-7.208648324012756348e-01
-5.378146171569824219e-01
-4.469037950038909912e-01
-4.233060479164123535e-01
-2.258369475603103638e-01
-2.900812029838562012e-01
-2.361804246902465820e-01
-3.064141273498535156e-01
-4.496456384658813477e-01
-1.546886414289474487e-01
-2.352206707000732422e-01
-5.801983475685119629e-01
-2.082287073135375977e-01
-7.730004191398620605e-02
1.195987612009048462e-01
-5.582759976387023926e-01
-1.638053506612777710e-01
-4.514307677745819092e-01
-3.081615269184112549e-01
-1.890143603086471558e-01
-2.310809493064880371e-01
-1.432185173034667969e-01
-2.645427584648132324e-01
-4.400335550308227539e-01
-6.007870435714721680e-01
5.223315954208374023e-02
-6.260908246040344238e-01
-1.777216941118240356e-01
-6.383769959211349487e-02
-1.440920680761337280e-01
-3.802479505538940430e-01
6.772928684949874878e-02
-3.846833705902099609e-01
-7.572124153375625610e-02
-2.024266868829727173e-01
-1.848569214344024658e-01
-2.675121128559112549e-01
-6.778022646903991699e-01
-1.698402501642704010e-02
-1.182904988527297974e-01
-2.647847533226013184e-01
-3.911871612071990967e-01
-3.917466998100280762e-01
-1.183905899524688721e-01
-4.808090925216674805e-01
-1.681096851825714111e-01
-4.492134153842926025e-01
-1.888759136199951172e-01
-6.500872969627380371e-01
-2.099056243896484375e-01
-1.584700495004653931e-01
-1.863852739334106445e-01
-4.633351862430572510e-01
-4.587893187999725342e-01
-4.781311452388763428e-01
-4.923065602779388428e-01
-2.353404015302658081e-01
-2.663879096508026123e-01
-3.798149228096008301e-01
-1.081267669796943665e-01
-8.671458810567855835e-02
-5.050383880734443665e-02
-8.358760178089141846e-02
-4.365070462226867676e-01
-7.069818377494812012e-01
-4.176980853080749512e-01
-2.163411378860473633e-01
-4.348839819431304932e-01
-2.354314774274826050e-01
-2.897732555866241455e-01
-3.431726098060607910e-01
-4.321451783180236816e-01
-1.111733466386795044e-01
-2.310875058174133301e-01
1.842688471078872681e-01
-9.300868958234786987e-02
-4.077352583408355713e-02
-4.144342541694641113e-01
-5.428730249404907227e-01
-1.217824369668960571e-01
-4.890798032283782959e-01
-3.542044460773468018e-01
-1.250594109296798706e-01
-4.504450261592864990e-01
-1.484438031911849976e-01
-6.191123127937316895e-01
-7.942103147506713867e-01
-2.547197639942169189e-01
-3.110213279724121094e-01
-2.601817846298217773e-01
-3.535264432430267334e-01
-4.121209979057312012e-01
-2.326544970273971558e-01
-2.857511937618255615e-01
-7.571964263916015625e-01
-2.764430940151214600e-01
-7.750982046127319336e-01
-5.258744359016418457e-01
2.279523015022277832e-01
-2.747127711772918701e-01
3.261465430259704590e-01
1.064791753888130188e-01
-6.022952795028686523e-01
-1.522278487682342529e-01
-1.098863333463668823e-01
-3.035119473934173584e-01
-4.784792959690093994e-01
-6.267135739326477051e-01
-5.148705244064331055e-01
-2.202211320400238037e-01
-4.935936629772186279e-01
-3.545088171958923340e-01
-1.116027534008026123e-01
-1.968640983104705811e-01
-3.928782939910888672e-01
-6.456083655357360840e-01
-6.974428296089172363e-01
-1.951323151588439941e-01
2.760589821264147758e-03
-5.559731125831604004e-01
-5.381991267204284668e-01
-2.657705843448638916e-01
-2.537010908126831055e-01
1.741336435079574585e-01
-6.422428488731384277e-01
6.216834187507629395e-01
-2.746714651584625244e-01
-2.415463477373123169e-01
-4.438911750912666321e-02
-8.737820982933044434e-01
3.940882161259651184e-02
-4.073778986930847168e-01
-1.487234234809875488e-02
3.092157244682312012e-01
-4.405433237552642822e-01
-5.698264837265014648e-01
-6.863436698913574219e-01
2.107563614845275879e-02
-3.158192932605743408e-01
-3.227401375770568848e-01
2.722398638725280762e-01
-1.514257043600082397e-01
-2.804201841354370117e-01
-4.490324556827545166e-01
-8.012871742248535156e-01
5.917445197701454163e-02
-1.762999147176742554e-01
-4.897764921188354492e-01
-2.701537311077117920e-01
-3.989309370517730713e-01
-6.222098469734191895e-01
-1.628033220767974854e-01
-6.193310394883155823e-02
-2.145000398159027100e-01
-4.482377171516418457e-01
-3.131715059280395508e-01
-6.811867952346801758e-01
-2.744082808494567871e-01
-5.356926918029785156e-01
-5.212825536727905273e-01
-5.300045013427734375e-01
-1.131695732474327087e-01
-9.367870539426803589e-02
-2.944701015949249268e-01
-3.919647336006164551e-01
-4.569817185401916504e-01
