-2.592884600162506104e-01
-2.933946996927261353e-02
-1.969143301248550415e-01
-9.792967140674591064e-02
-3.853828832507133484e-02
-2.607192099094390869e-01
-4.162610173225402832e-01
-3.363224267959594727e-01
-2.614362239837646484e-01
-3.458112478256225586e-01
-3.649156987667083740e-01
2.106743492186069489e-02
-2.213415503501892090e-01
-2.158794701099395752e-01
-1.459203511476516724e-01
-1.246937438845634460e-01
-2.023675888776779175e-01
-3.065469264984130859e-01
-3.922353684902191162e-01
-1.960450112819671631e-01
2.156889736652374268e-01
-2.433372288942337036e-01
9.337491542100906372e-02
-2.216937988996505737e-01
1.827371865510940552e-01
4.205093905329704285e-02
-1.239813417196273804e-01
-1.789173185825347900e-01
-4.819943010807037354e-01
-2.021874934434890747e-01
-4.000448584556579590e-01
-4.052720665931701660e-01
-2.366759479045867920e-01
-3.295793235301971436e-01
-8.386906981468200684e-02
-1.567825973033905029e-01
6.558953225612640381e-02
1.033199056982994080e-01
-2.854579985141754150e-01
-2.443852424621582031e-01
-1.409770399332046509e-01
-2.991372942924499512e-01
-3.702851533889770508e-01
-2.666429802775382996e-02
-2.176634967327117920e-01
1.082675647921860218e-03
-1.139318719506263733e-01
-4.260380864143371582e-01
-1.918843835592269897e-01
-1.745277941226959229e-01
-2.543869912624359131e-01
-4.816313832998275757e-02
2.215265333652496338e-01
-1.366867870092391968e-01
-3.925996422767639160e-01
-2.408131062984466553e-01
-3.680599629878997803e-01
1.262825634330511093e-02
-3.999713063240051270e-01
-2.957299053668975830e-01
2.966055572032928467e-01
3.988308906555175781e-01
-4.411143958568572998e-01
-2.635413408279418945e-01
1.905724108219146729e-01
-4.866648018360137939e-01
2.617859244346618652e-01
4.385249018669128418e-01
-2.370808124542236328e-01
-1.799574047327041626e-01
-1.673412173986434937e-01
-9.206105023622512817e-02
-3.821317553520202637e-01
-2.095089107751846313e-01
-3.903679847717285156e-01
-3.310421407222747803e-01
-2.445807913318276405e-03
9.670447558164596558e-02
3.431942686438560486e-02
8.352349698543548584e-02
-2.816751897335052490e-01
-3.516947627067565918e-01
9.822631627321243286e-02
-2.024081498384475708e-01
-3.096096515655517578e-01
-1.304632127285003662e-01
-6.278015375137329102e-01
-2.162393629550933838e-01
-1.508311480283737183e-01
-3.108728826045989990e-01
-1.312652379274368286e-01
-1.231426075100898743e-01
-3.365616202354431152e-01
-1.007361686788499355e-03
-4.353873133659362793e-01
-2.046316564083099365e-01
3.569820821285247803e-01
-3.852770030498504639e-01
-1.954146474599838257e-01
-3.743538558483123779e-01
-1.852010041475296021e-01
-2.432008087635040283e-01
-3.601304292678833008e-01
-1.894247084856033325e-01
-8.511176705360412598e-02
-3.770862221717834473e-01
-3.070559501647949219e-01
-1.025745645165443420e-01
-4.634587466716766357e-01
-3.010460138320922852e-01
-1.550979260355234146e-02
-1.087997015565633774e-02
-2.741507589817047119e-01
-2.530699074268341064e-01
-2.211214005947113037e-01
-2.090128958225250244e-01
5.280415713787078857e-02
-1.211526710540056229e-02
-3.924543261528015137e-01
-9.352508187294006348e-02
-3.136421740055084229e-01
-3.075204491615295410e-01
-2.035250812768936157e-01
-1.772482693195343018e-02
-2.533334493637084961e-01
-6.790613383054733276e-02
-2.638564817607402802e-02
2.909939289093017578e-01
1.415090858936309814e-01
-3.620419502258300781e-01
2.592442929744720459e-01
-2.903628647327423096e-01
1.503432840108871460e-01
1.950299143791198730e-01
-3.491039574146270752e-01
3.233177214860916138e-02
-4.671083092689514160e-01
-2.623605728149414062e-01
-2.428505867719650269e-01
-1.844135224819183350e-01
-3.307642638683319092e-01
-3.822391033172607422e-01
-3.715244829654693604e-01
-2.428601235151290894e-01
-3.108215332031250000e-01
-1.119796261191368103e-01
-3.928861320018768311e-01
1.895025670528411865e-01
-3.695375919342041016e-01
-3.633238971233367920e-01
-1.905841976404190063e-01
-3.073765039443969727e-01
-2.597748637199401855e-01
-1.100460290908813477e-01
-4.858565926551818848e-01
-1.653751581907272339e-01
-6.586896628141403198e-02
-2.049955278635025024e-01
-1.408763527870178223e-01
-1.926748603582382202e-01
-1.082878038287162781e-01
-1.751563847064971924e-01
-1.795698702335357666e-01
-1.567277461290359497e-01
-1.287139356136322021e-01
-3.112882375717163086e-01
-4.248868823051452637e-01
-3.908576071262359619e-01
-3.376685976982116699e-01
-1.280530393123626709e-01
-3.027008175849914551e-01
-1.580704450607299805e-01
-4.681416153907775879e-01
-2.337117344141006470e-01
-8.127144724130630493e-02
-1.780810952186584473e-01
6.911748647689819336e-02
4.784524440765380859e-01
-3.628292977809906006e-01
-2.314454764127731323e-01
-4.563567936420440674e-01
9.623698145151138306e-02
-1.358800083398818970e-01
9.973824024200439453e-02
-3.134678304195404053e-01
7.975818961858749390e-02
-3.966417908668518066e-01
-1.060284376144409180e-01
-5.290713310241699219e-01
-2.820817232131958008e-01
-5.169902741909027100e-02
-2.431120425462722778e-01
-2.702869474887847900e-01
-3.434634208679199219e-01
-3.907907903194427490e-01
-4.324902221560478210e-02
-4.003564417362213135e-01
1.582717001438140869e-01
-1.275176107883453369e-01
-3.752869069576263428e-01
-2.649976611137390137e-01
-5.130603909492492676e-01
-3.527617752552032471e-01
-1.915315687656402588e-01
2.322373539209365845e-02
-4.493561089038848877e-01
-2.898133397102355957e-01
-5.063538551330566406e-01
-2.550937533378601074e-01
-5.275375843048095703e-01
-2.287018448114395142e-01
4.232031106948852539e-01
5.573697388172149658e-02
-1.856072396039962769e-01
-4.494172334671020508e-01
-4.085834026336669922e-01
-3.599765896797180176e-01
-4.185234308242797852e-01
2.344311475753784180e-01
-3.183493614196777344e-01
-1.490710377693176270e-01
-1.121200546622276306e-01
-7.758083939552307129e-02
-1.522853039205074310e-02
-6.433987021446228027e-01
-3.407830139622092247e-03
-1.880417317152023315e-01
-3.236847221851348877e-01
-3.850785493850708008e-01
-2.558421492576599121e-01
-8.791521191596984863e-02
2.310843765735626221e-01
-7.705696672201156616e-02
-3.122899830341339111e-01
-2.963953018188476562e-01
-3.140471577644348145e-01
-1.134812459349632263e-01
-2.863543629646301270e-01
-1.114317923784255981e-01
-1.316978931427001953e-01
-3.022001981735229492e-01
-5.358895659446716309e-02
-3.936316072940826416e-02
-2.406454384326934814e-01
-4.787535965442657471e-01
-9.969209134578704834e-02
-1.050152555108070374e-01
-2.039281725883483887e-01
5.336205288767814636e-02
-3.327494263648986816e-01
-9.927411377429962158e-02
-2.652509808540344238e-01
-2.645539641380310059e-01
-1.564117670059204102e-01
-3.956577479839324951e-01
-5.982317402958869934e-02
-2.240435481071472168e-01
2.488360255956649780e-01
-3.272814750671386719e-01
2.466303110122680664e-02
-2.549050450325012207e-01
1.138990372419357300e-01
-1.941754370927810669e-01
-1.110792681574821472e-01
-7.113969326019287109e-01
-3.375570774078369141e-01
-7.896523177623748779e-02
-1.029880121350288391e-01
-1.932916343212127686e-01
-2.889472432434558868e-02
1.440743058919906616e-01
3.871264755725860596e-01
6.415779888629913330e-02
-1.464714258909225464e-01
1.198782864958047867e-02
1.108764857053756714e-01
3.552727997303009033e-01
-8.525586724281311035e-01
1.655781567096710205e-01
-6.456937193870544434e-01
-9.267883002758026123e-02
8.504385501146316528e-02
-4.301305115222930908e-02
-2.261980473995208740e-01
-2.407941520214080811e-01
-1.939641535282135010e-01
2.113827913999557495e-01
-6.922578811645507812e-02
-3.465919569134712219e-02
-4.153160005807876587e-02
9.306540340185165405e-02
1.344775855541229248e-01
2.406264394521713257e-01
9.139288216829299927e-02
-1.568030118942260742e-01
-4.702110290527343750e-01
-2.742473222315311432e-02
-9.700886160135269165e-02
-7.554276585578918457e-01
1.634130030870437622e-01
-7.073405385017395020e-02
1.784587949514389038e-01
-2.137282676994800568e-02
-2.132665812969207764e-01
-6.947841644287109375e-01
-1.719769984483718872e-01
-1.795673519372940063e-01
-3.642259398475289345e-03
1.906226277351379395e-01
1.500989496707916260e-01
-1.170315295457839966e-01
-6.332569718360900879e-01
2.653648555278778076e-01
3.303565829992294312e-02
-1.593725234270095825e-01
-2.808530330657958984e-01
1.823279708623886108e-01
3.429578989744186401e-02
-2.188822627067565918e-01
-2.739657461643218994e-01
3.102266974747180939e-02
-5.185342431068420410e-01
1.853789538145065308e-01
2.069983780384063721e-01
-1.443863958120346069e-01
-4.572390392422676086e-02
-1.901504993438720703e-01
7.543154805898666382e-02
-2.709907591342926025e-01
5.347618460655212402e-02
-4.121058583259582520e-01
3.005983233451843262e-01
-1.637428849935531616e-01
-3.606112673878669739e-02
-6.148555502295494080e-02
1.481544673442840576e-01
-6.104649230837821960e-02
-2.920440435409545898e-01
-1.448969542980194092e-01
-1.680137217044830322e-01
-7.465451955795288086e-02
-4.770587384700775146e-01
2.659551203250885010e-01
-2.131127566099166870e-01
-3.351022601127624512e-01
-1.465535759925842285e-01
-1.156910732388496399e-01
-5.014712810516357422e-01
1.704808920621871948e-01
-2.357570827007293701e-02
-6.543499976396560669e-02
-1.624612510204315186e-01
1.937328726053237915e-01
-2.844595611095428467e-01
-3.083952963352203369e-01
-2.376202195882797241e-01
-1.721835136413574219e-01
-1.097622588276863098e-01
-5.094907432794570923e-02
-6.930050253868103027e-02
1.395320743322372437e-01
-6.248682141304016113e-01
-6.064183115959167480e-01
-1.954256147146224976e-01
1.316170394420623779e-01
-1.942365765571594238e-01
6.503158714622259140e-03
-1.247880905866622925e-01
-2.087322771549224854e-01
-1.092439413070678711e+00
-6.714515388011932373e-02
-3.180652260780334473e-01
1.715456694364547729e-01
9.979207813739776611e-02
-2.296108752489089966e-01
-8.575722575187683105e-02
-4.407125338912010193e-02
9.933745861053466797e-02
-3.418581783771514893e-01
8.381403982639312744e-02
1.024772152304649353e-01
2.337649464607238770e-01
-3.356061875820159912e-02
2.471225112676620483e-01
-2.389158308506011963e-01
-5.971547961235046387e-01
1.640202663838863373e-02
-5.486963391304016113e-01
4.961839616298675537e-01
1.729937791824340820e-01
-5.837407335638999939e-02
6.708126515150070190e-02
-2.528202831745147705e-01
-1.341560035943984985e-01
-2.805811166763305664e-01
-1.019216477870941162e-01
-5.462667346000671387e-01
9.037205576896667480e-02
-2.916003763675689697e-01
-5.487047508358955383e-02
-1.605199128389358521e-01
-1.373830586671829224e-01
-2.031554430723190308e-01
2.637589536607265472e-02
-1.173115149140357971e-01
-4.246162772178649902e-01
-5.850508809089660645e-01
-3.555426001548767090e-02
-4.360901415348052979e-01
-2.569649219512939453e-01
1.409780830144882202e-01
-1.921391934156417847e-01
1.075208708643913269e-01
-2.479965537786483765e-01
-2.865720093250274658e-01
3.929105028510093689e-02
2.126275748014450073e-01
-3.778473138809204102e-01
-1.767505407333374023e-01
-1.607103273272514343e-02
2.078490564599633217e-03
-8.654169738292694092e-02
-1.772979199886322021e-01
-3.077367246150970459e-01
-5.828413963317871094e-01
-5.611774697899818420e-02
-1.217793673276901245e-01
-1.599444001913070679e-01
-4.485947787761688232e-01
3.820688277482986450e-02
-2.597798705101013184e-01
-3.453299105167388916e-01
-1.546282172203063965e-01
3.477846384048461914e-01
-8.497416973114013672e-02
6.454590242356061935e-03
-5.168507695198059082e-01
2.884756326675415039e-01
6.870495527982711792e-02
-1.523807644844055176e-01
-3.696076273918151855e-01
3.053680062294006348e-01
-2.922392785549163818e-01
1.194089353084564209e-01
1.651914119720458984e-01
2.198490202426910400e-01
3.231413364410400391e-01
-7.127134501934051514e-02
-3.821002840995788574e-01
-8.733054995536804199e-02
-2.439159899950027466e-02
9.406933188438415527e-02
-2.896646261215209961e-01
2.653095126152038574e-01
9.612692147493362427e-02
-3.379325568675994873e-01
-4.845711588859558105e-01
1.155652105808258057e-02
-6.803552061319351196e-02
-2.799224853515625000e-01
1.983533799648284912e-01
-4.537011981010437012e-01
-2.859912216663360596e-01
-2.984652519226074219e-01
-4.817304313182830811e-01
-8.613374829292297363e-01
-1.353665143251419067e-01
4.614148437976837158e-01
-1.228999868035316467e-01
-1.258100718259811401e-01
-1.593230366706848145e-01
7.422575727105140686e-03
-3.278364241123199463e-01
-6.335883140563964844e-01
-5.444912239909172058e-02
-1.840852349996566772e-01
5.340601876378059387e-02
2.724452018737792969e-01
-6.545854359865188599e-02
-2.592885196208953857e-01
-3.021471574902534485e-02
-2.842392027378082275e-02
-2.373966574668884277e-01
3.634484857320785522e-02
-6.402685046195983887e-01
3.043401055037975311e-02
1.817703694105148315e-01
1.006424948573112488e-01
2.286396473646163940e-01
-4.614391922950744629e-02
-4.500633105635643005e-02
8.777119964361190796e-02
2.434434369206428528e-02
1.174692139029502869e-01
-3.122558295726776123e-01
-3.217993676662445068e-01
-2.981520891189575195e-01
-1.899647116661071777e-01
-1.666285991668701172e-01
3.087861277163028717e-02
-4.398439228534698486e-01
7.024642080068588257e-02
-4.023876786231994629e-01
-1.081092506647109985e-01
1.876385957002639771e-01
1.692266911268234253e-01
8.319287747144699097e-02
-3.090163469314575195e-01
-3.107242584228515625e-01
-1.866627484560012817e-02
-3.557515144348144531e-01
4.041482508182525635e-02
-6.718220561742782593e-02
3.630400002002716064e-01
1.917666494846343994e-01
-4.313039407134056091e-02
1.540908366441726685e-01
3.036568500101566315e-02
-2.889713346958160400e-01
-8.575664460659027100e-02
6.023885011672973633e-01
6.388983130455017090e-02
1.477762758731842041e-01
4.367512464523315430e-01
1.715755313634872437e-01
9.733552485704421997e-02
3.274669051170349121e-01
-6.295864284038543701e-02
1.607919931411743164e-01
2.032143473625183105e-01
-1.827960908412933350e-01
-1.444806903600692749e-01
-2.760863602161407471e-01
-5.545852184295654297e-01
2.793944478034973145e-01
1.020485758781433105e-01
-3.563782572746276855e-01
1.921208351850509644e-01
2.221986204385757446e-01
-1.411745250225067139e-01
2.009105682373046875e-01
1.606661677360534668e-01
3.382064774632453918e-02
1.333587467670440674e-01
6.526634097099304199e-03
-1.876537650823593140e-01
-8.384165912866592407e-02
-2.040795683860778809e-01
1.807839125394821167e-01
4.193660914897918701e-01
1.905582100152969360e-01
3.387558162212371826e-01
-1.882887631654739380e-01
2.894790172576904297e-01
4.194300994277000427e-02
5.601973533630371094e-01
-7.300946116447448730e-02
1.876001954078674316e-01
-4.022077322006225586e-01
4.533755034208297729e-02
4.922634363174438477e-01
3.234364390373229980e-01
1.347293257713317871e-01
3.760139346122741699e-01
-1.922239921987056732e-02
1.612769067287445068e-01
2.280674129724502563e-01
8.494250476360321045e-03
3.936648368835449219e-01
5.987290143966674805e-01
1.272402703762054443e-01
-1.043454781174659729e-01
-2.886589765548706055e-01
4.521031975746154785e-01
-8.753418922424316406e-03
7.069958746433258057e-02
9.815287590026855469e-02
-9.365925937891006470e-02
1.053526178002357483e-01
5.139902830123901367e-01
1.950037777423858643e-01
3.600095510482788086e-01
-2.551854029297828674e-02
-4.064430296421051025e-01
-1.774381697177886963e-01
-1.997599899768829346e-01
1.002078950405120850e-01
-2.785070240497589111e-01
-4.222837984561920166e-01
-6.263216584920883179e-02
-4.335932433605194092e-01
4.399824738502502441e-01
8.052650839090347290e-02
-9.438034892082214355e-02
-3.238941431045532227e-01
2.277046740055084229e-01
-1.372132003307342529e-01
-3.730953037738800049e-01
5.510539934039115906e-02
-5.354168266057968140e-02
-8.575637638568878174e-02
2.545941770076751709e-01
1.794727444648742676e-01
-1.346044614911079407e-02
4.684789478778839111e-01
-1.688572466373443604e-01
1.084086745977401733e-01
2.272397838532924652e-02
-2.218255698680877686e-01
3.007833659648895264e-01
-3.158695995807647705e-02
-1.269031465053558350e-01
-1.980647146701812744e-01
-1.010904759168624878e-01
1.287712603807449341e-01
-1.190497800707817078e-01
-4.327913820743560791e-01
1.269202679395675659e-01
-9.822257608175277710e-02
-7.624750584363937378e-02
1.142046600580215454e-01
1.130157262086868286e-01
3.846804797649383545e-01
1.175263896584510803e-02
1.794570535421371460e-01
4.635063111782073975e-01
-2.432291805744171143e-01
-2.464378438889980316e-02
-4.076334536075592041e-01
3.736760318279266357e-01
9.156227856874465942e-02
2.262704223394393921e-01
7.959847897291183472e-02
1.465277820825576782e-01
1.686853170394897461e-01
2.467763796448707581e-02
-1.421135067939758301e-01
2.611448168754577637e-01
-2.371671646833419800e-01
-4.341787993907928467e-01
9.569690562784671783e-03
-1.825306415557861328e-01
-3.862558901309967041e-01
-1.215007528662681580e-01
4.845072031021118164e-01
-1.259565055370330811e-01
-1.146072745323181152e-01
2.214210182428359985e-01
-1.598084270954132080e-01
-3.200681805610656738e-01
7.903306931257247925e-02
2.027101069688796997e-01
1.285823434591293335e-02
-6.257621198892593384e-02
3.180379569530487061e-01
-2.884768247604370117e-01
2.428442686796188354e-01
-1.991923153400421143e-01
2.385834604501724243e-01
-4.286528378725051880e-02
-1.537447422742843628e-01
2.260121107101440430e-01
5.590620264410972595e-02
-3.069747090339660645e-01
-8.653043210506439209e-02
-1.895403414964675903e-01
-2.095681987702846527e-02
-2.914380840957164764e-02
-2.854179143905639648e-01
-1.242546513676643372e-01
8.752088248729705811e-02
-1.702322959899902344e-01
2.063345164060592651e-01
-5.642660334706306458e-02
-2.226808369159698486e-01
2.418734431266784668e-01
3.417858108878135681e-02
1.332210451364517212e-01
3.943306803703308105e-01
-1.842661798000335693e-01
3.425214290618896484e-01
-1.421408504247665405e-01
-1.648505330085754395e-01
2.385766953229904175e-01
-1.028312593698501587e-01
-2.250518202781677246e-01
-1.352965980768203735e-01
2.166859507560729980e-01
-4.866487085819244385e-01
5.383989214897155762e-01
1.403467822819948196e-02
1.549531668424606323e-01
2.262419089674949646e-02
1.262307465076446533e-01
6.815645843744277954e-02
-3.575266003608703613e-01
1.034282818436622620e-01
-5.088891983032226562e-01
-1.590234339237213135e-01
4.781092405319213867e-01
-1.184366419911384583e-01
-1.433924883604049683e-01
2.722943127155303955e-01
5.187775939702987671e-02
1.078171953558921814e-01
8.129648864269256592e-02
-8.712396025657653809e-03
2.395374476909637451e-01
-5.755342915654182434e-02
-2.204209417104721069e-01
-3.423939645290374756e-01
3.058410808444023132e-02
-4.473716020584106445e-01
-1.481735408306121826e-01
-2.822025120258331299e-01
1.985059678554534912e-01
2.619327008724212646e-01
8.738914132118225098e-02
3.017694056034088135e-01
-2.936062812805175781e-01
-1.347685605287551880e-01
-5.451852679252624512e-01
2.685704641044139862e-02
-2.263716310262680054e-01
3.021605871617794037e-02
-3.543207887560129166e-03
-1.982933878898620605e-01
-4.615125712007284164e-03
-8.390574157238006592e-02
-1.055995896458625793e-01
2.675817906856536865e-01
-1.246218085289001465e-01
1.616248637437820435e-01
-1.968646645545959473e-01
-6.945148855447769165e-02
-1.089012473821640015e-01
-2.567825838923454285e-02
6.274242699146270752e-02
1.366953132674098015e-03
-1.180535480380058289e-01
4.916090983897447586e-04
-1.339626312255859375e-01
-3.478665947914123535e-01
3.119969069957733154e-01
6.549181789159774780e-02
5.892912391573190689e-03
5.390036851167678833e-02
2.127514630556106567e-01
2.236957103013992310e-01
-2.300719916820526123e-01
2.216356694698333740e-01
4.148769974708557129e-01
4.003461450338363647e-02
2.164300233125686646e-01
-1.696303337812423706e-01
-1.020349413156509399e-01
1.316411495208740234e-01
3.652218282222747803e-01
-1.166387423872947693e-01
-1.033665388822555542e-01
2.385727614164352417e-01
-1.734638512134552002e-01
-9.200996905565261841e-02
-2.193934321403503418e-01
3.864707350730895996e-01
-2.512568533420562744e-01
-1.473782770335674286e-02
-3.682471811771392822e-03
-1.479097455739974976e-01
-6.169503927230834961e-01
-4.816948473453521729e-01
-6.665973663330078125e-01
2.450571060180664062e-01
-2.688512504100799561e-01
-4.040326774120330811e-01
-1.296847611665725708e-01
-4.190120995044708252e-01
-2.315124869346618652e-01
-3.458171710371971130e-02
-3.979729712009429932e-01
-4.252621531486511230e-01
-3.001698553562164307e-01
-1.503043919801712036e-01
-4.828459918498992920e-01
-2.226343750953674316e-01
-1.719104200601577759e-01
-2.263716794550418854e-02
-2.542686462402343750e-01
-8.794814944267272949e-01
-3.259082511067390442e-02
-2.776147425174713135e-01
-3.030923902988433838e-01
-2.257902473211288452e-01
-1.431151926517486572e-01
-5.059156417846679688e-01
-6.697034239768981934e-01
-6.847147941589355469e-01
2.146695405244827271e-01
-1.749204397201538086e-01
-4.167604148387908936e-01
-1.458853483200073242e-01
-8.963318914175033569e-02
-1.596781015396118164e-01
-4.205648303031921387e-01
-2.936548590660095215e-01
-3.218772709369659424e-01
-3.970739543437957764e-01
-1.502806842327117920e-01
-1.904596537351608276e-01
-2.228630185127258301e-01
-2.393064051866531372e-01
-1.879887841641902924e-02
-4.761044085025787354e-01
-4.032771289348602295e-01
1.826179958879947662e-02
-4.486442208290100098e-01
2.291649021208286285e-02
-2.178699225187301636e-01
-5.162438154220581055e-01
-9.211293607950210571e-02
-7.228381037712097168e-01
-1.412469595670700073e-01
-4.892059266567230225e-01
6.531643867492675781e-02
-5.270215272903442383e-01
2.606579661369323730e-01
-2.892992496490478516e-01
-5.290446877479553223e-01
-1.423370242118835449e-01
9.621115028858184814e-02
-2.872681319713592529e-01
-1.331660002470016479e-01
-2.682475149631500244e-01
-3.701073229312896729e-01
-2.327233999967575073e-01
-6.195156574249267578e-01
-6.286804676055908203e-01
-3.175178766250610352e-01
-3.326430618762969971e-01
-5.529747605323791504e-01
-4.315490722656250000e-01
-7.340923696756362915e-02
-4.290723204612731934e-01
3.003261983394622803e-01
-1.268710047006607056e-01
-4.349657297134399414e-01
-5.500333905220031738e-01
2.235478535294532776e-02
-6.571377515792846680e-01
-1.491653472185134888e-01
-3.432295620441436768e-01
-5.068693161010742188e-01
-5.875477790832519531e-01
3.970623761415481567e-02
3.323459625244140625e-01
-1.234465241432189941e-01
-4.468457400798797607e-01
-5.425728559494018555e-01
-3.176584243774414062e-01
-2.011088579893112183e-01
-6.060639023780822754e-01
-2.019758522510528564e-01
-2.399053424596786499e-01
-4.096139073371887207e-01
-9.538787603378295898e-02
-1.886932551860809326e-01
-9.222622513771057129e-01
-3.242448568344116211e-01
-7.182658910751342773e-01
-3.895590007305145264e-01
-6.342678070068359375e-01
-7.643308043479919434e-01
5.617762729525566101e-02
-2.251269668340682983e-01
-7.473865151405334473e-02
-3.157371580600738525e-01
4.651950672268867493e-03
-4.599241912364959717e-01
4.261822700500488281e-01
-1.556974500417709351e-01
-4.578624367713928223e-01
-2.122470438480377197e-01
2.457718923687934875e-02
-2.537347376346588135e-01
-3.913360089063644409e-02
-7.425071299076080322e-02
-5.466187596321105957e-01
-4.726608097553253174e-01
-1.178392767906188965e-01
-4.269268736243247986e-02
-2.015927881002426147e-01
-3.268180787563323975e-01
-1.734253764152526855e-01
-5.655400156974792480e-01
-4.521417915821075439e-01
1.030347570776939392e-01
-6.450906991958618164e-01
-3.979268968105316162e-01
-6.999582648277282715e-01
-1.928816288709640503e-01
-1.128312572836875916e-01
-4.150902628898620605e-01
-1.624158918857574463e-01
-4.404889643192291260e-01
-5.405749082565307617e-01
-7.388010621070861816e-01
-3.640012145042419434e-01
-2.166828960180282593e-01
-4.249209165573120117e-02
-2.292829006910324097e-01
-1.841049194335937500e-01
-1.848443001508712769e-01
-2.389259487390518188e-01
-5.686233639717102051e-01
-5.586029887199401855e-01
-5.769031643867492676e-01
-2.556573133915662766e-03
-2.346276789903640747e-01
-4.244730770587921143e-01
-1.938577443361282349e-01
-2.139948755502700806e-01
-2.015691809356212616e-02
-4.999138042330741882e-02
-9.944246150553226471e-03
-6.392319798469543457e-01
-5.975899696350097656e-01
-5.930026173591613770e-01
-2.487417161464691162e-01
-1.028361320495605469e-01
-4.573151767253875732e-01
-5.418113470077514648e-01
-3.216581940650939941e-01
-2.625489532947540283e-01
-3.200398087501525879e-01
-6.382253766059875488e-01
-1.599668264389038086e-01
-1.237063556909561157e-01
-2.692119479179382324e-01
-5.377793312072753906e-01
-5.503509640693664551e-01
-7.523528486490249634e-02
8.666538447141647339e-02
-5.077643990516662598e-01
-2.864057123661041260e-01
-3.593634366989135742e-01
-5.476363003253936768e-02
-4.005269706249237061e-01
-3.984117805957794189e-01
-3.897078335285186768e-02
-3.113438487052917480e-01
-2.451397031545639038e-01
-5.299150943756103516e-01
-2.485856711864471436e-01
-5.867396593093872070e-01
-4.233412146568298340e-01
-2.047690004110336304e-01
-1.721393913030624390e-01
-3.094332218170166016e-01
-4.503113031387329102e-01
8.094158023595809937e-02
-3.162703514099121094e-01
-7.294636368751525879e-01
-1.207282245159149170e-01
-4.224552810192108154e-01
-1.640279740095138550e-01
-3.317668437957763672e-01
6.185839772224426270e-01
-1.775942295789718628e-01
-5.238240361213684082e-01
-3.037057220935821533e-01
2.653930336236953735e-02
-3.859832882881164551e-01
-4.431094229221343994e-01
5.628805607557296753e-02
4.861564561724662781e-02
-5.516164302825927734e-01
-2.667412459850311279e-01
-4.756449908018112183e-02
1.920118778944015503e-01
-3.180105686187744141e-01
-4.653139710426330566e-01
-3.393971621990203857e-01
1.088708862662315369e-01
1.128994524478912354e-01
-3.006060793995857239e-02
3.383338823914527893e-02
-6.429305672645568848e-01
4.338180720806121826e-01
-3.305210173130035400e-01
-2.213654965162277222e-01
-7.158604860305786133e-01
3.243301436305046082e-02
-1.058679670095443726e-01
-5.181781053543090820e-01
-2.269316464662551880e-01
5.850347876548767090e-02
-2.142229229211807251e-01
-2.217964082956314087e-01
-1.189006641507148743e-01
4.359895363450050354e-02
-2.955779731273651123e-01
-1.641318649053573608e-01
-4.534175246953964233e-02
8.584343641996383667e-02
-2.362194806337356567e-01
-2.554652392864227295e-01
-8.939073234796524048e-02
-1.411401480436325073e-01
-3.109698295593261719e-01
-4.878493547439575195e-01
-4.798250496387481689e-01
-1.935333907604217529e-01
-1.118632182478904724e-01
-6.574607491493225098e-01
-4.055776298046112061e-01
-6.196720004081726074e-01
-5.578111410140991211e-01
-1.311336457729339600e-01
-5.524649620056152344e-01
-4.781887531280517578e-01
-4.896677285432815552e-02
-3.123813569545745850e-01
-3.514294326305389404e-01
-1.701646596193313599e-01
