-1.091059297323226929e-02 3.854461610317230225e-01 -1.479914970695972443e-02 3.546249354258179665e-03 4.731572270393371582e-01 2.272758930921554565e-01 -6.180307362228631973e-03 -2.756920456886291504e-01 8.625363707542419434e-01 8.628894574940204620e-03 2.762353513389825821e-03 1.676102429628372192e-01 -1.220731139183044434e+00 -1.357512474060058594e-01 5.134659353643655777e-03 -3.928950428962707520e-01 7.730903569608926773e-03 -7.247998118400573730e-01 -2.784465439617633820e-02 1.581227481365203857e-01 -1.744001656770706177e-01 1.864097197540104389e-03 -1.067212596535682678e-02 2.264692038297653198e-01 1.168838739395141602e-01 -7.634422779083251953e-01 9.141874909400939941e-01 -2.779080066829919815e-03 9.306355714797973633e-01 5.748822819441556931e-03 -4.593654349446296692e-02 -1.538807749748229980e-01 7.714048959314823151e-03 -8.213640004396438599e-02 -3.995067477226257324e-01 7.441162015311419964e-04 -2.079444192349910736e-02 -9.682287573814392090e-01 3.686413168907165527e-01 -4.069059193134307861e-01 -3.367654047906398773e-03 -7.366770505905151367e-01 -2.735452959313988686e-03 4.762926604598760605e-03 3.452564403414726257e-02 1.893623024225234985e-01 -3.442293964326381683e-03 1.086442789528518915e-04 -2.105913162231445312e-01 -4.094235599040985107e-01 -1.029535055160522461e+00 4.183240830898284912e-01 7.444765418767929077e-02 4.445277452468872070e-01 7.998158223927021027e-03 -4.388887584209442139e-01 6.742372643202543259e-04 -1.351506263017654419e-01 -5.975819658488035202e-04 4.113564733415842056e-03 4.381828308105468750e-01 1.520158722996711731e-03 7.666855305433273315e-02 -7.272880077362060547e-01 1.087955683469772339e-01 1.954970648512244225e-03 -5.000124871730804443e-02 5.273020360618829727e-03 1.837727759266272187e-04 1.528275310993194580e-01 -1.366525515913963318e-02 -3.385541737079620361e-01 -6.684686522930860519e-03 -6.737889051437377930e-01 4.504107534885406494e-01 -4.145859777927398682e-01 -1.826261430978775024e-01 1.961879432201385498e-03 1.044062077999114990e-01 -3.744313418865203857e-01 2.204062342643737793e-01 1.391259487718343735e-03 8.911393284797668457e-01 6.181378848850727081e-03 -2.375136464834213257e-01 5.679102614521980286e-04 1.196495071053504944e-02 2.085888534784317017e-01 -1.371330857276916504e+00 5.107477903366088867e-01 -2.243434041738510132e-01 7.745807617902755737e-02 9.751867037266492844e-04 -3.956906199455261230e-01 -3.812012076377868652e-01 6.123791262507438660e-02 4.933217167854309082e-02 -6.238794922828674316e-01 2.291211187839508057e-01 6.525787711143493652e-02 -4.025309160351753235e-02 -7.231687009334564209e-02 1.142869144678115845e-02 -2.080783620476722717e-02 -4.057211056351661682e-02 6.899503059685230255e-04 3.697049571201205254e-03 -7.504076361656188965e-01 9.838414788246154785e-01 2.910455688834190369e-03 -2.762044668197631836e-01 8.256233334541320801e-01 -7.532175779342651367e-01 6.929669529199600220e-03 -1.941054910421371460e-01 -2.328617847524583340e-04 -5.323615856468677521e-03 -5.175204277038574219e-01 -2.035844139754772186e-03 5.385472904890775681e-04 -1.260845735669136047e-02 -3.724715113639831543e-01 4.783739859703928232e-04 4.239562433212995529e-03 -2.262292802333831787e-02 -2.351016039028763771e-03 -4.099297337234020233e-03 2.321475418284535408e-03 7.954195737838745117e-01 -9.576156153343617916e-04 -3.725263103842735291e-02 -1.055377069860696793e-03 -3.705144263221882284e-05 -5.288136005401611328e-01 7.489426992833614349e-03 9.175452403724193573e-03 1.070110686123371124e-02 1.058023124933242798e-01 -6.801615818403661251e-04 -4.277288317680358887e-01 1.156706571578979492e+00 -7.902280776761472225e-04 -2.400674391537904739e-03 1.165521610528230667e-02 -2.003564033657312393e-03 -9.020867943763732910e-02 -7.672672867774963379e-01 -1.584707759320735931e-02 6.544590592384338379e-01 -2.311908872798085213e-03 1.560130268335342407e-01 -7.106814300641417503e-04 4.385193344205617905e-03 3.548333048820495605e-01 3.106346540153026581e-02 -2.679377608001232147e-02 6.322284936904907227e-01 5.352281332015991211e-01 -4.302057437598705292e-03 -5.426011048257350922e-03 -1.248939633369445801e+00 2.028082758188247681e-01 -1.136570819653570652e-03 -6.505518555641174316e-01 8.348414897918701172e-01 3.296621143817901611e-02 1.202472090721130371e+00 1.691008103080093861e-03 -2.122173607349395752e-01 -3.694131672382354736e-01 1.417452748864889145e-02 -1.948936842381954193e-02 3.267582505941390991e-02 -1.947706341743469238e-01 -1.286344528198242188e+00 1.523148384876549244e-03 -2.646848857402801514e-01 -1.006176811642944813e-03 -3.211964387446641922e-03 1.536358031444251537e-03 -5.777567028999328613e-01 1.737267477437853813e-03 2.812626063823699951e-01 1.117178678512573242e+00 -4.194777458906173706e-03 9.186558891087770462e-04 -3.504124702885746956e-03 3.292595222592353821e-02 8.991101640276610851e-04 2.505146861076354980e-01 8.993916511535644531e-01 7.047586608678102493e-03 6.901472806930541992e-02 -4.599024355411529541e-01 -3.382817804813385010e-01 -4.084201157093048096e-01 7.680822163820266724e-02 -5.135572049766778946e-03 4.193017259240150452e-02 -2.755336754489690065e-04 -2.714762836694717407e-02 -1.319909334182739258e+00 -5.976749584078788757e-03 -7.816098514012992382e-04 6.919462978839874268e-02 4.060240983963012695e-01 -5.228590369224548340e-01 5.284996703267097473e-02 -7.329417467117309570e-01 1.466860063374042511e-02 -2.239976165583357215e-04 3.523096442222595215e-01 3.739213347434997559e-01 5.194045305252075195e-01 1.111441757529973984e-03 -9.837122559547424316e-01 3.841493045911192894e-03 -6.765917642042040825e-04 -2.905882596969604492e-01 2.603219449520111084e-01 1.676958322525024414e+00 -1.272821566089987755e-03 4.344885051250457764e-01 3.257795572280883789e-01 4.768615122884511948e-03 6.493369936943054199e-01 5.513890087604522705e-02 2.557703852653503418e-01 -3.948499448597431183e-03 -1.279293298721313477e-01 -2.111453562974929810e-03 -1.314763575792312622e-01 2.104366868734359741e-01 -1.180665016174316406e+00 -9.649124694988131523e-04 -6.075625307857990265e-03 -2.185824414482340217e-04 2.699543535709381104e-01 -7.526281988248229027e-04 -1.178295969963073730e+00 -1.021680474281311035e+00 -5.651798844337463379e-02 -6.758055686950683594e-01 -5.574090871959924698e-03 9.830829687416553497e-03 4.490377847105264664e-03 6.884935311973094940e-03 1.833077636547386646e-03 2.804274670779705048e-03 4.322614520788192749e-03 -1.050896644592285156e+00 -3.795953467488288879e-03 -6.426683068275451660e-02 -1.852010935544967651e-02 -1.145436406135559082e+00 6.251575425267219543e-03
