-1.243998110294342041e-02 -2.713617384433746338e-01 2.947079241275787354e-01 2.715737521648406982e-01 3.945449367165565491e-02 -7.244327068328857422e-01 1.811726093292236328e-01 -3.313758671283721924e-01 3.577623665332794189e-01 -6.745867729187011719e-01 -5.024344921112060547e-01 -4.026499092578887939e-01 1.162545476108789444e-02 -1.033625230193138123e-01 -3.304536938667297363e-01 -1.171221733093261719e-01 -1.556165069341659546e-01 -1.696603894233703613e-01 -2.926209867000579834e-01 4.669095948338508606e-02 1.164669096469879150e-01 2.998288869857788086e-01 -1.415083259344100952e-01 -6.017408892512321472e-02 -9.929246455430984497e-02 1.196727231144905090e-01 -2.234750092029571533e-01 -2.853576838970184326e-01 1.082699075341224670e-01 -3.044401528313755989e-03 1.657530665397644043e-01
4.011626243591308594e-01 -3.474766910076141357e-01 -8.289862424135208130e-03 1.553135395050048828e+00 7.850439548492431641e-01 8.224983513355255127e-02 -1.110150888562202454e-01 1.687503233551979065e-02 2.801269292831420898e-01 2.780443727970123291e-01 -9.797262400388717651e-02 1.467647701501846313e-01 -1.220892928540706635e-02 3.161149919033050537e-01 -2.311484143137931824e-02 -3.414967954158782959e-01 -2.406270429491996765e-02 1.472624540328979492e-01 9.839487075805664062e-02 -2.602413892745971680e-01 7.103681564331054688e-02 -1.164791658520698547e-01 -1.856192350387573242e-01 -1.935161650180816650e-01 -3.879249691963195801e-01 -1.706223934888839722e-01 -9.551279991865158081e-02 6.822293251752853394e-02 6.740172952413558960e-02 -1.013778969645500183e-01 -4.997338354587554932e-02
5.421139001846313477e-01 -6.576271653175354004e-01 -3.682270348072052002e-01 9.421963244676589966e-02 -4.980654641985893250e-02 -5.091958045959472656e-01 -2.026563137769699097e-02 1.860160194337368011e-02 3.960626423358917236e-01 5.590369552373886108e-02 3.356151878833770752e-01 -1.442640181630849838e-02 -1.494520902633666992e-01 -7.279262691736221313e-02 1.142047643661499023e-01 2.305662035942077637e-01 -3.599125742912292480e-01 -1.322576552629470825e-01 2.034078910946846008e-02 1.162820085883140564e-01 -9.145227074623107910e-02 5.199643224477767944e-02 -1.442324072122573853e-01 -4.659851267933845520e-02 -1.083354726433753967e-01 -1.531222611665725708e-01 1.431461274623870850e-01 1.258284747600555420e-01 2.115403115749359131e-02 -2.186988666653633118e-02 3.481809794902801514e-01
2.329164445400238037e-01 -5.710536241531372070e-01 -1.496731638908386230e-01 -4.380102083086967468e-02 -4.125848412513732910e-02 -2.014178335666656494e-01 -7.921729981899261475e-02 -5.605566129088401794e-02 -3.786381483078002930e-01 1.297245025634765625e-01 1.807298883795738220e-02 8.006545156240463257e-02 4.529807865619659424e-01 1.828176230192184448e-01 -4.577093943953514099e-02 -2.299097776412963867e-01 2.283878177404403687e-01 1.758851706981658936e-01 8.043161779642105103e-02 -1.316340118646621704e-01 1.363224387168884277e-01 1.312692165374755859e-01 -2.986571006476879120e-02 -2.672315835952758789e-01 2.177805155515670776e-01 -3.965372443199157715e-01 1.076977699995040894e-01 4.012646079063415527e-01 1.611343026161193848e-01 5.303015708923339844e-01 -4.069672524929046631e-01
1.008499503135681152e+00 1.903655976057052612e-01 1.152728199958801270e-01 1.776933521032333374e-01 7.624287158250808716e-02 -7.441232353448867798e-02 3.274323791265487671e-02 -3.034418523311614990e-01 -2.129523828625679016e-02 -3.743813335895538330e-01 2.345370352268218994e-01 -3.782361745834350586e-01 9.008476883172988892e-02 -1.866722404956817627e-01 1.339150816202163696e-01 -6.327827274799346924e-02 -8.229692280292510986e-02 2.146839722990989685e-02 1.403471976518630981e-01 -3.582437336444854736e-02 -1.209711879491806030e-01 -8.849762380123138428e-02 4.883513972163200378e-02 1.562376469373703003e-01 -1.962864398956298828e-01 4.328189417719841003e-02 -2.461499767377972603e-03 2.308718115091323853e-01 -1.780036985874176025e-01 5.383949354290962219e-02 2.165419161319732666e-01
1.514746397733688354e-01 3.821100294589996338e-01 7.812512516975402832e-01 5.973483920097351074e-01 4.785928502678871155e-02 -1.762655191123485565e-02 1.116107553243637085e-01 -1.302505610510706902e-03 1.898010671138763428e-01 -2.500977516174316406e-01 -2.400288879871368408e-01 -1.773697435855865479e-01 -1.557387709617614746e-01 -9.422595053911209106e-02 -2.682670652866363525e-01 1.152753606438636780e-01 -1.014762893319129944e-01 -5.117412656545639038e-03 1.061299070715904236e-02 3.715168312191963196e-02 -1.575192995369434357e-02 -7.498840242624282837e-02 1.858129948377609253e-01 -9.479757398366928101e-03 -2.625792920589447021e-01 1.197275072336196899e-01 -4.669974092394113541e-03 -2.455629855394363403e-01 1.229540780186653137e-01 -1.180766848847270012e-03 2.690689265727996826e-01
4.223400950431823730e-01 -4.533972144126892090e-01 -5.338981747627258301e-01 -1.721383444964885712e-02 -9.684009104967117310e-02 2.945021688938140869e-01 1.885264664888381958e-01 -1.438294649124145508e-01 5.246209502220153809e-01 -2.921200394630432129e-01 3.507195711135864258e-01 -9.175443649291992188e-02 -2.447774112224578857e-01 1.418249011039733887e-01 1.111618801951408386e-01 4.725433886051177979e-02 -2.014941424131393433e-01 2.364823035895824432e-02 1.337422430515289307e-01 3.115821480751037598e-01 1.902498900890350342e-01 8.329525589942932129e-02 -1.177436485886573792e-01 -5.832266435027122498e-02 -2.388735711574554443e-01 1.950990706682205200e-01 -6.620090454816818237e-02 -1.786359101533889771e-01 4.613333567976951599e-02 8.572973310947418213e-02 8.550840616226196289e-02
4.139923453330993652e-01 -8.733610510826110840e-01 -4.512281343340873718e-02 2.075705230236053467e-01 1.266307383775711060e-01 -5.561564564704895020e-01 -4.144019484519958496e-01 1.354816257953643799e-01 1.621967852115631104e-01 1.077457144856452942e-02 4.976542294025421143e-01 2.262086570262908936e-01 9.022517502307891846e-02 1.331624537706375122e-01 2.098406106233596802e-01 4.085666835308074951e-01 -6.914868950843811035e-02 1.902926862239837646e-01 1.591665446758270264e-01 -9.205692447721958160e-03 -2.111919224262237549e-02 -5.830971002578735352e-01 2.928352355957031250e-01 -1.484671086072921753e-01 -2.125248461961746216e-01 -1.760113090276718140e-01 2.439897954463958740e-01 4.499018937349319458e-02 -5.209289491176605225e-02 -3.290712833404541016e-01 1.806629449129104614e-01
-2.655796147882938385e-02 -3.288285434246063232e-01 -1.612302958965301514e-01 -2.993506565690040588e-02 -1.687489449977874756e-01 -4.661350846290588379e-01 -5.498028397560119629e-01 3.473403751850128174e-01 1.261545419692993164e-01 1.098070293664932251e-01 2.284439951181411743e-01 1.047822535037994385e-01 4.885493814945220947e-01 4.099963009357452393e-01 4.764882028102874756e-01 2.811635732650756836e-01 -1.491904109716415405e-01 4.268497824668884277e-01 2.262090295553207397e-01 -2.858798950910568237e-02 -3.748501539230346680e-01 1.549023538827896118e-01 3.031518459320068359e-01 -2.254830002784729004e-01 -2.073809504508972168e-01 6.596886515617370605e-01 5.064525008201599121e-01 6.503167748451232910e-02 -2.673281729221343994e-01 1.640591472387313843e-01 1.083096191287040710e-01
2.482836544513702393e-01 -1.237880811095237732e-01 -5.969358682632446289e-01 -1.982698440551757812e-01 -2.829118669033050537e-01 -2.802985012531280518e-01 2.277475446462631226e-01 1.087143346667289734e-01 -6.873567402362823486e-02 3.785893619060516357e-01 -2.496274933218955994e-02 7.055799663066864014e-02 -8.062135428190231323e-02 -2.140157669782638550e-01 -1.034799739718437195e-01 8.139162063598632812e-01 -3.166466951370239258e-01 -1.485643386840820312e-01 -1.253150254487991333e-01 4.180153012275695801e-01 1.405327171087265015e-01 -4.121943116188049316e-01 -9.930215775966644287e-02 1.265248656272888184e-01 -3.584938943386077881e-01 -1.148119568824768066e-01 4.559247493743896484e-01 -1.004343181848526001e-01 -8.970244228839874268e-02 -4.045258462429046631e-01 3.590897917747497559e-01
1.000079989433288574e+00 9.746441841125488281e-01 2.470121383666992188e-01 -3.478816151618957520e-01 8.351542986929416656e-03 1.583446189761161804e-02 1.936795413494110107e-01 1.004281640052795410e-02 3.754586279392242432e-01 -2.049308829009532928e-02 -8.491373807191848755e-02 3.757230564951896667e-02 -1.884151808917522430e-02 6.272523850202560425e-02 -1.805073916912078857e-01 1.299553960561752319e-01 -2.509038895368576050e-02 -6.035136058926582336e-02 -4.731645435094833374e-02 -2.051185443997383118e-02 -3.080619573593139648e-01 1.075100377202033997e-01 -1.005283072590827942e-01 -4.517504274845123291e-01 -7.071204483509063721e-03 -1.783339232206344604e-01 -8.407634496688842773e-02 5.097322538495063782e-02 -2.323906421661376953e-01 6.122267991304397583e-02 4.615724831819534302e-02
4.521171450614929199e-01 -4.580916091799736023e-02 1.472090780735015869e-01 -1.219174191355705261e-01 1.771813258528709412e-02 6.251122802495956421e-02 3.739606440067291260e-01 2.620164752006530762e-01 -2.048719227313995361e-01 -1.192962303757667542e-01 -2.507675588130950928e-01 1.659641116857528687e-01 9.067403078079223633e-01 -3.105140030384063721e-01 -1.574223041534423828e-01 6.504575908184051514e-02 -2.388940155506134033e-01 -1.362807601690292358e-01 -2.003921121358871460e-01 2.336528599262237549e-01 -9.926600009202957153e-02 -3.771433532238006592e-01 -3.189470469951629639e-01 1.388588398694992065e-01 -1.362187117338180542e-01 -1.526493281126022339e-01 -3.384388983249664307e-02 2.016594111919403076e-01 -2.487733960151672363e-01 -7.544287294149398804e-02 -7.665955275297164917e-02
-1.887336671352386475e-01 9.191747754812240601e-02 -1.034278199076652527e-01 -1.313744932413101196e-01 4.203145857900381088e-03 -5.669422745704650879e-01 3.336686789989471436e-01 -1.630013585090637207e-01 4.013515710830688477e-01 8.643117547035217285e-02 -2.091383635997772217e-01 2.480062693357467651e-01 -1.403798758983612061e-01 3.477997183799743652e-01 -1.879364550113677979e-01 3.821264207363128662e-02 -4.374471008777618408e-01 6.489723920822143555e-02 -7.176097482442855835e-02 4.764032363891601562e-02 2.121737226843833923e-02 2.218805700540542603e-01 -1.499172151088714600e-01 1.560676544904708862e-01 1.664347201585769653e-01 1.159563213586807251e-01 2.755716443061828613e-02 2.559311687946319580e-02 -1.436142772436141968e-01 -3.231126666069030762e-01 1.992391794919967651e-01
6.771096587181091309e-01 -3.543357551097869873e-02 2.445171922445297241e-01 1.580401062965393066e-01 3.102420270442962646e-01 -3.097437322139739990e-02 -1.587805598974227905e-01 -3.164889812469482422e-01 -2.032613456249237061e-01 3.507337272167205811e-01 -2.227375060319900513e-01 -5.298574920743703842e-03 -1.610665023326873779e-01 2.699601352214813232e-01 -1.297026872634887695e-01 -1.689383238554000854e-01 4.619153439998626709e-01 1.865131556987762451e-01 -1.436576619744300842e-02 2.714973986148834229e-01 1.014215797185897827e-01 -5.044561997056007385e-02 2.335535287857055664e-01 9.902420639991760254e-02 -3.401897549629211426e-01 2.474063783884048462e-01 4.443489611148834229e-01 -1.023903582245111465e-02 1.493860930204391479e-01 2.445143274962902069e-02 7.600584626197814941e-02
2.811338305473327637e-01 1.464354395866394043e-01 2.143227905035018921e-01 -1.543782651424407959e-01 4.853610694408416748e-02 -2.757143378257751465e-01 2.867588698863983154e-01 2.265059202909469604e-01 -9.637421369552612305e-02 -4.456797838211059570e-01 -1.465444117784500122e-01 -3.897870481014251709e-01 -2.676834464073181152e-01 5.935941338539123535e-01 -6.870581209659576416e-02 -1.061637029051780701e-01 4.302369952201843262e-01 1.358164250850677490e-01 -1.051925942301750183e-01 -4.376478120684623718e-02 4.828335344791412354e-01 4.948725551366806030e-02 -5.231290459632873535e-01 -8.751741796731948853e-02 -1.358385980129241943e-01 1.548965871334075928e-01 -3.610374033451080322e-01 9.725681692361831665e-02 -4.634290561079978943e-02 -3.133786097168922424e-02 1.181248873472213745e-01
1.396354287862777710e-01 1.078625693917274475e-01 -8.914390206336975098e-01 -2.478279769420623779e-01 -3.900368809700012207e-01 -1.315498054027557373e-01 -1.183195933699607849e-01 2.310119010508060455e-02 6.561210006475448608e-02 -9.995921701192855835e-02 5.941612273454666138e-02 4.022673070430755615e-01 -8.841784298419952393e-02 -1.253945827484130859e-01 -7.485520839691162109e-02 8.200938999652862549e-02 -3.225718736648559570e-01 -1.659997999668121338e-01 -4.893772304058074951e-02 2.314670234918594360e-01 8.107920177280902863e-03 -1.669965088367462158e-01 1.592987179756164551e-01 -1.054678484797477722e-01 -2.739545106887817383e-01 5.155452340841293335e-02 2.105944752693176270e-01 8.939772844314575195e-02 7.266488671302795410e-02 -8.378373831510543823e-02 2.481092512607574463e-01
3.216038271784782410e-02 2.424457222223281860e-01 2.862894237041473389e-01 -9.310948103666305542e-02 -1.880775690078735352e-01 -4.181963801383972168e-01 2.553664743900299072e-01 -1.732657849788665771e-01 1.057227402925491333e-01 3.091532588005065918e-01 -4.395506978034973145e-01 7.227467298507690430e-01 1.033531501889228821e-01 -3.787780702114105225e-01 -2.717336714267730713e-01 1.935059577226638794e-01 1.481277644634246826e-01 -3.980084061622619629e-01 -2.145106941461563110e-01 4.952531754970550537e-01 2.544855773448944092e-01 -2.775934636592864990e-01 4.489607736468315125e-02 -1.972420364618301392e-01 8.405963331460952759e-02 -1.015587076544761658e-01 4.765930473804473877e-01 1.142335683107376099e-02 -1.974761486053466797e-01 -3.197818398475646973e-01 -1.744420528411865234e-01
4.009827375411987305e-01 5.269810184836387634e-02 -3.017789125442504883e-02 2.290417551994323730e-01 1.210566163063049316e-01 -7.484927177429199219e-01 4.779587686061859131e-02 -1.023085042834281921e-01 5.052182078361511230e-01 -3.063544929027557373e-01 7.316872477531433105e-02 1.000478714704513550e-01 -2.720916271209716797e-01 2.665488421916961670e-01 9.894486516714096069e-02 9.680949151515960693e-02 -2.522731721401214600e-01 5.710781738162040710e-02 -2.608050219714641571e-02 -1.110352724790573120e-01 -2.443377375602722168e-01 3.416208624839782715e-01 -7.990532554686069489e-03 -9.350208938121795654e-02 -1.880712211132049561e-01 2.823930978775024414e-01 2.959537506103515625e-01 9.289260208606719971e-02 -1.734113842248916626e-01 1.706509441137313843e-01 3.770027756690979004e-01
4.193840920925140381e-01 -5.567498803138732910e-01 -3.940314054489135742e-02 7.371658086776733398e-01 4.680894911289215088e-01 3.469213545322418213e-01 -1.550085693597793579e-01 -5.137657001614570618e-02 -4.972893893718719482e-01 -5.206928253173828125e-01 -3.377794027328491211e-01 -2.420345395803451538e-01 -5.668240040540695190e-02 1.334815174341201782e-01 -2.278452366590499878e-01 -1.223752424120903015e-01 1.313965469598770142e-01 1.378744989633560181e-01 -1.113481819629669189e-01 -1.452468987554311752e-02 -5.230906233191490173e-02 -1.316170841455459595e-01 2.930087447166442871e-01 -2.224381417036056519e-01 4.893134236335754395e-01 -2.694343924522399902e-01 1.179470792412757874e-01 9.148225188255310059e-01 7.232120633125305176e-02 -4.757339134812355042e-02 -7.830071449279785156e-01
2.958551645278930664e-01 3.992776274681091309e-01 4.366503655910491943e-02 4.587329924106597900e-01 4.886184334754943848e-01 1.344175487756729126e-01 7.628681659698486328e-01 2.908753789961338043e-02 4.081328511238098145e-01 7.135016918182373047e-01 1.265512555837631226e-01 2.596099674701690674e-01 1.947254836559295654e-01 1.039830222725868225e-01 -1.370438933372497559e-01 6.111573576927185059e-01 6.042093634605407715e-01 2.674345672130584717e-01 2.658451721072196960e-02 1.080991476774215698e-01 -2.335033863782882690e-01 9.412964433431625366e-02 -1.687412708997726440e-01 4.805270135402679443e-01 -2.713841199874877930e-01 3.308189511299133301e-01 3.418658971786499023e-01 -1.950416415929794312e-01 2.068894207477569580e-01 -1.303808093070983887e-01 1.315672397613525391e-01
1.829343438148498535e-01 1.645678579807281494e-01 2.542316317558288574e-01 9.577461332082748413e-02 -1.844298690557479858e-01 -1.140717491507530212e-01 -2.001984510570764542e-03 -6.923855096101760864e-02 3.613363578915596008e-02 -7.142531871795654297e-02 -2.111855521798133850e-02 -7.980759441852569580e-02 1.407346129417419434e-01 -1.184271052479743958e-01 -1.271257251501083374e-01 1.009573191404342651e-01 3.912282362580299377e-02 -1.326624900102615356e-01 -2.473929822444915771e-01 -2.714002691209316254e-02 -2.017046362161636353e-01 -3.313269019126892090e-01 1.679715663194656372e-01 2.897211015224456787e-01 -2.882987856864929199e-01 -1.767384856939315796e-01 3.873013705015182495e-02 1.779861748218536377e-01 5.362070351839065552e-02 -1.963213980197906494e-01 1.548958825878798962e-03
-8.867230266332626343e-02 7.098345458507537842e-02 1.955881714820861816e-01 -9.725769609212875366e-02 -4.171152412891387939e-02 1.804230362176895142e-02 8.331301808357238770e-01 1.657855957746505737e-01 -6.539384275674819946e-02 7.361923456192016602e-01 -8.494442701339721680e-02 6.709909439086914062e-01 5.276523828506469727e-01 -3.828677237033843994e-01 -9.695888757705688477e-01 1.987044066190719604e-01 6.079027894884347916e-03 -3.769394457340240479e-01 -6.895176172256469727e-01 -1.261301040649414062e-01 5.444839969277381897e-02 -2.170485258102416992e-02 -6.852945685386657715e-01 7.531107068061828613e-01 3.042386174201965332e-01 -2.710850834846496582e-01 3.018659651279449463e-01 3.792343735694885254e-01 -7.119568437337875366e-02 -4.955986514687538147e-02 -2.985185980796813965e-01
4.590288698673248291e-01 -1.398194879293441772e-01 -4.702431261539459229e-01 -1.538143306970596313e-01 -2.150732278823852539e-01 -4.788774847984313965e-01 -3.048868179321289062e-01 1.805453449487686157e-01 5.378195047378540039e-01 -2.181331366300582886e-01 -2.138154655694961548e-01 4.310437440872192383e-01 -8.565422296524047852e-01 4.042936563491821289e-01 3.623264729976654053e-01 -3.726698458194732666e-02 -3.061671853065490723e-01 2.304521650075912476e-01 2.230188101530075073e-01 -3.452164307236671448e-02 -1.023670881986618042e-01 1.140555441379547119e-01 1.591446548700332642e-01 -1.112615689635276794e-03 4.210419207811355591e-02 5.152635574340820312e-01 -3.739488422870635986e-01 -4.435000941157341003e-02 3.253476321697235107e-01 -2.316973060369491577e-01 2.437096536159515381e-01
2.500179111957550049e-01 1.339037269353866577e-01 1.271724607795476913e-02 -1.179269328713417053e-01 -2.980658710002899170e-01 -7.577168755233287811e-03 1.214590272866189480e-03 -1.311588883399963379e-01 3.135741353034973145e-01 -2.542049586772918701e-01 -1.193635538220405579e-01 1.415499951690435410e-02 -3.563181757926940918e-01 1.101306155323982239e-01 -1.541709993034601212e-02 9.285479784011840820e-02 -3.740577697753906250e-01 1.383138597011566162e-01 4.485739022493362427e-02 2.822392582893371582e-01 1.133638154715299606e-02 2.785383164882659912e-01 -3.310077488422393799e-01 1.551866233348846436e-01 6.111593544483184814e-02 1.481509953737258911e-01 5.172657966613769531e-01 1.133492663502693176e-01 -2.621501684188842773e-01 -1.366341412067413330e-01 1.285723177716135979e-03
6.050753593444824219e-01 -2.713775336742401123e-01 1.395181268453598022e-01 -2.580993995070457458e-02 -6.045750901103019714e-02 -4.917462170124053955e-02 -3.211395442485809326e-01 -5.325872898101806641e-01 3.172036409378051758e-01 -5.002775415778160095e-02 5.202919244766235352e-01 -5.870720744132995605e-01 1.864341348409652710e-01 -4.960272014141082764e-01 7.014470547437667847e-02 -7.457990944385528564e-02 -3.290183469653129578e-02 -2.174854874610900879e-01 4.754343628883361816e-02 8.757559955120086670e-02 1.583667993545532227e-01 -1.968912482261657715e-01 2.631286978721618652e-01 -1.949263811111450195e-01 1.556499451398849487e-01 -2.622439861297607422e-01 -6.161708831787109375e-01 -1.039731800556182861e-01 3.406419157981872559e-01 4.022422060370445251e-02 -6.979287415742874146e-02
3.610650300979614258e-01 -3.665922582149505615e-01 -1.244328841567039490e-01 1.429369449615478516e-01 -1.570516377687454224e-01 -7.813034057617187500e-01 9.871864691376686096e-03 -1.658484190702438354e-01 7.693965733051300049e-02 3.165089339017868042e-02 -2.328854799270629883e-02 6.344807147979736328e-02 -3.875029832124710083e-02 4.354202002286911011e-02 -1.882840991020202637e-01 -3.128841146826744080e-02 2.220480702817440033e-02 1.269955337047576904e-01 -2.632634155452251434e-02 -1.002566888928413391e-01 -2.346047312021255493e-01 2.230870276689529419e-01 7.560769468545913696e-02 -4.981595650315284729e-02 -2.222149968147277832e-01 1.904036849737167358e-03 1.309713423252105713e-01 -4.478909820318222046e-02 -1.928385794162750244e-01 2.578776478767395020e-01 -1.425939500331878662e-01
1.934072673320770264e-01 2.103578746318817139e-01 -2.476173788309097290e-01 4.832289516925811768e-01 2.330323308706283569e-01 -5.240789651870727539e-01 2.928254306316375732e-01 1.856852918863296509e-01 -6.695766001939773560e-02 7.617522031068801880e-02 -6.936265826225280762e-01 2.795109450817108154e-01 3.846192657947540283e-01 -3.725477457046508789e-01 -3.996992111206054688e-01 -4.407993257045745850e-01 -7.237396389245986938e-02 -2.651394605636596680e-01 -1.786666065454483032e-01 1.388097554445266724e-01 2.422530949115753174e-01 1.971522718667984009e-01 -1.058916822075843811e-01 3.027849197387695312e-01 -2.640247046947479248e-01 -2.787372842431068420e-02 -2.245564386248588562e-02 -2.795128524303436279e-01 -4.803276360034942627e-01 2.316452935338020325e-02 1.481098681688308716e-01
7.143878936767578125e-01 -2.962126433849334717e-01 4.144093394279479980e-01 1.028364673256874084e-01 -1.435344815254211426e-01 3.970599770545959473e-01 8.173882216215133667e-02 4.257228597998619080e-02 -1.028697714209556580e-01 1.156465038657188416e-01 -1.961706951260566711e-02 2.386362105607986450e-01 8.496165871620178223e-01 -3.707757294178009033e-01 -6.444133073091506958e-02 5.738939642906188965e-01 -2.510692775249481201e-01 -1.205748394131660461e-01 -1.364050712436437607e-02 2.554010748863220215e-01 -5.416612606495618820e-03 -7.091202586889266968e-02 -6.557142734527587891e-02 -2.037855237722396851e-01 -1.244570240378379822e-01 -1.671730875968933105e-01 -9.584964811801910400e-02 3.709724172949790955e-03 -5.075869709253311157e-02 1.334574073553085327e-01 4.288863390684127808e-03
3.867698609828948975e-01 1.237466037273406982e-01 -7.128526270389556885e-02 -8.837480843067169189e-02 3.311197832226753235e-02 3.244273066520690918e-01 2.617103755474090576e-01 3.854180872440338135e-02 5.459351930767297745e-03 9.618967771530151367e-02 -2.156457006931304932e-01 1.373078208416700363e-02 2.017232179641723633e-01 1.307890862226486206e-01 -9.355606138706207275e-02 4.768540263175964355e-01 1.224748976528644562e-02 -1.239972338080406189e-01 -1.715472638607025146e-01 2.015354335308074951e-01 -7.575857639312744141e-02 -3.673849999904632568e-02 -1.135568469762802124e-01 -1.287054419517517090e-01 2.333439327776432037e-02 2.426119446754455566e-01 3.418665006756782532e-02 9.108981490135192871e-02 -6.298462301492691040e-02 5.280555412173271179e-02 -9.973626583814620972e-02
1.573776453733444214e-01 -2.391793429851531982e-01 -3.216905593872070312e-01 -1.647036075592041016e-01 -6.820040196180343628e-02 -5.596457719802856445e-01 5.252582579851150513e-02 -1.399670094251632690e-01 9.712023288011550903e-02 1.198056414723396301e-01 -5.553126707673072815e-02 5.681770294904708862e-02 -1.361163407564163208e-01 -1.394317951053380966e-02 -6.452911347150802612e-02 4.231173992156982422e-01 -1.520449761301279068e-02 7.355888187885284424e-02 -6.104515492916107178e-02 2.161950320005416870e-01 7.759084552526473999e-02 -1.229034289717674255e-01 1.626171171665191650e-02 1.526537835597991943e-01 -2.042449414730072021e-01 4.019392281770706177e-02 4.921395182609558105e-01 2.948709391057491302e-02 -2.660214900970458984e-03 -1.389921307563781738e-01 1.975482702255249023e-01
9.578416496515274048e-02 8.125151693820953369e-02 -9.231624007225036621e-02 -2.182638794183731079e-01 -3.069402575492858887e-01 -5.875895023345947266e-01 -7.442247122526168823e-02 -4.367860853672027588e-01 -1.364097595214843750e-01 3.035876154899597168e-01 5.475151538848876953e-01 1.045652106404304504e-01 5.333269014954566956e-02 -3.565751612186431885e-01 3.328834772109985352e-01 2.193338721990585327e-01 -1.490344479680061340e-02 7.095674425363540649e-02 2.050997316837310791e-01 -5.856290459632873535e-02 1.191001571714878082e-02 -1.734286844730377197e-01 2.678265273571014404e-01 2.305926084518432617e-01 1.234081089496612549e-01 -3.062423169612884521e-01 2.759869992733001709e-01 1.359036564826965332e-01 1.185923367738723755e-01 -1.790637224912643433e-01 -2.743045985698699951e-01
1.239549145102500916e-01 1.154793333262205124e-02 3.249864578247070312e-01 3.473733961582183838e-01 2.710045576095581055e-01 -2.142147421836853027e-01 2.215253710746765137e-01 2.870884835720062256e-01 3.419949114322662354e-01 -3.242990747094154358e-02 -2.139432728290557861e-01 -2.627020180225372314e-01 2.178780436515808105e-01 1.902894824743270874e-01 -6.268757581710815430e-02 -8.580069243907928467e-02 -8.726928383111953735e-02 8.194632828235626221e-02 6.356487423181533813e-02 -1.369596284348517656e-04 1.115890145301818848e-01 -2.337862551212310791e-01 -2.072760760784149170e-01 1.872094124555587769e-01 -2.079452723264694214e-01 1.010765209794044495e-01 -1.416726857423782349e-01 -5.205569043755531311e-02 -7.376871258020401001e-02 -1.652664393186569214e-01 -1.107657328248023987e-01
5.708844587206840515e-02 6.370456218719482422e-01 2.773033976554870605e-01 -1.199497655034065247e-02 -1.330419927835464478e-01 -2.522688917815685272e-02 -1.319371610879898071e-01 -1.061004027724266052e-01 -3.760173618793487549e-01 6.461730599403381348e-02 7.492777705192565918e-02 -4.477049410343170166e-01 1.735311150550842285e-01 -4.221789538860321045e-01 1.705962568521499634e-01 -1.604233831167221069e-01 3.461918234825134277e-01 -5.622513219714164734e-02 6.827044486999511719e-02 3.133169710636138916e-01 6.945351511240005493e-02 -1.969410926103591919e-01 7.461864352226257324e-01 -5.568831413984298706e-02 1.476592272520065308e-01 -4.318860471248626709e-01 1.679708212614059448e-01 2.784182429313659668e-01 -7.662826031446456909e-02 1.069171503186225891e-01 -2.987734973430633545e-01
-1.238192692399024963e-01 2.124798595905303955e-01 2.495810389518737793e-01 2.672249972820281982e-01 1.511178314685821533e-01 1.175288259983062744e-01 -2.181314080953598022e-01 1.908218860626220703e-01 9.089305996894836426e-03 2.038219571113586426e-02 -1.973257400095462799e-03 -1.460912525653839111e-01 2.245964668691158295e-02 1.476650834083557129e-01 1.289041042327880859e-01 6.604568660259246826e-02 -6.650259345769882202e-02 -2.161885425448417664e-02 9.762963652610778809e-02 2.361361309885978699e-02 -1.721762418746948242e-01 -8.237251080572605133e-03 2.680044770240783691e-01 4.561636596918106079e-02 -1.120978072285652161e-01 -3.333619236946105957e-01 -4.754659160971641541e-02 3.555195331573486328e-01 -1.495361626148223877e-01 3.362055718898773193e-01 -2.113904803991317749e-01
2.503640353679656982e-01 -2.228344231843948364e-01 2.528779208660125732e-01 5.424257516860961914e-01 4.325602650642395020e-01 3.167149424552917480e-01 -2.117975205183029175e-01 1.141424924135208130e-01 1.049199327826499939e-01 -4.277331531047821045e-01 -1.959440559148788452e-01 -6.083859801292419434e-01 1.825339943170547485e-01 1.136178597807884216e-01 2.312297970056533813e-01 -1.838367618620395660e-02 9.077218919992446899e-02 1.716614514589309692e-01 3.151291608810424805e-01 8.192673325538635254e-02 5.745402723550796509e-02 2.372682392597198486e-01 3.442966341972351074e-01 2.346634715795516968e-01 -3.642837703227996826e-02 1.583159267902374268e-01 -1.733047813177108765e-01 5.690128356218338013e-02 6.148923933506011963e-02 2.037540078163146973e-02 1.624428778886795044e-01
2.174526154994964600e-01 2.706384360790252686e-01 2.142250537872314453e-01 2.229480594396591187e-01 1.846071779727935791e-01 2.912685573101043701e-01 4.721637070178985596e-02 -5.851805955171585083e-02 -8.868050575256347656e-02 3.631305694580078125e-01 2.456346759572625160e-03 7.538373023271560669e-02 -4.275588318705558777e-02 -1.654177010059356689e-01 -1.274305433034896851e-01 4.026821553707122803e-01 -3.902583420276641846e-01 -3.113891482353210449e-01 -2.543190717697143555e-01 8.792171627283096313e-02 -5.176776051521301270e-01 -4.112328886985778809e-01 1.277157384902238846e-02 -1.401059627532958984e-01 6.205998733639717102e-02 9.962170571088790894e-02 4.226107299327850342e-01 5.855030938982963562e-02 2.539054751396179199e-01 -5.045877099037170410e-01 -2.264548242092132568e-01
1.534556448459625244e-01 -8.084227889776229858e-02 2.187822945415973663e-02 3.856258094310760498e-02 1.561145186424255371e-01 -4.514800608158111572e-01 4.664700329303741455e-01 3.799333572387695312e-01 -2.500762641429901123e-01 -2.703392505645751953e-01 2.481520920991897583e-01 2.185795754194259644e-01 5.410646200180053711e-01 3.384824842214584351e-02 -8.202647417783737183e-02 3.421493172645568848e-01 2.625759541988372803e-01 2.033667862415313721e-01 1.343586482107639313e-02 1.080088317394256592e-01 1.724627166986465454e-01 1.713759452104568481e-01 -2.434355318546295166e-01 4.113951697945594788e-02 -4.817198812961578369e-01 7.035998106002807617e-01 1.545028239488601685e-01 -4.372456073760986328e-01 4.568789303302764893e-01 -3.486265540122985840e-01 9.151982665061950684e-01
4.581113159656524658e-01 9.903103113174438477e-01 5.382622480392456055e-01 1.847410947084426880e-01 1.920462399721145630e-01 -5.175927877426147461e-01 1.288468390703201294e-01 -1.835835576057434082e-01 3.120383024215698242e-01 7.892186939716339111e-02 -2.497953325510025024e-01 -2.245930582284927368e-01 3.574039936065673828e-01 1.865392476320266724e-01 1.730405390262603760e-01 -4.178633168339729309e-02 -1.750779151916503906e-01 1.796603053808212280e-01 2.292337566614151001e-01 1.587882786989212036e-01 1.518183648586273193e-01 1.959139555692672729e-01 6.074707582592964172e-02 -2.737494111061096191e-01 3.136344254016876221e-01 -7.449867203831672668e-03 1.354233622550964355e-01 -1.314164251089096069e-01 -3.211768269538879395e-01 1.464486718177795410e-01 -3.766698241233825684e-01
2.807247340679168701e-01 -3.336012065410614014e-01 3.640732169151306152e-01 6.415755152702331543e-01 1.534812003374099731e-01 6.400661468505859375e-01 2.412030845880508423e-01 -1.434659510850906372e-01 6.414884328842163086e-02 -4.303522408008575439e-01 -7.324135899543762207e-01 -1.499071270227432251e-01 -1.464117020368576050e-01 -2.800579667091369629e-01 -4.519301950931549072e-01 5.142706036567687988e-01 7.864905893802642822e-02 -4.764507710933685303e-01 -5.325025320053100586e-01 6.156347393989562988e-01 1.785195916891098022e-01 -1.277074366807937622e-01 7.449529320001602173e-02 2.961753606796264648e-01 -3.771715164184570312e-01 -1.376282721757888794e-01 -2.186862230300903320e-01 -1.756948828697204590e-01 6.295590996742248535e-01 1.899042427539825439e-01 -1.449472606182098389e-01
8.120710253715515137e-01 3.742123022675514221e-02 -3.710735142230987549e-01 -1.898337006568908691e-01 -1.745139211416244507e-01 6.736060976982116699e-02 -1.364467442035675049e-01 4.942030608654022217e-01 -1.521848980337381363e-02 6.006520614027976990e-02 -2.201564908027648926e-01 -2.120037563145160675e-02 4.269106686115264893e-02 2.417437136173248291e-01 -2.643234133720397949e-01 -4.357985556125640869e-01 1.869751140475273132e-02 -1.790537089109420776e-01 -3.672071695327758789e-01 -5.725063383579254150e-02 -1.958963423967361450e-01 -8.655122518539428711e-01 3.608308136463165283e-01 1.001065447926521301e-01 -3.572565615177154541e-01 -5.305733680725097656e-01 -2.679819166660308838e-01 7.748669385910034180e-02 -1.830730587244033813e-01 -1.015385985374450684e-01 -1.454313546419143677e-01
6.802341938018798828e-01 1.268144510686397552e-02 -5.836596712470054626e-03 1.537179853767156601e-02 9.634223580360412598e-02 -1.030446738004684448e-01 -7.542487978935241699e-02 -2.390007525682449341e-01 -9.172011166810989380e-02 -3.129370808601379395e-01 3.129357993602752686e-01 -1.478667370975017548e-02 -2.144976556301116943e-01 -2.460634857416152954e-01 -1.957269571721553802e-02 7.007250189781188965e-01 -2.786251902580261230e-01 -8.012868463993072510e-02 -3.235587477684020996e-02 2.659137845039367676e-01 -2.361499518156051636e-01 -1.104693263769149780e-01 2.148131877183914185e-01 1.783720217645168304e-02 -4.292748868465423584e-01 3.262508213520050049e-01 3.082913458347320557e-01 -1.369154751300811768e-01 4.091339409351348877e-01 4.028480499982833862e-02 2.617527842521667480e-01
-2.183953523635864258e-01 -1.004857718944549561e-01 -7.861387729644775391e-02 -1.126414462924003601e-01 -5.049839243292808533e-02 5.654659271240234375e-01 4.686653912067413330e-01 -5.999650955200195312e-01 2.088592387735843658e-02 6.441791355609893799e-02 -3.496793806552886963e-01 1.181049942970275879e-01 -4.478771388530731201e-01 -1.763233691453933716e-01 -2.314313054084777832e-01 -4.790123999118804932e-01 -2.590529322624206543e-01 -3.256992101669311523e-01 -1.737909466028213501e-01 -3.411483168601989746e-01 -1.819468438625335693e-01 3.861118480563163757e-02 -4.608126580715179443e-01 2.565080821514129639e-01 2.912844121456146240e-01 -1.687470823526382446e-01 2.447937242686748505e-02 7.171545177698135376e-02 2.214998602867126465e-01 -1.106521785259246826e-01 -3.366331383585929871e-02
3.328986465930938721e-02 2.026179581880569458e-01 -6.186438202857971191e-01 2.252643257379531860e-01 -1.197481676936149597e-01 -7.055521011352539062e-01 4.841052889823913574e-01 -4.962175711989402771e-02 2.878155708312988281e-01 4.548627734184265137e-01 2.823036909103393555e-01 2.543945014476776123e-01 -1.606190204620361328e-01 2.668918669223785400e-01 -1.123471111059188843e-01 4.461310505867004395e-01 -4.419741928577423096e-01 2.969507873058319092e-01 1.695320904254913330e-01 2.871176004409790039e-01 7.703360170125961304e-02 6.274443864822387695e-02 -1.845510900020599365e-01 1.894271671772003174e-01 -3.181756660342216492e-02 7.425614446401596069e-02 4.674786925315856934e-01 1.965131610631942749e-01 -2.836997248232364655e-02 2.241328358650207520e-01 -5.591413974761962891e-01
4.132166504859924316e-02 2.176648080348968506e-01 5.171121284365653992e-02 -1.397033780813217163e-01 -1.598561555147171021e-01 1.189922168850898743e-01 3.993504643440246582e-01 4.835625886917114258e-01 -2.606781721115112305e-01 3.869972750544548035e-02 5.115824341773986816e-01 -8.627118170261383057e-02 7.064777016639709473e-01 2.171756178140640259e-01 5.594938993453979492e-01 1.086466908454895020e-01 6.967166066169738770e-02 7.143376469612121582e-01 7.116223573684692383e-01 -3.942352160811424255e-02 9.663628414273262024e-03 -1.349980533123016357e-01 9.564944356679916382e-02 9.273029565811157227e-01 4.069509506225585938e-01 -3.182781338691711426e-01 -3.806928098201751709e-01 2.679818272590637207e-01 -5.438698083162307739e-02 -1.757783815264701843e-02 -4.218277633190155029e-01
1.748212277889251709e-01 -6.362927556037902832e-01 -6.096406579017639160e-01 -2.850751876831054688e-01 -2.722333669662475586e-01 -2.632551193237304688e-01 -1.167704164981842041e-01 5.685260519385337830e-02 5.653213858604431152e-01 2.139930576086044312e-01 1.859372109174728394e-01 1.510136127471923828e-01 -2.115786820650100708e-01 2.676298320293426514e-01 1.615737974643707275e-01 1.803860664367675781e-01 -3.174073100090026855e-01 -6.819263845682144165e-02 -1.471694409847259521e-01 6.729745864868164062e-02 -1.799917668104171753e-01 -2.386037074029445648e-02 -1.952097713947296143e-01 -2.519221901893615723e-01 -4.932367801666259766e-01 -1.327958852052688599e-01 2.943954169750213623e-01 -1.765500307083129883e-01 -2.952023446559906006e-01 -1.771163195371627808e-01 4.342308342456817627e-01
1.905167698860168457e-01 -2.053506821393966675e-01 -3.423157930374145508e-01 -1.579738110303878784e-01 -3.368648290634155273e-01 2.565512359142303467e-01 -5.686730891466140747e-02 -7.082255184650421143e-02 -8.979577571153640747e-02 -2.811760008335113525e-01 -3.864689543843269348e-02 -2.744349837303161621e-01 3.272879719734191895e-01 -2.263206541538238525e-01 -1.981521844863891602e-01 -1.884412392973899841e-02 3.199924826622009277e-01 -4.336007684469223022e-02 -1.126729622483253479e-01 1.506730318069458008e-01 3.991421461105346680e-01 -5.058269500732421875e-01 8.536741137504577637e-01 7.918271422386169434e-01 2.555438578128814697e-01 -4.365184605121612549e-01 -1.655231714248657227e-01 3.301879465579986572e-01 4.068492352962493896e-01 -1.281626820564270020e-01 -5.786430239677429199e-01
8.523465991020202637e-01 3.547836840152740479e-02 2.038530558347702026e-01 1.348620951175689697e-01 3.453775942325592041e-01 -1.223107799887657166e-01 -4.619021713733673096e-01 3.110103905200958252e-01 2.837572991847991943e-01 -5.261232256889343262e-01 2.637429237365722656e-01 -2.187361568212509155e-01 -9.136489629745483398e-01 1.160770133137702942e-01 1.194498464465141296e-01 -2.936092019081115723e-01 1.584229618310928345e-02 4.272735118865966797e-02 6.207000091671943665e-02 -2.898405492305755615e-02 1.464843284338712692e-02 -7.782790809869766235e-02 3.355282843112945557e-01 -3.879213929176330566e-01 -1.573802083730697632e-01 3.821577876806259155e-02 -5.695292353630065918e-01 3.766243457794189453e-01 1.788629442453384399e-01 -1.581870913505554199e-01 2.998690865933895111e-02
2.144937664270401001e-01 -8.880820870399475098e-02 -1.786415092647075653e-02 9.655763953924179077e-02 5.197877436876296997e-02 -1.594117164611816406e+00 -2.999368309974670410e-01 -7.048234939575195312e-01 1.734060943126678467e-01 -9.572783857583999634e-02 1.125490963459014893e-01 4.818002507090568542e-02 -9.031579643487930298e-02 3.629002869129180908e-01 3.195499777793884277e-01 1.332035213708877563e-01 3.206549882888793945e-01 4.094870686531066895e-01 2.087963372468948364e-01 -3.381843566894531250e-01 -1.619909405708312988e-01 4.044499695301055908e-01 -5.500334873795509338e-02 -2.552543282508850098e-01 1.908441036939620972e-01 -2.852149605751037598e-01 -6.211435422301292419e-02 3.134978190064430237e-02 -7.955733686685562134e-02 6.523523330688476562e-01 -3.195742964744567871e-01
2.516358196735382080e-01 3.571407794952392578e-01 4.414752721786499023e-01 5.013142824172973633e-01 1.882743835449218750e-01 7.415968179702758789e-02 1.004676967859268188e-01 -1.293878555297851562e-01 4.082119762897491455e-01 -2.214005738496780396e-01 -1.281365752220153809e-01 3.403491154313087463e-02 -7.223819941282272339e-02 1.991239935159683228e-01 -4.868589341640472412e-03 1.500854939222335815e-01 2.746520042419433594e-01 1.612016260623931885e-01 1.300547271966934204e-01 4.158869683742523193e-01 6.442859023809432983e-02 -8.989834785461425781e-02 -1.028576567769050598e-01 -1.112827137112617493e-01 -5.153707861900329590e-01 7.703040242195129395e-01 1.056055352091789246e-01 -7.537285238504409790e-02 2.811825573444366455e-01 -4.212450683116912842e-01 7.619218528270721436e-02
4.336405098438262939e-01 1.436874270439147949e-01 5.077798366546630859e-01 2.196487337350845337e-01 -4.322560504078865051e-02 5.594222545623779297e-01 -1.843603327870368958e-02 -1.652073562145233154e-01 5.628311038017272949e-01 -3.074375689029693604e-01 3.139187693595886230e-01 8.237373828887939453e-02 -3.339138925075531006e-01 -1.784139722585678101e-01 2.049064487218856812e-01 -8.976753801107406616e-02 -1.000875607132911682e-01 3.376836190000176430e-03 1.613902598619461060e-01 1.981372237205505371e-01 -2.223420422524213791e-03 -3.639806993305683136e-03 1.738404631614685059e-01 -5.988640785217285156e-01 -1.196582764387130737e-01 -1.691081076860427856e-01 7.830661535263061523e-02 -3.142440021038055420e-01 -1.208671703934669495e-01 3.477072715759277344e-01 2.751684188842773438e-02
2.003066241741180420e-01 2.359870076179504395e-01 -1.950069218873977661e-01 -2.549294382333755493e-02 7.053525000810623169e-02 8.894128203392028809e-01 -2.644534967839717865e-02 7.919707894325256348e-02 -9.681315720081329346e-02 -6.034961938858032227e-01 -1.444102171808481216e-02 -7.731320708990097046e-02 -4.452313482761383057e-01 -4.647665917873382568e-01 -6.508628278970718384e-02 -3.639990389347076416e-01 1.813233941793441772e-01 -2.916879653930664062e-01 -1.604653447866439819e-01 -2.010033428668975830e-01 -1.105269137769937515e-02 -1.922993659973144531e-01 -2.320002764463424683e-01 -5.791722238063812256e-02 2.106295675039291382e-01 -5.335742831230163574e-01 -2.803380787372589111e-01 4.124855697154998779e-01 1.069807171821594238e+00 -6.309298425912857056e-02 -1.067282408475875854e-01
-1.700414866209030151e-01 -3.986926376819610596e-02 -2.829076945781707764e-01 -1.724991202354431152e-01 -1.461434513330459595e-01 -4.617571234703063965e-01 -2.342770844697952271e-01 -2.718158364295959473e-01 3.534116744995117188e-01 2.649068236351013184e-01 5.175216197967529297e-01 1.935063600540161133e-01 6.958051770925521851e-02 -4.989498108625411987e-02 1.104583814740180969e-01 -1.227217242121696472e-01 -4.082028269767761230e-01 5.198253989219665527e-01 3.909199535846710205e-01 -3.328546583652496338e-01 -6.126534938812255859e-01 2.999888956546783447e-01 6.758123636245727539e-01 2.454039454460144043e-01 8.526847958564758301e-01 5.747831985354423523e-02 4.768590033054351807e-01 7.085782289505004883e-01 -4.018287360668182373e-01 -5.324945226311683655e-02 -4.250830709934234619e-01
3.660469651222229004e-01 7.680638432502746582e-01 3.546915948390960693e-01 -1.801183521747589111e-01 -4.975995123386383057e-01 3.605395853519439697e-01 1.389904618263244629e-01 -2.376903444528579712e-01 1.017746329307556152e-02 -4.521356523036956787e-01 -2.625675201416015625e-01 -5.622125267982482910e-01 -7.655637711286544800e-02 -2.273665368556976318e-01 7.104159891605377197e-02 9.984682500362396240e-02 7.525476813316345215e-02 -2.291482836008071899e-01 -2.637276984751224518e-02 2.270796746015548706e-01 8.015426993370056152e-02 1.952893286943435669e-01 7.572780549526214600e-02 3.640905320644378662e-01 4.329897090792655945e-02 2.395071983337402344e-01 -6.913114190101623535e-01 7.844500988721847534e-02 -2.645872235298156738e-01 4.303168058395385742e-01 -2.567466795444488525e-01
-1.407041866332292557e-02 2.137691527605056763e-01 -1.627818495035171509e-01 9.547438472509384155e-02 4.360741376876831055e-02 1.709397733211517334e-01 2.686857283115386963e-01 -1.987290233373641968e-01 -9.296586364507675171e-02 -5.624365061521530151e-03 -1.198224499821662903e-01 2.136232107877731323e-01 2.707230448722839355e-01 -1.314386576414108276e-01 -5.598594620823860168e-02 -9.008112549781799316e-01 -4.489097297191619873e-01 -1.445998251438140869e-02 -6.753667443990707397e-02 -2.863085269927978516e-02 -1.284133791923522949e-01 -8.352009952068328857e-02 6.756536662578582764e-02 4.151492416858673096e-01 -2.922330796718597412e-01 5.260339379310607910e-01 4.113461375236511230e-01 -2.776371538639068604e-01 -1.419675499200820923e-01 -5.960059762001037598e-01 6.701661944389343262e-01
8.127338886260986328e-01 2.055814564228057861e-01 6.081253886222839355e-01 4.566881954669952393e-01 2.776629626750946045e-01 7.651825547218322754e-01 -3.594058007001876831e-02 -3.590139746665954590e-01 -2.788186967372894287e-01 -3.942854702472686768e-01 5.129885300993919373e-02 -1.118019580841064453e+00 -2.333202809095382690e-01 4.007725976407527924e-03 2.076652199029922485e-01 -2.939476966857910156e-01 6.536039710044860840e-02 5.730202421545982361e-02 2.594954967498779297e-01 -2.077876031398773193e-01 -1.064627468585968018e-01 -7.763844728469848633e-02 -1.195533350110054016e-01 -1.385762393474578857e-01 2.584224641323089600e-01 4.045618698000907898e-02 -1.326984167098999023e+00 8.122675120830535889e-02 1.400049179792404175e-01 -2.139322012662887573e-01 -1.272462010383605957e-01
3.389124274253845215e-01 -6.533984541893005371e-01 -6.815708279609680176e-01 -3.143405914306640625e-01 -3.423800170421600342e-01 3.075577914714813232e-01 2.773057818412780762e-01 1.867145597934722900e-01 1.645911186933517456e-01 2.316494286060333252e-01 -5.903052538633346558e-02 1.790882945060729980e-01 -1.022440493106842041e-01 4.778470396995544434e-01 6.660576909780502319e-02 2.859422266483306885e-01 -3.313196599483489990e-01 -9.924847632646560669e-02 -2.964475750923156738e-01 1.650449931621551514e-01 -4.127414226531982422e-01 -3.196875154972076416e-01 -4.352838695049285889e-01 -1.340882033109664917e-01 2.206182340160012245e-03 -1.785705983638763428e-01 2.529374659061431885e-01 -1.501423269510269165e-01 -1.705676764249801636e-01 -8.549121022224426270e-02 -1.326153725385665894e-01
3.022051975131034851e-02 1.542214900255203247e-01 -1.835964806377887726e-02 1.735818386077880859e-01 2.305556535720825195e-01 9.441613554954528809e-01 1.896424740552902222e-01 -6.049582958221435547e-01 2.205126732587814331e-01 2.951509356498718262e-01 1.803900599479675293e-01 4.337105751037597656e-01 -5.862724781036376953e-01 5.129454731941223145e-01 9.300097078084945679e-02 4.834255874156951904e-01 -2.690399587154388428e-01 1.070984750986099243e-01 3.475815057754516602e-02 1.644425392150878906e-01 8.146415464580059052e-03 2.923510409891605377e-02 -3.699162602424621582e-01 -5.739176273345947266e-01 -2.098894864320755005e-02 3.204385042190551758e-01 2.029405236244201660e-01 -6.390587240457534790e-02 -8.843384683132171631e-02 -1.678674668073654175e-01 5.499869585037231445e-02
6.135860085487365723e-01 1.172480583190917969e-01 7.523497343063354492e-01 7.439733743667602539e-01 7.243669629096984863e-01 -3.236601948738098145e-01 9.483451396226882935e-02 -1.136385723948478699e-01 7.799781113862991333e-02 -1.276540011167526245e-01 -2.120093703269958496e-01 2.731267511844635010e-01 9.637671709060668945e-02 -1.705638915300369263e-01 -3.889578878879547119e-01 -5.160840153694152832e-01 -5.163873359560966492e-02 -1.979823857545852661e-01 -2.845892906188964844e-01 -1.623857021331787109e-01 -1.403265446424484253e-02 3.585351407527923584e-01 3.110656440258026123e-01 2.163625955581665039e-01 -1.230295188724994659e-02 -4.195241630077362061e-01 -2.463567554950714111e-01 1.178753674030303955e-01 1.800681948661804199e-01 1.035006642341613770e+00 -1.841094940900802612e-01
1.929222494363784790e-01 2.648277282714843750e-01 -9.905280172824859619e-02 6.271406263113021851e-02 9.537620842456817627e-02 -6.481192540377378464e-03 -3.315953537821769714e-02 4.537437483668327332e-02 -9.254010021686553955e-02 -3.912407159805297852e-01 -5.717129260301589966e-02 -1.392934918403625488e-01 1.437069624662399292e-01 -4.678359627723693848e-01 -1.186596453189849854e-01 -3.920588493347167969e-01 -1.487339138984680176e-01 -7.649849634617567062e-03 3.934814035892486572e-02 1.044929698109626770e-01 -6.701110303401947021e-02 -2.217686921358108521e-02 -7.039558887481689453e-02 -1.236710846424102783e-01 -1.743627786636352539e-01 -2.190655320882797241e-01 -3.426757752895355225e-01 1.742399483919143677e-01 -1.704092919826507568e-01 -3.933655470609664917e-02 2.960385382175445557e-01
3.217294812202453613e-01 -1.087406650185585022e-01 4.913630709052085876e-02 -1.588713824748992920e-01 2.061790786683559418e-02 6.653380393981933594e-01 5.212933421134948730e-01 1.410491317510604858e-01 -1.406087577342987061e-01 -2.395627833902835846e-02 8.814843371510505676e-03 -1.216227281838655472e-02 -4.393403977155685425e-02 -3.891040980815887451e-01 -2.089691460132598877e-01 3.106002211570739746e-01 -2.470164448022842407e-01 -3.060008585453033447e-01 -6.991595029830932617e-02 1.638854444026947021e-01 -2.356963455677032471e-01 -1.162099912762641907e-01 -3.299839496612548828e-01 2.289043217897415161e-01 -1.361994445323944092e-01 -4.050308763980865479e-01 -1.882200315594673157e-02 1.532196104526519775e-01 8.047173619270324707e-01 -7.514695823192596436e-02 2.942908704280853271e-01
3.059023618698120117e-01 6.800580024719238281e-02 1.553214192390441895e-01 2.408435791730880737e-01 4.187358915805816650e-02 4.971724748611450195e-01 2.220597416162490845e-01 4.884170889854431152e-01 -2.082824856042861938e-01 -7.889674901962280273e-01 -4.003645777702331543e-01 -4.860065281391143799e-01 3.535487353801727295e-01 -1.967684179544448853e-01 -4.702064990997314453e-01 2.747881412506103516e-01 1.703986525535583496e-01 9.744771569967269897e-02 -9.760665893554687500e-02 3.549478352069854736e-01 1.426086015999317169e-02 -1.630476266145706177e-01 2.610079348087310791e-01 4.080362021923065186e-01 -7.698972476646304131e-04 -3.672577738761901855e-01 -4.254178404808044434e-01 2.891727909445762634e-02 7.272553443908691406e-02 -1.990395784378051758e-01 -1.690911874175071716e-02
-1.178836971521377563e-01 -4.233122467994689941e-01 -1.146397516131401062e-01 6.645983550697565079e-03 -1.186581403017044067e-01 1.243866980075836182e-02 4.816071689128875732e-02 -1.625396460294723511e-01 9.210942685604095459e-02 -1.264527887105941772e-01 8.592619001865386963e-02 -2.030126005411148071e-01 -2.294612117111682892e-02 3.212926983833312988e-01 2.885696291923522949e-01 1.640208363533020020e-01 2.944708429276943207e-02 3.235550522804260254e-01 2.501792013645172119e-01 4.519367516040802002e-01 -1.138659846037626266e-02 1.352863758802413940e-01 6.998627185821533203e-01 7.646790742874145508e-01 6.038316488265991211e-01 1.592128127813339233e-01 7.463464885950088501e-02 4.201672673225402832e-01 4.612756893038749695e-03 5.591027066111564636e-02 -6.100963950157165527e-01
2.835704088211059570e-01 2.445583492517471313e-01 -1.189310252666473389e-01 -2.582278251647949219e-01 -2.632335424423217773e-01 -1.019610047340393066e+00 -8.176864683628082275e-02 -5.758753046393394470e-02 9.711475670337677002e-02 2.566089332103729248e-01 -1.975325047969818115e-01 -6.834610365331172943e-03 -4.708269611001014709e-02 -2.229620665311813354e-01 -6.168088316917419434e-02 2.287721335887908936e-01 -1.561667770147323608e-01 -1.487439274787902832e-01 -1.610272675752639771e-01 1.363860070705413818e-01 1.809699833393096924e-01 -1.654704213142395020e-01 6.241868063807487488e-02 7.571819424629211426e-02 -2.316292524337768555e-01 6.672741472721099854e-02 3.480440378189086914e-01 1.964200139045715332e-01 3.374334052205085754e-02 -3.835683222860097885e-03 1.047458723187446594e-01
3.218967020511627197e-01 -4.689592868089675903e-02 -1.699823737144470215e-01 -2.349813133478164673e-01 -2.091885656118392944e-01 -3.563244342803955078e-01 3.903633356094360352e-02 3.581054136157035828e-02 7.351364195346832275e-02 1.486426498740911484e-02 -1.490372568368911743e-01 3.222140297293663025e-02 4.956314265727996826e-01 -4.535272717475891113e-01 -1.822664439678192139e-01 2.128186821937561035e-01 2.008016407489776611e-01 -3.446938395500183105e-01 -1.654340326786041260e-01 2.174185663461685181e-01 1.885279864072799683e-01 1.649743169546127319e-01 -4.269898310303688049e-02 2.520591020584106445e-01 5.369339883327484131e-02 1.801056228578090668e-02 -8.603312820196151733e-02 3.135689720511436462e-02 1.857089996337890625e-01 1.002012938261032104e-01 -2.000350970774888992e-03
-3.565454483032226562e-01 7.553190737962722778e-02 -3.508952558040618896e-01 -1.578728407621383667e-01 -1.475921720266342163e-01 9.880053251981735229e-02 2.395251691341400146e-01 5.615996941924095154e-02 -3.367539867758750916e-02 1.432205885648727417e-01 -7.298039644956588745e-02 1.933213472366333008e-01 -7.254107296466827393e-02 -7.898162305355072021e-02 -2.643138170242309570e-01 2.296955734491348267e-01 2.537235021591186523e-01 -3.205258846282958984e-01 -2.802259325981140137e-01 1.890656352043151855e-01 3.411746621131896973e-01 -5.757630802690982819e-03 -3.593249917030334473e-01 1.872499138116836548e-01 -2.241477966308593750e-01 1.601289212703704834e-01 -8.252196758985519409e-02 1.416415274143218994e-01 -1.278990060091018677e-01 -2.773319482803344727e-01 4.882822334766387939e-01
8.777726292610168457e-01 2.318343222141265869e-01 7.018107771873474121e-01 4.908711016178131104e-01 7.658002525568008423e-02 -1.249832138419151306e-01 4.422489926218986511e-02 -3.927111253142356873e-02 1.010798215866088867e-01 -2.993579804897308350e-01 -8.378808200359344482e-02 1.727735251188278198e-01 -1.272450685501098633e-01 -8.021198958158493042e-02 -1.654674112796783447e-01 -4.008590281009674072e-01 -5.349851027131080627e-02 1.447468250989913940e-01 8.250837773084640503e-02 4.839099571108818054e-02 7.152011990547180176e-02 -6.163052842020988464e-02 -1.636104583740234375e-01 2.086028009653091431e-01 2.945103049278259277e-01 -6.608619820326566696e-03 -3.590756952762603760e-01 -3.129576146602630615e-01 -3.644805848598480225e-01 -1.648282855749130249e-01 -1.111015900969505310e-01
4.457383453845977783e-01 -2.766779363155364990e-01 1.045437678694725037e-01 1.654288619756698608e-01 9.643129073083400726e-03 -4.595267474651336670e-01 -7.750827074050903320e-02 4.245317354798316956e-02 4.188543856143951416e-01 2.393966615200042725e-01 1.948599070310592651e-01 -1.544165760278701782e-01 8.837522007524967194e-03 -3.279221951961517334e-01 4.841478914022445679e-02 -5.488584935665130615e-02 -6.218216568231582642e-02 -8.513759821653366089e-02 1.679362058639526367e-01 2.623940706253051758e-01 3.501689061522483826e-02 -1.112532019615173340e-01 2.761310338973999023e-01 2.616606652736663818e-01 1.242814511060714722e-01 -3.068184554576873779e-01 9.074570238590240479e-02 2.235604971647262573e-01 -1.111789867281913757e-01 1.727209426462650299e-02 -7.705413550138473511e-02
2.879986763000488281e-01 5.883003473281860352e-01 4.715352952480316162e-01 3.101643323898315430e-01 6.050248071551322937e-02 -1.322034358978271484e+00 1.606382876634597778e-01 1.252392213791608810e-02 -6.083668768405914307e-02 2.180160284042358398e-01 2.741770446300506592e-02 -7.014555484056472778e-02 -1.675072014331817627e-01 -5.973616242408752441e-02 -3.236270248889923096e-01 -4.314792156219482422e-01 -3.618685007095336914e-01 -1.830031722784042358e-01 -3.332279026508331299e-01 8.119766414165496826e-02 3.985000774264335632e-02 -1.572815477848052979e-01 -1.092182099819183350e-01 5.294337868690490723e-01 2.145397849380970001e-02 -2.396335452795028687e-01 1.468413975089788437e-04 1.126620322465896606e-01 -4.205108284950256348e-01 6.646368652582168579e-02 4.968114942312240601e-02
3.779725134372711182e-01 1.207103371620178223e+00 2.877677381038665771e-01 -1.283106803894042969e-01 -4.960141330957412720e-02 1.819049268960952759e-01 5.359624028205871582e-01 -1.020705699920654297e+00 -1.584323495626449585e-01 1.873909980058670044e-01 -2.515138685703277588e-01 3.030740618705749512e-01 -5.744165182113647461e-01 -2.879013121128082275e-01 -2.293938994407653809e-01 4.688743501901626587e-02 1.052909716963768005e-01 -2.026171386241912842e-01 -9.466571360826492310e-02 3.202178180217742920e-01 3.368921875953674316e-01 -2.466225326061248779e-01 -5.700215697288513184e-01 -2.195263952016830444e-01 -1.363407075405120850e-01 -1.584564745426177979e-01 3.471238911151885986e-01 -1.125869601964950562e-01 3.432169556617736816e-01 -1.763093918561935425e-01 -2.090267539024353027e-01
-1.241563707590103149e-01 -2.994614243507385254e-01 7.222171872854232788e-02 -5.052869673818349838e-03 -1.537688672542572021e-01 -3.147389888763427734e-01 -2.007763683795928955e-01 -1.214774250984191895e-01 -5.248368382453918457e-01 6.546121835708618164e-02 -1.256672888994216919e-01 -5.036257952451705933e-02 3.274268209934234619e-01 -3.962719440460205078e-01 -1.291310191154479980e-01 2.369028516113758087e-02 1.685683578252792358e-01 -1.867620646953582764e-01 -2.488898336887359619e-01 -9.501416981220245361e-02 -2.464924156665802002e-01 -9.731968492269515991e-02 3.838637769222259521e-01 -1.406969130039215088e-01 3.736405372619628906e-01 6.945057958364486694e-02 4.480601251125335693e-01 2.430948317050933838e-01 8.567763119935989380e-02 -2.783732414245605469e-01 -2.656728327274322510e-01
4.043681025505065918e-01 -4.666031524538993835e-02 2.964544594287872314e-01 2.724058330059051514e-01 8.872932195663452148e-02 -3.094180524349212646e-01 2.007047235965728760e-01 -7.667946815490722656e-02 2.169193178415298462e-01 -6.530418992042541504e-02 -5.520806908607482910e-01 -7.505801916122436523e-01 -1.421769410371780396e-01 -7.404816895723342896e-02 -2.431303560733795166e-01 -2.214583754539489746e-02 -7.757370918989181519e-02 -1.309517621994018555e-01 -2.592636346817016602e-01 2.325386926531791687e-02 -1.246556714177131653e-01 -2.622895240783691406e-01 -2.196876704692840576e-02 4.462570250034332275e-01 7.864169031381607056e-02 -6.833087652921676636e-02 -1.845972836017608643e-01 4.228903353214263916e-02 -4.149331897497177124e-02 -4.161711931228637695e-01 4.978740960359573364e-02
-5.152018666267395020e-01 -1.499895453453063965e-01 9.859916567802429199e-02 2.594560384750366211e-01 7.933810353279113770e-02 -1.755959689617156982e-01 1.312121003866195679e-01 -8.325576782226562500e-01 1.259210407733917236e-01 2.354277484118938446e-02 -1.769059151411056519e-01 -1.727417260408401489e-01 -3.846633136272430420e-01 8.544508367776870728e-02 -1.534594297409057617e-01 3.206739723682403564e-01 2.053105272352695465e-02 -2.134456783533096313e-01 -2.236764430999755859e-01 2.176611274480819702e-01 1.990791410207748413e-01 5.403199791908264160e-01 4.190941154956817627e-01 1.375543117523193359e+00 1.761964112520217896e-01 7.199364900588989258e-01 -3.147019743919372559e-01 -9.569370001554489136e-02 -1.250032335519790649e-01 1.251004785299301147e-01 1.893268078565597534e-01
3.642499446868896484e-01 1.141319155693054199e+00 5.622988343238830566e-01 5.204862356185913086e-02 -3.379033505916595459e-02 -5.277619361877441406e-01 2.973146140575408936e-01 -1.647445410490036011e-01 5.295366980135440826e-03 7.665672302246093750e-01 -2.189067155122756958e-01 2.722019851207733154e-01 3.036136329174041748e-01 -7.002890855073928833e-02 -5.296329408884048462e-02 4.651783779263496399e-02 -3.470923006534576416e-01 -1.688430011272430420e-01 -8.298083394765853882e-02 2.943020164966583252e-01 1.339291632175445557e-01 1.036038994789123535e-01 -1.699944734573364258e-01 -1.353796273469924927e-01 1.654772162437438965e-01 1.210174337029457092e-01 4.122134447097778320e-01 2.220066078007221222e-02 -2.522767484188079834e-01 4.607957974076271057e-02 3.831300884485244751e-02
1.988679021596908569e-01 3.048225641250610352e-01 4.220534861087799072e-02 -6.622339040040969849e-02 -2.949950844049453735e-02 6.342968903481960297e-03 4.575395882129669189e-01 1.850168853998184204e-01 -8.227786421775817871e-02 2.370578944683074951e-01 -4.597121477127075195e-01 3.163062930107116699e-01 1.748842447996139526e-01 -8.143445849418640137e-01 -6.714626550674438477e-01 -7.619836181402206421e-02 -1.317441463470458984e-01 -6.009624004364013672e-01 -5.567998886108398438e-01 2.664240002632141113e-01 4.424454569816589355e-01 -2.543584257364273071e-02 -1.882697492837905884e-01 2.564753890037536621e-01 -6.261676549911499023e-02 3.393350541591644287e-01 -1.362190097570419312e-01 1.800175458192825317e-01 6.575630307197570801e-01 -1.129971444606781006e-01 7.933549582958221436e-03
-7.773522138595581055e-01 1.355614364147186279e-01 -8.978493511676788330e-02 3.067397698760032654e-02 -4.831355437636375427e-02 -7.006183266639709473e-01 5.363631844520568848e-01 4.603274166584014893e-01 4.246057569980621338e-01 6.466816663742065430e-01 1.833163201808929443e-01 3.642449676990509033e-01 4.103935956954956055e-01 4.747163057327270508e-01 -1.896770894527435303e-01 2.157346010208129883e-01 5.944486856460571289e-01 3.987672924995422363e-01 1.791700273752212524e-01 4.967365562915802002e-01 2.178770005702972412e-01 -2.159216254949569702e-01 -4.756222665309906006e-01 -1.375543475151062012e-01 2.375744655728340149e-02 -3.489729464054107666e-01 3.553207814693450928e-01 1.949296891689300537e-01 -4.642816185951232910e-01 -5.475440621376037598e-01 -1.559988558292388916e-01
2.746679484844207764e-01 -7.498440146446228027e-02 -4.654957726597785950e-02 5.962146818637847900e-02 -2.032761722803115845e-01 1.083907857537269592e-01 7.609316613525152206e-03 -3.173404932022094727e-01 5.201195552945137024e-02 -2.852855622768402100e-01 2.927047908306121826e-01 -2.255055755376815796e-01 -3.359207212924957275e-01 4.201093688607215881e-02 9.511446952819824219e-02 4.531179070472717285e-01 -2.329963147640228271e-01 8.867747336626052856e-02 1.072718948125839233e-01 2.922039330005645752e-01 -5.092443525791168213e-02 -3.646105825901031494e-01 -8.136066026054322720e-04 -3.549627214670181274e-02 4.181984066963195801e-02 -2.062679231166839600e-01 1.327164769172668457e-01 8.105178922414779663e-02 -5.112388730049133301e-01 -3.236595094203948975e-01 5.156203359365463257e-02
3.556370139122009277e-01 4.828933179378509521e-01 5.534996092319488525e-02 -8.273033797740936279e-02 1.278571784496307373e-01 -3.724643290042877197e-01 -4.821244776248931885e-01 3.075689077377319336e-01 3.135441839694976807e-01 -2.174477875232696533e-01 5.602103471755981445e-01 3.360271826386451721e-02 1.793127655982971191e-01 4.502301812171936035e-01 5.774062275886535645e-01 1.923440098762512207e-01 2.677424252033233643e-01 4.708902835845947266e-01 4.712586700916290283e-01 -9.427526593208312988e-02 -1.040929183363914490e-01 -1.132241357117891312e-02 4.710749685764312744e-01 3.779785931110382080e-01 1.354146599769592285e-01 -4.049599170684814453e-01 -7.128055393695831299e-02 2.389467880129814148e-02 4.934756085276603699e-02 1.470493674278259277e-01 -1.567326933145523071e-01
6.389821767807006836e-01 -6.305522918701171875e-01 -5.234014987945556641e-01 -3.074994087219238281e-01 -9.195089340209960938e-02 3.986009955406188965e-02 -2.784391045570373535e-01 8.775563910603523254e-03 -9.315250068902969360e-02 -5.124943852424621582e-01 2.210496962070465088e-01 -2.269727438688278198e-01 8.741164207458496094e-02 2.856085896492004395e-01 3.369148969650268555e-01 -1.520145535469055176e-01 -1.808474808931350708e-01 3.152527809143066406e-01 2.369405478239059448e-01 -1.573869735002517700e-01 -1.940016746520996094e-01 4.225646704435348511e-02 1.139064505696296692e-01 -4.182511568069458008e-01 -4.310472011566162109e-01 3.832231760025024414e-01 -3.472483456134796143e-01 -3.406618833541870117e-01 2.652286887168884277e-01 2.061791270971298218e-01 7.700803279876708984e-01
4.021137058734893799e-01 3.118627667427062988e-01 2.212388515472412109e-01 -1.004498153924942017e-01 -3.476820290088653564e-01 7.200738042593002319e-02 -1.489878352731466293e-02 3.285202980041503906e-01 1.076350286602973938e-01 -1.278781592845916748e-01 -4.103810787200927734e-01 -7.608053088188171387e-02 -2.287983149290084839e-01 4.446318373084068298e-02 -1.772371083498001099e-01 3.279601633548736572e-01 -6.366309523582458496e-02 -3.263673782348632812e-01 -2.717393338680267334e-01 3.218367993831634521e-01 3.931250423192977905e-02 -1.742811948060989380e-01 -1.352184712886810303e-01 -2.868034541606903076e-01 -1.227469593286514282e-01 2.726409137248992920e-01 1.629797667264938354e-01 -1.143078356981277466e-01 -6.112208217382431030e-02 -4.406072199344635010e-01 1.440163254737854004e-01
1.262748390436172485e-01 2.977529466152191162e-01 -9.848567843437194824e-02 -2.191195935010910034e-01 -1.317846179008483887e-01 -1.408979892730712891e-01 2.413522452116012573e-02 1.484153270721435547e-01 5.332040041685104370e-02 2.036116421222686768e-01 -1.758228838443756104e-01 2.376797348260879517e-01 -9.815138764679431915e-03 -2.022141367197036743e-01 -2.097092866897583008e-01 1.825174987316131592e-01 -6.279293913394212723e-03 -4.773305356502532959e-01 -4.024249315261840820e-01 2.060353457927703857e-01 1.189157813787460327e-01 7.221228629350662231e-02 -2.473912686109542847e-01 -1.176669672131538391e-01 -2.681109011173248291e-01 2.445149868726730347e-01 2.112688869237899780e-01 7.976045832037925720e-03 -1.487018615007400513e-01 1.685428991913795471e-02 2.964458763599395752e-01
2.253434658050537109e-01 -1.530638337135314941e-01 2.210320383310317993e-01 2.387612462043762207e-01 1.149438396096229553e-01 1.662244051694869995e-01 6.484043598175048828e-02 -2.277977466583251953e-01 6.794860959053039551e-01 3.121545352041721344e-02 2.543044984340667725e-01 2.659853696823120117e-01 -5.210401415824890137e-01 -6.639119237661361694e-02 2.174980044364929199e-01 2.024089843034744263e-01 -2.751367986202239990e-01 7.508653402328491211e-02 2.650707662105560303e-01 -4.178410023450851440e-02 -5.252465978264808655e-02 3.029330372810363770e-01 -8.643651381134986877e-03 -3.529053628444671631e-01 -1.794989258050918579e-01 2.142850756645202637e-01 4.084071516990661621e-01 -2.754752635955810547e-01 -9.946376830339431763e-02 5.199276655912399292e-02 3.295963704586029053e-01
4.878580868244171143e-01 2.485214790794998407e-04 1.437372565269470215e-01 2.049373984336853027e-01 3.407534211874008179e-02 -2.179992049932479858e-01 1.358028650283813477e-01 3.656037896871566772e-02 -6.279750913381576538e-02 1.043830066919326782e-01 -3.127391636371612549e-02 -6.806177645921707153e-02 -1.484249830245971680e-01 1.769642978906631470e-01 3.975063264369964600e-01 -2.432020194828510284e-02 -2.775290049612522125e-02 -4.228116571903228760e-02 1.166926398873329163e-01 -7.835862040519714355e-02 -3.844728693366050720e-02 -1.678605079650878906e-01 -9.393287450075149536e-02 -4.444225877523422241e-02 -5.089968070387840271e-02 1.763840168714523315e-01 3.293786942958831787e-02 -1.166175976395606995e-01 -2.390596270561218262e-01 -9.490405768156051636e-02 2.010819911956787109e-01
3.202300965785980225e-01 -1.204527691006660461e-01 2.558542601764202118e-02 1.616165786981582642e-01 1.055311560630798340e-01 2.558727748692035675e-02 5.522350072860717773e-01 -3.356607630848884583e-02 -2.956648468971252441e-01 -1.303930580615997314e-01 -1.456511467695236206e-01 2.184193730354309082e-01 -5.838422775268554688e-01 -1.071604967117309570e+00 -5.199402570724487305e-01 3.609313964843750000e-01 3.390029072761535645e-01 -6.176108866930007935e-02 1.321352720260620117e-01 2.100106328725814819e-01 2.541580200195312500e-01 4.384616315364837646e-01 1.028807014226913452e-01 6.641939878463745117e-01 7.482593655586242676e-01 5.913837626576423645e-02 -2.920229732990264893e-01 4.457880556583404541e-01 -6.926009058952331543e-02 3.235333133488893509e-03 -3.825244307518005371e-01
-7.743222266435623169e-02 1.308644413948059082e-01 -4.428839683532714844e-01 -4.501298069953918457e-01 -1.852244287729263306e-01 -3.421325087547302246e-01 3.225624859333038330e-01 9.306563436985015869e-02 6.690971553325653076e-03 2.043112516403198242e-01 3.832757472991943359e-02 2.555810511112213135e-01 -1.824815869331359863e-01 -1.473793238401412964e-01 -2.149634659290313721e-01 1.835367977619171143e-01 2.179502397775650024e-01 -1.517316699028015137e-01 -6.824728846549987793e-02 5.835008621215820312e-01 4.065325260162353516e-01 3.146789669990539551e-01 -4.174722433090209961e-01 2.120200842618942261e-01 -1.373947411775588989e-01 -5.978174507617950439e-03 -8.049307018518447876e-02 3.917220532894134521e-01 -8.710192888975143433e-02 7.602056115865707397e-02 2.585039436817169189e-01
2.704964876174926758e-01 6.095129847526550293e-01 3.003286421298980713e-01 8.113944530487060547e-02 -6.331782042980194092e-02 5.217790231108665466e-02 9.801221080124378204e-03 -5.715419054031372070e-01 -2.525508105754852295e-01 2.367545962333679199e-01 -1.047546118497848511e-01 2.617964446544647217e-01 1.398488134145736694e-01 1.193563565611839294e-01 -2.768875956535339355e-01 2.361948937177658081e-01 2.026353925466537476e-01 -2.307538837194442749e-01 -3.486024737358093262e-01 1.392416357994079590e-01 9.753198176622390747e-02 -3.146857321262359619e-01 1.657689362764358521e-01 3.969573415815830231e-03 -3.910838440060615540e-02 2.358902692794799805e-01 -2.176761925220489502e-01 -5.306615307927131653e-02 -1.212129294872283936e-01 -1.337448507547378540e-01 -1.855612359941005707e-02
1.416601091623306274e-01 -5.006157159805297852e-01 -4.179791510105133057e-01 7.533337175846099854e-02 -2.188785672187805176e-01 4.930619522929191589e-02 -3.271479904651641846e-02 3.289252817630767822e-01 1.470846962183713913e-02 -2.699033319950103760e-01 -3.174229264259338379e-01 5.941915139555931091e-02 6.311188936233520508e-01 2.129869163036346436e-01 -2.364499866962432861e-01 1.781719028949737549e-01 -1.479355990886688232e-01 -3.042923212051391602e-01 -3.904106318950653076e-01 3.555530309677124023e-02 -2.288651019334793091e-01 3.800863623619079590e-01 -3.682235181331634521e-01 -3.135993778705596924e-01 2.126509547233581543e-01 -4.885878562927246094e-01 -2.501981258392333984e-01 3.994342684745788574e-01 3.660970032215118408e-01 5.681939125061035156e-01 -3.973094522953033447e-01
1.822274029254913330e-01 -2.104184776544570923e-01 3.459104895591735840e-01 1.972028464078903198e-01 2.474170476198196411e-01 2.816501855850219727e-01 5.573215484619140625e-01 -4.671894311904907227e-01 3.425056338310241699e-01 5.317503809928894043e-01 3.284334242343902588e-01 -3.506544977426528931e-02 3.154294192790985107e-02 -5.549342036247253418e-01 -1.420530229806900024e-01 1.815738528966903687e-01 -3.067798912525177002e-02 -2.811711728572845459e-01 4.792932793498039246e-02 4.581966400146484375e-01 1.972353607416152954e-01 3.078939951956272125e-02 -5.366938710212707520e-01 -1.348467916250228882e-02 1.297312676906585693e-01 -1.668549925088882446e-01 6.245037913322448730e-01 -1.716551035642623901e-01 3.116604983806610107e-01 7.710333168506622314e-02 -2.593103349208831787e-01
1.001357808709144592e-01 -2.289906702935695648e-02 7.331930845975875854e-02 3.761701285839080811e-01 1.587758660316467285e-01 -3.531315177679061890e-02 -3.229294717311859131e-01 -1.059801951050758362e-01 -5.124416351318359375e-01 1.971789076924324036e-02 1.764654517173767090e-01 1.405979841947555542e-01 -4.228492975234985352e-01 3.402752280235290527e-01 -2.526823580265045166e-01 -4.302630722522735596e-01 -1.752229332923889160e-01 3.972993195056915283e-01 1.657929867506027222e-01 -2.343233674764633179e-01 -3.741604387760162354e-01 -3.041215986013412476e-02 4.952495694160461426e-01 -4.468633830547332764e-01 2.705115675926208496e-01 7.103438256308436394e-04 3.512627482414245605e-01 2.128472775220870972e-01 -4.211766123771667480e-01 2.142327651381492615e-02 -4.834921285510063171e-02
5.891880393028259277e-01 1.586455553770065308e-01 6.792328357696533203e-01 2.284623384475708008e-01 -2.554895170032978058e-02 1.445519626140594482e-01 3.039689958095550537e-01 6.300789862871170044e-02 2.755787670612335205e-01 -3.713695704936981201e-01 -2.401073575019836426e-01 6.854955106973648071e-02 -1.775247752666473389e-01 -5.413536448031663895e-03 -7.445332407951354980e-02 -1.219638586044311523e-01 9.732022136449813843e-02 3.906877338886260986e-02 -2.078744024038314819e-02 -5.699733644723892212e-02 4.893940687179565430e-02 3.499260842800140381e-01 -2.086134999990463257e-01 3.525537848472595215e-01 2.634843587875366211e-01 2.478630840778350830e-01 1.325278431177139282e-01 -2.284218370914459229e-01 -2.841817140579223633e-01 -1.454537957906723022e-01 6.137551739811897278e-02
2.654624544084072113e-02 8.605942130088806152e-01 1.077823162078857422e+00 8.003497123718261719e-01 3.922285437583923340e-01 -3.954337909817695618e-02 -8.354046940803527832e-02 -1.081310585141181946e-01 -1.159504726529121399e-01 -2.473038285970687866e-01 -1.411872804164886475e-01 -1.791485100984573364e-01 -2.368863672018051147e-01 1.169862896203994751e-01 -1.288266181945800781e-01 7.508530467748641968e-02 1.574672013521194458e-01 -7.823325693607330322e-02 3.622337430715560913e-02 1.615018211305141449e-02 -2.581699751317501068e-02 -1.449834853410720825e-01 -1.393494457006454468e-01 -2.201828174293041229e-02 -1.198458895087242126e-01 1.081917509436607361e-01 -3.669645190238952637e-01 8.816216886043548584e-02 1.987457126379013062e-01 -3.329797685146331787e-01 2.120889872312545776e-01
4.846944212913513184e-01 1.405898630619049072e-01 3.578240275382995605e-01 4.856643080711364746e-01 5.662022829055786133e-01 9.788935631513595581e-02 -7.424314320087432861e-02 4.113847389817237854e-02 1.661483198404312134e-01 6.169759482145309448e-02 1.512708365917205811e-01 -6.485591083765029907e-02 2.895528078079223633e-01 2.577484250068664551e-01 5.896600335836410522e-02 -2.170453369617462158e-01 -1.630407720804214478e-01 2.614151835441589355e-01 2.646732926368713379e-01 -1.397931873798370361e-01 -1.225958913564682007e-01 5.355527624487876892e-02 4.201355576515197754e-01 -1.841716617345809937e-01 4.162905365228652954e-02 3.615793883800506592e-01 2.704721093177795410e-01 2.007240802049636841e-01 1.551321446895599365e-01 6.333934515714645386e-02 2.050115764141082764e-01
1.585181504487991333e-01 -2.552930712699890137e-01 -2.423296272754669189e-01 9.729580953717231750e-03 -7.146699726581573486e-02 1.033129543066024780e-01 -3.191890418529510498e-01 4.103763997554779053e-01 2.300846204161643982e-02 -1.653570234775543213e-01 7.723689824342727661e-02 -1.704787611961364746e-01 2.714039087295532227e-01 9.440443664789199829e-02 6.461387127637863159e-02 2.541252784430980682e-02 -1.684070527553558350e-01 6.036993116140365601e-02 1.456335335969924927e-01 -1.718793809413909912e-02 -2.409246414899826050e-01 1.256126463413238525e-01 9.944239258766174316e-02 -2.627449333667755127e-01 -1.277029216289520264e-01 1.405604183673858643e-01 3.025654889643192291e-02 -1.532473862171173096e-01 -2.570234835147857666e-01 2.097585797309875488e-01 3.316889703273773193e-01
3.751882910728454590e-02 6.241688132286071777e-02 2.267342805862426758e-01 6.034138798713684082e-01 4.850047528743743896e-01 1.918932646512985229e-01 -1.812856346368789673e-01 1.459144949913024902e-01 6.443320959806442261e-02 -4.224696755409240723e-02 -8.675590753555297852e-01 -2.656069397926330566e-01 -8.592189103364944458e-02 -5.470858216285705566e-01 -2.444585114717483521e-01 -5.648905038833618164e-01 -4.880098160356283188e-03 -5.739902853965759277e-01 -3.864737153053283691e-01 -7.691052556037902832e-02 -1.305655576288700104e-02 3.768600225448608398e-01 -1.206352040171623230e-01 -1.131977811455726624e-01 2.394175082445144653e-01 -3.710651099681854248e-01 -2.659177184104919434e-01 3.592863082885742188e-01 1.122923661023378372e-02 3.443123996257781982e-01 -1.217991262674331665e-01
3.355044424533843994e-01 1.282207727432250977e+00 2.430227696895599365e-01 7.102638483047485352e-01 4.544903039932250977e-01 5.326962471008300781e-02 2.381724566221237183e-01 -1.711717993021011353e-01 -1.935696452856063843e-01 -1.732315719127655029e-01 9.567172825336456299e-02 9.544092416763305664e-02 -2.105390727519989014e-01 -3.576179146766662598e-01 -1.777951866388320923e-01 2.255669534206390381e-01 -3.776446580886840820e-01 -1.641172915697097778e-01 -3.102903254330158234e-02 2.040909370407462120e-03 -2.364098578691482544e-01 -1.689235568046569824e-01 -1.765659451484680176e-01 -1.569350510835647583e-01 5.969247594475746155e-02 -6.051905825734138489e-02 2.735738456249237061e-01 3.037374615669250488e-01 1.597975939512252808e-01 -2.733143568038940430e-01 3.052801489830017090e-01
3.670580685138702393e-01 6.893826276063919067e-02 -7.860368490219116211e-02 -7.721541821956634521e-02 -8.209068328142166138e-03 -3.476638197898864746e-01 1.627617627382278442e-01 -3.723179101943969727e-01 -3.407860398292541504e-01 6.032547354698181152e-02 6.149096786975860596e-02 3.239365518093109131e-01 2.661530859768390656e-02 -2.730768620967864990e-01 -4.376488029956817627e-01 -1.224314272403717041e-01 -2.676702141761779785e-01 -1.788844466209411621e-01 -3.076705038547515869e-01 2.356764627620577812e-03 -3.435530886054039001e-02 1.836829632520675659e-01 -2.312411069869995117e-01 -2.960863113403320312e-01 -4.152183830738067627e-01 2.252237200736999512e-01 -1.530899256467819214e-01 -9.753452241420745850e-02 -3.569382727146148682e-01 3.150639235973358154e-01 2.516044676303863525e-01
4.737657010555267334e-01 -3.564835712313652039e-02 4.792940020561218262e-01 3.649094402790069580e-01 1.927532404661178589e-01 7.846699655055999756e-02 -4.287672694772481918e-03 6.235212087631225586e-01 3.728542625904083252e-01 1.671777516603469849e-01 -3.031021058559417725e-01 -1.024340540170669556e-01 1.293067336082458496e-01 -3.649137020111083984e-01 -6.205918788909912109e-01 1.609389483928680420e-01 -2.072398923337459564e-02 -9.001294374465942383e-01 -7.137852907180786133e-01 1.669420450925827026e-01 -3.472014889121055603e-02 3.131823837757110596e-01 -2.790358662605285645e-01 -3.456980288028717041e-01 5.295812487602233887e-01 -1.532776802778244019e-01 -5.755193904042243958e-02 2.406782284379005432e-02 -2.384215444326400757e-01 -2.451628297567367554e-01 -4.132368415594100952e-02
7.015581130981445312e-01 -9.760209172964096069e-02 -1.798358261585235596e-01 1.327909529209136963e-01 -1.923711895942687988e-01 -5.695642903447151184e-02 1.522209960967302322e-02 -4.469612240791320801e-02 1.121980845928192139e-01 1.264501661062240601e-01 3.108235895633697510e-01 -2.377311326563358307e-02 1.287365257740020752e-01 2.777129709720611572e-01 1.634512841701507568e-01 -4.457220435142517090e-03 1.131268218159675598e-01 1.532681882381439209e-01 1.015648692846298218e-01 -9.754271246492862701e-03 -6.877155601978302002e-02 1.666380614042282104e-01 1.251560747623443604e-01 7.263482082635164261e-03 1.154417078942060471e-02 6.496483832597732544e-02 1.344552934169769287e-01 -1.549371927976608276e-01 3.295340538024902344e-01 1.859979629516601562e-01 -2.610371410846710205e-01
6.325864791870117188e-01 3.591170608997344971e-01 -4.057005047798156738e-02 2.742570340633392334e-01 2.230601906776428223e-01 -1.744254082441329956e-01 -3.510200679302215576e-01 1.767666786909103394e-01 -1.198910325765609741e-01 -2.601767480373382568e-01 5.995658412575721741e-02 3.100955784320831299e-01 -1.546023190021514893e-01 1.008671075105667114e-01 8.650826662778854370e-02 -3.212489485740661621e-01 -3.526820838451385498e-01 4.840745031833648682e-02 7.578773796558380127e-02 9.587151557207107544e-02 -2.600648105144500732e-01 1.076615527272224426e-01 2.710103988647460938e-01 -6.723380088806152344e-01 -3.318665921688079834e-01 1.333868950605392456e-01 1.665752381086349487e-02 1.703340187668800354e-02 4.012956321239471436e-01 9.279779344797134399e-02 7.356742620468139648e-01
-3.406240791082382202e-02 -3.779661655426025391e-01 -2.155463993549346924e-01 -6.571182981133460999e-03 8.739113062620162964e-02 -8.797643333673477173e-02 -2.014939039945602417e-01 1.810037195682525635e-01 8.397274464368820190e-02 -3.536028861999511719e-01 9.664279222488403320e-02 -3.928743302822113037e-01 1.215974837541580200e-01 9.281708300113677979e-02 2.262444049119949341e-01 -4.203421473503112793e-01 3.441238701343536377e-01 2.586250305175781250e-01 3.092026710510253906e-01 4.568834602832794189e-02 7.448454201221466064e-02 5.258744955062866211e-01 2.867682278156280518e-01 -2.854435518383979797e-02 9.205717593431472778e-02 1.755133718252182007e-01 -5.053569078445434570e-01 -1.192537993192672729e-01 3.100511133670806885e-01 2.544499039649963379e-01 1.019240841269493103e-01
3.600941300392150879e-01 1.771224588155746460e-01 7.124368846416473389e-02 2.192595154047012329e-01 7.483248412609100342e-02 3.031745851039886475e-01 -3.404608927667140961e-03 -5.000544246286153793e-03 3.453388214111328125e-01 -2.904502153396606445e-01 2.247837334871292114e-01 -4.158609211444854736e-01 -4.360662028193473816e-02 -4.432356655597686768e-01 1.621206998825073242e-01 1.573425382375717163e-01 -3.448162674903869629e-01 7.128338515758514404e-02 1.643098592758178711e-01 6.534861773252487183e-02 -3.879965469241142273e-02 1.086018383502960205e-01 1.148171424865722656e-01 1.709800809621810913e-01 -3.354636430740356445e-01 1.827702373266220093e-01 -5.350309610366821289e-02 -7.588545978069305420e-02 -3.049152903258800507e-02 1.530447751283645630e-01 5.331400036811828613e-02
4.691391587257385254e-01 2.070804834365844727e-01 1.266141980886459351e-01 1.559083610773086548e-01 -7.464975118637084961e-02 2.847365438938140869e-01 1.670762337744235992e-02 -2.543158829212188721e-01 2.552199363708496094e-02 -3.860001638531684875e-02 -3.014473617076873779e-01 -2.242273390293121338e-01 -2.250802218914031982e-01 -2.046740353107452393e-01 -1.183198466897010803e-01 -2.569715119898319244e-02 -3.098525404930114746e-01 -5.141273140907287598e-02 -6.195055693387985229e-02 1.375955492258071899e-01 -9.351752698421478271e-02 2.525950968265533447e-02 1.741731464862823486e-01 9.508673101663589478e-02 -5.837698653340339661e-02 8.227500133216381073e-03 8.047199994325637817e-02 3.021327406167984009e-02 1.289577782154083252e-01 2.425557076930999756e-01 1.258262842893600464e-01
1.222972497344017029e-01 7.762320637702941895e-01 2.070770561695098877e-01 9.716495871543884277e-02 -2.011866495013237000e-02 1.904822736978530884e-01 1.358039230108261108e-01 1.335246264934539795e-01 1.184199601411819458e-01 -2.196018993854522705e-01 5.900195799767971039e-03 -1.723611503839492798e-01 -1.257437020540237427e-01 -4.675269126892089844e-02 -1.524999588727951050e-01 -2.433109581470489502e-01 -1.989848613739013672e-01 9.323856979608535767e-02 1.857831776142120361e-01 1.043315455317497253e-01 -4.080432653427124023e-02 1.087995767593383789e-01 1.295260339975357056e-01 -1.028547212481498718e-01 -5.216928943991661072e-02 8.676155470311641693e-03 -7.241547852754592896e-02 1.943984627723693848e-01 -8.157592266798019409e-02 -1.882025450468063354e-01 -8.752377331256866455e-02
3.093634843826293945e-01 2.662752568721771240e-01 2.487190067768096924e-01 1.195409893989562988e-01 1.897992752492427826e-02 2.255896627902984619e-01 5.181376934051513672e-01 6.337939202785491943e-02 2.738769166171550751e-02 -3.834359943866729736e-01 -4.783596992492675781e-01 3.409069776535034180e-01 1.633433848619461060e-01 -3.164748847484588623e-01 -4.228336811065673828e-01 6.771814823150634766e-01 3.179561495780944824e-01 2.536402046680450439e-01 2.486826330423355103e-01 7.520572543144226074e-01 2.431058287620544434e-01 -1.784979924559593201e-02 -1.430406272411346436e-01 3.275492787361145020e-01 -1.311877965927124023e-01 -1.741869002580642700e-01 6.763409823179244995e-02 -8.692022413015365601e-02 -6.366898864507675171e-02 -9.860042482614517212e-03 2.022593095898628235e-02
5.475617647171020508e-01 -2.556459903717041016e-01 4.993467405438423157e-02 5.159498453140258789e-01 3.362526893615722656e-01 -1.708934158086776733e-01 -1.808579862117767334e-01 -1.711162179708480835e-02 2.392676919698715210e-01 1.773630082607269287e-01 1.465021669864654541e-01 -3.390798345208168030e-02 -1.178364008665084839e-01 -6.451812386512756348e-02 -3.958711400628089905e-02 -4.698163270950317383e-02 -3.401938676834106445e-01 5.519213527441024780e-02 1.060815341770648956e-02 -6.408001482486724854e-02 -1.790702790021896362e-01 1.121046319603919983e-01 3.397110402584075928e-01 -1.728777289390563965e-01 -4.783146083354949951e-01 3.413576483726501465e-01 2.965807318687438965e-01 -3.872603774070739746e-01 -2.177250385284423828e-01 2.632119134068489075e-02 5.958738923072814941e-01
3.346817195415496826e-01 -5.891819596290588379e-01 -2.674050629138946533e-01 5.620960518717765808e-02 -1.077714469283819199e-02 -1.330036640167236328e+00 1.676651686429977417e-01 -1.460187584161758423e-01 4.468628764152526855e-01 2.904976904392242432e-02 2.980527281761169434e-01 -2.078161686658859253e-01 -1.073769629001617432e-01 -6.929197907447814941e-02 -1.101459413766860962e-01 7.007404416799545288e-02 -1.456339806318283081e-01 6.771099567413330078e-02 5.547791346907615662e-02 -5.786142870783805847e-02 -2.501971125602722168e-01 -2.340187877416610718e-02 2.676572836935520172e-02 1.123976558446884155e-01 2.493478655815124512e-01 -1.132051050662994385e-01 -1.780450530350208282e-02 -1.412521395832300186e-02 -1.241173818707466125e-01 2.761781588196754456e-02 -2.964051365852355957e-01
3.357434570789337158e-01 -3.026066124439239502e-01 -1.638065278530120850e-01 3.737687319517135620e-02 6.171067431569099426e-02 -5.476711392402648926e-01 2.356863766908645630e-01 2.620842680335044861e-02 1.282472163438796997e-01 8.901494145393371582e-01 2.919029630720615387e-02 6.250540167093276978e-02 4.157582819461822510e-01 -8.150777816772460938e-01 -1.889547109603881836e-01 3.738274574279785156e-01 -2.577620744705200195e-01 -1.629125624895095825e-01 4.450208321213722229e-02 4.171593785285949707e-01 1.600617766380310059e-01 2.048656493425369263e-01 8.431319892406463623e-02 6.337430477142333984e-01 1.752607375383377075e-01 2.430245280265808105e-03 4.261887818574905396e-02 1.581430062651634216e-02 6.196195725351572037e-03 7.026327401399612427e-02 -7.064054906368255615e-02
-2.096423506736755371e-01 2.241459637880325317e-01 1.569985747337341309e-01 6.196424365043640137e-02 -2.322867512702941895e-02 -1.215814724564552307e-01 -1.517673581838607788e-01 -8.657320588827133179e-02 -7.922025322914123535e-01 -2.685351371765136719e-01 1.444245427846908569e-01 -8.055537939071655273e-02 -8.861352503299713135e-02 1.130428910255432129e-01 2.175315767526626587e-01 2.139602042734622955e-02 -4.676393270492553711e-01 1.001281812787055969e-01 1.462208479642868042e-01 -3.182151317596435547e-01 -5.682998299598693848e-01 -5.346733331680297852e-01 1.885250359773635864e-01 -1.728231757879257202e-01 -2.104343473911285400e-01 3.423056900501251221e-01 1.302161663770675659e-01 2.785058617591857910e-01 -8.022655546665191650e-02 -2.902915775775909424e-01 1.781596392393112183e-01
4.444997608661651611e-01 -1.880832947790622711e-02 2.788005769252777100e-01 2.575173079967498779e-01 2.778910398483276367e-01 5.268555283546447754e-01 1.792531013488769531e-01 -2.152990177273750305e-02 -7.433726638555526733e-02 4.047943949699401855e-01 -5.769419297575950623e-02 2.185351550579071045e-01 -5.712720155715942383e-01 -4.864076375961303711e-01 -1.798681318759918213e-01 1.658549755811691284e-01 -2.301412224769592285e-01 -2.360862791538238525e-01 -8.335641771554946899e-02 7.786415517330169678e-02 -1.273395121097564697e-01 -4.796354770660400391e-01 6.502590328454971313e-02 3.077049255371093750e-01 -1.125359982252120972e-01 -7.585965842008590698e-02 4.689255356788635254e-01 -1.153630614280700684e-01 -6.303066015243530273e-01 -5.739933848381042480e-01 2.927171764895319939e-03
2.340335845947265625e-01 2.739950120449066162e-01 3.591187894344329834e-01 2.902847826480865479e-01 4.187388718128204346e-02 3.908349573612213135e-01 1.919902488589286804e-02 5.831816419959068298e-02 -1.491666585206985474e-01 6.927604973316192627e-02 -1.787593513727188110e-01 -6.271211057901382446e-02 -2.197001874446868896e-01 3.949568569660186768e-01 3.289736211299896240e-01 -3.710282593965530396e-02 1.314975619316101074e-01 3.292438983917236328e-01 1.734250187873840332e-01 1.503047347068786621e-01 2.076735049486160278e-01 -4.433763772249221802e-02 -2.953836321830749512e-01 -1.000309512019157410e-01 -1.064373925328254700e-01 1.659214943647384644e-01 -1.008347347378730774e-01 1.332802698016166687e-02 -5.803679823875427246e-01 4.053100571036338806e-02 1.797510869801044464e-02
1.636497527360916138e-01 1.744007319211959839e-01 4.293325543403625488e-01 2.198465764522552490e-01 2.508727610111236572e-01 -3.483442664146423340e-01 1.445278227329254150e-01 -1.055505573749542236e-01 -3.702460527420043945e-01 -1.444365084171295166e-01 -1.379317492246627808e-01 2.748041450977325439e-01 1.974216997623443604e-01 -7.476286264136433601e-04 -1.774566918611526489e-01 -2.350693345069885254e-01 1.040311753749847412e-01 1.068978235125541687e-01 1.010511517524719238e-01 1.479926258325576782e-01 2.754260599613189697e-01 -3.496237695217132568e-01 -1.600597053766250610e-01 -1.490471363067626953e-01 3.184316456317901611e-01 -5.304626822471618652e-01 -2.305798418819904327e-02 2.237665057182312012e-01 5.458120703697204590e-01 1.174655333161354065e-01 -5.340532064437866211e-01
-4.533336758613586426e-01 2.711022794246673584e-01 -2.656441740691661835e-02 -2.158012092113494873e-01 -2.967195212841033936e-01 7.894797921180725098e-01 1.889060139656066895e-01 1.348076313734054565e-01 -4.777234196662902832e-01 -7.902643829584121704e-02 -3.078176975250244141e-01 8.649072796106338501e-02 6.973339915275573730e-01 1.811102405190467834e-02 -3.116015493869781494e-01 1.704219132661819458e-01 5.784104019403457642e-02 1.942129731178283691e-01 8.904812484979629517e-02 4.103548228740692139e-01 1.932969093322753906e-01 -1.595246195793151855e-01 1.080205757170915604e-02 -6.142384409904479980e-01 -7.186371088027954102e-02 1.848452538251876831e-01 -6.074219197034835815e-02 1.080160886049270630e-01 1.376514434814453125e-01 -4.569509029388427734e-01 5.727033317089080811e-02
-2.053843438625335693e-01 1.547186821699142456e-01 -2.522235214710235596e-01 -2.147037386894226074e-01 -1.949066668748855591e-01 7.339258491992950439e-02 1.670177578926086426e-01 -1.035352945327758789e-01 2.855630815029144287e-01 2.377465832978487015e-03 -2.270240187644958496e-01 8.242836594581604004e-02 1.307663172483444214e-01 2.267081439495086670e-01 3.708087652921676636e-02 -6.275156885385513306e-02 1.584896892309188843e-01 2.755757793784141541e-02 -5.393306165933609009e-02 -2.114990651607513428e-01 1.373880356550216675e-01 4.842844605445861816e-01 -1.978736966848373413e-01 2.979368865489959717e-01 -2.093294560909271240e-01 1.039260178804397583e-01 -7.927305251359939575e-02 -2.761789858341217041e-01 -2.489752471446990967e-01 4.529247581958770752e-01 3.725216388702392578e-01
-1.643086373805999756e-01 5.473339557647705078e-01 4.733121991157531738e-01 -4.385259747505187988e-02 8.561132103204727173e-02 2.399343550205230713e-01 1.208249703049659729e-01 3.864965438842773438e-01 2.551616169512271881e-03 -6.995694041252136230e-01 -2.940799295902252197e-01 -6.006708741188049316e-01 6.297228932380676270e-01 -3.575039803981781006e-01 1.334298681467771530e-02 3.313414454460144043e-01 4.295536316931247711e-03 -2.409760355949401855e-01 1.119055133312940598e-02 3.052715957164764404e-01 1.397618502378463745e-01 -2.040566802024841309e-01 4.383429884910583496e-01 3.675041198730468750e-01 -1.094182506203651428e-01 -1.963433176279067993e-01 1.230445280671119690e-01 1.277322024106979370e-01 1.973782926797866821e-01 -1.585319787263870239e-01 1.591761037707328796e-02
2.179135233163833618e-01 8.580855280160903931e-02 1.609800159931182861e-01 4.550003260374069214e-02 1.097484678030014038e-01 4.160518944263458252e-02 8.095346391201019287e-02 2.983316183090209961e-01 4.685137420892715454e-02 4.239512979984283447e-01 -8.276183158159255981e-02 -1.707404106855392456e-01 2.325277924537658691e-01 1.288349833339452744e-02 -1.091917082667350769e-01 5.650990605354309082e-01 -3.566836118698120117e-01 2.694801427423954010e-02 9.417764842510223389e-02 1.704763025045394897e-01 -2.573865056037902832e-01 -5.979371666908264160e-01 2.435646653175354004e-01 4.221816360950469971e-01 -2.615483701229095459e-01 -2.142123132944107056e-01 8.998296260833740234e-01 -1.230601146817207336e-01 -5.014733076095581055e-01 -4.281132221221923828e-01 -3.467035293579101562e-02
2.341803461313247681e-01 2.495925575494766235e-01 2.969833910465240479e-01 1.209079176187515259e-01 7.598712295293807983e-02 -1.088205073028802872e-02 -5.901910364627838135e-02 -1.477055158466100693e-02 4.390906691551208496e-01 -4.978264868259429932e-02 2.430303692817687988e-01 -8.283871412277221680e-02 -7.618942111730575562e-02 4.773143678903579712e-03 2.557195425033569336e-01 -8.914814889430999756e-02 1.782537251710891724e-01 9.618970751762390137e-02 -8.540838956832885742e-03 -1.521599143743515015e-01 -1.058464422821998596e-01 1.253210753202438354e-01 6.520388275384902954e-02 -9.936468303203582764e-02 -2.613203227519989014e-01 5.793329477310180664e-01 -1.553163081407546997e-01 -2.865482270717620850e-01 6.241375207901000977e-02 -2.116939425468444824e-01 3.954066634178161621e-01
1.011875197291374207e-01 -1.554324924945831299e-01 2.736078202724456787e-01 -1.960926204919815063e-01 -3.392478078603744507e-02 1.795395761728286743e-01 -1.532043218612670898e-01 3.359223604202270508e-01 -1.531218737363815308e-01 -1.325795948505401611e-01 2.065798640251159668e-01 -1.360892206430435181e-01 4.268995225429534912e-01 -4.493292868137359619e-01 -1.182524487376213074e-01 2.315677404403686523e-01 2.126403152942657471e-01 -3.553580939769744873e-01 -1.378598064184188843e-01 3.078377246856689453e-01 1.119513958692550659e-01 -3.229230642318725586e-01 2.598275244235992432e-01 2.323468625545501709e-01 1.768864504992961884e-02 7.301938533782958984e-02 -3.907373547554016113e-02 1.922747306525707245e-02 -7.667974382638931274e-02 -2.850945889949798584e-01 6.876552104949951172e-02
-1.913515478372573853e-01 -2.349658459424972534e-01 9.102837741374969482e-02 4.767213016748428345e-02 -3.648076951503753662e-02 -5.652702450752258301e-01 2.258984893560409546e-01 -1.470350846648216248e-02 6.218471527099609375e-01 -4.855022728443145752e-01 -2.049341797828674316e-01 -9.546998143196105957e-01 2.545740306377410889e-01 6.955172419548034668e-01 2.611187994480133057e-01 -1.443526595830917358e-01 4.499829709529876709e-01 3.733115494251251221e-01 1.076366901397705078e-01 -7.125493884086608887e-02 4.917418956756591797e-01 2.952592968940734863e-01 2.428159862756729126e-01 5.045152902603149414e-01 -3.779551088809967041e-01 8.876217603683471680e-01 -3.661271333694458008e-01 -6.124016642570495605e-01 -2.099600732326507568e-01 3.379711210727691650e-01 5.286231040954589844e-01
1.082923337817192078e-01 -4.149249494075775146e-01 -2.106428891420364380e-01 6.161386147141456604e-02 6.302297115325927734e-02 -1.924501657485961914e-01 -1.997706443071365356e-01 -2.109226435422897339e-01 5.577518343925476074e-01 2.998471558094024658e-01 3.414469957351684570e-01 -7.030744105577468872e-02 -3.572602868080139160e-01 -3.625303208827972412e-01 -1.456150785088539124e-02 4.888166189193725586e-01 -7.070822119712829590e-01 -2.601208388805389404e-01 -2.126018404960632324e-01 3.002195246517658234e-02 -2.265877127647399902e-01 6.262288894504308701e-03 6.360985040664672852e-01 5.212189555168151855e-01 -2.145697176456451416e-01 -1.312607973814010620e-01 8.558509945869445801e-01 3.278617933392524719e-02 5.297824740409851074e-01 -3.036378622055053711e-01 5.985079407691955566e-01
2.310826778411865234e-01 -3.372288346290588379e-01 1.466487795114517212e-01 2.355541288852691650e-01 1.431311815977096558e-01 1.982444524765014648e-01 -1.344819962978363037e-01 -2.201808989048004150e-01 4.995468631386756897e-02 -9.123568981885910034e-02 -2.026673704385757446e-01 9.491098672151565552e-02 -9.008218348026275635e-02 6.944195181131362915e-02 -1.467442363500595093e-01 -2.084004133939743042e-02 -7.120838761329650879e-02 7.862763851881027222e-02 -8.401561528444290161e-02 -1.664997041225433350e-01 -2.725197672843933105e-01 5.189265608787536621e-01 2.564786076545715332e-01 8.748457580804824829e-02 1.346559524536132812e-01 4.828983247280120850e-01 -1.821323484182357788e-01 8.845864236354827881e-02 -2.348385006189346313e-01 8.392737805843353271e-02 2.727101445198059082e-01
1.716972589492797852e-01 -2.616926729679107666e-01 -1.189231798052787781e-01 7.786978036165237427e-02 -2.323140650987625122e-01 -6.082403063774108887e-01 -2.746571600437164307e-02 -3.338519334793090820e-01 1.780637353658676147e-01 2.352959811687469482e-01 -1.047749817371368408e-01 -1.303567588329315186e-01 -3.855932354927062988e-01 1.021254882216453552e-01 9.630665183067321777e-03 2.487734705209732056e-01 -1.628028899431228638e-01 -9.497141093015670776e-02 -1.051439046859741211e-01 1.211566329002380371e-01 -1.663042157888412476e-01 -1.707095503807067871e-01 2.339020967483520508e-01 -1.950371861457824707e-01 -2.386735230684280396e-01 1.958321183919906616e-01 3.368647098541259766e-01 -4.338436424732208252e-01 1.149816811084747314e-01 -4.910824894905090332e-01 1.818220764398574829e-01
3.725887537002563477e-01 1.972304433584213257e-01 -3.966377377510070801e-01 -3.425953388214111328e-01 -3.309703469276428223e-01 -3.478028178215026855e-01 3.447492420673370361e-01 -1.925522834062576294e-02 2.336732000112533569e-01 2.939623221755027771e-02 -1.713463068008422852e-01 4.049324989318847656e-01 -9.174993634223937988e-02 -1.349194645881652832e-01 -2.785689830780029297e-01 1.149458885192871094e-01 -1.855743676424026489e-01 -7.395051419734954834e-02 -2.712864056229591370e-02 3.695489764213562012e-01 1.733553111553192139e-01 -1.320728473365306854e-02 -1.753744781017303467e-01 -4.694815725088119507e-02 -3.691181838512420654e-01 2.816502153873443604e-01 1.244835183024406433e-01 -3.146356940269470215e-01 -3.218647837638854980e-01 -2.087974697351455688e-01 3.759058713912963867e-01
3.251956403255462646e-01 -4.640381634235382080e-01 -2.354720830917358398e-01 1.821518242359161377e-01 2.146733403205871582e-01 -1.530356258153915405e-01 -2.854090034961700439e-01 1.760251969099044800e-01 1.487010270357131958e-01 -5.313303694128990173e-02 -1.612750738859176636e-01 -1.555017977952957153e-01 -3.552716374397277832e-01 -5.013307556509971619e-03 1.747915595769882202e-01 -2.913079261779785156e-01 -6.268096566200256348e-01 1.114715486764907837e-01 1.045540943741798401e-01 4.342870041728019714e-02 -1.385909616947174072e-01 -1.080114170908927917e-01 3.182559311389923096e-01 -3.184013441205024719e-02 -5.144091323018074036e-02 1.030542328953742981e-01 -7.930282354354858398e-01 -1.044151112437248230e-01 2.349151670932769775e-01 -1.616522520780563354e-01 7.470113039016723633e-02
2.615392208099365234e-01 -1.143851876258850098e-01 -9.068609029054641724e-02 1.577686816453933716e-01 -1.020134240388870239e-02 3.574091494083404541e-01 -3.832558169960975647e-02 2.618691027164459229e-01 -2.465213239192962646e-01 2.433673478662967682e-02 3.252638131380081177e-02 3.398496657609939575e-02 1.116511225700378418e-01 -5.709800124168395996e-01 -1.247090399265289307e-01 -2.738356292247772217e-01 -4.916550815105438232e-01 -3.519218266010284424e-01 -1.076131165027618408e-01 2.487215958535671234e-02 -1.540308594703674316e-01 -2.530277073383331299e-01 2.138882130384445190e-01 -1.663050800561904907e-01 -2.269566059112548828e-01 -1.517234444618225098e-01 2.186634577810764313e-02 -1.720771193504333496e-01 -6.824234127998352051e-02 -8.634480088949203491e-02 1.030348613858222961e-01
8.291487097740173340e-01 -1.046255677938461304e-01 2.032198607921600342e-01 2.155684679746627808e-01 -4.105355143547058105e-01 3.455881029367446899e-03 -1.744906455278396606e-01 -3.304649591445922852e-01 4.509280025959014893e-01 -6.423726212233304977e-03 5.542526245117187500e-01 -4.286034405231475830e-02 -1.568226367235183716e-01 7.043564319610595703e-02 6.017180159687995911e-02 1.941534727811813354e-01 -5.913306027650833130e-03 -7.596451789140701294e-02 -2.524461969733238220e-02 2.960465550422668457e-01 -5.703556165099143982e-02 -2.267340868711471558e-01 2.299643754959106445e-01 3.910968452692031860e-02 -1.200272291898727417e-01 -3.387774527072906494e-02 3.026506304740905762e-01 -1.406868100166320801e-01 1.143652349710464478e-01 -4.088373482227325439e-01 3.275330066680908203e-01
-1.686958819627761841e-01 5.900492072105407715e-01 2.959327995777130127e-01 3.971069678664207458e-02 1.164576187729835510e-01 3.346489071846008301e-01 -1.049827411770820618e-01 9.678503125905990601e-02 4.678494036197662354e-01 -1.337937414646148682e-01 -2.805036008358001709e-01 -4.535852372646331787e-01 -9.817551076412200928e-02 -3.431477844715118408e-01 -2.482531964778900146e-01 -1.572097539901733398e-01 4.199395477771759033e-01 -7.325870990753173828e-01 -5.769212245941162109e-01 -2.082694768905639648e-01 8.542703092098236084e-02 -5.388631820678710938e-01 2.866548001766204834e-01 2.317931503057479858e-01 -2.448747009038925171e-01 -6.873064041137695312e-01 -7.747761607170104980e-01 2.193700820207595825e-01 2.517227232456207275e-01 -9.726830758154392242e-04 9.660670161247253418e-02
2.342111468315124512e-01 1.507012397050857544e-01 1.120454818010330200e-01 8.971782773733139038e-02 -1.516166329383850098e-02 1.927240341901779175e-01 -1.427282392978668213e-01 -6.745310425758361816e-01 4.540225863456726074e-01 -2.072517722845077515e-01 -5.471829324960708618e-02 -2.200632095336914062e-01 -5.005683302879333496e-01 3.904876112937927246e-02 -9.264102578163146973e-02 2.008516937494277954e-01 4.339558482170104980e-01 8.680704981088638306e-02 1.760863512754440308e-01 2.677391171455383301e-01 5.898337811231613159e-02 -2.636282518506050110e-02 3.952500820159912109e-01 2.024017274379730225e-01 2.150914967060089111e-01 -1.703251451253890991e-01 -3.064942955970764160e-01 5.834515765309333801e-02 -5.538410320878028870e-02 -3.030300736427307129e-01 -1.681526005268096924e-01
