5.821419954299926758e-01 -3.140296638011932373e-01 1.819128990173339844e-01 6.404601782560348511e-02 -1.112813726067543030e-01 2.499505430459976196e-01 -3.907751291990280151e-02 1.072750017046928406e-01 4.009684622287750244e-01 7.478604465723037720e-02 -2.297315746545791626e-01 3.997801840305328369e-01 9.071439504623413086e-01 -5.194802284240722656e-01 -4.479175209999084473e-01 -5.045478343963623047e-01 -2.134791761636734009e-01 -3.174950778484344482e-01 -2.665942013263702393e-01 -4.653434082865715027e-02 -2.646353244781494141e-01 5.682463049888610840e-01 -2.372849034145474434e-03 -1.017056927084922791e-01 5.188111662864685059e-01 2.746928632259368896e-01 2.404097318649291992e-01 -2.035888284444808960e-02 -3.881449103355407715e-01 8.752004057168960571e-02 -1.809350550174713135e-01
3.750208318233489990e-01 -2.064860314130783081e-01 1.620818972587585449e-01 4.181921482086181641e-02 1.938178203999996185e-02 4.995487630367279053e-01 2.499464154243469238e-01 5.514147132635116577e-02 -6.589393615722656250e-01 -5.455542802810668945e-01 -9.861854463815689087e-02 -3.995933830738067627e-01 3.974136710166931152e-01 -3.194029927253723145e-01 -1.438456624746322632e-01 2.494624257087707520e-01 -1.560965031385421753e-01 -1.456561386585235596e-01 -1.628591120243072510e-01 3.086037635803222656e-01 9.200441837310791016e-02 -2.749511599540710449e-01 1.430745795369148254e-02 3.573038801550865173e-02 -2.588078677654266357e-01 6.678606569766998291e-02 -1.568073928356170654e-01 4.715829342603683472e-02 -3.309670388698577881e-01 1.705273538827896118e-01 2.477069050073623657e-01
3.780173659324645996e-01 1.101659424602985382e-02 -1.049456596374511719e+00 1.284437477588653564e-01 -1.525711715221405029e-01 -3.388930857181549072e-01 4.502778500318527222e-02 3.652550876140594482e-01 6.533908098936080933e-02 -7.363114040344953537e-03 1.824628710746765137e-01 2.986458539962768555e-01 4.721191897988319397e-02 -1.739857494831085205e-01 -1.244588792324066162e-01 1.126400232315063477e-01 -3.487463891506195068e-01 -3.396735340356826782e-02 -9.313260205090045929e-03 1.399633437395095825e-01 -1.628901809453964233e-01 -8.063422888517379761e-02 -1.133871302008628845e-01 -1.053287982940673828e-01 -1.353350579738616943e-01 4.611775651574134827e-02 5.172477960586547852e-01 2.320984005928039551e-01 1.063909828662872314e-01 -2.005779743194580078e-01 1.011257544159889221e-01
-3.946942389011383057e-01 -1.043000593781471252e-01 -1.342881619930267334e-01 -1.877988129854202271e-01 -3.942202776670455933e-02 -1.502897858619689941e+00 -9.570037014782428741e-03 4.853520914912223816e-02 2.189555466175079346e-01 3.022069334983825684e-01 3.762716054916381836e-01 1.205336824059486389e-01 3.355326354503631592e-01 8.360926061868667603e-02 3.375088274478912354e-01 -5.600416064262390137e-01 -3.446865975856781006e-01 9.841723740100860596e-02 3.370553553104400635e-01 -1.512224376201629639e-01 -1.883623562753200531e-02 6.504336744546890259e-02 3.439992964267730713e-01 2.603588998317718506e-01 -3.767352178692817688e-02 2.771551609039306641e-01 3.511768877506256104e-01 3.761380314826965332e-01 -2.923484742641448975e-01 -1.381589621305465698e-01 -3.660951182246208191e-02
1.865682005882263184e-01 -7.446570694446563721e-02 3.894945085048675537e-01 5.658356547355651855e-01 3.366166651248931885e-01 2.785184681415557861e-01 -3.454432636499404907e-02 -1.489146500825881958e-01 1.385563313961029053e-01 -2.375496923923492432e-01 -4.082414507865905762e-01 -8.549509197473526001e-02 -2.130301594734191895e-01 1.046549379825592041e-01 -1.408236473798751831e-01 -8.025249093770980835e-02 2.293528169393539429e-01 4.694702848792076111e-02 -6.853269040584564209e-02 -6.608167290687561035e-02 -6.703068315982818604e-02 -3.293857276439666748e-01 -1.343770772218704224e-01 -3.431724309921264648e-01 -3.068019747734069824e-01 1.843904554843902588e-01 -2.675720453262329102e-01 -3.391822800040245056e-02 -2.941606044769287109e-01 -3.232426345348358154e-01 4.915524423122406006e-01
2.744395732879638672e-01 -5.099491775035858154e-02 -3.040723502635955811e-01 -7.674995064735412598e-02 -1.027001813054084778e-01 -6.028349995613098145e-01 -2.718972228467464447e-02 7.113458961248397827e-02 -2.580817937850952148e-01 -1.642948985099792480e-01 -1.100028753280639648e-01 6.752516329288482666e-02 -1.280963122844696045e-01 1.186058223247528076e-01 -1.303440183401107788e-01 1.878859549760818481e-01 -2.654412090778350830e-01 -1.894836574792861938e-01 -1.874648928642272949e-01 2.481422126293182373e-01 -8.410462737083435059e-02 -1.231098324060440063e-01 -1.194458678364753723e-01 -8.338335901498794556e-02 -7.721758633852005005e-02 -6.665849685668945312e-02 2.519966363906860352e-01 1.466949880123138428e-01 1.579077541828155518e-01 7.930322736501693726e-02 -6.541720777750015259e-02
2.254919558763504028e-01 3.458799123764038086e-01 -2.388841807842254639e-01 -1.446832716464996338e-01 -3.074623048305511475e-01 -1.022917032241821289e+00 1.765051633119583130e-01 -4.491350054740905762e-01 -3.925842344760894775e-01 6.040186062455177307e-02 -1.580428183078765869e-01 5.105280876159667969e-01 -4.715096354484558105e-01 6.325252652168273926e-01 -3.475940525531768799e-01 2.178526297211647034e-02 -8.224311470985412598e-02 2.478364557027816772e-01 -9.341745078563690186e-02 -3.130707144737243652e-01 -2.444596886634826660e-01 9.063524007797241211e-02 -1.233266592025756836e-01 -3.795373737812042236e-01 6.740337610244750977e-02 1.199464946985244751e-01 -5.721014365553855896e-02 4.155991375446319580e-01 5.849207285791635513e-03 1.989871859550476074e-01 -2.138564139604568481e-01
5.632941722869873047e-01 1.144852787256240845e-01 2.956301271915435791e-01 2.468970715999603271e-01 1.658085584640502930e-01 9.166994690895080566e-02 6.760875135660171509e-02 -5.426844358444213867e-01 2.065529674291610718e-01 7.415275275707244873e-02 2.282640933990478516e-01 -1.197890043258666992e-01 -2.904103398323059082e-01 3.249455690383911133e-01 4.509404301643371582e-01 -3.890592157840728760e-01 3.267973288893699646e-02 3.709483146667480469e-01 3.444781303405761719e-01 -2.710241377353668213e-01 -2.040498852729797363e-01 1.799463182687759399e-01 7.879187166690826416e-02 4.588383436203002930e-01 9.481205791234970093e-02 1.799760013818740845e-01 -2.987263202667236328e-01 -3.084016442298889160e-01 1.216947585344314575e-01 4.493735358119010925e-02 1.145543158054351807e-01
5.226767659187316895e-01 5.863307118415832520e-01 4.343636035919189453e-01 2.573442459106445312e-01 1.937685534358024597e-02 -5.046377778053283691e-01 -2.585322558879852295e-01 -1.045531481504440308e-01 -2.446400374174118042e-01 1.793910190463066101e-02 2.253103852272033691e-01 -3.593653142452239990e-01 9.324892163276672363e-01 -1.673723012208938599e-01 2.651497721672058105e-01 -6.916935741901397705e-02 -5.730209499597549438e-02 2.788530588150024414e-01 3.025132417678833008e-01 -1.337216198444366455e-01 -1.382059901952743530e-01 -4.117242991924285889e-01 3.181381821632385254e-01 -1.061833351850509644e-01 1.214596033096313477e-01 -3.360332846641540527e-01 -9.561313688755035400e-02 3.338851034641265869e-01 -3.329460322856903076e-01 5.167742073535919189e-02 -4.818430542945861816e-01
4.816344976425170898e-01 2.986782416701316833e-02 3.220539987087249756e-01 1.840756982564926147e-01 -4.245067387819290161e-02 -1.651297211647033691e-01 6.207600831985473633e-01 -1.363594364374876022e-02 5.091075897216796875e-01 8.362922072410583496e-01 1.284775882959365845e-01 3.047507405281066895e-01 -2.662463784217834473e-01 -5.153728127479553223e-01 -4.090245366096496582e-01 -5.231607705354690552e-02 -3.452662229537963867e-01 -6.697619557380676270e-01 -3.131830394268035889e-01 8.896479383111000061e-03 -1.398075670003890991e-01 1.520665585994720459e-01 -2.917721569538116455e-01 2.162634432315826416e-01 8.464391529560089111e-02 3.872254863381385803e-02 1.078461781144142151e-01 -2.326096296310424805e-01 4.403501749038696289e-02 -6.551688537001609802e-03 -8.469679206609725952e-02
2.904580235481262207e-01 -8.010241389274597168e-02 -3.508884906768798828e-01 -3.992471992969512939e-01 -4.571809470653533936e-01 -6.886222213506698608e-02 2.593312859535217285e-01 3.810732364654541016e-01 1.043942645192146301e-01 2.443759888410568237e-01 -5.150058269500732422e-01 2.659195661544799805e-01 -1.646677106618881226e-01 -3.874742686748504639e-01 -5.078307986259460449e-01 2.320999354124069214e-01 -3.468501269817352295e-01 -3.664652109146118164e-01 -4.086652100086212158e-01 2.331385612487792969e-01 -2.989717423915863037e-01 3.436662256717681885e-02 -1.368030607700347900e-01 -1.828794479370117188e-01 8.411411941051483154e-02 1.414452344179153442e-01 3.407225757837295532e-02 3.558779135346412659e-03 4.644624590873718262e-01 5.232771858572959900e-02 -7.811376452445983887e-02
3.312666416168212891e-01 -5.250179767608642578e-01 1.950314342975616455e-01 4.107342660427093506e-01 7.448168098926544189e-02 2.697942554950714111e-01 3.460072576999664307e-01 -2.301101833581924438e-01 9.864573925733566284e-02 -2.179410308599472046e-02 -3.262325823307037354e-01 2.877499759197235107e-01 -3.929345309734344482e-01 -1.045248061418533325e-01 -2.495326846837997437e-01 -5.132169723510742188e-01 1.566727161407470703e-01 -2.532294988632202148e-01 -2.563242316246032715e-01 -1.536616981029510498e-01 6.360702961683273315e-02 3.989250063896179199e-01 -1.859340369701385498e-01 7.319706678390502930e-02 -4.397721961140632629e-02 -1.970443315804004669e-02 -3.398778140544891357e-01 -1.322014629840850830e-01 7.281740903854370117e-01 5.083431005477905273e-01 7.610126584768295288e-02
2.662376761436462402e-01 -3.214373886585235596e-01 -5.121504664421081543e-01 -8.562613278627395630e-02 -1.867766976356506348e-01 -3.326043486595153809e-01 -2.468030601739883423e-01 1.819834671914577484e-02 -1.637563668191432953e-02 -3.957497477531433105e-01 8.924201130867004395e-03 -7.100138068199157715e-02 -3.615825474262237549e-01 -1.758023649454116821e-01 -4.653558600693941116e-03 3.791297599673271179e-02 -2.348901331424713135e-01 3.870407342910766602e-01 2.986930608749389648e-01 4.744830727577209473e-02 -2.362378835678100586e-01 -4.211994633078575134e-02 2.964901328086853027e-01 1.133915558457374573e-01 -7.695141434669494629e-02 1.134203076362609863e-01 1.968998610973358154e-01 2.869568467140197754e-01 5.537357181310653687e-02 -1.966135799884796143e-01 1.498866975307464600e-01
1.696167141199111938e-01 -6.016576290130615234e-02 8.110508322715759277e-03 4.721840471029281616e-02 -5.765576288104057312e-02 4.991083443164825439e-01 -7.895910181105136871e-03 -1.484875530004501343e-01 -1.414704322814941406e-02 -7.667335122823715210e-02 -6.342937052249908447e-02 -1.151971071958541870e-01 -3.859065771102905273e-01 -4.139693826436996460e-02 -2.018797993659973145e-01 -2.162571102380752563e-01 1.710377484560012817e-01 -2.435772120952606201e-02 -9.778862446546554565e-02 -2.277216613292694092e-01 -2.334186434745788574e-01 1.356652081012725830e-01 8.069761097431182861e-02 -3.476964309811592102e-02 2.381952106952667236e-01 -1.520442664623260498e-01 -1.491856724023818970e-01 -2.736589172855019569e-03 1.707410067319869995e-01 1.416480839252471924e-01 -9.490184485912322998e-02
4.642447829246520996e-01 -1.297265291213989258e-02 2.618008852005004883e-01 3.134463727474212646e-01 1.784011423587799072e-01 5.805988907814025879e-01 6.677320599555969238e-02 7.873915880918502808e-02 6.390719115734100342e-02 -1.093954369425773621e-01 -3.239338099956512451e-01 1.620454937219619751e-01 -3.088502883911132812e-01 -2.288023009896278381e-03 -7.367908209562301636e-02 -3.981655836105346680e-01 -2.524765133857727051e-01 1.492405682802200317e-01 1.841602176427841187e-01 -4.238205030560493469e-02 -1.634459495544433594e-01 -3.429997563362121582e-01 -9.327005594968795776e-02 -3.792223930358886719e-01 -2.770297527313232422e-01 2.512635588645935059e-01 2.648668289184570312e-01 -1.836503446102142334e-01 -4.302954673767089844e-02 -2.835416793823242188e-01 -9.412803500890731812e-02
-1.657100021839141846e-01 3.169194459915161133e-01 1.727185696363449097e-01 4.245839267969131470e-02 1.107970848679542542e-01 -2.484883517026901245e-01 1.578335016965866089e-01 2.847946584224700928e-01 3.932447731494903564e-01 3.209642469882965088e-01 -2.307354658842086792e-01 3.379400074481964111e-01 -1.040765047073364258e-01 2.986572086811065674e-01 -1.647567749023437500e-01 1.795648969709873199e-02 -5.688121169805526733e-02 -2.105589723214507103e-03 -1.901579201221466064e-01 -2.075781524181365967e-01 4.766091331839561462e-02 2.367111481726169586e-02 -3.369620442390441895e-01 2.477610856294631958e-01 -5.793278813362121582e-01 4.856930300593376160e-02 -8.123730309307575226e-03 -1.150253042578697205e-01 4.285863339900970459e-01 3.479931876063346863e-02 2.856394648551940918e-01
-1.402485221624374390e-01 5.360326170921325684e-01 3.386513888835906982e-01 1.625446230173110962e-01 1.900651492178440094e-02 3.520797193050384521e-01 3.057893812656402588e-01 1.888655126094818115e-01 3.962687402963638306e-02 3.211452960968017578e-01 -4.478495121002197266e-01 8.764733374118804932e-02 2.878897637128829956e-02 4.351407662034034729e-02 -1.892987638711929321e-01 -2.149893790483474731e-01 1.062372028827667236e-01 -2.903658747673034668e-01 -3.465370237827301025e-01 1.335916072130203247e-01 3.006203100085258484e-02 3.495536446571350098e-01 -3.449343144893646240e-01 2.321418672800064087e-01 1.336822658777236938e-01 -7.492066361010074615e-03 -3.067128658294677734e-01 2.047542631626129150e-01 2.755613029003143311e-01 1.385149359703063965e-01 -1.157511845231056213e-01
-1.458517313003540039e-01 -7.606456521898508072e-03 6.396426260471343994e-02 -1.950854808092117310e-02 -1.420388370752334595e-01 -1.389871630817651749e-02 8.862716704607009888e-02 5.814840551465749741e-03 -4.546025302261114120e-03 1.785351186990737915e-01 1.633640229701995850e-01 8.173773996531963348e-03 1.069019317626953125e+00 -1.383792161941528320e-01 -2.638674378395080566e-01 2.282280623912811279e-01 1.791469603776931763e-01 -1.024298071861267090e-01 -1.511708945035934448e-01 5.193201303482055664e-01 2.852473258972167969e-01 9.622316807508468628e-02 1.080206260085105896e-01 -5.501944944262504578e-02 6.216270849108695984e-02 4.077498987317085266e-02 2.375751882791519165e-01 6.472063064575195312e-02 -4.123534858226776123e-01 3.110592663288116455e-01 -2.045556455850601196e-01
5.358615145087242126e-02 -1.126684248447418213e-02 1.671905666589736938e-01 -3.190045058727264404e-02 -9.636742062866687775e-03 -2.243639081716537476e-01 -2.027132660150527954e-01 -4.506847262382507324e-01 -6.000315770506858826e-02 -3.111945688724517822e-01 1.090225204825401306e-01 -4.980950355529785156e-01 -7.637695223093032837e-02 4.489016532897949219e-02 2.930348515510559082e-01 -5.057923197746276855e-01 4.407798349857330322e-01 -1.444062590599060059e-02 1.932690292596817017e-01 6.686865538358688354e-02 4.981938004493713379e-01 -4.807923734188079834e-01 -9.286900609731674194e-02 4.245260953903198242e-01 -2.148795276880264282e-01 -7.073826342821121216e-02 -4.245954453945159912e-01 -1.116060987114906311e-01 2.478247284889221191e-01 -4.209541901946067810e-02 -3.444166183471679688e-01
1.561798751354217529e-01 -1.148229464888572693e-01 -2.186762541532516479e-01 1.284335702657699585e-01 -3.861376270651817322e-02 -2.454959303140640259e-01 1.389897316694259644e-01 -3.616904616355895996e-01 -3.067516386508941650e-01 -3.048536479473114014e-01 4.658214151859283447e-01 -8.844406157732009888e-02 -4.228987395763397217e-01 5.150867626070976257e-02 2.660037949681282043e-02 3.383837342262268066e-01 -4.575636088848114014e-01 1.330187618732452393e-01 3.969801589846611023e-03 -1.203967910259962082e-02 -1.673555001616477966e-02 -3.334468305110931396e-01 -7.405620813369750977e-02 -1.071000546216964722e-01 -1.407407373189926147e-01 6.105757132172584534e-02 4.236460030078887939e-01 -2.687051296234130859e-01 2.664130628108978271e-01 -7.557958364486694336e-02 1.668767035007476807e-01
1.272224634885787964e-01 8.763217180967330933e-02 1.064367592334747314e-01 1.662304103374481201e-01 -6.101446971297264099e-02 -5.087393522262573242e-01 -4.151170607656240463e-03 4.273591637611389160e-01 1.945283859968185425e-01 3.903365731239318848e-01 6.354653239250183105e-01 2.161045819520950317e-01 -1.733115017414093018e-01 -1.587011963129043579e-01 1.048604547977447510e-01 -3.120066821575164795e-01 -2.344889007508754730e-02 1.675166636705398560e-01 7.137417793273925781e-02 2.157165855169296265e-02 1.026835069060325623e-01 -6.591440439224243164e-01 2.663848400115966797e-01 2.436538189649581909e-01 1.106904726475477219e-02 -6.233054995536804199e-01 1.041160225868225098e+00 2.613838016986846924e-02 -5.977380871772766113e-01 -9.967400431632995605e-01 3.877175971865653992e-02
8.184230923652648926e-01 7.158623933792114258e-01 3.797424137592315674e-01 2.496789246797561646e-01 3.915553987026214600e-01 -1.439269930124282837e-01 -2.010413706302642822e-01 2.267601191997528076e-01 -2.708479464054107666e-01 -4.776532649993896484e-01 -5.188422277569770813e-02 -7.311383727937936783e-03 -1.706714034080505371e-01 5.398959666490554810e-02 -2.355990931391716003e-02 -3.726397454738616943e-02 9.412102401256561279e-02 -2.374362573027610779e-02 -9.782759100198745728e-02 2.576572299003601074e-01 -3.148774802684783936e-02 3.189231455326080322e-02 1.225198805332183838e-01 -1.828783303499221802e-01 -5.848725512623786926e-02 2.254175841808319092e-01 -1.837686598300933838e-01 5.848173750564455986e-04 -4.703744351863861084e-01 -4.805669561028480530e-02 1.922999769449234009e-01
3.213803172111511230e-01 -6.656966209411621094e-01 -5.017052292823791504e-01 -1.982148438692092896e-01 -2.748449146747589111e-01 1.113688051700592041e-01 8.937673270702362061e-02 1.989888399839401245e-02 1.730390638113021851e-01 2.647250890731811523e-01 3.104847371578216553e-01 3.483243882656097412e-01 1.585672646760940552e-01 -1.518646627664566040e-01 2.293633855879306793e-02 1.894555985927581787e-01 -4.868683815002441406e-01 -8.213830739259719849e-02 1.003787666559219360e-01 2.930810675024986267e-02 -2.293502241373062134e-01 -6.073632463812828064e-02 2.238934636116027832e-01 1.505643427371978760e-01 -7.225207239389419556e-02 9.900528937578201294e-03 1.997638642787933350e-01 2.654558047652244568e-02 1.920818388462066650e-01 -7.643689960241317749e-02 7.334513962268829346e-02
2.792818546295166016e-01 -1.486455798149108887e-01 1.105492115020751953e-01 6.601431369781494141e-01 8.661162853240966797e-01 2.417600899934768677e-01 -1.421750783920288086e-01 3.425131365656852722e-02 -5.322421714663505554e-02 -3.257387578487396240e-01 -4.201741889119148254e-02 -4.498280584812164307e-01 -1.369110047817230225e-01 4.745098650455474854e-01 -1.282846331596374512e-01 -2.582863271236419678e-01 3.205233514308929443e-01 4.387431740760803223e-01 1.504443287849426270e-01 -2.035420835018157959e-01 -1.176466234028339386e-02 1.976325213909149170e-01 1.838588039390742779e-03 6.232956051826477051e-02 7.271950840950012207e-01 1.167401075363159180e-01 1.204469352960586548e-01 4.177334308624267578e-01 4.800072684884071350e-02 5.295180156826972961e-02 -5.657702684402465820e-01
5.454530119895935059e-01 1.121219322085380554e-01 6.632114052772521973e-01 8.102031946182250977e-01 7.391743659973144531e-01 -9.313479065895080566e-03 2.916896939277648926e-01 -1.009786278009414673e-01 -2.104257941246032715e-01 -1.014320924878120422e-02 -3.140715658664703369e-01 1.896065771579742432e-01 9.190405160188674927e-02 -1.751157939434051514e-01 -2.169384658336639404e-01 1.010967567563056946e-01 5.716928243637084961e-01 -1.195489019155502319e-01 -2.283706218004226685e-01 2.568037807941436768e-01 3.825324177742004395e-01 -8.148384839296340942e-02 -4.049287140369415283e-01 -7.928217202425003052e-02 1.502834558486938477e-01 -1.108308508992195129e-01 3.366016596555709839e-02 2.789316773414611816e-01 6.366193294525146484e-01 1.222511827945709229e-01 -2.032021880149841309e-01
2.621022164821624756e-01 3.009329140186309814e-01 -2.359925955533981323e-01 -8.769558742642402649e-03 -1.282741427421569824e-01 -2.764883935451507568e-01 1.927517801523208618e-01 4.057339131832122803e-01 -4.558723419904708862e-02 -2.173565775156021118e-01 3.676884993910789490e-02 2.986573278903961182e-01 2.164473533630371094e-01 2.482524067163467407e-01 3.444436192512512207e-02 -9.072070568799972534e-02 -5.255128741264343262e-01 5.883758142590522766e-02 7.584750652313232422e-02 1.875901073217391968e-01 -1.162360757589340210e-01 6.249972060322761536e-02 1.018294617533683777e-01 5.799614638090133667e-02 2.313373386859893799e-01 3.955768346786499023e-01 1.106866076588630676e-01 2.018069922924041748e-01 -7.354422658681869507e-02 -2.140952087938785553e-02 3.257453069090843201e-02
-2.149343937635421753e-01 -3.862214684486389160e-01 1.907924711704254150e-01 1.839074790477752686e-01 1.518726795911788940e-01 -3.054524660110473633e-01 3.144454658031463623e-01 6.493687629699707031e-02 -4.366836547851562500e-01 -3.571868836879730225e-01 -1.353587862104177475e-02 -3.680121004581451416e-01 3.098400235176086426e-01 4.170170426368713379e-01 -2.039318531751632690e-01 -2.615643441677093506e-01 3.237559199333190918e-01 -1.556328386068344116e-01 -3.113934993743896484e-01 -4.148324206471443176e-02 3.109232485294342041e-01 2.718586623668670654e-01 -2.916850745677947998e-01 -2.158774994313716888e-02 2.049123644828796387e-01 -1.246487945318222046e-01 -4.245178997516632080e-01 5.646657943725585938e-01 1.203622221946716309e-01 -3.352349996566772461e-02 7.580296695232391357e-02
1.045124009251594543e-01 2.846129536628723145e-01 -2.919149398803710938e-01 -2.612082958221435547e-01 -2.759791016578674316e-01 -1.382069587707519531e+00 8.870138227939605713e-02 1.194374114274978638e-01 -3.711982667446136475e-01 1.753567904233932495e-01 -2.654312551021575928e-01 -1.663936525583267212e-01 -6.871937960386276245e-02 3.532401025295257568e-01 -6.518625188618898392e-03 6.042040586471557617e-01 1.400797963142395020e-01 -5.802833288908004761e-02 -3.320539295673370361e-01 4.082084596157073975e-01 2.168372273445129395e-01 -4.014026224613189697e-01 7.883024960756301880e-02 3.272574627771973610e-03 -7.696946710348129272e-02 -1.388925127685070038e-02 1.585778146982192993e-01 2.423204332590103149e-01 2.574073076248168945e-01 -2.593997716903686523e-01 -4.724772274494171143e-02
6.995957344770431519e-02 5.676192045211791992e-01 2.017902582883834839e-01 2.743200659751892090e-01 -9.532017260789871216e-02 1.808370947837829590e-01 -4.867584705352783203e-01 -2.439820393919944763e-02 -4.550557211041450500e-02 -3.586821854114532471e-01 5.100337862968444824e-01 3.814557939767837524e-02 1.736994981765747070e-01 -1.133065018802881241e-02 1.937100589275360107e-01 -1.020007114857435226e-02 4.929355159401893616e-02 1.334345340728759766e-01 1.795957982540130615e-01 -2.515584602952003479e-02 -1.881974376738071442e-02 3.234721124172210693e-01 3.400825262069702148e-01 7.611810415983200073e-02 3.902852237224578857e-01 3.206447362899780273e-01 1.076789423823356628e-01 1.463976949453353882e-01 6.817559152841567993e-02 2.836409956216812134e-02 2.604127824306488037e-01
5.005164146423339844e-01 6.936462223529815674e-02 4.538715183734893799e-01 2.488839477300643921e-01 4.522322416305541992e-01 5.260434746742248535e-02 2.203851193189620972e-01 -6.569489836692810059e-02 -2.554923593997955322e-01 1.723590791225433350e-01 -2.290800586342811584e-02 2.915494143962860107e-02 2.281005866825580597e-02 1.645508706569671631e-01 2.360740490257740021e-02 1.133640632033348083e-01 1.930337250232696533e-01 2.023052722215652466e-01 5.960163846611976624e-02 1.444693207740783691e-01 8.526711165904998779e-02 -1.408237516880035400e-01 -8.955247700214385986e-03 8.730182796716690063e-02 1.359148509800434113e-02 -6.721442937850952148e-02 -3.995678573846817017e-02 7.347263395786285400e-02 -4.594946801662445068e-01 3.603533655405044556e-02 -5.348256602883338928e-02
4.008426964282989502e-01 -2.114553600549697876e-01 -1.017140671610832214e-01 3.110760748386383057e-01 -1.681481301784515381e-01 -2.617346495389938354e-02 5.027258023619651794e-02 2.349949181079864502e-01 9.153541922569274902e-02 1.579184383153915405e-01 -2.644383162260055542e-02 1.312766224145889282e-01 -1.154428347945213318e-01 2.708858996629714966e-02 -1.121942624449729919e-01 -1.861821115016937256e-01 -1.766472458839416504e-01 -1.050921976566314697e-01 -2.956756763160228729e-02 9.459716826677322388e-02 -1.834235489368438721e-01 -1.492235809564590454e-01 2.388021647930145264e-01 -1.962847709655761719e-01 -9.960622340440750122e-02 -2.279751598834991455e-01 -1.637485623359680176e-01 -4.835180938243865967e-02 -1.519353538751602173e-01 -2.015105932950973511e-01 -8.755528181791305542e-02
-1.157644763588905334e-01 -5.081256031990051270e-01 -3.424974381923675537e-01 -4.992879927158355713e-01 -1.236214414238929749e-01 5.159538388252258301e-01 1.873168945312500000e-01 8.837673664093017578e-01 9.571294300258159637e-03 -2.090052962303161621e-01 -4.262318015098571777e-01 -1.700298190116882324e-01 -3.322386145591735840e-01 -7.713525742292404175e-02 -8.148430287837982178e-02 -2.668794989585876465e-01 -3.918763995170593262e-01 3.960499912500381470e-02 -2.146580815315246582e-02 -6.697454303503036499e-02 -2.708198726177215576e-01 -1.140936985611915588e-01 1.227675750851631165e-01 -3.224429488182067871e-01 -2.384983450174331665e-01 2.043074369430541992e-02 -2.336331158876419067e-01 -1.375094503164291382e-01 4.872981458902359009e-02 2.154388874769210815e-01 1.860924214124679565e-01
1.760745793581008911e-01 6.287221908569335938e-01 1.060506582260131836e+00 7.358289957046508789e-01 4.501237571239471436e-01 6.771557778120040894e-02 -3.562753796577453613e-01 6.061074733734130859e-01 -1.300213932991027832e-01 -3.897911403328180313e-03 2.136340588331222534e-01 -2.939261794090270996e-01 8.314198255538940430e-02 1.332098543643951416e-01 -4.663945361971855164e-02 3.659538030624389648e-01 -1.814117729663848877e-01 -2.219545990228652954e-01 -1.880431324243545532e-01 3.700740039348602295e-01 5.046902596950531006e-02 -7.320448756217956543e-01 2.303202301263809204e-01 -1.494755446910858154e-01 -4.484244287014007568e-01 -2.824516892433166504e-01 -2.168981879949569702e-01 -2.966647446155548096e-01 1.573749631643295288e-01 -2.559394538402557373e-01 2.989410981535911560e-02
3.120845258235931396e-01 4.852696657180786133e-01 1.902775168418884277e-01 1.190874949097633362e-01 1.385519951581954956e-01 1.079360321164131165e-01 1.717593818902969360e-01 1.289464980363845825e-01 1.290310174226760864e-02 -2.116730660200119019e-01 -1.990725249052047729e-01 -2.209175378084182739e-01 9.174906462430953979e-02 -4.670748114585876465e-02 7.544235326349735260e-03 -3.231540694832801819e-02 1.981892995536327362e-02 -3.935855329036712646e-01 -1.328738182783126831e-01 2.034710049629211426e-01 2.077676653861999512e-01 -1.181136891245841980e-01 2.820839881896972656e-01 -2.539620548486709595e-02 -3.495190739631652832e-01 -4.563639685511589050e-02 -2.620651125907897949e-01 -3.297864645719528198e-02 1.585495844483375549e-02 -1.834111809730529785e-01 2.135636061429977417e-01
-1.856074668467044830e-02 -2.446807324886322021e-01 6.039959378540515900e-03 2.632690370082855225e-01 6.744342297315597534e-02 -7.988628745079040527e-01 -9.619075804948806763e-02 6.497403979301452637e-02 -1.970015466213226318e-01 -2.285321503877639771e-01 1.273608505725860596e-01 -3.314223885536193848e-01 1.405429095029830933e-01 3.553788959980010986e-01 -5.129747558385133743e-03 -1.073214411735534668e-01 5.248950049281120300e-02 4.299258440732955933e-02 -8.779447525739669800e-02 -8.503238111734390259e-02 1.812739819288253784e-01 -2.195970714092254639e-01 -2.289653718471527100e-01 -2.448207288980484009e-01 -3.807281255722045898e-01 -3.416207432746887207e-01 3.987880647182464600e-01 -7.329747080802917480e-02 -2.624575793743133545e-01 -1.242999434471130371e-01 2.941498905420303345e-02
2.224165350198745728e-01 -1.001472678035497665e-02 8.632989600300788879e-03 2.993832230567932129e-01 -6.105369329452514648e-02 3.192786872386932373e-01 -2.839846909046173096e-01 -1.826972067356109619e-01 7.554732561111450195e-01 -3.338760882616043091e-02 2.196828722953796387e-01 4.428984597325325012e-02 -6.552853584289550781e-01 -1.062032282352447510e-01 1.472422108054161072e-02 1.447221189737319946e-01 -1.164698377251625061e-01 -4.270990192890167236e-02 2.291882410645484924e-02 2.193213254213333130e-01 -1.893072202801704407e-02 1.966658085584640503e-01 2.518700063228607178e-01 -1.438647508621215820e-01 7.346587628126144409e-02 -1.620518974959850311e-02 2.783160842955112457e-02 -1.589447408914566040e-01 9.277450293302536011e-02 1.456518918275833130e-01 6.758611649274826050e-03
1.178453192114830017e-01 -1.372434347867965698e-01 1.109791025519371033e-01 -2.451464720070362091e-02 2.067763544619083405e-02 7.083400338888168335e-02 3.049184679985046387e-01 -2.283171713352203369e-01 -1.381674259901046753e-01 -4.392866194248199463e-01 1.087351515889167786e-01 -9.578424096107482910e-01 -4.244544506072998047e-01 -6.141471862792968750e-01 -7.987364381551742554e-02 3.471948206424713135e-01 1.819071471691131592e-01 -1.177960336208343506e-01 1.584369242191314697e-01 3.164968788623809814e-01 3.334261476993560791e-02 4.765189811587333679e-02 1.279051452875137329e-01 1.690127253532409668e-01 3.662430681288242340e-03 1.471829265356063843e-01 -1.102666780352592468e-01 -2.589189708232879639e-01 3.849559426307678223e-01 1.616623066365718842e-02 -1.141435131430625916e-01
2.696893811225891113e-01 -3.273894786834716797e-01 8.068939670920372009e-03 1.132175996899604797e-01 1.106651425361633301e-01 -5.549564957618713379e-03 -4.701045528054237366e-02 1.113456711173057556e-01 -2.377663552761077881e-01 -2.047313749790191650e-01 -4.153295457363128662e-01 -2.132991105318069458e-01 2.673043012619018555e-01 -8.529794812202453613e-01 -2.643219530582427979e-01 -7.010346055030822754e-01 -1.768057197332382202e-01 4.468444362282752991e-02 1.331896334886550903e-01 -2.156022340059280396e-01 -1.363176852464675903e-01 3.445405364036560059e-01 4.807320535182952881e-01 3.788551092147827148e-01 5.469092726707458496e-01 -4.799095690250396729e-01 -4.343825876712799072e-01 4.219624102115631104e-01 4.347549378871917725e-01 1.300392299890518188e-01 -4.972445964813232422e-01
1.350239664316177368e-01 1.066114231944084167e-01 3.167634010314941406e-01 3.589775264263153076e-01 2.012612670660018921e-01 -4.332499504089355469e-01 2.115596830844879150e-01 4.138333257287740707e-03 2.075690776109695435e-01 2.270199060440063477e-01 3.076320141553878784e-02 1.221546009182929993e-01 1.635158061981201172e-02 -6.888714432716369629e-01 -2.090087234973907471e-01 4.738371074199676514e-01 9.329226799309253693e-03 -3.658578097820281982e-01 -4.540725797414779663e-02 7.007967233657836914e-01 2.052428424358367920e-01 -3.693534731864929199e-01 1.463974118232727051e-01 2.746713459491729736e-01 -4.757259786128997803e-01 1.746028959751129150e-01 1.166846603155136108e-01 -1.475743651390075684e-01 -7.962126284837722778e-02 -1.936876922845840454e-01 1.864285916090011597e-01
3.226614296436309814e-01 -1.422067880630493164e-01 9.053104519844055176e-01 2.732293307781219482e-01 2.431881725788116455e-01 1.363376826047897339e-01 2.899997830390930176e-01 -2.675099074840545654e-01 -1.242365390062332153e-01 -1.588772535324096680e-01 4.027000367641448975e-01 -2.338803112506866455e-01 6.448696255683898926e-01 -8.280452340841293335e-02 -9.538539499044418335e-02 5.231647491455078125e-01 8.649569749832153320e-01 9.455232881009578705e-03 1.230177432298660278e-01 -1.582588553428649902e-01 7.512824237346649170e-02 -1.577679216861724854e-01 -9.296155720949172974e-02 1.041821539402008057e-01 1.959253847599029541e-01 2.392856590449810028e-02 3.779185935854911804e-02 1.937060803174972534e-01 3.560569286346435547e-01 -5.175768733024597168e-01 1.960076987743377686e-01
-5.623271465301513672e-01 -3.388239070773124695e-02 -8.449963480234146118e-02 -9.614352136850357056e-02 -5.070378631353378296e-02 6.532969474792480469e-01 2.354789674282073975e-01 -1.648665815591812134e-01 1.112812906503677368e-01 6.900451844558119774e-04 -2.446157932281494141e-01 3.249373435974121094e-01 -5.130503177642822266e-01 1.880956739187240601e-01 -1.470586061477661133e-01 -2.156854420900344849e-01 1.213660836219787598e-01 1.531021595001220703e-01 6.160476803779602051e-02 -1.028902456164360046e-01 1.847607456147670746e-02 1.103107035160064697e-01 -4.085402190685272217e-01 1.094165369868278503e-01 1.986846029758453369e-01 1.653516888618469238e-01 -4.626553952693939209e-01 -4.975511133670806885e-02 2.483263164758682251e-01 -1.226014271378517151e-01 3.239150643348693848e-01
4.076746404170989990e-01 -2.672446370124816895e-01 -1.769105494022369385e-01 -1.631650887429714203e-02 -1.189267709851264954e-01 -3.518391549587249756e-01 -1.673220545053482056e-01 1.318503767251968384e-01 7.992934435606002808e-02 -2.324642837047576904e-01 7.559360563755035400e-02 -3.418968021869659424e-01 -3.414006233215332031e-01 1.389655619859695435e-01 1.372251659631729126e-01 1.088426932692527771e-01 -1.780392974615097046e-01 1.142059639096260071e-01 6.535715609788894653e-02 1.866092160344123840e-02 8.675042539834976196e-02 1.830419874750077724e-03 1.544730514287948608e-01 -2.327064573764801025e-01 -1.733605861663818359e-01 3.313164040446281433e-02 -2.404379397630691528e-01 4.679388925433158875e-02 1.008967608213424683e-01 2.273329496383666992e-01 2.020137012004852295e-01
1.156336665153503418e-01 3.318443298339843750e-01 -3.093943595886230469e-01 3.882530033588409424e-01 -5.641723424196243286e-02 -2.405419945716857910e-01 6.548551917076110840e-01 2.519864141941070557e-01 7.740803807973861694e-02 -4.389017447829246521e-02 5.226785689592361450e-02 3.195276856422424316e-01 -9.232287853956222534e-02 -2.563035786151885986e-01 -2.311872243881225586e-01 -3.088992834091186523e-01 -9.463705420494079590e-01 -8.708982169628143311e-02 -1.355955153703689575e-01 2.173937857151031494e-01 3.171204626560211182e-01 1.277414709329605103e-01 -5.945134758949279785e-01 4.285421073436737061e-01 -9.572561830282211304e-02 -5.654262006282806396e-02 4.771004915237426758e-01 9.279093891382217407e-02 -2.289162129163742065e-01 -9.204617142677307129e-02 3.594808578491210938e-01
4.388133436441421509e-02 -3.287848830223083496e-01 3.561842143535614014e-01 4.447237253189086914e-01 2.451614737510681152e-01 8.290441334247589111e-02 -1.168584153056144714e-01 5.400834083557128906e-01 5.904829502105712891e-01 -3.484899401664733887e-01 -3.917732238769531250e-01 -2.913359999656677246e-01 -2.391688972711563110e-01 -3.251685574650764465e-02 2.382646501064300537e-01 -5.229125618934631348e-01 -2.910563349723815918e-01 1.735234260559082031e-01 3.495388031005859375e-01 -7.740387320518493652e-02 -1.342422068119049072e-01 1.642715781927108765e-01 1.284153908491134644e-01 -1.840416528284549713e-02 1.248758658766746521e-01 8.400928974151611328e-01 -5.097897648811340332e-01 -9.755024313926696777e-02 6.647140979766845703e-01 -2.892757356166839600e-01 5.504996180534362793e-01
-3.717415928840637207e-01 -2.926268875598907471e-01 -8.155707269906997681e-03 -3.975760564208030701e-02 1.975712925195693970e-02 -5.551365017890930176e-01 1.869303435087203979e-01 1.953149680048227310e-03 1.062861084938049316e-01 2.792478203773498535e-01 -1.897549331188201904e-01 9.294560179114341736e-03 -8.506439626216888428e-03 1.008808910846710205e-01 -1.518079787492752075e-01 -1.410772651433944702e-01 -3.289816677570343018e-01 -3.039242699742317200e-03 -1.142015233635902405e-01 -8.475533686578273773e-03 1.872138306498527527e-02 -2.185867875814437866e-01 2.936367876827716827e-02 5.311304703354835510e-02 -7.960836589336395264e-02 -1.030928045511245728e-01 5.472419261932373047e-01 9.253236651420593262e-02 -2.468730211257934570e-01 -1.671233177185058594e-01 -2.551839351654052734e-01
3.427828550338745117e-01 -3.028151094913482666e-01 2.235137373208999634e-01 2.794936299324035645e-01 3.063410520553588867e-01 3.338127136230468750e-01 1.845659613609313965e-01 1.133983880281448364e-01 -1.171636506915092468e-01 1.628210768103599548e-03 1.770914644002914429e-01 -1.826815307140350342e-01 1.030682399868965149e-01 -1.990223079919815063e-01 -9.120647795498371124e-03 -2.872799932956695557e-01 3.030953556299209595e-02 -2.008496224880218506e-02 4.303964227437973022e-02 -4.032072052359580994e-02 -1.739268898963928223e-01 4.241674542427062988e-01 1.198736391961574554e-02 2.775194644927978516e-01 1.652031838893890381e-01 3.784024417400360107e-01 -4.776390641927719116e-02 4.199937358498573303e-02 -2.629101276397705078e-01 2.331324964761734009e-01 -6.198635697364807129e-02
7.882218360900878906e-01 -2.526931762695312500e-01 1.687197834253311157e-01 -3.912305459380149841e-02 -1.293678432703018188e-01 -9.231439977884292603e-02 2.569027543067932129e-01 -4.384201765060424805e-01 1.654093861579895020e-01 -3.976276516914367676e-01 -6.399328112602233887e-01 -5.137802958488464355e-01 -2.271907776594161987e-01 2.711673676967620850e-01 1.955858916044235229e-01 -1.150350868701934814e-01 3.397648930549621582e-01 2.436423152685165405e-01 1.846061795949935913e-01 -7.328440994024276733e-02 2.927747964859008789e-01 1.508024483919143677e-01 -3.198586106300354004e-01 3.463928699493408203e-01 -2.798352215904742479e-04 -5.342679619789123535e-01 -2.607492506504058838e-01 3.946593105792999268e-01 1.486048996448516846e-01 3.542613685131072998e-01 -3.644028604030609131e-01
-5.769907683134078979e-02 1.984926909208297729e-01 2.321211993694305420e-01 -2.539176642894744873e-01 -2.081177383661270142e-01 9.538972377777099609e-02 1.999644190073013306e-01 2.166626900434494019e-01 1.110497191548347473e-01 -1.028472632169723511e-01 -2.383431941270828247e-01 -2.262617200613021851e-01 5.595530867576599121e-01 -2.073631882667541504e-01 -1.472591161727905273e-01 1.479361951351165771e-01 2.781057059764862061e-01 4.951817914843559265e-02 -1.213024836033582687e-02 1.323880255222320557e-01 1.173377260565757751e-01 -1.165627911686897278e-01 1.760601699352264404e-01 3.524965941905975342e-01 3.509765267372131348e-01 -2.632636427879333496e-01 -1.635749936103820801e-01 3.212157189846038818e-01 -1.136647686362266541e-01 -1.767165064811706543e-01 -2.846367657184600830e-01
3.429437875747680664e-01 -2.329497486352920532e-01 3.479778394103050232e-02 1.137857511639595032e-01 6.856152415275573730e-02 1.940051168203353882e-01 8.063993602991104126e-02 -2.980114221572875977e-01 -3.201120793819427490e-01 1.330321282148361206e-01 -3.112315833568572998e-01 3.068458735942840576e-01 1.017091050744056702e-01 1.475180387496948242e-01 -3.809487223625183105e-01 -1.357453614473342896e-01 3.171464055776596069e-02 -1.466928273439407349e-01 -3.938797414302825928e-01 3.057928979396820068e-01 8.685906976461410522e-02 -1.801935732364654541e-01 -1.549407690763473511e-01 -4.716969728469848633e-01 2.663103044033050537e-01 -7.921691238880157471e-02 1.745576709508895874e-01 7.691760361194610596e-02 8.802345395088195801e-02 5.878833308815956116e-02 -3.552626073360443115e-01
3.283304274082183838e-01 -7.000192999839782715e-02 5.533487200736999512e-01 1.038247942924499512e+00 5.720850229263305664e-01 2.895703017711639404e-01 -1.366221010684967041e-01 6.752292811870574951e-02 -4.193988740444183350e-01 -1.770298331975936890e-01 -5.217914581298828125e-01 -1.963856667280197144e-01 -1.403152197599411011e-01 -5.163769796490669250e-02 -2.330872863531112671e-01 -1.133284717798233032e-01 -1.914710849523544312e-01 -1.249803230166435242e-01 -1.024351045489311218e-01 -1.323283761739730835e-01 -2.586666941642761230e-01 -2.875203192234039307e-01 4.296254217624664307e-01 -2.156322076916694641e-02 4.927227199077606201e-01 7.724449504166841507e-03 -3.568747341632843018e-01 2.300788015127182007e-01 4.003902375698089600e-01 -1.505089551210403442e-01 -4.768948554992675781e-01
6.195797920227050781e-01 5.627368763089179993e-02 3.311289846897125244e-01 5.075525641441345215e-01 8.429930359125137329e-02 -1.636616289615631104e-01 1.013817489147186279e-01 1.371107846498489380e-01 9.539332240819931030e-02 3.475207388401031494e-01 2.469311505556106567e-01 1.409477740526199341e-01 -1.238250508904457092e-01 5.696797743439674377e-02 2.231034487485885620e-01 -2.032840698957443237e-01 1.064288690686225891e-01 2.392776310443878174e-01 2.962922751903533936e-01 3.370825201272964478e-02 -1.864901185035705566e-02 4.470375552773475647e-02 4.182206988334655762e-01 2.501766085624694824e-01 1.267276406288146973e-01 -1.327747702598571777e-01 4.780778288841247559e-02 1.550661921501159668e-01 -1.628115177154541016e-01 -1.473769694566726685e-01 -1.152324825525283813e-01
3.492450714111328125e-01 3.877939879894256592e-01 3.990461677312850952e-02 4.148753359913825989e-02 -8.832122385501861572e-02 -7.633811235427856445e-01 3.464495539665222168e-01 -1.641612052917480469e-01 2.116497904062271118e-01 -1.028366237878799438e-01 -1.574805527925491333e-01 -3.202020227909088135e-01 1.031477302312850952e-01 -3.514239192008972168e-01 -9.367226809263229370e-02 5.237850546836853027e-01 -1.041309908032417297e-01 -1.679473668336868286e-01 -8.923754096031188965e-02 6.403205394744873047e-01 1.290355473756790161e-01 -1.510735154151916504e-01 2.169304490089416504e-01 1.805150359869003296e-01 -8.466598391532897949e-02 1.033617258071899414e-01 2.338333427906036377e-01 2.767311036586761475e-02 1.219855062663555145e-02 -3.972688913345336914e-01 -7.277917861938476562e-02
6.822426617145538330e-02 5.884533524513244629e-01 4.449151456356048584e-01 5.251705646514892578e-01 1.148388683795928955e-01 -9.579493850469589233e-02 1.468780799768865108e-03 6.938256025314331055e-01 5.277561545372009277e-01 8.133681863546371460e-02 -3.258058428764343262e-01 1.516133546829223633e-01 2.289556115865707397e-01 2.140367031097412109e-01 3.944998234510421753e-02 -1.957173496484756470e-01 1.564461588859558105e-01 1.125638335943222046e-01 1.068144217133522034e-01 -3.382866978645324707e-01 -7.930833101272583008e-02 2.742502987384796143e-01 2.685914337635040283e-01 1.031184718012809753e-01 3.021368980407714844e-01 4.347338676452636719e-01 2.210996299982070923e-01 -3.860610723495483398e-01 -7.334514707326889038e-02 -3.184330463409423828e-02 -2.313463538885116577e-01
6.953724622726440430e-01 1.857736259698867798e-01 2.899907231330871582e-01 3.224097788333892822e-01 -1.550541073083877563e-01 -1.100873500108718872e-01 1.274448186159133911e-01 -1.315871924161911011e-01 -1.043348759412765503e-01 2.297795191407203674e-02 -2.038995474576950073e-01 1.687554419040679932e-01 -2.918941676616668701e-01 -3.431010246276855469e-01 -2.567467689514160156e-01 -8.060953021049499512e-02 1.062744036316871643e-01 -3.809450939297676086e-02 -4.550930857658386230e-02 1.436264663934707642e-01 2.037104219198226929e-02 -3.793431818485260010e-01 1.414968371391296387e-01 2.710830271244049072e-01 -6.917659193277359009e-02 -6.866424530744552612e-02 -3.286643028259277344e-01 -1.528600007295608521e-01 -3.606313169002532959e-01 -1.467034220695495605e-01 -1.549326926469802856e-01
7.167948037385940552e-02 -4.348573088645935059e-02 5.650906562805175781e-01 7.504641413688659668e-01 4.432168006896972656e-01 1.530580371618270874e-01 -9.223634004592895508e-02 1.409030109643936157e-01 -6.556344684213399887e-03 -1.306024938821792603e-01 -3.569157123565673828e-01 1.619175672531127930e-01 4.519010782241821289e-01 5.036249160766601562e-01 -1.619027927517890930e-02 -2.991283871233463287e-02 -1.781435757875442505e-01 -6.295846402645111084e-02 -3.600432723760604858e-02 -2.952065169811248779e-01 -2.069689184427261353e-01 3.719740211963653564e-01 4.109248891472816467e-02 -1.633194983005523682e-01 2.448048889636993408e-01 2.251548022031784058e-01 -7.009569089859724045e-03 3.737338781356811523e-01 8.114590495824813843e-02 4.274418354034423828e-01 -2.499731183052062988e-01
3.749649524688720703e-01 3.409560620784759521e-01 3.148347437381744385e-01 1.363529264926910400e-01 7.080054283142089844e-02 -6.796017289161682129e-02 -1.697725802659988403e-02 -2.604854106903076172e-01 -1.435340046882629395e-01 2.889633476734161377e-01 1.376208364963531494e-01 2.725252509117126465e-01 -2.956983074545860291e-02 -1.921699941158294678e-01 -1.598167121410369873e-01 1.069840490818023682e-01 -2.253711819648742676e-01 -2.597855329513549805e-01 -6.877354532480239868e-02 1.496502012014389038e-01 -2.934269979596138000e-02 -1.777547001838684082e-01 1.854033172130584717e-01 -1.937206983566284180e-01 2.500672936439514160e-01 -2.182043492794036865e-01 1.571358591318130493e-01 1.859238296747207642e-01 7.127851247787475586e-02 -2.673448324203491211e-01 -3.622141182422637939e-01
4.102874994277954102e-01 1.844446733593940735e-02 -6.081384047865867615e-02 -3.430517911911010742e-01 -2.303903996944427490e-01 2.160031199455261230e-01 5.639396309852600098e-01 -3.301360309123992920e-01 -2.397868931293487549e-01 2.091427743434906006e-01 -3.471056520938873291e-01 4.632839560508728027e-01 1.419627368450164795e-01 -9.855815768241882324e-02 -2.333159372210502625e-02 5.820527076721191406e-01 -2.106157392263412476e-01 -2.723354697227478027e-01 -1.599809676408767700e-01 3.970428705215454102e-01 -1.047917976975440979e-01 -4.326655268669128418e-01 -5.487730503082275391e-01 -1.018135994672775269e-01 5.743443965911865234e-02 -4.382782280445098877e-01 2.904307246208190918e-01 2.985455691814422607e-01 1.486595124006271362e-01 -8.752549439668655396e-02 -2.383753061294555664e-01
9.034460037946701050e-02 -3.384566605091094971e-01 -2.030337452888488770e-01 -1.447880454361438751e-02 -1.393684297800064087e-01 -7.245419621467590332e-01 1.868714988231658936e-01 1.436601579189300537e-01 1.287735700607299805e-01 9.323584288358688354e-02 -2.054492831230163574e-01 2.142563462257385254e-01 -5.490298271179199219e-01 5.347842723131179810e-02 -1.804354637861251831e-01 3.482933342456817627e-01 -6.652972698211669922e-01 -1.452796459197998047e-01 -1.881245821714401245e-01 5.450287833809852600e-02 -3.238734602928161621e-01 -7.941412180662155151e-02 -3.649475425481796265e-02 -2.650478109717369080e-02 -1.348975598812103271e-01 1.249971911311149597e-01 4.170902669429779053e-01 8.495979011058807373e-02 -2.786170877516269684e-02 -1.692322045564651489e-01 2.741491496562957764e-01
4.054654538631439209e-01 -1.939141601324081421e-01 8.450465649366378784e-02 -1.551954895257949829e-01 -2.740413844585418701e-01 4.072707891464233398e-01 2.962206006050109863e-01 -3.251044452190399170e-02 -2.895379066467285156e-01 3.403301835060119629e-01 -2.709823548793792725e-01 1.362097114324569702e-01 1.982996761798858643e-01 -7.099130004644393921e-02 7.092738151550292969e-02 6.211210414767265320e-02 1.632264852523803711e-01 -2.459520101547241211e-02 7.732372730970382690e-02 2.231588363647460938e-01 2.762622665613889694e-03 -4.244303703308105469e-01 -1.573817580938339233e-01 2.201198786497116089e-01 -1.191437467932701111e-01 -2.132239937782287598e-01 3.539083003997802734e-01 -6.592752039432525635e-02 3.126889467239379883e-02 5.530260875821113586e-02 7.327990978956222534e-02
-2.524763643741607666e-01 1.773885935544967651e-01 6.627500057220458984e-01 5.736061334609985352e-01 3.717500567436218262e-01 5.654734969139099121e-01 1.333959698677062988e-01 1.278186440467834473e-01 2.506210207939147949e-01 -1.719102412462234497e-01 -5.836291611194610596e-02 -2.375777438282966614e-02 -1.986749283969402313e-02 2.536173760890960693e-01 -6.502912193536758423e-02 -2.619630098342895508e-01 1.681241020560264587e-02 7.470729202032089233e-02 -9.722673147916793823e-02 -2.578956186771392822e-01 1.543116867542266846e-01 3.180249333381652832e-01 -3.102396130561828613e-01 1.124464124441146851e-01 -1.510291397571563721e-01 2.246292084455490112e-01 -5.497223734855651855e-01 -8.964451402425765991e-02 1.307185590267181396e-01 3.890122473239898682e-02 3.373381197452545166e-01
2.250675112009048462e-02 8.874893784523010254e-01 1.686900377273559570e+00 6.444778293371200562e-02 2.810398042201995850e-01 -1.488029211759567261e-01 1.342641562223434448e-01 2.053455412387847900e-01 -1.536890417337417603e-01 2.852592766284942627e-01 -3.179251253604888916e-01 -1.630170643329620361e-01 -2.453259751200675964e-02 -1.629093587398529053e-01 7.954329997301101685e-02 -4.491531848907470703e-01 -1.071243435144424438e-01 -2.267841100692749023e-01 -6.563287973403930664e-02 -2.575476467609405518e-01 8.070185035467147827e-02 -1.123287715017795563e-02 -5.472502708435058594e-01 1.744315326213836670e-01 4.640235379338264465e-02 1.710050404071807861e-01 -3.291884958744049072e-01 -1.174863707274198532e-02 -2.118121981620788574e-01 1.932405680418014526e-01 -6.606821436434984207e-03
-2.818467095494270325e-02 1.271257102489471436e-01 1.021091341972351074e-01 -2.292911559343338013e-01 -1.292539387941360474e-01 5.578144788742065430e-01 2.009349167346954346e-01 -8.438320159912109375e-01 5.383937358856201172e-01 -1.742310672998428345e-01 -2.511593699455261230e-01 -3.070701658725738525e-01 4.032273888587951660e-01 5.396861210465431213e-02 -4.645539820194244385e-01 3.196282684803009033e-01 3.034965395927429199e-01 -4.116735756397247314e-01 -5.740023255348205566e-01 3.267920315265655518e-01 3.001009523868560791e-01 -3.213680163025856018e-02 6.386146545410156250e-01 1.374698400497436523e+00 -2.943250536918640137e-02 -4.834790527820587158e-01 -5.774707198143005371e-01 2.746701836585998535e-01 -4.751067236065864563e-02 7.975925691425800323e-03 -1.916525959968566895e-01
2.108514308929443359e-01 -3.432558476924896240e-01 -4.631056487560272217e-01 -2.142947167158126831e-01 -2.945905625820159912e-01 -2.620891034603118896e-01 -1.694274544715881348e-01 2.304655127227306366e-02 1.966620385646820068e-01 3.832779228687286377e-01 -2.353200316429138184e-02 4.075246751308441162e-01 5.295042991638183594e-01 1.589796505868434906e-02 1.412292867898941040e-01 2.953576445579528809e-01 -4.604836106300354004e-01 -1.917981915175914764e-02 4.636515304446220398e-02 8.058255165815353394e-02 -3.301210403442382812e-01 2.099772393703460693e-01 3.553716242313385010e-01 6.935628503561019897e-02 2.063902616500854492e-01 3.302327394485473633e-01 6.541182994842529297e-01 1.608542948961257935e-01 -2.319375723600387573e-01 -2.353321611881256104e-01 1.725842207670211792e-01
6.445078849792480469e-01 -2.781180851161479950e-02 8.129863999783992767e-03 7.669656723737716675e-02 -8.721437305212020874e-02 -5.125523805618286133e-01 -1.378118991851806641e-01 -9.447689168155193329e-03 2.277856320142745972e-01 -9.023240953683853149e-02 2.000838220119476318e-01 -1.957456618547439575e-01 -3.174213469028472900e-01 2.820456624031066895e-01 5.873451232910156250e-01 1.764721572399139404e-01 1.037335619330406189e-01 3.006834685802459717e-01 3.072470724582672119e-01 7.915639877319335938e-02 5.843584891408681870e-03 -2.493047863245010376e-01 2.060156315565109253e-01 1.455679982900619507e-01 -2.443736791610717773e-01 1.465400159358978271e-01 1.446283459663391113e-01 -9.621426463127136230e-02 -4.534468352794647217e-01 -6.537717580795288086e-01 2.405826896429061890e-01
2.659005522727966309e-01 1.673143655061721802e-01 -3.009419143199920654e-01 -2.520122826099395752e-01 -7.214880734682083130e-02 -5.822538137435913086e-01 -1.259904950857162476e-01 -3.031473979353904724e-02 2.522434592247009277e-01 3.618622198700904846e-02 4.499051347374916077e-02 -6.150059774518013000e-02 -2.605825662612915039e-01 -9.791860729455947876e-02 9.163627773523330688e-02 1.143058910965919495e-01 -2.434379011392593384e-01 1.753571182489395142e-01 2.466666400432586670e-01 1.311646103858947754e-01 -1.943062096834182739e-01 -3.517000377178192139e-02 4.297102689743041992e-01 1.991626173257827759e-01 -5.486702322959899902e-01 1.171002015471458435e-01 4.490428268909454346e-01 -1.848202794790267944e-01 -7.819205522537231445e-02 -7.599013298749923706e-02 1.129562705755233765e-01
-4.148804247379302979e-01 -1.640180498361587524e-01 1.047579199075698853e-01 -1.240184903144836426e-02 -2.216196060180664062e-01 -1.342988610267639160e+00 3.824875950813293457e-01 7.916679978370666504e-02 1.807422935962677002e-01 -6.418065726757049561e-02 1.430204976350069046e-02 -1.525927633047103882e-01 3.545579016208648682e-01 -1.345707625150680542e-01 3.224695101380348206e-04 -3.934420943260192871e-01 2.366411238908767700e-01 -1.687181591987609863e-01 9.842661675065755844e-04 5.454113483428955078e-01 3.381384611129760742e-01 -4.818539023399353027e-01 2.372172325849533081e-01 2.103094756603240967e-01 -3.121927082538604736e-01 2.910553514957427979e-01 -1.229847818613052368e-01 4.309059306979179382e-02 7.039086520671844482e-02 -3.479155302047729492e-01 2.376521080732345581e-01
2.269177883863449097e-02 -1.969381123781204224e-01 -8.265738189220428467e-02 4.555193781852722168e-01 -1.716683432459831238e-02 -9.425796270370483398e-01 8.102235198020935059e-02 1.903979182243347168e-01 -7.363337278366088867e-02 -8.660715818405151367e-02 -3.288693726062774658e-01 -2.880370318889617920e-01 2.938560843467712402e-01 -1.246005073189735413e-01 2.839296124875545502e-02 5.270839482545852661e-02 8.153104037046432495e-02 2.395162582397460938e-01 1.931935697793960571e-01 -1.156534813344478607e-02 1.008199900388717651e-02 -2.666220068931579590e-01 2.279518842697143555e-01 -2.527926862239837646e-02 -2.335716485977172852e-01 -1.325768679380416870e-01 1.092696040868759155e-01 -2.817451953887939453e-02 -2.487878054380416870e-01 -1.310755759477615356e-01 -2.339001297950744629e-01
-8.605375885963439941e-02 3.568765893578529358e-02 2.585846483707427979e-01 9.096494317054748535e-02 8.613117039203643799e-02 4.701381325721740723e-01 2.378666251897811890e-01 -7.765403389930725098e-02 -4.895599186420440674e-01 -1.358108688145875931e-02 -9.245048277080059052e-03 -2.005336731672286987e-01 7.619978785514831543e-01 -6.094603538513183594e-01 2.768735773861408234e-02 1.361646354198455811e-01 6.483009457588195801e-01 6.054732203483581543e-02 1.857294738292694092e-01 3.319570422172546387e-01 5.289983153343200684e-01 -1.531057246029376984e-02 1.633183360099792480e-01 4.669071733951568604e-01 5.888888835906982422e-01 1.717238724231719971e-01 1.817284226417541504e-01 5.877387523651123047e-01 -1.685849740169942379e-03 -7.047848193906247616e-04 -5.095776915550231934e-01
2.866356670856475830e-01 6.602849811315536499e-02 6.542256474494934082e-02 1.270646452903747559e-01 8.776915073394775391e-02 5.979341864585876465e-01 -2.104846239089965820e-01 -1.010702736675739288e-02 1.500338315963745117e-01 7.080174982547760010e-02 1.499830633401870728e-01 5.455324053764343262e-01 2.827160060405731201e-01 1.683420240879058838e-01 2.108761519193649292e-01 -1.902215927839279175e-01 -1.546215713024139404e-01 1.622647941112518311e-01 1.455223560333251953e-01 -2.202735990285873413e-01 -1.378691047430038452e-01 3.987842798233032227e-01 1.127264499664306641e-01 -2.760368883609771729e-01 -1.313255727291107178e-01 -3.593564406037330627e-02 -1.319348514080047607e-01 -2.388508915901184082e-01 2.812534272670745850e-01 4.984251558780670166e-01 4.957116842269897461e-01
5.655657649040222168e-01 -4.352909922599792480e-01 5.469930171966552734e-01 6.199100017547607422e-01 4.221394956111907959e-01 3.700829744338989258e-01 1.807401031255722046e-01 1.029589995741844177e-01 -4.645352363586425781e-01 -3.005635142326354980e-01 -5.567678064107894897e-02 2.325868420302867889e-02 6.674265861511230469e-01 -1.800309866666793823e-02 -3.766815364360809326e-02 3.995123803615570068e-01 -1.419494748115539551e-01 7.928887754678726196e-02 1.062261499464511871e-02 -4.801786690950393677e-02 -1.571086645126342773e-01 2.037506997585296631e-01 -1.586489938199520111e-02 3.359259665012359619e-02 1.531330775469541550e-02 2.815669178962707520e-01 -9.171061217784881592e-02 1.196174100041389465e-01 -9.460300952196121216e-02 -9.251991659402847290e-02 3.501017689704895020e-01
-9.445121139287948608e-02 -4.217843711376190186e-01 4.137712065130472183e-03 7.755333930253982544e-02 4.302226379513740540e-02 4.410031437873840332e-01 8.733974397182464600e-02 -2.044983208179473877e-01 -2.573294639587402344e-01 -4.442803934216499329e-02 -1.148843914270401001e-01 4.989228770136833191e-02 -3.725479543209075928e-01 1.311876624822616577e-01 -1.417388021945953369e-01 -3.427243232727050781e-01 1.594045162200927734e-01 3.233760595321655273e-02 -1.041314229369163513e-01 2.598521299660205841e-02 1.600398272275924683e-01 2.188229858875274658e-01 -2.544732689857482910e-01 2.531717121601104736e-01 1.217242106795310974e-01 4.763361811637878418e-02 -3.151138871908187866e-02 2.104745656251907349e-01 1.446146219968795776e-01 3.347435593605041504e-01 -1.319616585969924927e-01
6.974515914916992188e-01 -4.314633905887603760e-01 -2.322342395782470703e-01 -3.781826794147491455e-01 -3.491796851158142090e-01 5.881732106208801270e-01 3.850385546684265137e-01 1.618698388338088989e-01 8.359839767217636108e-02 -7.442995905876159668e-02 9.440824389457702637e-02 -1.556900590658187866e-01 3.811231851577758789e-01 -2.165616899728775024e-01 -3.712353408336639404e-01 2.285547405481338501e-01 -1.661642640829086304e-01 -2.710385322570800781e-01 -2.638853192329406738e-01 2.230754196643829346e-01 -1.910169869661331177e-01 -1.522659063339233398e-01 -1.984748244285583496e-01 4.888058006763458252e-01 -1.407333165407180786e-01 -2.047094330191612244e-02 -1.167937517166137695e-01 -2.140949219465255737e-01 -4.894183278083801270e-01 -1.025628745555877686e-01 1.775210797786712646e-01
3.189557790756225586e-01 3.180151283740997314e-01 1.343367714434862137e-02 5.313675478100776672e-02 -1.296321153640747070e-01 1.788830012083053589e-01 -2.370020896196365356e-01 -6.750303506851196289e-02 -4.508514106273651123e-01 -7.757753878831863403e-02 3.383797407150268555e-01 -1.692699640989303589e-01 -2.283139824867248535e-01 3.484361618757247925e-02 1.795534491539001465e-01 -1.652664393186569214e-01 1.004775315523147583e-01 1.078776717185974121e-01 2.142622321844100952e-01 2.031087176874279976e-03 -1.087882667779922485e-01 -2.706802189350128174e-01 2.497171759605407715e-01 -1.518769562244415283e-01 7.087324559688568115e-02 -3.666721880435943604e-01 -7.054100930690765381e-02 2.031869888305664062e-01 1.606521308422088623e-01 2.501936852931976318e-01 -2.757350206375122070e-01
-4.263103306293487549e-01 1.902712285518646240e-01 1.061265468597412109e+00 6.352572441101074219e-01 4.296296238899230957e-01 -3.145385384559631348e-01 1.529410779476165771e-01 8.428134606219828129e-04 7.186760306358337402e-01 -1.015156954526901245e-01 -2.917501032352447510e-01 -5.738522410392761230e-01 3.709682226181030273e-01 -5.691504571586847305e-03 -5.052526295185089111e-02 -3.637877702713012695e-01 -1.103341057896614075e-01 -4.392484202980995178e-03 2.039254456758499146e-02 3.813097253441810608e-02 4.459464922547340393e-02 -2.335386350750923157e-02 -8.011896163225173950e-02 1.245006099343299866e-01 -4.104087054729461670e-01 -1.776220947504043579e-01 -7.122200727462768555e-01 -6.763549894094467163e-02 -7.542232424020767212e-02 -3.334694504737854004e-01 3.818964362144470215e-01
4.716306328773498535e-01 -5.227987170219421387e-01 1.228554621338844299e-01 5.699787139892578125e-01 3.545526266098022461e-01 6.464352011680603027e-01 -5.988024547696113586e-02 6.494946479797363281e-01 -1.035385802388191223e-01 -1.725168079137802124e-01 3.342953324317932129e-02 -2.688458561897277832e-01 4.187323451042175293e-01 3.091780527029186487e-04 1.751239448785781860e-01 -5.600919127464294434e-01 -1.806772872805595398e-02 2.128418982028961182e-01 2.653647959232330322e-01 -2.761537432670593262e-01 -2.890253365039825439e-01 7.904382795095443726e-02 1.080588903278112411e-02 -2.557112872600555420e-01 2.269788831472396851e-02 -6.421580165624618530e-02 -2.047114223241806030e-01 -2.111610770225524902e-01 7.087674736976623535e-02 2.413555830717086792e-01 2.442100085318088531e-02
-1.026795431971549988e-01 1.046025902032852173e-01 4.235298186540603638e-02 3.370729461312294006e-02 2.131286710500717163e-01 6.082181930541992188e-01 3.265642821788787842e-01 -3.608572483062744141e-01 2.356779277324676514e-01 2.318426966667175293e-01 -9.203441441059112549e-02 3.567023575305938721e-01 -1.565088331699371338e-01 -3.764028251171112061e-01 -1.474947452545166016e+00 2.607985213398933411e-02 7.294163703918457031e-01 -7.409737110137939453e-01 -9.295243024826049805e-01 6.974628567695617676e-02 4.980528652667999268e-01 2.698386609554290771e-01 -7.445626854896545410e-01 -1.959872543811798096e-01 2.733936607837677002e-01 2.201780825853347778e-01 -2.373383939266204834e-01 -7.051832508295774460e-03 3.484525978565216064e-01 -2.489518821239471436e-01 -7.503556460142135620e-02
7.353196740150451660e-01 1.986138755455613136e-03 5.098371505737304688e-01 4.308722317218780518e-01 -1.716783456504344940e-02 6.640873849391937256e-02 4.994556307792663574e-02 -2.342127859592437744e-01 1.360059622675180435e-02 -1.267273575067520142e-01 -1.591957360506057739e-01 1.565118134021759033e-01 8.790291845798492432e-02 -1.547946631908416748e-01 -1.165321692824363708e-01 -1.941730827093124390e-01 7.036358118057250977e-02 -2.258545719087123871e-02 -1.002939045429229736e-01 1.006526127457618713e-02 -4.650543257594108582e-02 1.653952896595001221e-01 8.566368371248245239e-02 2.984822690486907959e-01 8.174789696931838989e-02 1.496312022209167480e-01 -4.516351222991943359e-02 3.041422069072723389e-01 2.770627737045288086e-01 1.707424074411392212e-01 9.334284812211990356e-03
1.396694332361221313e-01 2.804705500602722168e-01 7.542235255241394043e-01 2.979104220867156982e-01 2.238754481077194214e-01 1.220306456089019775e-01 5.215202569961547852e-01 -5.269716978073120117e-01 2.170868813991546631e-01 -2.233159095048904419e-01 -4.062439799308776855e-01 -4.086698591709136963e-02 -1.160488054156303406e-01 -2.556208334863185883e-02 -1.063516139984130859e-01 -5.489401817321777344e-01 2.239964753389358521e-01 -7.824778556823730469e-03 -8.142053335905075073e-02 -1.412434577941894531e-01 -1.914996355772018433e-01 3.992921710014343262e-01 -2.093133926391601562e-01 2.100306600332260132e-01 -4.252596944570541382e-02 4.583816528320312500e-01 -2.986908890306949615e-02 -1.184275969862937927e-01 -7.728495635092258453e-03 -1.463369280099868774e-01 4.282574653625488281e-01
8.588944077491760254e-01 -3.006222248077392578e-01 2.648450732231140137e-01 2.075782567262649536e-01 -7.942037656903266907e-03 2.527536153793334961e-01 -1.162178814411163330e-01 1.406373642385005951e-02 -6.158056110143661499e-02 2.528875172138214111e-01 -4.304645583033561707e-02 -1.983625739812850952e-01 -9.356046468019485474e-02 -1.005868017673492432e-01 1.820408850908279419e-01 3.012347221374511719e-02 1.690624654293060303e-01 -1.406420022249221802e-01 8.820612728595733643e-02 3.050130791962146759e-02 2.681404352188110352e-02 -8.851405233144760132e-02 3.114404976367950439e-01 2.110308706760406494e-01 -5.073229596018791199e-02 1.712802983820438385e-02 2.181758359074592590e-02 -6.538311392068862915e-02 -1.178208813071250916e-01 -4.971356689929962158e-02 1.578811705112457275e-01
5.153179168701171875e-01 2.403858006000518799e-01 1.214357092976570129e-01 2.935821712017059326e-01 -1.767637431621551514e-01 -4.583213925361633301e-01 -1.146820262074470520e-01 -2.483836375176906586e-02 1.079523041844367981e-01 4.043744206428527832e-01 -2.823601104319095612e-02 2.536676526069641113e-01 3.314463198184967041e-01 5.296119451522827148e-01 -2.682152092456817627e-01 9.826919436454772949e-02 2.346994429826736450e-01 -4.419375956058502197e-02 -2.151971459388732910e-01 -2.928273975849151611e-01 -4.001690447330474854e-01 -2.111915498971939087e-01 3.303869068622589111e-01 1.082269698381423950e-01 -1.681863069534301758e-01 -4.061671197414398193e-01 8.636272698640823364e-02 -1.626250743865966797e-01 -4.083207808434963226e-03 3.036985397338867188e-01 -1.523851007223129272e-01
4.907993078231811523e-01 -6.019054651260375977e-01 -1.712211221456527710e-01 2.351277321577072144e-01 -7.185518741607666016e-02 -3.961885347962379456e-02 -1.826983876526355743e-02 -1.733039170503616333e-01 2.769284844398498535e-01 -8.921892940998077393e-02 2.803523652255535126e-02 4.201002046465873718e-02 -1.213594079017639160e-01 3.435264155268669128e-02 8.891435712575912476e-02 2.016316801309585571e-01 -3.000858426094055176e-01 -3.582361340522766113e-02 -3.517158329486846924e-02 -8.627499639987945557e-02 -1.416402757167816162e-01 9.748238325119018555e-02 -1.151645928621292114e-01 1.436847378499805927e-03 -1.340642124414443970e-01 -9.404532611370086670e-02 2.166381925344467163e-01 -2.436643699184060097e-03 5.983795598149299622e-02 1.786806583404541016e-01 3.859445825219154358e-02
3.434064090251922607e-01 -3.748526871204376221e-01 -1.336724609136581421e-01 2.807988822460174561e-01 8.025973290205001831e-02 2.492234706878662109e-01 9.947432875633239746e-01 1.806436032056808472e-01 -1.550528705120086670e-01 -3.810251653194427490e-01 -7.946496605873107910e-01 -3.254605531692504883e-01 3.282708823680877686e-01 -1.288250833749771118e-01 -2.962972521781921387e-01 3.461019694805145264e-01 7.287768125534057617e-01 -1.137955412268638611e-01 -1.589322239160537720e-01 3.399567008018493652e-01 6.566390395164489746e-01 -2.301038354635238647e-01 -7.743973731994628906e-01 4.002655148506164551e-01 1.718505620956420898e-01 -5.599711537361145020e-01 -1.144231632351875305e-01 3.611917495727539062e-01 5.434685349464416504e-01 -1.965559870004653931e-01 -2.706774175167083740e-01
-1.183852925896644592e-01 -2.794553041458129883e-01 -1.660999357700347900e-01 -1.005146130919456482e-01 -5.676095187664031982e-02 5.465901270508766174e-02 4.644874110817909241e-02 -3.148374259471893311e-01 3.729697763919830322e-01 2.194612026214599609e-01 -1.246581971645355225e-01 2.734749913215637207e-01 -6.347041577100753784e-02 -5.381385236978530884e-02 -1.185945495963096619e-01 1.914914399385452271e-01 1.329938787966966629e-02 1.129207760095596313e-01 -8.691892772912979126e-02 2.055831253528594971e-01 1.398420780897140503e-01 -2.974714040756225586e-01 -7.943068444728851318e-02 1.205250993371009827e-01 -1.716675460338592529e-01 2.828532084822654724e-02 -1.152528543025255203e-02 -2.707320451736450195e-01 -4.788506925106048584e-01 -3.796719610691070557e-01 2.481073588132858276e-01
6.776467561721801758e-01 -2.435758896172046661e-02 4.427282139658927917e-02 1.522899389266967773e+00 3.427659869194030762e-01 -3.207098543643951416e-01 -1.618029475212097168e-01 -1.839971356093883514e-02 6.140121817588806152e-02 1.323396861553192139e-01 -1.364307850599288940e-01 -5.157740786671638489e-03 1.932786405086517334e-02 -3.661090880632400513e-02 3.906313795596361160e-03 -1.047539412975311279e-01 1.467358171939849854e-01 -4.860895499587059021e-02 3.167784214019775391e-02 -1.009474173188209534e-01 -1.020871996879577637e-01 9.832710027694702148e-02 -8.304641395807266235e-02 -4.048236906528472900e-01 -3.573657870292663574e-01 6.149755418300628662e-02 -5.319644138216972351e-02 -7.437416166067123413e-02 -1.668594479560852051e-01 2.644761800765991211e-01 -1.510203070938587189e-02
2.350515723228454590e-01 -4.007813036441802979e-01 -8.199057728052139282e-02 4.446839541196823120e-02 3.955379500985145569e-02 -2.352942675352096558e-01 1.833839267492294312e-01 -4.061624407768249512e-02 -1.482929289340972900e-01 -2.983523905277252197e-01 2.352165877819061279e-01 -1.190811917185783386e-01 1.330892145633697510e-01 9.725259244441986084e-02 2.604232728481292725e-01 -7.113113403320312500e-01 -2.396815568208694458e-01 4.842404425144195557e-01 3.830552101135253906e-01 -2.857950329780578613e-01 -1.149393171072006226e-01 -1.191958636045455933e-01 1.663223654031753540e-01 6.232586503028869629e-01 1.325031965970993042e-01 3.286900743842124939e-02 1.270578149706125259e-02 6.816703826189041138e-02 -6.038941070437431335e-02 -1.936472803354263306e-01 -1.033484004437923431e-02
8.337638974189758301e-01 -9.516231715679168701e-02 6.401413083076477051e-01 3.272919952869415283e-01 -1.298563331365585327e-01 3.596600592136383057e-01 2.042565494775772095e-01 2.195061743259429932e-01 2.008416876196861267e-02 -4.435762465000152588e-01 -1.104882732033729553e-01 -2.094924151897430420e-01 3.085121512413024902e-02 2.803424187004566193e-02 -2.755874693393707275e-01 3.317547142505645752e-01 -3.692227974534034729e-02 1.466652005910873413e-01 -1.258176267147064209e-01 2.991587622091174126e-03 1.271066218614578247e-01 -4.716084897518157959e-01 -1.645865440368652344e-01 4.978097975254058838e-01 3.220930397510528564e-01 -3.352536857128143311e-01 -2.551583349704742432e-01 4.879751801490783691e-01 7.429803162813186646e-02 -3.254252076148986816e-01 -4.446108937263488770e-01
1.889073848724365234e-01 3.146648108959197998e-01 -3.994463384151458740e-02 -4.995305091142654419e-02 -1.655619218945503235e-02 -8.928682655096054077e-02 3.631880581378936768e-01 -9.782195091247558594e-02 -1.995812505483627319e-01 3.016545772552490234e-01 -1.447081267833709717e-01 -1.609159857034683228e-01 4.443738460540771484e-01 -1.494305133819580078e-01 -5.893199443817138672e-01 -1.344280838966369629e-01 -3.412641584873199463e-01 -1.123747706413269043e+00 -1.112393617630004883e+00 -6.111115217208862305e-02 -1.013819053769111633e-01 1.559639573097229004e-01 5.494410637766122818e-03 1.280640996992588043e-02 -1.559477150440216064e-01 2.447536587715148926e-01 -3.322279751300811768e-01 -1.191058102995157242e-02 3.350243866443634033e-01 2.071964144706726074e-01 1.743395626544952393e-01
1.878147572278976440e-01 5.394728183746337891e-01 4.446013271808624268e-01 3.555353581905364990e-01 7.751963287591934204e-02 -8.214139193296432495e-02 -2.600301504135131836e-01 -2.115141134709119797e-03 3.161791861057281494e-01 -2.378260493278503418e-01 -6.559224426746368408e-02 -6.284730136394500732e-02 -1.344597786664962769e-01 1.125107482075691223e-01 -3.926548734307289124e-02 2.826506197452545166e-01 -2.096068710088729858e-01 6.020535156130790710e-02 5.867444351315498352e-02 2.814865857362747192e-02 -2.968711555004119873e-01 -6.342332065105438232e-02 2.826616764068603516e-01 1.418563574552536011e-01 -4.248243942856788635e-02 2.302632667124271393e-02 1.668266803026199341e-01 -2.942088246345520020e-02 -5.529522895812988281e-03 -8.153037726879119873e-02 1.451295316219329834e-01
3.352367281913757324e-01 -5.774196982383728027e-01 -1.455949395895004272e-01 2.103967219591140747e-01 4.690451547503471375e-02 -4.361789524555206299e-01 -1.014507859945297241e-01 -8.026048541069030762e-02 -1.750548630952835083e-01 4.404708743095397949e-01 2.677373886108398438e-01 2.082369029521942139e-01 -1.012729406356811523e-01 2.947434186935424805e-01 1.781662553548812866e-01 3.993746042251586914e-01 -1.064639210700988770e+00 -1.814757883548736572e-01 -1.606283783912658691e-01 -2.496861480176448822e-02 -4.793805480003356934e-01 -6.283034682273864746e-01 3.007590174674987793e-01 -2.300024330615997314e-01 -1.299697011709213257e-01 -1.943179070949554443e-01 5.760816931724548340e-01 1.469705700874328613e-01 -1.994539797306060791e-01 -4.345240890979766846e-01 -2.583412081003189087e-02
3.317270576953887939e-01 9.415686130523681641e-02 2.792941331863403320e-01 3.236084580421447754e-01 -1.644260734319686890e-01 3.482550084590911865e-01 4.095613956451416016e-01 4.559974968433380127e-01 5.941787362098693848e-01 1.373411118984222412e-01 -1.808097958564758301e-01 -2.365225851535797119e-01 3.738689720630645752e-01 -7.228975649923086166e-03 -2.308414131402969360e-01 2.639052830636501312e-02 -5.313025116920471191e-01 -2.520201504230499268e-01 -3.081069290637969971e-01 1.298950016498565674e-01 -2.843095660209655762e-01 1.774766147136688232e-01 -2.659738361835479736e-01 1.612565964460372925e-01 -7.469517737627029419e-02 1.082492396235466003e-01 -1.266670413315296173e-02 -2.778563499450683594e-01 2.364362403750419617e-02 -2.739175856113433838e-01 3.594605624675750732e-01
3.076605498790740967e-01 -5.980673432350158691e-02 -1.766301542520523071e-01 1.785926818847656250e-01 2.010778337717056274e-01 -2.501469552516937256e-01 2.563420683145523071e-02 2.050347775220870972e-01 -9.110520780086517334e-02 1.848098933696746826e-01 9.412255138158798218e-02 4.899150431156158447e-01 -6.500406563282012939e-02 3.158728033304214478e-02 3.763674199581146240e-02 8.591578900814056396e-02 -1.880593895912170410e-01 6.705906987190246582e-02 6.218963488936424255e-02 3.070243075489997864e-02 -1.958680301904678345e-01 -1.315558608621358871e-02 1.588765680789947510e-01 -9.157845750451087952e-03 9.545733034610748291e-02 -2.262057960033416748e-01 -1.071715354919433594e-02 2.454412728548049927e-01 1.467725336551666260e-01 1.808296293020248413e-01 -9.674265235662460327e-02
8.698468804359436035e-01 1.573778837919235229e-01 3.149569928646087646e-01 5.304111242294311523e-01 2.003227621316909790e-01 1.135209202766418457e-01 1.027760505676269531e-01 5.813495721668004990e-03 -1.038525402545928955e-01 -1.879088431596755981e-01 -1.339877992868423462e-01 -2.108401358127593994e-01 1.482906192541122437e-01 1.045395582914352417e-01 5.014600604772567749e-02 -4.592434763908386230e-01 -2.671015821397304535e-02 2.390376478433609009e-01 2.342376112937927246e-01 9.308402985334396362e-02 2.652549445629119873e-01 -2.413445562124252319e-01 -2.020249813795089722e-01 -1.587996482849121094e-01 -6.602144241333007812e-02 -7.285816967487335205e-02 -3.980477750301361084e-01 1.049630716443061829e-01 -7.091289758682250977e-02 1.522915344685316086e-02 -9.702293574810028076e-02
-6.870239228010177612e-02 -2.753461711108684540e-02 4.744651615619659424e-01 7.305266857147216797e-01 2.373784929513931274e-01 -8.812810480594635010e-02 -1.542680617421865463e-02 -8.637230098247528076e-02 3.354851901531219482e-01 -5.710878372192382812e-01 -2.355641871690750122e-01 -3.666141331195831299e-01 5.088974907994270325e-02 -9.513098746538162231e-02 -1.580170392990112305e-01 -3.892741203308105469e-01 3.866720795631408691e-01 -6.210088357329368591e-02 -2.068027555942535400e-01 -7.151065766811370850e-02 9.528042376041412354e-02 -4.807197954505681992e-03 -9.331069886684417725e-03 1.018227562308311462e-01 -4.211503863334655762e-01 -1.997711807489395142e-01 -2.647527754306793213e-01 -1.307243853807449341e-01 -2.287277579307556152e-01 8.069027960300445557e-02 7.275988906621932983e-02
-1.056329488754272461e+00 3.813574016094207764e-01 3.187108039855957031e-01 9.610036015510559082e-02 -2.705726623535156250e-01 8.671221137046813965e-02 6.600679457187652588e-02 5.637374520301818848e-01 5.017726421356201172e-01 1.201726198196411133e-01 -9.820795804262161255e-02 -1.693433523178100586e-01 2.024248093366622925e-01 -4.396763741970062256e-01 -3.771062791347503662e-01 5.809634178876876831e-02 3.052827417850494385e-01 -2.856087982654571533e-01 -9.406790137290954590e-02 2.160308361053466797e-01 3.019125461578369141e-01 -1.076060011982917786e-01 1.102732941508293152e-01 2.417504638433456421e-01 -9.374085068702697754e-02 -1.937513202428817749e-01 2.996548414230346680e-01 -3.809352219104766846e-02 -2.903944551944732666e-01 -8.400803804397583008e-02 -5.619280785322189331e-02
2.426186650991439819e-01 -3.796600997447967529e-01 1.238558068871498108e-01 4.763891696929931641e-01 1.619269251823425293e-01 -1.158398315310478210e-01 2.109417021274566650e-01 -2.500479221343994141e-01 -8.302880078554153442e-02 -3.325920403003692627e-01 5.262830853462219238e-02 -9.458655864000320435e-02 4.817533493041992188e-01 1.747163534164428711e-01 7.123424112796783447e-02 -1.441396176815032959e-01 -2.075010091066360474e-01 8.865537121891975403e-03 4.025477170944213867e-02 -7.193355262279510498e-02 -1.987732201814651489e-01 1.526349186897277832e-01 8.081740885972976685e-02 -9.397825598716735840e-02 2.385338097810745239e-01 1.605214178562164307e-01 -1.899317204952239990e-01 5.424544587731361389e-02 7.774060964584350586e-02 9.367238730192184448e-02 1.389657426625490189e-02
2.615454792976379395e-01 -4.730914533138275146e-01 -1.209222301840782166e-01 1.061647161841392517e-01 -1.818818747997283936e-01 3.069332242012023926e-01 -5.682041123509407043e-02 2.981815338134765625e-01 1.010130625218153000e-02 -7.628037929534912109e-01 3.851547092199325562e-02 1.115992143750190735e-01 -2.469768226146697998e-01 -7.895097881555557251e-02 4.808969795703887939e-03 -7.005752623081207275e-02 -2.224239408969879150e-01 -3.139686584472656250e-02 -5.455383658409118652e-02 -1.316647231578826904e-01 -1.910908222198486328e-01 -2.108968645334243774e-01 -9.101231582462787628e-03 1.567876189947128296e-01 -5.975780636072158813e-02 -4.224335849285125732e-01 -2.789924442768096924e-01 -9.880901128053665161e-02 3.392837345600128174e-01 -1.817976236343383789e-01 5.600373446941375732e-02
-1.443386673927307129e-01 7.228732109069824219e-01 3.425849080085754395e-01 3.085629045963287354e-01 2.381631731986999512e-01 -1.380757987499237061e-01 -1.553960144519805908e-01 3.862906694412231445e-01 3.920026421546936035e-01 3.455794453620910645e-01 -8.329422771930694580e-02 3.612265288829803467e-01 -2.025173604488372803e-01 5.832811444997787476e-02 2.284318767488002777e-02 -8.457385003566741943e-02 -3.668794333934783936e-01 -2.942107021808624268e-01 -2.553958594799041748e-01 -1.586740314960479736e-01 -3.038682639598846436e-01 -1.204059943556785583e-01 6.935211271047592163e-02 7.356347888708114624e-02 -4.310089349746704102e-01 2.156943827867507935e-01 2.664076089859008789e-01 -2.137608081102371216e-01 -1.425558626651763916e-01 -1.298694759607315063e-01 3.567090332508087158e-01
2.087000757455825806e-01 1.766913235187530518e-01 1.188378185033798218e-01 4.411150217056274414e-01 2.185798734426498413e-01 3.026804924011230469e-01 1.241779699921607971e-01 -3.563004359602928162e-02 2.251621633768081665e-01 1.285253018140792847e-01 -1.620323061943054199e-01 1.867692619562149048e-01 8.313927799463272095e-02 1.284530609846115112e-01 1.083139255642890930e-01 -1.057207137346267700e-01 1.151868626475334167e-01 1.118576750159263611e-01 8.796236664056777954e-02 -6.068832054734230042e-02 4.706766828894615173e-02 -1.405049115419387817e-01 -2.119928896427154541e-01 -9.746744297444820404e-03 -9.562385082244873047e-02 1.800586730241775513e-01 -1.215218082070350647e-01 -2.699546515941619873e-01 -7.042298465967178345e-02 2.325178310275077820e-02 -5.742901191115379333e-02
6.849261522293090820e-01 -2.609694190323352814e-02 1.581297814846038818e-01 1.372698247432708740e-01 -1.060427352786064148e-01 -8.306956291198730469e-02 -1.051801536232233047e-02 1.868570223450660706e-02 -9.873638302087783813e-02 -8.490917831659317017e-02 -1.939187198877334595e-01 2.844769656658172607e-01 -3.648146688938140869e-01 2.193896472454071045e-01 4.125570058822631836e-01 2.165018348023295403e-03 2.103104591369628906e-01 2.979494445025920868e-02 1.493750214576721191e-01 4.928463697433471680e-02 2.721774578094482422e-01 1.500748097896575928e-01 1.640119850635528564e-01 1.483179479837417603e-01 6.646725535392761230e-02 2.984338402748107910e-01 1.260888874530792236e-01 1.849098056554794312e-01 3.133936822414398193e-01 3.608212992548942566e-02 2.127799242734909058e-01
2.134685367345809937e-01 -2.821787633001804352e-02 1.462821662425994873e-01 5.378444120287895203e-02 4.901241511106491089e-02 2.356494814157485962e-01 3.298735618591308594e-01 -5.252850055694580078e-01 2.102288454771041870e-01 7.670314908027648926e-01 4.532998204231262207e-01 4.939011037349700928e-01 1.477339863777160645e-01 -4.089571237564086914e-01 -7.107324898242950439e-02 2.025635838508605957e-01 -3.058606386184692383e-01 -6.919849663972854614e-02 1.344649493694305420e-01 5.242328643798828125e-01 1.472058296203613281e-01 -1.874861270189285278e-01 1.141248922795057297e-02 -2.748624682426452637e-01 6.591900438070297241e-02 -7.812960445880889893e-02 6.912064552307128906e-01 -1.681859493255615234e-01 -2.712439298629760742e-01 -3.309532999992370605e-01 3.480978310108184814e-02
4.295293092727661133e-01 -6.442652940750122070e-01 1.816516816616058350e-01 4.074891209602355957e-01 1.806749701499938965e-01 4.971905648708343506e-01 -2.427519112825393677e-01 5.399013757705688477e-01 2.840127348899841309e-01 1.245858818292617798e-01 -1.221813932061195374e-01 1.386334896087646484e-01 7.505801916122436523e-01 2.469547241926193237e-01 4.668922424316406250e-01 2.916645631194114685e-02 7.258072029799222946e-03 2.011611610651016235e-01 3.123647868633270264e-01 -5.830674991011619568e-02 -2.327323406934738159e-01 4.976195693016052246e-01 1.328832805156707764e-01 1.058805510401725769e-01 1.385464072227478027e-01 -1.349913924932479858e-01 -6.279302239418029785e-01 7.790306210517883301e-02 5.529245734214782715e-01 4.602324962615966797e-01 -1.335151940584182739e-01
1.649270057678222656e-01 -4.342285692691802979e-01 -6.348593235015869141e-01 -3.935997188091278076e-01 -2.175494730472564697e-01 -3.404074609279632568e-01 7.741007208824157715e-02 -5.207426100969314575e-02 -1.200041919946670532e-01 -1.758908033370971680e-01 4.510957002639770508e-01 -1.512555927038192749e-01 -3.656590878963470459e-01 -5.250800251960754395e-01 1.632857024669647217e-01 6.076740622520446777e-01 -4.878827333450317383e-01 -1.034657061100006104e-01 1.243419274687767029e-01 3.092464804649353027e-01 -7.214926928281784058e-02 -1.782042086124420166e-01 6.600060313940048218e-02 6.224676370620727539e-01 -6.660609692335128784e-02 6.205318123102188110e-02 4.281838834285736084e-01 6.550094485282897949e-02 3.447880148887634277e-01 -2.109165340662002563e-01 2.307907640933990479e-01
4.653908610343933105e-01 6.572613120079040527e-02 -5.231696739792823792e-02 9.399347752332687378e-02 -4.574220255017280579e-02 -2.716667763888835907e-02 -3.280379995703697205e-02 -3.074715659022331238e-02 -4.750210791826248169e-02 4.090552628040313721e-01 1.594816893339157104e-01 4.734138250350952148e-01 1.790321171283721924e-01 -1.635540574789047241e-01 -1.932264715433120728e-01 -2.727919518947601318e-01 -1.958689540624618530e-01 -1.686627417802810669e-01 -1.781488060951232910e-01 -1.818991638720035553e-02 -7.518818974494934082e-02 -1.359348446130752563e-01 8.305121213197708130e-02 -1.999369859695434570e-01 -1.458179205656051636e-01 -1.228616014122962952e-02 1.010169088840484619e-01 -2.569372020661830902e-02 -1.917906552553176880e-01 8.757214993238449097e-03 1.422341316938400269e-01
5.069414153695106506e-02 -2.090756893157958984e-01 4.337975680828094482e-01 4.645630419254302979e-01 2.563925683498382568e-01 -2.813693881034851074e-01 -3.483995795249938965e-02 -1.661397665739059448e-01 4.317946732044219971e-01 -2.944515943527221680e-01 4.316897392272949219e-01 -1.540285944938659668e-01 4.059886038303375244e-01 -3.467347621917724609e-01 9.496808052062988281e-02 -2.700121700763702393e-01 4.809165596961975098e-01 -6.531815975904464722e-02 2.149356007575988770e-01 -1.148256286978721619e-01 8.671823889017105103e-02 2.558021843433380127e-01 1.704231500625610352e-01 -2.860901644453406334e-03 -3.467624485492706299e-01 -4.628961905837059021e-02 -7.012616842985153198e-02 -4.043740034103393555e-01 -3.302657902240753174e-01 8.746974915266036987e-02 1.169392019510269165e-01
2.085349261760711670e-01 -1.845393679104745388e-03 2.783832550048828125e-01 1.858588606119155884e-01 1.118584945797920227e-01 1.122487783432006836e-01 -1.582863926887512207e-01 -3.379752933979034424e-01 5.718351602554321289e-01 -3.626567423343658447e-01 -2.289534211158752441e-01 -4.863654673099517822e-01 6.703134179115295410e-01 -3.838239014148712158e-01 -4.678382575511932373e-01 4.938119351863861084e-01 1.265208143740892410e-02 -6.317964792251586914e-01 -5.995328426361083984e-01 2.931788265705108643e-01 6.856913119554519653e-02 -2.202750146389007568e-01 8.418692350387573242e-01 9.663066267967224121e-01 -3.434646502137184143e-02 -4.682910144329071045e-01 1.779091209173202515e-01 1.304523497819900513e-01 -4.802242219448089600e-01 1.688504405319690704e-02 -3.418758809566497803e-01
2.478590160608291626e-01 3.559342324733734131e-01 5.639604926109313965e-01 3.262551426887512207e-01 3.010984957218170166e-01 5.199253186583518982e-02 1.068483963608741760e-01 4.356842935085296631e-01 -2.718059122562408447e-01 1.890699565410614014e-01 -3.949249982833862305e-01 4.992647469043731689e-01 1.871422678232192993e-01 1.478566788136959076e-02 6.064913049340248108e-02 -1.784158349037170410e-01 -2.494085133075714111e-01 1.663560867309570312e-01 1.232211813330650330e-01 -3.050254192203283310e-03 -1.019285991787910461e-01 -1.020122468471527100e-01 -1.354340761899948120e-01 -4.469341933727264404e-01 -1.350887119770050049e-01 6.251704692840576172e-02 3.210624158382415771e-01 9.238824248313903809e-02 -5.496643483638763428e-03 -1.380140185356140137e-01 2.157216221094131470e-01
-6.577752828598022461e-01 5.768222212791442871e-01 3.644791245460510254e-01 2.190662771463394165e-01 -2.467285655438899994e-02 -1.269667297601699829e-01 1.274703443050384521e-01 3.421332836151123047e-01 -3.708497285842895508e-01 2.562109231948852539e-01 1.815997064113616943e-01 4.161950647830963135e-01 2.282930910587310791e-01 1.697522699832916260e-01 -1.329882591962814331e-01 -4.554768502712249756e-01 -2.120357602834701538e-01 2.804356217384338379e-01 1.324546872638165951e-03 -1.806587129831314087e-01 -1.384403705596923828e-01 -5.981673300266265869e-02 -5.265031382441520691e-02 2.026138454675674438e-01 1.303474307060241699e-01 1.019779071211814880e-01 -4.998488351702690125e-02 1.420512795448303223e-01 -1.064367070794105530e-01 -7.869254052639007568e-02 5.795002798549830914e-04
3.038633465766906738e-01 4.949966371059417725e-01 -3.333423286676406860e-02 1.572215370833873749e-02 -1.464761048555374146e-02 9.955779463052749634e-02 1.915741413831710815e-01 1.334858313202857971e-02 -3.762046992778778076e-02 -1.096053794026374817e-02 -1.391279846429824829e-01 -7.731266319751739502e-02 2.529533207416534424e-02 -1.743854433298110962e-01 -1.799761950969696045e-01 2.528207898139953613e-01 1.331077665090560913e-01 -4.300618469715118408e-01 -1.987219601869583130e-01 3.451386094093322754e-01 3.417752087116241455e-01 -6.318027973175048828e-01 -3.367934823036193848e-01 -2.608390152454376221e-01 5.289368629455566406e-01 -4.237396419048309326e-01 7.374104112386703491e-02 6.313333511352539062e-01 -3.419219553470611572e-01 -7.498479485511779785e-01 -4.641221761703491211e-01
2.102657407522201538e-01 -3.308731019496917725e-01 5.338182449340820312e-01 1.071050524711608887e+00 5.458025336265563965e-01 3.496510982513427734e-01 8.083711564540863037e-02 -5.582870915532112122e-02 5.729028955101966858e-02 -1.014563143253326416e-01 7.636599242687225342e-02 -1.322863698005676270e-01 -9.112771600484848022e-02 -9.057267010211944580e-02 -8.442918956279754639e-02 -6.516651064157485962e-02 5.776597931981086731e-02 6.006158888339996338e-02 2.178976498544216156e-02 1.929668709635734558e-02 -1.277805566787719727e-01 1.315822005271911621e-01 -3.787609934806823730e-02 4.082899540662765503e-02 1.096402853727340698e-01 4.334557056427001953e-02 2.003950476646423340e-01 7.223992794752120972e-02 3.556622266769409180e-01 -2.037385702133178711e-01 5.235481634736061096e-02
2.265033274888992310e-01 -1.471319496631622314e-01 7.454324513673782349e-02 -2.363784797489643097e-02 1.634597927331924438e-01 4.641815274953842163e-02 -8.403670042753219604e-02 -6.661952286958694458e-02 1.365364938974380493e-01 9.569464623928070068e-02 5.325293540954589844e-01 -4.459044337272644043e-02 1.437057852745056152e-01 -3.093279004096984863e-01 2.504820823669433594e-01 -1.038959771394729614e-01 1.589218080043792725e-01 -1.913811564445495605e-01 3.447869420051574707e-02 -3.380074724555015564e-02 1.792330741882324219e-01 2.246136814355850220e-01 2.784448564052581787e-01 2.455169260501861572e-01 1.797735840082168579e-01 1.296596527099609375e-01 8.120559155941009521e-02 2.912732064723968506e-01 1.827622354030609131e-01 2.339105010032653809e-01 -1.085160076618194580e-01
2.025594711303710938e-01 -6.185348331928253174e-02 -3.577789068222045898e-01 7.363250106573104858e-02 -1.031604111194610596e-01 -7.153828144073486328e-01 7.626268267631530762e-02 3.311631381511688232e-01 6.282414495944976807e-02 1.245277822017669678e-01 5.832670256495475769e-02 -1.142063140869140625e-01 3.421322703361511230e-01 9.287295490503311157e-02 1.141266599297523499e-01 2.427486628293991089e-01 -1.286082267761230469e-01 6.996844708919525146e-02 -2.072804607450962067e-02 1.212043911218643188e-01 -5.572295188903808594e-02 -2.580041587352752686e-01 -3.592510148882865906e-02 9.346280992031097412e-02 -4.375393092632293701e-01 5.340575706213712692e-03 3.699792921543121338e-01 -9.804000146687030792e-03 -1.995820850133895874e-01 -2.873509228229522705e-01 5.840710550546646118e-02
-2.353943586349487305e-01 4.283663928508758545e-01 2.582766711711883545e-01 2.361050695180892944e-01 1.741281002759933472e-01 -3.659471273422241211e-01 1.034439168870449066e-02 3.352062404155731201e-01 -4.009147882461547852e-01 -2.547167837619781494e-01 -3.644477427005767822e-01 -6.819181889295578003e-02 -8.345688134431838989e-02 1.669849455356597900e-01 -1.812860071659088135e-01 9.428448043763637543e-03 -9.638918191194534302e-02 1.005040332674980164e-01 -6.671873480081558228e-02 -2.537275552749633789e-01 -1.694596111774444580e-01 4.310992732644081116e-02 1.663695275783538818e-02 4.065895080566406250e-02 -5.752885341644287109e-02 1.228829994797706604e-01 -3.229044973850250244e-01 1.933028697967529297e-01 1.492592990398406982e-01 1.344075798988342285e-01 -2.273048460483551025e-02
3.090117573738098145e-01 5.669604241847991943e-02 -4.861541986465454102e-01 -5.593525171279907227e-01 -4.552941322326660156e-01 -1.056960150599479675e-01 -2.505737841129302979e-01 -1.672404706478118896e-01 -2.406626045703887939e-01 3.946061730384826660e-01 5.284056663513183594e-01 2.007217854261398315e-01 -5.404022932052612305e-01 -8.082394599914550781e-01 -1.845430769026279449e-02 3.549792170524597168e-01 -6.908960342407226562e-01 -2.653646171092987061e-01 -7.678839564323425293e-02 -2.187392413616180420e-01 -3.961708843708038330e-01 -9.525918215513229370e-02 5.278556942939758301e-01 2.269268035888671875e-01 5.337496101856231689e-02 -1.993267238140106201e-01 4.332775473594665527e-01 3.538781404495239258e-01 1.368860006332397461e-01 -1.971590369939804077e-01 3.855523765087127686e-01
2.055875509977340698e-01 1.505227237939834595e-01 -2.644974589347839355e-01 -1.189170703291893005e-01 -2.920065820217132568e-01 -1.368487715721130371e+00 1.227026134729385376e-01 -1.040828153491020203e-01 -1.612052023410797119e-01 1.759677380323410034e-01 -1.990765035152435303e-01 3.227347135543823242e-01 -1.957085281610488892e-01 1.251422315835952759e-01 -1.225510984659194946e-01 4.845584034919738770e-01 -2.167132198810577393e-01 -1.424020975828170776e-01 -2.785828113555908203e-01 6.318493932485580444e-02 1.591993868350982666e-01 -3.031606078147888184e-01 -3.193803727626800537e-01 -7.917661219835281372e-02 -1.608857214450836182e-01 4.364748671650886536e-02 4.357334077358245850e-01 1.442292779684066772e-01 -2.943831682205200195e-01 -2.546434402465820312e-01 -2.531903423368930817e-02
-5.431540682911872864e-02 1.482726484537124634e-01 3.146882727742195129e-02 4.281950891017913818e-01 -1.150841936469078064e-01 -1.249716207385063171e-01 -6.422062870115041733e-03 -3.615259230136871338e-01 2.672661542892456055e-01 -1.879846453666687012e-01 1.465137004852294922e-01 -2.540795505046844482e-01 -4.853869378566741943e-01 1.340911686420440674e-01 3.090229332447052002e-01 -2.805996537208557129e-01 3.379015624523162842e-01 1.632707864046096802e-01 1.455555409193038940e-01 -6.981647014617919922e-02 4.220789298415184021e-02 1.713351905345916748e-01 -7.668631523847579956e-02 1.855016686022281647e-02 -2.710451185703277588e-02 -3.140941858291625977e-01 -6.866667270660400391e-01 9.621185809373855591e-02 3.022193312644958496e-01 1.325149685144424438e-01 -1.972148269414901733e-01
-4.435733556747436523e-01 1.109513640403747559e-01 1.958166807889938354e-01 -2.138616703450679779e-02 -2.862279489636421204e-02 -4.858645051717758179e-02 2.217575460672378540e-01 1.885780878365039825e-02 -6.970519423484802246e-01 1.015836715698242188e+00 2.010529190301895142e-01 4.252238273620605469e-01 -6.554661989212036133e-01 -4.761021733283996582e-01 -1.372237503528594971e-01 3.506071567535400391e-01 3.386778831481933594e-01 -1.420214958488941193e-02 3.753246739506721497e-02 5.151703357696533203e-01 3.718381822109222412e-01 -5.639070868492126465e-01 2.254575341939926147e-01 3.381330072879791260e-01 3.897287845611572266e-01 -5.751722455024719238e-01 1.478787064552307129e+00 3.419440686702728271e-01 -3.842830955982208252e-01 -3.922455310821533203e-01 -4.320310056209564209e-01
3.301992416381835938e-01 -9.060312062501907349e-02 -6.792607903480529785e-02 2.720499634742736816e-01 -1.201838627457618713e-01 -3.386076092720031738e-01 3.303031623363494873e-01 -3.998443186283111572e-01 3.766263723373413086e-01 -3.338342010974884033e-01 3.128370046615600586e-01 6.808056682348251343e-02 -1.908564418554306030e-01 -3.675580024719238281e-01 2.708480320870876312e-02 1.944905519485473633e-01 -1.322907507419586182e-01 2.226937748491764069e-02 1.468998491764068604e-01 4.679068326950073242e-01 2.618431150913238525e-01 1.630918681621551514e-01 -2.881727181375026703e-03 2.473922669887542725e-01 -1.746976375579833984e-01 7.594164460897445679e-02 2.770290374755859375e-01 2.684183046221733093e-02 2.159698158502578735e-01 -1.580680459737777710e-01 4.928403347730636597e-02
2.833932340145111084e-01 1.521275341510772705e-01 -1.791788488626480103e-01 -7.892534136772155762e-02 -3.347577750682830811e-01 -3.371315300464630127e-01 1.949446946382522583e-01 8.768878132104873657e-02 4.442519247531890869e-01 4.788592457771301270e-02 1.273509263992309570e-01 1.005812883377075195e-01 -3.087336122989654541e-01 -1.508470624685287476e-01 4.972841963171958923e-02 4.885284304618835449e-01 -9.128849953413009644e-02 1.493330001831054688e-01 1.826178878545761108e-01 1.549489349126815796e-01 2.565117739140987396e-02 -7.857305556535720825e-02 -1.885599493980407715e-01 -6.314537674188613892e-02 -3.755760788917541504e-01 3.322966396808624268e-01 3.817732632160186768e-02 -2.643779218196868896e-01 1.298928707838058472e-01 -2.659373879432678223e-01 3.259670734405517578e-01
3.834824860095977783e-01 1.894678324460983276e-01 -3.488224446773529053e-01 8.096918463706970215e-02 -9.953731298446655273e-02 -8.216897957026958466e-03 4.132562130689620972e-02 -2.150332182645797729e-02 1.374503821134567261e-01 -4.233540222048759460e-02 2.557879686355590820e-01 1.309382356703281403e-02 5.638157948851585388e-02 -1.180205959826707840e-02 -2.734861075878143311e-01 2.790757119655609131e-01 -2.016424536705017090e-01 -4.577029496431350708e-02 -1.626218557357788086e-01 3.877314925193786621e-02 -1.281746029853820801e-01 1.025557219982147217e-01 2.777387201786041260e-01 1.893202066421508789e-01 -5.671313777565956116e-02 8.064807206392288208e-02 2.997518777847290039e-01 -1.587861776351928711e-02 1.519735902547836304e-01 9.274393320083618164e-02 -4.838214442133903503e-02
-1.240779552608728409e-02 2.135922163724899292e-01 2.257667295634746552e-02 -1.957385689020156860e-01 -2.367684543132781982e-01 1.264562159776687622e-01 6.541316211223602295e-02 -1.652243137359619141e-01 1.843967586755752563e-01 -3.174770772457122803e-01 -4.522643089294433594e-01 -3.638035953044891357e-01 4.137745797634124756e-01 7.265064865350723267e-02 -2.892377674579620361e-01 -8.013463020324707031e-01 1.740461736917495728e-01 -8.867015689611434937e-02 -2.902054190635681152e-01 -1.492227315902709961e-01 -1.183459535241127014e-01 9.343060106039047241e-02 -3.788045374676585197e-03 -4.343224465847015381e-01 1.654053628444671631e-01 1.077647693455219269e-02 -7.950915098190307617e-01 2.550157606601715088e-01 1.709062606096267700e-01 -5.833726376295089722e-02 -2.197265923023223877e-01
1.851289123296737671e-01 -5.023025274276733398e-01 -1.147912666201591492e-01 1.595714241266250610e-01 1.309982836246490479e-01 -9.437984228134155273e-02 -2.232132256031036377e-01 2.728196382522583008e-01 1.358026266098022461e-02 -4.745094105601310730e-03 2.730120122432708740e-01 -1.693743616342544556e-01 -2.127592638134956360e-02 2.659405954182147980e-02 3.224309161305427551e-02 1.386431325227022171e-02 -1.853013336658477783e-01 3.382224962115287781e-02 5.168722197413444519e-02 2.253949940204620361e-01 -4.474953562021255493e-02 -4.096604138612747192e-02 3.697232306003570557e-01 -6.871858239173889160e-02 -1.300997287034988403e-01 -6.012850254774093628e-02 1.182695701718330383e-01 2.141681909561157227e-01 -1.169186905026435852e-01 5.406209081411361694e-02 3.174340352416038513e-02
2.612989544868469238e-01 -1.708027124404907227e-01 6.628956794738769531e-01 2.754200398921966553e-01 -8.561185002326965332e-02 1.990173012018203735e-01 1.996648460626602173e-01 -5.944841727614402771e-02 9.051140397787094116e-02 -5.977787375450134277e-01 -4.649833217263221741e-02 -1.518988311290740967e-01 -1.631304174661636353e-01 -1.775056123733520508e-01 -3.294053971767425537e-01 -1.079423204064369202e-01 -9.475931525230407715e-02 4.092237912118434906e-03 4.481413401663303375e-03 8.084447681903839111e-02 7.733793556690216064e-02 -8.630598336458206177e-02 -9.606086462736129761e-02 -2.222050279378890991e-01 -1.820498332381248474e-02 -4.420183598995208740e-03 -1.690436601638793945e-01 -3.394688367843627930e-01 7.871617376804351807e-02 -1.246548630297183990e-02 -2.652274444699287415e-02
3.515844345092773438e-01 4.738198816776275635e-01 5.813318118453025818e-02 -3.426950192078948021e-03 1.111452654004096985e-02 5.390630364418029785e-01 2.133874446153640747e-01 -5.797282606363296509e-02 -1.650449931621551514e-01 -1.649568229913711548e-01 -9.984703361988067627e-02 -1.081068590283393860e-01 2.221324741840362549e-01 -4.588735103607177734e-01 -5.048161745071411133e-01 1.959939599037170410e-01 3.207315504550933838e-01 -4.882012009620666504e-01 -4.082696139812469482e-01 7.329106330871582031e-01 5.509820580482482910e-01 -4.813950136303901672e-02 -4.321669694036245346e-03 2.688013315200805664e-01 5.998391509056091309e-01 -2.162606418132781982e-01 3.049089610576629639e-01 3.872759938240051270e-01 2.506847977638244629e-01 -1.406282335519790649e-01 -3.636049330234527588e-01
2.381892949342727661e-01 6.700896620750427246e-01 5.254653692245483398e-01 5.723508596420288086e-01 6.274985074996948242e-01 5.647067427635192871e-01 3.682278990745544434e-01 2.309993952512741089e-01 -5.101815462112426758e-01 -1.881218552589416504e-01 -1.499160528182983398e-01 -2.342381924390792847e-01 3.785205632448196411e-02 -1.412154585123062134e-01 -2.804934680461883545e-01 1.604931354522705078e-01 5.813546478748321533e-02 -3.147816956043243408e-01 -3.635961711406707764e-01 2.541353106498718262e-01 2.273366898298263550e-01 -3.979261517524719238e-01 -3.540588617324829102e-01 2.747904658317565918e-01 -2.074633836746215820e-01 -1.753233522176742554e-01 -1.586580276489257812e-01 1.738609224557876587e-01 1.863412559032440186e-01 2.330456823110580444e-01 -3.000172972679138184e-01
3.206917345523834229e-01 -5.947093367576599121e-01 -9.324976205825805664e-01 -3.476168587803840637e-02 -2.066285610198974609e-01 -8.562163114547729492e-01 -1.549831125885248184e-02 2.679071724414825439e-01 4.051040112972259521e-02 1.697933822870254517e-01 2.377080768346786499e-01 1.323437392711639404e-01 1.143694818019866943e-01 -2.850235998630523682e-01 -9.856868535280227661e-02 -5.825309455394744873e-02 -4.237109422683715820e-01 -5.080419406294822693e-02 -6.360210478305816650e-02 -1.235466599464416504e-01 -3.471499681472778320e-01 -1.619352549314498901e-01 -2.179608196020126343e-01 4.389656335115432739e-02 -2.346288971602916718e-02 -3.110749423503875732e-01 1.945416480302810669e-01 7.696505635976791382e-02 -3.869926631450653076e-01 -2.879469692707061768e-01 2.066486924886703491e-01
3.946533799171447754e-01 -1.479842048138380051e-02 1.316504478454589844e-01 1.456163823604583740e-01 4.792716726660728455e-02 -2.394522726535797119e-01 1.233949884772300720e-01 2.551894187927246094e-01 -2.462240755558013916e-01 1.445264965295791626e-01 -2.300551384687423706e-01 1.514636725187301636e-01 4.283256828784942627e-01 3.512390255928039551e-01 -7.477646321058273315e-02 7.342470437288284302e-02 1.266951858997344971e-01 1.283925920724868774e-01 -4.810755327343940735e-02 -1.965863555669784546e-01 -6.675863265991210938e-02 1.122017502784729004e-01 2.979793353006243706e-03 -3.487823531031608582e-02 7.475064694881439209e-02 1.408302187919616699e-01 2.341116368770599365e-01 1.485820859670639038e-01 -1.377074122428894043e-01 -4.201963916420936584e-02 -2.830550819635391235e-02
