-7.799726724624633789e-01 -2.233128761872649193e-03 -3.036275273188948631e-03 -2.043492905795574188e-02 7.216840237379074097e-02 -4.564087372273206711e-03 -6.836050888523459435e-04 1.338533498346805573e-02 -2.919704467058181763e-02 -2.898559570312500000e-01 -6.486313650384545326e-04 6.706257462501525879e-01 -1.121739983558654785e+00 -7.558704237453639507e-04 1.757946163415908813e-01 8.727111667394638062e-02 -5.554755330085754395e-01 7.616919465363025665e-03 -2.901069223880767822e-01 4.572834372520446777e-01 1.816673553548753262e-03 -8.040016982704401016e-04 -5.421472713351249695e-02 4.868547320365905762e-01 -1.615151017904281616e-02 6.545617580413818359e-01 2.178251892328262329e-01 -3.513041734695434570e-01 -2.551786899566650391e-01 4.132148623466491699e-02 -2.419889271259307861e-01 8.792404085397720337e-02 -5.971029028296470642e-02 -6.503785960376262665e-03 4.637510050088167191e-03 -1.043169736862182617e+00 -2.239416688680648804e-01 8.032797276973724365e-02 -1.215390086174011230e+00 5.070550367236137390e-03 1.719012972898781300e-03 -4.119433462619781494e-02 6.579298060387372971e-04 8.806237578392028809e-02 6.646488308906555176e-01 -6.709210872650146484e-01 2.915798453614115715e-03 9.063233435153961182e-02 4.620709121227264404e-01 -1.080118536949157715e+00 -1.155127286911010742e+00 -2.447856515645980835e-01 -5.686022639274597168e-01 2.512811915948987007e-03 -3.343219577800482512e-04 3.409660756587982178e-01 1.386041636578738689e-03 -1.538112610578536987e-01 5.809094756841659546e-02 5.808671712875366211e-01 -2.767831552773714066e-03 9.149942779913544655e-04 3.366869390010833740e-01 -3.921524286270141602e-01 9.950987696647644043e-01 1.409403085708618164e-01 3.316888511180877686e-01 -4.167172592133283615e-03 3.416589200496673584e-01 -6.775900255888700485e-03 -6.383511424064636230e-01 5.398290159064345062e-05 1.717199338600039482e-03 2.625034563243389130e-02 -4.714025650173425674e-03 -9.228599816560745239e-02 1.870754989795386791e-03 -5.193148180842399597e-02 -8.475383743643760681e-03 -5.301676392555236816e-01 3.569639474153518677e-02 3.365654349327087402e-01 -3.375599682331085205e-01 -4.134444296360015869e-01 -1.350765768438577652e-02 6.136263608932495117e-01 -1.333563178777694702e-01 7.462248206138610840e-03 1.101196050643920898e+00 5.151562020182609558e-02 9.971305262297391891e-04 -8.298556320369243622e-03 1.385458654112881050e-05 7.522745523601770401e-03 7.529722061008214951e-04 2.451510867103934288e-03 6.980098038911819458e-02 -1.517160773277282715e+00 6.467214319854974747e-03 -2.262372225522994995e-01 -4.767991602420806885e-03 -6.012954749166965485e-03 -5.319287069141864777e-03 -1.129963845014572144e-01 -3.317828178405761719e-01 -5.779232829809188843e-03 1.595711559057235718e-01 1.854567676782608032e-01 1.082817837595939636e-01 2.181096933782100677e-02 -4.964058101177215576e-01 1.955904960632324219e-01 2.376947253942489624e-01 4.438557624816894531e-01 1.215036511421203613e+00 1.439070105552673340e-01 1.083823084831237793e+00 -2.221402227878570557e-01 -2.741365432739257812e-01 8.601945042610168457e-01 -9.650467634201049805e-01 4.155030250549316406e-01 -2.209253143519163132e-03 -1.349837183952331543e-01 -6.625213194638490677e-03 -6.390477064996957779e-04 -5.921508185565471649e-03 2.567369723692536354e-03 6.466644350439310074e-03 -1.464554667472839355e-02 4.845554232597351074e-01 1.668784469366073608e-01 -1.870913431048393250e-02 2.177903056144714355e-01 -2.711736131459474564e-03 6.429420113563537598e-01 8.718517422676086426e-01 -4.730723425745964050e-02 -2.175229638814926147e-01 -6.215124391019344330e-03 -6.293195183388888836e-04 6.070559024810791016e-01 -6.101543307304382324e-01 3.969065845012664795e-03 1.380038156639784575e-04 9.446960091590881348e-01 -1.344923977740108967e-03 -1.257212017662823200e-03 -1.003828883171081543e+00 -4.488864913582801819e-02 8.574812673032283783e-04 4.741493146866559982e-03 4.607479646801948547e-02 3.864009082317352295e-01 -1.241926908493041992e+00 2.445046324282884598e-03 -2.349993437528610229e-01 1.658611446619033813e-01 -5.637178421020507812e-01 -1.560771167278289795e-01 -9.464247822761535645e-01 3.692113677971065044e-04 1.603675633668899536e-02 -2.958421362563967705e-03 1.069658324122428894e-01 2.940265228971838951e-03 -3.781914338469505310e-02 2.368780076503753662e-01 -4.727771878242492676e-02 1.683509722352027893e-02 1.458326913416385651e-02 5.971274375915527344e-01 -6.016782484948635101e-03 1.185937318950891495e-03 4.871384054422378540e-02 2.724109292030334473e-01 -9.662418160587549210e-04 -5.756032466888427734e-02 6.325343847274780273e-01 6.734387874603271484e-01 -2.121618986129760742e-01 4.456416890025138855e-02 1.557539100758731365e-03 1.905049085617065430e-01 3.523803083226084709e-03 4.560890141874551773e-03 5.945820361375808716e-03 -8.254407644271850586e-01 -5.100927874445915222e-02 -7.373708765953779221e-03 2.987178564071655273e-01 -9.700910304673016071e-04 4.283479452133178711e-01 -1.191309332847595215e+00 3.164736330509185791e-01 -3.107827389612793922e-03 -4.725215733051300049e-01 6.174825597554445267e-03 1.342770177870988846e-03 1.776002533733844757e-02 5.635431408882141113e-01 6.307798624038696289e-01 4.410442709922790527e-01 2.927879989147186279e-01 3.534765243530273438e-01 1.040881965309381485e-02 6.644114255905151367e-01 -1.948166079819202423e-02 3.385854065418243408e-01 1.493046432733535767e-01 -2.162403659895062447e-03 7.591230869293212891e-01 -3.827148582786321640e-03 1.142831891775131226e-02 -2.811644808389246464e-04 5.782650783658027649e-02 8.507456779479980469e-01 3.569083753973245621e-03 1.085575087927281857e-03 1.293013811111450195e+00 6.177750825881958008e-01 -2.658067941665649414e-01 -2.379365414381027222e-01 -4.840601384639739990e-01 -2.827590703964233398e-01 -1.332871019840240479e-01 1.452301628887653351e-03 2.278299070894718170e-03 3.172970414161682129e-01 -4.388280808925628662e-01 2.127777189016342163e-01 -5.505502223968505859e-03 -4.084374755620956421e-02 -1.480550505220890045e-03 1.487759947776794434e+00 -6.878044456243515015e-03 7.526771724224090576e-02 1.149344956502318382e-03 9.876620769500732422e-01 -8.860768750309944153e-03 -4.341143369674682617e-01 3.998915851116180420e-02 2.268156269565224648e-03 1.890629355330020189e-04 9.241241961717605591e-02 -2.810287103056907654e-02 2.192923240363597870e-02 4.648406524211168289e-03 3.166322130709886551e-03 3.364809229969978333e-02 1.048028349876403809e+00 -1.265519415028393269e-03 -2.663821214810013771e-03 -1.557574391365051270e+00 3.449771786108613014e-03 1.348304897546768188e-01
