2.776706814765930176e-01 -1.144518554210662842e-01 3.104806179180741310e-03 2.566075026988983154e-01 7.440904527902603149e-02 -5.946041941642761230e-01 3.485206067562103271e-01 5.694175958633422852e-01 -1.420000791549682617e-01 6.963475346565246582e-01 2.217317819595336914e-01 7.281768918037414551e-01 4.108986556529998779e-01 -9.482023119926452637e-02 -2.393097132444381714e-01 1.972832381725311279e-01 -1.433201879262924194e-01 -1.064576283097267151e-01 -1.572554707527160645e-01 1.663626879453659058e-01 -2.974743768572807312e-02 -6.909772753715515137e-01 -8.447991013526916504e-01 -4.950580373406410217e-02 -1.242084614932537079e-02 -4.463891386985778809e-01 3.671467304229736328e-01 -1.728862337768077850e-02 -5.909842252731323242e-01 -7.301974296569824219e-01 2.320827990770339966e-01
5.787428840994834900e-02 -6.762111932039260864e-02 -1.068347170948982239e-01 -4.573134481906890869e-01 -4.666885733604431152e-01 -6.530395150184631348e-01 1.863438487052917480e-01 1.860565692186355591e-01 9.540183842182159424e-02 4.087828099727630615e-02 2.534895837306976318e-01 -7.402112483978271484e-01 6.475630681961774826e-03 -1.160971671342849731e-01 -9.778010845184326172e-02 3.071660697460174561e-01 2.907496988773345947e-01 -5.445548892021179199e-01 -2.884279489517211914e-01 -1.366002708673477173e-01 2.304580807685852051e-01 5.663722753524780273e-01 -2.949122190475463867e-01 5.033323168754577637e-01 -4.653669893741607666e-01 2.641269266605377197e-01 -4.239621758460998535e-01 4.932913463562726974e-03 3.295504301786422729e-02 4.895438253879547119e-01 6.497233510017395020e-01
1.890016198158264160e-01 9.473818540573120117e-01 -7.149415612220764160e-01 5.315732583403587341e-02 7.235658168792724609e-02 -2.989131724461913109e-03 2.194897383451461792e-01 -2.910642325878143311e-01 2.727947831153869629e-01 1.252466887235641479e-01 7.770891487598419189e-02 -7.725241780281066895e-02 1.247302293777465820e-01 2.376829087734222412e-01 1.381093636155128479e-02 2.971677184104919434e-01 -2.062122821807861328e-01 2.167189270257949829e-01 1.216997802257537842e-01 2.648035585880279541e-01 -6.789348274469375610e-02 -3.564678877592086792e-02 1.603481918573379517e-01 3.032339178025722504e-02 -3.806025385856628418e-01 -1.072546616196632385e-01 2.885877788066864014e-01 -3.228781819343566895e-01 -1.145255118608474731e-01 8.558443933725357056e-02 6.283797323703765869e-02
6.546766161918640137e-01 2.055388987064361572e-01 3.317102789878845215e-01 -5.984298139810562134e-02 -1.354068666696548462e-01 -1.866786554455757141e-02 5.184350907802581787e-02 -8.604376763105392456e-02 2.638862431049346924e-01 1.037175534293055534e-03 -1.207077428698539734e-01 -3.922276496887207031e-01 -1.766991466283798218e-01 -2.685363292694091797e-01 1.030735075473785400e-01 -6.677691638469696045e-02 -2.331075519323348999e-01 1.037122905254364014e-01 2.671420276165008545e-01 2.668644301593303680e-02 -1.265296787023544312e-01 -2.066428214311599731e-01 5.643276497721672058e-02 3.018009066581726074e-01 -1.313330531120300293e-01 1.557104010134935379e-02 -1.081298813223838806e-01 6.017008423805236816e-02 -6.249454244971275330e-02 -3.469826877117156982e-01 -6.286478042602539062e-02
-5.817712098360061646e-02 3.642911612987518311e-01 4.424845874309539795e-01 2.685049772262573242e-01 2.696803510189056396e-01 4.548159241676330566e-01 2.330817878246307373e-01 4.435986578464508057e-01 -2.979398369789123535e-01 -9.846641123294830322e-02 -3.395547866821289062e-01 -2.028968483209609985e-01 2.260183095932006836e-01 -2.896227873861789703e-02 -1.293922215700149536e-01 -4.287801384925842285e-01 -7.715732604265213013e-02 -1.944313198328018188e-01 -1.773141920566558838e-01 -7.728879898786544800e-02 8.786238729953765869e-02 1.358331143856048584e-01 -3.070389330387115479e-01 1.931805312633514404e-01 -2.858840227127075195e-01 -5.273132920265197754e-01 -2.160588353872299194e-01 2.876420319080352783e-01 3.492393791675567627e-01 5.170778632164001465e-01 -1.453780084848403931e-01
2.927143275737762451e-01 1.341476738452911377e-01 5.481218695640563965e-01 8.187279701232910156e-01 5.505828261375427246e-01 -1.481345593929290771e-01 1.354776471853256226e-01 -2.583882808685302734e-01 1.153903976082801819e-01 -3.425555229187011719e-01 -1.317594349384307861e-01 -1.565239280462265015e-01 -9.302835911512374878e-02 9.068970382213592529e-02 7.585394196212291718e-03 2.029947638511657715e-01 -3.660841882228851318e-01 -1.178075000643730164e-01 -4.274609498679637909e-03 -2.206799387931823730e-01 -2.578063905239105225e-01 5.038990378379821777e-01 -4.943944886326789856e-02 3.876940011978149414e-01 3.354355096817016602e-01 2.437842786312103271e-01 -1.774559468030929565e-01 2.081241756677627563e-01 4.437626898288726807e-01 3.185157477855682373e-01 8.632680028676986694e-02
7.252224534749984741e-02 1.056805700063705444e-01 -3.112703859806060791e-01 -6.803056225180625916e-03 -3.304679319262504578e-02 -8.452665209770202637e-01 2.154120802879333496e-01 -1.226673722267150879e-01 1.802166551351547241e-01 2.249919250607490540e-02 -6.776314228773117065e-02 -4.985328912734985352e-01 -1.221101358532905579e-01 -1.690280139446258545e-01 -6.012276932597160339e-02 9.016422182321548462e-02 -4.175017029047012329e-02 6.247559934854507446e-02 -8.436340093612670898e-02 -1.242950409650802612e-01 -1.457658708095550537e-01 2.169448509812355042e-02 1.762619614601135254e-01 2.874445915222167969e-01 -2.863591015338897705e-01 3.950865566730499268e-02 1.885149031877517700e-01 9.745781123638153076e-02 2.880731523036956787e-01 -1.147638186812400818e-01 -5.129305645823478699e-02
1.598596274852752686e-01 1.593303978443145752e-01 1.480006873607635498e-01 3.260733485221862793e-01 2.719526588916778564e-01 1.520110666751861572e-01 -1.689497083425521851e-01 2.848252840340137482e-02 8.191595971584320068e-02 -1.050484403967857361e-01 5.460925102233886719e-01 -9.446226060390472412e-02 -1.260416358709335327e-01 6.284820437431335449e-01 3.602955341339111328e-01 3.124629259109497070e-01 1.760567165911197662e-02 1.481336802244186401e-01 1.280123889446258545e-01 1.010989248752593994e-01 -1.965904794633388519e-02 -4.285314679145812988e-01 6.589050590991973877e-02 -2.442793250083923340e-01 -4.776517450809478760e-01 1.975142955780029297e-01 3.453319966793060303e-01 6.313202530145645142e-02 4.199681282043457031e-01 -5.651044249534606934e-01 4.532102644443511963e-01
9.120494127273559570e-02 1.019284054636955261e-01 1.724059134721755981e-01 -7.813505083322525024e-02 -3.483711555600166321e-02 -3.258523643016815186e-01 -4.750247299671173096e-01 -4.929555952548980713e-01 3.678340613842010498e-01 -1.797495633363723755e-01 -1.584631740115582943e-03 3.350697085261344910e-02 2.105745114386081696e-02 -3.969053924083709717e-02 2.135836286470293999e-03 6.060544848442077637e-01 1.988528668880462646e-02 -2.366985380649566650e-01 -7.021823525428771973e-02 2.960093319416046143e-02 -1.498476713895797729e-01 2.751503586769104004e-01 2.261319160461425781e-01 -3.855017125606536865e-01 -3.058524616062641144e-02 8.588171564042568207e-03 -1.151023805141448975e-01 1.724777519702911377e-01 9.150674194097518921e-02 2.437981963157653809e-01 -2.134324461221694946e-01
-1.633668839931488037e-01 4.080631434917449951e-01 1.001645252108573914e-01 1.656295210123062134e-01 7.055088877677917480e-02 8.886588620953261852e-04 -1.619796603918075562e-01 -2.641029059886932373e-01 -2.266619354486465454e-01 -2.767775654792785645e-01 -2.190029993653297424e-02 -2.448973953723907471e-01 1.429138332605361938e-01 3.142202794551849365e-01 1.757024228572845459e-01 -2.239441424608230591e-01 -1.271287351846694946e-01 1.654035598039627075e-01 1.713330745697021484e-01 -3.813869357109069824e-01 -6.308837234973907471e-02 4.694054648280143738e-02 4.008974507451057434e-02 1.711030751466751099e-01 7.084915786981582642e-02 -3.594890832901000977e-01 1.945881098508834839e-01 1.901898831129074097e-01 1.658584922552108765e-01 1.138881519436836243e-01 -1.660248041152954102e-01
6.304074525833129883e-01 3.902756869792938232e-01 3.356312960386276245e-02 3.829537332057952881e-02 1.178873628377914429e-01 -2.352313138544559479e-02 7.435504347085952759e-02 -6.344164907932281494e-02 1.147786527872085571e-01 -4.050810337066650391e-01 7.718314975500106812e-02 -1.613029986619949341e-01 3.626096844673156738e-01 1.713554114103317261e-01 1.091428548097610474e-01 1.080435588955879211e-01 -7.310824096202850342e-02 1.258928924798965454e-01 8.705281466245651245e-02 2.478461116552352905e-01 -6.877019256353378296e-02 1.165610402822494507e-01 1.217226404696702957e-02 -7.854285091161727905e-02 -3.977758437395095825e-02 -5.034947395324707031e-02 -1.655710488557815552e-01 3.334859609603881836e-01 6.256966292858123779e-02 -1.529202610254287720e-01 1.231657415628433228e-01
-2.340250611305236816e-01 -6.423276662826538086e-01 -5.155210494995117188e-01 -3.319815099239349365e-01 -4.237324595451354980e-01 6.816031336784362793e-01 1.308367699384689331e-01 5.248171836137771606e-02 1.335565596818923950e-01 -1.390942721627652645e-03 -2.407910376787185669e-01 3.935432732105255127e-01 -1.777167618274688721e-01 7.512859106063842773e-01 -1.048599090427160263e-02 -3.989817202091217041e-01 8.187432773411273956e-03 3.106352686882019043e-01 8.799117058515548706e-02 -1.150111481547355652e-01 -2.231661789119243622e-02 4.129607677459716797e-01 -3.216598927974700928e-01 -2.713999450206756592e-01 2.109083682298660278e-01 2.635579705238342285e-01 -1.183937191963195801e-01 2.408677488565444946e-01 4.222885072231292725e-01 4.157635197043418884e-02 7.825504988431930542e-02
5.835458636283874512e-01 -3.190712332725524902e-01 2.681357562541961670e-01 5.109807103872299194e-02 -1.885898709297180176e-01 2.412248551845550537e-01 2.908879145979881287e-02 -8.706421405076980591e-02 1.755287200212478638e-01 -4.024932980537414551e-01 -5.797739326953887939e-02 1.471726000308990479e-01 -1.870468109846115112e-01 -2.039466649293899536e-01 1.403248757123947144e-01 -2.603208720684051514e-01 -3.839728236198425293e-01 1.952668279409408569e-01 1.698087304830551147e-01 1.399090886116027832e-01 -8.438654243946075439e-02 3.015099167823791504e-01 1.963261216878890991e-01 -7.955879718065261841e-02 -7.776499539613723755e-02 3.493422269821166992e-01 1.528535485267639160e-01 1.683958321809768677e-01 1.487500220537185669e-01 1.328664720058441162e-01 1.291066706180572510e-01
-1.444926019757986069e-02 3.634935617446899414e-01 1.915148794651031494e-01 3.308495879173278809e-01 2.693895995616912842e-01 1.307884603738784790e-02 -1.445887982845306396e-01 1.116900891065597534e-01 3.889191150665283203e-01 6.583055108785629272e-02 5.616355687379837036e-02 -2.067082375288009644e-02 -1.390165276825428009e-02 1.234016939997673035e-01 -4.806961119174957275e-02 -2.061473578214645386e-01 4.570878669619560242e-02 1.543742138892412186e-02 3.214560821652412415e-02 -2.270457893610000610e-01 -1.900949180126190186e-01 1.687226891517639160e-01 2.956174314022064209e-01 2.092354744672775269e-01 2.223619520664215088e-01 4.258427768945693970e-03 3.660674393177032471e-02 2.407900094985961914e-01 3.368236124515533447e-01 -1.368358880281448364e-01 -1.538996249437332153e-01
4.403131455183029175e-02 8.275439590215682983e-02 -5.183742567896842957e-02 -2.369041591882705688e-01 -1.933033168315887451e-01 2.744207978248596191e-01 -3.041687421500682831e-02 -1.336110234260559082e-01 -8.371873497962951660e-01 2.864753603935241699e-01 -3.154233098030090332e-01 2.462161034345626831e-01 1.174465194344520569e-01 -3.448280394077301025e-01 -2.746253013610839844e-01 -4.772572219371795654e-01 1.884439736604690552e-01 -1.523710638284683228e-01 -9.975492954254150391e-02 -2.535783052444458008e-01 3.075656294822692871e-02 -5.030344799160957336e-02 2.366416007280349731e-01 -1.609707176685333252e-01 2.999956607818603516e-01 -1.163495853543281555e-01 -3.329863250255584717e-01 6.043357849121093750e-01 1.017650246620178223e+00 3.280002474784851074e-01 -5.234560966491699219e-01
1.302722692489624023e-01 -3.268070518970489502e-01 3.440321683883666992e-01 2.817896902561187744e-01 1.927780061960220337e-01 3.842984735965728760e-01 1.430332008749246597e-02 -6.866576671600341797e-01 -2.193767130374908447e-01 -2.994379401206970215e-01 1.538885533809661865e-01 9.666222333908081055e-02 1.105966344475746155e-01 -5.996514856815338135e-02 -1.522286832332611084e-01 -2.917570471763610840e-01 4.111332297325134277e-01 -9.387940913438796997e-02 -1.077194884419441223e-02 1.209943443536758423e-01 4.782841503620147705e-01 2.662177085876464844e-01 -2.142734080553054810e-02 -1.410399936139583588e-02 -1.207405924797058105e-01 6.352057307958602905e-02 5.556067451834678650e-02 -2.455480098724365234e-01 -2.746578752994537354e-01 3.427111506462097168e-01 1.877503246068954468e-01
-2.242869436740875244e-01 5.377428531646728516e-01 -3.035007230937480927e-02 -1.863932758569717407e-01 -2.521239519119262695e-01 -1.919616162776947021e-01 2.430075779557228088e-02 8.741253018379211426e-01 2.604823112487792969e-01 7.110094428062438965e-01 3.875761106610298157e-02 -3.942351937294006348e-01 7.482092976570129395e-01 6.624508500099182129e-01 -2.000439763069152832e-01 6.421704292297363281e-01 6.694474816322326660e-01 -7.071113586425781250e-02 -5.956192016601562500e-01 4.071727693080902100e-01 5.755205750465393066e-01 -6.956557035446166992e-01 -3.005389273166656494e-01 -3.868737816810607910e-02 -8.272353559732437134e-02 2.033251374959945679e-01 -9.201361984014511108e-02 1.962830312550067902e-02 2.567665837705135345e-02 -7.440646290779113770e-01 7.478543370962142944e-02
1.801858693361282349e-01 2.420838773250579834e-01 1.044150218367576599e-01 -1.397174298763275146e-01 -5.032988190650939941e-01 2.362923622131347656e-01 4.286160767078399658e-01 1.613595150411128998e-02 -9.507182240486145020e-02 4.993845243006944656e-03 -1.390343308448791504e-01 -4.069837033748626709e-01 -3.846836090087890625e-01 -4.709461331367492676e-01 -2.783654034137725830e-01 1.554009169340133667e-01 -1.745779067277908325e-01 -2.358651161193847656e-01 -1.721508353948593140e-01 1.566161513328552246e-01 -3.124269843101501465e-01 -1.875999122858047485e-01 1.638152897357940674e-01 2.743604965507984161e-02 -8.373894542455673218e-02 4.149688482284545898e-01 2.261825948953628540e-01 1.980706900358200073e-01 2.639512121677398682e-01 -4.374289810657501221e-01 3.360910117626190186e-01
-1.566358208656311035e-01 -2.020574640482664108e-03 1.349630355834960938e-01 2.328793108463287354e-01 8.435916155576705933e-02 3.831375241279602051e-01 -3.832384943962097168e-01 -3.598057925701141357e-01 -4.271871745586395264e-01 -1.648888438940048218e-01 1.563431229442358017e-03 -3.513621687889099121e-01 2.102702483534812927e-02 -1.636439114809036255e-01 -8.281363546848297119e-02 -1.790798604488372803e-01 -7.558448612689971924e-02 5.303727090358734131e-02 4.584224894642829895e-02 -9.153882414102554321e-02 -2.024552971124649048e-01 -6.180264949798583984e-01 2.582679092884063721e-01 -1.069025695323944092e-02 -4.698502644896507263e-02 -6.048298627138137817e-02 -1.300451904535293579e-01 -2.016831934452056885e-01 1.437863558530807495e-01 -1.932534873485565186e-01 -1.799127757549285889e-01
2.990158498287200928e-01 5.832821130752563477e-01 1.285349577665328979e-01 -1.300985962152481079e-01 -1.158638894557952881e-01 7.749257236719131470e-02 3.021600842475891113e-01 2.245615869760513306e-01 -1.696012169122695923e-01 5.613857507705688477e-01 -2.897099852561950684e-01 -8.100420236587524414e-02 6.584922075271606445e-01 -1.788751780986785889e-01 -5.341400504112243652e-01 1.050729379057884216e-01 -7.748993486166000366e-02 -4.076563417911529541e-01 -5.319336056709289551e-01 3.193071186542510986e-01 2.192287519574165344e-02 7.133223582059144974e-03 1.137425005435943604e-01 1.513595432043075562e-01 1.156062558293342590e-01 -1.853479295969009399e-01 1.211216747760772705e-01 1.484510451555252075e-01 4.039457067847251892e-02 2.383565902709960938e-01 -4.123401343822479248e-01
-3.455832302570343018e-01 1.030650362372398376e-02 7.501501590013504028e-02 -3.340131789445877075e-02 3.162783011794090271e-02 3.944966197013854980e-01 3.439699411392211914e-01 3.374063968658447266e-01 -1.025152727961540222e-01 -1.576370745897293091e-01 9.282161295413970947e-02 -1.598106473684310913e-01 -3.943530023097991943e-01 -3.224580585956573486e-01 1.992150247097015381e-01 5.503131747245788574e-01 -4.043487012386322021e-01 5.759859830141067505e-02 3.076919317245483398e-01 3.404710590839385986e-01 -4.623511806130409241e-02 2.082980126142501831e-01 -2.044382095336914062e-01 3.791009187698364258e-01 -1.090892404317855835e-01 -8.099247515201568604e-02 2.650788612663745880e-02 1.886786073446273804e-01 -3.875332176685333252e-01 9.036350995302200317e-02 2.630344331264495850e-01
-5.921534299850463867e-01 2.937572002410888672e-01 1.506437212228775024e-01 3.352140188217163086e-01 1.853646524250507355e-02 -6.104319691658020020e-01 -2.273617088794708252e-01 -5.083888173103332520e-01 6.268202792853116989e-03 -1.033116698265075684e+00 1.585724651813507080e-01 -6.689530611038208008e-01 -1.812482178211212158e-01 -2.423999011516571045e-01 2.939207255840301514e-01 -1.570220738649368286e-01 6.264270544052124023e-01 2.255806028842926025e-01 3.867359459400177002e-01 1.401638146489858627e-02 2.089419215917587280e-01 -2.831911742687225342e-01 2.961862087249755859e-01 -8.842492848634719849e-02 1.342313550412654877e-02 -1.497112512588500977e-01 -4.504459202289581299e-01 1.696751862764358521e-01 -9.330227971076965332e-02 -4.792368412017822266e-01 2.544376552104949951e-01
2.163608670234680176e-01 1.944071501493453979e-01 3.225532770156860352e-01 -4.613559320569038391e-02 -1.238267198204994202e-01 -1.306086182594299316e-01 8.555981516838073730e-02 1.514643579721450806e-01 -4.045600891113281250e-01 -1.776253879070281982e-01 -5.987823754549026489e-02 -2.605825662612915039e-01 2.820039391517639160e-01 -1.464959233999252319e-01 -1.286650151014328003e-01 1.278977096080780029e-01 2.674871124327182770e-02 -1.665018498897552490e-01 -1.560596078634262085e-01 -2.103264778852462769e-01 8.106100372970104218e-03 -7.853758521378040314e-03 1.380371600389480591e-01 1.164307445287704468e-01 6.746829748153686523e-01 -4.076875746250152588e-01 -9.977839142084121704e-02 5.457621216773986816e-01 -4.353573322296142578e-01 1.726873964071273804e-02 -5.312649011611938477e-01
1.250669360160827637e+00 8.639268279075622559e-01 6.857846379280090332e-01 2.336760461330413818e-01 4.666204154491424561e-01 1.246810108423233032e-01 4.078889265656471252e-02 4.504387825727462769e-02 3.030106127262115479e-01 3.057034015655517578e-01 -1.191822141408920288e-01 7.304942607879638672e-02 1.816025376319885254e-01 4.080541133880615234e-01 -2.665586769580841064e-01 -1.692034900188446045e-01 -2.575683295726776123e-01 2.446120418608188629e-02 -2.222640365362167358e-01 -4.536253958940505981e-02 -1.031200587749481201e-01 3.321558535099029541e-01 -1.690808981657028198e-01 4.134497418999671936e-02 -8.424475044012069702e-02 -2.492075264453887939e-01 -1.215000450611114502e-01 -1.759097725152969360e-01 9.551814943552017212e-02 1.087211668491363525e-01 -3.448560088872909546e-02
1.452000737190246582e-01 -2.589206099510192871e-01 -3.541702032089233398e-01 -2.164454162120819092e-01 -3.989607095718383789e-01 -8.513230085372924805e-01 9.717424213886260986e-02 3.139295578002929688e-01 -3.386057615280151367e-01 3.772155046463012695e-01 -1.344133466482162476e-01 6.132544875144958496e-01 3.754217028617858887e-01 -1.976068019866943359e-01 -1.358030438423156738e-01 7.420528680086135864e-02 2.686896733939647675e-02 -2.375677973031997681e-01 -1.503154039382934570e-01 -1.152584254741668701e-01 -1.292164474725723267e-01 -3.226267695426940918e-01 -1.452980935573577881e-01 -1.485679000616073608e-01 1.076042503118515015e-01 -3.459310233592987061e-01 3.282046914100646973e-01 2.753634750843048096e-01 2.985391020774841309e-01 -2.625279128551483154e-01 -3.466529548168182373e-01
1.355822980403900146e-01 4.229473471641540527e-01 6.337206363677978516e-01 5.734312534332275391e-01 4.648006260395050049e-01 6.467837840318679810e-02 2.346796691417694092e-01 -1.752022802829742432e-01 -2.058345526456832886e-01 -4.918113052845001221e-01 -2.668693959712982178e-01 7.000177353620529175e-02 8.294036984443664551e-02 3.870551288127899170e-01 -1.723800152540206909e-01 -2.228799462318420410e-01 1.028713732957839966e-01 -8.999241888523101807e-02 -1.476976573467254639e-01 -3.341663777828216553e-01 6.987879425287246704e-02 -5.167519673705101013e-02 -4.936093688011169434e-01 -3.686606287956237793e-01 -2.406404465436935425e-01 -3.044893741607666016e-01 -1.541000455617904663e-01 1.143798530101776123e-01 7.162171006202697754e-01 1.028717458248138428e-01 3.132175654172897339e-02
2.603424787521362305e-01 5.213173106312751770e-02 4.833019897341728210e-02 -2.195505350828170776e-01 -4.429154843091964722e-02 6.813908368349075317e-02 2.361683398485183716e-01 -3.480646014213562012e-01 -5.442994236946105957e-01 5.436812043190002441e-01 4.243051409721374512e-01 2.299528867006301880e-01 -5.411092638969421387e-01 -2.228975594043731689e-01 -2.074528336524963379e-01 9.647389501333236694e-02 6.894595175981521606e-02 -8.217252790927886963e-02 -2.025766298174858093e-02 3.016765117645263672e-01 4.868561774492263794e-02 -3.885898292064666748e-01 -8.707541972398757935e-02 -1.661470979452133179e-01 -1.555438786745071411e-01 -1.654487252235412598e-01 5.845507979393005371e-01 7.412153482437133789e-02 -6.446742266416549683e-02 -4.139665663242340088e-01 2.549594044685363770e-01
3.158458173274993896e-01 -1.634676195681095123e-02 7.659333199262619019e-02 3.547413349151611328e-01 1.582576483488082886e-01 2.568840682506561279e-01 5.965606570243835449e-01 -3.247409313917160034e-02 5.400954559445381165e-02 -8.831643313169479370e-02 -2.647815644741058350e-01 -6.241629272699356079e-02 2.513009607791900635e-01 -3.603743314743041992e-01 -1.020137742161750793e-01 4.745905995368957520e-01 3.888561949133872986e-02 -4.127492010593414307e-02 1.052591279149055481e-01 4.861259758472442627e-01 1.148550882935523987e-01 2.067574113607406616e-02 4.405576363205909729e-02 3.814838528633117676e-01 -6.252753734588623047e-02 -1.706367172300815582e-02 2.170367389917373657e-01 -6.369943916797637939e-02 2.372378483414649963e-02 -5.603137239813804626e-02 -5.347411707043647766e-02
3.561748862266540527e-01 5.029945969581604004e-01 4.089023768901824951e-01 2.892125770449638367e-02 -2.156625092029571533e-01 -6.490203142166137695e-01 7.032346725463867188e-02 7.355366945266723633e-01 1.386545300483703613e-01 5.006322860717773438e-01 -1.662786006927490234e-01 5.144755542278289795e-02 5.124078989028930664e-01 -2.449423670768737793e-01 -1.400145441293716431e-01 -4.168834537267684937e-02 -1.979954540729522705e-01 -3.884965479373931885e-01 -3.381609916687011719e-01 1.576229631900787354e-01 -1.552729029208421707e-02 1.438049823045730591e-01 2.652609646320343018e-01 -1.867024004459381104e-01 4.790652990341186523e-01 -5.396733283996582031e-01 3.015103340148925781e-01 4.754391908645629883e-01 1.712553352117538452e-01 3.772721588611602783e-01 -2.158854156732559204e-01
2.532196342945098877e-01 -5.180632472038269043e-01 6.327289342880249023e-01 3.761484920978546143e-01 1.592034399509429932e-01 5.134103298187255859e-01 3.792070224881172180e-02 -1.600033491849899292e-01 2.081553488969802856e-01 -2.609938383102416992e-02 4.759759008884429932e-01 2.074184827506542206e-02 -3.775177597999572754e-01 1.299561839550733566e-02 2.260325290262699127e-02 8.731178939342498779e-02 1.395605206489562988e-01 2.874940037727355957e-01 1.634866297245025635e-01 2.572174966335296631e-01 1.498625725507736206e-01 3.125498294830322266e-01 8.937657624483108521e-02 -1.599587202072143555e-01 1.914859712123870850e-01 2.006667405366897583e-01 1.569434255361557007e-01 -4.917285870760679245e-03 -1.504753828048706055e-01 4.303433001041412354e-03 -9.245103597640991211e-02
4.033299982547760010e-01 -1.404182706028223038e-02 -2.484898865222930908e-01 2.023478597402572632e-02 -1.709116548299789429e-01 -5.895907431840896606e-02 -1.097208708524703979e-01 1.952951606654096395e-05 -2.402132190763950348e-02 1.085270345211029053e-01 -8.102105557918548584e-02 3.107502162456512451e-01 -6.334304064512252808e-02 3.510869294404983521e-02 -2.376737147569656372e-01 1.538901180028915405e-01 -3.530820459127426147e-02 -1.886898875236511230e-01 -2.903245389461517334e-01 2.952894754707813263e-02 -8.223378658294677734e-02 7.363965362310409546e-02 9.281461685895919800e-02 -2.792844474315643311e-01 6.595958024263381958e-02 -3.083718121051788330e-01 -1.412991248071193695e-02 2.918440401554107666e-01 4.511328637599945068e-01 3.149355649948120117e-01 -1.175818070769309998e-01
2.721956074237823486e-01 -4.002260044217109680e-03 8.977857977151870728e-02 3.867219388484954834e-01 3.579894900321960449e-01 -9.094290435314178467e-02 1.553865522146224976e-01 -8.435901999473571777e-02 -1.028986215591430664e+00 2.105439007282257080e-01 1.929384171962738037e-01 4.559456408023834229e-01 -1.399800479412078857e-01 -2.271287143230438232e-01 -2.274090349674224854e-01 1.631546318531036377e-01 4.469124600291252136e-02 7.362861931324005127e-02 1.728249490261077881e-01 2.075896561145782471e-01 -1.955573633313179016e-02 -8.132477998733520508e-01 1.457222551107406616e-01 1.072411015629768372e-01 1.265585660934448242e+00 -8.407393693923950195e-01 1.799864470958709717e-01 1.125576734542846680e+00 -2.489950358867645264e-01 -3.831906318664550781e-01 -1.216790795326232910e+00
-2.728843390941619873e-01 7.062785625457763672e-01 3.131487965583801270e-01 1.990315914154052734e-01 4.280177652835845947e-01 -3.613046109676361084e-01 -9.629218839108943939e-03 1.518891304731369019e-01 1.578708887100219727e-01 -2.744865715503692627e-01 -1.620519012212753296e-01 6.866059452295303345e-02 -4.538037180900573730e-01 3.317611515522003174e-01 1.391486674547195435e-01 -3.952271938323974609e-01 -6.321828812360763550e-02 -5.402782559394836426e-02 3.418433293700218201e-02 -2.610601782798767090e-01 -4.195068776607513428e-02 -1.103345826268196106e-01 -1.462417691946029663e-01 1.290872991085052490e-01 7.497776299715042114e-02 1.969243586063385010e-01 -2.297188937664031982e-01 -3.060861304402351379e-02 4.615323245525360107e-01 -2.930257618427276611e-01 -1.199433878064155579e-01
-1.786715090274810791e-01 1.492906063795089722e-01 4.655481576919555664e-01 1.272065639495849609e-01 1.314281076192855835e-01 4.547101557254791260e-01 1.765815764665603638e-01 -1.463904678821563721e-01 3.065104186534881592e-01 -5.547099187970161438e-02 -4.405196607112884521e-01 -4.125087261199951172e-01 -8.776255846023559570e-01 -4.659581482410430908e-01 1.879991032183170319e-02 -9.015152603387832642e-02 5.976722836494445801e-01 -5.962411314249038696e-02 1.698132455348968506e-01 3.948593437671661377e-01 4.044173955917358398e-01 -3.251973390579223633e-01 -2.176306545734405518e-01 -1.418961435556411743e-01 2.814486026763916016e-01 -8.659931421279907227e-01 -1.025131195783615112e-01 1.133607402443885803e-01 -5.523021221160888672e-01 -5.131446123123168945e-01 -1.351154446601867676e-01
2.444283813238143921e-01 2.270499020814895630e-01 -3.720159456133842468e-02 -1.036113798618316650e-01 -8.573580533266067505e-02 -4.121344983577728271e-01 1.870100200176239014e-01 -2.132176309823989868e-01 -3.174846470355987549e-01 2.770423889160156250e-01 3.589214086532592773e-01 2.695177197456359863e-01 -3.862809240818023682e-01 -7.226792164146900177e-03 2.361188530921936035e-01 1.254251301288604736e-01 -2.675987966358661652e-02 1.535500735044479370e-01 2.088707983493804932e-01 -7.301988452672958374e-02 -9.711898863315582275e-02 -3.536304831504821777e-01 -1.913604736328125000e-01 -1.802138611674308777e-02 2.279645800590515137e-01 -2.975930273532867432e-01 2.484827488660812378e-01 2.980841100215911865e-01 -5.729296058416366577e-02 -2.726271748542785645e-01 -3.736817836761474609e-01
2.412882596254348755e-01 9.424123913049697876e-02 4.339509308338165283e-01 2.665364742279052734e-01 3.174305856227874756e-01 -2.633942365646362305e-01 -2.117081359028816223e-02 -5.870888754725456238e-02 -1.673816889524459839e-01 6.143868565559387207e-01 2.757887840270996094e-01 1.750051379203796387e-01 4.656346440315246582e-01 -1.578032374382019043e-01 -8.663320541381835938e-02 1.746333986520767212e-01 4.029195755720138550e-02 -1.789108514785766602e-01 -1.809894740581512451e-01 -1.336237192153930664e-01 -7.639415562152862549e-02 -2.206784188747406006e-01 4.240588843822479248e-01 2.800735533237457275e-01 -4.699645638465881348e-01 -5.726774930953979492e-01 4.576127231121063232e-01 1.366210281848907471e-01 2.270142734050750732e-02 4.838551282882690430e-01 1.897138655185699463e-01
8.051736652851104736e-02 -8.846224844455718994e-02 1.622530259191989899e-02 -8.431451767683029175e-02 -1.327465325593948364e-01 4.636232182383537292e-02 2.509860098361968994e-01 7.281742691993713379e-01 3.510687649250030518e-01 -4.043964743614196777e-01 -6.113484501838684082e-01 -1.551890969276428223e+00 8.247284889221191406e-01 -2.827747724950313568e-02 -1.943646073341369629e-01 3.948920592665672302e-02 1.342814415693283081e-01 -2.741430699825286865e-01 -3.519303798675537109e-01 5.754688978195190430e-01 5.775487422943115234e-02 2.830241024494171143e-01 1.880794167518615723e-01 6.353392004966735840e-01 2.735896706581115723e-01 1.811257749795913696e-01 -5.002087950706481934e-01 2.564925849437713623e-01 -1.215705722570419312e-01 4.810415804386138916e-01 -6.651364564895629883e-01
2.059041336178779602e-02 1.200044304132461548e-01 4.608422517776489258e-01 5.066659450531005859e-01 3.728420436382293701e-01 4.312787353992462158e-01 1.833978481590747833e-02 2.957209385931491852e-02 1.428943574428558350e-01 5.622496362775564194e-03 -1.684581860899925232e-02 -1.299895197153091431e-01 -2.187293171882629395e-01 -1.245688740164041519e-02 5.962355062365531921e-02 1.547040641307830811e-01 3.320216834545135498e-01 -1.089313253760337830e-02 -1.358615607023239136e-01 2.470196485519409180e-01 2.056626081466674805e-01 -1.796388765797019005e-03 1.877088844776153564e-01 3.168517947196960449e-01 6.631314009428024292e-02 -6.138766929507255554e-02 1.559969596564769745e-02 -1.447587907314300537e-01 1.124726161360740662e-01 6.558371335268020630e-02 -3.528723120689392090e-01
-6.233592703938484192e-02 4.086336120963096619e-02 1.448981612920761108e-01 3.323725461959838867e-01 4.107239842414855957e-02 -2.542451024055480957e-01 5.319715291261672974e-02 -1.435802727937698364e-01 5.469081997871398926e-01 3.688933551311492920e-01 -3.857343792915344238e-01 3.064704835414886475e-01 5.073038488626480103e-02 1.937846988439559937e-01 -2.338480502367019653e-01 -1.955879628658294678e-01 -2.785237273201346397e-03 -1.500258594751358032e-01 -3.626399040222167969e-01 -3.762569725513458252e-01 -3.080378472805023193e-02 2.858723104000091553e-01 2.961577847599983215e-02 3.335007131099700928e-01 -4.164279699325561523e-01 3.246697485446929932e-01 5.309298262000083923e-02 -4.660367071628570557e-01 -8.452058583498001099e-02 1.976750046014785767e-01 2.192631512880325317e-01
6.834746152162551880e-02 1.294265985488891602e-01 9.423813968896865845e-02 -7.402512431144714355e-02 -1.437821984291076660e-01 -3.193571567535400391e-01 -1.342533249408006668e-02 1.222753822803497314e-01 -3.591519892215728760e-01 1.153050661087036133e-01 5.011947825551033020e-02 1.355888694524765015e-01 8.958613872528076172e-02 -3.712166547775268555e-01 -3.454279601573944092e-01 3.289693593978881836e-01 -6.592275202274322510e-02 -3.104676902294158936e-01 -1.666936725378036499e-01 2.416099011898040771e-01 1.481929123401641846e-01 7.283560186624526978e-02 2.179761826992034912e-01 1.670208945870399475e-02 -1.501910686492919922e-01 -3.552902936935424805e-01 6.722551584243774414e-02 6.669583916664123535e-02 -1.549980640411376953e-01 3.190719485282897949e-01 -1.130765080451965332e-01
3.042578995227813721e-01 -3.727352619171142578e-01 -4.502353072166442871e-01 -1.511695384979248047e-01 -1.693015098571777344e-01 -2.335140854120254517e-01 3.972541168332099915e-02 -2.808069984894245863e-04 1.094577834010124207e-01 1.266629099845886230e-01 7.319558411836624146e-02 -2.601816654205322266e-01 -2.686764579266309738e-03 5.809637904167175293e-01 1.074650436639785767e-01 2.553418651223182678e-02 2.942449748516082764e-01 2.186195999383926392e-01 1.118183955550193787e-01 2.270558178424835205e-01 9.368244558572769165e-02 1.408316195011138916e-01 8.684961497783660889e-02 -3.215346038341522217e-01 -1.254274398088455200e-01 3.242678940296173096e-01 3.115787208080291748e-01 -1.792828440666198730e-01 -5.377613753080368042e-02 1.608734205365180969e-02 3.238589763641357422e-01
1.937975883483886719e-01 -1.464207619428634644e-01 -4.172992110252380371e-01 -2.294001169502735138e-02 1.179527724161744118e-03 5.692887306213378906e-02 6.129695177078247070e-01 -4.578295946121215820e-01 -3.869000077247619629e-01 -4.568986594676971436e-01 3.741324543952941895e-01 -2.283042669296264648e-01 -6.404898166656494141e-01 -5.804808735847473145e-01 -5.042015314102172852e-01 1.334410011768341064e-01 -7.576176524162292480e-02 -4.203189015388488770e-01 -5.308547616004943848e-01 3.665010035037994385e-01 3.646700680255889893e-01 -2.965583279728889465e-02 -3.188191354274749756e-01 5.864968299865722656e-01 2.865458130836486816e-01 1.011557225137948990e-02 -4.462274163961410522e-02 3.220087289810180664e-01 1.603065133094787598e-01 -1.596848517656326294e-01 1.327864010818302631e-03
4.010859131813049316e-01 9.939382970333099365e-02 1.695622056722640991e-01 2.237301319837570190e-01 2.013529650866985321e-02 -5.715983510017395020e-01 1.101253181695938110e-01 -2.947743423283100128e-02 -1.274139434099197388e-01 -2.653495967388153076e-01 -4.684638381004333496e-01 4.579364359378814697e-01 3.284564316272735596e-01 2.996720671653747559e-01 -2.917416095733642578e-01 -9.946581721305847168e-02 4.046685695648193359e-01 -3.209910988807678223e-01 -4.415867924690246582e-01 -9.914859384298324585e-02 2.567170262336730957e-01 -3.836617469787597656e-01 -5.279816389083862305e-01 -7.324000000953674316e-01 -5.684612989425659180e-01 5.299063920974731445e-01 1.204074919223785400e-01 -1.849811673164367676e-01 -4.485151171684265137e-01 -3.920382857322692871e-01 2.233571261167526245e-01
-5.043161287903785706e-02 5.560725331306457520e-01 4.498147964477539062e-01 1.500778496265411377e-01 1.215901896357536316e-01 2.706916928291320801e-01 1.706684380769729614e-01 -2.252253741025924683e-01 1.781575977802276611e-01 3.954348862171173096e-01 -2.406352907419204712e-01 2.723790705204010010e-01 7.148256897926330566e-02 6.116534397006034851e-02 1.838177293539047241e-01 8.026774227619171143e-02 3.293834924697875977e-01 2.897662483155727386e-02 -1.120117679238319397e-01 8.638849854469299316e-02 3.829667270183563232e-01 -3.898485004901885986e-01 -2.482401132583618164e-01 -2.078436315059661865e-01 -9.023477137088775635e-02 -2.804790735244750977e-01 -4.440098255872726440e-02 -1.822023838758468628e-01 -2.012038789689540863e-02 -7.496686279773712158e-02 -1.413810402154922485e-01
-3.818332031369209290e-02 4.426010251045227051e-01 1.641145050525665283e-01 -1.421568244695663452e-01 -4.117312282323837280e-02 -1.049248456954956055e+00 -2.963016331195831299e-01 -1.599522978067398071e-01 1.233261674642562866e-01 3.367796540260314941e-01 -1.724536418914794922e-01 1.294007599353790283e-01 1.995461434125900269e-02 7.085955142974853516e-02 -8.614934049546718597e-03 -2.411778271198272705e-02 -2.202610969543457031e-01 -3.798255696892738342e-02 -1.446743011474609375e-01 6.830759346485137939e-02 6.645908579230308533e-04 -9.490308165550231934e-02 4.086737334728240967e-01 1.615123152732849121e-01 -7.822371274232864380e-02 4.411714375019073486e-01 5.584883689880371094e-01 1.081179305911064148e-01 -1.939553320407867432e-01 -3.510011434555053711e-01 -1.025152578949928284e-01
-2.699551545083522797e-02 -4.316227734088897705e-01 -2.245924174785614014e-01 7.068914175033569336e-02 -1.809718906879425049e-01 9.130071848630905151e-02 -2.499139904975891113e-01 2.246465682983398438e-01 1.030420884490013123e-01 -6.938304305076599121e-01 6.892415881156921387e-02 -5.979372859001159668e-01 -7.687212228775024414e-01 7.092875838279724121e-01 9.442332386970520020e-01 -4.120980501174926758e-01 -1.660208404064178467e-01 5.585639476776123047e-01 6.602845788002014160e-01 -4.774128198623657227e-01 -2.785081863403320312e-01 2.169989198446273804e-01 3.392137289047241211e-01 -2.732934355735778809e-01 -7.803521119058132172e-03 3.947336673736572266e-01 -1.110342815518379211e-01 -1.038990765810012817e-01 5.759645700454711914e-01 2.005719840526580811e-01 3.040929436683654785e-01
1.296183615922927856e-01 7.915152609348297119e-02 2.776492834091186523e-01 3.878329396247863770e-01 2.081492394208908081e-01 1.731217950582504272e-01 2.801739275455474854e-01 1.081262063235044479e-02 -4.600241184234619141e-01 2.470477521419525146e-01 5.502731353044509888e-02 -1.557806599885225296e-02 -1.608701497316360474e-01 -1.882098615169525146e-01 -5.994228646159172058e-02 -1.125550121068954468e-01 2.719357609748840332e-01 1.032233536243438721e-01 -3.567007835954427719e-03 1.473233714932575822e-04 1.322157233953475952e-01 -2.066611647605895996e-01 -4.713939502835273743e-02 7.790633440017700195e-01 6.291805207729339600e-02 -3.469288349151611328e-01 -4.903244785964488983e-03 4.702624678611755371e-01 -9.043680876493453979e-02 -1.316746771335601807e-01 -2.227006703615188599e-01
3.774743378162384033e-01 -1.372994184494018555e-01 1.879876106977462769e-01 1.509769558906555176e-01 -5.700321868062019348e-02 3.134282827377319336e-01 2.128942310810089111e-02 -3.798802569508552551e-02 -2.148818075656890869e-01 -3.059546351432800293e-01 -1.742803007364273071e-01 -1.699429005384445190e-01 -3.151193559169769287e-01 3.922060877084732056e-02 -9.724038094282150269e-02 1.773440986871719360e-01 -1.283027380704879761e-01 1.014003530144691467e-01 -9.514148347079753876e-03 5.386958271265029907e-02 -1.086759939789772034e-01 -3.117114901542663574e-01 2.678903564810752869e-02 -5.821828544139862061e-02 -2.198505997657775879e-01 -2.176448889076709747e-02 -1.234584972262382507e-01 7.556585967540740967e-02 -2.598380148410797119e-01 1.600261777639389038e-01 7.891917228698730469e-02
3.805862367153167725e-01 2.473781853914260864e-01 6.922904849052429199e-01 1.843453943729400635e-01 -2.134645283222198486e-01 -4.367788434028625488e-01 1.166720688343048096e-01 -9.722714871168136597e-02 1.296199113130569458e-01 -7.259429991245269775e-02 -1.831165850162506104e-01 2.232371568679809570e-01 -5.129116401076316833e-02 1.815402694046497345e-02 -2.839064896106719971e-01 -4.344810172915458679e-02 -2.217763066291809082e-01 -4.083525016903877258e-02 -1.243278086185455322e-01 -7.705706357955932617e-02 -3.222036063671112061e-01 3.355321660637855530e-02 1.221730932593345642e-01 1.798574924468994141e-01 -1.269763559103012085e-01 2.061170786619186401e-01 -3.591255247592926025e-01 -1.015672087669372559e-01 1.376775652170181274e-01 -1.114240214228630066e-01 -7.876603305339813232e-02
4.401590675115585327e-02 1.088566929101943970e-01 1.280852556228637695e-01 1.060905158519744873e-01 2.191653251647949219e-01 -2.202240377664566040e-01 6.680244114249944687e-03 5.831125378608703613e-02 1.638820767402648926e-01 -1.239746063947677612e-01 8.446632884442806244e-03 4.656856134533882141e-02 -1.838510483503341675e-01 3.176993429660797119e-01 2.489197440445423126e-02 -1.651568263769149780e-01 -4.348097369074821472e-02 1.983193755149841309e-01 1.416424363851547241e-01 -2.355047315359115601e-01 -4.750015586614608765e-02 3.749670460820198059e-02 1.385240554809570312e-01 2.516790032386779785e-01 1.793541461229324341e-01 -5.047751069068908691e-01 -3.646833002567291260e-01 -6.950582563877105713e-02 -8.011846244335174561e-02 1.324965059757232666e-01 -4.407503008842468262e-01
2.918612360954284668e-01 5.077140927314758301e-01 1.275398731231689453e-01 -1.217791363596916199e-01 -6.502923369407653809e-02 -6.285727769136428833e-02 -1.793192699551582336e-02 -1.275262087583541870e-01 1.403327286243438721e-01 -2.744519710540771484e-01 -2.099715173244476318e-01 -3.714936971664428711e-01 1.107152551412582397e-02 3.845689892768859863e-01 1.492132097482681274e-01 9.092245250940322876e-02 5.623511224985122681e-02 1.164738554507493973e-02 -6.625557690858840942e-02 -1.896258890628814697e-01 -6.256844103336334229e-02 -1.691250130534172058e-02 2.172785550355911255e-01 -1.640321686863899231e-02 -4.410951733589172363e-01 -8.003094792366027832e-02 3.332788869738578796e-02 1.169286742806434631e-01 -1.428253799676895142e-01 8.094868808984756470e-02 -1.720898225903511047e-02
-1.086783036589622498e-01 7.616423964500427246e-01 3.191880285739898682e-01 1.453841626644134521e-01 1.282250583171844482e-01 -2.406275123357772827e-01 1.428495198488235474e-01 2.836997210979461670e-01 -5.179319530725479126e-02 2.591444551944732666e-01 3.509453684091567993e-02 2.950036525726318359e-01 -5.151612684130668640e-02 -8.665108680725097656e-02 -4.059110581874847412e-02 3.773647546768188477e-01 -4.424154758453369141e-01 -7.875430583953857422e-02 -1.250565797090530396e-01 4.256641864776611328e-02 -2.561106085777282715e-01 6.587667763233184814e-02 -1.370754241943359375e-01 -7.121914625167846680e-02 2.686935663223266602e-01 -2.226718887686729431e-02 7.527284026145935059e-01 -1.319659315049648285e-02 -6.881441473960876465e-01 -5.062645301222801208e-02 -3.810412585735321045e-01
-4.500933885574340820e-01 -1.364483386278152466e-01 2.938114292919635773e-02 7.238306105136871338e-02 7.097516208887100220e-02 7.895615696907043457e-01 2.508328855037689209e-01 -1.764189153909683228e-01 -4.660188853740692139e-01 1.404418647289276123e-01 1.864126622676849365e-01 3.044486045837402344e-01 -5.126894116401672363e-01 -7.303614169359207153e-02 -5.810393765568733215e-02 -8.247470855712890625e-02 -2.341597527265548706e-01 -7.798355817794799805e-02 -1.855900697410106659e-02 1.681583225727081299e-01 -4.540103301405906677e-02 2.482672780752182007e-01 -3.736837208271026611e-01 -2.189916521310806274e-01 2.453572601079940796e-01 1.388514190912246704e-01 -2.711361050605773926e-01 3.951693773269653320e-01 3.633340895175933838e-01 3.058992624282836914e-01 -2.583528161048889160e-01
1.317686140537261963e-01 3.952817916870117188e-01 4.947306215763092041e-02 3.817902505397796631e-02 1.865045167505741119e-02 -4.314531683921813965e-01 -5.474838986992835999e-02 -4.084141924977302551e-03 1.456092894077301025e-01 -1.912157386541366577e-01 -2.128818631172180176e-01 -6.157271265983581543e-01 2.132774740457534790e-01 2.843135595321655273e-01 -1.407547295093536377e-01 4.713547527790069580e-01 1.820466071367263794e-01 2.655416131019592285e-01 3.953169584274291992e-01 3.112647235393524170e-01 3.090102784335613251e-02 -5.193806439638137817e-02 4.152284562587738037e-01 2.901095747947692871e-01 2.025627717375755310e-02 1.448357552289962769e-01 -1.118660271167755127e-01 9.218508005142211914e-02 9.107188880443572998e-02 -2.334855198860168457e-01 -1.355213075876235962e-01
7.814060896635055542e-02 2.109874971210956573e-02 -2.303853183984756470e-01 -1.724896579980850220e-02 -1.143724992871284485e-01 -2.253327369689941406e-01 1.038657799363136292e-01 1.543818414211273193e-01 7.700625807046890259e-02 5.775074362754821777e-01 2.095378339290618896e-01 3.492967784404754639e-01 6.830533146858215332e-01 -3.386040627956390381e-01 -1.916149556636810303e-01 6.295700073242187500e-01 -2.800081670284271240e-01 -4.522109627723693848e-01 -2.895998656749725342e-01 1.800716817378997803e-01 -1.993757635354995728e-01 -3.081584870815277100e-01 9.562937915325164795e-02 -6.838472187519073486e-02 -1.987351626157760620e-01 1.077909469604492188e-01 5.369495153427124023e-01 -7.490192353725433350e-02 -7.396709918975830078e-02 -3.295631408691406250e-01 7.473118603229522705e-02
2.414000332355499268e-01 -1.826379597187042236e-01 2.674981765449047089e-02 3.105540275573730469e-01 1.513750851154327393e-01 6.779112666845321655e-02 1.467200070619583130e-01 -5.666883587837219238e-01 -1.405117958784103394e-01 -1.628611236810684204e-01 -7.570666074752807617e-02 1.288360357284545898e-02 -4.914435744285583496e-01 -5.895342230796813965e-01 -3.427088260650634766e-01 2.015158236026763916e-01 3.494462668895721436e-01 -1.620923876762390137e-01 -3.501065820455551147e-02 2.328404933214187622e-01 3.062867932021617889e-02 -4.115980491042137146e-02 -9.587390348315238953e-03 2.259326726198196411e-01 6.718455255031585693e-02 -4.356057569384574890e-02 7.316365092992782593e-02 -6.972142029553651810e-03 2.119286656379699707e-01 7.836528867483139038e-02 -2.174744457006454468e-01
3.543541431427001953e-01 -2.037002295255661011e-01 -3.813759982585906982e-01 -9.500172734260559082e-02 -1.575107276439666748e-01 -3.258064687252044678e-01 -1.170071884989738464e-01 -3.026069402694702148e-01 -2.283916324377059937e-01 1.058793440461158752e-01 -2.519198879599571228e-02 2.287198305130004883e-01 -1.555057913064956665e-01 5.392026156187057495e-03 -2.346259206533432007e-01 8.350646495819091797e-02 -8.391890674829483032e-02 -7.774835079908370972e-02 -1.843864470720291138e-01 -1.074823290109634399e-01 -1.044431999325752258e-01 -2.025783061981201172e-02 1.147055625915527344e-01 1.466547325253486633e-02 -1.234219148755073547e-01 3.163770213723182678e-02 1.880620568990707397e-01 -4.880605638027191162e-02 -1.875273585319519043e-01 9.553045779466629028e-02 1.141375163570046425e-03
2.160836458206176758e-01 -8.687459677457809448e-02 2.093549966812133789e-01 3.980441391468048096e-01 5.007872096030041575e-05 -1.270585656166076660e-01 9.657815098762512207e-02 -6.719768792390823364e-02 -3.932298123836517334e-01 -2.704411447048187256e-01 -5.237172171473503113e-02 -2.577871084213256836e-01 7.135531306266784668e-02 1.954218149185180664e-01 -4.137727245688438416e-02 2.592509388923645020e-01 2.163126170635223389e-01 4.964246600866317749e-02 -5.458476766943931580e-02 1.807518005371093750e-01 2.193124741315841675e-01 -2.188342362642288208e-01 -5.811759829521179199e-02 4.181434586644172668e-02 -1.662264168262481689e-01 -9.033082425594329834e-02 -1.755950152873992920e-01 1.500969976186752319e-01 -6.839381158351898193e-02 -1.019413396716117859e-01 1.198503524065017700e-01
-1.749597303569316864e-02 -7.624223828315734863e-02 -4.366360306739807129e-01 -1.542503573000431061e-02 1.604974269866943359e-02 -1.140847086906433105e+00 -9.857788681983947754e-02 -1.155750900506973267e-01 5.823202803730964661e-02 -5.754995346069335938e-02 -9.726870059967041016e-02 -1.832691878080368042e-01 1.274263709783554077e-01 1.279917508363723755e-01 -2.894458174705505371e-02 1.160756945610046387e-01 3.037468791007995605e-01 -1.308350861072540283e-01 -1.244091168045997620e-01 -5.546712130308151245e-02 1.353922188282012939e-01 -3.415813148021697998e-01 -1.113591268658638000e-01 -1.335987299680709839e-01 -4.909359216690063477e-01 1.423686444759368896e-01 1.950952708721160889e-01 -3.495230078697204590e-01 5.234821438789367676e-01 -1.828305572271347046e-01 2.547276914119720459e-01
2.216421812772750854e-01 3.698311150074005127e-01 2.041883170604705811e-01 1.389809250831604004e-01 6.753221899271011353e-02 1.526207625865936279e-01 1.508192420005798340e-01 -7.128535956144332886e-02 -1.422395557165145874e-01 -1.088097095489501953e-01 1.401639431715011597e-01 1.344756782054901123e-01 3.385005295276641846e-01 -8.205573260784149170e-02 -1.442545838654041290e-02 -2.374491989612579346e-01 -3.953440785408020020e-01 7.011250406503677368e-02 -3.341092541813850403e-02 -2.980636060237884521e-01 -3.280172646045684814e-01 1.287099868059158325e-01 1.016512513160705566e-01 4.729859828948974609e-01 3.632668405771255493e-02 -2.763313353061676025e-01 -5.614196062088012695e-01 -6.591160595417022705e-02 5.309620872139930725e-02 2.527063488960266113e-01 -2.643878459930419922e-01
4.602639079093933105e-01 -2.245693355798721313e-01 4.871129244565963745e-02 2.040222585201263428e-01 3.283245861530303955e-01 3.165877461433410645e-01 3.648957014083862305e-01 -2.674239277839660645e-01 1.258592009544372559e-01 3.833171725273132324e-01 3.777572512626647949e-02 3.119775950908660889e-01 3.923685252666473389e-01 -3.223183155059814453e-01 -5.695520639419555664e-01 1.518604904413223267e-01 -2.037412673234939575e-01 -4.083892405033111572e-01 -4.227898716926574707e-01 1.905953735113143921e-01 1.246021986007690430e-01 -5.814381688833236694e-02 -4.867895692586898804e-02 1.323998272418975830e-01 2.357949316501617432e-01 -8.585602790117263794e-02 3.915844857692718506e-01 -1.180073339492082596e-02 -1.519073694944381714e-01 -3.328169286251068115e-01 -2.408869415521621704e-01
2.495506405830383301e-01 7.544867694377899170e-02 -1.863549202680587769e-01 -2.107788771390914917e-01 -2.421514838933944702e-01 3.287164270877838135e-01 -1.048676595091819763e-01 -1.640221625566482544e-01 1.085358485579490662e-01 -1.296111643314361572e-01 2.315549366176128387e-02 2.298457026481628418e-01 -1.677440106868743896e-01 2.123315483331680298e-01 1.159712970256805420e-01 2.817699611186981201e-01 -8.572644740343093872e-02 -1.825067773461341858e-02 4.299659281969070435e-03 -7.944121956825256348e-02 -1.269251406192779541e-01 2.431061267852783203e-01 -1.123852580785751343e-01 -3.294725120067596436e-01 -1.402333825826644897e-01 3.259408771991729736e-01 3.248390567023307085e-05 -4.843953251838684082e-01 -1.730587929487228394e-01 2.874788343906402588e-01 1.750198155641555786e-01
2.238111346960067749e-01 2.516214251518249512e-01 2.583651244640350342e-01 5.306074023246765137e-01 1.596347428858280182e-02 1.903930120170116425e-02 -2.488201251253485680e-03 -3.202460110187530518e-01 3.009939789772033691e-01 2.245047390460968018e-01 2.303792387247085571e-01 2.313314229249954224e-01 2.037097886204719543e-02 -1.946943402290344238e-01 -4.086804091930389404e-01 -2.077936381101608276e-01 -1.072458922863006592e-01 -4.698114395141601562e-01 -4.098691940307617188e-01 3.567241430282592773e-01 3.349354267120361328e-01 -1.622578203678131104e-01 -1.137304678559303284e-01 -2.718679308891296387e-01 -1.956349462270736694e-01 -1.080863401293754578e-01 1.248627677559852600e-01 -1.377646625041961670e-01 2.180183678865432739e-01 -1.311759203672409058e-01 -1.624237149953842163e-01
1.478101941756904125e-03 -2.108366936445236206e-01 -1.044399887323379517e-01 9.549496322870254517e-02 5.194878578186035156e-01 5.137928128242492676e-01 2.698127354960888624e-04 -5.109760761260986328e-01 1.199158504605293274e-01 -3.730011284351348877e-01 -2.334651648998260498e-01 -2.939151525497436523e-01 -6.950290799140930176e-01 2.366236001253128052e-01 3.272722661495208740e-02 -3.970070183277130127e-02 -4.509111940860748291e-01 2.210337966680526733e-01 3.644958138465881348e-02 3.825021162629127502e-02 -2.560213804244995117e-01 -2.002496421337127686e-01 -1.146708950400352478e-01 -4.550763368606567383e-01 -2.277994453907012939e-01 2.705938518047332764e-01 -7.755694985389709473e-01 -2.227544933557510376e-01 -1.456991285085678101e-01 -3.652721345424652100e-01 4.442091882228851318e-01
-1.053366512060165405e-01 -1.984162032604217529e-01 -3.487040400505065918e-01 -2.026447653770446777e-01 -3.073178529739379883e-01 -2.752969861030578613e-01 -2.012718319892883301e-01 4.172433540225028992e-02 1.093842163681983948e-01 -3.306081518530845642e-02 1.549171842634677887e-02 -7.082585990428924561e-02 2.466368079185485840e-01 1.321262717247009277e-01 1.950505226850509644e-01 -1.717203259468078613e-01 -5.781971290707588196e-02 3.832323849201202393e-01 3.799373507499694824e-01 -1.269043833017349243e-01 -2.943659722805023193e-01 -1.679013371467590332e-01 3.446005284786224365e-01 -1.253291070461273193e-01 6.899873912334442139e-02 -3.211373686790466309e-01 1.204400137066841125e-01 1.590577512979507446e-01 -1.067875139415264130e-02 -2.482553012669086456e-02 -6.745395809412002563e-02
-2.105431631207466125e-02 3.973938226699829102e-01 -1.527822762727737427e-02 -1.558120250701904297e-01 -5.843721702694892883e-02 -5.099649429321289062e-01 -6.708071380853652954e-02 7.939024269580841064e-02 1.470783799886703491e-01 -9.520050138235092163e-02 -2.093310654163360596e-01 -4.784431308507919312e-03 4.112049937248229980e-02 -2.281482368707656860e-01 -1.025277003645896912e-01 4.568390846252441406e-01 -1.363475620746612549e-01 -3.619296252727508545e-01 -2.526971697807312012e-01 1.395302563905715942e-01 1.632590740919113159e-01 4.234074428677558899e-02 3.521393239498138428e-01 2.104546502232551575e-02 1.883643120527267456e-01 -3.971921280026435852e-02 4.876148104667663574e-01 2.498484998941421509e-01 -1.356571912765502930e-01 -3.856978416442871094e-01 1.655199378728866577e-01
-1.667037159204483032e-01 -2.070937454700469971e-01 6.137761473655700684e-01 8.600407093763351440e-02 3.418835699558258057e-01 2.529272437095642090e-01 1.803636401891708374e-01 1.516626179218292236e-01 -4.254380166530609131e-01 -1.500014364719390869e-01 8.200922608375549316e-02 -1.497408747673034668e-01 -1.583234071731567383e-01 -4.814500808715820312e-01 -1.087943911552429199e-01 9.240173101425170898e-01 5.125432610511779785e-01 -3.175216019153594971e-01 -1.411917209625244141e-01 -1.630956679582595825e-01 6.964388489723205566e-02 -2.849507033824920654e-01 5.517327785491943359e-02 1.612859964370727539e-01 2.322009503841400146e-01 -2.198081314563751221e-01 3.308954536914825439e-01 3.046441078186035156e-01 1.844143718481063843e-01 -6.007266640663146973e-01 -5.089330673217773438e-02
5.902231931686401367e-01 -8.110876083374023438e-01 -1.934322118759155273e-01 -1.585084646940231323e-01 -2.694508135318756104e-01 9.158853441476821899e-02 -2.000573575496673584e-01 -1.550590693950653076e-01 1.600806862115859985e-01 -5.258655548095703125e-02 -4.030147567391395569e-02 2.066543512046337128e-02 -2.895322740077972412e-01 1.166902109980583191e-01 -7.458013296127319336e-02 -3.857804462313652039e-02 -1.429110765457153320e-01 -2.730965316295623779e-01 -1.969793438911437988e-01 -1.211549043655395508e-01 -4.519885778427124023e-02 -1.632141470909118652e-01 -2.754329470917582512e-03 -4.062980413436889648e-01 -3.466644883155822754e-01 -1.327499300241470337e-01 1.317707896232604980e-01 -1.293767429888248444e-02 2.493158131837844849e-01 -1.341259181499481201e-01 4.230501353740692139e-01
3.894110023975372314e-01 -6.729294061660766602e-01 -4.309925734996795654e-01 -1.795116662979125977e-01 -2.419051826000213623e-01 -5.813791155815124512e-01 -2.224245108664035797e-04 -7.010273635387420654e-02 1.791887879371643066e-01 -1.934997141361236572e-01 -9.140059351921081543e-02 -3.729645907878875732e-02 8.905847370624542236e-02 -1.823392361402511597e-01 -6.025232002139091492e-02 -4.145260155200958252e-02 2.118259295821189880e-02 -2.394180372357368469e-02 4.039707407355308533e-02 -5.336234346032142639e-02 -1.328022591769695282e-02 -1.574251949787139893e-01 5.905488878488540649e-02 -7.075730711221694946e-02 -9.861286729574203491e-02 -7.843320816755294800e-02 9.284375607967376709e-02 -1.311221569776535034e-01 -2.077348381280899048e-01 -1.441260576248168945e-01 -5.247455835342407227e-02
-5.581617951393127441e-01 1.199644729495048523e-01 2.996708750724792480e-01 1.760076880455017090e-01 -6.394217908382415771e-02 6.063981056213378906e-01 7.920450717210769653e-02 -1.084963530302047729e-01 -3.275205194950103760e-01 3.256576657295227051e-01 -7.500065118074417114e-02 2.192036360502243042e-01 6.486803889274597168e-01 1.213287934660911560e-01 -1.529110074043273926e-01 -1.222015172243118286e-01 -1.805598586797714233e-01 -2.641120366752147675e-02 -4.224723950028419495e-02 -5.635998025536537170e-02 -3.466373085975646973e-01 5.439037084579467773e-02 -2.325775921344757080e-01 -4.342395961284637451e-01 1.388611197471618652e-01 2.148130983114242554e-01 2.573395073413848877e-01 2.601755559444427490e-01 1.088392958045005798e-01 1.748422384262084961e-01 -2.450434863567352295e-01
4.712710380554199219e-01 -1.043647304177284241e-01 1.943630725145339966e-02 1.606974363327026367e+00 5.076592564582824707e-01 5.599616840481758118e-02 -1.796327531337738037e-01 -1.239178329706192017e-01 2.111422121524810791e-01 -1.813173890113830566e-01 2.289751172065734863e-01 -3.049036264419555664e-01 1.002521514892578125e-01 3.684072941541671753e-02 -5.002206563949584961e-02 -2.004609555006027222e-01 -6.008192524313926697e-02 -9.201984852552413940e-02 -2.040148228406906128e-01 -2.896264493465423584e-01 -1.044554561376571655e-01 -1.816451251506805420e-01 8.346672356128692627e-02 1.086284443736076355e-01 -3.485853374004364014e-01 -4.770693182945251465e-01 -1.432814896106719971e-01 -9.980195015668869019e-02 3.392396494746208191e-02 -7.768975198268890381e-02 -1.865098997950553894e-02
1.743704676628112793e-01 -1.682868152856826782e-01 3.711741790175437927e-02 2.740888297557830811e-01 4.915133118629455566e-02 4.497772157192230225e-01 3.725692629814147949e-01 9.731748700141906738e-02 -1.197699010372161865e-01 -5.941610336303710938e-01 -4.564259052276611328e-01 -6.415638923645019531e-01 -5.023907423019409180e-01 4.321698248386383057e-01 -9.313961118459701538e-02 1.370554268360137939e-01 4.184796810150146484e-01 1.471774876117706299e-01 -5.988169088959693909e-02 1.446891129016876221e-01 2.075607180595397949e-01 -2.900451421737670898e-01 -2.697810828685760498e-01 -1.308786720037460327e-01 -6.137793064117431641e-01 8.956305682659149170e-02 -2.042184919118881226e-01 -1.767663657665252686e-01 4.932276606559753418e-01 -1.054641008377075195e-01 3.675496578216552734e-01
-3.756852447986602783e-01 7.913912534713745117e-01 1.392304748296737671e-01 -6.303173303604125977e-02 -1.811415143311023712e-02 -5.974810570478439331e-02 3.514997661113739014e-02 1.605975925922393799e-01 -2.684185840189456940e-02 1.694259941577911377e-01 3.966391682624816895e-01 1.034983992576599121e-01 2.307621091604232788e-01 5.602637678384780884e-02 4.000878930091857910e-01 2.635740041732788086e-01 -1.393129080533981323e-01 3.001011610031127930e-01 3.019151687622070312e-01 8.264753967523574829e-02 -1.558299660682678223e-01 -2.377932071685791016e-01 2.023707926273345947e-01 2.101460397243499756e-01 3.183645904064178467e-01 -2.775050401687622070e-01 3.609937429428100586e-01 2.153239399194717407e-01 3.256487473845481873e-02 -1.518356893211603165e-02 -2.476193457841873169e-01
1.857701838016510010e-01 5.847327709197998047e-01 4.063648879528045654e-01 2.222964018583297729e-01 2.461020499467849731e-01 4.656988754868507385e-02 -3.630012646317481995e-02 1.029106378555297852e-01 -5.316777229309082031e-01 3.771162927150726318e-01 -3.192888498306274414e-01 3.549309670925140381e-01 -1.165759284049272537e-03 -1.138213202357292175e-01 1.628632545471191406e-01 -1.243110597133636475e-01 -3.549384176731109619e-01 -2.465038150548934937e-01 4.818560555577278137e-04 -9.944350272417068481e-02 -2.504546642303466797e-01 -4.521974921226501465e-01 4.023113548755645752e-01 1.999867260456085205e-01 2.254238873720169067e-01 5.177661180496215820e-01 1.138296872377395630e-01 4.429844915866851807e-01 7.741009443998336792e-02 -4.544457793235778809e-01 -6.849900633096694946e-02
6.476868391036987305e-01 3.714647591114044189e-01 7.857305407524108887e-01 4.926912486553192139e-01 -1.226306781172752380e-01 3.049251139163970947e-01 1.676245033740997314e-01 -1.406056731939315796e-01 1.778084635734558105e-01 -6.196900606155395508e-01 6.613107025623321533e-02 -1.153396964073181152e-01 -2.944207489490509033e-01 1.734290644526481628e-02 -1.460358798503875732e-01 1.997817903757095337e-01 -1.040919795632362366e-01 1.453290227800607681e-03 4.352532699704170227e-02 3.651689738035202026e-02 -2.249092608690261841e-01 -8.248564787209033966e-03 -4.594885557889938354e-02 -1.186967641115188599e-01 2.325102314352989197e-02 -6.793671846389770508e-02 -3.736153244972229004e-01 6.968750804662704468e-02 -1.784647405147552490e-01 -2.589091658592224121e-01 8.618566393852233887e-02
4.843118488788604736e-01 -8.461857587099075317e-02 -1.679968237876892090e-01 -6.892238557338714600e-02 -4.942556619644165039e-01 1.378919482231140137e-01 6.540413498878479004e-01 3.334523364901542664e-02 -2.817674577236175537e-01 5.849964022636413574e-01 1.908585429191589355e-02 7.712610363960266113e-01 1.115991268306970596e-02 2.706904113292694092e-01 -1.693274676799774170e-01 3.136139214038848877e-01 -2.451662719249725342e-01 1.126768589019775391e-01 -1.271782666444778442e-01 1.470555514097213745e-01 3.625348582863807678e-02 -4.610551148653030396e-02 -1.947883218526840210e-01 3.206236362457275391e-01 -1.877783834934234619e-01 -1.689552962779998779e-01 6.102839708328247070e-01 7.376477122306823730e-02 4.111368209123611450e-02 1.426911503076553345e-01 1.198988258838653564e-01
1.767232120037078857e-01 1.841165572404861450e-01 1.064557135105133057e-01 1.377450078725814819e-01 6.312668323516845703e-02 2.053115069866180420e-01 1.945726573467254639e-01 -3.964423835277557373e-01 -3.301190584897994995e-02 9.227395802736282349e-02 -1.660442799329757690e-01 4.321869611740112305e-01 -2.466919571161270142e-01 4.195989966392517090e-01 -4.630598798394203186e-02 -1.541810482740402222e-01 9.316866099834442139e-02 2.352588176727294922e-01 -1.079327985644340515e-01 -2.876182496547698975e-01 1.028707772493362427e-01 -3.125031888484954834e-01 -2.349923402070999146e-01 6.999714672565460205e-02 -4.310887455940246582e-01 -1.321290712803602219e-02 1.181171983480453491e-01 -3.338496088981628418e-01 -4.145591706037521362e-02 2.088775485754013062e-02 8.417201042175292969e-02
7.085276246070861816e-01 -7.186903357505798340e-01 6.155734509229660034e-02 3.485280573368072510e-01 -1.460474580526351929e-01 1.766068190336227417e-01 3.580876858904957771e-03 -4.341043904423713684e-02 1.504653543233871460e-01 -4.261431843042373657e-02 8.688620477914810181e-02 -1.416665911674499512e-01 3.503661602735519409e-02 7.724165916442871094e-02 -6.044703349471092224e-02 6.813639402389526367e-02 -4.047420024871826172e-01 -8.298415690660476685e-02 -5.866120010614395142e-02 2.567162364721298218e-02 -1.394855678081512451e-01 -6.920057535171508789e-02 1.243495568633079529e-01 3.898416087031364441e-02 -2.134411931037902832e-01 7.657206803560256958e-02 1.235518306493759155e-01 -2.924254536628723145e-01 1.600501686334609985e-01 -1.503600478172302246e-01 1.359016001224517822e-01
4.358799457550048828e-01 -1.507077813148498535e-01 -4.833058416843414307e-01 -2.733824253082275391e-01 -2.641023397445678711e-01 -5.179244875907897949e-01 3.758328780531883240e-02 -9.042054414749145508e-02 -3.785547800362110138e-03 -2.058548182249069214e-01 -1.861613839864730835e-01 1.760653704404830933e-01 -2.816385962069034576e-02 1.223096996545791626e-01 -9.677161462604999542e-03 1.848147660493850708e-01 -2.663571834564208984e-01 8.390674740076065063e-02 5.139262974262237549e-02 3.907128702849149704e-04 -1.389023959636688232e-01 1.000466570258140564e-01 -2.430799454450607300e-01 -1.835300177335739136e-01 -1.696981787681579590e-01 3.003800511360168457e-01 8.673751354217529297e-02 2.418106347322463989e-01 3.023246824741363525e-01 1.988655477762222290e-01 2.672331780195236206e-02
1.766179949045181274e-01 -4.345788061618804932e-01 -3.899218142032623291e-01 1.565991789102554321e-01 -5.360139161348342896e-02 2.712001502513885498e-01 -4.987990260124206543e-01 2.208856940269470215e-01 -3.534586355090141296e-02 -2.670156061649322510e-01 2.624245285987854004e-01 3.825764870271086693e-03 -3.197726011276245117e-01 1.265245378017425537e-01 -1.640057773329317570e-03 -4.698112141340970993e-03 -1.984279751777648926e-01 1.740159839391708374e-02 -2.316881716251373291e-02 -1.290690004825592041e-01 -2.854906320571899414e-01 -1.517485380172729492e-01 3.342563509941101074e-01 -2.826076447963714600e-01 -4.501871019601821899e-02 -2.709680199623107910e-01 -4.381257295608520508e-02 5.760537087917327881e-02 -2.836003303527832031e-01 -1.636292226612567902e-02 1.229992806911468506e-01
3.997694253921508789e-01 -1.005148366093635559e-01 3.984898924827575684e-01 5.149595141410827637e-01 3.277148604393005371e-01 -6.104888021945953369e-02 -1.274121701717376709e-01 5.123062729835510254e-01 2.250220030546188354e-01 -2.521044313907623291e-01 -3.645832538604736328e-01 -5.367650389671325684e-01 -2.720528841018676758e-01 -7.482600212097167969e-02 -4.737245399155654013e-05 -2.010688334703445435e-01 -1.899672895669937134e-01 -2.102658003568649292e-01 -4.665318131446838379e-02 -9.973782300949096680e-02 -1.548119038343429565e-01 1.598560661077499390e-01 5.437480807304382324e-01 3.295880854129791260e-01 -4.194050133228302002e-01 3.008510768413543701e-01 -1.700172424316406250e-01 -3.392819687724113464e-02 -1.038832142949104309e-01 3.525007069110870361e-01 -1.349125355482101440e-01
4.847670439630746841e-03 -3.695514500141143799e-01 -2.511413693428039551e-01 -4.451593849807977676e-03 -2.657968401908874512e-01 3.227685391902923584e-01 -1.982493549585342407e-01 7.916866987943649292e-02 -3.322368264198303223e-01 -7.243759930133819580e-02 1.385615020990371704e-01 -6.917010247707366943e-02 7.686601877212524414e-01 6.615908145904541016e-01 6.450217366218566895e-01 -3.791762590408325195e-01 -2.673501372337341309e-01 6.032885909080505371e-01 6.047106385231018066e-01 1.485463511198759079e-02 6.613334640860557556e-03 9.290975332260131836e-02 2.018192708492279053e-01 -6.986788511276245117e-01 -8.559757471084594727e-02 -2.035966366529464722e-01 1.114910244941711426e-01 2.527831196784973145e-01 1.243615709245204926e-02 6.445404291152954102e-01 -6.005528848618268967e-03
2.538143657147884369e-02 -1.492910385131835938e-01 -1.275065913796424866e-02 -1.573451161384582520e-01 -1.177768632769584656e-01 4.981489777565002441e-01 -2.273211441934108734e-02 -1.946112811565399170e-01 3.548630774021148682e-01 -3.564745485782623291e-01 2.520547211170196533e-01 -6.020620465278625488e-01 -9.960105270147323608e-02 -3.030390143394470215e-01 1.921288818120956421e-01 1.284656822681427002e-01 1.568027883768081665e-01 -2.633499540388584137e-02 2.063930034637451172e-01 2.427140027284622192e-01 6.620211899280548096e-02 4.229046404361724854e-01 -5.929537583142518997e-03 4.101101458072662354e-01 2.264106869697570801e-01 -1.225648969411849976e-01 -2.794176936149597168e-01 -1.221678406000137329e-01 1.202450618147850037e-01 3.813690543174743652e-01 -2.116040885448455811e-01
-2.523993141949176788e-02 -4.623254537582397461e-01 -3.890863955020904541e-01 2.339187115430831909e-01 -1.367300599813461304e-01 -6.571871042251586914e-01 3.091737814247608185e-02 4.674900472164154053e-01 3.129649162292480469e-02 1.504495739936828613e-01 -3.077789209783077240e-02 -1.162902265787124634e-01 4.100269973278045654e-01 -1.016533672809600830e-01 -1.433390080928802490e-01 -3.047304786741733551e-02 4.101576283574104309e-03 -5.161795765161514282e-02 -1.615599691867828369e-01 -3.877338767051696777e-02 9.948143735527992249e-03 -1.413018256425857544e-01 5.889897048473358154e-02 2.506426908075809479e-02 -5.898181721568107605e-02 -2.711574435234069824e-01 -7.422514259815216064e-02 -1.410546302795410156e-01 1.550851166248321533e-01 -2.647782117128372192e-02 -3.741503879427909851e-02
3.040591776371002197e-01 1.077418401837348938e-01 3.449087589979171753e-02 -2.515549957752227783e-01 -2.089674472808837891e-01 2.673167884349822998e-01 -2.660305052995681763e-02 1.314885467290878296e-01 -3.532389998435974121e-01 7.435998320579528809e-02 -1.887221932411193848e-01 -8.224756270647048950e-02 3.404236137866973877e-01 -5.973928142338991165e-03 -3.610492348670959473e-01 1.046547368168830872e-01 2.127512693405151367e-01 -1.477253288030624390e-01 -1.775438636541366577e-01 4.114722907543182373e-01 3.454652428627014160e-01 -4.845789074897766113e-02 4.465371370315551758e-01 3.774831891059875488e-01 -2.746958136558532715e-01 7.356000691652297974e-02 7.712359726428985596e-02 1.586164906620979309e-02 5.201159119606018066e-01 -3.596996515989303589e-02 -8.021315187215805054e-02
2.582799494266510010e-01 4.575665593147277832e-01 -2.907221950590610504e-02 2.439344525337219238e-01 1.470090448856353760e-01 4.373680055141448975e-01 3.635993003845214844e-01 -1.438305675983428955e-01 -5.074388980865478516e-01 -1.695466637611389160e-01 -2.584328055381774902e-01 -3.109094202518463135e-01 -2.921487390995025635e-01 -3.661069571971893311e-01 -5.699201822280883789e-01 3.215915560722351074e-01 2.593809962272644043e-01 -4.053575694561004639e-01 -3.255254626274108887e-01 5.464322566986083984e-01 2.121724635362625122e-01 -1.150771453976631165e-01 2.776713669300079346e-01 6.542875766754150391e-01 4.389410912990570068e-01 -6.459869146347045898e-01 2.304824627935886383e-02 7.662717103958129883e-01 7.063685059547424316e-01 1.043805778026580811e-01 -2.556571364402770996e-01
7.880865037441253662e-02 2.580357193946838379e-01 -3.258731067180633545e-01 -2.086412906646728516e-01 -2.023105174303054810e-01 -4.084415733814239502e-01 -3.865720331668853760e-01 -2.458726018667221069e-01 -2.012360244989395142e-01 4.102264642715454102e-01 4.284591078758239746e-01 1.985375881195068359e-01 -5.165212154388427734e-01 -3.172524571418762207e-01 -4.973546019755303860e-04 8.313633501529693604e-02 -3.431870639324188232e-01 -1.422677189111709595e-01 -3.873498365283012390e-02 -1.088454425334930420e-01 -2.074327617883682251e-01 -2.649416625499725342e-01 3.834024071693420410e-01 3.887156397104263306e-02 6.855970621109008789e-02 2.676891088485717773e-01 4.724847078323364258e-01 2.831377387046813965e-01 -3.520902097225189209e-01 -4.883731901645660400e-01 -1.278057694435119629e-01
4.798530340194702148e-01 -1.081974282860755920e-01 1.339249610900878906e-01 2.269008457660675049e-01 -4.968461394309997559e-02 -5.322653055191040039e-01 3.101962618529796600e-02 -6.926516443490982056e-02 2.200256139039993286e-01 2.557072974741458893e-02 -1.755976676940917969e-02 8.278892189264297485e-02 1.454786211252212524e-01 8.673290163278579712e-02 -7.038559019565582275e-02 1.361016035079956055e-01 -9.184277057647705078e-02 -4.659083113074302673e-02 -1.294792294502258301e-01 1.382081657648086548e-01 -7.508951425552368164e-02 -6.149804219603538513e-02 2.896969951689243317e-02 -1.651269942522048950e-01 -5.491185188293457031e-02 2.442574948072433472e-01 3.103742897510528564e-01 -1.308284699916839600e-01 -5.199584644287824631e-03 -5.207211151719093323e-02 -1.937444508075714111e-02
2.137995213270187378e-01 -1.838000863790512085e-01 -1.821165978908538818e-01 -1.172819286584854126e-01 -4.116763919591903687e-02 -6.519452929496765137e-01 -1.488789170980453491e-01 -1.428676247596740723e-01 8.586283773183822632e-02 -3.598722219467163086e-01 -8.257581293582916260e-02 -2.480381876230239868e-01 4.275898337364196777e-01 -7.699596136808395386e-02 2.571282088756561279e-01 2.676980942487716675e-02 3.859837725758552551e-02 2.315205484628677368e-01 1.732749342918395996e-01 -4.292584359645843506e-01 -4.630602598190307617e-01 -5.827506259083747864e-02 3.083256781101226807e-01 -3.600383177399635315e-02 6.800400018692016602e-01 -6.339613795280456543e-01 1.821867376565933228e-01 4.948676228523254395e-01 6.662284731864929199e-01 -6.273250281810760498e-02 -6.457864046096801758e-01
2.889734506607055664e-01 3.145875930786132812e-01 5.649861693382263184e-01 3.498349785804748535e-01 -3.795242309570312500e-02 6.021254062652587891e-01 1.937415748834609985e-01 -4.172573983669281006e-01 -1.169188171625137329e-01 -1.846914887428283691e-01 -1.037476807832717896e-01 -1.549051553010940552e-01 -2.462283521890640259e-01 3.246775269508361816e-01 -7.149981707334518433e-02 -5.951023101806640625e-01 -1.375354230403900146e-01 -4.472071677446365356e-02 -1.087346598505973816e-01 -1.346565317362546921e-02 4.188521578907966614e-02 -7.671856135129928589e-02 -1.525517702102661133e-01 1.364886909723281860e-01 -1.865479648113250732e-01 2.933205664157867432e-01 7.045564055442810059e-02 1.359337195754051208e-02 5.502926185727119446e-02 -3.064827919006347656e-01 2.594036161899566650e-01
9.591220319271087646e-02 1.619881987571716309e-01 1.622628569602966309e-01 2.094838768243789673e-01 5.847853794693946838e-02 3.168630301952362061e-01 4.087685048580169678e-02 -2.808752954006195068e-01 2.938131690025329590e-01 -1.756848543882369995e-01 -1.419005542993545532e-01 3.752934513613581657e-03 -7.249954342842102051e-01 6.335938572883605957e-01 3.476634025573730469e-01 -2.853465378284454346e-01 -4.466148018836975098e-01 3.063192665576934814e-01 2.206896841526031494e-01 -1.340516959317028522e-03 -1.961137056350708008e-01 -1.074018627405166626e-01 7.873459905385971069e-02 3.009111434221267700e-02 -4.737315773963928223e-01 2.604599893093109131e-01 -4.664592146873474121e-01 -2.705816328525543213e-01 6.012882292270660400e-02 -2.619009613990783691e-01 3.997850120067596436e-01
2.836969792842864990e-01 -8.230684995651245117e-01 -6.415413226932287216e-03 7.564257085323333740e-02 4.522837102413177490e-01 1.793842464685440063e-01 -3.166956603527069092e-01 -2.096517570316791534e-02 -3.358436375856399536e-02 -2.339245080947875977e-01 4.123370051383972168e-01 -2.196126431226730347e-01 -2.199165672063827515e-01 1.465577185153961182e-01 -9.478950960328802466e-05 -7.739117145538330078e-01 -1.334718167781829834e-01 1.436875313520431519e-01 -6.758925318717956543e-02 -3.889766037464141846e-01 -1.924405246973037720e-01 1.404216885566711426e-01 3.781228885054588318e-02 -5.141404867172241211e-01 -3.647326529026031494e-01 3.833791613578796387e-02 -4.573745280504226685e-02 -2.388315051794052124e-01 3.581272065639495850e-01 3.301607966423034668e-01 1.578821986913681030e-01
-1.408651947975158691e+00 2.895397543907165527e-01 1.936677992343902588e-01 2.127639502286911011e-01 -8.880668319761753082e-03 1.348088029772043228e-02 5.520182251930236816e-01 4.538168311119079590e-01 2.312334328889846802e-01 -3.220814764499664307e-01 -2.397899776697158813e-01 -2.955248653888702393e-01 1.012322977185249329e-01 -3.146716952323913574e-01 1.082365512847900391e-01 4.345179349184036255e-02 3.669975996017456055e-01 -8.560706675052642822e-02 2.021448016166687012e-01 9.723439812660217285e-02 1.548713259398937225e-02 -4.132261872291564941e-01 -1.617361158132553101e-01 4.188708364963531494e-01 -6.515068411827087402e-01 -4.530451297760009766e-01 1.808996945619583130e-01 2.611120790243148804e-02 5.577799081802368164e-01 6.724061071872711182e-02 3.470743298530578613e-01
3.810774683952331543e-01 -1.104107648134231567e-01 -2.973322570323944092e-02 2.258874624967575073e-01 -3.598720952868461609e-02 4.552162587642669678e-01 2.113790661096572876e-01 -2.395318150520324707e-01 -6.980400085449218750e-01 1.051113680005073547e-01 -3.381090983748435974e-02 5.774844884872436523e-01 -2.269313335418701172e-01 -2.743676491081714630e-02 -5.915555357933044434e-01 5.253956317901611328e-01 -3.235179185867309570e-01 -7.220669984817504883e-01 -9.313229918479919434e-01 -3.658537194132804871e-02 -2.602788209915161133e-01 -5.061669647693634033e-02 -9.108335971832275391e-01 -5.376979112625122070e-01 -2.504992783069610596e-01 4.027164578437805176e-01 -2.761765122413635254e-01 -6.540375947952270508e-02 -3.303020298480987549e-01 -1.500936001539230347e-01 5.163620114326477051e-01
-9.312491863965988159e-02 2.570689618587493896e-01 -2.220818549394607544e-01 -1.072032749652862549e-01 -2.983612716197967529e-01 -3.794076740741729736e-01 1.214941740036010742e-01 -2.428906708955764771e-01 -6.547086238861083984e-01 -3.587221503257751465e-01 1.169491782784461975e-01 -1.701924502849578857e-01 -5.635429620742797852e-01 3.047731220722198486e-01 1.848358958959579468e-01 -2.613924741744995117e-01 4.943272843956947327e-02 2.967351973056793213e-01 1.235495209693908691e-01 -4.391020536422729492e-01 1.327262371778488159e-01 -2.294696271419525146e-01 -3.583509624004364014e-01 -9.766351431608200073e-02 9.326370060443878174e-02 -1.839129030704498291e-01 -7.729768157005310059e-01 2.395333945751190186e-01 4.823255538940429688e-02 3.125770986080169678e-01 -2.358884811401367188e-01
3.666582107543945312e-01 -9.882917404174804688e-01 -4.744642674922943115e-01 -1.744116842746734619e-01 -1.811654865741729736e-01 2.011425942182540894e-01 -7.200249284505844116e-02 4.586394429206848145e-01 2.087880373001098633e-01 -1.411551237106323242e-01 -2.788528501987457275e-01 -3.627205193042755127e-01 -4.852901399135589600e-01 -4.369337484240531921e-02 1.576268821954727173e-01 1.360049247741699219e-01 -1.225674897432327271e-02 1.700323373079299927e-01 1.580493897199630737e-01 1.571637839078903198e-01 1.114581003785133362e-01 4.494247958064079285e-02 1.944276690483093262e-01 1.521269828081130981e-01 3.669844865798950195e-01 -9.731347113847732544e-02 -1.504655480384826660e-01 2.372375577688217163e-01 3.263772726058959961e-01 -1.545630842447280884e-01 -3.214665055274963379e-01
1.488602310419082642e-01 -4.395537972450256348e-01 1.520938426256179810e-01 3.132727146148681641e-01 -3.741157799959182739e-02 3.648615181446075439e-01 -2.082071825861930847e-02 -1.311635076999664307e-01 -6.945177912712097168e-02 -4.446746408939361572e-01 -3.581142723560333252e-01 -1.777503788471221924e-01 -2.762280106544494629e-01 1.232675462961196899e-02 -1.367722153663635254e-01 -4.026917219161987305e-01 1.541156508028507233e-02 -2.122143954038619995e-01 -2.395758330821990967e-01 -1.810196638107299805e-01 -1.913844496011734009e-01 2.110271602869033813e-01 3.120558559894561768e-01 1.155566126108169556e-01 -2.521297037601470947e-01 -1.551730632781982422e-01 -4.512425363063812256e-01 1.535903662443161011e-01 5.261172056198120117e-01 4.836857616901397705e-01 3.901367634534835815e-02
3.579442203044891357e-01 2.835355699062347412e-01 1.303296387195587158e-01 1.542115807533264160e-01 -1.413858085870742798e-01 5.765214934945106506e-02 -3.094860613346099854e-01 7.401997596025466919e-02 1.153509616851806641e-01 -2.099903225898742676e-01 -6.068429350852966309e-02 1.270699650049209595e-01 3.680877685546875000e-01 3.433332145214080811e-01 1.904762238264083862e-01 -2.088080942630767822e-01 3.377281874418258667e-02 4.881132394075393677e-02 -1.789583824574947357e-02 3.177651390433311462e-02 2.131058722734451294e-01 -2.934991419315338135e-01 6.424367427825927734e-02 -1.186380162835121155e-01 -1.334002912044525146e-01 -4.254310727119445801e-01 -2.658846415579319000e-02 -1.113474145531654358e-01 -6.731358170509338379e-02 -4.367066547274589539e-02 4.571178182959556580e-02
7.768458686769008636e-03 -3.206320405006408691e-01 2.743893265724182129e-01 4.191723167896270752e-01 1.836754083633422852e-01 -1.408048272132873535e-01 1.379997283220291138e-01 -2.692490816116333008e-01 1.574128866195678711e-01 -6.297037601470947266e-01 -8.035898208618164062e-01 -6.974942684173583984e-01 -3.509542047977447510e-01 -4.010345321148633957e-03 -1.721579879522323608e-01 -2.736553251743316650e-01 2.037992477416992188e-01 4.144937545061111450e-02 -1.305942684412002563e-01 -6.830509752035140991e-02 4.392492771148681641e-02 2.750214040279388428e-01 -4.560677334666252136e-02 2.092237323522567749e-01 -2.482100129127502441e-01 1.322730928659439087e-01 -2.669499218463897705e-01 5.153663828969001770e-02 3.583804965019226074e-01 1.680831164121627808e-01 -1.483529359102249146e-01
1.669676005840301514e-01 5.902623534202575684e-01 1.845253407955169678e-01 9.532686322927474976e-02 4.061042889952659607e-02 -3.520119190216064453e-02 5.487840622663497925e-02 -8.322317153215408325e-02 2.521923482418060303e-01 -4.206548035144805908e-01 -2.744406163692474365e-01 -1.299941986799240112e-01 1.069969832897186279e-01 2.226491868495941162e-01 7.543990761041641235e-02 7.628396898508071899e-02 -1.597252935171127319e-01 -7.926361262798309326e-02 -5.052362754940986633e-02 -3.635382354259490967e-01 -9.497033059597015381e-02 -1.243262588977813721e-01 -9.492933750152587891e-02 -1.203741952776908875e-01 -2.164601981639862061e-01 -5.141440406441688538e-02 -2.349622845649719238e-01 9.861177206039428711e-02 -3.322774767875671387e-01 4.772021472454071045e-01 -2.883046567440032959e-01
1.939920037984848022e-01 -3.201628625392913818e-01 1.575123369693756104e-01 -1.123585458844900131e-02 -2.136354297399520874e-01 -2.586078643798828125e-01 2.433933503925800323e-02 -7.777644395828247070e-01 -9.364241957664489746e-01 -1.654063016176223755e-01 -1.847420632839202881e-01 8.148164302110671997e-02 -3.937170505523681641e-01 -1.734723150730133057e-01 -6.387984007596969604e-02 2.874620258808135986e-01 1.424160301685333252e-01 -2.816354483366012573e-02 -4.249921813607215881e-02 1.194576174020767212e-01 2.334351688623428345e-01 -7.486087083816528320e-02 1.126704663038253784e-01 -3.626814782619476318e-01 6.379857659339904785e-01 2.579872682690620422e-02 -2.545576393604278564e-01 8.383575081825256348e-01 5.448971390724182129e-01 2.503354251384735107e-01 -6.174573302268981934e-01
-3.082764334976673126e-02 -1.641803979873657227e-01 -7.402032017707824707e-01 -4.092066586017608643e-01 -1.605171710252761841e-01 -6.286516785621643066e-02 -6.738948076963424683e-02 1.167732477188110352e-01 -1.304158866405487061e-01 1.664451062679290771e-01 -1.279218196868896484e-01 -5.245975404977798462e-02 1.126942038536071777e-01 -3.570173382759094238e-01 -2.593095302581787109e-01 4.149545915424823761e-03 -7.200961709022521973e-01 -2.784051299095153809e-01 -3.426898121833801270e-01 -1.739594489336013794e-01 -1.762216389179229736e-01 -4.376094788312911987e-02 3.735182285308837891e-01 1.685751378536224365e-01 -8.974616229534149170e-02 -3.352337330579757690e-02 3.441422283649444580e-01 8.771037310361862183e-02 7.346687465906143188e-02 -1.780955791473388672e-01 4.352155327796936035e-01
8.378040194511413574e-01 2.002434134483337402e-01 5.709016919136047363e-01 2.308558672666549683e-03 -2.360759675502777100e-01 -2.900569513440132141e-02 5.842239595949649811e-03 1.911875009536743164e-01 1.086559519171714783e-01 3.657019138336181641e-02 -2.315742671489715576e-01 -2.423900812864303589e-01 -2.432017326354980469e-01 3.551156818866729736e-01 -1.861824691295623779e-01 -3.094555735588073730e-01 -1.106961369514465332e-01 2.014504969120025635e-01 -1.064485237002372742e-01 -3.211103379726409912e-01 -2.692860364913940430e-01 -2.109181731939315796e-01 3.324475511908531189e-02 4.866581261157989502e-01 7.631831616163253784e-02 2.356512844562530518e-01 -4.879109561443328857e-02 1.059762015938758850e-01 3.056438863277435303e-01 -1.842110753059387207e-01 -2.532543838024139404e-01
-1.777715981006622314e-01 3.394526541233062744e-01 3.778336048126220703e-01 5.341383069753646851e-02 1.121115386486053467e-01 -8.673834055662155151e-02 5.404467582702636719e-01 -3.983603417873382568e-01 -1.786340326070785522e-01 1.901206821203231812e-01 -5.412349104881286621e-01 -4.703028872609138489e-02 -5.045303702354431152e-01 -5.389901995658874512e-02 -2.642743587493896484e-01 -4.363897144794464111e-01 -1.980476230382919312e-01 -1.122184470295906067e-01 -6.232775375247001648e-02 1.506604701280593872e-01 -2.112524956464767456e-02 9.034693241119384766e-02 -4.364314675331115723e-01 -5.229594931006431580e-02 -2.419059276580810547e-01 6.162669882178306580e-02 1.071968302130699158e-01 -8.273132145404815674e-02 2.963935025036334991e-02 2.910262942314147949e-01 9.558752924203872681e-02
-1.836488954722881317e-02 1.401350200176239014e-01 4.532752335071563721e-01 4.416721165180206299e-01 9.407850354909896851e-02 1.874202042818069458e-01 1.388079673051834106e-01 -3.679364323616027832e-01 2.221034467220306396e-01 -3.347114026546478271e-01 1.106961071491241455e-01 -1.198586300015449524e-01 3.807354867458343506e-01 -2.858500480651855469e-01 -4.624800682067871094e-01 1.855500601232051849e-02 7.604252696037292480e-01 -3.717516064643859863e-01 -4.163494110107421875e-01 7.401878237724304199e-01 8.091233968734741211e-01 -1.326189488172531128e-01 -5.003367066383361816e-01 -1.919518709182739258e-01 -2.220824826508760452e-03 -2.769902646541595459e-01 -4.637077748775482178e-01 -4.873684644699096680e-01 3.409062922000885010e-01 -2.944388091564178467e-01 2.410192191600799561e-01
2.396894842386245728e-01 3.943146392703056335e-02 -2.261012941598892212e-01 1.445216089487075806e-01 1.294754296541213989e-01 -2.907094061374664307e-01 1.296433620154857635e-03 -5.005940198898315430e-01 6.255553960800170898e-01 1.612644046545028687e-01 7.209769487380981445e-01 6.346388719975948334e-03 4.271489679813385010e-01 -1.207862421870231628e-01 -1.213120222091674805e-01 8.003303408622741699e-02 6.021353602409362793e-01 2.968445718288421631e-01 1.844725608825683594e-01 3.952085375785827637e-01 2.763439118862152100e-01 -3.125261664390563965e-01 2.829521596431732178e-01 4.576599895954132080e-01 -2.010546997189521790e-02 -3.178049325942993164e-01 1.542107462882995605e-01 2.466819286346435547e-01 -7.411555200815200806e-02 -4.541975557804107666e-01 1.783714257180690765e-02
8.570547103881835938e-01 -3.564543724060058594e-01 -4.062777161598205566e-01 7.484858632087707520e-01 -2.051030546426773071e-01 3.487256914377212524e-02 -2.286130040884017944e-01 2.338460385799407959e-01 6.407533586025238037e-02 4.588146507740020752e-01 -4.767904430627822876e-02 5.833878517150878906e-01 1.601496897637844086e-02 1.168220192193984985e-01 3.067382052540779114e-02 1.183941364288330078e-01 -3.017060272395610809e-02 -3.266208246350288391e-02 6.321126222610473633e-02 -5.047057867050170898e-01 -2.921968698501586914e-01 2.408101260662078857e-01 -2.388108968734741211e-01 -1.442004591226577759e-01 9.706337004899978638e-02 4.448757693171501160e-02 5.210829377174377441e-01 -9.076978079974651337e-03 2.525357007980346680e-01 4.752497747540473938e-02 1.328733470290899277e-02
2.002776265144348145e-01 5.114145204424858093e-02 -1.000863593071699142e-02 4.504343494772911072e-02 -1.432520598173141479e-01 -3.936231434345245361e-01 -1.340631097555160522e-01 2.850214838981628418e-01 4.034606367349624634e-02 -2.675015032291412354e-01 1.831759884953498840e-02 5.361097306013107300e-02 -9.918782860040664673e-02 -9.733784943819046021e-02 4.707428812980651855e-02 -1.725378781557083130e-01 -3.974679112434387207e-01 1.133722215890884399e-01 1.941944509744644165e-01 -2.122858539223670959e-02 -3.880701661109924316e-01 1.216270625591278076e-01 2.253854721784591675e-01 -1.512880921363830566e-01 -2.619521915912628174e-01 5.923748016357421875e-02 3.732671141624450684e-01 4.935622215270996094e-02 8.363789319992065430e-02 2.009834945201873779e-01 6.870126817375421524e-04
-5.917730927467346191e-01 7.617112398147583008e-01 2.285758405923843384e-01 2.700878083705902100e-01 2.968392372131347656e-01 -4.019218087196350098e-01 -6.640870124101638794e-02 -1.850371062755584717e-01 -2.183947116136550903e-01 3.764838576316833496e-01 -2.426929213106632233e-02 2.552031874656677246e-01 -6.689053028821945190e-02 -3.708278536796569824e-01 -3.451334834098815918e-01 -1.427796334028244019e-01 -1.005333140492439270e-01 -3.789715468883514404e-01 -3.139835000038146973e-01 2.618386223912239075e-02 2.465305663645267487e-02 -2.017133086919784546e-01 8.506839722394943237e-02 3.075925409793853760e-01 2.427598983049392700e-01 -2.849983051419258118e-02 1.250454187393188477e-01 4.799966514110565186e-01 6.796882301568984985e-02 -2.321686148643493652e-01 -2.910193800926208496e-01
2.621101140975952148e-01 1.080999150872230530e-01 1.150005757808685303e-01 4.882707074284553528e-02 -1.828117668628692627e-01 1.594048887491226196e-01 1.495956210419535637e-03 -3.111288845539093018e-01 -3.874061629176139832e-02 -3.109231293201446533e-01 -1.003828719258308411e-01 -1.997224390506744385e-01 -1.683976203203201294e-01 -2.253157347440719604e-01 5.350924655795097351e-02 1.779722571372985840e-01 1.215654537081718445e-01 -6.388908624649047852e-02 5.449765920639038086e-02 -1.966738998889923096e-01 -1.606065332889556885e-01 -1.129506081342697144e-01 1.524332761764526367e-01 -9.927187114953994751e-03 8.415147662162780762e-02 -4.968418553471565247e-02 -1.528143435716629028e-01 2.116050422191619873e-01 -1.413791812956333160e-02 1.915903091430664062e-01 -3.527485728263854980e-01
3.928932249546051025e-01 -1.036789491772651672e-01 5.177685618400573730e-01 6.142448186874389648e-01 4.468104839324951172e-01 -2.679007947444915771e-01 4.370634853839874268e-01 3.923342227935791016e-01 -4.204308241605758667e-02 -6.515496876090764999e-03 1.888444125652313232e-01 2.884882315993309021e-02 -2.850087285041809082e-01 -2.553169131278991699e-01 -2.310283333063125610e-01 -3.669270277023315430e-01 -3.460955321788787842e-01 -5.804423987865447998e-02 -5.249014869332313538e-02 1.869274973869323730e-01 5.694064497947692871e-02 6.181310862302780151e-02 -1.930328607559204102e-01 3.425072133541107178e-01 2.214617133140563965e-01 -2.213386297225952148e-01 -1.656081378459930420e-01 2.668928205966949463e-01 1.589843630790710449e-01 -1.281713247299194336e-01 -1.424489170312881470e-01
8.736410140991210938e-01 -1.821226626634597778e-01 1.411805599927902222e-01 4.657321050763130188e-02 -3.953864276409149170e-01 9.778633713722229004e-02 -1.596754998899996281e-03 -1.076616123318672180e-01 -4.213870167732238770e-01 -2.224639058113098145e-01 -1.802293509244918823e-01 5.401060581207275391e-01 -8.248890936374664307e-02 1.229386590421199799e-02 8.055269718170166016e-02 2.260143160820007324e-01 -2.845851778984069824e-01 -1.431928873062133789e-01 -3.047546371817588806e-03 2.663377225399017334e-01 -3.571648150682449341e-02 -3.434537053108215332e-01 -1.467545032501220703e-01 -4.483854174613952637e-01 -1.064642444252967834e-01 1.524472683668136597e-01 3.170210495591163635e-02 1.665336638689041138e-01 1.996906697750091553e-01 4.039658233523368835e-02 5.297789350152015686e-02
3.994689583778381348e-01 4.746749997138977051e-01 1.978643238544464111e-01 1.065003499388694763e-01 -4.300361871719360352e-02 -5.809224396944046021e-02 2.273670136928558350e-01 6.413750350475311279e-02 2.515465766191482544e-02 6.421147584915161133e-01 -6.116771697998046875e-02 4.161929786205291748e-01 6.801117658615112305e-01 -3.687759637832641602e-01 -3.284207582473754883e-01 1.850257515907287598e-01 -2.528795301914215088e-01 -1.241823285818099976e-01 -1.492067575454711914e-01 1.626844555139541626e-01 -5.122255533933639526e-02 2.600529976189136505e-02 1.613342761993408203e-01 -1.120882481336593628e-02 1.025891378521919250e-01 -1.678775437176227570e-02 5.232555866241455078e-01 -1.632557064294815063e-02 -1.898696124553680420e-01 -1.767216175794601440e-01 3.482893109321594238e-02
-4.578076601028442383e-01 1.300245821475982666e-01 1.369435936212539673e-01 1.107340604066848755e-01 1.181247085332870483e-01 -2.837058305740356445e-01 2.249457389116287231e-01 1.849243044853210449e-01 4.849486052989959717e-02 -2.735592797398567200e-02 -2.329075336456298828e-01 -1.026310399174690247e-02 8.947366476058959961e-02 4.469203352928161621e-01 -1.005455181002616882e-01 -2.798180878162384033e-01 1.690659373998641968e-01 2.071597427129745483e-01 -1.172118782997131348e-01 -2.997533679008483887e-01 3.042711317539215088e-01 2.904647290706634521e-01 -3.392970860004425049e-01 9.570427238941192627e-02 8.485525846481323242e-02 -1.498603820800781250e-01 -7.901946082711219788e-03 2.367789298295974731e-01 -2.958506112918257713e-03 2.880275547504425049e-01 -3.777125775814056396e-01
2.166455686092376709e-01 -2.555820345878601074e-01 3.855193406343460083e-02 1.588662862777709961e-01 1.304759643971920013e-02 -5.107496678829193115e-02 -6.481464952230453491e-02 -2.451213747262954712e-01 8.163043111562728882e-02 -7.333765923976898193e-02 2.117285877466201782e-01 3.011201322078704834e-02 -3.672662377357482910e-01 2.665268816053867340e-02 9.845876693725585938e-02 -4.723314195871353149e-02 -5.252502560615539551e-01 2.134780883789062500e-01 1.097225770354270935e-01 -2.005888372659683228e-01 -1.425234675407409668e-01 8.749117702245712280e-02 -7.878969609737396240e-02 3.626222908496856689e-01 -8.062570542097091675e-02 -1.435550022870302200e-02 1.631924659013748169e-01 -6.586878560483455658e-03 -2.825461030006408691e-01 -4.736031871289014816e-03 3.829174041748046875e-01
3.095672130584716797e-01 4.761719703674316406e-02 7.143756151199340820e-01 8.524783849716186523e-01 4.108163118362426758e-01 -2.277774214744567871e-01 -7.951959036290645599e-03 1.427267938852310181e-01 1.405529230833053589e-01 -2.333221137523651123e-01 -3.460966050624847412e-01 -1.365743577480316162e-01 -4.379780292510986328e-01 9.933546930551528931e-02 1.042819023132324219e-01 4.767268523573875427e-02 1.068396121263504028e-02 1.172862872481346130e-01 6.682793796062469482e-02 -1.498587876558303833e-01 -2.095047235488891602e-01 -3.413295745849609375e-01 2.620720118284225464e-02 1.834443360567092896e-01 -1.265414655208587646e-01 1.526213735342025757e-01 -1.563602834939956665e-01 -2.609567940235137939e-01 4.982811212539672852e-02 -6.261356472969055176e-01 2.707968354225158691e-01
1.572334468364715576e-01 4.437285363674163818e-01 4.173051714897155762e-01 3.852024674415588379e-01 1.481145769357681274e-01 4.159200936555862427e-02 -4.138277173042297363e-01 1.151072904467582703e-01 4.972719252109527588e-01 -8.188994973897933960e-02 2.114598602056503296e-01 -2.663947939872741699e-01 -1.109520643949508667e-01 6.851889491081237793e-01 -1.765035390853881836e-01 -8.511043339967727661e-02 8.637744933366775513e-02 -1.942645609378814697e-01 -2.754601538181304932e-01 -2.259691618382930756e-02 1.345017105340957642e-01 4.612838104367256165e-02 5.981541872024536133e-01 1.745775341987609863e-01 -3.055453896522521973e-01 1.357949525117874146e-01 -2.308261990547180176e-01 2.514890730381011963e-01 2.752894163131713867e-01 -1.830026060342788696e-01 1.692864857614040375e-02
2.240730524063110352e-01 -2.737589478492736816e-01 1.028139829635620117e+00 1.945605635643005371e+00 1.113444566726684570e+00 8.462700992822647095e-02 5.423143878579139709e-02 -3.582105040550231934e-01 2.734715938568115234e-01 1.407647430896759033e-01 -8.095762692391872406e-03 5.642312765121459961e-02 6.575605273246765137e-02 3.848994374275207520e-01 -1.032093390822410583e-01 -2.760963141918182373e-01 1.515704542398452759e-01 1.361971646547317505e-01 -1.716362386941909790e-01 5.401489511132240295e-02 1.101421862840652466e-01 8.703191578388214111e-02 1.730860583484172821e-02 -1.492297351360321045e-01 -1.724234372377395630e-01 -1.581047475337982178e-01 -4.008342325687408447e-02 1.819871962070465088e-01 2.272734232246875763e-02 2.784619033336639404e-01 -6.684540212154388428e-02
6.191235780715942383e-01 3.959946036338806152e-01 5.357695817947387695e-01 1.810445934534072876e-01 6.920542567968368530e-02 -2.290120720863342285e-01 1.302039027214050293e-01 3.413615003228187561e-02 4.742251038551330566e-01 1.543953120708465576e-01 -3.076544702053070068e-01 5.518683046102523804e-02 4.908899366855621338e-01 -5.148357525467872620e-02 -3.289268910884857178e-01 1.202860847115516663e-03 -6.964541226625442505e-02 -2.047298848628997803e-01 -3.385000228881835938e-01 1.323447972536087036e-01 1.264986693859100342e-01 6.217546388506889343e-02 -1.731632947921752930e-01 1.462927740067243576e-02 -4.149377942085266113e-01 -6.839624792337417603e-02 -1.687201485037803650e-02 -3.465424478054046631e-01 -2.956565618515014648e-01 2.930823862552642822e-01 2.944798953831195831e-02
-2.352914959192276001e-01 6.462948322296142578e-01 3.486658036708831787e-01 1.798787117004394531e-01 2.765302062034606934e-01 2.967223525047302246e-02 4.807380735874176025e-01 -1.089542582631111145e-01 3.367971479892730713e-01 9.200124442577362061e-02 -1.520708352327346802e-01 5.255907401442527771e-02 -1.426167488098144531e-01 4.910158365964889526e-02 9.678230271674692631e-04 1.697669476270675659e-01 3.827427327632904053e-01 -2.315213084220886230e-01 4.276428371667861938e-03 3.430544435977935791e-01 4.029728770256042480e-01 2.696337401866912842e-01 -3.882824480533599854e-01 1.756946295499801636e-01 5.254938006401062012e-01 -1.541414856910705566e-01 -2.442208528518676758e-01 6.616523861885070801e-02 1.977624893188476562e-01 1.040445119142532349e-01 -3.483667969703674316e-01
1.334111094474792480e-01 2.478726804256439209e-01 3.551748394966125488e-01 1.823611557483673096e-01 -2.929775416851043701e-02 1.114791929721832275e-01 -1.981101036071777344e-01 -2.496258467435836792e-01 3.594019711017608643e-01 -2.169122248888015747e-01 1.190248131752014160e-01 -3.507428467273712158e-01 -3.801745474338531494e-01 3.559463620185852051e-01 1.828088015317916870e-01 -2.368323504924774170e-01 2.252292186021804810e-01 1.463618576526641846e-01 4.814037680625915527e-02 -1.514101177453994751e-01 -6.042264401912689209e-02 2.285347729921340942e-01 4.299854487180709839e-02 -3.764006495475769043e-01 3.316606581211090088e-01 3.415550291538238525e-01 -3.998433947563171387e-01 9.613883495330810547e-02 -1.161411553621292114e-01 -2.125053852796554565e-01 -1.583942174911499023e-01
2.791562676429748535e-01 1.134984567761421204e-01 -9.152907133102416992e-01 1.524174660444259644e-01 -3.247579336166381836e-01 -3.050629794597625732e-01 1.675998121500015259e-01 -1.390061825513839722e-01 -1.871798634529113770e-01 2.246403843164443970e-01 7.011272758245468140e-02 2.631489038467407227e-01 -1.739032715559005737e-01 -1.362700164318084717e-01 -1.404456645250320435e-01 6.565754115581512451e-02 -4.904519319534301758e-01 5.822647735476493835e-02 -6.692176312208175659e-02 1.206962913274765015e-01 -1.414956599473953247e-01 1.047787535935640335e-02 1.251075067557394505e-03 1.290899217128753662e-01 4.498031921684741974e-03 9.925545752048492432e-02 2.595364451408386230e-01 1.719980686902999878e-01 -2.129437774419784546e-01 5.673116818070411682e-02 -2.757777571678161621e-01
5.933678150177001953e-01 2.937731742858886719e-01 5.525367707014083862e-02 -2.595229446887969971e-02 -4.395330324769020081e-02 3.894867897033691406e-01 1.238039433956146240e-01 -4.792205691337585449e-01 5.132495760917663574e-01 7.331410050392150879e-01 -4.622418582439422607e-01 -5.067220330238342285e-01 4.140879213809967041e-01 -2.589278221130371094e-01 -4.246914684772491455e-01 -1.667626760900020599e-02 5.837633013725280762e-01 -6.133367419242858887e-01 -6.222947239875793457e-01 2.766726613044738770e-01 2.395143657922744751e-01 2.341985553503036499e-01 4.698020517826080322e-01 8.438953161239624023e-01 1.232180744409561157e-03 -4.477630257606506348e-01 8.001955575309693813e-04 -7.564197480678558350e-02 -4.541424289345741272e-02 3.840703070163726807e-01 3.136883676052093506e-02
4.354507327079772949e-01 -3.702604174613952637e-01 -1.654544323682785034e-01 2.495551109313964844e-01 -1.682773977518081665e-01 -4.545066133141517639e-02 -1.547722220420837402e-01 2.276850342750549316e-01 -3.388825058937072754e-01 -5.792221054434776306e-02 3.038832843303680420e-01 -2.278455905616283417e-02 3.475248217582702637e-01 3.457041084766387939e-02 8.219739794731140137e-02 -2.943320274353027344e-01 -3.424999415874481201e-01 8.858350664377212524e-02 4.242653027176856995e-02 -1.275907550007104874e-02 -1.230471655726432800e-01 1.259512007236480713e-01 -5.974085256457328796e-02 -1.935513317584991455e-01 5.920812021940946579e-03 1.392373144626617432e-01 2.032062113285064697e-01 2.759307809174060822e-02 -1.794853955507278442e-01 2.365704178810119629e-01 2.326541692018508911e-01
3.383120894432067871e-01 -1.412166804075241089e-01 8.785608410835266113e-02 2.614358663558959961e-01 7.254744321107864380e-02 -2.853470444679260254e-01 2.967864871025085449e-01 2.183682024478912354e-01 1.813110709190368652e-01 -4.077126383781433105e-01 7.760664820671081543e-02 -3.643752038478851318e-01 -2.323636561632156372e-01 3.182117938995361328e-01 6.224614381790161133e-01 -1.169930994510650635e-01 -1.539925485849380493e-01 2.908802926540374756e-01 4.069575965404510498e-01 -5.239691957831382751e-02 1.415778249502182007e-01 4.035105109214782715e-01 7.541368156671524048e-02 7.300810217857360840e-01 2.679954469203948975e-01 8.883656263351440430e-01 -2.700378298759460449e-01 3.434877097606658936e-01 4.301234483718872070e-01 1.411318928003311157e-01 1.480937451124191284e-01
1.619375497102737427e-01 8.393254131078720093e-02 3.354434669017791748e-01 8.482800722122192383e-01 7.980250120162963867e-01 6.944512575864791870e-02 -2.414528876543045044e-01 1.936927586793899536e-01 -1.194707527756690979e-01 -3.813331127166748047e-01 -1.705828607082366943e-01 -4.008045047521591187e-02 2.259173691272735596e-01 4.090541973710060120e-02 6.469527631998062134e-02 -2.021380066871643066e-01 5.386037379503250122e-02 6.677426397800445557e-02 3.731999918818473816e-02 -1.217142194509506226e-01 6.511527299880981445e-02 8.040307462215423584e-02 5.974806472659111023e-02 -1.862486153841018677e-01 -9.870592039078474045e-04 -1.396613717079162598e-01 -2.500246465206146240e-01 -6.492381542921066284e-02 3.196431398391723633e-01 1.382689774036407471e-01 -1.248353421688079834e-01
