1.764094107784330845e-03 -4.084127140231430531e-04 8.863421082496643066e-01 1.025512162595987320e-02 4.394619166851043701e-01 -7.897731065750122070e-01 3.281809156760573387e-03 -3.340524733066558838e-01 -1.360715250484645367e-03 4.437986761331558228e-03 1.123720169067382812e+00 2.839815616607666016e-01 -8.680205941200256348e-01 2.685765624046325684e-01 4.884582012891769409e-03 -5.797686520963907242e-03 -2.934073098003864288e-03 -4.878804611507803202e-04 -2.070968039333820343e-03 -1.731717400252819061e-02 -4.106549080461263657e-03 4.510175064206123352e-02 -5.244119763374328613e-01 -4.708588495850563049e-02 -2.277806028723716736e-02 -1.087365746498107910e-01 5.302850157022476196e-03 -1.161148071289062500e+00 -2.400554120540618896e-01 3.050907850265502930e-01 7.118091452866792679e-03 -2.864393871277570724e-03 6.247580051422119141e-03 -4.833411658182740211e-04 6.256635189056396484e-01 -1.566220968961715698e-01 2.559217391535639763e-03 2.338066883385181427e-02 5.517840981483459473e-01 -2.890283614397048950e-02 -1.360772997140884399e-01 8.807104825973510742e-01 1.006515813060104847e-03 2.193783293478190899e-04 1.112732410430908203e+00 -3.677519559860229492e-01 -3.079544566571712494e-02 -7.848985195159912109e-01 -1.003738120198249817e-01 6.173194050788879395e-01 4.868683172389864922e-04 -1.685011625289916992e+00 1.941576716490089893e-03 -3.248954117298126221e-01 -2.573129534721374512e-01 -4.403342679142951965e-02 6.661255657672882080e-02 -8.344492316246032715e-01 2.700985968112945557e-01 5.594017505645751953e-01 -5.831876769661903381e-02 9.685776196420192719e-03 -2.560882866382598877e-01 6.473134737461805344e-03 1.905412673950195312e+00 -2.891736663877964020e-02 -1.279407382011413574e+00 -6.566804833710193634e-03 -7.432186603546142578e-01 -9.624634385108947754e-01 -9.990707039833068848e-04 -6.318174004554748535e-01 2.002844810485839844e-01 -5.474817007780075073e-03 -1.244519054889678955e-01 8.320131339132785797e-03 6.677915453910827637e-01 -5.013026669621467590e-02 2.966356696560978889e-04 1.172004640102386475e-02 -4.604508280754089355e-01 4.156442359089851379e-03 -4.191420506685972214e-03 -2.487797737121582031e-01 -5.879286527633666992e-01 5.956566333770751953e-01 7.725320756435394287e-03 3.699176013469696045e-01 -3.084354698657989502e-01 2.311845272779464722e-01 4.546275436878204346e-01 4.976140856742858887e-01 2.475364804267883301e-01 -2.821665257215499878e-03 -5.674638152122497559e-01 1.214065239764750004e-03 -1.676559746265411377e-01 -1.866903156042098999e-01 4.334923811256885529e-03 -4.989798180758953094e-03 4.934429526329040527e-01 9.800148606300354004e-01 -8.801162838935852051e-01 9.858994930982589722e-02 1.481182500720024109e-02 1.115639358758926392e-01 -5.035169422626495361e-03 1.137704253196716309e-01 7.347867488861083984e-01 1.253343969583511353e-01 1.170543313026428223e+00 9.201211854815483093e-03 -2.783944830298423767e-03 -1.023863315582275391e+00 5.359514616429805756e-03 -1.397918164730072021e-02 -9.634437412023544312e-02 1.078836441040039062e+00 8.601250648498535156e-01 -3.422236070036888123e-02 2.260263264179229736e-01 8.187085390090942383e-01 2.870552008971571922e-03 5.378688219934701920e-03 3.636039495468139648e-01 -6.086038891226053238e-03 1.441470742225646973e+00 -1.373894929885864258e+00 -2.652633488178253174e-01 3.014336398337036371e-04 7.195635233074426651e-03 -5.134926643222570419e-03 -6.034097634255886078e-03 -1.349160214886069298e-03 -1.221229176735505462e-04 8.273673057556152344e-01 -7.841269485652446747e-03 -3.466905355453491211e-01 -4.856172483414411545e-03 8.099253289401531219e-03 -7.611222099512815475e-04 -4.699976649135351181e-03 -1.241428032517433167e-01 4.429754614830017090e-01 -1.366158761084079742e-02 4.321208689361810684e-03 4.894585907459259033e-02 7.215314358472824097e-02 -4.746656417846679688e-01 -6.609688997268676758e-01 -1.454018354415893555e-01 -1.836674064397811890e-01 5.893579721450805664e-01 -8.160010911524295807e-03 -8.014929480850696564e-03 5.431075580418109894e-03 -2.157309837639331818e-02 6.644988656044006348e-01 -5.187046527862548828e-01 1.426534652709960938e+00 4.680204391479492188e-01 -1.694931066595017910e-03 2.907354792114347219e-04 2.002840489149093628e-02 3.501384286209940910e-03 -5.920980125665664673e-03 -2.277680039405822754e-01 4.715093076229095459e-01 5.321704666130244732e-04 -2.358546294271945953e-02 -3.646914660930633545e-02 1.778055354952812195e-02 1.521040336228907108e-03 -4.050638061016798019e-03 -1.429665484465658665e-03 -4.818060100078582764e-01 -1.276507787406444550e-02 -1.408276706933975220e-02 -4.058612883090972900e-01 -1.129444135585799813e-04 -9.126673452556133270e-03 3.016812801361083984e-01 1.605822122655808926e-03 3.077127505093812943e-03 4.364580381661653519e-03 -4.232279956340789795e-03 -1.018585041165351868e-01 6.731596309691667557e-03 1.658549997955560684e-03 -1.585548743605613708e-03 1.007235981523990631e-02 -3.083383142948150635e-01 1.165375858545303345e-01 3.469174206256866455e-01 -6.605544593185186386e-03 -3.332002833485603333e-02 1.013584062457084656e-01 -1.492069661617279053e-02 -7.897073626518249512e-01 -3.398584900423884392e-03 3.258478939533233643e-01 -2.351571572944521904e-03 1.068153753876686096e-01 3.108656108379364014e-01 4.670112859457731247e-03 -3.673473298549652100e-01 -7.768439501523971558e-02 -4.733203649520874023e-01 -8.199138683266937733e-04 -3.644060194492340088e-01 1.409754753112792969e-01 -7.295633554458618164e-01 1.517612766474485397e-02 1.286605596542358398e+00 4.196046385914087296e-03 1.865282072685658932e-03 -3.840194316580891609e-03 -1.838752031326293945e-01 -3.543280297890305519e-03 8.016642928123474121e-01 9.551447629928588867e-02 -4.819765686988830566e-01 1.604365068487823009e-03 5.163803324103355408e-02 -1.211785711348056793e-02 -9.302259236574172974e-02 -4.071354866027832031e-01 -2.621892690658569336e-01 -5.866915732622146606e-02 1.347954869270324707e+00 2.015641890466213226e-03 2.495757071301341057e-03 -7.918385788798332214e-03 -8.326666802167892456e-02 -7.552162744104862213e-03 -1.645200699567794800e-01 -2.874077763408422470e-03 -5.853307899087667465e-03 -5.034712608903646469e-03 -7.979796081781387329e-02 5.163339432328939438e-03 2.861116826534271240e-01 1.375396698713302612e-01 -6.909321248531341553e-02 -2.608549296855926514e-01 -1.274714712053537369e-02 8.971183560788631439e-03 1.422456026077270508e+00 3.426120430231094360e-02 6.702970713376998901e-03 9.098269976675510406e-03 5.446048378944396973e-01 1.494891359470784664e-03 1.288809231482446194e-03 7.035990804433822632e-02 6.064055114984512329e-02
