1.853221058845520020e-01 -6.026594713330268860e-02 2.791858315467834473e-01 2.952106595039367676e-01 4.704062640666961670e-02 1.016797795891761780e-01 1.477591544389724731e-01 -2.575690448284149170e-01 3.390038013458251953e-01 -2.852753996849060059e-01 -1.073227077722549438e-01 -1.588203608989715576e-01 8.365808427333831787e-02 -7.794553041458129883e-02 -2.396626025438308716e-02 1.722265332937240601e-01 -7.405009120702743530e-02 1.816721707582473755e-01 1.245469301939010620e-01 4.399090409278869629e-01 1.620130538940429688e-01 1.313021965324878693e-02 8.619818836450576782e-02 -4.322753474116325378e-02 -4.002312570810317993e-02 8.083548396825790405e-02 8.928211033344268799e-02 2.218747325241565704e-02 -3.677141666412353516e-02 -2.789243310689926147e-02 1.082294210791587830e-01
5.598594546318054199e-01 -9.703566133975982666e-02 1.431259959936141968e-01 1.247176975011825562e-01 1.677265577018260956e-02 3.930708467960357666e-01 8.076384663581848145e-02 4.166067838668823242e-01 1.411382257938385010e-01 4.064097404479980469e-01 2.106252610683441162e-01 2.001525461673736572e-01 -4.702304601669311523e-01 2.760915160179138184e-01 4.452048242092132568e-01 -2.192074656486511230e-01 -4.605778753757476807e-01 1.935628503561019897e-01 2.781760990619659424e-01 -2.170950323343276978e-01 -3.351320624351501465e-01 1.028041075915098190e-02 2.299297302961349487e-01 1.796341389417648315e-01 -5.271156430244445801e-01 3.752602636814117432e-01 7.393957581371068954e-03 -2.570955548435449600e-03 4.143011271953582764e-01 9.486234188079833984e-02 2.918628156185150146e-01
5.623852610588073730e-01 9.990151971578598022e-02 2.173860371112823486e-01 2.429631501436233521e-01 2.576201856136322021e-01 3.174907714128494263e-02 2.086368761956691742e-02 2.400374114513397217e-01 -2.641010880470275879e-01 5.035297945141792297e-02 3.318493813276290894e-02 1.528101414442062378e-01 1.977825611829757690e-01 -4.450329393148422241e-02 2.038718666881322861e-03 -3.380179107189178467e-01 -2.188003957271575928e-01 1.422872096300125122e-01 1.717982441186904907e-01 -1.508799493312835693e-01 -9.654536098241806030e-02 2.954031899571418762e-02 1.987489461898803711e-01 2.147582918405532837e-01 -1.841848343610763550e-01 -7.491301000118255615e-02 1.035371497273445129e-01 -7.512147724628448486e-02 -1.875454038381576538e-01 1.577516049146652222e-01 -1.215277463197708130e-01
2.654480040073394775e-01 3.602860569953918457e-01 1.224224790930747986e-01 6.048293411731719971e-02 6.448511499911546707e-03 7.433643937110900879e-02 1.597324945032596588e-02 1.073994785547256470e-01 2.060721255838871002e-02 -2.664689421653747559e-01 1.004749462008476257e-01 -1.353114098310470581e-01 -1.042099855840206146e-02 8.191262930631637573e-02 -1.924336105585098267e-01 -8.495904505252838135e-02 -1.403654273599386215e-02 1.601130664348602295e-01 2.226409316062927246e-02 1.084994748234748840e-01 1.453371495008468628e-01 -1.208602562546730042e-01 -6.309741735458374023e-02 -4.668715968728065491e-02 -2.474181652069091797e-01 -1.747420579195022583e-01 -2.579930126667022705e-01 -6.775294989347457886e-02 -2.828532457351684570e-02 4.022559896111488342e-02 -1.801592856645584106e-02
3.002336919307708740e-01 -3.174704015254974365e-01 1.263024359941482544e-01 6.111205220222473145e-01 5.731511712074279785e-01 4.404377639293670654e-01 8.157516717910766602e-01 -4.842104017734527588e-01 3.485396206378936768e-01 -6.556950509548187256e-02 -1.114918813109397888e-01 -7.162604480981826782e-02 -8.865667134523391724e-02 1.704585254192352295e-01 -1.705845743417739868e-01 1.143029704689979553e-01 4.096198379993438721e-01 -1.111183091998100281e-01 -2.405194789171218872e-01 1.801944673061370850e-01 3.529445230960845947e-01 -7.163719832897186279e-02 -2.492475956678390503e-01 5.661524534225463867e-01 -1.001049757003784180e+00 3.534800112247467041e-01 4.952142238616943359e-01 -7.837963700294494629e-01 4.149910211563110352e-01 -1.640582829713821411e-01 4.745483398437500000e-01
2.410458773374557495e-01 7.608392089605331421e-02 2.538395226001739502e-01 3.167368471622467041e-01 -1.607558727264404297e-01 7.424167394638061523e-01 3.949440419673919678e-01 4.483743906021118164e-01 1.974201798439025879e-01 -3.179425001144409180e-01 -1.794527918100357056e-01 -9.454556554555892944e-02 -2.071794569492340088e-01 -2.324446886777877808e-01 -3.826370835304260254e-02 2.656776607036590576e-01 -3.929177522659301758e-01 -8.558932691812515259e-02 -1.046445569954812527e-03 3.689852952957153320e-01 -1.084918528795242310e-01 4.693259298801422119e-02 -1.097766682505607605e-02 4.249470233917236328e-01 -2.041529864072799683e-01 2.586283385753631592e-01 4.966390505433082581e-02 -1.291600763797760010e-01 2.171001136302947998e-01 -3.829605281352996826e-01 3.806766569614410400e-01
-1.329062283039093018e-01 1.044030711054801941e-01 -1.358666457235813141e-02 2.433175779879093170e-02 1.107777506113052368e-01 -1.085624173283576965e-01 -2.588489949703216553e-01 -2.774916291236877441e-01 2.379789650440216064e-01 3.524350747466087341e-02 6.153519265353679657e-03 2.233306616544723511e-01 2.384691685438156128e-01 5.830283463001251221e-02 3.411473706364631653e-02 -5.291095972061157227e-01 1.000920012593269348e-01 3.272077813744544983e-02 1.851569861173629761e-02 -3.341486155986785889e-01 -1.787152588367462158e-01 3.957037627696990967e-01 2.738436460494995117e-01 -1.571075469255447388e-01 -3.490726351737976074e-01 3.901106715202331543e-01 -1.675486564636230469e-01 -9.977401793003082275e-02 1.240964978933334351e-01 3.458141982555389404e-01 2.086975574493408203e-01
2.075373679399490356e-01 -3.788465261459350586e-01 -4.738136380910873413e-02 1.906083673238754272e-01 -3.455545380711555481e-02 -4.626055061817169189e-01 1.140474453568458557e-01 1.399960815906524658e-01 -1.685300767421722412e-01 -5.908593535423278809e-02 7.317692786455154419e-02 -9.893979877233505249e-03 -2.161113172769546509e-01 -3.682327270507812500e-01 -1.234632283449172974e-01 -1.482543647289276123e-01 -2.084350027143955231e-02 -1.722432523965835571e-01 -9.463112056255340576e-02 2.399857193231582642e-01 2.301291525363922119e-01 -1.260619312524795532e-01 1.334659755229949951e-01 1.679659634828567505e-01 -3.949348628520965576e-01 4.215874075889587402e-01 -3.251695074141025543e-03 1.827287375926971436e-01 3.931178152561187744e-01 -1.262536197900772095e-01 7.455794513225555420e-02
1.296173334121704102e-01 1.692463308572769165e-01 6.093022413551807404e-03 -6.304104626178741455e-02 -2.757158875465393066e-01 -5.624688267707824707e-01 2.113853394985198975e-01 -8.966255187988281250e-01 7.029721140861511230e-02 3.246862888336181641e-01 1.206260323524475098e-01 4.113648533821105957e-01 -1.432004928588867188e+00 -4.617274403572082520e-01 -2.933815419673919678e-01 2.382820397615432739e-01 -3.134581744670867920e-01 -2.353066802024841309e-01 -2.060164660215377808e-01 3.262805044651031494e-01 -2.826287150382995605e-01 3.344358801841735840e-01 -3.103598058223724365e-01 -1.625322103500366211e-01 1.021849066019058228e-01 -3.484631180763244629e-01 3.217771351337432861e-01 9.277856349945068359e-02 3.931359946727752686e-02 3.473120629787445068e-01 -1.684515178203582764e-01
-1.334661245346069336e-01 1.035743117332458496e+00 1.570518016815185547e-01 2.440401017665863037e-01 1.818335428833961487e-02 5.240605771541595459e-02 1.693935841321945190e-01 -2.705250307917594910e-02 -4.191152751445770264e-01 1.052224189043045044e-01 -2.093303352594375610e-01 5.425106287002563477e-01 2.800185084342956543e-01 1.963891088962554932e-01 -5.345999076962471008e-02 2.113208547234535217e-02 -2.904692888259887695e-01 -2.588303089141845703e-01 -3.112506866455078125e-01 3.739726841449737549e-01 -7.191728800535202026e-02 -1.059564948081970215e-01 -5.353791639208793640e-02 -2.633747756481170654e-01 -6.799145042896270752e-02 2.935301065444946289e-01 7.089513540267944336e-02 2.808076143264770508e-01 -5.040372610092163086e-01 9.989685565233230591e-02 -1.515360325574874878e-01
2.604206502437591553e-01 1.913122832775115967e-01 -6.720545142889022827e-02 -1.495958864688873291e-01 -1.466713100671768188e-01 -2.494079470634460449e-01 2.107120603322982788e-01 -7.075129449367523193e-02 1.612964868545532227e-01 3.592754006385803223e-01 -1.843998879194259644e-01 5.567118152976036072e-02 -1.265511065721511841e-01 -4.900590479373931885e-01 -3.185617625713348389e-01 7.514970302581787109e-01 -6.854198127985000610e-02 -3.224115371704101562e-01 -2.493897825479507446e-01 7.555423378944396973e-01 2.666123211383819580e-01 -5.649266839027404785e-01 -8.755965158343315125e-03 4.510124623775482178e-01 5.878337100148200989e-02 4.139014184474945068e-01 3.777177333831787109e-01 -1.640421599149703979e-01 -4.622901976108551025e-01 -8.223634362220764160e-01 -1.459946930408477783e-01
2.096144855022430420e-01 2.204630970954895020e-01 -2.922077775001525879e-01 -3.039624691009521484e-01 -2.955634891986846924e-01 -9.510086774826049805e-01 -7.015219330787658691e-02 3.577711880207061768e-01 3.604555130004882812e-02 3.865402638912200928e-01 5.346450582146644592e-02 4.378271698951721191e-01 6.174395792186260223e-03 -1.829076558351516724e-01 -3.263292089104652405e-02 5.244346857070922852e-01 -4.736302420496940613e-02 -8.717484027147293091e-02 -4.146157205104827881e-02 2.358225136995315552e-01 -5.184597522020339966e-02 -4.220309555530548096e-01 2.647602185606956482e-02 -1.150964125990867615e-01 -1.409054100513458252e-01 1.108316853642463684e-01 7.227655649185180664e-01 4.746732488274574280e-02 -2.577464878559112549e-01 -5.803635120391845703e-01 -2.532070130109786987e-02
1.447922825813293457e+00 -1.513767719268798828e+00 -8.045554161071777344e-01 -1.786972731351852417e-01 -2.369584748521447182e-03 2.991059049963951111e-02 1.578360944986343384e-01 2.933473698794841766e-02 1.457274258136749268e-01 2.213194407522678375e-02 -2.370617836713790894e-01 -2.448701858520507812e-01 5.253334529697895050e-03 -6.288303732872009277e-01 1.773258112370967865e-02 -3.013846874237060547e-01 3.055962026119232178e-01 -2.368929050862789154e-02 8.042640239000320435e-02 1.371287703514099121e-01 -4.203633591532707214e-02 -1.445715664885938168e-03 -1.161770597100257874e-01 1.600796580314636230e-01 5.796600505709648132e-02 -1.478861123323440552e-01 1.744703650474548340e-01 -1.910701096057891846e-01 -3.236709535121917725e-01 -3.535610437393188477e-01 -1.454788725823163986e-02
3.357617855072021484e-01 -1.903117448091506958e-01 -2.128060162067413330e-01 -3.515497315675020218e-03 -2.083746194839477539e-01 -4.968682304024696350e-02 2.492659986019134521e-01 1.476035565137863159e-01 1.530558615922927856e-02 -2.096923142671585083e-01 -3.482399880886077881e-01 1.804447025060653687e-01 -2.907353639602661133e-01 -1.507180631160736084e-01 -2.370134443044662476e-01 6.755417585372924805e-02 -4.598121643066406250e-01 -1.441749483346939087e-01 -2.663252949714660645e-01 1.507584303617477417e-01 -2.430211901664733887e-01 -4.790852591395378113e-02 -4.960093200206756592e-01 -6.435121893882751465e-01 -3.905462622642517090e-01 1.380017995834350586e-01 1.836047023534774780e-01 5.771093815565109253e-02 3.165170848369598389e-01 -1.522506922483444214e-01 2.396875768899917603e-01
1.940068751573562622e-01 2.069111764430999756e-01 4.457489848136901855e-01 2.294330894947052002e-01 4.440775141119956970e-02 5.241315364837646484e-01 -1.650116443634033203e-01 -2.919803857803344727e-01 8.294395208358764648e-01 -2.696360051631927490e-01 -2.024018615484237671e-01 -3.700766861438751221e-01 6.951875090599060059e-01 -6.306683421134948730e-01 -9.967089444398880005e-02 7.148979902267456055e-01 9.149267077445983887e-01 -2.803688943386077881e-01 -1.689459383487701416e-01 6.238523721694946289e-01 6.748129725456237793e-01 8.981897681951522827e-02 4.202715456485748291e-01 7.627791166305541992e-01 2.556021697819232941e-02 -1.302057653665542603e-01 1.074880734086036682e-01 -5.441084504127502441e-01 2.190745919942855835e-01 -1.375248134136199951e-01 3.001327067613601685e-02
2.251531928777694702e-01 -2.274292558431625366e-01 4.475490748882293701e-01 8.895923495292663574e-01 2.567865252494812012e-01 3.449997007846832275e-01 1.986628174781799316e-01 1.531215608119964600e-01 -1.950984597206115723e-01 -7.320415973663330078e-02 -3.023813366889953613e-01 -1.807059645652770996e-01 -4.819675385951995850e-01 -1.925105899572372437e-01 9.392448514699935913e-02 2.470867931842803955e-01 -1.514268573373556137e-02 -1.314618289470672607e-01 -2.856741473078727722e-02 3.581953346729278564e-01 1.559681445360183716e-01 1.564911380410194397e-02 1.466007232666015625e-01 -7.883292622864246368e-03 -1.266238838434219360e-01 3.543096780776977539e-01 7.761155068874359131e-02 3.335236012935638428e-02 3.779637813568115234e-01 -9.816747158765792847e-02 2.248091846704483032e-01
-9.635473787784576416e-02 -2.375148981809616089e-01 9.047558158636093140e-02 3.033610284328460693e-01 2.872374653816223145e-01 -7.799144983291625977e-01 1.588626950979232788e-01 -3.027207553386688232e-01 -1.478338837623596191e-01 -5.645897984504699707e-02 3.058961927890777588e-01 -2.895122170448303223e-01 4.195267558097839355e-01 2.357089072465896606e-01 1.872379183769226074e-01 2.096184939146041870e-01 4.417150840163230896e-02 2.950542271137237549e-01 2.613203823566436768e-01 -4.808298498392105103e-02 -8.911310881376266479e-02 -3.405140638351440430e-01 4.757881909608840942e-02 3.608982637524604797e-02 -3.842021524906158447e-01 1.486135274171829224e-01 1.032783165574073792e-01 -2.492263019084930420e-01 -4.658768475055694580e-01 1.037398204207420349e-01 2.327533215284347534e-01
1.772220879793167114e-01 2.671270668506622314e-01 2.291154861450195312e-01 3.926593344658613205e-03 6.978722661733627319e-02 -1.257736235857009888e-01 -1.895135194063186646e-01 2.383980602025985718e-01 8.621671050786972046e-02 -4.249424207955598831e-03 1.038807556033134460e-01 2.055611312389373779e-01 -4.050468653440475464e-02 1.955452412366867065e-01 1.164584979414939880e-01 3.037097305059432983e-02 9.815698117017745972e-02 -7.138745277188718319e-04 7.866819947957992554e-02 -1.735362410545349121e-02 8.047407865524291992e-02 -2.664821445941925049e-01 4.910603165626525879e-01 2.690725326538085938e-01 -2.193919420242309570e-01 -3.239282667636871338e-01 -2.553353011608123779e-01 -7.955869287252426147e-02 3.462587893009185791e-01 1.464666798710823059e-02 4.455008357763290405e-02
6.545534133911132812e-01 -1.517538577318191528e-01 -2.075257450342178345e-01 3.550507593899965286e-03 3.342206403613090515e-02 -6.967085003852844238e-01 4.339249134063720703e-01 2.516757547855377197e-01 2.826267182826995850e-01 2.233237624168395996e-01 -1.203002557158470154e-01 2.487027049064636230e-01 -4.679484665393829346e-01 -2.400008775293827057e-02 -4.459604918956756592e-01 3.813764452934265137e-01 3.210860490798950195e-01 -2.752410769462585449e-01 -3.478881716728210449e-01 2.769043445587158203e-01 2.610102593898773193e-01 -9.718263149261474609e-02 -4.242442846298217773e-01 -1.200198829174041748e-01 7.369344681501388550e-02 -1.328504234552383423e-01 -2.198851555585861206e-01 4.697227478027343750e-02 -1.764454543590545654e-01 -1.182122826576232910e-01 -8.094053715467453003e-02
-1.827434822916984558e-02 3.232693970203399658e-01 1.778170317411422729e-01 8.005097508430480957e-02 -1.903418153524398804e-01 -6.765632629394531250e-01 1.582815051078796387e-01 -2.816873788833618164e-01 1.023955270648002625e-01 2.863928675651550293e-01 -5.506115034222602844e-02 3.526000678539276123e-01 7.691206932067871094e-01 3.147259950637817383e-01 9.978236258029937744e-02 -2.489694356918334961e-01 -4.749696552753448486e-01 1.945692673325538635e-02 5.786730442196130753e-03 -8.256790228188037872e-03 -1.270308196544647217e-01 2.874109707772731781e-02 -4.014107584953308105e-01 -5.799828767776489258e-01 -9.250487387180328369e-02 5.984861031174659729e-02 -9.378418326377868652e-02 -1.921571493148803711e-01 -2.822032868862152100e-01 4.595331847667694092e-01 -6.838296353816986084e-02
2.083373665809631348e-01 2.391433268785476685e-01 5.886437296867370605e-01 5.984510779380798340e-01 4.320771992206573486e-01 -2.910269498825073242e-01 6.679162383079528809e-02 -8.179166913032531738e-02 9.401678293943405151e-02 -3.657074272632598877e-01 -2.565110325813293457e-01 -4.934743046760559082e-01 -5.977334827184677124e-02 -5.009506270289421082e-02 -1.763705015182495117e-01 -5.111265182495117188e-01 2.937430143356323242e-01 2.150603570044040680e-02 -1.440478563308715820e-01 -1.059972867369651794e-01 1.304475814104080200e-01 1.871968954801559448e-01 2.023110538721084595e-02 1.438164860010147095e-01 -2.420405149459838867e-01 -1.365871876478195190e-01 -3.999856114387512207e-01 -6.146831065416336060e-02 -2.247366495430469513e-02 4.127216935157775879e-01 6.705799140036106110e-03
6.381815671920776367e-01 1.958167552947998047e-01 -1.805132329463958740e-01 4.550671577453613281e-01 -9.984215348958969116e-02 2.785318493843078613e-01 1.533343195915222168e-01 -8.132801204919815063e-02 -1.840470582246780396e-01 -1.622184216976165771e-01 -6.825750321149826050e-02 7.104450464248657227e-02 -3.545986860990524292e-02 -2.788003087043762207e-01 -2.112380117177963257e-01 -4.180981218814849854e-01 -1.311244964599609375e-01 -5.162917822599411011e-02 5.520850419998168945e-02 2.073634788393974304e-02 -3.270203480497002602e-03 1.530779153108596802e-01 -1.967862993478775024e-01 9.288180619478225708e-03 2.153711616992950439e-01 -2.170497179031372070e-01 -1.234079301357269287e-01 3.151481747627258301e-01 5.394049882888793945e-01 1.824239641427993774e-02 3.637259900569915771e-01
2.327871024608612061e-01 -2.356898635625839233e-01 -1.299521047621965408e-02 2.435979396104812622e-01 5.494698137044906616e-02 -2.311264425516128540e-01 4.354650676250457764e-01 -3.149230778217315674e-02 4.273714125156402588e-01 -6.509673595428466797e-01 -2.771894261240959167e-02 -2.137546539306640625e-01 -1.562334150075912476e-01 -6.930183172225952148e-01 -1.241954937577247620e-01 4.896536767482757568e-01 1.785822659730911255e-01 -1.598648279905319214e-01 2.128324285149574280e-02 7.864553332328796387e-01 5.053864717483520508e-01 3.436565995216369629e-01 8.469646424055099487e-02 5.765856504440307617e-01 -2.173651941120624542e-02 -3.969625011086463928e-02 -9.833516180515289307e-02 -2.467212826013565063e-02 -1.975842267274856567e-01 -1.599845737218856812e-01 1.157710421830415726e-02
-7.320051640272140503e-02 -9.267929941415786743e-02 6.253319978713989258e-01 1.254726290702819824e+00 8.116497993469238281e-01 1.640147268772125244e-01 1.494612544775009155e-01 2.493472993373870850e-01 3.012438863515853882e-02 -4.125836193561553955e-01 -1.680206805467605591e-01 -3.931772708892822266e-01 -2.519545555114746094e-01 -6.634566932916641235e-02 -9.042206406593322754e-02 -1.610837280750274658e-01 -2.315336167812347412e-01 -1.153916027396917343e-02 1.647048816084861755e-02 -6.353092193603515625e-02 3.456020355224609375e-02 -5.384934693574905396e-02 -1.909407377243041992e-01 1.104745641350746155e-01 1.843468993902206421e-01 4.399557411670684814e-02 -4.440774023532867432e-01 9.766657650470733643e-02 5.308901071548461914e-01 -8.406643569469451904e-02 -5.400756374001502991e-02
4.364858567714691162e-01 -3.942965567111968994e-01 1.907490491867065430e-01 5.961847305297851562e-01 5.519845485687255859e-01 1.926817148923873901e-01 -1.193500533699989319e-01 -2.798471748828887939e-01 -3.561275899410247803e-01 -6.726233661174774170e-02 1.835088580846786499e-01 -2.868966162204742432e-01 4.502961635589599609e-01 -5.957084894180297852e-01 -9.507933259010314941e-02 -2.168555185198783875e-02 1.921031028032302856e-01 -2.332042902708053589e-01 -7.050789427012205124e-03 -6.209628656506538391e-02 -2.957281889393925667e-03 -1.608190871775150299e-02 1.867409050464630127e-01 -4.371937736868858337e-02 5.375070124864578247e-02 -9.679319709539413452e-02 1.623730361461639404e-01 3.947774469852447510e-01 1.927805840969085693e-01 9.898812323808670044e-02 -1.022415161132812500e-01
4.081271588802337646e-01 -3.455634713172912598e-01 -1.078473627567291260e-01 1.124883070588111877e-01 1.393275894224643707e-02 4.824116826057434082e-02 -7.145021855831146240e-02 4.007327854633331299e-01 -7.158860564231872559e-02 8.099282383918762207e-01 9.439803659915924072e-02 8.579723238945007324e-01 -6.309017539024353027e-02 4.604813158512115479e-01 -6.876755505800247192e-02 1.021523699164390564e-01 -9.143593162298202515e-02 -2.182713598012924194e-01 -3.250936269760131836e-01 -2.034062147140502930e-01 -2.857331335544586182e-01 -9.451833367347717285e-02 -3.899464607238769531e-01 -8.144667148590087891e-01 6.405446678400039673e-03 -2.656708359718322754e-01 4.558515250682830811e-01 -1.164056174457073212e-02 6.986129879951477051e-01 1.517212986946105957e-01 -1.051441058516502380e-01
2.682518064975738525e-01 -5.916438251733779907e-02 -4.748625755310058594e-01 -3.393840491771697998e-01 -2.890069484710693359e-01 -4.165703058242797852e-01 3.019884414970874786e-02 7.764587551355361938e-02 -5.821051448583602905e-02 -1.546772867441177368e-01 3.422673419117927551e-02 1.916475743055343628e-01 -2.482019513845443726e-01 -2.362012714147567749e-01 -9.432620555162429810e-02 2.890383005142211914e-01 -1.981341838836669922e-01 -5.826644226908683777e-02 -4.764986038208007812e-02 2.872787117958068848e-01 7.516762707382440567e-03 -2.171490192413330078e-01 1.078560650348663330e-01 1.164942458271980286e-01 -1.963399499654769897e-01 1.525297909975051880e-01 1.422197818756103516e-01 1.724424660205841064e-01 -4.371926560997962952e-02 -4.208459556102752686e-01 4.211190342903137207e-02
-1.703102439641952515e-01 1.342264562845230103e-01 -8.708026409149169922e-01 -1.002907872200012207e+00 -1.008104324340820312e+00 1.891912817955017090e-01 4.488464593887329102e-01 -9.472201764583587646e-02 1.099305748939514160e-01 6.184265017509460449e-01 4.108195751905441284e-02 -4.781082272529602051e-02 3.555588126182556152e-01 5.258959531784057617e-01 -1.676196157932281494e-01 2.548719644546508789e-01 -3.035592138767242432e-01 -1.441311240196228027e-01 -3.523271679878234863e-01 2.044087648391723633e-01 3.113077878952026367e-01 -4.123368263244628906e-01 -1.560144722461700439e-01 -3.316486775875091553e-01 -2.791079282760620117e-01 9.705175459384918213e-02 2.108438163995742798e-01 -4.152171909809112549e-01 -2.245406508445739746e-01 -5.852109938859939575e-02 -4.369857907295227051e-02
1.857230961322784424e-01 1.010230332612991333e-01 -2.952642552554607391e-02 -3.345587477087974548e-02 -1.432109922170639038e-01 -1.248953789472579956e-01 1.759456545114517212e-01 4.352475702762603760e-01 1.434211581945419312e-01 2.727065384387969971e-01 -5.343202352523803711e-01 2.371374219655990601e-01 8.433021306991577148e-01 -2.439794391393661499e-01 -6.370694041252136230e-01 5.502502918243408203e-01 -2.166912853717803955e-01 -3.892618119716644287e-01 -5.660172700881958008e-01 1.237962469458580017e-01 -1.388239711523056030e-01 -1.860730201005935669e-01 -2.099282890558242798e-01 -3.030584156513214111e-01 4.098262786865234375e-01 -6.771128773689270020e-01 -7.910868525505065918e-02 3.575066328048706055e-01 6.760871410369873047e-02 6.296886503696441650e-02 -6.256194710731506348e-01
-6.395236253738403320e-01 2.047408074140548706e-01 1.977077722549438477e-01 1.397733092308044434e-01 6.932806968688964844e-02 -1.459102630615234375e-01 2.579321563243865967e-01 5.287564992904663086e-01 7.954245805740356445e-01 2.818049192428588867e-01 -2.773686647415161133e-01 -2.096486836671829224e-01 3.146517872810363770e-01 -6.963665783405303955e-02 -3.774496018886566162e-01 3.850356638431549072e-01 6.257794499397277832e-01 -1.832045614719390869e-01 -2.225760221481323242e-01 4.141803085803985596e-01 5.546758770942687988e-01 -1.536546796560287476e-01 -4.988779425621032715e-01 -1.135452985763549805e-01 -4.555486608296632767e-03 -1.480723023414611816e-01 -4.125727117061614990e-01 -3.178422152996063232e-01 2.372330427169799805e-01 -4.989231526851654053e-01 9.375834465026855469e-02
1.604891568422317505e-01 -3.064342029392719269e-02 1.013375595211982727e-01 2.000757306814193726e-01 4.605865478515625000e-01 2.247134223580360413e-02 3.793376088142395020e-01 -1.293775439262390137e-01 -1.348828077316284180e-01 3.734678626060485840e-01 -4.450842440128326416e-01 2.145618796348571777e-01 -6.537441611289978027e-01 1.574129760265350342e-01 -2.971511483192443848e-01 -1.035273522138595581e-01 2.310811281204223633e-01 -3.997927308082580566e-01 -4.302517771720886230e-01 2.196603417396545410e-01 2.607610523700714111e-01 -5.896201133728027344e-01 -1.964815855026245117e-01 1.989424377679824829e-01 -2.388640865683555603e-02 -7.630492746829986572e-02 -8.253392577171325684e-02 -1.822085231542587280e-01 1.349775642156600952e-01 -4.569703340530395508e-01 -1.827282756567001343e-01
3.014864772558212280e-02 -4.323113262653350830e-01 -4.759437590837478638e-02 3.521726429462432861e-01 4.295371472835540771e-01 -5.207681059837341309e-01 -1.301298439502716064e-01 1.896446049213409424e-01 6.003716588020324707e-02 -3.532445132732391357e-01 1.576607376337051392e-01 -1.732368767261505127e-01 -5.852675437927246094e-01 2.488118559122085571e-01 3.720531165599822998e-01 -1.258900612592697144e-01 -5.415673851966857910e-01 3.136913776397705078e-01 2.674076557159423828e-01 -4.777755215764045715e-02 -1.308446824550628662e-01 -2.099691331386566162e-01 4.949275851249694824e-01 3.843130767345428467e-01 -5.262028574943542480e-01 7.701916098594665527e-01 2.046618759632110596e-01 -3.535598814487457275e-01 -4.349062144756317139e-01 -4.608077406883239746e-01 8.338510394096374512e-01
5.861779302358627319e-02 1.052575036883354187e-01 -2.915252149105072021e-01 2.409799993038177490e-01 -1.113932356238365173e-01 -6.484922766685485840e-01 5.615507960319519043e-01 -3.533931374549865723e-01 -2.966352365911006927e-02 9.391410648822784424e-02 -2.387146800756454468e-01 5.145136117935180664e-01 -2.791701853275299072e-01 -3.684456273913383484e-02 -5.271187424659729004e-02 1.907121241092681885e-01 -4.556386545300483704e-02 2.793455421924591064e-01 1.722514629364013672e-01 2.461589276790618896e-01 2.696669995784759521e-01 -4.148562550544738770e-01 -3.844149410724639893e-01 1.723403185606002808e-01 7.244912534952163696e-02 7.347972691059112549e-02 6.990060806274414062e-01 8.900979161262512207e-02 -1.297196596860885620e-01 -8.530728816986083984e-01 1.649511456489562988e-01
6.924542784690856934e-02 5.611293949186801910e-03 -2.578146159648895264e-01 -8.725019544363021851e-02 -7.528249174356460571e-02 -6.520350575447082520e-01 -1.246887743473052979e-01 -1.003101840615272522e-01 -1.611220999620854855e-03 -1.327690333127975464e-01 2.112558335065841675e-01 6.543269008398056030e-02 -2.463030219078063965e-01 -3.250989615917205811e-01 1.186988130211830139e-02 5.794284939765930176e-01 -2.155303210020065308e-01 9.725581854581832886e-02 2.278688400983810425e-01 1.695667654275894165e-01 8.214370906352996826e-02 -9.118787944316864014e-03 -7.506561232730746269e-04 -9.082192182540893555e-02 2.002681232988834381e-02 1.689363867044448853e-01 2.629861235618591309e-01 2.755179703235626221e-01 -2.308917939662933350e-01 -2.379624396562576294e-01 2.887310087680816650e-01
6.506112962961196899e-02 -3.000504970550537109e-01 -2.180474810302257538e-02 2.235041186213493347e-02 3.704171627759933472e-02 3.703747689723968506e-01 -7.521216273307800293e-01 -7.280725240707397461e-02 2.931429445743560791e-01 -1.358193755149841309e-01 1.418637484312057495e-01 1.873554885387420654e-01 -2.332504391670227051e-01 2.924913763999938965e-01 1.532675355520041194e-06 4.752941802144050598e-02 3.963645175099372864e-02 9.925325959920883179e-02 8.112683147192001343e-02 -6.585974991321563721e-02 -1.018425747752189636e-01 1.778093278408050537e-01 1.896921396255493164e-01 -5.257481336593627930e-01 -9.945917129516601562e-02 -5.437932908535003662e-03 -3.764464855194091797e-01 -1.511729955673217773e-01 1.613221317529678345e-01 9.979773312807083130e-02 1.634017974138259888e-01
4.234837591648101807e-01 -4.205569624900817871e-01 3.532822430133819580e-02 4.667688608169555664e-01 3.405319154262542725e-01 -1.284666638821363449e-02 -6.716898083686828613e-01 4.745814800262451172e-01 1.271355301141738892e-01 1.605608314275741577e-02 5.948906540870666504e-01 -1.282093971967697144e-01 2.636664509773254395e-01 2.838173508644104004e-01 5.075254440307617188e-01 -4.547905623912811279e-01 -1.366388052701950073e-01 2.282017022371292114e-01 2.472767680883407593e-01 -2.049648910760879517e-01 -1.668121516704559326e-01 1.461381465196609497e-01 4.807874560356140137e-01 -2.921373546123504639e-01 -1.430137432180345058e-03 -1.607646048069000244e-02 -1.581826806068420410e-01 6.271704286336898804e-02 -6.809863448143005371e-02 7.754392176866531372e-02 4.998885989189147949e-01
-1.570380777120590210e-01 -5.435011386871337891e-01 3.438258469104766846e-01 6.088396906852722168e-01 5.232157707214355469e-01 -2.118997275829315186e-01 -3.305034935474395752e-01 3.850554227828979492e-01 -2.987959086894989014e-01 -4.782060086727142334e-01 -4.798849821090698242e-01 6.944136228412389755e-03 6.657410860061645508e-01 -9.098941832780838013e-02 -2.992325425148010254e-01 -4.335079342126846313e-02 2.477272413671016693e-02 7.920438051223754883e-02 -1.071091101039201021e-04 -1.617934107780456543e-01 -1.275839954614639282e-01 2.277489900588989258e-01 2.897923290729522705e-01 -1.551344394683837891e-01 1.102378368377685547e+00 -2.009446769952774048e-01 5.672569572925567627e-02 1.236249804496765137e+00 1.524893194437026978e-01 3.102750778198242188e-01 -9.374350309371948242e-01
2.302920818328857422e-01 3.824951872229576111e-02 -5.211316049098968506e-02 -1.068344712257385254e-01 -2.471258789300918579e-01 -2.177060395479202271e-01 1.457605957984924316e-01 5.869043618440628052e-02 -4.065950512886047363e-01 6.274913549423217773e-01 -3.641046583652496338e-02 1.956906765699386597e-01 -5.960589740425348282e-03 -2.435814142227172852e-01 -2.866117358207702637e-01 4.636685848236083984e-01 3.000656068325042725e-01 -2.081017494201660156e-01 -1.503610461950302124e-01 5.106952190399169922e-01 5.894871950149536133e-01 -2.746042609214782715e-01 -1.982254981994628906e-01 -4.831647276878356934e-01 -2.296568453311920166e-01 -8.858587592840194702e-02 7.150051593780517578e-01 -1.668209284543991089e-01 -3.497775495052337646e-01 -2.937939465045928955e-01 2.412221208214759827e-02
2.895230948925018311e-01 -2.753700315952301025e-01 -3.157682120800018311e-01 -1.397914141416549683e-01 -6.330086290836334229e-02 9.584303200244903564e-02 -5.473069101572036743e-02 6.351264566183090210e-02 2.512925565242767334e-01 -2.832742631435394287e-01 1.224542185664176941e-01 -2.186251133680343628e-01 -8.493693917989730835e-02 1.431086566299200058e-02 -1.275289505720138550e-01 -2.255845367908477783e-01 -2.140668481588363647e-01 3.877112641930580139e-02 1.275649573653936386e-02 -5.622235313057899475e-02 -1.407180428504943848e-01 1.038113608956336975e-01 -8.905116468667984009e-02 -1.560595482587814331e-01 -4.718529880046844482e-01 -1.252222526818513870e-02 -1.381494551897048950e-01 4.927317798137664795e-02 3.455577418208122253e-02 1.717518717050552368e-01 3.070658445358276367e-01
6.070312857627868652e-02 5.819106698036193848e-01 3.637932837009429932e-01 9.458263963460922241e-02 4.859337583184242249e-02 2.091952711343765259e-01 6.159011125564575195e-01 -2.008879482746124268e-01 -3.373911082744598389e-01 6.178637593984603882e-02 -4.866856336593627930e-01 -2.918654680252075195e-01 -1.229315102100372314e-01 -3.786502033472061157e-02 -2.822691500186920166e-01 3.498448133468627930e-01 -2.847723364830017090e-01 -2.359265834093093872e-01 -2.625104784965515137e-01 4.072403311729431152e-01 1.027921587228775024e-01 -9.370773285627365112e-02 -3.867920637130737305e-01 5.305399894714355469e-01 1.613396778702735901e-02 2.402412295341491699e-01 -2.100679650902748108e-02 1.354021299630403519e-02 1.662182062864303589e-01 -2.311703264713287354e-01 1.379555165767669678e-01
7.158640027046203613e-01 2.401465028524398804e-01 2.199861705303192139e-01 2.031328976154327393e-01 1.201000884175300598e-01 8.820320665836334229e-02 -8.391432464122772217e-02 -4.284448623657226562e-01 -1.390735656023025513e-01 -4.168739914894104004e-02 -2.953242957592010498e-01 -1.857613399624824524e-02 2.305536903440952301e-02 -3.167512416839599609e-01 -2.077528685331344604e-01 -9.916736185550689697e-02 -9.883798658847808838e-02 -4.400150105357170105e-02 1.192758698016405106e-02 -6.857035309076309204e-02 2.279747650027275085e-02 -8.211482316255569458e-02 3.018817901611328125e-01 1.304596066474914551e-01 9.817006438970565796e-02 1.590593606233596802e-01 -1.788266748189926147e-01 1.441690255887806416e-03 -6.178377568721771240e-02 -4.520898461341857910e-01 1.319798529148101807e-01
-3.156344965100288391e-02 -1.861697584390640259e-01 1.555754989385604858e-01 4.481472373008728027e-01 1.498187631368637085e-01 2.139678448438644409e-01 -2.924914956092834473e-01 1.889146864414215088e-01 3.601011633872985840e-01 1.826694160699844360e-01 4.582208767533302307e-02 1.457376778125762939e-02 9.994964301586151123e-02 4.804792702198028564e-01 1.454717218875885010e-01 -1.230966895818710327e-01 7.278872281312942505e-02 2.135298550128936768e-01 1.577394306659698486e-01 -8.914429694414138794e-02 -5.941541492938995361e-02 2.726225554943084717e-01 1.409521996974945068e-01 -3.478912711143493652e-01 2.367098033428192139e-01 -5.243897810578346252e-02 -2.320910990238189697e-01 1.665104925632476807e-01 2.999439239501953125e-01 1.067496985197067261e-01 1.287718117237091064e-01
5.490654706954956055e-01 1.123857200145721436e-01 5.330050587654113770e-01 2.161670774221420288e-01 -5.601498484611511230e-02 3.656709492206573486e-01 1.129032596945762634e-01 4.683326780796051025e-01 -2.953486442565917969e-01 -2.924339771270751953e-01 -1.669534444808959961e-01 7.276386767625808716e-02 2.859793007373809814e-01 -2.980902493000030518e-01 -2.133459448814392090e-01 -1.018723994493484497e-01 -4.317535087466239929e-03 -2.458384726196527481e-03 6.949902325868606567e-02 1.774497032165527344e-01 -1.660616099834442139e-01 -5.179930329322814941e-01 1.085175871849060059e-01 2.034188807010650635e-01 -2.011160403490066528e-01 -1.356921643018722534e-01 -1.651203632354736328e-01 6.051753088831901550e-02 3.305659592151641846e-01 -4.888190031051635742e-01 1.012161374092102051e-01
2.046910971403121948e-01 3.454565405845642090e-01 9.346177428960800171e-02 6.068575009703636169e-02 -7.156062126159667969e-02 -4.924700558185577393e-01 1.427499055862426758e-01 1.811928153038024902e-01 -9.389028698205947876e-02 -1.630467027425765991e-01 -2.384013868868350983e-02 1.834201999008655548e-02 2.139467895030975342e-01 -1.589133776724338531e-02 -2.260396070778369904e-02 -7.638413459062576294e-02 -1.668389141559600830e-01 -9.532187134027481079e-02 -7.391148805618286133e-02 -3.843285515904426575e-02 2.475711517035961151e-02 -1.139685958623886108e-01 -1.057267710566520691e-01 -1.233296766877174377e-01 -4.591439291834831238e-02 3.129479661583900452e-02 2.710782587528228760e-01 8.588917553424835205e-03 -9.779760986566543579e-02 -3.296735286712646484e-01 8.557876199483871460e-02
2.583909034729003906e-01 1.317508667707443237e-01 3.379004001617431641e-01 2.937356233596801758e-01 2.526857256889343262e-01 -7.935981154441833496e-01 -3.269819021224975586e-01 1.540256440639495850e-01 -8.610802143812179565e-02 -3.374116420745849609e-01 -4.171317070722579956e-02 -6.923090666532516479e-02 2.069778591394424438e-01 4.869991540908813477e-01 1.217475607991218567e-01 4.152286425232887268e-02 3.019420206546783447e-01 2.846877276897430420e-01 1.276913136243820190e-01 6.564662605524063110e-02 1.087236329913139343e-01 2.613728865981101990e-02 -2.299396321177482605e-03 -1.400184333324432373e-01 -2.505382299423217773e-01 -1.409563124179840088e-01 -1.594521552324295044e-01 -2.445608228445053101e-01 2.682602703571319580e-01 1.295879334211349487e-01 -1.114438921213150024e-01
5.777773857116699219e-01 3.771508336067199707e-01 2.909344136714935303e-01 2.884632647037506104e-01 -2.630895674228668213e-01 3.781956136226654053e-01 2.543211281299591064e-01 -1.907753795385360718e-01 -3.246955573558807373e-01 -3.810484707355499268e-01 -3.982348144054412842e-01 -3.740288019180297852e-01 -9.299226105213165283e-02 -2.505480051040649414e-01 -1.167969033122062683e-01 -1.483830809593200684e-01 -3.196095824241638184e-01 -1.099543645977973938e-02 1.137225329875946045e-02 -1.765211969614028931e-01 -2.597069144248962402e-01 6.410364061594009399e-02 2.519459724426269531e-01 -2.381972670555114746e-01 -1.216913163661956787e-01 7.939132302999496460e-02 -1.744033992290496826e-01 -4.113935306668281555e-02 1.740061938762664795e-01 1.185793131589889526e-01 -7.303483784198760986e-02
4.083642959594726562e-01 1.154011413455009460e-01 3.218503296375274658e-01 -2.282245084643363953e-02 -1.762240231037139893e-01 -6.113333106040954590e-01 2.927205860614776611e-01 -1.186631899327039719e-02 3.564522564411163330e-01 1.262004673480987549e-01 -2.601644992828369141e-01 3.922260105609893799e-01 -5.750916004180908203e-01 -4.005556181073188782e-02 -3.857513070106506348e-01 7.201261818408966064e-02 -1.461251974105834961e-01 -1.277339607477188110e-01 -2.848099172115325928e-01 1.326052993535995483e-01 8.219710737466812134e-02 2.056580483913421631e-01 -4.144528210163116455e-01 -2.113757431507110596e-01 -2.277781218290328979e-01 2.911287248134613037e-01 9.887151420116424561e-02 5.048045516014099121e-02 2.347579896450042725e-01 -2.649676501750946045e-01 2.968586683273315430e-01
4.899539947509765625e-01 2.257806435227394104e-02 -5.156490802764892578e-01 -1.926253587007522583e-01 -2.499783039093017578e-01 -3.524290621280670166e-01 -9.877054393291473389e-02 3.655270487070083618e-02 1.520415693521499634e-01 -2.600414454936981201e-01 9.104980528354644775e-02 1.781784147024154663e-01 -4.340043291449546814e-03 -8.502363413572311401e-02 -5.496949702501296997e-02 6.534154713153839111e-02 -3.263970017433166504e-01 -3.336362540721893311e-02 -1.490639746189117432e-01 6.026899069547653198e-02 -1.295126974582672119e-01 6.513007730245590210e-02 -2.930984199047088623e-01 -3.868801295757293701e-01 8.715006709098815918e-02 -1.353394687175750732e-01 2.187038362026214600e-01 1.115820109844207764e-01 1.931374520063400269e-01 -1.645995676517486572e-01 1.122703254222869873e-01
3.172617256641387939e-01 3.228845894336700439e-01 4.537959396839141846e-01 3.051446676254272461e-01 7.061319798231124878e-02 5.753369331359863281e-01 9.424071758985519409e-02 -3.364564478397369385e-01 1.938846260309219360e-01 -1.595792174339294434e-01 4.220392089337110519e-03 -3.878639638423919678e-01 1.167579218745231628e-01 1.736543476581573486e-01 -8.400060981512069702e-02 5.899269133806228638e-02 1.443119496107101440e-01 -4.394655115902423859e-03 -6.030419841408729553e-02 1.579941809177398682e-01 1.668765842914581299e-01 1.438572704792022705e-01 1.366435587406158447e-01 1.756248623132705688e-01 2.382817268371582031e-01 -1.048639863729476929e-01 5.727092921733856201e-02 3.554904088377952576e-02 -1.395999491214752197e-01 2.836864814162254333e-02 -1.430418789386749268e-01
-1.341139674186706543e-01 2.352724671363830566e-01 -2.616138160228729248e-01 -7.160082459449768066e-02 -1.177838593721389771e-01 -3.455788195133209229e-01 2.913679480552673340e-01 -3.295056894421577454e-02 -5.151033997535705566e-01 2.478147298097610474e-01 -5.140437483787536621e-01 5.463748574256896973e-01 1.080918908119201660e-01 -1.343369334936141968e-01 -6.220489740371704102e-01 -2.868317961692810059e-01 -4.573141038417816162e-01 -1.014527201652526855e+00 -1.087482810020446777e+00 -3.983280807733535767e-02 -1.558061540126800537e-01 4.346826076507568359e-01 -2.519481778144836426e-01 -4.784424901008605957e-01 4.778416827321052551e-02 1.927891075611114502e-01 -2.496559023857116699e-01 3.412768840789794922e-01 2.650062926113605499e-02 5.415963530540466309e-01 -1.825689524412155151e-01
4.712116122245788574e-01 2.856764709576964378e-03 7.969716936349868774e-02 3.926009535789489746e-01 4.824129864573478699e-02 -2.259810417890548706e-01 -7.130888849496841431e-02 1.372584849596023560e-01 -2.197666764259338379e-01 2.585447132587432861e-01 1.291283816099166870e-01 1.752047687768936157e-01 -1.085685268044471741e-01 -2.926495391875505447e-03 -1.514562815427780151e-01 -1.801755428314208984e-01 -1.594833880662918091e-01 1.110841557383537292e-01 7.665003836154937744e-02 2.478990517556667328e-02 2.366691827774047852e-02 -9.659899026155471802e-02 1.814729720354080200e-01 6.714468821883201599e-03 -1.260289698839187622e-01 2.416077256202697754e-02 -7.787922769784927368e-02 8.213248848915100098e-02 -2.850401699542999268e-01 -1.499946862459182739e-01 -1.443951576948165894e-01
2.102319002151489258e-01 1.230418607592582703e-01 -3.577201068401336670e-01 -1.817521452903747559e-01 -1.149163320660591125e-01 -3.591405153274536133e-01 1.332822372205555439e-03 2.536499407142400742e-03 1.477649062871932983e-01 2.307095192372798920e-02 1.731032878160476685e-01 -4.350103437900543213e-02 3.858812619000673294e-03 1.570621281862258911e-01 -8.557482063770294189e-02 7.265818119049072266e-02 -2.122968286275863647e-01 2.269049175083637238e-02 -1.507135480642318726e-02 -1.257765665650367737e-02 -2.321912795305252075e-01 1.998818367719650269e-01 -3.050247430801391602e-01 2.520310878753662109e-01 2.946292050182819366e-02 -3.203760385513305664e-01 -3.095310181379318237e-03 3.103194534778594971e-01 -6.724878400564193726e-02 2.301984131336212158e-01 -1.968764662742614746e-01
9.014942497014999390e-02 1.308152079582214355e-01 1.816257387399673462e-01 5.218357965350151062e-02 -1.681339740753173828e-02 -1.440388560295104980e-01 2.479252368211746216e-01 -3.690788149833679199e-01 2.264300286769866943e-01 1.575283706188201904e-01 2.115979492664337158e-01 7.774639874696731567e-02 -3.280125260353088379e-01 3.025784716010093689e-02 3.214193284511566162e-01 -2.642555236816406250e-01 -1.851083338260650635e-02 2.522732913494110107e-01 3.437491059303283691e-01 3.240439295768737793e-02 8.219978213310241699e-02 -4.467179179191589355e-01 -2.322761714458465576e-01 -2.091331034898757935e-01 -1.663335412740707397e-01 -9.669506922364234924e-03 2.334984093904495239e-01 -7.646381109952926636e-02 -7.251265645027160645e-01 -2.891147136688232422e-01 -6.795125454664230347e-02
1.463356912136077881e-01 -4.309447705745697021e-01 -9.503131359815597534e-02 4.270864010322839022e-04 4.296808317303657532e-02 9.238439202308654785e-01 4.893806278705596924e-01 -1.228925138711929321e-01 -6.044763699173927307e-02 -4.555564820766448975e-01 -4.478623867034912109e-01 -5.357766747474670410e-01 -1.119097322225570679e-01 -2.279000282287597656e-01 -3.323338627815246582e-01 3.008788228034973145e-01 2.373089790344238281e-01 -1.485829502344131470e-01 -1.841418147087097168e-01 4.014493823051452637e-01 2.416069507598876953e-01 2.791647911071777344e-01 -1.601176857948303223e-01 3.486083149909973145e-01 2.862773537635803223e-01 -3.156194984912872314e-01 -1.607584506273269653e-01 5.829443335533142090e-01 -3.217391073703765869e-01 1.198682114481925964e-01 -9.156832844018936157e-02
-1.139506340026855469e+00 2.457974851131439209e-02 -2.383884638547897339e-01 -1.470456421375274658e-01 -1.181905195116996765e-01 9.507724046707153320e-01 6.229082942008972168e-01 -1.574130952358245850e-01 -3.606438636779785156e-03 3.575208783149719238e-01 -9.243191033601760864e-02 -7.141324225813150406e-03 -4.505842626094818115e-01 1.597356349229812622e-01 -1.338010728359222412e-01 -5.341202020645141602e-01 -2.669329345226287842e-01 -4.524319469928741455e-01 -4.344083368778228760e-01 3.351146578788757324e-01 1.943286508321762085e-01 5.568080544471740723e-01 -4.873091876506805420e-01 -4.339131116867065430e-01 2.839058935642242432e-01 -3.084953427314758301e-01 8.775919675827026367e-02 6.840522587299346924e-02 -1.201985869556665421e-03 5.548185706138610840e-01 -3.263272643089294434e-01
-1.610246151685714722e-01 -1.839129924774169922e-01 -4.193270578980445862e-02 -1.281394213438034058e-01 -1.814577430486679077e-01 3.459402024745941162e-01 4.718512296676635742e-01 3.632661327719688416e-02 -3.617310523986816406e-01 -1.034626960754394531e-01 -1.100497469305992126e-01 2.739788889884948730e-01 -2.161726802587509155e-01 5.436829328536987305e-01 1.862891018390655518e-01 1.535572856664657593e-01 9.994845092296600342e-02 2.380172908306121826e-01 1.400358527898788452e-01 2.524438202381134033e-01 4.268702566623687744e-01 -4.998730719089508057e-01 -7.291199564933776855e-01 -6.632195115089416504e-01 -1.750712543725967407e-01 3.004311211407184601e-02 1.917156130075454712e-01 2.695240266621112823e-02 8.896350860595703125e-02 -3.322210609912872314e-01 1.573907732963562012e-01
4.210985302925109863e-01 -1.075664088129997253e-01 -2.307588309049606323e-01 3.280406817793846130e-02 8.384750038385391235e-02 4.061237573623657227e-01 1.934935748577117920e-01 5.906985998153686523e-01 -1.180963888764381409e-01 -2.248854041099548340e-01 -8.779411315917968750e-01 -2.496117502450942993e-01 7.862594723701477051e-01 3.975591063499450684e-01 -5.802250504493713379e-01 1.007783561944961548e-01 7.504197359085083008e-01 -4.540136158466339111e-01 -7.031015753746032715e-01 -8.452336490154266357e-02 3.074726462364196777e-01 1.487875729799270630e-01 1.303432583808898926e-01 3.079935908317565918e-01 2.924752831459045410e-01 -1.076377332210540771e-01 -3.334655165672302246e-01 3.996720016002655029e-01 5.274220705032348633e-01 2.277756631374359131e-01 -2.073898315429687500e-01
6.663463115692138672e-01 -2.092611044645309448e-01 2.308126389980316162e-01 1.735233515501022339e-01 -4.894454404711723328e-02 -6.187624856829643250e-02 1.416598409414291382e-01 3.426418304443359375e-01 5.834389328956604004e-01 -1.417980343103408813e-02 -1.505127400159835815e-01 9.081126004457473755e-02 -5.123751163482666016e-01 1.402913127094507217e-02 4.246942698955535889e-02 -7.707756012678146362e-02 1.658707261085510254e-01 -2.175149880349636078e-02 8.796709030866622925e-02 8.973424881696701050e-02 1.608897298574447632e-01 4.666864126920700073e-02 -1.206355541944503784e-02 9.071029489859938622e-04 -1.420014351606369019e-01 8.629386425018310547e-01 4.141200706362724304e-02 -1.864199340343475342e-01 -8.884134888648986816e-01 -4.528326094150543213e-01 1.581408977508544922e-01
7.054554671049118042e-02 -2.181882262229919434e-01 -2.614413201808929443e-01 -3.896061182022094727e-01 -4.281818568706512451e-01 -3.093810379505157471e-01 1.495566666126251221e-01 2.499305158853530884e-01 -4.968386888504028320e-02 2.455877661705017090e-01 3.497972488403320312e-01 1.582361906766891479e-01 1.451405733823776245e-01 -6.069067716598510742e-01 -3.571838140487670898e-02 9.059808254241943359e-01 -6.523981094360351562e-01 -1.240429952740669250e-01 3.188283368945121765e-02 3.678965866565704346e-01 -1.457854062318801880e-01 -3.788554966449737549e-01 1.366412490606307983e-01 -4.335803166031837463e-02 -9.522518375888466835e-04 -3.177332505583763123e-02 4.860627353191375732e-01 2.556711733341217041e-01 -3.045951724052429199e-01 -4.573326110839843750e-01 -3.411995247006416321e-02
-1.379327327013015747e-01 2.774984240531921387e-01 7.565466314554214478e-02 -1.178354471921920776e-01 -2.914135456085205078e-01 -9.846849739551544189e-02 9.393391199409961700e-03 -6.935614943504333496e-01 2.468449920415878296e-01 3.795337677001953125e-01 -1.849666237831115723e-01 6.455696374177932739e-02 -4.572558701038360596e-01 -7.316662464290857315e-03 -1.688778400421142578e-01 -2.943160533905029297e-01 5.169243812561035156e-01 -4.430417716503143311e-01 -5.606476664543151855e-01 -6.827884167432785034e-02 1.562056392431259155e-01 -5.971293449401855469e-01 9.324037283658981323e-02 -1.030824854969978333e-01 -2.527612447738647461e-01 -5.340173244476318359e-01 -7.448892295360565186e-02 -4.221939295530319214e-02 6.243528723716735840e-01 -3.499892652034759521e-01 7.687475681304931641e-01
6.314562559127807617e-01 4.251243770122528076e-01 6.878855228424072266e-01 -8.591706305742263794e-02 7.996609061956405640e-02 -8.648937568068504333e-03 -7.930879294872283936e-02 -4.565195143222808838e-01 1.846605986356735229e-01 7.206293940544128418e-02 1.018658876419067383e-01 1.293243616819381714e-01 6.621180474758148193e-02 -1.115997135639190674e-01 -5.038196220993995667e-02 4.576482772827148438e-01 8.038582652807235718e-02 -1.765821427106857300e-01 -1.873482912778854370e-01 1.079875752329826355e-01 3.199232742190361023e-02 6.600275635719299316e-02 -2.858664989471435547e-01 -3.190293908119201660e-01 -1.173979640007019043e-01 3.711924329400062561e-02 -1.194739937782287598e-01 -2.697136104106903076e-01 -8.160720020532608032e-02 1.393442749977111816e-01 1.485511958599090576e-01
2.050059661269187927e-02 -6.871709227561950684e-02 2.015203237533569336e-01 2.749626338481903076e-01 5.731706321239471436e-02 -2.747137248516082764e-01 4.394203126430511475e-01 -3.308746814727783203e-01 4.305938780307769775e-01 1.073677539825439453e-01 1.504510082304477692e-02 -1.090324949473142624e-02 -9.608825296163558960e-02 -1.752540022134780884e-01 -3.283588290214538574e-01 4.759083092212677002e-01 6.450769901275634766e-01 -3.394575119018554688e-01 -3.137940466403961182e-01 3.929140865802764893e-01 5.300868749618530273e-01 5.025678277015686035e-01 -2.829996049404144287e-01 2.517870664596557617e-01 7.003048658370971680e-01 2.363421767950057983e-01 8.822745829820632935e-02 1.674833521246910095e-02 2.928549051284790039e-01 8.160392940044403076e-02 -7.314538359642028809e-01
3.059307634830474854e-01 8.839783668518066406e-01 3.864257633686065674e-01 2.009205371141433716e-01 7.827613502740859985e-02 -2.899007797241210938e-01 4.952638223767280579e-02 -3.835864067077636719e-01 3.186734616756439209e-01 2.669005095958709717e-01 -2.131085097789764404e-01 -2.289073765277862549e-01 3.749676048755645752e-01 8.851182460784912109e-02 2.656481228768825531e-03 4.257952049374580383e-02 -1.068956628441810608e-01 7.017517834901809692e-02 -5.896038189530372620e-02 1.206444054841995239e-01 -3.153634443879127502e-02 -9.889897890388965607e-03 2.036815881729125977e-01 -4.549491405487060547e-02 2.957910001277923584e-01 1.153887659311294556e-01 1.080352291464805603e-01 2.449456602334976196e-03 -1.162246018648147583e-01 2.225049138069152832e-01 -5.194138884544372559e-01
4.303193092346191406e-02 6.647592782974243164e-02 8.665486425161361694e-02 5.546214431524276733e-02 -4.838165640830993652e-02 5.652642250061035156e-02 9.474330395460128784e-02 6.981905549764633179e-02 -2.389595955610275269e-01 -1.604914069175720215e-01 1.829523742198944092e-01 -2.465823590755462646e-01 3.127331733703613281e-01 5.378359183669090271e-02 1.398001164197921753e-01 -5.907415226101875305e-02 1.215961873531341553e-01 1.928892135620117188e-01 1.277042776346206665e-01 1.435706019401550293e-01 1.442905962467193604e-01 -2.164385914802551270e-01 -1.267992258071899414e-01 2.444716915488243103e-02 5.621768534183502197e-02 -2.606474459171295166e-01 -1.260522007942199707e-01 9.163926541805267334e-02 8.368934690952301025e-02 -2.145248651504516602e-01 -2.260403335094451904e-02
4.781301915645599365e-01 -1.679529547691345215e-01 1.768011897802352905e-01 2.824232876300811768e-01 1.434743106365203857e-01 1.195332556962966919e-01 1.634398549795150757e-01 4.149763882160186768e-01 -4.479066655039787292e-02 -1.603046208620071411e-01 -7.470026612281799316e-02 1.952973455190658569e-01 6.895765662193298340e-02 -2.894318401813507080e-01 -1.222275123000144958e-01 -6.313451379537582397e-02 -3.099563419818878174e-01 -4.734497144818305969e-02 3.736115992069244385e-02 -6.905973702669143677e-02 -1.157651692628860474e-01 -4.640527069568634033e-01 -9.305566549301147461e-02 -1.045272201299667358e-01 5.286698695272207260e-03 -3.004392087459564209e-01 -1.022669598460197449e-01 2.913265824317932129e-01 7.990775629878044128e-03 -4.900343418121337891e-01 2.110854350030422211e-02
1.588772177696228027e+00 -8.922789990901947021e-02 -3.291810750961303711e-01 2.482573688030242920e-01 2.863081991672515869e-01 -9.202793836593627930e-01 -4.655663073062896729e-01 9.229185990989208221e-03 -1.312965154647827148e-01 -2.556724548339843750e-01 4.433625042438507080e-01 3.229544758796691895e-01 -5.805406719446182251e-02 -6.432668119668960571e-02 -1.944751590490341187e-01 1.399993598461151123e-01 -2.765993773937225342e-01 -3.878612071275711060e-02 -2.917244285345077515e-02 2.409683912992477417e-01 1.045281905680894852e-02 -2.197911441326141357e-01 1.957902461290359497e-01 -2.366846799850463867e-01 3.790835440158843994e-01 -5.981137156486511230e-01 -1.315870583057403564e-01 4.140410125255584717e-01 -8.619917929172515869e-02 -9.137125685811042786e-03 -3.119190931320190430e-01
-4.364750534296035767e-02 4.158367812633514404e-01 1.279131650924682617e+00 3.804895579814910889e-01 4.459375441074371338e-01 4.523392617702484131e-01 7.066275179386138916e-02 1.842961832880973816e-02 -2.810023911297321320e-02 -2.661663480103015900e-02 -4.632808268070220947e-01 1.566953957080841064e-01 -1.863588988780975342e-01 1.853598654270172119e-01 4.057922586798667908e-02 3.972864896059036255e-02 4.795070886611938477e-01 7.425036281347274780e-02 -1.288481708616018295e-02 -2.468477338552474976e-01 -6.147722154855728149e-02 5.283262208104133606e-02 3.583795949816703796e-02 -1.757495552301406860e-01 2.626235969364643097e-02 3.781768083572387695e-01 -2.128419280052185059e-01 -8.993209898471832275e-02 1.224580928683280945e-01 -1.355402618646621704e-01 2.257126569747924805e-02
8.097168803215026855e-02 -5.265035033226013184e-01 -6.566575169563293457e-02 5.516100302338600159e-02 8.213425427675247192e-02 -3.892184048891067505e-02 -7.593207061290740967e-02 -8.337735384702682495e-02 -2.111683636903762817e-01 -2.429796457290649414e-01 4.866455495357513428e-01 -1.447949372231960297e-02 2.529379427433013916e-01 -2.549280524253845215e-01 3.156024217605590820e-02 2.796786129474639893e-01 3.629912734031677246e-01 3.074137493968009949e-02 1.060267537832260132e-01 5.035025626420974731e-02 5.734696984291076660e-02 2.696468830108642578e-01 1.367770433425903320e-01 3.382915258407592773e-01 1.142754405736923218e-01 -7.794184237718582153e-02 2.638980932533740997e-02 1.398525834083557129e-01 6.380812525749206543e-01 3.651564121246337891e-01 -1.472755223512649536e-01
6.058262586593627930e-01 -1.877951622009277344e-01 -2.950313687324523926e-01 -1.956376880407333374e-01 -3.171907961368560791e-01 -7.104856427758932114e-03 -7.260682433843612671e-02 -3.118631243705749512e-01 -2.022504359483718872e-01 -2.451592683792114258e-01 2.760207653045654297e-02 2.144319713115692139e-01 1.286938339471817017e-01 -1.695116311311721802e-01 -2.608212828636169434e-01 -9.368518739938735962e-02 4.302293434739112854e-02 -1.967072188854217529e-01 -1.619808971881866455e-01 -2.016788572072982788e-01 8.342480286955833435e-03 -2.550987303256988525e-01 -1.128430739045143127e-01 -6.205953955650329590e-01 -2.229509651660919189e-01 3.127082437276840210e-02 -4.602661356329917908e-02 -9.443455934524536133e-02 -1.005395203828811646e-01 1.048750802874565125e-01 4.890776053071022034e-02
7.090411782264709473e-01 3.874296545982360840e-01 2.783408164978027344e-01 2.435813248157501221e-01 5.096375942230224609e-02 -3.166951239109039307e-01 -1.004018113017082214e-01 -3.280638456344604492e-01 1.548949182033538818e-01 -1.350522190332412720e-01 5.877660587430000305e-02 -3.609326481819152832e-01 -4.596130251884460449e-01 1.171581149101257324e-01 2.043623477220535278e-01 2.602197527885437012e-01 3.800307959318161011e-02 1.269842386245727539e-01 1.842283010482788086e-01 3.722507357597351074e-01 2.355514019727706909e-01 -1.889614164829254150e-01 2.527222037315368652e-01 5.417025461792945862e-02 -1.916705071926116943e-01 1.873509734869003296e-01 -5.063015967607498169e-03 -2.994609773159027100e-01 -2.319660633802413940e-01 -3.842557370662689209e-01 1.383227258920669556e-01
5.143804550170898438e-01 -1.852433085441589355e-01 2.471279650926589966e-01 2.283374816179275513e-01 -6.125866621732711792e-02 -4.637690484523773193e-01 2.767420709133148193e-01 3.432053923606872559e-01 1.806373596191406250e-01 -1.617561578750610352e-01 -1.418649554252624512e-01 -4.771808981895446777e-01 3.379418551921844482e-01 -2.364997267723083496e-01 -2.136551290750503540e-01 9.408560395240783691e-02 2.961280047893524170e-01 -1.330188848078250885e-02 7.242339849472045898e-02 2.716959118843078613e-01 3.106071054935455322e-01 2.037571966648101807e-01 -2.414193004369735718e-02 7.627948373556137085e-02 1.404876261949539185e-01 1.207658275961875916e-01 -5.441704392433166504e-01 -3.196474909782409668e-01 1.402889192104339600e-01 -4.392844066023826599e-02 8.316868543624877930e-02
3.883737027645111084e-01 7.826248556375503540e-02 -1.947595477104187012e-01 -1.438897103071212769e-01 -8.138357847929000854e-02 -1.225204944610595703e+00 -7.652428001165390015e-02 2.866526320576667786e-02 3.107287883758544922e-01 -1.196797043085098267e-01 -2.158740609884262085e-01 9.067725390195846558e-02 -4.833770170807838440e-02 5.899225175380706787e-02 -1.888365000486373901e-01 1.042757779359817505e-01 -1.064419001340866089e-01 2.184351533651351929e-01 1.339923311024904251e-02 1.471472829580307007e-01 -1.040256097912788391e-01 9.622060507535934448e-02 -1.012272760272026062e-02 -1.720612496137619019e-01 8.076464757323265076e-03 -3.037651814520359039e-02 1.280607283115386963e-01 1.969650089740753174e-01 -2.609393596649169922e-01 2.425861656665802002e-01 -2.493451088666915894e-01
2.955043911933898926e-01 3.298438489437103271e-01 5.909938365221023560e-02 9.099228680133819580e-02 1.010046303272247314e-01 -2.529692947864532471e-01 -1.758235543966293335e-01 -1.119323745369911194e-01 -4.368859529495239258e-01 1.822301894426345825e-01 4.038121402263641357e-01 2.141359597444534302e-01 2.924225628376007080e-01 -5.014787912368774414e-01 2.779775261878967285e-01 1.671084016561508179e-01 -3.224049806594848633e-01 2.596019208431243896e-01 3.431601226329803467e-01 4.183265566825866699e-02 -2.564790546894073486e-01 -4.397377371788024902e-02 3.503914177417755127e-01 5.126727819442749023e-01 3.410094976425170898e-01 -2.677552402019500732e-01 3.427708148956298828e-01 3.397496342658996582e-01 -5.011466741561889648e-01 1.145279151387512684e-03 -3.483435809612274170e-01
2.953354120254516602e-01 -1.336527764797210693e-01 2.849253118038177490e-01 -4.258278012275695801e-02 -6.117603182792663574e-02 2.981459498405456543e-01 3.681318759918212891e-01 -3.940660655498504639e-01 -3.118800818920135498e-01 6.628700345754623413e-02 1.418184936046600342e-01 4.172310233116149902e-01 4.811230301856994629e-01 -3.702512681484222412e-01 -1.976385265588760376e-01 3.475830554962158203e-01 -1.832767389714717865e-02 3.113721497356891632e-02 1.534324735403060913e-01 4.490649700164794922e-01 -1.086957007646560669e-01 -1.973650753498077393e-01 -3.109154403209686279e-01 -8.489505946636199951e-02 -1.931762248277664185e-01 1.133655384182929993e-01 4.228802323341369629e-01 -1.211265176534652710e-01 -2.055705785751342773e-01 1.033456921577453613e-01 -4.291500151157379150e-02
3.779564425349235535e-02 -4.596862941980361938e-02 -2.558369562029838562e-02 -1.819864511489868164e-01 -1.570273488759994507e-01 6.821753922849893570e-04 3.032079041004180908e-01 -3.388777971267700195e-01 -5.971315875649452209e-02 2.308971434831619263e-01 -2.890340685844421387e-01 -8.699623346328735352e-01 3.556870222091674805e-01 1.191984936594963074e-01 -1.739797890186309814e-01 -2.173385471105575562e-01 9.072732925415039062e-02 -3.172113001346588135e-01 -2.912217676639556885e-01 2.513526678085327148e-01 1.521097719669342041e-01 6.298374533653259277e-01 -1.181207895278930664e-01 5.441962480545043945e-01 4.648751616477966309e-01 2.986012697219848633e-01 1.471742391586303711e-01 3.367584645748138428e-01 -2.072232542559504509e-03 5.145971775054931641e-01 -1.614682674407958984e-01
2.502095401287078857e-01 -3.216626048088073730e-01 3.475891426205635071e-03 1.751118749380111694e-01 6.990692764520645142e-02 -1.502216160297393799e-01 -5.367732644081115723e-01 1.919144243001937866e-01 -2.373591363430023193e-01 2.599097974598407745e-02 4.697245731949806213e-02 2.762366533279418945e-01 -2.797676026821136475e-01 7.993914932012557983e-02 7.663845270872116089e-02 -2.429420053958892822e-01 1.313237249851226807e-01 -9.822266176342964172e-03 -4.213129635900259018e-03 -4.517264068126678467e-01 -3.173143863677978516e-01 1.102233305573463440e-01 2.899968624114990234e-01 -5.977852344512939453e-01 1.496742963790893555e-01 -3.487360179424285889e-01 -1.695445626974105835e-01 4.343108534812927246e-01 1.309563815593719482e-01 1.982932835817337036e-01 -1.489113718271255493e-01
4.657455086708068848e-01 3.600808978080749512e-01 4.882599413394927979e-02 -1.306799948215484619e-01 -2.012104168534278870e-02 1.989192664623260498e-01 -1.719711720943450928e-02 4.536914527416229248e-01 1.992145329713821411e-01 -2.357768267393112183e-01 2.605707049369812012e-01 8.247451484203338623e-02 1.544332802295684814e-01 3.080691993236541748e-01 2.709293961524963379e-01 -1.723315715789794922e-01 -3.741866946220397949e-01 3.389611840248107910e-01 2.852176725864410400e-01 5.634264349937438965e-01 3.658789694309234619e-01 -1.630408614873886108e-01 9.548479318618774414e-02 -1.740838438272476196e-01 -2.093329578638076782e-01 -3.526281118392944336e-01 -2.814588546752929688e-01 2.484575659036636353e-02 -1.989195942878723145e-01 -1.884004920721054077e-01 9.566565975546836853e-03
1.594090908765792847e-01 -5.104463100433349609e-01 -6.909959018230438232e-02 -5.753211677074432373e-02 -8.072854578495025635e-02 1.290404051542282104e-01 2.736646533012390137e-01 7.489623874425888062e-02 1.217539682984352112e-01 2.411834895610809326e-01 -1.485766768455505371e-01 1.046206653118133545e-01 7.180891036987304688e-01 -7.282275557518005371e-01 -4.923664033412933350e-01 3.566593229770660400e-01 -4.764360785484313965e-01 -3.263710737228393555e-01 -2.032030075788497925e-01 2.763859927654266357e-01 -2.909332513809204102e-01 -3.389183282852172852e-01 -9.629757702350616455e-02 1.848612725734710693e-01 2.110867202281951904e-01 -6.701009273529052734e-01 -1.496788114309310913e-02 1.949563473463058472e-01 1.038320083171129227e-02 -2.469005584716796875e-01 -3.879319131374359131e-01
3.085193336009979248e-01 -2.360741794109344482e-01 -5.627952814102172852e-01 -1.900923699140548706e-01 -2.831858098506927490e-01 -5.003108382225036621e-01 1.902051866054534912e-01 2.114283293485641479e-02 2.147067487239837646e-01 1.617114245891571045e-01 1.051382869482040405e-01 1.972714215517044067e-01 2.934283204376697540e-02 1.074116155505180359e-01 -2.691947668790817261e-02 1.629422456026077271e-01 -4.306161105632781982e-01 6.743513047695159912e-02 -4.755329340696334839e-02 5.375981796532869339e-03 -1.440737978555262089e-03 -9.756828844547271729e-02 -2.884618639945983887e-01 2.670250236988067627e-01 1.918071880936622620e-02 -3.552407771348953247e-02 5.198237299919128418e-01 1.746824830770492554e-01 -1.890304833650588989e-01 7.514461129903793335e-02 -5.446451902389526367e-01
7.647222876548767090e-01 -1.456857174634933472e-01 -2.636742591857910156e-02 1.879907995462417603e-01 -2.277289927005767822e-01 1.115326583385467529e-02 -4.558130353689193726e-02 4.836368262767791748e-01 1.341288983821868896e-01 2.085629254579544067e-01 4.436471164226531982e-01 8.434162288904190063e-02 1.751693487167358398e-01 3.690489009022712708e-02 5.417014360427856445e-01 -7.823269069194793701e-02 -1.345342397689819336e-01 4.024597406387329102e-01 5.532035827636718750e-01 -3.820347413420677185e-02 1.966264843940734863e-02 -6.222887039184570312e-01 2.143147289752960205e-01 4.649167656898498535e-01 -5.755106806755065918e-01 -7.328521460294723511e-02 -7.628244906663894653e-02 -5.806015133857727051e-01 -6.712083220481872559e-01 -4.277155697345733643e-01 2.513618469238281250e-01
3.086840510368347168e-01 -2.995463907718658447e-01 -5.843991637229919434e-01 -4.539058730006217957e-02 -1.475027650594711304e-01 -3.563798666000366211e-01 -4.408505931496620178e-02 8.420041948556900024e-02 1.393764913082122803e-01 1.026848033070564270e-01 2.273615002632141113e-01 -6.938043981790542603e-02 1.390483230352401733e-01 -2.297853678464889526e-01 -2.895713970065116882e-02 2.989606559276580811e-01 -3.581634461879730225e-01 5.594835430383682251e-02 7.262039929628372192e-02 3.159791231155395508e-02 -1.551944762468338013e-01 -3.182823583483695984e-02 -8.725129067897796631e-03 -1.458999812602996826e-01 -1.152428612112998962e-01 -1.334557235240936279e-01 2.898264527320861816e-01 -6.912134587764739990e-02 3.520057769492268562e-03 2.343077212572097778e-02 2.772453008219599724e-03
3.517096340656280518e-01 4.831187427043914795e-01 1.973143070936203003e-01 -1.253431886434555054e-01 2.105591446161270142e-01 3.114016354084014893e-01 -8.935631066560745239e-02 -3.506713211536407471e-01 8.384617418050765991e-02 6.080273538827896118e-02 3.056493401527404785e-01 -2.539688646793365479e-01 -3.565620630979537964e-02 1.854754984378814697e-01 -9.403447806835174561e-02 -3.395222425460815430e-01 -2.192102372646331787e-01 2.757470607757568359e-01 1.376089304685592651e-01 -1.702468493022024632e-03 -4.316704347729682922e-02 3.235145704820752144e-03 -3.087399527430534363e-02 -6.148844212293624878e-02 2.001520805060863495e-02 -4.164528250694274902e-01 -1.172417178750038147e-01 3.195260465145111084e-01 5.383400321006774902e-01 2.306387722492218018e-01 1.274328380823135376e-01
5.227900147438049316e-01 2.206395864486694336e-01 3.603557646274566650e-01 5.350643992424011230e-01 -7.531473413109779358e-03 1.906944960355758667e-01 3.815489709377288818e-01 1.020792350172996521e-01 4.014599025249481201e-01 -1.053159236907958984e-01 -1.570702493190765381e-01 3.590539395809173584e-01 5.994784832000732422e-02 -2.172898203134536743e-01 -4.374620318412780762e-01 2.074905298650264740e-02 -2.747032940387725830e-01 2.178287655115127563e-01 1.139418780803680420e-01 3.364110887050628662e-01 -1.131233051419258118e-01 4.770728573203086853e-02 5.898176506161689758e-02 -3.368965163826942444e-02 -8.276984095573425293e-02 1.656175404787063599e-01 -4.606518149375915527e-02 -1.218022853136062622e-01 1.225914806127548218e-01 -2.676540613174438477e-01 4.008167237043380737e-02
-1.132680103182792664e-01 -5.624599456787109375e-01 -3.039932548999786377e-01 -1.204250678420066833e-01 -9.203295409679412842e-02 1.738734841346740723e-01 -1.915166713297367096e-02 -4.105522930622100830e-01 3.323160111904144287e-01 -8.754169344902038574e-01 -2.139009982347488403e-01 -9.157536029815673828e-01 -6.576655507087707520e-01 1.779035478830337524e-01 -1.335160457529127598e-03 -1.505170017480850220e-01 2.581514716148376465e-01 3.152170032262802124e-02 3.480561822652816772e-02 6.452102214097976685e-02 1.116270497441291809e-01 -2.332267537713050842e-02 9.580381214618682861e-02 -2.973258197307586670e-01 -1.963726133108139038e-01 8.857228606939315796e-02 -2.561070322990417480e-01 -3.832422196865081787e-01 2.480728477239608765e-01 -5.918462201952934265e-02 3.781455755233764648e-01
3.798865973949432373e-01 9.824693948030471802e-02 -1.798697561025619507e-01 -1.688743084669113159e-01 -1.964864283800125122e-01 -1.515312194824218750e-01 -3.164066374301910400e-02 3.600100874900817871e-01 -1.882553845643997192e-01 1.896825283765792847e-01 6.980648636817932129e-02 -1.623394340276718140e-01 1.271818280220031738e+00 1.501974612474441528e-01 8.935549110174179077e-02 -3.658924400806427002e-01 4.894885718822479248e-01 2.531815469264984131e-01 1.625958830118179321e-01 1.240166872739791870e-01 5.859523415565490723e-01 9.526176750659942627e-02 1.227659266442060471e-02 4.715282618999481201e-01 5.240920186042785645e-01 2.696154452860355377e-02 1.208529435098171234e-02 3.659607172012329102e-01 -1.834808290004730225e-01 1.035365387797355652e-01 -6.616919040679931641e-01
4.167840182781219482e-01 9.109292924404144287e-02 4.186252653598785400e-01 2.495676428079605103e-01 -3.849268425256013870e-03 -8.529227972030639648e-01 3.685329854488372803e-01 -3.819793760776519775e-01 1.160368099808692932e-01 -6.827680766582489014e-02 3.403642177581787109e-01 1.505932807922363281e-01 -1.451507490128278732e-02 -6.008546948432922363e-01 -2.154303044080734253e-01 3.342727720737457275e-01 2.666330896317958832e-02 -1.112233921885490417e-01 1.596903651952743530e-01 2.943104505538940430e-01 -1.063944250345230103e-01 4.322580993175506592e-01 -3.740661442279815674e-01 1.071030497550964355e-01 3.827247768640518188e-03 2.931909561157226562e-01 1.990279704332351685e-01 -9.218817949295043945e-02 1.345883458852767944e-01 -1.322092711925506592e-01 -1.740276068449020386e-02
3.501017577946186066e-03 -4.685722589492797852e-01 9.811319410800933838e-02 5.174108743667602539e-01 2.697751522064208984e-01 -1.004426479339599609e-01 4.837057590484619141e-01 -1.233818769454956055e+00 2.404858171939849854e-01 -2.647591233253479004e-01 -9.498824924230575562e-02 -4.585265517234802246e-01 3.911353945732116699e-01 4.414235427975654602e-02 -1.147112622857093811e-01 -3.373835384845733643e-01 7.206082940101623535e-01 -3.583584912121295929e-03 -3.100995905697345734e-02 3.632143139839172363e-01 5.595764517784118652e-01 -4.093336462974548340e-01 -3.706903457641601562e-01 5.037130117416381836e-01 4.734498262405395508e-01 -1.426999177783727646e-02 -4.990688562393188477e-01 5.048447847366333008e-01 2.506073713302612305e-01 -3.256706595420837402e-01 -6.092723011970520020e-01
4.632393717765808105e-01 8.436776697635650635e-02 3.121573925018310547e-01 6.661697477102279663e-02 -4.009738937020301819e-02 1.705764681100845337e-01 1.511451005935668945e-01 -9.246937185525894165e-02 2.024185806512832642e-01 5.231279134750366211e-01 1.769112050533294678e-01 5.007493495941162109e-01 1.780521124601364136e-01 -4.630981981754302979e-01 -3.196775615215301514e-01 -6.742559075355529785e-01 -4.434104859828948975e-01 -2.468845248222351074e-01 -1.433977335691452026e-01 -5.498156696557998657e-02 -4.156782478094100952e-02 3.851052522659301758e-01 4.555096104741096497e-02 5.207790434360504150e-02 3.993643522262573242e-01 2.798829376697540283e-01 4.211764633655548096e-01 3.401178109925240278e-04 2.632248103618621826e-01 -1.182069182395935059e-01 -3.644271492958068848e-01
5.609378218650817871e-01 -4.747264087200164795e-02 -2.921057343482971191e-01 -7.528539746999740601e-02 -5.885779112577438354e-02 -3.306172788143157959e-02 3.210285007953643799e-01 -2.650375068187713623e-01 -1.005739066749811172e-02 -2.184562981128692627e-01 -4.583535790443420410e-01 2.722460925579071045e-01 3.189114630222320557e-01 2.861457467079162598e-01 -2.791908681392669678e-01 3.419243395328521729e-01 -2.580383718013763428e-01 -2.416053563356399536e-01 -4.144855439662933350e-01 -4.248996451497077942e-02 -1.502172797918319702e-01 2.899690270423889160e-01 9.782288223505020142e-02 3.109919726848602295e-01 6.457455456256866455e-02 3.584589660167694092e-01 -8.069111406803131104e-02 5.491946265101432800e-02 2.194585744291543961e-03 1.205593124032020569e-01 -1.073855385184288025e-01
-3.029217720031738281e-01 -1.026000529527664185e-01 -1.692648380994796753e-01 -2.504152990877628326e-02 1.634331420063972473e-02 3.188389241695404053e-01 7.392420172691345215e-01 -2.539239637553691864e-02 8.635079860687255859e-02 4.714661538600921631e-01 6.143312528729438782e-02 -3.515421412885189056e-03 -1.373323500156402588e-01 2.506444454193115234e-01 -1.490558981895446777e-01 5.818394422531127930e-01 -2.542231678962707520e-01 1.684107035398483276e-01 1.051763221621513367e-01 5.923998951911926270e-01 3.865881264209747314e-01 -2.818281352519989014e-01 -1.023761630058288574e+00 -3.954562544822692871e-01 -5.466266348958015442e-02 -4.807195663452148438e-01 7.201680541038513184e-02 1.976597011089324951e-01 -5.835105776786804199e-01 1.075859218835830688e-01 -2.341922372579574585e-01
2.766232490539550781e-01 -1.275434195995330811e-01 -1.937469094991683960e-01 -1.296832114458084106e-01 -1.046355143189430237e-01 -1.571271777153015137e+00 -1.018396392464637756e-01 9.922375902533531189e-04 -1.152329519391059875e-01 2.165862359106540680e-02 -1.249670907855033875e-01 1.403769850730895996e-01 1.459032595157623291e-01 2.714024484157562256e-01 -4.840838909149169922e-02 2.959943115711212158e-01 -2.314230501651763916e-01 1.964802294969558716e-02 -1.537677943706512451e-01 -1.449695229530334473e-02 -1.329802572727203369e-01 -2.931992113590240479e-01 3.219484165310859680e-02 -1.858336031436920166e-01 -1.846359670162200928e-01 7.684858888387680054e-02 2.663409709930419922e-01 -4.112325143069028854e-03 -3.038689196109771729e-01 -2.906263470649719238e-01 -2.254181541502475739e-02
1.193750351667404175e-01 8.805152773857116699e-02 8.148916959762573242e-01 3.159221410751342773e-01 -2.310193330049514771e-02 1.080803349614143372e-01 3.775765001773834229e-01 3.704513609409332275e-01 2.615375816822052002e-02 5.403278470039367676e-01 -4.137428104877471924e-01 -4.014265909790992737e-02 -5.841404572129249573e-02 -2.887719571590423584e-01 -1.228811517357826233e-01 5.511268600821495056e-02 2.252490073442459106e-01 -2.474823892116546631e-01 -2.493115067481994629e-01 2.240981161594390869e-02 -1.309650298207998276e-02 -2.615888603031635284e-02 -1.247574314475059509e-01 4.582956135272979736e-01 1.621273718774318695e-02 -2.203984558582305908e-01 3.604329526424407959e-01 2.835479974746704102e-01 -5.564337223768234253e-02 -1.841248124837875366e-01 4.071538150310516357e-01
4.028854668140411377e-01 2.683374583721160889e-01 1.247407123446464539e-01 3.320575878024101257e-02 -2.091618031263351440e-01 -3.043261170387268066e-01 1.424774676561355591e-01 -5.325314402580261230e-01 7.650636136531829834e-02 5.523434877395629883e-01 6.262868642807006836e-01 3.222292959690093994e-01 2.310994416475296021e-01 -7.837570272386074066e-03 3.854547068476676941e-02 3.305484950542449951e-01 -5.860919952392578125e-01 -1.478189677000045776e-01 -1.658962368965148926e-01 2.779583930969238281e-01 -1.508532315492630005e-01 -2.258305065333843231e-02 6.452931463718414307e-02 -1.944208145141601562e-01 -2.074234038591384888e-01 1.925382763147354126e-01 3.797816336154937744e-01 -1.904089450836181641e-01 5.491876043379306793e-03 2.180412113666534424e-01 8.466328680515289307e-02
1.349599510431289673e-01 -2.503289580345153809e-01 5.102685093879699707e-01 1.805113255977630615e-01 -2.961280941963195801e-02 2.814055681228637695e-01 2.560969591140747070e-01 -4.256508648395538330e-01 4.233957529067993164e-01 2.148344367742538452e-01 2.668555080890655518e-01 -3.362719118595123291e-01 -5.679978132247924805e-01 2.074494510889053345e-01 8.186342567205429077e-02 1.795711219310760498e-01 5.363054275512695312e-01 5.401768907904624939e-02 2.957193925976753235e-02 -1.909038722515106201e-01 -4.294726997613906860e-02 1.344845592975616455e-01 -1.473721303045749664e-02 3.473610877990722656e-01 1.221342161297798157e-01 -1.703037470579147339e-01 9.104067459702491760e-03 -4.240660667419433594e-01 6.231618523597717285e-01 3.467544615268707275e-01 -1.274812966585159302e-01
2.671682834625244141e-01 -2.066788375377655029e-01 -6.038985848426818848e-01 2.568507790565490723e-01 -4.496000111103057861e-01 -7.643919438123703003e-02 2.147620171308517456e-01 2.739593386650085449e-01 1.585885882377624512e-01 4.223621189594268799e-01 -6.325752288103103638e-02 4.018458425998687744e-01 -5.387626290321350098e-01 1.775544434785842896e-01 -3.205410437658429146e-03 1.961154043674468994e-01 -2.878466844558715820e-01 9.559231251478195190e-02 1.916496083140373230e-02 -1.506896764039993286e-01 -4.731937125325202942e-02 -2.648437023162841797e-01 -6.339893341064453125e-01 -4.018130004405975342e-01 -2.571841478347778320e-01 9.121903218328952789e-03 4.457514882087707520e-01 -4.986318200826644897e-02 -1.724876910448074341e-01 -1.949212700128555298e-01 4.086486622691154480e-02
8.020545542240142822e-02 -3.055352270603179932e-01 1.152146100997924805e+00 3.783115148544311523e-01 3.251553773880004883e-01 1.647093147039413452e-01 -2.949360609054565430e-01 1.186859682202339172e-01 2.398735284805297852e-01 -3.413399457931518555e-01 -1.090799421072006226e-01 -2.161198854446411133e-01 -2.109451889991760254e-01 -1.561425179243087769e-01 4.165183007717132568e-02 -1.731386184692382812e-01 6.754464507102966309e-01 4.874809179455041885e-03 6.954468786716461182e-02 -9.213261306285858154e-02 -1.653852686285972595e-02 1.704970747232437134e-01 6.280341148376464844e-01 -9.657040238380432129e-02 1.721116006374359131e-01 -1.343859285116195679e-01 -7.491175830364227295e-02 2.660995423793792725e-01 8.175390213727951050e-02 2.259434610605239868e-01 -5.321385264396667480e-01
5.328646898269653320e-01 6.114557012915611267e-02 8.672991394996643066e-01 5.849289298057556152e-01 1.116770654916763306e-01 6.742084622383117676e-01 2.395374141633510590e-02 -1.343512386083602905e-01 1.785811781883239746e-01 -2.892919480800628662e-01 -1.183004677295684814e-01 1.162625923752784729e-01 -4.383853375911712646e-01 -1.032352149486541748e-01 -6.876184791326522827e-02 -1.057413592934608459e-01 -1.352346222847700119e-02 -2.268708311021327972e-02 -1.286555975675582886e-01 8.830347657203674316e-02 -1.408886462450027466e-01 1.235652565956115723e-01 8.105142973363399506e-03 -3.767048195004463196e-02 3.680630326271057129e-01 5.395212024450302124e-02 -9.127846360206604004e-02 2.245542705059051514e-01 1.907222718000411987e-01 -1.982227712869644165e-01 1.710309237241744995e-01
-2.171615511178970337e-01 3.214958906173706055e-01 1.258281767368316650e-01 1.525877863168716431e-01 5.617256090044975281e-02 1.805169731378555298e-01 1.157632619142532349e-01 -2.168337404727935791e-01 1.844979636371135712e-02 2.470702677965164185e-02 -1.532714366912841797e-01 -2.472180277109146118e-01 -3.603369295597076416e-01 2.475647479295730591e-01 1.979741640388965607e-02 4.464308619499206543e-01 -8.280507475137710571e-02 -2.197837829589843750e-01 -2.591150701045989990e-01 2.181931734085083008e-01 -1.049719452857971191e-01 -3.969809412956237793e-01 -1.661695390939712524e-01 -2.313891351222991943e-01 -3.185975849628448486e-01 2.537252008914947510e-01 -1.545702219009399414e-01 2.749802768230438232e-01 2.839155197143554688e-01 -3.742845356464385986e-01 1.599404960870742798e-01
3.233176469802856445e-01 -5.720327496528625488e-01 8.704949170351028442e-02 2.024934887886047363e-01 8.073809742927551270e-02 1.567167043685913086e-01 1.099106147885322571e-01 -3.857943713665008545e-01 7.572617381811141968e-02 5.930821597576141357e-02 -3.542046621441841125e-02 1.028472259640693665e-01 2.097372263669967651e-01 1.547299772500991821e-01 -1.547039747238159180e-01 3.789801150560379028e-02 2.921966314315795898e-01 -3.353862836956977844e-02 -1.199578791856765747e-01 -1.400070190429687500e-01 -1.639061421155929565e-02 3.503823876380920410e-01 -1.446025520563125610e-01 -1.352432817220687866e-01 3.786202371120452881e-01 2.822154574096202850e-02 -3.169467151165008545e-01 -5.005738511681556702e-02 7.222357392311096191e-01 2.942452132701873779e-01 -9.302578121423721313e-02
4.157125949859619141e-01 -2.572353780269622803e-01 -1.317896097898483276e-01 -9.565404057502746582e-02 -3.158460259437561035e-01 1.716541945934295654e-01 9.420814365148544312e-02 -5.741515755653381348e-02 -2.887852787971496582e-01 2.447954863309860229e-01 2.364431172609329224e-01 2.936511673033237457e-02 8.791726082563400269e-02 -1.249268501996994019e-01 1.018784269690513611e-01 8.989790827035903931e-02 -1.853894144296646118e-01 -6.289445608854293823e-02 4.810915514826774597e-02 5.220296233892440796e-02 5.475370585918426514e-02 2.755577303469181061e-02 -6.504816561937332153e-02 1.256791502237319946e-01 4.659618437290191650e-01 -5.179966986179351807e-02 1.339759379625320435e-01 2.531173527240753174e-01 -2.830150770023465157e-03 -5.374529212713241577e-02 -3.673783540725708008e-01
7.107637077569961548e-02 4.036686122417449951e-01 -1.816253662109375000e-01 -1.656477600336074829e-01 5.185718648135662079e-03 -2.031474858522415161e-01 1.670401096343994141e-01 1.396103501319885254e-01 3.223558068275451660e-01 5.901631116867065430e-01 5.799425840377807617e-01 3.829811513423919678e-02 1.850543022155761719e-01 -3.599480986595153809e-01 2.438828200101852417e-01 6.172290444374084473e-01 -2.673753201961517334e-01 1.735442578792572021e-01 1.763210892677307129e-01 5.085104703903198242e-01 2.458210140466690063e-01 -1.751182228326797485e-01 2.473612576723098755e-01 3.739859759807586670e-01 -1.411813795566558838e-01 1.406866461038589478e-01 6.665665507316589355e-01 4.453062266111373901e-02 -6.527925729751586914e-01 -5.756490826606750488e-01 3.362145423889160156e-01
5.668247342109680176e-01 -4.112869799137115479e-01 -3.128775954246520996e-01 -2.353608757257461548e-01 -1.364392936229705811e-01 -3.303075134754180908e-01 -1.511443704366683960e-01 -1.658924482762813568e-02 -3.903061747550964355e-01 -1.701224148273468018e-01 1.788169145584106445e-01 -3.181008696556091309e-01 5.465831160545349121e-01 -3.614929616451263428e-01 3.009129166603088379e-01 7.007627189159393311e-02 1.037851497530937195e-01 1.099988073110580444e-01 2.397574931383132935e-01 1.761571019887924194e-01 4.682497307658195496e-02 -4.406663775444030762e-02 2.623521089553833008e-01 8.962641656398773193e-02 -1.529493778944015503e-01 -2.889167964458465576e-01 1.483138352632522583e-01 -8.785933256149291992e-02 -1.072919294238090515e-01 3.017713129520416260e-01 -1.100968662649393082e-02
-3.269334789365530014e-03 -1.843387484550476074e-01 -1.104484647512435913e-01 5.851535871624946594e-02 -3.496573120355606079e-02 -4.836574494838714600e-01 -2.132289707660675049e-01 -1.202533021569252014e-01 5.747906491160392761e-02 1.764729619026184082e-01 -1.131651252508163452e-01 1.985289901494979858e-01 -4.663042128086090088e-01 2.348350882530212402e-01 -2.209308147430419922e-01 -1.153516024351119995e-02 -1.947493404150009155e-01 -1.707133948802947998e-01 -2.105448246002197266e-01 1.257292646914720535e-02 -1.554667204618453979e-01 -2.231343537569046021e-01 -3.032729960978031158e-02 -4.167584776878356934e-01 -3.097248971462249756e-01 4.291324317455291748e-01 4.370996356010437012e-01 3.152449498884379864e-04 3.277595387771725655e-03 -3.130301535129547119e-01 4.083805680274963379e-01
-1.572735011577606201e-01 8.796514593996107578e-04 -1.364714652299880981e-01 -5.670929700136184692e-02 8.480709046125411987e-02 -3.300940096378326416e-01 -1.603340208530426025e-01 5.396051406860351562e-01 3.225015709176659584e-03 3.749584555625915527e-01 4.714103341102600098e-01 -3.641534447669982910e-01 -9.459241479635238647e-02 -3.032409772276878357e-02 1.239755228161811829e-01 -1.804319918155670166e-01 1.866538375616073608e-01 7.407522946596145630e-02 5.156539008021354675e-02 -5.565885454416275024e-02 1.696412414312362671e-01 -4.952597618103027344e-01 3.941482603549957275e-01 6.676638126373291016e-01 -5.429554581642150879e-01 -8.866273611783981323e-02 7.782980054616928101e-02 -1.412310749292373657e-01 3.608826100826263428e-01 -2.117455005645751953e-01 5.564371347427368164e-01
4.104704260826110840e-01 4.728607088327407837e-02 -2.942708134651184082e-01 -3.810595273971557617e-01 -5.057855248451232910e-01 -3.125130012631416321e-02 8.914951235055923462e-02 1.502692848443984985e-01 -2.793242931365966797e-01 3.881984949111938477e-02 -2.902875542640686035e-01 1.015686094760894775e-01 1.115693897008895874e-01 -3.608598709106445312e-01 -1.337009072303771973e-01 2.160711139440536499e-01 1.473205238580703735e-01 -2.524143457412719727e-01 -2.220405638217926025e-01 3.903223872184753418e-01 3.750537931919097900e-01 -4.471961557865142822e-01 5.959462746977806091e-02 1.473938822746276855e-01 7.649314403533935547e-02 -1.559869349002838135e-01 2.317875772714614868e-01 2.526436746120452881e-01 2.510382235050201416e-01 -4.893926382064819336e-01 1.475227531045675278e-02
-2.048730552196502686e-01 5.541580319404602051e-01 1.854115128517150879e-01 -1.300346255302429199e-01 -2.873184978961944580e-01 7.239727675914764404e-02 2.281817197799682617e-01 4.931162893772125244e-01 -7.478342950344085693e-02 -5.172530561685562134e-02 -5.273501276969909668e-01 -7.322236895561218262e-01 2.146437615156173706e-01 -3.605053126811981201e-01 -2.321851253509521484e-01 -7.147866487503051758e-02 5.939147621393203735e-02 -5.491769313812255859e-02 -1.249529346823692322e-01 3.094208836555480957e-01 1.413261145353317261e-01 -1.658202856779098511e-01 1.060932397842407227e+00 8.102647662162780762e-01 -3.742783665657043457e-01 -6.016015633940696716e-02 -6.729766726493835449e-02 1.016023680567741394e-01 1.999674588441848755e-01 1.314437985420227051e-01 -9.816610813140869141e-02
2.458126693964004517e-01 8.126580715179443359e-02 8.204392790794372559e-01 6.171542406082153320e-01 5.797598958015441895e-01 5.618333443999290466e-02 8.290533721446990967e-02 -1.851278096437454224e-01 1.457500457763671875e-01 -1.108056828379631042e-01 4.251528903841972351e-02 -1.688063591718673706e-01 4.087259173393249512e-01 -3.548873364925384521e-01 -1.073867380619049072e-01 -2.657865881919860840e-01 5.568037275224924088e-03 -1.249889582395553589e-01 -7.630783319473266602e-02 1.448830515146255493e-01 2.814708352088928223e-01 -1.518409699201583862e-01 -2.809904515743255615e-01 -3.557903692126274109e-02 9.012275189161300659e-02 -3.624036610126495361e-01 -5.787186622619628906e-01 5.802924558520317078e-02 8.871926367282867432e-02 -1.633150577545166016e-01 -2.283232361078262329e-01
3.154857456684112549e-01 -3.598395586013793945e-01 -3.450561165809631348e-01 5.642734840512275696e-02 2.569577991962432861e-01 3.635863065719604492e-01 1.692755967378616333e-01 9.176004678010940552e-02 5.510004982352256775e-02 3.067165799438953400e-02 -4.316060841083526611e-01 4.041618853807449341e-02 -4.579432308673858643e-01 6.785999238491058350e-02 -5.725446343421936035e-02 -1.613782346248626709e-01 1.896740635856986046e-03 -1.158077791333198547e-01 -3.820182010531425476e-02 -8.619446307420730591e-02 -4.676688835024833679e-02 1.569164097309112549e-01 -4.223992526531219482e-01 -2.520552575588226318e-01 -4.220022857189178467e-01 1.799071729183197021e-01 -1.002037003636360168e-01 -4.432920217514038086e-01 -3.911154568195343018e-01 8.147524297237396240e-02 3.452214598655700684e-01
2.074632793664932251e-01 1.299837082624435425e-01 2.179558426141738892e-01 1.833366751670837402e-01 1.000814661383628845e-01 -2.974489033222198486e-01 3.453256785869598389e-01 -6.217672824859619141e-01 1.620407104492187500e-01 -6.543655414134263992e-03 -7.477226108312606812e-02 -4.515324831008911133e-01 3.224416077136993408e-01 2.887673974037170410e-01 4.302617013454437256e-01 -5.311402678489685059e-01 -5.602132678031921387e-01 1.730981022119522095e-01 2.068917453289031982e-01 -1.887193471193313599e-01 2.752139046788215637e-02 -1.476177573204040527e-01 -1.242684051394462585e-01 2.250046879053115845e-01 -2.293495237827301025e-01 4.217115044593811035e-01 -3.178173005580902100e-01 -2.310758084058761597e-01 3.813446685671806335e-02 3.852086663246154785e-01 -4.516158103942871094e-01
7.457186281681060791e-02 -5.432420372962951660e-01 -4.286439716815948486e-01 -5.932125076651573181e-02 -1.666735261678695679e-01 -3.594869375228881836e-02 -4.026235640048980713e-02 1.949776262044906616e-01 6.824851036071777344e-02 -5.830984711647033691e-01 -5.189226865768432617e-01 -7.229796797037124634e-02 1.289962232112884521e-01 9.974722564220428467e-02 -1.264470368623733521e-01 -2.281127423048019409e-01 3.889274895191192627e-01 1.493405699729919434e-01 2.723788283765316010e-02 -6.092344224452972412e-02 1.668836772441864014e-01 -1.801844872534275055e-02 5.544045008718967438e-03 2.287007868289947510e-01 -6.178913637995719910e-02 -4.788061976432800293e-02 2.345505915582180023e-02 -5.574068054556846619e-02 -2.434380650520324707e-01 -1.405968219041824341e-01 -1.051153391599655151e-01
1.849150657653808594e-01 -6.189582347869873047e-01 2.168012708425521851e-01 5.665032863616943359e-01 5.522746443748474121e-01 9.226578474044799805e-01 2.132152616977691650e-01 8.615162968635559082e-02 -6.160385534167289734e-02 -5.352647900581359863e-01 -7.822323590517044067e-02 -2.936823666095733643e-01 2.873730361461639404e-01 -2.971427440643310547e-01 -2.067981064319610596e-01 -4.492504298686981201e-01 1.017621383070945740e-01 -1.792252212762832642e-01 -3.744916245341300964e-02 -1.373268663883209229e-01 5.167768336832523346e-03 2.237080782651901245e-01 -2.192447632551193237e-01 4.708618819713592529e-01 -7.205685973167419434e-02 -3.230047523975372314e-01 -5.068799257278442383e-01 -2.716103568673133850e-03 4.788965284824371338e-01 3.165130615234375000e-01 -1.026999428868293762e-01
-6.111003160476684570e-01 4.403069615364074707e-01 -2.286951494170352817e-04 3.531813248991966248e-02 -2.057211995124816895e-01 -9.878844618797302246e-01 4.091916233301162720e-02 2.795999050140380859e-01 1.953971087932586670e-01 1.062752678990364075e-01 2.445920407772064209e-01 -6.422264501452445984e-03 -1.754315942525863647e-01 1.740222051739692688e-02 -2.098814398050308228e-01 2.311011850833892822e-01 -1.919135302305221558e-01 -3.077809214591979980e-01 -3.149091005325317383e-01 -2.318809553980827332e-02 -6.304484605789184570e-02 -5.423474311828613281e-01 4.526490345597267151e-02 1.308203041553497314e-01 -2.724388539791107178e-01 5.070604011416435242e-02 5.343834683299064636e-02 -2.859892137348651886e-02 -1.594427675008773804e-01 -5.791614055633544922e-01 2.615795433521270752e-01
4.109291732311248779e-02 -1.184968277812004089e-02 2.401503920555114746e-01 2.387710809707641602e-01 1.280606836080551147e-01 -3.501512110233306885e-01 5.158336088061332703e-02 1.722781211137771606e-01 5.640686750411987305e-01 1.004986912012100220e-01 3.085550367832183838e-01 -1.519560515880584717e-01 2.417136132717132568e-01 -1.590046435594558716e-01 3.075433075428009033e-01 1.950391829013824463e-01 -2.298555672168731689e-01 1.473829597234725952e-01 2.233836054801940918e-01 3.663871586322784424e-01 3.218398392200469971e-01 1.099000349640846252e-01 -6.546796113252639771e-02 2.623704671859741211e-01 -5.483389496803283691e-01 -2.880493104457855225e-01 -5.928125977516174316e-01 -3.787180781364440918e-01 -2.012600600719451904e-01 5.576946139335632324e-01 1.266221255064010620e-01
3.371334969997406006e-01 3.107658922672271729e-01 9.444563090801239014e-02 7.650440186262130737e-02 1.838942617177963257e-01 6.331987380981445312e-01 2.322493493556976318e-02 -5.164968222379684448e-02 -1.634957939386367798e-01 2.220546007156372070e-01 -6.555124372243881226e-02 3.910305798053741455e-01 -1.825409233570098877e-01 2.874259054660797119e-01 5.311438068747520447e-02 5.069299414753913879e-02 -4.851070344448089600e-01 5.821522325277328491e-02 5.846684426069259644e-02 -4.570968151092529297e-01 -4.961543083190917969e-01 -3.994511663913726807e-01 1.994458436965942383e-01 6.136922165751457214e-02 5.136393308639526367e-01 -4.982571303844451904e-01 3.117018640041351318e-01 3.590675294399261475e-01 6.550604850053787231e-02 -2.832466065883636475e-01 -5.244361162185668945e-01
2.376510202884674072e-01 9.492042660713195801e-02 1.979150474071502686e-01 9.481563419103622437e-02 -1.157560721039772034e-01 2.718378044664859772e-02 -2.567991018295288086e-01 -1.084442734718322754e-01 -3.769965469837188721e-02 -2.641972601413726807e-01 -3.850097581744194031e-02 -5.952125191688537598e-01 2.856515645980834961e-01 -4.284305274486541748e-01 3.067803680896759033e-01 1.132902950048446655e-01 5.995027422904968262e-01 1.933033615350723267e-01 4.212068319320678711e-01 5.958385467529296875e-01 6.163796782493591309e-01 -1.557958079501986504e-03 6.113467216491699219e-01 3.467183113098144531e-01 2.026059925556182861e-01 -8.693630695343017578e-01 -4.775084182620048523e-02 2.066260427236557007e-01 5.543624162673950195e-01 5.920316576957702637e-01 -4.371880888938903809e-01
3.566003441810607910e-01 3.303725719451904297e-01 -9.670202434062957764e-02 -1.235901191830635071e-01 -7.440306246280670166e-02 -7.449191063642501831e-03 2.589291930198669434e-01 -9.189006686210632324e-02 -1.103308126330375671e-01 4.785644263029098511e-02 3.473498523235321045e-01 9.448356926441192627e-02 1.529158353805541992e-01 -2.867404222488403320e-01 -5.887676775455474854e-02 6.163210272789001465e-01 -3.150439858436584473e-01 -2.997175790369510651e-02 1.720090955495834351e-01 5.806247591972351074e-01 1.373829394578933716e-01 -3.944054245948791504e-01 -3.805674314498901367e-01 -2.799704903736710548e-03 -4.763138592243194580e-01 -3.011638820171356201e-01 1.542882770299911499e-01 1.968353427946567535e-02 4.322618246078491211e-03 1.311443001031875610e-01 1.427530031651258469e-02
5.442041158676147461e-01 -4.447785019874572754e-01 -1.058589369058609009e-01 -1.501159369945526123e-01 -1.187495235353708267e-02 -1.114370226860046387e+00 -1.728368401527404785e-01 -7.762888073921203613e-02 -5.497801303863525391e-01 4.219897985458374023e-01 1.651723831892013550e-01 2.879888713359832764e-01 6.237276792526245117e-01 -9.897130727767944336e-02 -3.066070377826690674e-02 4.140718281269073486e-01 3.383782878518104553e-02 -3.267243131995201111e-02 1.010411325842142105e-02 -9.575166553258895874e-02 -1.345779597759246826e-01 -1.392479389905929565e-01 4.009495377540588379e-01 6.654777377843856812e-02 2.598790526390075684e-01 1.087753847241401672e-01 7.502275109291076660e-01 2.438774406909942627e-01 -1.920187473297119141e-01 7.232118397951126099e-02 -9.573633968830108643e-02
7.540022134780883789e-01 3.613303974270820618e-02 -2.418032437562942505e-01 2.975535690784454346e-01 3.934744000434875488e-02 4.241823256015777588e-01 1.030395627021789551e-01 4.607074894011020660e-03 2.665035128593444824e-01 1.015273258090019226e-01 1.277824044227600098e-01 1.261204630136489868e-01 1.411657631397247314e-01 -2.104850411415100098e-01 -1.654410362243652344e-01 -1.445450168102979660e-02 -7.557949423789978027e-02 -2.626700103282928467e-01 -2.539167702198028564e-01 1.695877462625503540e-01 3.788763657212257385e-02 1.333825886249542236e-01 1.818197816610336304e-01 1.491111069917678833e-01 -5.137184858322143555e-01 1.112147867679595947e-01 2.167270928621292114e-01 -1.492123603820800781e-01 -6.176893040537834167e-02 2.518042027950286865e-01 3.680111765861511230e-01
-8.381422609090805054e-02 -1.218093037605285645e-01 5.084397792816162109e-01 5.843784213066101074e-01 4.003998041152954102e-01 -1.323961168527603149e-01 -4.255577921867370605e-01 3.453107476234436035e-01 4.110549986362457275e-01 -8.160574734210968018e-02 6.942039728164672852e-02 -2.145842760801315308e-01 -5.435119196772575378e-02 2.085613012313842773e-01 3.150021731853485107e-01 -3.141938447952270508e-01 2.383857779204845428e-02 1.394474059343338013e-01 2.524170279502868652e-01 -3.272682428359985352e-02 1.636591106653213501e-01 -1.910712011158466339e-02 2.336077541112899780e-01 -2.051905393600463867e-01 -2.466007471084594727e-01 9.932740777730941772e-02 -4.659129381179809570e-01 -1.475059241056442261e-01 -1.069176793098449707e-01 -2.209268510341644287e-01 3.158362805843353271e-01
-1.638722978532314301e-02 4.153999388217926025e-01 7.852274179458618164e-01 5.931994318962097168e-01 2.587156891822814941e-01 -2.884939685463905334e-02 -2.102922834455966949e-02 -1.624286621809005737e-01 -9.940595179796218872e-02 -1.261247396469116211e-01 2.194346487522125244e-02 -2.298983931541442871e-01 -3.884011879563331604e-02 7.518278807401657104e-02 -3.488910496234893799e-01 -1.953312009572982788e-01 5.879947543144226074e-01 -2.753582084551453590e-03 -1.075018271803855896e-01 -1.553986817598342896e-01 1.281444728374481201e-01 -1.176735460758209229e-01 1.754744797945022583e-01 1.390203982591629028e-01 8.625537157058715820e-02 1.772926747798919678e-01 -3.481046259403228760e-01 -2.679740777239203453e-03 -2.524237036705017090e-01 -3.235691189765930176e-01 -6.882317364215850830e-02
3.471724987030029297e-01 8.404380828142166138e-02 2.188386023044586182e-01 2.463016360998153687e-01 3.515839576721191406e-01 -1.255085617303848267e-01 1.658560037612915039e-01 2.998746931552886963e-01 -4.077125787734985352e-01 -3.159318268299102783e-01 -7.212099432945251465e-01 3.480037674307823181e-02 1.080773830413818359e+00 -3.244754076004028320e-01 -3.918501436710357666e-01 1.563385874032974243e-01 6.923518180847167969e-01 -4.898767173290252686e-01 -3.959077000617980957e-01 4.245203435420989990e-01 7.214825749397277832e-01 -5.083573609590530396e-02 3.326309844851493835e-02 3.056206554174423218e-02 1.384558081626892090e-01 -3.501929044723510742e-01 -3.771650195121765137e-01 4.519980847835540771e-01 4.526098072528839111e-01 8.473065495491027832e-02 -2.135242521762847900e-01
4.084651470184326172e-01 -4.250501841306686401e-02 1.928589917952194810e-04 -6.227636244148015976e-03 3.525135666131973267e-02 7.721172571182250977e-01 -1.508729904890060425e-01 -5.325918793678283691e-01 1.567869335412979126e-01 2.185829542577266693e-02 3.066131174564361572e-01 1.000445783138275146e-01 -2.916193008422851562e-01 -7.285320013761520386e-02 5.948947742581367493e-02 -2.202981896698474884e-02 2.896584868431091309e-01 9.752881526947021484e-02 8.277472108602523804e-02 -1.616160422563552856e-01 -2.034003287553787231e-01 -8.338125795125961304e-02 -4.066275805234909058e-02 1.415936052799224854e-01 -9.323582053184509277e-02 -5.105636268854141235e-02 -1.364618986845016479e-01 -2.411364018917083740e-01 -1.973058134317398071e-01 -1.862989813089370728e-01 3.322794139385223389e-01
4.912868440151214600e-01 4.050600528717041016e-01 3.204970061779022217e-02 5.360151529312133789e-01 2.421261817216873169e-01 2.166607649996876717e-03 -3.775872588157653809e-01 1.807564944028854370e-01 -1.039804965257644653e-01 1.375166028738021851e-01 9.716821834444999695e-03 1.114620417356491089e-01 4.377206787467002869e-02 6.836249679327011108e-02 1.798984259366989136e-01 -1.663088798522949219e-01 -2.224778383970260620e-01 2.628543414175510406e-02 1.015444472432136536e-01 -2.485089004039764404e-01 -1.902927160263061523e-01 1.264011412858963013e-01 2.748797237873077393e-01 -1.039703860878944397e-01 2.080558687448501587e-01 -7.849097996950149536e-02 6.696571409702301025e-02 2.010283172130584717e-01 -4.346458241343498230e-02 1.984662860631942749e-01 -1.207976862788200378e-01
1.746003329753875732e-01 1.382452696561813354e-01 4.905142784118652344e-01 6.687990427017211914e-01 5.562880039215087891e-01 2.643207311630249023e-01 -2.918928861618041992e-03 -1.659182459115982056e-01 -6.704527884721755981e-03 -1.743173003196716309e-01 -1.854392737150192261e-01 -4.240499064326286316e-02 2.332132309675216675e-01 2.712166011333465576e-01 -2.685897648334503174e-01 -4.103763401508331299e-01 3.445697128772735596e-01 7.244326174259185791e-02 -1.972895860671997070e-01 -2.945961356163024902e-01 -2.201735042035579681e-03 1.063531562685966492e-01 1.116938665509223938e-01 3.294124901294708252e-01 2.799140512943267822e-01 -9.849180281162261963e-02 -9.603691846132278442e-02 2.980898618698120117e-01 3.444564342498779297e-01 2.383893281221389771e-01 -2.453611940145492554e-01
7.911300659179687500e-01 4.763380810618400574e-02 2.260749787092208862e-01 9.632498025894165039e-02 2.345192134380340576e-01 2.455267459154129028e-01 -1.894078552722930908e-01 -3.758831918239593506e-01 -9.344361722469329834e-02 8.410061709582805634e-03 -5.482760816812515259e-02 1.632596254348754883e-01 1.862080842256546021e-01 1.185527630150318146e-02 -1.327210366725921631e-01 1.745167672634124756e-01 -2.515197694301605225e-01 -1.672860682010650635e-01 -1.145777776837348938e-01 1.172720119357109070e-01 5.524300411343574524e-02 -9.643077105283737183e-02 -3.288343548774719238e-01 -8.335866332054138184e-01 -5.693768858909606934e-01 2.117687314748764038e-01 -2.108157128095626831e-01 8.049783110618591309e-02 1.384760737419128418e-01 1.282733231782913208e-01 3.545645475387573242e-01
3.168600201606750488e-01 -1.604194939136505127e-01 -2.283961325883865356e-02 1.728596389293670654e-01 1.252344902604818344e-02 1.039186865091323853e-02 -3.924191743135452271e-02 1.399277597665786743e-01 -1.514397412538528442e-01 -8.686575293540954590e-02 1.105384081602096558e-01 2.709217136725783348e-03 -6.259401794523000717e-03 -1.479573249816894531e-01 3.927676379680633545e-02 -5.668892990797758102e-03 5.129237193614244461e-03 -1.118743568658828735e-01 1.164574269205331802e-02 3.963194042444229126e-02 -2.050802707672119141e-01 1.358206151053309441e-03 6.548093259334564209e-02 1.493871808052062988e-01 -6.055926904082298279e-02 -1.369463950395584106e-01 7.187048345804214478e-02 7.013055030256509781e-03 1.201284453272819519e-01 -1.189706400036811829e-01 1.637498736381530762e-01
