2.274647355079650879e-01 -2.238593399524688721e-01 8.193906396627426147e-03 -2.188163809478282928e-02 1.891653612256050110e-02 9.229175746440887451e-02 1.701734610833227634e-03 3.824914693832397461e-01 -1.331443316303193569e-03 -2.037887424230575562e-01 3.344823140650987625e-03 -2.574444562196731567e-02 8.241235464811325073e-02 3.794374465942382812e-01 -3.648381680250167847e-03 -4.052067399024963379e-01 -1.387531280517578125e+00 6.454956019297242165e-04 -1.316393852233886719e+00 9.963537752628326416e-02 -9.823163272812962532e-04 8.387795090675354004e-02 4.948301357217133045e-04 -1.651637554168701172e-01 -8.300580978393554688e-01 2.080202335491776466e-03 1.163782477378845215e+00 4.441600143909454346e-01 -9.048907458782196045e-02 -5.558268749155104160e-04 -1.143597718328237534e-02 1.192713499069213867e+00 1.253538299351930618e-02 1.311270147562026978e-01 -3.027324378490447998e-01 -2.890477189794182777e-03 -2.099622972309589386e-03 6.605238467454910278e-02 -6.293132156133651733e-02 -7.415863871574401855e-01 2.356866151094436646e-01 7.648620605468750000e-01 -8.001877926290035248e-03 -3.449968993663787842e-03 -2.893101191148161888e-03 5.850007291883230209e-03 -1.055749416351318359e+00 -2.509822137653827667e-03 9.884424209594726562e-01 6.853562593460083008e-02 -1.446211826987564564e-03 -1.832745224237442017e-01 5.185390710830688477e-01 1.400585286319255829e-03 -8.652918934822082520e-01 -3.092337865382432938e-03 -1.052408590912818909e-01 1.311189413070678711e+00 4.301439225673675537e-02 1.480520004406571388e-03 3.832643851637840271e-03 -1.869532046839594841e-03 -1.725994825363159180e+00 6.350624561309814453e-01 -2.989646978676319122e-02 -1.116783395409584045e-01 7.107086479663848877e-02 2.438920885324478149e-01 -1.269635558128356934e-01 5.225944519042968750e-01 -8.402835130691528320e-01 7.706612944602966309e-01 -2.921251812949776649e-03 1.037589550018310547e+00 -7.393506821244955063e-04 4.143678545951843262e-01 4.458274692296981812e-02 -5.845389962196350098e-01 -4.129626322537660599e-03 -2.524292469024658203e-02 4.508522339165210724e-03 -5.204742029309272766e-02 -1.383307203650474548e-02 2.950594527646899223e-03 7.127542048692703247e-03 6.611886899918317795e-03 1.072098016738891602e-01 -1.005267143249511719e+00 1.312452912330627441e+00 -1.738257557153701782e-01 -2.353667281568050385e-02 2.924719825387001038e-03 3.006619866937398911e-03 -9.646719694137573242e-01 3.330438339617103338e-04 2.775035984814167023e-02 1.269244705326855183e-03 1.127968076616525650e-02 1.452507422072812915e-04 4.346907604485750198e-03 1.181569248437881470e-01 5.900902748107910156e-01 -2.437245333567261696e-03 -6.016328930854797363e-03 2.084046602249145508e-01 1.581278513185679913e-03 1.479220092296600342e-01 2.019493142142891884e-03 8.608635067939758301e-01 -1.986270397901535034e-01 -4.627919793128967285e-01 -5.772939324378967285e-01 5.936980247497558594e-01 -4.100815951824188232e-01 -6.165028735995292664e-02 5.240101218223571777e-01 6.911492347717285156e-02 -5.895406939089298248e-03 9.736703708767890930e-03 -3.288044333457946777e-01 -6.173226516693830490e-03 -1.085755694657564163e-02 1.528763212263584137e-03 1.556759327650070190e-02 2.840907275676727295e-01 1.283230036497116089e-01 3.647403500508517027e-04 -6.136176735162734985e-02 1.036093086004257202e-01 7.817501202225685120e-03 -4.371172934770584106e-02 1.891717256512492895e-04 5.853055417537689209e-02 -1.836376381106674671e-03 -1.109689846634864807e-01 -3.434499204158782959e-01 2.741418313235044479e-03 -2.087431726977229118e-03 3.839100003242492676e-01 -4.675553441047668457e-01 2.009281888604164124e-03 -9.087264537811279297e-02 7.803178429603576660e-01 3.661021401057951152e-05 -4.874882753938436508e-03 1.843134989030659199e-03 -2.469927631318569183e-02 8.717263936996459961e-01 3.331500105559825897e-03 -3.641443094238638878e-03 -4.847019736189395189e-04 -1.478476566262543201e-03 -6.186125278472900391e-01 1.059932261705398560e-02 -3.206104272976517677e-03 3.220581412315368652e-01 8.526719757355749607e-04 1.358452796936035156e+00 -1.215331535786390305e-02 5.467185974121093750e-01 -1.003956079483032227e+00 1.812158226966857910e-01 -3.208509087562561035e-01 8.478037714958190918e-01 -8.018715307116508484e-03 2.293230406939983368e-02 -1.299574732780456543e+00 4.039001762866973877e-01 -6.317980587482452393e-03 1.602053791284561157e-01 -1.808063685894012451e-02 -8.424656093120574951e-02 -5.722988862544298172e-03 -1.930609717965126038e-02 4.557077288627624512e-01 -1.553631387650966644e-03 -3.840163815766572952e-03 5.830718278884887695e-01 2.271750941872596741e-02 6.267641782760620117e-01 5.385572314262390137e-01 -3.183408407494425774e-03 -3.228787183761596680e-01 7.806905079632997513e-03 2.748385071754455566e-01 -3.696201369166374207e-03 5.494103431701660156e-01 3.772868216037750244e-01 -3.153657019138336182e-01 -1.020036935806274414e+00 -2.709867954254150391e-01 -7.580790519714355469e-01 2.836453542113304138e-02 -2.299069985747337341e-02 -3.479435145854949951e-01 -1.969858258962631226e-01 3.775098025798797607e-01 3.068572282791137695e-02 1.008813858032226562e+00 1.314679160714149475e-03 -3.497477853670716286e-03 -5.365619063377380371e-01 -1.315806712955236435e-02 5.978718400001525879e-01 3.334480226039886475e-01 -1.977223204448819160e-03 -3.731093108654022217e-01 1.743191480636596680e-01 -8.648451766930520535e-04 -1.302715778350830078e+00 -7.389837503433227539e-01 -4.587713163346052170e-03 2.494959086179733276e-01 7.838449440896511078e-03 9.124591946601867676e-03 4.639173392206430435e-03 -1.552523695863783360e-03 1.449758857488632202e-01 2.742944955825805664e-01 -1.155521392822265625e+00 2.806706354022026062e-02 9.630667977035045624e-03 -6.310163007583469152e-05 2.616611719131469727e-01 3.102595452219247818e-03 -1.105865687131881714e-01 5.165921524167060852e-03 -4.682546481490135193e-02 -4.009276926517486572e-01 -1.960898995399475098e+00 6.296370644122362137e-03 8.366769179701805115e-03 -2.705342136323451996e-03 -3.063172567635774612e-03 -3.355033695697784424e-01 -4.553184658288955688e-02 -4.805369675159454346e-01 4.973377883434295654e-01 4.360114336013793945e-01 -3.531513735651969910e-03 1.961605623364448547e-03 -1.354348845779895782e-02 -5.238445997238159180e-01 -5.794973671436309814e-02 -5.936834812164306641e-01 1.704461686313152313e-02 1.866977103054523468e-02 -4.539090692996978760e-01 4.306085109710693359e-01 -2.246851101517677307e-02 7.622706890106201172e-01 -1.122251618653535843e-03 1.385879367589950562e-01 2.368719130754470825e-01 2.727284329012036324e-03 4.922586083412170410e-01
