9.470421075820922852e-02
-4.053911268711090088e-01
-2.746803164482116699e-01
-5.483248084783554077e-02
-2.204249799251556396e-01
9.073631465435028076e-02
-5.699271708726882935e-02
-2.992655336856842041e-01
4.832911118865013123e-02
-1.024604141712188721e-01
-4.197696447372436523e-01
-3.600265383720397949e-01
-4.798243045806884766e-01
7.204506546258926392e-02
3.486677110195159912e-01
1.015483811497688293e-01
-3.278675675392150879e-01
3.526080548763275146e-01
-4.935828968882560730e-02
-3.481770157814025879e-01
-2.303659170866012573e-01
-2.232013046741485596e-01
1.448474377393722534e-01
-3.740409314632415771e-01
-1.721212863922119141e-01
-7.210260629653930664e-02
-4.212808907032012939e-01
-3.074766993522644043e-01
-4.366764426231384277e-01
-4.112005233764648438e-02
-4.639087617397308350e-01
-3.787542283535003662e-01
-2.264677882194519043e-01
-2.091078460216522217e-01
-3.673051595687866211e-01
-1.918834745883941650e-01
2.109028995037078857e-01
-3.492594957351684570e-01
-3.497898876667022705e-01
-4.089578092098236084e-01
-1.799441426992416382e-01
-4.546128809452056885e-01
-1.645032167434692383e-01
-3.790165996178984642e-03
-1.580464243888854980e-01
-3.315686285495758057e-01
-2.416438460350036621e-01
-3.525910973548889160e-01
-3.830244839191436768e-01
-3.790555298328399658e-01
-1.010474637150764465e-01
-2.676050066947937012e-01
-6.054746508598327637e-01
-5.368959158658981323e-02
-4.714166522026062012e-01
-7.985059171915054321e-02
-2.180583029985427856e-01
-5.336694717407226562e-01
-2.565351426601409912e-01
-4.401673749089241028e-02
-1.803328692913055420e-01
-2.734078094363212585e-02
-1.035756394267082214e-01
-2.933237254619598389e-01
-9.759096056222915649e-02
-1.688006669282913208e-01
-4.365405440330505371e-01
-4.594150781631469727e-01
-1.569242179393768311e-01
-2.693509459495544434e-01
-3.570422828197479248e-01
-8.381806313991546631e-02
-1.176564842462539673e-01
-2.448464483022689819e-01
-9.569875895977020264e-03
-4.670703411102294922e-01
-6.788486242294311523e-02
1.379655022174119949e-02
-3.539702296257019043e-01
-5.723115522414445877e-03
-6.514906883239746094e-02
-3.573518395423889160e-01
-5.738683789968490601e-02
5.131180882453918457e-01
-1.371407061815261841e-01
1.325701475143432617e-01
2.798270247876644135e-02
-2.930182218551635742e-01
-3.783333674073219299e-02
-4.205900430679321289e-01
-1.968737095594406128e-01
-1.761793345212936401e-02
-2.557271420955657959e-01
-3.651344478130340576e-01
-9.411182999610900879e-02
-6.214528083801269531e-01
-4.034577310085296631e-01
-2.405268549919128418e-01
-4.294629395008087158e-01
-9.864529222249984741e-02
1.371139734983444214e-01
9.742845594882965088e-02
3.175284862518310547e-01
-1.771996468305587769e-01
-2.309024035930633545e-01
-2.996810376644134521e-01
-4.444728195667266846e-01
5.971294362097978592e-03
-3.640670776367187500e-01
-8.713229000568389893e-02
-2.978289723396301270e-01
-3.438170552253723145e-01
5.447904020547866821e-02
-2.063958495855331421e-01
-2.335851937532424927e-01
-3.589976727962493896e-01
-1.087019890546798706e-01
-8.795846253633499146e-02
-4.426827132701873779e-01
-3.576148152351379395e-01
-1.624293625354766846e-01
-3.079131245613098145e-01
-8.677434921264648438e-02
3.774350881576538086e-02
-9.995943307876586914e-02
-1.518404632806777954e-01
-1.171402409672737122e-01
-1.174520794302225113e-02
-4.352756217122077942e-02
-1.966853439807891846e-01
-1.524522751569747925e-01
8.405857533216476440e-02
-2.912291288375854492e-01
-3.597865402698516846e-01
-6.847628206014633179e-02
-5.431228876113891602e-02
-3.340860903263092041e-01
-1.032210960984230042e-01
-2.586806118488311768e-01
-1.448986977338790894e-01
5.834317579865455627e-02
-1.970319151878356934e-01
-1.919121891260147095e-01
-1.420853137969970703e-01
6.546009797602891922e-03
-2.307771444320678711e-01
-1.805654913187026978e-01
-3.014564216136932373e-01
-1.489069461822509766e-01
1.028527617454528809e-01
-3.175600767135620117e-01
-4.801297485828399658e-01
2.555838227272033691e-02
9.447807818651199341e-02
-3.644826114177703857e-01
-4.827935397624969482e-01
-3.518909513950347900e-01
-4.479086697101593018e-01
4.465776681900024414e-02
-2.115650773048400879e-01
-3.157742023468017578e-01
-1.869942396879196167e-01
-3.537349402904510498e-01
-2.596912086009979248e-01
2.700105607509613037e-01
-4.323307797312736511e-02
-1.456332802772521973e-01
-1.927981972694396973e-01
-1.118640303611755371e-01
-3.588152229785919189e-01
-3.563221916556358337e-02
-2.498699277639389038e-01
-9.374275803565979004e-02
-2.271696478128433228e-01
-4.005156457424163818e-01
-4.469195604324340820e-01
-1.004638820886611938e-01
-3.037124574184417725e-01
4.035279899835586548e-02
-5.417636036872863770e-01
-4.264890402555465698e-02
-1.523511164123192430e-04
-2.400806546211242676e-01
-8.362661302089691162e-02
-1.730807125568389893e-01
-1.669449657201766968e-01
-2.635319530963897705e-01
-3.303484022617340088e-01
-2.586395144462585449e-01
-4.122458696365356445e-01
-4.162544608116149902e-01
-2.805670797824859619e-01
1.326303184032440186e-01
7.782063633203506470e-02
-4.656642973423004150e-01
-8.824105560779571533e-02
8.569314330816268921e-02
6.324008852243423462e-02
-2.068695276975631714e-01
-2.360800355672836304e-01
-2.655389010906219482e-01
-3.037272989749908447e-01
-1.130167543888092041e-01
-3.747402131557464600e-01
-1.923014223575592041e-01
-2.472417354583740234e-01
-4.407615363597869873e-01
-3.935795724391937256e-01
-1.408704221248626709e-01
-3.572343289852142334e-01
-4.640043973922729492e-01
4.839390143752098083e-02
-3.954572975635528564e-01
1.098891571164131165e-01
2.917621731758117676e-01
-1.471384614706039429e-01
-7.072156667709350586e-02
-2.499873638153076172e-01
-3.245452642440795898e-01
-2.186751067638397217e-01
5.932810716331005096e-03
-2.259561419486999512e-01
-2.177385240793228149e-01
-9.739363193511962891e-02
-3.031261265277862549e-01
-3.670101463794708252e-01
-1.748295724391937256e-01
-2.577328383922576904e-01
-3.483521938323974609e-01
-3.206959366798400879e-01
-3.498344719409942627e-01
-4.747496545314788818e-01
-3.951824009418487549e-01
-1.388251185417175293e-01
-4.297888278961181641e-01
-3.366470634937286377e-01
-3.107360005378723145e-01
-1.941093429923057556e-02
9.845372289419174194e-02
-2.461294531822204590e-01
1.850101724267005920e-02
-2.149293720722198486e-01
-4.103571772575378418e-01
-3.489897847175598145e-01
-1.133206263184547424e-01
-1.777988970279693604e-01
-2.957580089569091797e-01
-2.843605875968933105e-01
-3.488146960735321045e-01
-3.664733171463012695e-01
-3.666447401046752930e-01
8.712024241685867310e-02
-1.586865633726119995e-01
-2.755586206912994385e-01
-1.826311051845550537e-01
-2.621489167213439941e-01
7.476342469453811646e-02
-2.758054137229919434e-01
-1.404646486043930054e-01
1.459661722183227539e-01
-1.749460399150848389e-02
1.853200346231460571e-01
1.133699864149093628e-01
-4.102354049682617188e-01
-1.775068640708923340e-01
-5.211210846900939941e-01
8.645684272050857544e-02
5.783155560493469238e-02
-2.608983814716339111e-01
9.443549439311027527e-03
6.203747987747192383e-01
-3.063460625708103180e-02
-2.240510433912277222e-01
3.624772131443023682e-01
-1.985945403575897217e-01
-1.123816967010498047e-01
-4.893314559012651443e-03
1.413041949272155762e-01
1.954725682735443115e-01
-4.552956819534301758e-01
-3.690714240074157715e-01
-2.139337211847305298e-01
-5.611628293991088867e-01
-4.510346949100494385e-01
-3.533844649791717529e-01
1.095887646079063416e-02
-1.083356328308582306e-02
-9.959619492292404175e-03
-3.363543376326560974e-02
2.305276989936828613e-01
-1.276207119226455688e-01
-1.159635037183761597e-01
-3.103919699788093567e-02
-3.898895680904388428e-01
-5.959476530551910400e-02
-2.183524668216705322e-01
-1.739724539220333099e-02
-2.716047763824462891e-01
2.424456924200057983e-02
3.334904313087463379e-01
1.686080843210220337e-01
-1.656048446893692017e-01
-3.875884711742401123e-01
1.639486253261566162e-01
-5.620524287223815918e-01
5.085466057062149048e-02
1.380579918622970581e-01
-3.848812878131866455e-01
-3.697441816329956055e-01
8.142545819282531738e-02
-4.608701467514038086e-01
2.194892466068267822e-01
-2.084163874387741089e-01
-8.070186376571655273e-01
1.845691800117492676e-01
-8.480339497327804565e-02
2.812906540930271149e-02
3.339545056223869324e-02
9.482917934656143188e-02
-1.207540743052959442e-02
4.006804432719945908e-03
-4.979139566421508789e-02
-1.895208954811096191e-01
-2.219942808151245117e-01
-2.644508183002471924e-01
-1.149858999997377396e-02
-5.073738098144531250e-01
1.433731913566589355e-01
-4.243036732077598572e-02
-9.575050473213195801e-01
-2.371542900800704956e-02
-6.911313533782958984e-01
-2.626627087593078613e-01
8.203767985105514526e-02
1.769804954528808594e-01
4.490540921688079834e-02
1.465205699205398560e-01
2.867384627461433411e-02
-4.541334137320518494e-02
2.071801871061325073e-01
6.851488351821899414e-02
-1.173239871859550476e-01
-5.252811126410961151e-03
-8.961509466171264648e-01
-1.647680997848510742e-01
-4.077551960945129395e-01
-4.623117446899414062e-01
1.130372956395149231e-01
1.630938239395618439e-02
-3.215260207653045654e-01
-3.300972282886505127e-01
-6.584189087152481079e-02
3.176693618297576904e-02
1.979492604732513428e-01
2.378213405609130859e-01
3.420690000057220459e-01
7.404982298612594604e-02
2.304936945438385010e-01
3.751005232334136963e-01
-4.691065475344657898e-02
-1.048430353403091431e-01
1.276462525129318237e-01
-2.368517220020294189e-01
-3.418860211968421936e-02
-3.542549014091491699e-01
2.131926417350769043e-01
-1.982523351907730103e-01
-2.138250321149826050e-01
-1.063121948391199112e-02
-3.198861181735992432e-01
-2.319441437721252441e-01
-4.541869759559631348e-01
1.623218208551406860e-01
-2.634287774562835693e-01
-9.973778575658798218e-02
2.071468830108642578e-01
-4.742525145411491394e-02
-3.793230056762695312e-01
2.698890678584575653e-02
-1.192156299948692322e-01
-1.262768059968948364e-01
-3.844320476055145264e-01
-1.082780137658119202e-01
-6.545381620526313782e-04
1.288260817527770996e-01
1.914578676223754883e-01
-9.016970545053482056e-02
1.618664562702178955e-01
-1.163588240742683411e-01
1.610317230224609375e-01
-1.373987942934036255e-01
9.029771387577056885e-02
-2.352742701768875122e-01
1.750723086297512054e-02
-2.228812873363494873e-01
-2.378226965665817261e-01
6.540811154991388321e-04
-2.771710455417633057e-01
-4.762966930866241455e-01
1.590668857097625732e-01
-2.243196219205856323e-01
8.392629027366638184e-02
6.587618030607700348e-03
-2.681100368499755859e-01
-1.038028374314308167e-01
-1.298350282013416290e-03
2.057811245322227478e-02
2.324219094589352608e-03
-9.352704137563705444e-02
1.358499079942703247e-01
1.182735040783882141e-01
-3.711749613285064697e-01
-6.600029021501541138e-02
-4.451872706413269043e-01
-3.692326322197914124e-02
9.400250762701034546e-02
-4.407085776329040527e-01
-1.277680546045303345e-01
6.174068152904510498e-02
-2.193676680326461792e-01
-2.197220548987388611e-02
9.198760986328125000e-02
-2.398087084293365479e-01
-1.042899191379547119e-01
4.588931798934936523e-02
-3.666891157627105713e-01
2.298215776681900024e-01
-1.688063889741897583e-01
1.956336349248886108e-01
2.509496640413999557e-03
-3.533056676387786865e-01
-1.908534765243530273e-01
7.551348768174648285e-03
-7.979394793510437012e-01
8.055582642555236816e-02
-3.554878234863281250e-01
-3.890142962336540222e-02
1.979038417339324951e-01
-2.656594514846801758e-01
7.926953583955764771e-02
-2.393868118524551392e-01
2.635029554367065430e-01
-2.486865818500518799e-01
-1.726743131875991821e-01
7.583015412092208862e-02
-5.662350058555603027e-01
-1.903948485851287842e-01
-4.632306396961212158e-01
1.515143066644668579e-01
3.405183553695678711e-02
-1.728620827198028564e-01
1.351861655712127686e-01
2.785232067108154297e-01
1.255788505077362061e-01
-5.690445899963378906e-01
4.958868399262428284e-02
3.686509095132350922e-03
-2.020464539527893066e-01
-6.375620514154434204e-02
-5.196788907051086426e-01
-5.170473456382751465e-01
4.388191923499107361e-02
-4.459194839000701904e-01
-6.517572700977325439e-02
-2.461670935153961182e-01
-5.876064896583557129e-01
-4.041667580604553223e-01
2.182027697563171387e-01
-4.210937917232513428e-01
-3.012682124972343445e-02
2.400938123464584351e-01
-6.478902697563171387e-02
-2.611972764134407043e-02
-4.037600457668304443e-01
-1.726707369089126587e-01
-1.425471454858779907e-01
1.747100800275802612e-02
5.164916068315505981e-02
-1.919021159410476685e-01
-3.185712993144989014e-01
-7.968717068433761597e-02
-3.132683336734771729e-01
5.185546353459358215e-02
-6.371095776557922363e-02
-4.228955507278442383e-01
-4.002986848354339600e-01
-5.317737907171249390e-02
-1.050924062728881836e-01
9.427309036254882812e-03
-6.575029343366622925e-02
-3.547047078609466553e-01
2.461978346109390259e-01
-5.850952267646789551e-01
-2.164203673601150513e-01
-2.594677805900573730e-01
-3.363927304744720459e-01
-4.876701235771179199e-01
-3.224200308322906494e-01
-1.891134530305862427e-01
1.349807083606719971e-01
-2.276187837123870850e-01
7.995761930942535400e-02
-1.992509067058563232e-01
2.235526684671640396e-03
-4.436946511268615723e-01
-1.694059371948242188e-02
-4.154160916805267334e-01
4.765956848859786987e-02
1.905405335128307343e-02
-4.415548443794250488e-01
-8.302445523440837860e-03
9.248530864715576172e-02
2.536947429180145264e-01
-3.157486915588378906e-01
-7.939873635768890381e-02
-1.936335563659667969e-01
3.747772872447967529e-01
4.983285069465637207e-01
-2.905261218547821045e-01
8.465795964002609253e-02
-8.180472999811172485e-02
-8.033139258623123169e-02
2.382903359830379486e-02
5.106273666024208069e-02
1.808353066444396973e-01
3.236012160778045654e-02
4.522752761840820312e-01
-4.683007597923278809e-01
-1.950297057628631592e-01
-4.806450009346008301e-01
-1.952127665281295776e-01
1.748505532741546631e-01
-5.171332135796546936e-02
3.267602324485778809e-01
-3.027490973472595215e-01
-2.285089902579784393e-02
1.575072668492794037e-02
1.190130226314067841e-02
-7.904551923274993896e-03
-3.498682007193565369e-02
-2.276079729199409485e-02
2.474910169839859009e-01
1.817353963851928711e-01
-3.013814985752105713e-02
3.351873159408569336e-02
9.932195395231246948e-02
7.827065885066986084e-03
1.381426006555557251e-01
2.303711026906967163e-01
-3.526316583156585693e-02
-6.776527315378189087e-02
-2.205606997013092041e-01
4.463287293910980225e-01
-6.095641106367111206e-02
-1.825635433197021484e-01
2.650123238563537598e-01
-5.649465322494506836e-02
1.040138769894838333e-02
2.876253565773367882e-03
4.650942981243133545e-02
6.622355431318283081e-02
2.124661393463611603e-02
2.562865316867828369e-01
-3.018074929714202881e-01
-1.544305235147476196e-01
-1.564580351114273071e-01
6.383839994668960571e-02
2.716965973377227783e-01
-2.451857030391693115e-01
5.939920991659164429e-02
-3.140405938029289246e-02
-3.215743303298950195e-01
-1.799483746290206909e-01
1.436480730772018433e-01
-3.213795125484466553e-01
6.347069889307022095e-02
1.486892718821763992e-02
-3.017340898513793945e-01
4.338512197136878967e-02
1.998336017131805420e-01
-1.766197383403778076e-01
7.912785746157169342e-03
-1.758067682385444641e-02
1.801889240741729736e-01
-7.830434292554855347e-02
4.866316914558410645e-01
3.885538578033447266e-01
6.411436796188354492e-01
1.002737879753112793e-01
-2.805555164813995361e-01
-1.986064463853836060e-01
-3.530034422874450684e-01
3.989857733249664307e-01
-1.986462771892547607e-01
-2.684288024902343750e-01
-4.908731281757354736e-01
2.583148181438446045e-01
2.197934240102767944e-01
1.794500350952148438e-01
-3.701125085353851318e-01
-7.266974449157714844e-02
-5.485747754573822021e-02
-3.887237906455993652e-01
-3.201436698436737061e-01
-2.044422775506973267e-01
7.107882760465145111e-03
7.497656345367431641e-02
-2.560175061225891113e-01
-1.567733734846115112e-01
3.128513991832733154e-01
1.103807017207145691e-01
-1.382282078266143799e-01
1.426530033349990845e-01
2.795670628547668457e-01
3.988334536552429199e-01
-1.828883588314056396e-01
1.278465837240219116e-01
-3.063724935054779053e-01
2.665722668170928955e-01
-1.657950431108474731e-01
5.813819169998168945e-02
-3.128271102905273438e-01
-1.101530790328979492e-01
-2.237733006477355957e-01
8.152332156896591187e-02
-1.991016268730163574e-01
-8.406689763069152832e-02
5.245671048760414124e-02
3.673747181892395020e-01
-4.263737425208091736e-02
2.529232501983642578e-01
-1.025307253003120422e-01
-2.543542683124542236e-01
-1.409407146275043488e-02
-3.302789991721510887e-03
2.732555754482746124e-02
6.876617670059204102e-02
5.723785758018493652e-01
-4.354324936866760254e-01
-9.580168873071670532e-02
3.517022728919982910e-01
1.285685896873474121e-01
-7.519637793302536011e-02
4.624645709991455078e-01
1.074569672346115112e-01
-8.948795497417449951e-02
-1.162196546792984009e-01
-1.902683824300765991e-01
-1.412107348442077637e-01
-1.849525570869445801e-01
2.729105949401855469e-01
-1.103639304637908936e-01
-2.186128199100494385e-01
-8.515569567680358887e-02
3.561543524265289307e-01
-1.116281449794769287e-01
9.442882239818572998e-02
-9.830183535814285278e-02
-2.160416543483734131e-01
1.512183547019958496e-01
-3.301116824150085449e-02
2.528698183596134186e-02
-5.040734633803367615e-02
5.377844721078872681e-02
-4.934272468090057373e-01
-2.081961482763290405e-01
1.299784425646066666e-02
1.070160139352083206e-02
5.483737215399742126e-02
-3.120222315192222595e-02
-2.150029540061950684e-01
3.420785367488861084e-01
-4.268715530633926392e-02
1.279392093420028687e-01
-2.619334161281585693e-01
1.691850870847702026e-01
-3.015093803405761719e-01
3.873697221279144287e-01
-1.542191952466964722e-01
1.793920844793319702e-01
-3.245745599269866943e-01
-2.385531784966588020e-03
-3.582491576671600342e-01
-1.675156690180301666e-02
7.327833771705627441e-02
-4.366045072674751282e-02
6.130691990256309509e-02
-2.201322913169860840e-01
5.742896795272827148e-01
5.859557390213012695e-01
5.440056324005126953e-01
2.371407859027385712e-02
1.930939853191375732e-01
1.882620304822921753e-01
-1.996976137161254883e-01
-5.280870199203491211e-01
1.572652608156204224e-01
2.289830595254898071e-01
2.432164847850799561e-01
2.637248039245605469e-01
-2.214764207601547241e-01
1.686308383941650391e-01
-1.242705658078193665e-01
-1.206021383404731750e-01
4.125409424304962158e-01
-4.600052833557128906e-01
3.090958483517169952e-02
-1.260239779949188232e-01
2.354435622692108154e-01
3.676982223987579346e-01
3.306726217269897461e-01
-8.758758753538131714e-02
7.662931084632873535e-02
-1.524233818054199219e-01
-8.569731563329696655e-02
-1.989827118813991547e-02
2.183141410350799561e-01
1.345297843217849731e-01
-5.824256315827369690e-02
8.530632592737674713e-03
3.307116925716400146e-01
8.178223669528961182e-02
1.290397346019744873e-01
-2.980775833129882812e-01
-2.129790186882019043e-02
-2.458011656999588013e-01
-3.396087884902954102e-01
2.497658729553222656e-01
-4.082958772778511047e-02
4.757921397686004639e-02
3.429297804832458496e-01
-1.590254902839660645e-01
1.538177132606506348e-01
7.567059248685836792e-02
2.013079375028610229e-01
1.418794319033622742e-02
9.550371021032333374e-02
-1.365403234958648682e-01
1.674856394529342651e-01
-3.308267593383789062e-01
-1.294595301151275635e-01
-4.209594801068305969e-02
-1.540897935628890991e-01
-1.772420555353164673e-01
1.287471204996109009e-01
2.447149530053138733e-02
-5.056507512927055359e-02
-1.997964680194854736e-01
-3.443192318081855774e-02
2.741487324237823486e-02
1.232158392667770386e-01
1.440220177173614502e-01
4.527821540832519531e-01
-6.606866419315338135e-02
3.147466480731964111e-02
-2.902808599174022675e-02
-3.051773458719253540e-02
3.211825489997863770e-01
1.742466837167739868e-01
-2.974053919315338135e-01
-2.885483205318450928e-02
-4.331605508923530579e-03
-7.981017231941223145e-02
3.819389939308166504e-01
1.594639867544174194e-01
-1.068115830421447754e-01
-1.537201460450887680e-03
2.576052844524383545e-01
-4.619767367839813232e-01
-1.621618419885635376e-01
-5.700991153717041016e-01
-3.477781116962432861e-01
2.043334208428859711e-02
-3.010001480579376221e-01
8.287137001752853394e-02
-1.669359393417835236e-02
1.032471433281898499e-01
1.071393489837646484e-01
-2.304477691650390625e-01
-4.544003605842590332e-01
-3.453110158443450928e-01
-4.681722819805145264e-01
-3.775907158851623535e-01
-3.359690010547637939e-01
-4.059085845947265625e-01
3.105095624923706055e-01
-5.266271829605102539e-01
-4.628417193889617920e-01
-3.729773759841918945e-01
-1.213356554508209229e-01
1.190400123596191406e-01
-1.854360997676849365e-01
-2.691304683685302734e-01
-2.586622163653373718e-02
-4.038529992103576660e-01
-2.204397916793823242e-01
-9.958462417125701904e-02
1.716513037681579590e-01
2.170259654521942139e-01
-6.272831559181213379e-01
-2.900320589542388916e-01
-5.197623968124389648e-01
-6.769288778305053711e-01
-1.592486500740051270e-01
1.894688308238983154e-01
-1.861183047294616699e-01
-4.961804747581481934e-01
-5.673463940620422363e-01
-4.389247894287109375e-01
-1.855115592479705811e-01
-2.474729567766189575e-01
-4.825156629085540771e-01
2.988373860716819763e-02
-3.947471976280212402e-01
-3.633041977882385254e-01
1.741288602352142334e-01
-2.817500531673431396e-01
-4.326260983943939209e-01
-8.333335071802139282e-02
-1.427433937788009644e-01
-5.460633337497711182e-02
-3.794801831245422363e-01
-4.756983518600463867e-01
1.063610389828681946e-01
-2.231686562299728394e-01
-3.274495005607604980e-01
-4.887732863426208496e-01
-2.476179897785186768e-01
-5.333795547485351562e-01
-2.441981583833694458e-01
-7.142051458358764648e-01
-5.184664130210876465e-01
-4.355299770832061768e-01
-4.514241516590118408e-01
-2.787755429744720459e-01
-4.214145541191101074e-01
-2.240108251571655273e-01
-6.801224946975708008e-01
-2.236807495355606079e-01
-6.493840217590332031e-01
-4.078141152858734131e-01
-5.734016895294189453e-01
2.595721781253814697e-01
-5.711385235190391541e-02
-3.780618309974670410e-01
-7.098729014396667480e-01
-5.405341461300849915e-02
-6.461594253778457642e-02
-2.659203857183456421e-02
-2.687554061412811279e-01
-1.018743142485618591e-01
2.009233459830284119e-02
7.666711509227752686e-02
-9.628351032733917236e-02
-5.938476324081420898e-01
-2.930404841899871826e-01
-8.327545523643493652e-01
-2.364508658647537231e-01
1.191537976264953613e-01
6.587550044059753418e-02
-1.019481196999549866e-01
-7.200807929039001465e-01
-1.512683779001235962e-01
1.666218601167201996e-02
-5.889097601175308228e-02
2.556127309799194336e-01
3.282061517238616943e-01
2.002702467143535614e-02
-4.094866514205932617e-01
-6.797326803207397461e-01
-5.822931602597236633e-02
-2.963148057460784912e-02
-5.545081496238708496e-01
2.003184258937835693e-01
-3.019451498985290527e-01
-1.604392528533935547e-01
-3.073629736900329590e-01
-4.830748736858367920e-01
-6.898375749588012695e-01
-5.134091377258300781e-01
-5.297529101371765137e-01
-5.522062778472900391e-01
-5.759059786796569824e-01
-2.551462054252624512e-01
-3.244810402393341064e-01
-2.268505096435546875e-01
-3.541429936885833740e-01
-4.903466701507568359e-01
1.352289468050003052e-01
-1.797119230031967163e-01
-3.258483707904815674e-01
-4.251686930656433105e-01
-5.872606039047241211e-01
-7.752874493598937988e-02
3.143438696861267090e-01
-3.976905345916748047e-01
-2.996538281440734863e-01
-4.101040586829185486e-02
-2.712767720222473145e-01
-1.478813868016004562e-02
-3.932286202907562256e-01
9.406990557909011841e-02
-5.978468656539916992e-01
-8.194923400878906250e-01
-1.176025941967964172e-01
-6.570589542388916016e-02
-6.618056893348693848e-01
-1.470529586076736450e-01
-1.160241737961769104e-01
-3.692452907562255859e-01
-5.683366060256958008e-01
-2.630095779895782471e-01
-2.728630602359771729e-01
1.423157155513763428e-01
-3.851908147335052490e-01
-5.932327508926391602e-01
-3.839871883392333984e-01
-3.745693564414978027e-01
-1.549485772848129272e-01
-3.333144783973693848e-01
-5.241377353668212891e-01
-5.114233493804931641e-01
-7.710066437721252441e-02
-4.440529942512512207e-01
-1.063233017921447754e-01
-6.846579313278198242e-01
-7.500860095024108887e-02
-7.549384236335754395e-01
-3.431336283683776855e-01
-6.522730588912963867e-01
-5.693133473396301270e-01
-4.899675250053405762e-01
-1.719110757112503052e-01
-5.770990997552871704e-02
-6.817405223846435547e-01
-5.733280777931213379e-01
-2.530394494533538818e-01
-2.324581742286682129e-01
-3.417238965630531311e-02
-3.225944042205810547e-01
-4.060017764568328857e-01
-2.205928862094879150e-01
-5.696804523468017578e-01
-2.784971892833709717e-01
-3.684257864952087402e-01
6.776505615562200546e-03
-1.379290223121643066e-01
-2.441301643848419189e-01
-5.994288325309753418e-01
-4.341779276728630066e-02
-3.685775399208068848e-01
-2.020153254270553589e-01
-4.405697584152221680e-01
-1.339151114225387573e-01
-4.697670638561248779e-01
-2.108881175518035889e-01
-5.305436253547668457e-01
-3.293664157390594482e-01
-3.751301169395446777e-01
-3.109259605407714844e-01
-1.433712840080261230e-01
7.193445414304733276e-02
-4.796602129936218262e-01
-5.214048624038696289e-01
-4.003055393695831299e-01
-3.044737502932548523e-02
-2.797610163688659668e-01
-1.204260364174842834e-01
-4.585776031017303467e-01
-5.358669757843017578e-01
-2.042901962995529175e-01
-2.502390146255493164e-01
-4.895070791244506836e-01
-1.636329144239425659e-01
-3.052985370159149170e-01
-5.108188390731811523e-01
4.034804180264472961e-02
-2.822010517120361328e-01
-3.359403461217880249e-02
7.454422116279602051e-02
-2.097645774483680725e-02
-2.442691475152969360e-01
-2.435077428817749023e-01
-2.177073359489440918e-01
4.078245759010314941e-01
-2.488086819648742676e-01
-3.924507498741149902e-01
-6.185297966003417969e-01
-1.261665374040603638e-01
-2.962744534015655518e-01
-1.420968472957611084e-01
-6.008341312408447266e-01
-6.292985379695892334e-02
-2.616768181324005127e-01
-6.664801388978958130e-02
-6.422556936740875244e-02
-2.570883035659790039e-01
-4.662925302982330322e-01
-2.188733220100402832e-01
-1.976325958967208862e-01
-8.383612334728240967e-02
-2.247316986322402954e-01
-4.262155294418334961e-01
-2.723118364810943604e-01
-1.117516160011291504e-01
-6.554040312767028809e-01
-5.952051281929016113e-01
-3.051975667476654053e-01
6.573899835348129272e-02
6.093280762434005737e-02
-1.090053617954254150e-01
-5.186188817024230957e-01
-7.484436631202697754e-01
4.029819741845130920e-02
-1.256208419799804688e-01
-6.970165967941284180e-01
-2.789654433727264404e-01
-3.332005143165588379e-01
-2.078241407871246338e-01
-2.763528525829315186e-01
-6.199503540992736816e-01
-6.288135051727294922e-02
-4.947754740715026855e-01
-7.577040195465087891e-01
