-4.952492713928222656e-01
-4.867942929267883301e-01
5.021054148674011230e-01
-2.771502733230590820e-01
-2.541778087615966797e-01
-1.364857703447341919e-01
3.491532802581787109e-02
-3.734926581382751465e-01
3.839318454265594482e-01
-2.158694416284561157e-01
-1.167677417397499084e-01
-9.771931916475296021e-03
-2.669403553009033203e-01
-3.710430264472961426e-01
-1.548252105712890625e-01
-3.674115836620330811e-01
-1.072065308690071106e-01
-3.085425496101379395e-01
-5.033459886908531189e-02
1.151254698634147644e-01
1.003881469368934631e-01
8.284791372716426849e-03
3.609634935855865479e-02
-5.814598128199577332e-02
-2.231821864843368530e-01
-2.501983046531677246e-01
-4.540123343467712402e-01
2.009554579854011536e-02
-3.668378591537475586e-01
-2.575546205043792725e-01
-2.273160219192504883e-01
-1.430856585502624512e-01
-3.373854160308837891e-01
-6.088734790682792664e-02
4.516665637493133545e-01
-5.910297855734825134e-02
-1.012642532587051392e-01
-4.326986670494079590e-01
-1.869131624698638916e-01
-1.315447408705949783e-02
-4.365548491477966309e-01
-2.685432434082031250e-01
3.195421397686004639e-01
-3.740337491035461426e-01
-3.703876137733459473e-01
6.009094789624214172e-02
-3.681547641754150391e-01
-2.424427270889282227e-01
-4.701478183269500732e-01
-1.296337246894836426e-01
-4.027849435806274414e-01
-4.307325482368469238e-01
-2.206272184848785400e-01
-3.743901848793029785e-01
7.928829640150070190e-02
3.257465735077857971e-02
-7.600121945142745972e-02
-3.014789819717407227e-01
-3.351317644119262695e-01
-8.854190818965435028e-03
6.995636224746704102e-02
-2.603610455989837646e-01
-2.864877283573150635e-01
-3.426642715930938721e-01
3.875331208109855652e-02
-3.181743621826171875e-01
-9.181170165538787842e-02
-2.651233971118927002e-01
-2.662441432476043701e-01
-2.606385648250579834e-01
-3.607542514801025391e-01
-4.185753166675567627e-01
-3.106622695922851562e-01
-4.368473887443542480e-01
-4.872768521308898926e-01
-3.064472973346710205e-01
-3.854443132877349854e-01
-3.660857975482940674e-01
-8.795863389968872070e-02
-2.387324571609497070e-01
-1.136975828558206558e-02
-5.464907735586166382e-02
7.037080824375152588e-02
-3.381651341915130615e-01
-3.776981830596923828e-01
-2.947187721729278564e-01
-1.062076389789581299e-01
-3.836377263069152832e-01
-1.019283756613731384e-01
-2.550072968006134033e-01
-6.586771458387374878e-02
-8.859537541866302490e-02
-2.633363902568817139e-01
4.501189291477203369e-01
-4.206159412860870361e-01
-2.934012413024902344e-01
-2.056307941675186157e-01
-3.633643984794616699e-01
-2.055706381797790527e-01
-4.169919192790985107e-01
-1.852871179580688477e-01
2.398664653301239014e-01
-2.423141300678253174e-01
-1.630024164915084839e-01
6.103950366377830505e-02
-1.918461024761199951e-01
-3.476417958736419678e-01
-3.197111785411834717e-01
-2.441315352916717529e-01
-2.637136578559875488e-01
1.259303241968154907e-01
3.886497318744659424e-01
-3.694148734211921692e-02
-1.232871562242507935e-01
-2.357234656810760498e-01
-6.884384900331497192e-02
-1.668876409530639648e-01
-2.082439959049224854e-01
-1.137251555919647217e-01
2.648797631263732910e-01
-5.156401395797729492e-01
-3.407178446650505066e-02
-1.709508001804351807e-01
1.040861755609512329e-01
-3.304662108421325684e-01
1.735091656446456909e-01
-2.959699034690856934e-01
-1.017436534166336060e-01
-2.997739017009735107e-01
-2.179979905486106873e-02
-5.742608904838562012e-01
3.322696685791015625e-02
-1.486956775188446045e-01
1.970934420824050903e-01
-3.851154446601867676e-01
-4.174668192863464355e-01
-3.220500051975250244e-01
2.117553502321243286e-01
-4.315627366304397583e-02
7.311708480119705200e-02
-4.293999969959259033e-01
-4.055135250091552734e-01
-4.589943885803222656e-01
-2.481211572885513306e-01
-3.535030037164688110e-02
-4.888325929641723633e-01
-2.642256021499633789e-01
-6.710558384656906128e-02
-2.765725255012512207e-01
-2.170256227254867554e-01
-2.232422679662704468e-02
-3.418687283992767334e-01
-4.891494214534759521e-01
-1.016957014799118042e-01
-3.805383145809173584e-01
-3.120163083076477051e-01
6.018310189247131348e-01
-1.650409996509552002e-01
-2.148192226886749268e-01
-1.743922829627990723e-01
-2.963007986545562744e-01
-1.489133238792419434e-01
-3.270197510719299316e-01
-4.155300855636596680e-01
-4.561658203601837158e-01
-5.389986559748649597e-02
8.270464092493057251e-02
-3.924626111984252930e-01
-2.979374229907989502e-01
-1.312599182128906250e-01
-2.824447751045227051e-01
-1.824927181005477905e-01
-2.471662461757659912e-01
-2.827268242835998535e-01
-9.975665807723999023e-02
-3.512435555458068848e-01
-1.599219888448715210e-01
-2.068834155797958374e-01
-4.377599358558654785e-01
-4.498853385448455811e-01
-2.679155468940734863e-01
-3.670853972434997559e-01
-2.089517563581466675e-01
-4.375946521759033203e-01
-1.461707800626754761e-01
3.406656440347433090e-03
-4.099466502666473389e-01
-3.388316333293914795e-01
-2.689979970455169678e-01
4.968682676553726196e-02
-6.039207577705383301e-01
-1.185882538557052612e-01
-3.336692452430725098e-01
-6.313876807689666748e-02
-1.998032033443450928e-01
-3.487870991230010986e-01
-5.885180830955505371e-02
-1.505391765385866165e-02
-2.517366409301757812e-01
-1.873931735754013062e-01
-3.249759376049041748e-01
-3.373220562934875488e-02
1.437786035239696503e-02
-2.753820121288299561e-01
9.945799410343170166e-02
-5.618196725845336914e-01
-2.907687723636627197e-01
-5.335156321525573730e-01
-1.673391461372375488e-01
-1.432681381702423096e-01
-3.277627527713775635e-01
-3.522875532507896423e-02
-3.431493937969207764e-01
-2.181353718042373657e-01
3.658041954040527344e-01
1.252646651118993759e-02
-3.920885026454925537e-01
1.891123875975608826e-02
-4.668239653110504150e-01
-2.751306295394897461e-01
-2.768578231334686279e-01
-2.500349879264831543e-01
-6.685400009155273438e-02
-3.966883420944213867e-01
-2.698183953762054443e-01
7.105625420808792114e-02
-3.596740365028381348e-01
-2.026341408491134644e-01
-3.700947761535644531e-01
-7.882364839315414429e-02
1.230847276747226715e-02
-8.064949512481689453e-02
-6.605467200279235840e-02
-2.642855346202850342e-01
-1.991269886493682861e-01
2.137728184461593628e-01
-1.556667834520339966e-01
-1.051397249102592468e-01
-3.210186362266540527e-01
-5.421159863471984863e-01
-1.179481968283653259e-01
-2.393438220024108887e-01
-4.457693696022033691e-01
-7.805122435092926025e-02
-1.987834125757217407e-01
-3.490045368671417236e-01
1.529844254255294800e-01
-2.639425694942474365e-01
-1.319385319948196411e-01
-7.409998774528503418e-02
-5.693854093551635742e-01
-3.219311535358428955e-01
2.255285391584038734e-03
-1.868996885605156422e-03
-1.448503881692886353e-02
2.651030123233795166e-01
-7.043981552124023438e-02
-3.066817522048950195e-01
4.928719401359558105e-01
-1.855285763740539551e-01
-2.182773351669311523e-01
1.478087604045867920e-01
2.841024193912744522e-03
2.111971080303192139e-01
1.080508679151535034e-01
-1.234933137893676758e-01
2.183717116713523865e-02
5.337852519005537033e-03
-5.135371088981628418e-01
-1.298684030771255493e-01
1.290463507175445557e-01
6.509193032979965210e-02
6.842503696680068970e-02
-4.181975126266479492e-01
6.675162352621555328e-03
-2.048952579498291016e-01
9.959009289741516113e-02
-4.910292848944664001e-02
-1.563912928104400635e-01
-5.645067896693944931e-03
8.002111315727233887e-02
-1.817028969526290894e-01
-3.392133116722106934e-01
-4.105646535754203796e-02
-7.130774259567260742e-01
1.188772171735763550e-01
-1.833696663379669189e-01
-4.159785509109497070e-01
-2.081898301839828491e-01
-1.605375707149505615e-01
1.617330163717269897e-01
-5.815619230270385742e-02
-2.119527757167816162e-01
-3.482603430747985840e-01
-2.985722124576568604e-01
-8.341957814991474152e-03
-3.306645452976226807e-01
1.167938858270645142e-01
2.154612839221954346e-01
-8.970633894205093384e-02
-2.069955766201019287e-01
8.936535567045211792e-02
-3.375334441661834717e-01
1.001259535551071167e-01
-5.450159907341003418e-01
2.292293608188629150e-01
-1.549021303653717041e-01
-2.686811983585357666e-01
-7.016243785619735718e-02
-1.069595888257026672e-01
3.702388331294059753e-02
-1.182091422379016876e-02
3.411827608942985535e-02
-3.620333597064018250e-02
-2.663290500640869141e-01
3.378183394670486450e-02
1.352219730615615845e-01
1.519707143306732178e-01
-5.474731922149658203e-01
-6.715090870857238770e-01
-1.651781350374221802e-01
-2.680806256830692291e-02
-1.313789039850234985e-01
-3.479406833648681641e-01
-4.236988127231597900e-01
-3.441307693719863892e-02
-3.704894483089447021e-01
-2.355119287967681885e-01
-3.258121013641357422e-01
-1.417683809995651245e-01
-1.946827024221420288e-01
-1.568391323089599609e-01
-5.452288985252380371e-01
-6.184483766555786133e-01
-5.169365927577018738e-02
-4.187546074390411377e-01
6.776891648769378662e-02
6.380999088287353516e-02
3.159770369529724121e-01
1.318844854831695557e-01
-5.537233129143714905e-02
-1.478832662105560303e-01
-2.619554996490478516e-01
-4.440929591655731201e-01
-1.449079066514968872e-01
-1.592488884925842285e-01
-2.298791706562042236e-01
-6.758107990026473999e-02
-1.095822900533676147e-01
2.094653248786926270e-01
-4.442605376243591309e-01
-3.730896711349487305e-01
-8.363420516252517700e-02
2.223208099603652954e-01
-3.166131079196929932e-01
-3.145645558834075928e-01
-3.897093236446380615e-02
-1.044814959168434143e-01
9.279622137546539307e-02
-2.167335301637649536e-01
1.392237492837011814e-03
-5.712741613388061523e-02
1.042471677064895630e-01
-2.686796486377716064e-01
-1.356674637645483017e-02
-3.338285386562347412e-01
1.825616508722305298e-02
1.633162796497344971e-01
1.009013950824737549e-01
5.989842489361763000e-02
-1.089125126600265503e-01
-1.365983043797314167e-03
-1.969070136547088623e-01
-1.789740622043609619e-01
-1.687032580375671387e-01
-1.159163564443588257e-01
-6.368889212608337402e-01
-1.099272910505533218e-02
-7.506261020898818970e-02
1.769622713327407837e-01
-1.623808294534683228e-01
-1.517438441514968872e-01
-5.356702208518981934e-02
-2.517615556716918945e-01
1.298816949129104614e-01
-1.506868153810501099e-01
-2.250699102878570557e-01
2.723441123962402344e-01
2.596836090087890625e-01
1.521219313144683838e-01
-3.642114400863647461e-01
-5.496469512581825256e-02
9.335928410291671753e-02
3.535987138748168945e-01
-5.968064069747924805e-02
5.574574470520019531e-01
-5.759489536285400391e-01
-3.737905025482177734e-01
-3.160739839076995850e-01
-2.091523632407188416e-02
-1.454676687717437744e-01
-7.977066636085510254e-01
1.568126082420349121e-01
-6.493503600358963013e-02
5.528133362531661987e-02
-4.040082916617393494e-02
9.971489012241363525e-02
1.309283226728439331e-01
-7.023038268089294434e-01
-3.040446899831295013e-02
3.495291993021965027e-02
-1.678302288055419922e-01
2.474399954080581665e-01
-6.396966637112200260e-04
4.642355255782604218e-03
9.237365424633026123e-02
1.818024367094039917e-01
-8.951374888420104980e-02
-9.268341958522796631e-02
8.255020529031753540e-02
1.863531917333602905e-01
-1.870529949665069580e-01
-1.378880292177200317e-01
-5.569144487380981445e-01
9.455534070730209351e-02
-4.608065485954284668e-01
-1.591878831386566162e-01
-2.502045929431915283e-01
-7.640610933303833008e-01
-7.156563997268676758e-01
1.272351574152708054e-02
-3.016440570354461670e-01
1.748060137033462524e-01
-1.575399786233901978e-01
-6.262668967247009277e-01
-3.891038522124290466e-02
-2.834188938140869141e-01
-5.444066524505615234e-01
-2.804560065269470215e-01
-3.835122883319854736e-01
1.151934918016195297e-02
-2.931055724620819092e-01
-1.780550330877304077e-01
-1.919947862625122070e-01
-4.052964225411415100e-02
7.985658198595046997e-02
-4.601090550422668457e-01
-1.027771607041358948e-01
-4.614699780941009521e-01
-1.985462903976440430e-01
3.613350912928581238e-03
-1.564675942063331604e-02
-3.683117628097534180e-01
2.362456023693084717e-01
1.223372854292392731e-02
-8.550265431404113770e-02
1.612205803394317627e-02
2.920783162117004395e-01
2.228868901729583740e-01
2.798026241362094879e-02
2.527909874916076660e-01
-1.625949144363403320e-01
-1.652019768953323364e-01
-2.955362796783447266e-01
-8.084139227867126465e-02
2.956893481314182281e-02
-1.781331300735473633e-01
-9.043480455875396729e-02
1.134489551186561584e-01
7.380561530590057373e-02
3.327995240688323975e-01
-2.759817540645599365e-01
-4.131130278110504150e-01
4.812623560428619385e-01
6.719726137816905975e-03
-1.052618771791458130e-02
-2.477419823408126831e-01
-6.879644095897674561e-02
-1.000811979174613953e-01
-2.164293676614761353e-01
5.110616236925125122e-02
1.195128113031387329e-01
-4.227090477943420410e-01
-9.336373209953308105e-02
-3.559677004814147949e-01
-1.240268349647521973e-01
-5.205948650836944580e-02
3.156917393207550049e-01
-3.934691660106182098e-03
-2.554599940776824951e-01
1.941590309143066406e-01
-1.094107478857040405e-01
-2.903087735176086426e-01
-2.050408860668540001e-03
-4.653201699256896973e-01
-2.780014276504516602e-01
-1.616898551583290100e-02
-1.327483952045440674e-01
-2.580586671829223633e-01
-2.057076543569564819e-01
-1.708040237426757812e-01
2.869055373594164848e-03
-4.982187971472740173e-02
1.234877668321132660e-02
-4.604112207889556885e-01
2.388669103384017944e-01
-5.248834490776062012e-01
-2.213906645774841309e-01
-1.570375412702560425e-01
-2.682408988475799561e-01
9.808638691902160645e-02
1.783684343099594116e-01
-1.827544271945953369e-01
-8.107526600360870361e-02
-4.115228354930877686e-01
-1.329928934574127197e-01
2.420429140329360962e-02
-6.985057890415191650e-02
6.819808483123779297e-01
-3.317491114139556885e-01
9.027177691459655762e-01
2.752830982208251953e-01
1.591664403676986694e-01
1.404758691787719727e-01
-6.092463433742523193e-02
4.167942106723785400e-01
6.493009328842163086e-01
-5.766515061259269714e-02
-2.763504385948181152e-01
-4.552271589636802673e-02
-1.717564165592193604e-01
-2.556772828102111816e-01
4.275968372821807861e-01
-3.731489181518554688e-02
3.752789795398712158e-01
1.988095173146575689e-04
-3.321928903460502625e-03
1.022331714630126953e-01
9.425071626901626587e-02
3.041351735591888428e-01
2.595022507011890411e-02
5.250968411564826965e-02
-1.037684008479118347e-01
-6.731570363044738770e-01
-2.177079617977142334e-01
2.607669308781623840e-02
1.587756574153900146e-01
-2.227849811315536499e-01
1.087486743927001953e-02
4.897398874163627625e-02
3.248184919357299805e-01
-2.575002312660217285e-01
-3.400674164295196533e-01
2.227765321731567383e-01
-3.944555222988128662e-01
-1.462657600641250610e-01
1.874503791332244873e-01
2.600744664669036865e-01
1.713737249374389648e-01
1.857100427150726318e-02
-2.441783249378204346e-01
3.630784153938293457e-01
1.963868439197540283e-01
2.089052833616733551e-02
-2.309442311525344849e-01
6.707106949761509895e-04
4.291881024837493896e-01
-3.465743958950042725e-01
4.397946894168853760e-01
7.371307164430618286e-02
-2.668310105800628662e-01
4.811304211616516113e-01
4.946750104427337646e-01
2.302776873111724854e-01
8.460959047079086304e-02
4.691769778728485107e-01
4.793349504470825195e-01
-1.817773133516311646e-01
1.620313823223114014e-01
1.389567404985427856e-01
-5.356596782803535461e-02
-1.448926478624343872e-01
1.011318340897560120e-01
-3.503036797046661377e-01
2.543990500271320343e-02
-2.455557584762573242e-01
1.026881933212280273e-01
5.988334119319915771e-02
9.226898103952407837e-02
-5.787799954414367676e-01
-3.405882120132446289e-01
-1.131364628672599792e-01
3.565320372581481934e-02
1.109250932931900024e-01
-3.788946866989135742e-01
2.832544408738613129e-02
-1.418521851301193237e-01
-3.268743455410003662e-01
1.567788273096084595e-01
-8.656650036573410034e-02
-1.025982946157455444e-02
4.554362595081329346e-02
4.422148764133453369e-01
3.174247145652770996e-01
-2.018419802188873291e-01
-5.537046194076538086e-01
1.476269811391830444e-01
-1.116502061486244202e-01
5.498610436916351318e-02
7.643350213766098022e-02
2.262359708547592163e-01
-1.071035191416740417e-01
4.364769905805587769e-02
2.539294362068176270e-01
1.862487494945526123e-01
4.132741093635559082e-01
1.821294128894805908e-01
-1.542230546474456787e-01
8.542016893625259399e-02
1.435980498790740967e-01
-7.975133508443832397e-02
-1.787368357181549072e-01
1.540983617305755615e-01
-8.204940557479858398e-01
-3.340660929679870605e-01
-1.425774693489074707e-01
1.838049143552780151e-01
8.634265512228012085e-02
-1.365973204374313354e-01
-1.291083842515945435e-01
-3.362995572388172150e-03
-3.014011383056640625e-01
-3.929202631115913391e-02
3.683637082576751709e-02
1.061437651515007019e-01
3.157113492488861084e-01
9.415736794471740723e-02
-1.738398224115371704e-01
-2.011090815067291260e-01
2.468371987342834473e-01
6.209000200033187866e-02
-1.653546541929244995e-01
-2.461574412882328033e-02
3.591431379318237305e-01
2.075202316045761108e-01
-1.320958435535430908e-01
-3.338363170623779297e-01
7.137887924909591675e-02
1.224289648234844208e-03
-4.040240049362182617e-01
-1.080984249711036682e-01
-1.200611814856529236e-01
-6.250877678394317627e-02
1.267369985580444336e-01
-1.420755982398986816e-01
-3.332684561610221863e-02
1.265528351068496704e-01
5.531344413757324219e-01
1.281699091196060181e-01
-3.528051674365997314e-01
-5.521875619888305664e-02
3.235023319721221924e-01
-4.205498397350311279e-01
3.427616506814956665e-02
6.351097673177719116e-02
-1.149600744247436523e-01
-1.911928951740264893e-01
-4.604041948914527893e-02
-1.876733601093292236e-01
1.382826268672943115e-01
3.855380713939666748e-01
-4.095936417579650879e-01
1.706429868936538696e-01
2.470008879899978638e-01
-8.905930072069168091e-02
-1.739411205053329468e-01
-1.415580809116363525e-01
3.815850615501403809e-02
8.992745424620807171e-04
-2.125524282455444336e-01
-8.765515685081481934e-02
-2.045955136418342590e-02
-5.491100624203681946e-02
1.840743422508239746e-01
-3.401999473571777344e-01
4.822053313255310059e-01
2.361770123243331909e-01
-2.143477052450180054e-01
2.355800867080688477e-01
3.082375526428222656e-01
-1.465436071157455444e-01
1.872595995664596558e-01
-2.190848886966705322e-01
2.432821132242679596e-02
1.031280457973480225e-01
1.159558445215225220e-01
3.451481163501739502e-01
-2.810343205928802490e-01
2.975659966468811035e-01
-3.901961743831634521e-01
-3.910866975784301758e-01
-1.253991276025772095e-01
4.898598045110702515e-02
2.436673045158386230e-01
-1.507520526647567749e-01
-2.708428204059600830e-01
1.925876736640930176e-01
7.727005984634160995e-03
-1.313859373331069946e-01
-3.485281169414520264e-01
-9.670259058475494385e-02
2.568970322608947754e-01
-5.328121781349182129e-02
4.417182505130767822e-01
-2.671125829219818115e-01
-2.368571907281875610e-01
9.288433194160461426e-02
1.436475664377212524e-01
1.019027531147003174e-01
-5.222997441887855530e-02
1.946873068809509277e-01
1.837832778692245483e-01
-1.497021410614252090e-02
3.099457323551177979e-01
-2.630938291549682617e-01
-3.287386000156402588e-01
5.381008982658386230e-01
-1.390678286552429199e-01
-1.067937836050987244e-01
-2.511852085590362549e-01
-2.292774431407451630e-02
-1.511203199625015259e-01
-1.618202477693557739e-01
9.094342589378356934e-02
-2.963278889656066895e-01
1.952991038560867310e-01
1.389704793691635132e-01
-2.448315769433975220e-01
1.488131582736968994e-01
-2.789005935192108154e-01
2.707732915878295898e-01
6.501412391662597656e-02
-8.073148876428604126e-02
5.004748702049255371e-02
2.576175630092620850e-01
2.017811499536037445e-02
3.210262060165405273e-01
1.505160033702850342e-01
-1.086532473564147949e-01
-2.080296277999877930e-01
-6.617756187915802002e-02
7.024468481540679932e-02
2.459383606910705566e-01
6.309247761964797974e-02
1.139601692557334900e-01
-2.450735569000244141e-01
-1.130012124776840210e-01
1.792528033256530762e-01
1.738222092390060425e-01
-1.097734495997428894e-01
1.306304484605789185e-01
-2.118812873959541321e-02
6.096416711807250977e-02
4.190786778926849365e-01
3.236245214939117432e-01
-3.012663722038269043e-01
-5.900882184505462646e-02
-2.907372713088989258e-01
-3.306053876876831055e-01
-2.611265480518341064e-01
-6.146004796028137207e-01
-2.599437255412340164e-03
-8.669031411409378052e-02
-7.593988180160522461e-01
-3.886799216270446777e-01
5.316248163580894470e-02
6.489022970199584961e-01
-2.531719207763671875e-01
-1.538810431957244873e-01
-4.262750148773193359e-01
-3.673793971538543701e-01
-3.463942408561706543e-01
2.858979403972625732e-01
-7.377334684133529663e-02
-7.610747124999761581e-03
-2.654376067221164703e-02
-7.727838307619094849e-02
-8.009738326072692871e-01
2.922504842281341553e-01
-3.329496383666992188e-01
-5.933284759521484375e-01
-1.735286414623260498e-01
-7.112212181091308594e-01
-2.811213135719299316e-01
-6.885872483253479004e-01
-1.067094430327415466e-01
-1.174970492720603943e-01
-1.769936382770538330e-01
-2.891977131366729736e-01
9.941551834344863892e-02
5.626463517546653748e-02
-3.654800057411193848e-01
-5.605582594871520996e-01
1.152429431676864624e-01
-3.205085992813110352e-01
-5.336772203445434570e-01
-4.871768355369567871e-01
-5.676190257072448730e-01
-2.199046015739440918e-01
-9.773164242506027222e-02
1.873627491295337677e-02
-4.065652489662170410e-01
-1.748724877834320068e-01
-3.245623409748077393e-01
-4.490980207920074463e-01
-1.554297357797622681e-01
-4.936197698116302490e-01
-3.364855349063873291e-01
-2.823105156421661377e-01
-2.053512632846832275e-01
-1.922912895679473877e-01
-4.874771833419799805e-01
4.713770374655723572e-02
-3.340410813689231873e-02
-1.205147728323936462e-01
-1.276656389236450195e-01
-4.394536614418029785e-01
-3.032484054565429688e-01
-1.941784173250198364e-01
-5.911133289337158203e-01
-1.943911612033843994e-02
-2.697185277938842773e-01
-1.788265258073806763e-01
-2.058438509702682495e-01
-6.241549849510192871e-01
-3.969675302505493164e-01
-6.549135446548461914e-01
-3.310412764549255371e-01
-3.229599297046661377e-01
-4.917535483837127686e-01
-2.718751430511474609e-01
-2.273371666669845581e-01
-5.237048864364624023e-01
-2.999219894409179688e-01
5.420074611902236938e-02
-6.043945625424385071e-02
-2.370127737522125244e-01
-2.366779297590255737e-01
-4.522399008274078369e-01
-4.742308259010314941e-01
-6.112361550331115723e-01
-5.682334303855895996e-01
-3.436512649059295654e-01
-7.339091897010803223e-01
-4.671521186828613281e-01
-1.679818779230117798e-01
-5.358242988586425781e-01
4.033366441726684570e-01
-5.815257430076599121e-01
-4.571993649005889893e-01
-2.030408084392547607e-01
6.041596531867980957e-01
-9.594767540693283081e-02
-5.779190659523010254e-01
-2.220025211572647095e-01
-2.974967956542968750e-01
4.762138053774833679e-02
-3.242649734020233154e-01
2.822282910346984863e-01
-4.452344179153442383e-01
-5.150709301233291626e-02
-1.490115672349929810e-01
-6.301773190498352051e-01
-6.303936839103698730e-01
-1.449405997991561890e-01
-4.325984045863151550e-02
-1.904972046613693237e-01
-2.056005746126174927e-01
-2.261375188827514648e-01
1.514986455440521240e-01
-1.197327971458435059e-01
-1.727867871522903442e-01
-4.671856462955474854e-01
-1.666727513074874878e-01
-3.111547529697418213e-01
-2.992255985736846924e-01
-7.683053612709045410e-02
-3.779874444007873535e-01
-4.737519621849060059e-01
-3.054908812046051025e-01
-4.795880615711212158e-01
-7.324840128421783447e-02
-5.722256302833557129e-01
2.558038234710693359e-01
-2.328801304101943970e-01
-5.816557258367538452e-02
-3.625179231166839600e-01
-3.084954321384429932e-01
-1.831495016813278198e-01
1.488400548696517944e-01
-2.559425532817840576e-01
-5.631163120269775391e-01
-6.119982600212097168e-01
-1.950754523277282715e-01
-4.317177236080169678e-01
-5.767526626586914062e-01
-3.779465854167938232e-01
-5.436283946037292480e-01
-3.486036658287048340e-01
-9.837669134140014648e-02
-4.684317111968994141e-01
-5.147715806961059570e-01
-7.074275612831115723e-02
-1.544612199068069458e-01
8.070285618305206299e-02
8.358596265316009521e-02
-7.720168232917785645e-01
-2.320014089345932007e-01
-4.215632379055023193e-01
-2.619419693946838379e-01
-2.748418748378753662e-01
-5.594756603240966797e-01
-4.978356957435607910e-01
-4.791981279850006104e-01
-5.253713130950927734e-01
-1.283276677131652832e-01
1.666583716869354248e-01
-6.494187116622924805e-01
-4.013550877571105957e-01
-2.268941551446914673e-01
-6.447399854660034180e-01
-1.010522246360778809e-01
-3.029764294624328613e-01
-3.195709288120269775e-01
-1.786129772663116455e-01
-2.430164664983749390e-01
-2.648809850215911865e-01
-1.703676134347915649e-01
-3.247380852699279785e-01
2.855437109246850014e-03
-5.657294020056724548e-02
-2.037248611450195312e-01
-3.030910491943359375e-01
-5.736653208732604980e-01
-3.504074215888977051e-01
-5.535757541656494141e-01
-3.841112852096557617e-01
-5.437612533569335938e-01
-1.797027438879013062e-01
-2.344457209110260010e-01
-1.567664742469787598e-01
-3.903641924262046814e-02
-3.269774615764617920e-01
-1.017037257552146912e-01
-3.928181529045104980e-01
-7.339103221893310547e-01
-4.363351762294769287e-01
-4.248760640621185303e-01
-6.783947944641113281e-01
-4.966329932212829590e-01
-1.373667716979980469e-01
-7.252492904663085938e-01
-1.946450211107730865e-02
-6.314399838447570801e-02
-2.631505019962787628e-02
-4.145502150058746338e-01
-3.978593349456787109e-01
1.890113055706024170e-01
8.093062043190002441e-02
-3.202825486660003662e-01
-7.894540429115295410e-01
-2.617541551589965820e-01
-7.814763784408569336e-01
-6.511703729629516602e-01
-4.159262180328369141e-01
-2.635632455348968506e-01
2.079584449529647827e-01
8.642955124378204346e-02
-4.654300808906555176e-01
-4.936847984790802002e-01
3.234484493732452393e-01
-3.484999062493443489e-03
-3.012834191322326660e-01
-5.160118341445922852e-01
-9.742813557386398315e-02
-5.013643503189086914e-01
-3.413739204406738281e-01
-5.951504409313201904e-02
-5.781654715538024902e-01
-3.183485269546508789e-01
-6.224151700735092163e-02
-2.001332342624664307e-01
8.900851011276245117e-02
3.356665745377540588e-02
7.009009271860122681e-02
-2.161925584077835083e-01
-3.513870239257812500e-01
-2.599217593669891357e-01
-2.200742661952972412e-01
-1.526351869106292725e-01
-6.471104621887207031e-01
-3.979242742061614990e-01
-8.339386433362960815e-02
-7.607076168060302734e-01
-3.813385963439941406e-01
-4.245533421635627747e-02
-1.412043534219264984e-02
-4.374764263629913330e-01
-3.029068373143672943e-02
-4.623163938522338867e-01
-1.036139503121376038e-01
3.691796958446502686e-02
-3.573428392410278320e-01
-2.904098294675350189e-02
-4.614216089248657227e-01
-5.663346648216247559e-01
-1.819234192371368408e-01
-5.174631476402282715e-01
-6.591262817382812500e-01
-4.333463609218597412e-01
4.308007359504699707e-01
-5.245115756988525391e-01
-4.748389422893524170e-01
-4.216369092464447021e-01
