1.270673871040344238e-01 -1.015696763992309570e+00 -4.139699339866638184e-01 -4.248284734785556793e-03 2.512958366423845291e-03 1.014858298003673553e-02 -9.540504775941371918e-03 -2.848974254447966814e-04 -5.217390717007219791e-04 -7.011893205344676971e-03 1.233402825891971588e-02 -3.933087456971406937e-03 -8.654518723487854004e-01 2.368142604827880859e-01 2.975749084725975990e-03 -2.094799187034368515e-03 -2.377910859650000930e-04 4.103088378906250000e-01 5.511678289622068405e-03 -2.975771725177764893e-01 -3.619544440880417824e-04 -2.123159542679786682e-02 3.105744123458862305e-01 4.032014869153499603e-03 -5.543050169944763184e-01 -8.276040665805339813e-03 -3.412925871089100838e-03 1.981003209948539734e-02 6.450044512748718262e-01 8.858786895871162415e-05 2.654901444911956787e-01 -9.997764229774475098e-02 -9.153011441230773926e-02 -1.742205582559108734e-02 -5.189679097384214401e-03 -1.919831521809101105e-02 1.020523998886346817e-02 1.135917186737060547e+00 3.430754542350769043e-01 -1.606828570365905762e-01 -2.076267898082733154e-01 9.195188060402870178e-03 2.828093478456139565e-03 -2.672930061817169189e-02 2.425649762153625488e-01 3.479054570198059082e-01 7.942648530006408691e-01 -3.718224586918950081e-03 -9.620545506477355957e-01 -1.692174817435443401e-03 1.822058297693729401e-02 5.779132712632417679e-03 -3.293144330382347107e-02 -1.550302747637033463e-02 -2.129319822415709496e-03 -1.003536395728588104e-02 7.737568020820617676e-02 4.708246793597936630e-03 -3.481472134590148926e-01 3.130296170711517334e-01 3.976795449852943420e-02 2.816377580165863037e-01 -4.276736676692962646e-01 3.386915326118469238e-01 6.535623222589492798e-02 1.700756698846817017e-02 6.380974650382995605e-01 5.542732477188110352e-01 -1.186222672462463379e+00 1.195615157485008240e-02 -3.379230499267578125e-01 -1.122647762298583984e+00 5.928943753242492676e-01 5.147122777998447418e-03 6.774663925170898438e-01 -5.444687604904174805e-01 4.756760597229003906e-01 -4.414142966270446777e-01 -6.973168812692165375e-03 -3.483111560344696045e-01 1.301879808306694031e-02 2.456702850759029388e-02 -3.984568417072296143e-01 -1.101985424757003784e-01 -1.277215592563152313e-02 -1.157586812973022461e+00 1.508473306894302368e-01 -3.308272063732147217e-01 7.981202565133571625e-03 1.228627283126115799e-03 4.833599328994750977e-01 4.739942401647567749e-02 9.474997059442102909e-04 -5.753657314926385880e-04 2.330588996410369873e-01 -3.647781610488891602e-01 3.078464884310960770e-03 4.791012033820152283e-02 5.055559799075126648e-03 -1.019257009029388428e-01 -2.768791979178786278e-03 3.536351919174194336e-01 3.954318817704916000e-04 7.698467373847961426e-02 5.915458798408508301e-01 6.887503266334533691e-01 -1.349936123006045818e-03 7.109744101762771606e-02 5.208338145166635513e-03 -1.183135733008384705e-01 9.860917925834655762e-03 1.615412649698555470e-03 4.673818126320838928e-03 -2.265449985861778259e-02 3.510536849498748779e-01 2.316187508404254913e-02 -2.984583973884582520e-01 -3.310825526714324951e-01 8.256847970187664032e-03 -3.640025854110717773e-01 1.228054046630859375e+00 9.520067833364009857e-03 1.008106097579002380e-01 -7.760496810078620911e-04 7.244016528129577637e-01 -1.376244617858901620e-04 4.478198010474443436e-03 1.861118525266647339e-02 8.703936822712421417e-03 -4.761898219585418701e-01 -1.457358803600072861e-02 9.517681319266557693e-04 5.980296060442924500e-03 4.247244447469711304e-02 -5.886232256889343262e-01 -9.980238042771816254e-03 -9.724179655313491821e-02 -4.200574457645416260e-01 -1.103566586971282959e-02 -5.064582824707031250e-01 -7.342534661293029785e-01 8.018292188644409180e-01 1.422956824302673340e+00 8.777930401265621185e-03 -1.492524985224008560e-03 6.080828309059143066e-01 1.187545806169509888e-02 -1.964283874258399010e-03 1.738963574171066284e-01 4.596037790179252625e-03 -1.559727042913436890e-01 5.630757287144660950e-02 1.026027202606201172e+00 -1.045708775520324707e+00 -1.101562529802322388e-01 -4.673520028591156006e-01 -1.160024083219468594e-03 1.404660753905773163e-02 9.014881652547046542e-05 -7.171523571014404297e-01 1.528345793485641479e-02 -6.460054777562618256e-03 -5.601691603660583496e-01 -9.845652617514133453e-03 4.010369069874286652e-03 -2.832317724823951721e-02 4.210130777209997177e-03 3.852323591709136963e-01 -3.019148483872413635e-03 1.264100819826126099e-01 -4.446018040180206299e-01 6.005909293889999390e-02 -2.781292796134948730e-01 5.121349096298217773e-01 3.193471133708953857e-01 -2.836636304855346680e-01 -1.342400792054831982e-03 2.171485275030136108e-01 4.760881960391998291e-01 5.192115306854248047e-01 -9.227895736694335938e-02 -4.303350746631622314e-01 8.449901640415191650e-02 4.865604639053344727e-01 8.310418576002120972e-02 -1.745190285146236420e-02 2.345154881477355957e-01 -9.078390598297119141e-01 -1.306991726160049438e-01 -6.857190281152725220e-03 -1.504540920257568359e+00 7.892128229141235352e-01 4.618876874446868896e-01 -1.687351763248443604e-01 1.265412755310535431e-02 -1.168159954249858856e-02 7.730776816606521606e-02 -2.137760072946548462e-01 -3.340385109186172485e-02 1.357044931501150131e-02 1.646299730055034161e-03 1.634498983621597290e-01 -4.838660657405853271e-01 -5.845369026064872742e-02 4.544998407363891602e-01 9.057126045227050781e-01 -9.373161792755126953e-01 -4.042798280715942383e-01 1.448879949748516083e-02 -2.916456200182437897e-03 8.674773573875427246e-01 6.131457090377807617e-01 3.788599278777837753e-04 -1.527697499841451645e-02 1.298211067914962769e-01 -1.265147775411605835e-01 -4.421189725399017334e-01 -4.351014196872711182e-01 3.944682888686656952e-03 4.526449774857610464e-04 -2.973899245262145996e-01 8.302438072860240936e-03 1.585697755217552185e-03 1.413277443498373032e-02 4.686781205236911774e-03 -2.715906593948602676e-03 -5.244505405426025391e-01 6.184266880154609680e-03 6.084343791007995605e-01 2.671067602932453156e-03 -5.721408408135175705e-03 -2.866734750568866730e-03 3.711183667182922363e-01 1.747137680649757385e-02 7.623806130141019821e-03 -1.815743297338485718e-01 -5.789033770561218262e-01 2.335682976990938187e-03 2.366898655891418457e-01 1.054359436035156250e+00 -8.702452178113162518e-04 5.715202074497938156e-03 -7.211765646934509277e-01 1.469066441059112549e-01 -3.893582616001367569e-03 3.846964798867702484e-03 4.108277857303619385e-01 -9.978140890598297119e-02 -2.299002080690115690e-04 7.161493413150310516e-03 -1.147905111312866211e+00 1.995149105787277222e-01 -1.294781395699828863e-04 -3.615546226501464844e-01 -1.913587562739849091e-02 -6.075918078422546387e-01
