-2.381846904754638672e-01
-2.452713698148727417e-01
-3.093891143798828125e-01
5.170209705829620361e-02
-7.370904088020324707e-02
-3.380287289619445801e-01
-3.252171277999877930e-01
-1.160285696387290955e-01
-1.921142041683197021e-01
1.707377135753631592e-01
-2.484489828348159790e-01
-4.355057701468467712e-02
-3.137838244438171387e-01
-2.108774632215499878e-01
-7.927844300866127014e-03
-3.106330633163452148e-01
-1.086446419358253479e-01
-2.382689565420150757e-01
2.141009122133255005e-01
-1.381199359893798828e-01
2.323641180992126465e-01
-2.196637243032455444e-01
1.305477507412433624e-02
8.525063842535018921e-02
-2.247379422187805176e-01
-1.237497851252555847e-01
-3.330847024917602539e-01
-2.890493869781494141e-01
3.969142213463783264e-02
-3.055556714534759521e-01
-2.798720896244049072e-01
-2.889323234558105469e-01
-8.951018750667572021e-02
-1.982409358024597168e-01
5.240420252084732056e-02
-4.142830073833465576e-01
-2.951187454164028168e-02
7.071410119533538818e-02
2.987976968288421631e-01
2.835118174552917480e-01
-3.556958734989166260e-01
-8.183527737855911255e-02
-2.767701745033264160e-01
1.790306270122528076e-01
-1.773309409618377686e-01
-2.429638206958770752e-01
1.997335255146026611e-01
-4.018975794315338135e-01
-3.877812623977661133e-01
-3.627634346485137939e-01
-4.471710622310638428e-01
-7.590547949075698853e-02
-3.238591551780700684e-01
-2.990111410617828369e-01
-1.758499294519424438e-01
-3.875634670257568359e-01
-3.318232297897338867e-01
-4.356203973293304443e-01
-2.690344154834747314e-01
-4.251030087471008301e-02
-2.428052872419357300e-01
3.498348891735076904e-01
-4.551268219947814941e-01
1.571117341518402100e-02
-5.344369262456893921e-02
2.948112189769744873e-01
-3.613529205322265625e-01
-2.667968869209289551e-01
-4.902721941471099854e-01
-2.130730748176574707e-01
-1.759487092494964600e-01
-3.395647108554840088e-01
1.757625192403793335e-01
-2.069875746965408325e-01
-2.695418596267700195e-01
-2.349686920642852783e-01
3.836940601468086243e-02
-3.338550329208374023e-01
-3.451029062271118164e-01
-2.212406992912292480e-01
-1.703575402498245239e-01
-2.693665325641632080e-01
2.733051776885986328e-01
-2.645807266235351562e-01
-2.887931168079376221e-01
-2.418122440576553345e-01
-8.554618060588836670e-02
-3.786149322986602783e-01
-2.187132686376571655e-01
-2.190901786088943481e-01
-1.979992389678955078e-01
-1.313125044107437134e-01
-2.562893182039260864e-02
-1.744854450225830078e-01
1.382699906826019287e-01
-4.408977627754211426e-01
-3.462992310523986816e-01
-6.265520453453063965e-01
-2.126462757587432861e-01
-3.014276325702667236e-01
-1.488775461912155151e-01
-2.031038701534271240e-01
-3.156071603298187256e-01
-4.975253343582153320e-01
-3.416196703910827637e-01
-3.436095416545867920e-01
-9.540520608425140381e-02
-3.753859996795654297e-01
-1.906000971794128418e-01
-2.501811385154724121e-01
-2.963121235370635986e-01
-3.415693044662475586e-01
-3.774941265583038330e-01
2.538982033729553223e-01
9.279044717550277710e-02
-2.893624082207679749e-02
-3.481783866882324219e-01
-2.264871820807456970e-02
-2.111186645925045013e-02
-1.047402173280715942e-01
8.719621598720550537e-02
-1.282190680503845215e-01
-4.632463213056325912e-03
2.689986489713191986e-03
-4.036151990294456482e-02
-2.272982383146882057e-04
-1.832256466150283813e-01
-2.228057384490966797e-01
-4.635336399078369141e-01
-3.918757736682891846e-01
-1.624926924705505371e-01
-1.834437996149063110e-01
9.631084278225898743e-03
-2.511091530323028564e-01
-2.968205809593200684e-01
1.060819532722234726e-02
-2.453792542219161987e-01
-1.313339024782180786e-01
-3.402167856693267822e-01
-6.206259131431579590e-02
-1.949916034936904907e-01
-3.891325788572430611e-03
-2.645902633666992188e-01
-2.648625075817108154e-01
-3.284714221954345703e-01
1.439850330352783203e-01
-1.482442319393157959e-01
-2.591849863529205322e-02
-5.841666832566261292e-02
9.092549979686737061e-02
-9.290604293346405029e-02
-4.011611044406890869e-01
9.035055339336395264e-02
-3.688981533050537109e-01
-4.945739805698394775e-01
-3.087645471096038818e-01
-2.814588546752929688e-01
-2.285298854112625122e-01
-3.907938897609710693e-01
-3.339338600635528564e-01
-1.259435862302780151e-01
1.010257825255393982e-01
-4.876999855041503906e-01
-2.037029713392257690e-01
-3.315373361110687256e-01
-1.054406091570854187e-01
-4.427640736103057861e-01
-4.015012085437774658e-01
-5.895660445094108582e-02
-4.015143588185310364e-02
-1.220614835619926453e-01
-1.600718200206756592e-01
-3.872212171554565430e-01
-1.409129649400711060e-01
-3.126825988292694092e-01
-3.280505537986755371e-01
-1.905230921693146229e-03
-2.943905889987945557e-01
-2.983646392822265625e-01
-1.246744915843009949e-01
-2.364591509103775024e-01
-3.963076770305633545e-01
-2.781512141227722168e-01
-7.279011607170104980e-02
-3.554278612136840820e-02
-4.316164180636405945e-03
-4.348853603005409241e-02
-2.495121806859970093e-01
-2.089456422254443169e-03
-4.325480163097381592e-01
-3.641436398029327393e-01
-1.886415034532546997e-01
-3.574558794498443604e-01
-1.033850908279418945e-01
-2.126469612121582031e-01
-1.391193866729736328e-01
-2.385028451681137085e-01
-1.415266394615173340e-01
-1.182866096496582031e-01
-2.209840714931488037e-01
-3.341659605503082275e-01
-2.530508935451507568e-01
2.718098759651184082e-01
-2.444523870944976807e-01
-4.382748603820800781e-01
2.731193602085113525e-01
-2.815074920654296875e-01
-3.398206830024719238e-01
-2.098255008459091187e-01
-1.976773738861083984e-01
-3.243648409843444824e-01
7.926607131958007812e-02
-1.712759435176849365e-01
7.043541874736547470e-03
-4.644452631473541260e-01
-2.354226559400558472e-01
-2.297478914260864258e-01
4.786652699112892151e-02
-3.812763094902038574e-01
-1.494001597166061401e-01
-2.996911704540252686e-01
-1.864795237779617310e-01
-2.788148224353790283e-01
-2.655069530010223389e-01
-3.816956281661987305e-02
-2.713936269283294678e-01
6.457572430372238159e-02
1.554725021123886108e-01
-3.094190359115600586e-01
-1.082972809672355652e-01
-1.044076234102249146e-01
-2.043051868677139282e-01
-1.527180820703506470e-01
-2.147834450006484985e-01
-2.497923076152801514e-01
-1.349809169769287109e-01
-2.058331072330474854e-01
-2.254648506641387939e-01
-1.220127120614051819e-01
-3.520725667476654053e-01
-1.375665813684463501e-01
-3.694853484630584717e-01
-3.474005460739135742e-01
-2.943847179412841797e-01
-1.221424620598554611e-02
-2.488693743944168091e-01
-1.377800852060317993e-01
-1.119928881525993347e-01
-1.712287962436676025e-01
-4.641146957874298096e-02
-2.765662670135498047e-01
2.954598329961299896e-02
5.897137895226478577e-02
-1.780241727828979492e-01
-2.332605421543121338e-01
-3.720403909683227539e-01
-1.631736904382705688e-01
2.157900482416152954e-01
-3.581092953681945801e-01
-2.049245089292526245e-01
1.972853988409042358e-01
-1.455172002315521240e-01
-6.328425407409667969e-01
-7.220810651779174805e-02
-3.840242624282836914e-01
7.700103521347045898e-02
-3.320378437638282776e-02
-5.126220360398292542e-02
-2.405824661254882812e-01
-1.025929152965545654e-01
-2.362079430895391852e-05
-3.089937381446361542e-02
2.318523675203323364e-01
-2.464737147092819214e-01
3.278911113739013672e-01
-6.229734048247337341e-02
2.731691896915435791e-01
-1.117305643856525421e-02
7.212681323289871216e-02
-1.056923642754554749e-01
-2.988766878843307495e-02
-4.837482050061225891e-02
3.003701753914356232e-02
-2.259390056133270264e-01
7.569588720798492432e-02
-2.512415647506713867e-01
-5.809532403945922852e-01
-1.102415937930345535e-02
9.631831943988800049e-02
9.278823435306549072e-02
8.562099188566207886e-02
-1.023274064064025879e-01
2.908433973789215088e-01
3.663807511329650879e-01
1.728391498327255249e-01
4.449269771575927734e-01
-4.365425929427146912e-02
-2.106905132532119751e-01
-2.017673552036285400e-01
9.191031008958816528e-02
-2.274269163608551025e-01
4.827219247817993164e-02
8.534162491559982300e-02
-2.585636377334594727e-01
-3.547501862049102783e-01
1.256963759660720825e-01
1.787521839141845703e-01
-3.282432258129119873e-01
1.936403065919876099e-01
-1.414774954319000244e-01
3.926097229123115540e-02
-3.323687016963958740e-01
-4.290605783462524414e-01
9.073800593614578247e-02
-2.235349565744400024e-01
-1.416571158915758133e-02
-3.743688166141510010e-01
4.880229532718658447e-01
1.787626147270202637e-01
9.618390351533889771e-02
-8.754178881645202637e-02
1.650790423154830933e-01
-2.317942976951599121e-01
-2.952112555503845215e-01
-5.965722799301147461e-01
2.802319526672363281e-01
-7.927581071853637695e-01
-1.472596228122711182e-01
4.851135313510894775e-01
3.977950662374496460e-02
-4.305759966373443604e-01
8.339284360408782959e-02
1.061563566327095032e-01
-3.872766792774200439e-01
-3.053326010704040527e-01
-2.042359858751296997e-02
1.868068873882293701e-01
-7.190370559692382812e-02
2.027077972888946533e-01
-8.601380586624145508e-01
-4.259530827403068542e-02
-1.560509353876113892e-01
2.202109098434448242e-01
-5.431246757507324219e-01
-1.961222589015960693e-01
-2.581767551600933075e-02
-6.695844978094100952e-02
1.592850387096405029e-01
2.348680794239044189e-02
-2.919889092445373535e-01
-1.366418004035949707e-01
-1.887153536081314087e-01
-1.367086023092269897e-01
1.381049901247024536e-01
-2.739802002906799316e-01
-3.957813680171966553e-01
-9.432777762413024902e-02
2.074694782495498657e-01
-2.970423996448516846e-01
-2.877723276615142822e-01
-6.407961715012788773e-03
5.098200216889381409e-02
-6.087874770164489746e-01
-3.775205314159393311e-01
2.188488990068435669e-01
-1.998552381992340088e-01
6.560645997524261475e-02
-6.150636076927185059e-01
-3.234179317951202393e-01
4.030221700668334961e-01
1.421545445919036865e-01
5.782262980937957764e-02
-5.597781762480735779e-02
-4.191076159477233887e-01
1.568543463945388794e-01
2.729311287403106689e-01
-9.841950610280036926e-03
-7.384760379791259766e-01
1.671680659055709839e-01
-1.333698332309722900e-01
1.205722317099571228e-01
-1.435921490192413330e-01
2.409647405147552490e-01
-3.898731246590614319e-02
-2.465721815824508667e-01
-3.643427789211273193e-01
-1.303729712963104248e-01
-1.553466916084289551e-01
6.631171703338623047e-02
-1.999839544296264648e-01
-1.144485175609588623e-01
-1.347088813781738281e-01
1.204578112810850143e-02
-2.290800064802169800e-01
-1.478220522403717041e-01
2.000374794006347656e-01
2.932471979875117540e-04
1.594495326280593872e-01
-1.905786991119384766e-02
1.678991913795471191e-01
-1.936848163604736328e-01
-9.594971686601638794e-02
8.165879547595977783e-02
6.466489285230636597e-02
-6.228489056229591370e-02
-7.973362505435943604e-02
2.791489064693450928e-01
-3.817866742610931396e-01
-1.986668854951858521e-01
-1.047923862934112549e-01
-1.251953840255737305e-01
7.562194019556045532e-02
-3.156293630599975586e-01
-4.873164892196655273e-01
-2.164532244205474854e-01
-2.980344891548156738e-01
2.098779678344726562e-01
2.072394043207168579e-01
-5.084077119827270508e-01
-1.915669888257980347e-01
-1.478174626827239990e-01
-5.096680670976638794e-02
2.671950161457061768e-01
-5.945951342582702637e-01
-4.337849915027618408e-01
-1.665014773607254028e-02
2.420212700963020325e-02
-8.043692708015441895e-01
-2.051598280668258667e-01
-1.361960470676422119e-01
-1.600762605667114258e-01
2.666427940130233765e-02
-9.434004127979278564e-02
-2.612480819225311279e-01
4.672177881002426147e-02
-1.036434173583984375e-01
-3.385303616523742676e-01
-2.427350133657455444e-01
-1.345765590667724609e-01
-4.790993779897689819e-02
-1.839207857847213745e-01
1.958366036415100098e-01
1.622714549303054810e-01
-6.447071433067321777e-01
4.709219932556152344e-02
-1.424087435007095337e-01
-2.534396648406982422e-01
7.292001508176326752e-03
-3.645952641963958740e-01
5.241525918245315552e-02
-3.088290095329284668e-01
-2.223093509674072266e-01
-6.746049225330352783e-02
-2.080716043710708618e-01
-1.582319140434265137e-01
-6.807296723127365112e-02
7.934434339404106140e-03
-9.948693960905075073e-02
1.670953035354614258e-01
6.697230041027069092e-02
-4.346276819705963135e-01
2.468607276678085327e-01
-3.549078404903411865e-01
1.135810911655426025e-01
-2.080065459012985229e-01
1.378525607287883759e-02
3.837646842002868652e-01
-1.392209529876708984e-01
-1.134340465068817139e-01
-1.241829129867255688e-03
-1.664591878652572632e-01
1.577477753162384033e-01
-7.474903017282485962e-02
2.182433903217315674e-01
5.036769807338714600e-02
-2.515683174133300781e-01
-3.451102674007415771e-01
-1.088160797953605652e-01
1.696952283382415771e-01
-3.636768460273742676e-01
-1.509148329496383667e-01
-5.626887083053588867e-01
1.619946584105491638e-02
1.924652978777885437e-02
4.893502593040466309e-02
4.366577565670013428e-01
-1.557905226945877075e-01
2.673579007387161255e-02
3.751540184020996094e-02
-2.789487317204475403e-02
6.345500797033309937e-02
-2.646844983100891113e-01
5.543385818600654602e-02
-1.576857715845108032e-01
-9.719871729612350464e-02
-2.736997604370117188e-01
-1.972909420728683472e-01
-5.879130959510803223e-02
-3.825408816337585449e-01
4.192431271076202393e-01
-4.090643301606178284e-02
-2.993577122688293457e-01
-1.719864904880523682e-01
-3.268791437149047852e-01
-4.355194792151451111e-02
-2.786355018615722656e-01
-1.701791584491729736e-02
1.115958169102668762e-01
-9.500285983085632324e-02
-2.889358252286911011e-02
1.361912041902542114e-01
-2.847059965133666992e-01
3.576482459902763367e-02
-2.274461835622787476e-01
1.580369025468826294e-01
-3.626670315861701965e-02
4.397133886814117432e-01
-7.556146383285522461e-02
4.894430935382843018e-02
-4.187400937080383301e-01
3.319397941231727600e-02
5.096444487571716309e-01
1.505724620074033737e-02
-3.000369071960449219e-01
1.344004869461059570e-01
-2.081594020128250122e-01
4.073530137538909912e-01
-9.861791878938674927e-02
-3.547749817371368408e-01
-7.529015652835369110e-03
1.385363787412643433e-01
-1.443036049604415894e-01
-2.823252677917480469e-01
-1.883679777383804321e-01
4.511343538761138916e-01
-4.507830739021301270e-01
-1.041975617408752441e-01
3.367167413234710693e-01
-1.527780899778008461e-03
-2.222314178943634033e-01
-4.501119256019592285e-01
-3.554191067814826965e-02
-4.695172607898712158e-01
3.533516079187393188e-02
-4.164206981658935547e-01
3.403101563453674316e-01
-1.934848725795745850e-01
-2.369986474514007568e-02
8.153450675308704376e-03
2.674947082996368408e-01
-6.518027782440185547e-01
2.736640870571136475e-01
3.636127412319183350e-01
2.980611622333526611e-01
-6.967364251613616943e-02
6.170212030410766602e-01
2.375053316354751587e-01
2.696048617362976074e-01
-3.994075357913970947e-01
1.123899295926094055e-01
4.554439801722764969e-04
-3.885085508227348328e-02
2.189381420612335205e-01
1.177691742777824402e-01
-2.322081029415130615e-01
6.711038947105407715e-02
-2.995010614395141602e-01
-4.968685284256935120e-02
9.495788253843784332e-03
-1.778426393866539001e-02
-1.346762180328369141e-01
6.300625950098037720e-02
-9.914265573024749756e-02
2.645461559295654297e-01
4.881202057003974915e-02
4.123319089412689209e-01
1.982177942991256714e-01
3.417924046516418457e-01
2.479065954685211182e-01
1.076005026698112488e-01
-5.918093025684356689e-02
5.887344945222139359e-03
5.610617995262145996e-01
-5.297641828656196594e-02
3.745559155941009521e-01
3.592781424522399902e-01
-7.899045944213867188e-02
1.423869431018829346e-01
6.121615767478942871e-01
1.177532505244016647e-02
1.676898449659347534e-02
-1.921817660331726074e-01
-2.910776436328887939e-01
-1.252557635307312012e-01
1.258850842714309692e-01
-3.193730711936950684e-01
-7.585632055997848511e-02
-2.950296700000762939e-01
-2.787497043609619141e-01
7.452440261840820312e-02
-5.718569085001945496e-02
-9.925193339586257935e-02
2.700899168848991394e-02
-2.339884936809539795e-01
4.399018287658691406e-01
9.402586519718170166e-02
3.869377076625823975e-01
-2.392144054174423218e-01
-3.667572513222694397e-02
-3.305815160274505615e-02
1.086468398571014404e-01
1.600735783576965332e-01
1.768347918987274170e-01
-1.842254400253295898e-01
3.547814209014177322e-03
-1.209698840975761414e-01
1.221244111657142639e-01
-1.039544343948364258e-01
-4.307407736778259277e-01
-1.941067278385162354e-01
1.942422799766063690e-02
-5.868105962872505188e-02
2.623779326677322388e-02
5.128312110900878906e-01
2.974592447280883789e-01
-3.249247968196868896e-01
3.874880075454711914e-01
1.360554993152618408e-01
-1.104614287614822388e-01
2.221105992794036865e-01
1.231968700885772705e-01
-3.111086785793304443e-01
3.060776591300964355e-01
5.220956802368164062e-01
-3.066377043724060059e-01
2.041906714439392090e-01
2.019590884447097778e-01
2.395181506872177124e-01
-2.297446280717849731e-01
8.305856958031654358e-03
-1.089335307478904724e-01
2.491115778684616089e-01
-1.014072671532630920e-01
1.599374264478683472e-01
-2.497535385191440582e-02
4.427480325102806091e-02
-1.884683966636657715e-01
4.064136743545532227e-01
-1.018666028976440430e-01
2.527691125869750977e-01
-1.444517970085144043e-01
4.185998737812042236e-01
-9.057252109050750732e-02
3.580352663993835449e-01
7.127343863248825073e-02
-2.361756712198257446e-01
-1.714521199464797974e-01
1.134422197937965393e-01
-2.228876054286956787e-01
2.451779097318649292e-01
1.221889927983283997e-01
7.794135808944702148e-02
-4.659091830253601074e-01
-4.784565791487693787e-02
-1.243050843477249146e-01
3.819374740123748779e-02
1.544134765863418579e-01
1.446530874818563461e-02
4.707393050193786621e-02
-2.330801635980606079e-01
-5.085156485438346863e-02
2.571718394756317139e-01
-1.849446147680282593e-01
-3.061081469058990479e-01
1.966695301234722137e-02
2.454070895910263062e-01
2.435749769210815430e-01
-2.242591604590415955e-02
-8.075723797082901001e-02
-1.000259146094322205e-01
4.576395153999328613e-01
2.517687976360321045e-01
-7.972822338342666626e-02
4.352144598960876465e-01
3.939152508974075317e-02
-1.729048639535903931e-01
5.441417545080184937e-02
-2.765577472746372223e-02
-5.375563353300094604e-02
-3.759136050939559937e-02
-1.322509497404098511e-01
-9.644971787929534912e-02
-2.820279449224472046e-02
-8.975606411695480347e-02
1.842429935932159424e-01
5.610313266515731812e-02
-2.629446685314178467e-01
5.122621655464172363e-01
2.495236545801162720e-01
4.888759851455688477e-01
2.934157252311706543e-01
-1.024514511227607727e-01
9.147734194993972778e-02
-2.491625696420669556e-01
-1.336775571107864380e-01
1.328495591878890991e-01
1.036191806197166443e-01
8.674468845129013062e-02
3.540818393230438232e-02
2.680922113358974457e-02
2.495224960148334503e-02
3.452761843800544739e-02
-2.644543647766113281e-01
1.349198222160339355e-01
-8.526794314384460449e-01
5.447319149971008301e-02
-8.759720250964164734e-03
-5.217273831367492676e-01
5.116214975714683533e-02
1.292289644479751587e-01
-8.013270795345306396e-02
4.789802059531211853e-02
1.203969791531562805e-01
1.698731780052185059e-01
2.102837115526199341e-01
3.488496243953704834e-01
-2.517820894718170166e-01
3.331960737705230713e-01
-1.596562447957694530e-03
7.350412607192993164e-01
3.235581517219543457e-01
1.102751027792692184e-02
-9.552366286516189575e-02
-1.143420040607452393e-01
-6.440863758325576782e-02
1.103878542780876160e-01
2.642007172107696533e-01
1.308559775352478027e-01
-4.330191016197204590e-01
3.531289994716644287e-01
7.281490415334701538e-02
-3.854926824569702148e-01
-1.786535084247589111e-01
-7.821372896432876587e-02
2.099209576845169067e-01
-1.728311181068420410e-01
3.363975584506988525e-01
2.535840682685375214e-02
-9.017084538936614990e-02
-8.406224846839904785e-02
-1.938634961843490601e-01
2.801929116249084473e-01
5.936884786933660507e-03
3.771498799324035645e-02
4.335793480277061462e-02
6.822046637535095215e-02
-1.190930325537919998e-02
2.414013445377349854e-01
-1.049283146858215332e-01
-3.151001408696174622e-02
4.231314659118652344e-01
-2.259695529937744141e-01
-2.143705487251281738e-01
5.532960295677185059e-01
1.817629635334014893e-01
2.890306115150451660e-01
9.337522089481353760e-02
2.307007089257240295e-02
-5.674896240234375000e-01
-2.817659080028533936e-01
6.440136581659317017e-02
3.560199141502380371e-01
-2.763583958148956299e-01
-5.122408270835876465e-01
-5.608630776405334473e-01
-2.500266134738922119e-01
-2.629901468753814697e-01
-2.045322954654693604e-01
-2.315745353698730469e-01
-2.379367053508758545e-01
1.647621989250183105e-01
-5.378788113594055176e-01
-3.983526229858398438e-01
-2.188265919685363770e-01
1.058958992362022400e-01
-5.437751412391662598e-01
-6.778519749641418457e-01
-2.341055124998092651e-01
-4.365774989128112793e-01
-3.174147009849548340e-01
-1.594953238964080811e-01
1.883903518319129944e-02
-6.571202278137207031e-01
-3.660440146923065186e-01
-4.205182492733001709e-01
-4.513464272022247314e-01
1.652638912200927734e-01
-1.721648573875427246e-01
-2.532871663570404053e-01
-1.131825521588325500e-01
-4.177111983299255371e-01
-2.252921164035797119e-01
-4.466468095779418945e-01
-1.581588387489318848e-01
-2.794057130813598633e-01
-4.190640449523925781e-01
-3.281405568122863770e-01
-3.209946453571319580e-01
-3.376508057117462158e-01
2.346616685390472412e-01
-3.023056387901306152e-01
8.163727521896362305e-01
-5.937106609344482422e-01
-3.138821423053741455e-01
-1.247062832117080688e-01
-3.381644487380981445e-01
-5.818674340844154358e-02
-1.065448448061943054e-01
2.356126755475997925e-01
-5.227882862091064453e-01
7.138720899820327759e-02
1.328949332237243652e-01
-4.314029514789581299e-01
-5.082916617393493652e-01
1.140399873256683350e-01
6.510933488607406616e-02
-6.348893046379089355e-01
-1.975502073764801025e-01
-5.117884874343872070e-01
-2.424044311046600342e-01
1.610223501920700073e-01
1.280102133750915527e-01
-5.687044858932495117e-01
-3.206749856472015381e-01
-6.165548413991928101e-02
-3.108424842357635498e-01
-6.062584519386291504e-01
-4.329870939254760742e-01
-3.137265741825103760e-01
-5.109580159187316895e-01
-1.121686547994613647e-01
-1.688335239887237549e-01
-2.003338187932968140e-01
-8.862075209617614746e-02
1.142861321568489075e-03
-2.036357522010803223e-01
-2.642967998981475830e-01
-4.147008955478668213e-01
1.436016410589218140e-01
-2.909393608570098877e-01
-7.934727668762207031e-01
-5.301620364189147949e-01
-2.216519415378570557e-01
9.707319736480712891e-02
-3.304341435432434082e-01
-1.021195203065872192e-01
-4.091496765613555908e-01
-7.153101265430450439e-03
-2.864410579204559326e-01
-4.920690059661865234e-01
1.718148142099380493e-01
-2.470356822013854980e-01
-4.751699268817901611e-01
-2.997107207775115967e-01
-5.753436684608459473e-01
-4.046617075800895691e-02
-5.104523897171020508e-01
-2.071177810430526733e-01
-5.714849233627319336e-01
-4.590698182582855225e-01
-1.762794852256774902e-01
3.586162999272346497e-02
-2.248005755245685577e-02
-1.406582891941070557e-01
8.639504760503768921e-02
-3.031476438045501709e-01
-4.676752686500549316e-01
-3.240600526332855225e-01
-1.370558887720108032e-01
-4.968827590346336365e-02
-7.484648227691650391e-01
-3.467464745044708252e-01
-4.499351680278778076e-01
-2.765781879425048828e-01
-3.245299682021141052e-02
-1.199970617890357971e-01
-3.780554234981536865e-01
-2.646163105964660645e-01
-3.912556767463684082e-01
-1.226610541343688965e-01
6.305946409702301025e-02
-3.702282905578613281e-01
1.219713613390922546e-01
-4.921205341815948486e-01
-1.516445428133010864e-01
-2.536024153232574463e-01
-5.490781664848327637e-01
-2.930649518966674805e-01
-2.043875902891159058e-01
-2.075742632150650024e-01
-9.116393327713012695e-02
-5.949138998985290527e-01
-1.809325665235519409e-01
-6.194525361061096191e-01
-2.501181662082672119e-01
-3.709988892078399658e-01
-2.944359779357910156e-01
-2.909114658832550049e-01
-4.584765434265136719e-01
-6.467974931001663208e-02
5.025406181812286377e-02
-1.786140650510787964e-01
-3.052756786346435547e-01
-5.553789734840393066e-01
-6.512989401817321777e-01
-2.396371811628341675e-01
-5.151212215423583984e-01
-3.381906449794769287e-01
-9.061791002750396729e-02
-2.090242505073547363e-01
-1.965658366680145264e-01
2.128838002681732178e-01
-7.692790627479553223e-01
-9.160127490758895874e-02
-1.353695392608642578e-01
-1.391044259071350098e-01
-4.169114828109741211e-01
4.154179617762565613e-02
-4.679090082645416260e-01
-4.066793024539947510e-01
-3.239417970180511475e-01
-2.831559777259826660e-01
-1.609199345111846924e-01
-2.618928849697113037e-01
2.007979750633239746e-01
-2.562999427318572998e-01
-4.835168123245239258e-01
1.260719299316406250e-01
-5.423960685729980469e-01
-1.352437734603881836e-01
-1.639894545078277588e-01
-3.909144401550292969e-01
-5.449470877647399902e-01
-5.028595924377441406e-01
-5.888774991035461426e-01
-1.591045111417770386e-01
-5.788023471832275391e-01
-5.895247459411621094e-01
-2.637215256690979004e-01
-3.765937089920043945e-01
-1.639542430639266968e-01
-3.897103071212768555e-01
-3.011875450611114502e-01
-1.692630499601364136e-01
-4.829570651054382324e-01
-3.916306048631668091e-02
-7.344657182693481445e-02
-3.974681198596954346e-01
-1.133373975753784180e-01
-3.301358819007873535e-01
-2.902205884456634521e-01
-3.731755614280700684e-01
-3.678763508796691895e-01
-5.514429211616516113e-01
-1.394433081150054932e-01
-6.622326970100402832e-01
-3.921720385551452637e-01
-1.440185308456420898e-01
7.603064645081758499e-03
-4.767183661460876465e-01
3.157490491867065430e-01
-5.978534817695617676e-01
-2.869052588939666748e-01
-3.440500795841217041e-01
-1.903935074806213379e-01
-8.382865041494369507e-02
-3.920935690402984619e-01
-4.409416019916534424e-01
-2.917923927307128906e-01
-3.689185157418251038e-02
-6.802220940589904785e-01
-2.205880582332611084e-01
2.016946077346801758e-01
2.462125420570373535e-01
-1.782955676317214966e-01
-2.297857254743576050e-01
-5.698736906051635742e-01
-6.023939847946166992e-01
-8.539904654026031494e-02
-2.218902409076690674e-01
-9.584338404238224030e-03
-9.944650530815124512e-02
-4.263206124305725098e-01
-1.408717334270477295e-01
1.032863464206457138e-02
-4.702155590057373047e-01
-2.139935269951820374e-02
-1.444385200738906860e-01
-1.882388591766357422e-01
-4.904371201992034912e-01
-5.394756197929382324e-01
1.301655769348144531e-01
-3.256994187831878662e-01
4.093392286449670792e-03
-5.182982683181762695e-01
-5.448498725891113281e-01
-1.028623655438423157e-01
-4.018520712852478027e-01
-2.166955918073654175e-01
-3.499041199684143066e-01
-3.530656099319458008e-01
-5.435730814933776855e-01
-5.398462712764739990e-02
9.598743170499801636e-03
-3.740228414535522461e-01
-5.575311779975891113e-01
-4.651376605033874512e-01
-3.954102993011474609e-01
-5.280336141586303711e-01
-1.778551042079925537e-01
-1.747902780771255493e-01
-3.372472524642944336e-01
2.366790175437927246e-02
-2.916225492954254150e-01
