-3.317181468009948730e-01
-2.333460301160812378e-01
-2.402745932340621948e-01
-4.134770855307579041e-02
-7.729733735322952271e-02
-3.269527554512023926e-01
-3.157322406768798828e-01
-1.461911201477050781e-01
-2.367197871208190918e-01
2.610870599746704102e-01
-3.296088576316833496e-01
3.013612702488899231e-02
-3.370303809642791748e-01
-1.835663169622421265e-01
2.095770090818405151e-02
-3.469057083129882812e-01
-7.918392866849899292e-02
-2.143209576606750488e-01
2.700848281383514404e-01
-1.591229736804962158e-01
2.248136103153228760e-01
-2.651185691356658936e-01
7.791983895003795624e-03
1.099098026752471924e-01
-1.898021847009658813e-01
-6.106113642454147339e-02
-3.329620957374572754e-01
-3.471043705940246582e-01
7.144585996866226196e-02
-3.258449733257293701e-01
-2.830581963062286377e-01
-2.383425384759902954e-01
-1.063889563083648682e-01
-1.227797120809555054e-01
3.555735573172569275e-02
-3.804263770580291748e-01
-3.925125347450375557e-04
-3.438663110136985779e-02
3.674679100513458252e-01
1.964335143566131592e-01
-3.233493268489837646e-01
-1.801066994667053223e-01
-2.958144843578338623e-01
2.040873914957046509e-01
-1.317857354879379272e-01
-2.606923580169677734e-01
2.258487492799758911e-01
-4.281685054302215576e-01
-3.043151795864105225e-01
-2.690375447273254395e-01
-3.784997463226318359e-01
-1.890128105878829956e-01
-2.333776503801345825e-01
-4.136303365230560303e-01
-1.801275461912155151e-01
-3.038065433502197266e-01
-3.447862565517425537e-01
-3.969969749450683594e-01
-2.447270900011062622e-01
-1.891145855188369751e-02
-2.406772524118423462e-01
3.472853004932403564e-01
-5.119687914848327637e-01
2.071764878928661346e-02
-7.129884511232376099e-02
1.964906454086303711e-01
-3.379285931587219238e-01
-2.318431884050369263e-01
-4.600571691989898682e-01
-2.404156923294067383e-01
-1.701450049877166748e-01
-3.879644870758056641e-01
9.453287720680236816e-02
-2.176762372255325317e-01
-2.637309134006500244e-01
-1.547115743160247803e-01
4.408569633960723877e-02
-4.049649834632873535e-01
-3.978983163833618164e-01
-2.492758631706237793e-01
-1.298623532056808472e-01
-2.513543665409088135e-01
2.432094961404800415e-01
-3.230490684509277344e-01
-3.265906870365142822e-01
-2.545772492885589600e-01
-7.727810740470886230e-02
-3.243222236633300781e-01
-1.756918728351593018e-01
-2.228033393621444702e-01
-2.536682486534118652e-01
-1.979399472475051880e-01
-9.102393686771392822e-02
-2.795632183551788330e-01
1.502949446439743042e-01
-3.610271215438842773e-01
-2.999508678913116455e-01
-6.183336973190307617e-01
-1.827536374330520630e-01
-3.574561476707458496e-01
-2.011096924543380737e-01
-2.533053159713745117e-01
-3.351880311965942383e-01
-4.620979726314544678e-01
-3.960588276386260986e-01
-3.851905763149261475e-01
-9.456467628479003906e-02
-3.800464570522308350e-01
-1.993342787027359009e-01
-2.349995374679565430e-01
-3.989605307579040527e-01
-3.146403133869171143e-01
-3.028422892093658447e-01
2.071851789951324463e-01
1.607877314090728760e-01
-1.033983472734689713e-02
-3.619134128093719482e-01
-5.338760465383529663e-02
-9.112111479043960571e-02
-1.094219312071800232e-01
1.162676364183425903e-01
-8.145859092473983765e-02
-1.132520884275436401e-01
-4.997505457140505314e-04
-9.035321325063705444e-02
-4.577031731605529785e-02
-1.796007156372070312e-01
-2.971456348896026611e-01
-3.864535689353942871e-01
-4.014818966388702393e-01
-1.288529485464096069e-01
-2.322938442230224609e-01
2.123689092695713043e-02
-3.082705140113830566e-01
-2.566963136196136475e-01
3.725815191864967346e-02
-3.173339962959289551e-01
-8.366967737674713135e-02
-3.349884450435638428e-01
-1.659654080867767334e-02
-2.340652197599411011e-01
2.922150306403636932e-02
-2.415529191493988037e-01
-2.857929468154907227e-01
-3.548431396484375000e-01
1.082079261541366577e-01
-6.883857399225234985e-02
-5.899098142981529236e-02
-8.436565846204757690e-02
1.477842926979064941e-01
-1.988953538239002228e-02
-3.487038910388946533e-01
-1.165256276726722717e-02
-3.306972086429595947e-01
-4.586000144481658936e-01
-2.716083228588104248e-01
-2.325530499219894409e-01
-2.126348763704299927e-01
-3.957298696041107178e-01
-3.004333376884460449e-01
-1.136955320835113525e-01
1.337443292140960693e-01
-5.240456461906433105e-01
-2.212695181369781494e-01
-2.932861745357513428e-01
-8.287636190652847290e-02
-4.030135571956634521e-01
-3.153173327445983887e-01
-4.001651331782341003e-02
-1.515760421752929688e-01
-2.629516273736953735e-02
-1.755169779062271118e-01
-3.174006342887878418e-01
-6.061872094869613647e-02
-3.322576284408569336e-01
-4.230105876922607422e-01
2.627371810376644135e-02
-3.437955081462860107e-01
-2.365855872631072998e-01
-7.923020422458648682e-02
-3.090567588806152344e-01
-3.429056704044342041e-01
-2.917210161685943604e-01
-9.885415434837341309e-02
-7.556393742561340332e-02
-4.582371562719345093e-03
-8.396992087364196777e-02
-2.825842797756195068e-01
2.446730248630046844e-02
-3.930170834064483643e-01
-3.908008038997650146e-01
-1.776197701692581177e-01
-4.544787108898162842e-01
-8.954057097434997559e-02
-1.852235645055770874e-01
-2.219624221324920654e-01
-3.386000394821166992e-01
-1.710979640483856201e-01
-6.594368070363998413e-02
-2.003825008869171143e-01
-3.024479746818542480e-01
-2.584588825702667236e-01
2.437291443347930908e-01
-2.827278971672058105e-01
-4.263627231121063232e-01
2.302365899085998535e-01
-2.930454909801483154e-01
-3.142633438110351562e-01
-2.515781521797180176e-01
-1.702408641576766968e-01
-3.368672132492065430e-01
1.151832193136215210e-01
-1.881008595228195190e-01
-2.207306027412414551e-02
-4.948226511478424072e-01
-2.461403459310531616e-01
-2.798645198345184326e-01
8.203805238008499146e-02
-2.969631850719451904e-01
-9.388592839241027832e-02
-3.544291257858276367e-01
-2.237112522125244141e-01
-3.358857035636901855e-01
-2.594515979290008545e-01
-1.046521961688995361e-01
-1.915569603443145752e-01
1.110841408371925354e-01
1.506990790367126465e-01
-3.079925477504730225e-01
-1.660076230764389038e-01
-8.507158607244491577e-02
-1.506535410881042480e-01
-1.511602103710174561e-01
-2.491513192653656006e-01
-2.918862998485565186e-01
-2.181121557950973511e-01
-2.765341103076934814e-01
-1.812979131937026978e-01
-1.573653817176818848e-01
-4.025395810604095459e-01
-1.572859883308410645e-01
-3.733478188514709473e-01
-3.360545635223388672e-01
-3.722832798957824707e-01
-8.850751817226409912e-02
-2.372250705957412720e-01
-7.966291159391403198e-02
-1.033352389931678772e-01
-2.166228592395782471e-01
-3.055806457996368408e-02
-2.786583602428436279e-01
-5.142350494861602783e-02
-5.308316554874181747e-03
-1.737332642078399658e-01
-2.745900154113769531e-01
-3.946020007133483887e-01
2.873394727706909180e+00
3.218930721282958984e+00
2.589707136154174805e+00
2.786560058593750000e+00
3.183413028717041016e+00
2.835756540298461914e+00
2.379649162292480469e+00
2.954086780548095703e+00
2.636692523956298828e+00
3.126191854476928711e+00
2.971198558807373047e+00
2.916326999664306641e+00
2.780558586120605469e+00
2.882959604263305664e+00
3.019197940826416016e+00
2.913238286972045898e+00
3.232114076614379883e+00
2.767293691635131836e+00
3.342390537261962891e+00
2.960881471633911133e+00
3.269889116287231445e+00
2.929460763931274414e+00
3.063271522521972656e+00
2.926295280456542969e+00
2.909383058547973633e+00
2.901746273040771484e+00
3.050186395645141602e+00
2.715915679931640625e+00
3.075719118118286133e+00
2.738031625747680664e+00
2.445532798767089844e+00
3.027572154998779297e+00
3.093978166580200195e+00
3.050083637237548828e+00
3.033548593521118164e+00
2.883676767349243164e+00
3.266162395477294922e+00
3.379165649414062500e+00
3.234622478485107422e+00
3.400906324386596680e+00
2.895796060562133789e+00
2.846722841262817383e+00
2.821294307708740234e+00
3.085265874862670898e+00
2.751679182052612305e+00
3.039399623870849609e+00
3.066546916961669922e+00
2.754038810729980469e+00
2.606785297393798828e+00
3.073003292083740234e+00
3.206583261489868164e+00
2.690891504287719727e+00
3.169627904891967773e+00
2.804002285003662109e+00
2.988188743591308594e+00
2.635459661483764648e+00
2.618237257003784180e+00
3.121357679367065430e+00
2.800706624984741211e+00
2.960948944091796875e+00
2.676367044448852539e+00
3.481775283813476562e+00
3.216099977493286133e+00
3.105979919433593750e+00
2.937566280364990234e+00
3.106474637985229492e+00
2.769492387771606445e+00
2.710907220840454102e+00
2.351416110992431641e+00
3.262594461441040039e+00
2.241514444351196289e+00
2.886026144027709961e+00
3.511715650558471680e+00
3.065930366516113281e+00
2.573633670806884766e+00
3.106848239898681641e+00
3.086891174316406250e+00
2.582159280776977539e+00
2.688828706741333008e+00
2.965817928314208984e+00
3.190190076828002930e+00
2.921202182769775391e+00
3.221740722656250000e+00
2.196568489074707031e+00
3.007124423980712891e+00
2.837314367294311523e+00
3.182759284973144531e+00
2.501137018203735352e+00
2.796887159347534180e+00
3.003819227218627930e+00
2.992695569992065430e+00
3.166446208953857422e+00
2.983067512512207031e+00
2.766650199890136719e+00
2.882085800170898438e+00
2.856926679611206055e+00
2.883885383605957031e+00
3.121170997619628906e+00
2.786448478698730469e+00
2.591172456741333008e+00
2.880192279815673828e+00
3.161268234252929688e+00
2.726861238479614258e+00
2.724523067474365234e+00
2.942875623703002930e+00
3.011682510375976562e+00
2.442490100860595703e+00
2.613236188888549805e+00
3.240409374237060547e+00
2.766771078109741211e+00
3.015880584716796875e+00
2.348537206649780273e+00
2.729934215545654297e+00
3.342812299728393555e+00
3.089675426483154297e+00
3.018639087677001953e+00
2.957189798355102539e+00
2.640892028808593750e+00
3.106657028198242188e+00
3.237962007522583008e+00
3.034480571746826172e+00
2.201923847198486328e+00
3.122946023941040039e+00
2.883216142654418945e+00
3.154602766036987305e+00
2.872886419296264648e+00
3.241983890533447266e+00
2.939158916473388672e+00
2.768718719482421875e+00
2.641086578369140625e+00
2.929590463638305664e+00
2.799820899963378906e+00
3.027483224868774414e+00
2.778644800186157227e+00
2.892037868499755859e+00
2.813730478286743164e+00
2.977399110794067383e+00
2.748270273208618164e+00
2.894947290420532227e+00
3.247823715209960938e+00
3.008404731750488281e+00
3.107151985168457031e+00
2.927499771118164062e+00
3.189574003219604492e+00
2.851711988449096680e+00
2.893598318099975586e+00
3.104853391647338867e+00
3.003960132598876953e+00
2.955272674560546875e+00
2.895311117172241211e+00
3.270122766494750977e+00
2.647396564483642578e+00
2.855785131454467773e+00
2.945309877395629883e+00
2.915447950363159180e+00
3.047687768936157227e+00
2.727781295776367188e+00
2.556082963943481445e+00
2.751432895660400391e+00
2.683475017547607422e+00
3.160758256912231445e+00
3.217409849166870117e+00
2.544795513153076172e+00
2.847139596939086914e+00
2.853069305419921875e+00
2.940150737762451172e+00
3.232967376708984375e+00
2.464305639266967773e+00
2.599011898040771484e+00
3.040707588195800781e+00
2.992006778717041016e+00
2.224129438400268555e+00
2.806062221527099609e+00
2.850731611251831055e+00
2.841017723083496094e+00
3.087677001953125000e+00
2.933635234832763672e+00
2.684616088867187500e+00
3.040502071380615234e+00
2.920562505722045898e+00
2.612078666687011719e+00
2.696879625320434570e+00
2.836093902587890625e+00
2.913300991058349609e+00
2.759187936782836914e+00
3.146850585937500000e+00
3.101466178894042969e+00
2.386094093322753906e+00
3.093394517898559570e+00
2.797654151916503906e+00
2.787703275680541992e+00
3.054213523864746094e+00
2.614651441574096680e+00
3.101767778396606445e+00
2.681742906570434570e+00
2.825124740600585938e+00
2.978530883789062500e+00
2.765736103057861328e+00
2.851000785827636719e+00
2.949504613876342773e+00
2.956116676330566406e+00
2.940802097320556641e+00
3.196466445922851562e+00
3.097831010818481445e+00
2.525836229324340820e+00
3.246651172637939453e+00
2.656650781631469727e+00
3.082242727279663086e+00
2.802875995635986328e+00
3.024072885513305664e+00
3.342467546463012695e+00
2.872238636016845703e+00
2.898789882659912109e+00
2.986828804016113281e+00
2.777498006820678711e+00
3.209054231643676758e+00
2.937671899795532227e+00
3.204855203628540039e+00
3.045967817306518555e+00
2.788147687911987305e+00
2.688390970230102539e+00
2.855121612548828125e+00
3.153284311294555664e+00
2.695592164993286133e+00
2.879703521728515625e+00
2.389487266540527344e+00
3.003497123718261719e+00
2.963079690933227539e+00
3.058194398880004883e+00
3.464977264404296875e+00
2.884836435317993164e+00
2.977360248565673828e+00
3.037439346313476562e+00
3.018958091735839844e+00
3.039082288742065430e+00
2.766389846801757812e+00
3.090401887893676758e+00
2.871352910995483398e+00
2.897989511489868164e+00
2.741852760314941406e+00
2.839622020721435547e+00
2.888186693191528320e+00
2.642359256744384766e+00
3.440960168838500977e+00
2.928478956222534180e+00
2.694241762161254883e+00
2.808027744293212891e+00
2.720423936843872070e+00
2.929068326950073242e+00
2.681672096252441406e+00
3.044414043426513672e+00
3.161302804946899414e+00
2.901981592178344727e+00
3.016083717346191406e+00
3.125935316085815430e+00
2.767723798751831055e+00
1.171145141124725342e-01
-2.506740093231201172e-01
1.782354861497879028e-01
-3.534067794680595398e-02
4.381804168224334717e-01
-3.883184865117073059e-02
1.294115930795669556e-01
-4.348054826259613037e-01
1.373774092644453049e-02
5.163938403129577637e-01
7.898783683776855469e-02
-3.100321590900421143e-01
4.640466719865798950e-02
-2.361900508403778076e-01
4.472440183162689209e-01
-6.369290500879287720e-02
-3.583957552909851074e-01
3.648735955357551575e-02
1.905707418918609619e-01
-1.527264267206192017e-01
-2.685453295707702637e-01
-1.511097252368927002e-01
4.662281274795532227e-01
-3.956750035285949707e-01
-7.699146121740341187e-02
2.706610262393951416e-01
-7.039729505777359009e-02
-2.855746746063232422e-01
-4.264176189899444580e-01
-3.129875287413597107e-02
-3.992101848125457764e-01
2.907338365912437439e-02
-3.515270948410034180e-01
3.458751142024993896e-01
-2.200760990381240845e-01
-1.125308424234390259e-01
7.200618833303451538e-02
2.596328854560852051e-01
-6.101908683776855469e-01
2.694175541400909424e-01
3.201733231544494629e-01
2.453400194644927979e-01
-9.761537425220012665e-03
5.481438636779785156e-01
2.055945843458175659e-01
2.660709023475646973e-01
-5.110535025596618652e-01
1.371439099311828613e-01
-2.700171805918216705e-02
-3.763898834586143494e-02
1.953662931919097900e-01
4.697563126683235168e-02
-2.059379667043685913e-01
6.903143972158432007e-02
-2.071364074945449829e-01
2.593800611793994904e-02
-4.653606191277503967e-02
-2.809489704668521881e-02
-1.185316666960716248e-01
1.186801791191101074e-01
-6.209884956479072571e-02
1.735520064830780029e-01
1.380104869604110718e-01
3.830939829349517822e-01
2.120413780212402344e-01
3.418893814086914062e-01
2.383268177509307861e-01
6.165134161710739136e-02
5.792231298983097076e-03
6.885427236557006836e-02
5.720229744911193848e-01
-1.539563387632369995e-01
3.795139789581298828e-01
3.289547264575958252e-01
-1.303658005781471729e-03
1.805083602666854858e-01
4.908879399299621582e-01
9.555145353078842163e-02
1.874198205769062042e-02
-1.119493693113327026e-01
-2.614429295063018799e-01
-1.617448478937149048e-01
2.231447249650955200e-01
-2.828822433948516846e-01
-1.240334063768386841e-01
-2.337649464607238770e-01
-3.455270230770111084e-01
8.166995644569396973e-02
1.479425933212041855e-02
-1.279451251029968262e-01
8.241031318902969360e-02
-2.665434479713439941e-01
4.466555714607238770e-01
2.047278732061386108e-02
4.293698966503143311e-01
-2.893013060092926025e-01
5.210104957222938538e-02
-1.092851310968399048e-01
3.384503722190856934e-02
9.762033075094223022e-02
2.029003351926803589e-01
-2.952324748039245605e-01
-1.429140660911798477e-02
-7.831119000911712646e-02
4.560250416398048401e-02
-1.037679687142372131e-01
-4.266993999481201172e-01
-2.050274014472961426e-01
9.515320509672164917e-02
-4.876788705587387085e-02
9.042830788530409336e-04
4.942527115345001221e-01
3.314607143402099609e-01
-4.310858249664306641e-01
3.535761833190917969e-01
4.673312976956367493e-02
-9.343300014734268188e-02
2.264659851789474487e-01
1.364108175039291382e-01
-3.527483940124511719e-01
3.037375807762145996e-01
4.940140843391418457e-01
-3.375008702278137207e-01
2.573426365852355957e-01
2.128778696060180664e-01
2.608030140399932861e-01
-1.553494930267333984e-01
-4.621550440788269043e-02
-3.484476730227470398e-02
2.667150199413299561e-01
-8.314463496208190918e-02
1.247092783451080322e-01
-6.696633994579315186e-02
1.138804759830236435e-02
-1.986410319805145264e-01
3.330205976963043213e-01
-1.129810586571693420e-01
2.424856424331665039e-01
-3.009435348212718964e-02
3.612974882125854492e-01
1.590870507061481476e-02
2.781034708023071289e-01
5.236441642045974731e-02
-2.596384882926940918e-01
-1.476078927516937256e-01
1.098441928625106812e-01
-2.122203260660171509e-01
2.816903293132781982e-01
1.961508840322494507e-01
-7.523343898355960846e-03
-4.049789309501647949e-01
-1.050506602041423321e-03
-1.131049767136573792e-01
1.022786200046539307e-01
6.870439648628234863e-02
3.091839700937271118e-02
4.283811524510383606e-02
-1.943047791719436646e-01
6.334118545055389404e-02
2.713148593902587891e-01
-2.457993030548095703e-01
-2.616891860961914062e-01
-1.161212287843227386e-02
1.870713382959365845e-01
1.599428355693817139e-01
-9.949682652950286865e-02
-3.290929645299911499e-02
-2.225133823230862617e-03
4.239448010921478271e-01
3.297162055969238281e-01
-1.063107028603553772e-01
4.746175706386566162e-01
-2.159124985337257385e-02
-2.557330429553985596e-01
1.423519551753997803e-01
-5.788337811827659607e-02
-5.175795033574104309e-02
-3.629526123404502869e-02
-1.087917312979698181e-01
-1.604788452386856079e-01
-6.754448264837265015e-02
-9.984848648309707642e-02
1.763150244951248169e-01
3.837323456536978483e-04
-2.931387126445770264e-01
5.328285694122314453e-01
1.430793404579162598e-01
4.146743714809417725e-01
2.714585363864898682e-01
-4.677137359976768494e-02
6.040509790182113647e-02
-2.384246736764907837e-01
-1.774936020374298096e-01
1.903959363698959351e-01
1.877283304929733276e-01
9.256182610988616943e-02
3.980917856097221375e-02
1.145105585455894470e-01
9.247787296772003174e-03
8.104941993951797485e-02
-2.855895757675170898e-01
1.025922670960426331e-01
-8.207082152366638184e-01
6.369401514530181885e-02
-2.671436220407485962e-02
-4.829229414463043213e-01
1.037852689623832703e-01
5.568509548902511597e-02
-1.095438841730356216e-02
6.382557004690170288e-02
1.005264148116111755e-01
2.270388454198837280e-01
1.248778998851776123e-01
4.095074534416198730e-01
-2.774099111557006836e-01
2.468904852867126465e-01
-3.744492307305335999e-02
6.873821020126342773e-01
2.208165675401687622e-01
-1.015036366879940033e-02
-7.867974042892456055e-02
-2.908818610012531281e-02
-2.125548571348190308e-02
1.439300626516342163e-01
2.553037703037261963e-01
1.888423562049865723e-01
-3.711628913879394531e-01
2.753874957561492920e-01
1.323316097259521484e-01
-3.608188629150390625e-01
-1.903135329484939575e-01
-1.885757744312286377e-01
2.894415259361267090e-01
-1.785569339990615845e-01
3.266903758049011230e-01
1.175417602062225342e-01
-1.167905479669570923e-01
6.011295132339000702e-03
-2.493132948875427246e-01
2.660084068775177002e-01
2.665675804018974304e-02
-3.707344830036163330e-02
4.810614883899688721e-02
1.039230823516845703e-01
4.834612831473350525e-02
2.617714107036590576e-01
-5.156298726797103882e-02
1.097492221742868423e-02
4.463965296745300293e-01
-2.574781477451324463e-01
-1.731985658407211304e-01
5.301864147186279297e-01
1.719206124544143677e-01
2.740927040576934814e-01
1.296260952949523926e-01
-9.579277597367763519e-03
-5.575463175773620605e-01
-3.673444092273712158e-01
7.161966711282730103e-02
3.815583884716033936e-01
-3.061620891094207764e-01
-4.578472673892974854e-01
-5.964974164962768555e-01
-2.656038701534271240e-01
-3.271175622940063477e-01
-2.555386722087860107e-01
-1.371871829032897949e-01
-1.510242521762847900e-01
1.359499990940093994e-01
-4.815194010734558105e-01
-3.923992514610290527e-01
-2.146745920181274414e-01
6.539268791675567627e-02
-5.623433589935302734e-01
-6.598753929138183594e-01
-2.499290853738784790e-01
-4.698986113071441650e-01
-2.692927420139312744e-01
-1.406027227640151978e-01
3.236544877290725708e-02
-7.611761689186096191e-01
-3.822165727615356445e-01
-4.099429249763488770e-01
-4.554718434810638428e-01
8.462733030319213867e-02
-2.187138944864273071e-01
-3.340535163879394531e-01
-1.582691371440887451e-01
-4.083693325519561768e-01
-1.803954243659973145e-01
-5.276878476142883301e-01
-1.525064408779144287e-01
-3.188838362693786621e-01
-4.759545028209686279e-01
-3.429545164108276367e-01
-2.226814180612564087e-01
-4.249260425567626953e-01
2.144560366868972778e-01
-2.453309744596481323e-01
7.685936093330383301e-01
-5.822946429252624512e-01
-3.937066793441772461e-01
-1.635268479585647583e-01
-2.746073901653289795e-01
1.822072453796863556e-02
-1.411884278059005737e-01
2.289563119411468506e-01
-6.022785902023315430e-01
1.725527197122573853e-01
6.033157929778099060e-02
-3.500936925411224365e-01
-5.108615159988403320e-01
1.530698984861373901e-01
4.927858337759971619e-02
-6.777187585830688477e-01
-1.872552931308746338e-01
-5.226782560348510742e-01
-2.657873928546905518e-01
1.125858128070831299e-01
2.847134321928024292e-02
-5.090586543083190918e-01
-2.966808378696441650e-01
-1.701261103153228760e-01
-3.310106396675109863e-01
-5.922354459762573242e-01
-4.398978650569915771e-01
-3.417437076568603516e-01
-4.729318022727966309e-01
-1.437633335590362549e-01
-9.739246219396591187e-02
-1.647200286388397217e-01
-3.012324124574661255e-02
-5.563879385590553284e-02
-1.607972979545593262e-01
-2.767975032329559326e-01
-4.037100970745086670e-01
1.416892707347869873e-01
-3.119990229606628418e-01
-7.520857453346252441e-01
-5.184998512268066406e-01
-2.120723277330398560e-01
6.249038875102996826e-02
-3.529339730739593506e-01
-7.857262343168258667e-02
-4.149561822414398193e-01
-1.631412655115127563e-02
-2.294782102108001709e-01
-4.195947349071502686e-01
2.024816572666168213e-01
-3.033984899520874023e-01
-4.853908121585845947e-01
-2.768910527229309082e-01
-6.319670677185058594e-01
5.821957811713218689e-02
-5.445560216903686523e-01
-9.262522310018539429e-02
-5.685213804244995117e-01
-4.780660569667816162e-01
-1.528695672750473022e-01
1.039370745420455933e-01
-5.032690614461898804e-02
-2.051532119512557983e-01
1.469851285219192505e-01
-3.050334155559539795e-01
-4.815950989723205566e-01
-2.878526151180267334e-01
-8.515172451734542847e-02
-3.922427073121070862e-02
-8.154729604721069336e-01
-3.942532837390899658e-01
-4.440396130084991455e-01
-2.017661929130554199e-01
1.972306519746780396e-03
-1.526193320751190186e-01
-3.029333353042602539e-01
-3.611818552017211914e-01
-2.896187603473663330e-01
-1.275990009307861328e-01
6.457229703664779663e-02
-4.133461117744445801e-01
1.288430094718933105e-01
-3.908565640449523926e-01
-1.937545239925384521e-01
-2.800506949424743652e-01
-5.932782888412475586e-01
-2.602635622024536133e-01
-2.822910249233245850e-01
-2.768106460571289062e-01
-1.196442916989326477e-01
-5.848520994186401367e-01
-2.373895794153213501e-01
-5.472669601440429688e-01
-3.204135298728942871e-01
-3.244355618953704834e-01
-3.123458325862884521e-01
-3.745267987251281738e-01
-4.346777498722076416e-01
-1.649493165314197540e-02
1.417308151721954346e-01
-1.920034438371658325e-01
-3.552916944026947021e-01
-5.900597572326660156e-01
-6.086738109588623047e-01
-1.816355884075164795e-01
-5.421099662780761719e-01
-3.309036791324615479e-01
-7.001493871212005615e-02
-3.023064434528350830e-01
-1.266843378543853760e-01
1.749671101570129395e-01
-7.458835244178771973e-01
-1.167160794138908386e-01
-1.559294667094945908e-02
-2.000435441732406616e-01
-4.211560785770416260e-01
6.730379164218902588e-02
-4.721938371658325195e-01
-4.263606667518615723e-01
-2.927030324935913086e-01
-3.811943233013153076e-01
-1.381335556507110596e-01
-2.366015166044235229e-01
1.799253970384597778e-01
-1.779268234968185425e-01
-3.777931630611419678e-01
8.342427015304565430e-02
-5.526540875434875488e-01
-1.631752848625183105e-01
-1.549980342388153076e-01
-3.567606210708618164e-01
-4.452473223209381104e-01
-4.809353947639465332e-01
-5.899866819381713867e-01
-2.405021637678146362e-01
-5.379500985145568848e-01
-5.283926725387573242e-01
-3.178710043430328369e-01
-3.390018641948699951e-01
-2.260272353887557983e-01
-3.436407744884490967e-01
-3.663690686225891113e-01
-2.228500396013259888e-01
-4.729005098342895508e-01
-1.148114912211894989e-02
-4.198872670531272888e-02
-3.530184328556060791e-01
-1.116702556610107422e-01
-3.440155386924743652e-01
-2.006461918354034424e-01
-3.468874990940093994e-01
-3.832505941390991211e-01
-5.289888381958007812e-01
-1.588942855596542358e-01
-6.038564443588256836e-01
-3.648831248283386230e-01
-1.148597151041030884e-01
3.386794030666351318e-02
-5.470052957534790039e-01
3.639656603336334229e-01
-6.036909818649291992e-01
-2.617442011833190918e-01
-3.909143507480621338e-01
-2.446817457675933838e-01
-2.378741465508937836e-02
-3.380666971206665039e-01
-5.079352259635925293e-01
-2.784155905246734619e-01
-9.186973422765731812e-02
-6.981641650199890137e-01
-2.517434358596801758e-01
2.268556803464889526e-01
2.443094700574874878e-01
-1.518454849720001221e-01
-3.096679747104644775e-01
-5.273714661598205566e-01
-6.235401630401611328e-01
-7.997723668813705444e-02
-2.329560965299606323e-01
1.018586475402116776e-02
-7.267007231712341309e-02
-3.486465215682983398e-01
-1.823877394199371338e-01
1.853450387716293335e-02
-4.724687933921813965e-01
-1.491862442344427109e-02
-1.658705770969390869e-01
-1.977285593748092651e-01
-5.260185003280639648e-01
-5.806529521942138672e-01
1.397211551666259766e-01
-2.717069387435913086e-01
-5.455990135669708252e-02
-6.009327769279479980e-01
-5.370848178863525391e-01
-7.634523510932922363e-02
-4.091393649578094482e-01
-2.463473975658416748e-01
-3.844557106494903564e-01
-3.327524960041046143e-01
-5.533841252326965332e-01
-4.195240139961242676e-02
5.549091380089521408e-03
-4.479394853115081787e-01
-4.883217215538024902e-01
-5.370020270347595215e-01
-4.054291844367980957e-01
-4.405043125152587891e-01
-9.292858839035034180e-02
-2.159092277288436890e-01
-2.718790471553802490e-01
5.954523570835590363e-03
-2.610015571117401123e-01
