1.169578805565834045e-01
-2.370667606592178345e-01
-5.054615736007690430e-01
-9.275477379560470581e-02
-3.134125173091888428e-01
-8.086837828159332275e-02
-1.924847215414047241e-01
-2.687197327613830566e-01
1.870904117822647095e-02
-5.433337688446044922e-01
4.607962965965270996e-01
-1.678604930639266968e-01
-3.033162355422973633e-01
-1.731587946414947510e-01
-1.771662533283233643e-01
3.735649883747100830e-01
-2.350492924451828003e-01
-1.525640338659286499e-01
5.019750818610191345e-02
-2.972837686538696289e-01
-4.362758398056030273e-01
2.452644854784011841e-01
-5.589673519134521484e-01
1.350726485252380371e-01
-4.820408523082733154e-01
-4.497031867504119873e-01
2.280904166400432587e-02
-1.363934874534606934e-01
-1.189633235335350037e-01
-2.916426360607147217e-01
3.243723139166831970e-02
-3.989821076393127441e-01
-2.952612638473510742e-01
-3.090146481990814209e-01
-8.871474862098693848e-02
-1.945110857486724854e-01
-2.405531257390975952e-01
-3.330482542514801025e-01
-4.303778707981109619e-01
-2.743277847766876221e-01
1.449972540140151978e-01
-3.310869336128234863e-01
-1.196039468050003052e-01
-1.212987154722213745e-01
-1.860182881355285645e-01
-3.760791122913360596e-01
-2.007895410060882568e-01
-4.018741250038146973e-01
-2.158419340848922729e-01
-3.234370648860931396e-01
-4.355201423168182373e-01
-4.699277281761169434e-01
-3.331533372402191162e-01
1.534083206206560135e-02
-2.429829835891723633e-01
-2.790327370166778564e-01
-2.179927527904510498e-01
-2.216304838657379150e-01
-3.434179127216339111e-01
-3.250720202922821045e-01
-6.899133324623107910e-03
-1.961774379014968872e-01
-3.402095139026641846e-01
-1.678686887025833130e-01
-3.326300978660583496e-01
-3.548118472099304199e-02
-3.008343875408172607e-01
-8.202464133501052856e-02
-2.515664994716644287e-01
-4.681267738342285156e-01
-1.309839934110641479e-01
1.387785673141479492e-01
8.792314678430557251e-02
-3.662901371717453003e-02
-2.947971522808074951e-01
-2.501516044139862061e-01
-3.191992044448852539e-01
-2.213155776262283325e-01
-3.571894168853759766e-01
-2.339738309383392334e-01
-3.132117986679077148e-01
-3.896756470203399658e-01
-1.668680161237716675e-01
-2.785065397620201111e-02
-2.069315910339355469e-01
3.702939152717590332e-01
-4.394790232181549072e-01
-5.728766918182373047e-01
-1.781297922134399414e-01
-4.017599523067474365e-01
-4.612883925437927246e-02
-2.748309671878814697e-01
-5.228842496871948242e-01
-4.909597039222717285e-01
-3.226879537105560303e-01
-2.680879235267639160e-01
1.099020242691040039e-01
-1.161018237471580505e-01
-3.167601227760314941e-01
-4.879038333892822266e-01
-3.909182548522949219e-01
-3.280908167362213135e-01
-1.801354289054870605e-01
-2.392553985118865967e-01
6.850973516702651978e-02
-2.260368168354034424e-01
-4.372609555721282959e-01
-2.467699795961380005e-01
-5.240558385848999023e-01
-4.153510332107543945e-01
9.628096967935562134e-02
-3.280176818370819092e-01
-7.031397521495819092e-02
-5.518919229507446289e-01
-1.621604114770889282e-01
-3.087639510631561279e-01
-2.126613557338714600e-01
-4.127651825547218323e-02
-4.932407736778259277e-01
-3.033118844032287598e-01
3.744815662503242493e-02
1.921570487320423126e-02
-5.153953433036804199e-01
-2.320698052644729614e-01
-3.598375022411346436e-01
-2.602527737617492676e-01
-2.153573036193847656e-01
-2.996861636638641357e-01
-3.834159672260284424e-02
4.993126541376113892e-02
-5.431354045867919922e-01
-3.827455043792724609e-01
-1.184876784682273865e-01
-1.286188960075378418e-01
-2.837744355201721191e-01
-5.937350988388061523e-01
-5.873840451240539551e-01
4.173903539776802063e-02
4.510695580393075943e-03
-7.947243750095367432e-02
-4.400385618209838867e-01
-1.169946864247322083e-01
-3.916391432285308838e-01
8.869180828332901001e-02
-4.233769774436950684e-01
-3.778961002826690674e-01
1.558345407247543335e-01
-5.228503346443176270e-01
-1.397446244955062866e-01
-4.561937749385833740e-01
-4.069856405258178711e-01
-5.060116052627563477e-01
-3.246350884437561035e-01
-3.898978233337402344e-03
-7.691356539726257324e-02
-1.719419509172439575e-01
2.603052556514739990e-01
-4.663611054420471191e-01
-6.247792765498161316e-02
-3.519634008407592773e-01
-4.294336438179016113e-01
-3.896864950656890869e-01
-1.291298270225524902e-01
-1.149306967854499817e-01
3.780658543109893799e-02
-2.979898452758789062e-01
-3.371016979217529297e-01
-5.526130646467208862e-02
-1.386668384075164795e-01
-2.280896753072738647e-01
-1.535791903734207153e-01
-1.081785038113594055e-01
-2.819343805313110352e-01
-5.598165392875671387e-01
-3.516245186328887939e-01
-2.539991438388824463e-01
-2.340147942304611206e-01
-5.697525739669799805e-01
-2.366366982460021973e-01
-1.080725193023681641e-01
1.409631818532943726e-01
-3.947952985763549805e-01
-3.900465965270996094e-01
3.193900734186172485e-02
-1.589014381170272827e-01
-2.696835398674011230e-01
-2.162692844867706299e-01
-8.634343743324279785e-02
-1.610997617244720459e-01
-2.546611726284027100e-01
7.027611136436462402e-03
-1.280572265386581421e-01
2.189296483993530273e-01
-1.535422056913375854e-01
-4.630853235721588135e-01
-2.050156295299530029e-01
-5.022579431533813477e-01
-1.137742698192596436e-01
-1.807860434055328369e-01
-3.814280033111572266e-01
-4.260778725147247314e-01
-2.697692513465881348e-01
-2.817957401275634766e-01
-3.258220255374908447e-01
-1.786718219518661499e-01
-2.974404692649841309e-01
-3.947600424289703369e-01
1.628503650426864624e-01
-3.412896394729614258e-01
-2.555346786975860596e-01
-1.818608492612838745e-01
-1.962771825492382050e-02
-2.302638739347457886e-01
-5.694499611854553223e-01
-1.712286919355392456e-01
2.021075487136840820e-01
-1.673320494592189789e-02
1.924857795238494873e-01
-3.060184121131896973e-01
-1.880893260240554810e-01
-2.000594139099121094e-01
-2.921067476272583008e-01
-4.101234674453735352e-01
1.480865385383367538e-02
-4.962646663188934326e-01
1.746245771646499634e-01
-2.674290537834167480e-01
-3.698446452617645264e-01
4.033128917217254639e-02
1.584188044071197510e-01
-6.032779812812805176e-01
-5.449004843831062317e-02
-2.224950641393661499e-01
-3.917102813720703125e-01
7.837918400764465332e-02
-1.379888504743576050e-01
-1.914490461349487305e-01
-2.356119304895401001e-01
2.319939993321895599e-02
-2.665973305702209473e-01
-2.669097483158111572e-01
-3.343029916286468506e-01
-4.646626114845275879e-01
-4.827147722244262695e-01
-3.990918695926666260e-01
-5.470196008682250977e-01
3.947958350181579590e-02
-3.462920188903808594e-01
-2.627275586128234863e-01
-2.631137669086456299e-01
-1.592802107334136963e-01
2.680051326751708984e-01
2.948655746877193451e-02
-6.007845401763916016e-01
-3.793802559375762939e-01
-1.314162164926528931e-01
9.884326905012130737e-02
-5.080446973443031311e-02
-6.260964274406433105e-01
-1.033571213483810425e-01
-9.411587566137313843e-02
1.058554649353027344e-01
-8.636236190795898438e-01
1.923426538705825806e-01
-4.055979847908020020e-01
-3.528289496898651123e-01
3.642523884773254395e-01
4.391113668680191040e-02
-4.865521565079689026e-02
-1.091063991189002991e-01
-5.135059356689453125e-01
1.400910317897796631e-01
5.726595409214496613e-03
-6.265607080422341824e-04
1.058206781744956970e-01
-3.575637042522430420e-01
1.723769456148147583e-01
6.344556063413619995e-02
-1.649694740772247314e-01
1.383429020643234253e-01
-1.472534090280532837e-01
-4.607311487197875977e-01
3.998829633928835392e-04
-3.001825809478759766e-01
-8.657184243202209473e-02
-7.598047256469726562e-01
-1.470642834901809692e-01
-2.043771743774414062e-02
-1.185095757246017456e-01
-2.461248263716697693e-02
1.146028637886047363e-01
9.543403983116149902e-02
7.286009937524795532e-02
-2.592186331748962402e-01
-1.477121114730834961e-01
-1.843107193708419800e-01
6.589012593030929565e-02
-1.185443326830863953e-01
3.767624124884605408e-02
2.284440994262695312e-01
-3.572747707366943359e-01
-2.961103320121765137e-01
-9.268730133771896362e-02
-2.924899160861968994e-01
3.416960313916206360e-02
-2.079593688249588013e-01
-1.670552790164947510e-01
-3.264867141842842102e-02
-2.294114381074905396e-01
-2.504416108131408691e-01
-3.208255469799041748e-01
-9.097470343112945557e-02
-3.683644235134124756e-01
-8.625123649835586548e-02
2.102584019303321838e-02
-3.637569546699523926e-01
1.454482078552246094e-01
-8.776138722896575928e-02
-3.448093831539154053e-01
-2.077307552099227905e-01
1.132956743240356445e-01
-4.223937690258026123e-01
-1.075784787535667419e-01
4.836437851190567017e-02
-5.789052844047546387e-01
-3.682211935520172119e-01
-2.015825547277927399e-02
-1.321849226951599121e-01
1.606767773628234863e-01
-5.306121334433555603e-02
-3.460891842842102051e-01
-5.088381767272949219e-01
1.064263582229614258e-01
-1.095050424337387085e-01
-3.301483690738677979e-01
1.684769243001937866e-02
1.904987692832946777e-01
-3.622808456420898438e-01
1.623834669589996338e-02
4.657095763832330704e-03
-6.613531708717346191e-02
3.011585175991058350e-01
-3.135588765144348145e-01
2.431374937295913696e-01
-4.225902557373046875e-01
8.950525522232055664e-02
-1.494929492473602295e-01
-3.832778707146644592e-02
1.350894421339035034e-01
-4.100784286856651306e-02
-4.631580710411071777e-01
6.932079792022705078e-02
5.001199617981910706e-02
-6.020810082554817200e-02
6.663735210895538330e-02
-4.482629299163818359e-01
-3.832206428050994873e-01
-2.081054151058197021e-01
-3.107521235942840576e-01
-3.939989954233169556e-02
1.650370210409164429e-01
-3.630641400814056396e-01
-4.718458354473114014e-01
-8.675268292427062988e-02
-3.478055000305175781e-01
6.036714091897010803e-02
1.404307484626770020e-01
-1.624498702585697174e-02
3.168040141463279724e-02
-3.597145974636077881e-01
-1.288485378026962280e-01
-4.388290923088788986e-03
-1.623814739286899567e-02
1.297961771488189697e-01
-3.797766566276550293e-01
-4.218385219573974609e-01
-1.468984633684158325e-01
-2.201935499906539917e-01
-4.033659398555755615e-01
-7.035727053880691528e-02
-7.445406168699264526e-02
7.886446267366409302e-02
1.437799036502838135e-01
2.130076102912425995e-02
1.680905967950820923e-01
3.500070273876190186e-01
-7.043380737304687500e-01
-6.236721873283386230e-01
3.970369696617126465e-02
9.623514860868453979e-02
-2.446035109460353851e-02
1.117612272500991821e-01
-4.456419050693511963e-01
5.611017113551497459e-04
-9.964784234762191772e-02
7.247258722782135010e-02
-1.967872232198715210e-01
2.983525693416595459e-01
-2.452342957258224487e-01
2.280774265527725220e-01
-2.720029354095458984e-01
-1.829705834388732910e-01
1.206245925277471542e-02
-4.750681221485137939e-01
-1.126919873058795929e-02
-8.674106001853942871e-01
-6.056678891181945801e-01
2.123026102781295776e-01
-1.952605247497558594e-01
1.804664283990859985e-01
-1.890061944723129272e-01
-1.263048648834228516e-01
-1.882160454988479614e-02
-1.527409255504608154e-01
2.095913141965866089e-01
-3.606263995170593262e-01
-2.942637503147125244e-01
-5.485554933547973633e-01
-1.381136327981948853e-01
3.605166375637054443e-01
-6.932102888822555542e-02
-5.686384811997413635e-02
-2.784967049956321716e-02
4.655413329601287842e-02
8.112449198961257935e-02
7.575246691703796387e-02
-1.179131343960762024e-01
2.465573139488697052e-03
-2.403759211301803589e-01
-2.214941829442977905e-01
-4.537915587425231934e-01
-2.523442804813385010e-01
-1.465468555688858032e-01
9.687691181898117065e-02
-3.326625525951385498e-01
-1.091733947396278381e-01
2.742446660995483398e-01
-1.835882514715194702e-01
-7.721979916095733643e-02
-7.481428980827331543e-02
-9.780263155698776245e-02
-7.963567227125167847e-02
-4.895261675119400024e-02
1.080751884728670120e-02
2.962318249046802521e-02
9.790729731321334839e-02
1.748957335948944092e-01
-1.789795011281967163e-01
-6.596648693084716797e-02
-3.201084956526756287e-02
-8.503624796867370605e-02
-3.327116370201110840e-02
-3.744202107191085815e-02
3.078530076891183853e-03
-5.065104924142360687e-03
-1.082150191068649292e-01
-5.207845568656921387e-01
4.443651065230369568e-02
1.592900454998016357e-01
4.370670393109321594e-02
1.135242059826850891e-01
-5.473441481590270996e-01
1.918514817953109741e-01
-3.481176681816577911e-03
-5.688345059752464294e-02
-1.615466177463531494e-01
-2.193738818168640137e-01
1.634383052587509155e-01
-1.046688482165336609e-01
-3.559754490852355957e-01
-2.977852821350097656e-01
5.756596848368644714e-02
-6.372118741273880005e-02
2.245146334171295166e-01
-2.852717936038970947e-01
6.417438387870788574e-02
-1.687313616275787354e-01
-1.856645792722702026e-01
1.087356940843164921e-03
-6.062421798706054688e-01
-5.413611531257629395e-01
8.572726696729660034e-02
-1.150217186659574509e-02
-4.697136282920837402e-01
-3.950680494308471680e-01
1.054267659783363342e-01
1.534918695688247681e-01
2.133849412202835083e-01
-6.459131091833114624e-02
-5.318984016776084900e-02
2.445958703756332397e-01
4.538172110915184021e-02
4.608049616217613220e-02
-3.184615969657897949e-01
1.186231374740600586e-01
-3.409274220466613770e-01
-1.615321338176727295e-01
-3.992529511451721191e-01
1.594465821981430054e-01
-1.598778367042541504e-01
-1.436132937669754028e-01
-1.869068294763565063e-01
-2.462407499551773071e-01
-1.868568509817123413e-01
-6.668402999639511108e-02
-1.814599148929119110e-02
-2.887789607048034668e-01
2.745554149150848389e-01
4.350602626800537109e-02
-1.412459909915924072e-01
-9.354435205459594727e-01
-3.513944335281848907e-03
3.149074316024780273e-01
-1.956403851509094238e-01
-6.900918483734130859e-01
-1.818356215953826904e-01
2.819516956806182861e-01
-1.373236179351806641e-01
4.694360494613647461e-01
-1.925401687622070312e-01
2.546748816967010498e-01
-4.680376499891281128e-02
-2.932253777980804443e-01
-3.436512500047683716e-02
-2.106291502714157104e-01
2.822090685367584229e-01
6.995846331119537354e-02
-5.578427910804748535e-01
-8.453596383333206177e-02
5.315091833472251892e-02
3.378279805183410645e-01
-1.186910867691040039e-01
1.025789696723222733e-02
-4.056587815284729004e-01
1.642636060714721680e-01
3.237969875335693359e-01
1.491708457469940186e-01
1.745134219527244568e-02
5.427008029073476791e-03
-7.329627126455307007e-02
8.486378192901611328e-02
5.244045853614807129e-01
6.835240870714187622e-02
1.681764423847198486e-01
3.322615027427673340e-01
2.456755191087722778e-01
4.178195893764495850e-01
-7.070092111825942993e-02
2.173490077257156372e-01
7.824379950761795044e-02
5.189656093716621399e-02
-2.435676008462905884e-01
-1.519125401973724365e-01
5.728233978152275085e-02
9.956087917089462280e-02
4.670993089675903320e-01
-4.354177415370941162e-01
6.048446521162986755e-02
-1.703281551599502563e-01
2.940163612365722656e-01
2.173453718423843384e-01
1.465830206871032715e-01
3.026585280895233154e-01
-5.924541503190994263e-02
-4.742806851863861084e-01
-1.500932574272155762e-01
-3.899724036455154419e-02
1.287761032581329346e-01
7.241629809141159058e-02
-2.764312922954559326e-01
-3.841000199317932129e-01
-8.550029247999191284e-02
-1.097819432616233826e-01
-7.789523899555206299e-02
3.420023024082183838e-01
5.434601381421089172e-02
-3.479612618684768677e-02
1.471192091703414917e-01
1.704809628427028656e-02
-1.965796947479248047e-01
-3.196522593498229980e-01
1.833614110946655273e-01
2.263097912073135376e-01
4.639742672443389893e-01
9.743461757898330688e-02
-9.537465870380401611e-03
2.386643886566162109e-01
-1.260467916727066040e-01
1.593766808509826660e-01
3.830421343445777893e-02
-2.199816405773162842e-01
-5.945188924670219421e-02
1.663815379142761230e-01
-4.258234053850173950e-02
4.639290571212768555e-01
2.314694970846176147e-01
1.501127183437347412e-01
-5.703378915786743164e-01
6.120728328824043274e-02
-2.158491685986518860e-02
1.370844691991806030e-01
-1.107517816126346588e-02
-1.700233221054077148e-01
-3.769429624080657959e-01
2.065890133380889893e-01
3.241916745901107788e-02
-3.047127127647399902e-01
9.605932980775833130e-02
6.134470701217651367e-01
1.311625689268112183e-01
5.895734950900077820e-02
-4.548655077815055847e-02
-2.700226604938507080e-01
3.383137285709381104e-02
-2.170532941818237305e-02
8.120110630989074707e-02
-2.996061146259307861e-01
-2.263048291206359863e-01
-9.920856356620788574e-02
2.004361599683761597e-01
3.695624172687530518e-01
1.313363462686538696e-01
-3.994641005992889404e-01
-9.872201830148696899e-02
-3.814178705215454102e-01
2.244931086897850037e-02
-2.818146347999572754e-01
2.085266858339309692e-01
1.950378865003585815e-01
4.268336296081542969e-01
2.330829203128814697e-01
1.102419048547744751e-01
-2.778330147266387939e-01
-1.995549052953720093e-01
2.353373765945434570e-01
-2.681171894073486328e-02
3.521768003702163696e-02
-1.768477559089660645e-01
2.683717571198940277e-02
1.863034963607788086e-01
-1.608304828405380249e-01
-5.859463810920715332e-01
1.185695677995681763e-01
-1.457890123128890991e-01
4.121424630284309387e-02
-3.986400663852691650e-01
7.378163933753967285e-02
7.506264839321374893e-03
-1.754925101995468140e-01
1.552349925041198730e-01
-2.714846134185791016e-01
-9.491064399480819702e-02
-7.619195431470870972e-02
3.666070103645324707e-01
-3.801845610141754150e-01
5.379230380058288574e-01
4.289305210113525391e-02
-2.559372782707214355e-01
6.090484261512756348e-01
2.174602150917053223e-01
3.927699923515319824e-01
-4.721361398696899414e-01
6.825515534728765488e-03
2.069633603096008301e-01
-2.970511280000209808e-02
5.038474500179290771e-02
-9.784059971570968628e-02
-4.232215583324432373e-01
-2.722338736057281494e-01
-2.778446674346923828e-01
5.141170620918273926e-01
1.118239983916282654e-01
-8.689551800489425659e-02
-2.080052047967910767e-01
3.797548264265060425e-02
1.847870498895645142e-01
6.685622781515121460e-02
1.078864783048629761e-01
-2.910699546337127686e-01
-5.791318416595458984e-02
-9.414361417293548584e-02
1.150735393166542053e-01
2.676985859870910645e-01
-1.169123128056526184e-01
-3.164547309279441833e-02
-1.317687630653381348e-01
-3.561563417315483093e-02
4.201880991458892822e-01
1.652529984712600708e-01
2.785560786724090576e-01
2.779383063316345215e-01
-1.062466353178024292e-01
5.461969375610351562e-01
-1.964644640684127808e-01
-1.576633453369140625e-01
1.587663292884826660e-01
-2.199224680662155151e-01
1.511455923318862915e-01
-2.053004056215286255e-01
3.737051486968994141e-01
1.034201607108116150e-01
-6.406593602150678635e-03
-3.661257624626159668e-01
-2.019502371549606323e-01
-5.992368329316377640e-03
-2.568472027778625488e-01
-2.213017344474792480e-01
8.152007311582565308e-02
-5.447128415107727051e-02
-5.058488249778747559e-02
-1.305203586816787720e-01
-3.115936517715454102e-01
-1.391029208898544312e-01
-2.754448056221008301e-01
-8.239968121051788330e-02
-3.086280524730682373e-01
-1.659325957298278809e-01
-2.518684864044189453e-01
2.493790537118911743e-01
2.750661969184875488e-01
-2.806954383850097656e-01
2.237118221819400787e-02
6.285202503204345703e-02
-3.363886773586273193e-01
-6.742648780345916748e-02
1.018350869417190552e-01
-1.686428934335708618e-01
5.298588871955871582e-01
3.745308378711342812e-03
-2.535732090473175049e-01
-2.996282652020454407e-03
1.813968122005462646e-01
1.693107336759567261e-01
1.746255010366439819e-01
1.156867593526840210e-01
3.511207699775695801e-01
7.759051769971847534e-02
3.668979108333587646e-01
-3.202262520790100098e-01
-6.287459284067153931e-03
3.435701131820678711e-01
1.274987459182739258e-01
2.746869921684265137e-01
-2.674774527549743652e-01
1.751271337270736694e-01
-1.420886665582656860e-01
-1.637438982725143433e-01
-3.461076319217681885e-01
2.206784300506114960e-02
-5.722905695438385010e-02
1.336809843778610229e-01
2.799147367477416992e-01
-2.504661679267883301e-01
-1.939879059791564941e-01
-1.529391705989837646e-01
-3.069097641855478287e-03
1.084617599844932556e-01
-4.932561144232749939e-02
2.626959383487701416e-01
2.407788038253784180e-01
1.254003643989562988e-01
-1.346082538366317749e-01
-2.656922340393066406e-01
-5.770991444587707520e-01
1.129446476697921753e-01
-1.347796767950057983e-01
-5.159254670143127441e-01
1.707502603530883789e-01
-6.499661803245544434e-01
-7.160165905952453613e-01
-1.140880361199378967e-01
-6.478330492973327637e-01
-2.590449750423431396e-01
-4.199154675006866455e-01
-1.762984246015548706e-01
2.075100094079971313e-01
1.527845114469528198e-01
-1.515447944402694702e-01
-3.218922019004821777e-01
-2.042402029037475586e-01
-3.980551064014434814e-01
-6.123762130737304688e-01
-7.296924591064453125e-01
2.434458732604980469e-01
-1.367009133100509644e-01
4.860235750675201416e-02
2.259641140699386597e-01
-6.042069196701049805e-01
9.236101061105728149e-03
9.705738723278045654e-02
-3.469856381416320801e-01
-4.088568687438964844e-01
-4.008695185184478760e-01
-8.808884024620056152e-02
-4.279808402061462402e-01
-7.086136937141418457e-01
-4.559308886528015137e-01
-2.937331497669219971e-01
-1.562822610139846802e-01
-2.796526551246643066e-01
-5.687973499298095703e-01
-2.382536828517913818e-01
2.131462842226028442e-01
6.733416020870208740e-02
-5.290226340293884277e-01
-8.832203596830368042e-02
9.240348637104034424e-02
-3.553820550441741943e-01
-1.895391196012496948e-01
1.263372302055358887e-01
1.754253357648849487e-01
7.523195445537567139e-02
1.043226048350334167e-01
-1.609554588794708252e-01
-5.778238177299499512e-01
-2.309720963239669800e-01
-4.758020043373107910e-01
-7.451491355895996094e-01
-5.520474910736083984e-01
-5.761371254920959473e-01
-1.522714048624038696e-01
-6.721411347389221191e-01
-5.294047594070434570e-01
-2.672249674797058105e-01
-5.293890237808227539e-01
-5.539016798138618469e-02
-2.630638480186462402e-01
-3.136591613292694092e-01
-6.096538305282592773e-01
-4.039359688758850098e-01
-3.194077312946319580e-01
-3.617685735225677490e-01
-1.446910649538040161e-01
-2.698445618152618408e-01
-3.722311258316040039e-01
-2.907049655914306641e-01
-7.162788510322570801e-01
-2.761866450309753418e-01
-5.375401377677917480e-01
-2.970851957798004150e-01
5.145781859755516052e-02
-2.332195937633514404e-01
-2.628233730792999268e-01
8.347525447607040405e-02
-3.837792277336120605e-01
-1.983575522899627686e-01
-3.740366399288177490e-01
1.744011044502258301e-01
-5.458683967590332031e-01
-3.498330116271972656e-01
-2.332157492637634277e-01
-2.232455313205718994e-01
-3.125972747802734375e-01
-1.360340267419815063e-01
-6.306183934211730957e-01
-1.951034963130950928e-01
-1.010810062289237976e-01
-1.704716533422470093e-01
-7.795566320419311523e-01
-5.754958391189575195e-01
-4.166701734066009521e-01
-4.552059769630432129e-01
-2.962187230587005615e-01
-2.882046401500701904e-01
-2.841931283473968506e-01
-2.549135386943817139e-01
-3.416433632373809814e-01
-1.504800319671630859e-01
-1.802171468734741211e-01
-5.416958928108215332e-01
-2.219086438417434692e-01
-1.078372076153755188e-01
1.495101451873779297e-01
-5.373411178588867188e-01
-2.381859570741653442e-01
-4.461857676506042480e-01
-2.960552573204040527e-01
-1.382702142000198364e-01
-2.019764035940170288e-01
-1.347493678331375122e-01
-3.281892836093902588e-01
-3.960033655166625977e-01
-6.240603327751159668e-01
4.755022749304771423e-02
-5.271420478820800781e-01
-1.024693548679351807e-01
-1.532589644193649292e-01
-1.827470958232879639e-01
-3.909214735031127930e-01
3.150860220193862915e-02
-3.806542754173278809e-01
-5.784324929118156433e-02
-1.462808251380920410e-01
-2.195330411195755005e-01
-2.769176661968231201e-01
-6.264196038246154785e-01
-2.205462008714675903e-02
-1.398026198148727417e-01
-2.877872884273529053e-01
-3.760935962200164795e-01
-3.239453434944152832e-01
-1.807509511709213257e-01
-4.993734955787658691e-01
-2.540726661682128906e-01
-4.558647274971008301e-01
-1.797032356262207031e-01
-6.694285273551940918e-01
-2.599934041500091553e-01
-1.764535307884216309e-01
-1.780787110328674316e-01
-4.368632733821868896e-01
-5.227578282356262207e-01
-4.072517156600952148e-01
-3.981565535068511963e-01
-2.937179505825042725e-01
-2.272910475730895996e-01
-4.161399900913238525e-01
-1.685565561056137085e-01
2.684962563216686249e-02
4.497786611318588257e-02
-1.179009079933166504e-01
-3.804597556591033936e-01
-6.798856854438781738e-01
-4.416420757770538330e-01
-2.343498766422271729e-01
-4.573499560356140137e-01
-1.872710883617401123e-01
-2.631235718727111816e-01
-4.215769171714782715e-01
-4.758344888687133789e-01
-7.364241778850555420e-02
-2.868609428405761719e-01
2.178009450435638428e-01
-8.223811537027359009e-02
2.013755589723587036e-02
-3.791815340518951416e-01
-6.016284823417663574e-01
-7.202858477830886841e-02
-5.059286952018737793e-01
-4.470587372779846191e-01
-1.424431055784225464e-01
-5.150977969169616699e-01
-1.879932284355163574e-01
-5.890050530433654785e-01
-7.324250936508178711e-01
-3.011096119880676270e-01
-2.303227186203002930e-01
-2.841240763664245605e-01
-3.772934377193450928e-01
-3.553306460380554199e-01
-1.636452823877334595e-01
-2.123975306749343872e-01
-7.145669460296630859e-01
-3.339267969131469727e-01
-7.936988472938537598e-01
-5.065016150474548340e-01
1.252920478582382202e-01
-2.513189315795898438e-01
3.828579485416412354e-01
5.027216672897338867e-02
-6.278321146965026855e-01
-2.441971153020858765e-01
-1.002975031733512878e-01
-3.395254611968994141e-01
-4.457967877388000488e-01
-5.884819626808166504e-01
-5.049896836280822754e-01
-2.811857163906097412e-01
-4.631367027759552002e-01
-4.577948451042175293e-01
-1.357243657112121582e-01
-2.486182600259780884e-01
-4.010409712791442871e-01
-6.329852342605590820e-01
-6.144787073135375977e-01
-2.360611408948898315e-01
-1.476297341287136078e-02
-5.063194632530212402e-01
-6.330651640892028809e-01
-3.053743839263916016e-01
-1.741273254156112671e-01
2.090304493904113770e-01
-5.669124126434326172e-01
6.856404542922973633e-01
-2.637470066547393799e-01
-2.998484075069427490e-01
-4.955169931054115295e-02
-8.412170410156250000e-01
1.915244944393634796e-02
-3.787184953689575195e-01
-5.034081637859344482e-02
2.986404597759246826e-01
-4.320431649684906006e-01
-5.414186716079711914e-01
-6.590498685836791992e-01
2.373473718762397766e-03
-3.310582041740417480e-01
-3.448437750339508057e-01
2.931092381477355957e-01
-1.716256290674209595e-01
-1.882280856370925903e-01
-3.909875154495239258e-01
-8.350766301155090332e-01
5.541027337312698364e-02
-1.414741128683090210e-01
-4.346730113029479980e-01
-2.164729982614517212e-01
-4.492397904396057129e-01
-5.842853188514709473e-01
-1.131873428821563721e-01
-5.553723126649856567e-02
-3.174521327018737793e-01
-4.603297114372253418e-01
-3.318513929843902588e-01
-6.762634515762329102e-01
-2.830555140972137451e-01
-5.307470560073852539e-01
-4.591215848922729492e-01
-5.385800004005432129e-01
-9.659075736999511719e-02
2.116731554269790649e-02
-2.184011191129684448e-01
-4.236987829208374023e-01
-4.505009949207305908e-01
