-2.864753603935241699e-01
8.865664131008088589e-04
-4.071990251541137695e-01
-1.247408092021942139e-01
-3.112145662307739258e-01
3.814937919378280640e-02
6.078831106424331665e-02
-8.051336556673049927e-02
-3.939686119556427002e-01
3.254162967205047607e-01
-1.866817027330398560e-01
-3.687424957752227783e-01
-4.253619015216827393e-01
-2.818465828895568848e-01
-3.588454425334930420e-01
-1.505245119333267212e-01
-2.305433005094528198e-01
-3.915174007415771484e-01
1.984567567706108093e-02
1.370993405580520630e-01
-1.569675058126449585e-01
-4.418559968471527100e-01
-2.433402538299560547e-01
-1.769116893410682678e-02
6.845118105411529541e-02
-2.326111495494842529e-01
-1.077028959989547729e-01
-9.428779780864715576e-02
-2.989948391914367676e-01
-3.674432337284088135e-01
-3.675217032432556152e-01
-3.876253664493560791e-01
6.659285724163055420e-02
6.092234514653682709e-03
-4.945731163024902344e-02
-9.939868748188018799e-02
-2.881969809532165527e-01
-2.865027785301208496e-01
-3.236214220523834229e-01
1.584244817495346069e-01
-7.746226340532302856e-02
4.505911841988563538e-02
1.865848153829574585e-02
-4.662630259990692139e-01
-4.544971883296966553e-01
-4.835269972681999207e-02
-6.328656077384948730e-01
-4.884093403816223145e-01
-3.328717052936553955e-01
-3.651009500026702881e-01
1.761074513196945190e-01
-4.748573005199432373e-01
-2.873474657535552979e-01
-3.278968036174774170e-01
-1.221498772501945496e-01
2.534927129745483398e-01
-9.867890179157257080e-02
1.288592815399169922e-01
-6.724882870912551880e-02
-4.035646021366119385e-01
-1.088484078645706177e-01
-2.741351127624511719e-01
6.067829579114913940e-02
-8.583619445562362671e-02
-3.416328132152557373e-01
3.978021442890167236e-01
-1.479260027408599854e-01
-4.543107748031616211e-02
-2.773877382278442383e-01
-6.286269426345825195e-01
-4.207152128219604492e-01
-1.482046097517013550e-01
-1.348715275526046753e-01
-3.508029878139495850e-01
6.024724617600440979e-02
-1.699207425117492676e-01
-7.339476048946380615e-02
-2.324753254652023315e-01
-1.390383243560791016e-01
-2.294076532125473022e-01
-3.556277602910995483e-02
-3.306250870227813721e-01
5.550011619925498962e-02
-1.164806112647056580e-01
-2.261657863855361938e-01
-1.788097918033599854e-01
9.165080636739730835e-02
-9.594606608152389526e-02
-1.010705828666687012e-01
-2.202066034078598022e-02
-1.410154402256011963e-01
-4.061612784862518311e-01
-2.056060135364532471e-01
-1.338777542114257812e-01
1.915809065103530884e-01
-6.174563243985176086e-02
-1.979770362377166748e-01
-4.126790463924407959e-01
-1.684826761484146118e-01
-2.929572165012359619e-01
-2.682920098304748535e-01
-2.466288655996322632e-01
3.603999018669128418e-01
-3.371703028678894043e-01
2.240656465291976929e-01
-3.724248409271240234e-01
-2.929507493972778320e-01
-4.630881249904632568e-01
-3.060043454170227051e-01
-1.623686850070953369e-01
-4.590159058570861816e-01
-3.978959619998931885e-01
-3.508089482784271240e-01
-4.666456282138824463e-01
-2.780596613883972168e-01
-3.531166613101959229e-01
-3.539834320545196533e-01
-1.221356689929962158e-01
-1.635670363903045654e-01
-3.116867542266845703e-01
-4.355151057243347168e-01
-5.451688766479492188e-01
-2.365569956600666046e-02
-1.264691650867462158e-01
-9.734550863504409790e-02
-3.821554481983184814e-01
-4.728796482086181641e-01
-4.881747663021087646e-01
1.545330584049224854e-01
-2.170930057764053345e-01
2.754231989383697510e-01
-4.145222902297973633e-01
-3.857927620410919189e-01
1.307518780231475830e-01
2.957920134067535400e-01
-5.321587324142456055e-01
-5.983552932739257812e-01
-3.406471610069274902e-01
1.547415405511856079e-01
-2.231456339359283447e-01
-1.214589923620223999e-01
-1.634591966867446899e-01
-3.754413723945617676e-01
-3.259406387805938721e-01
-1.016768589615821838e-01
-3.895827233791351318e-01
-3.465445041656494141e-01
9.291593730449676514e-02
-4.009301662445068359e-01
-2.551090717315673828e-01
6.512771546840667725e-02
-8.977556228637695312e-02
-1.811522692441940308e-01
-3.573738038539886475e-01
-4.504061639308929443e-01
-1.112644299864768982e-01
-1.009008362889289856e-01
-4.235024452209472656e-01
-2.904250323772430420e-01
-3.636605739593505859e-01
-6.165801286697387695e-01
-1.132644936442375183e-01
-4.478394091129302979e-01
-3.145908415317535400e-01
-2.647356688976287842e-01
-4.999451711773872375e-02
-3.095473051071166992e-01
-2.783249020576477051e-01
-2.514093816280364990e-01
-1.164668947458267212e-01
-2.091637104749679565e-01
-3.134704232215881348e-01
1.930450787767767906e-03
-1.793129742145538330e-01
-2.514894306659698486e-01
-4.633126556873321533e-01
-3.935572877526283264e-02
-1.509731709957122803e-01
-3.539310395717620850e-01
-2.911156415939331055e-01
-3.484318256378173828e-01
-1.531616449356079102e-01
-1.788666844367980957e-01
-2.283494174480438232e-01
5.101706460118293762e-02
-3.278461098670959473e-01
-3.325491249561309814e-01
-4.419676065444946289e-01
-2.136455327272415161e-01
-4.568284451961517334e-01
-4.826419800519943237e-02
-2.416182309389114380e-01
-2.759479582309722900e-01
-5.804193019866943359e-01
-3.223989605903625488e-01
-3.393878638744354248e-01
-3.153157234191894531e-01
-2.424908727407455444e-01
2.801949158310890198e-02
-3.818331360816955566e-01
-4.923109412193298340e-01
-1.412982642650604248e-01
-3.773507773876190186e-01
-1.909576505422592163e-01
-9.917177259922027588e-02
9.129846468567848206e-03
-3.242720961570739746e-01
-6.015490740537643433e-02
-1.466036736965179443e-01
8.253993839025497437e-02
-4.430246353149414062e-02
-2.476795911788940430e-01
-3.108803331851959229e-01
-8.700364828109741211e-02
-2.910444326698780060e-02
1.434618383646011353e-01
-1.242869496345520020e-01
-1.304045766592025757e-01
-3.975193202495574951e-01
-4.513687491416931152e-01
-3.754576742649078369e-01
-1.887105703353881836e-01
-2.851554751396179199e-01
-1.292399317026138306e-01
-3.286462724208831787e-01
-2.695476412773132324e-01
2.079392522573471069e-01
1.820862106978893280e-02
4.036806896328926086e-02
-4.855867624282836914e-01
-3.275869190692901611e-01
-1.914570182561874390e-01
1.188446655869483948e-01
-1.945799440145492554e-01
-2.603201866149902344e-01
-1.808109283447265625e-01
-3.736850917339324951e-01
-2.756159305572509766e-01
-5.408901572227478027e-01
-4.390129446983337402e-01
-4.320266544818878174e-01
-1.468235254287719727e-01
1.914958283305168152e-02
1.225585467182099819e-03
-4.199289977550506592e-01
4.395355656743049622e-02
-3.191259205341339111e-01
-3.697541654109954834e-01
2.406367473304271698e-02
-4.317081272602081299e-01
-5.768500566482543945e-01
-9.931795299053192139e-02
-2.317723631858825684e-01
-5.645377039909362793e-01
4.180836677551269531e-01
-3.587696850299835205e-01
-4.448491334915161133e-01
1.836779564619064331e-01
-3.507910072803497314e-01
1.213306374847888947e-02
-2.257495373487472534e-01
1.134386360645294189e-01
1.953022629022598267e-01
-8.490829169750213623e-02
-3.531829118728637695e-01
1.337869465351104736e-01
-7.575140148401260376e-02
-6.144645810127258301e-01
-7.065789699554443359e-01
8.238559961318969727e-02
-7.109925150871276855e-01
-1.673464179039001465e-01
-6.620346903800964355e-01
-7.711807638406753540e-02
-9.936299920082092285e-02
2.296755611896514893e-01
9.906308352947235107e-02
1.091152653098106384e-01
-2.290686778724193573e-02
1.616231054067611694e-01
2.772022783756256104e-01
-8.283117413520812988e-01
2.557089924812316895e-01
4.517965316772460938e-01
-2.359023690223693848e-02
-5.944194644689559937e-02
-4.162845388054847717e-02
2.267585545778274536e-01
-3.631148040294647217e-01
-7.233317196369171143e-02
-3.303604573011398315e-02
-4.260096549987792969e-01
2.025219798088073730e-01
-2.283216863870620728e-01
-5.405862927436828613e-01
7.805074006319046021e-02
-3.004818037152290344e-02
1.563197225332260132e-01
1.068894565105438232e-02
-5.292656272649765015e-02
-1.747684180736541748e-01
7.376957684755325317e-02
-2.437125891447067261e-02
-1.244481727480888367e-01
-4.212543368339538574e-01
-2.232198268175125122e-01
-5.635276064276695251e-02
-1.881371587514877319e-01
-3.114790022373199463e-01
6.132393702864646912e-02
-6.173051521182060242e-02
-1.588659882545471191e-01
-1.237060725688934326e-01
4.395437240600585938e-02
7.081564515829086304e-02
-6.211538314819335938e-01
-1.279894113540649414e-01
3.145720809698104858e-02
-1.184217482805252075e-01
3.952032029628753662e-01
-4.396884143352508545e-01
4.823940992355346680e-02
1.897867619991302490e-01
-2.611335515975952148e-01
-2.069605141878128052e-01
-1.952808350324630737e-01
-1.917402595281600952e-01
-1.276278588920831680e-02
-8.403564989566802979e-02
-2.756744325160980225e-01
-3.645868003368377686e-01
-3.387518972158432007e-02
-4.299334064126014709e-02
-3.977676481008529663e-02
-1.569114327430725098e-01
-3.030005693435668945e-01
1.137370169162750244e-01
-2.107316851615905762e-01
3.059971332550048828e-02
-3.186270296573638916e-01
-1.194053590297698975e-01
-6.371067464351654053e-02
8.585982769727706909e-02
-1.935642212629318237e-01
-7.305817306041717529e-02
-4.229834079742431641e-01
-3.974150121212005615e-02
1.362475752830505371e-01
3.259286284446716309e-02
4.458274692296981812e-02
6.273472309112548828e-02
3.733227029442787170e-02
-1.850745528936386108e-01
-4.675283730030059814e-01
1.186348944902420044e-01
-4.652715921401977539e-01
1.069726198911666870e-01
2.522378265857696533e-01
1.513432860374450684e-01
-1.478736102581024170e-01
5.098333954811096191e-02
-3.869268596172332764e-01
5.591433495283126831e-02
-5.140323042869567871e-01
-2.861739397048950195e-01
1.737910211086273193e-01
-4.297032356262207031e-01
-2.641056478023529053e-01
-9.344580024480819702e-02
1.416514068841934204e-01
-2.644476592540740967e-01
-6.259701848030090332e-01
-9.041376411914825439e-02
-3.532558307051658630e-02
5.306444317102432251e-02
-2.819328308105468750e-01
-3.102299273014068604e-01
-3.882993161678314209e-01
-4.596404731273651123e-02
-3.760403692722320557e-01
2.463431060314178467e-01
2.499393373727798462e-02
1.676760315895080566e-01
1.010596081614494324e-01
2.978140413761138916e-01
-5.754345655441284180e-02
-1.483714580535888672e-01
-4.227485358715057373e-01
1.020101979374885559e-01
2.375251054763793945e-01
1.527772694826126099e-01
-3.462485671043395996e-01
-5.792835950851440430e-01
-3.153021037578582764e-01
-1.050675064325332642e-01
-1.751464903354644775e-01
-1.573510766029357910e-01
-3.097649216651916504e-01
-1.907277554273605347e-01
5.401110276579856873e-02
1.199082657694816589e-01
-4.166018068790435791e-01
1.477271914482116699e-01
5.885268747806549072e-02
-3.428685367107391357e-01
-6.931729614734649658e-02
1.869996190071105957e-01
-7.438340783119201660e-02
-3.975445628166198730e-01
-1.435555368661880493e-01
-5.573863387107849121e-01
4.225908592343330383e-02
1.041513457894325256e-01
-4.360260069370269775e-01
-3.482308387756347656e-01
6.280948966741561890e-02
-3.948815464973449707e-01
-1.061628386378288269e-01
-2.297603189945220947e-01
-2.129292190074920654e-01
-1.949104368686676025e-01
-1.214604750275611877e-01
-2.889641225337982178e-01
-1.666165441274642944e-01
-2.059997469186782837e-01
2.053804248571395874e-01
-1.567510515451431274e-01
-1.277529597282409668e-01
2.572033107280731201e-01
-1.426521390676498413e-01
1.365646868944168091e-01
-5.080989003181457520e-01
2.703092247247695923e-02
-3.550853580236434937e-02
3.800810128450393677e-02
-4.066485762596130371e-01
-3.786662817001342773e-01
2.932665869593620300e-03
-9.779882431030273438e-02
-2.216241210699081421e-01
-2.069669961929321289e-02
2.966805174946784973e-02
-2.371514029800891876e-02
-4.912973344326019287e-01
-1.947491466999053955e-01
-1.139150783419609070e-01
4.935813322663307190e-02
-1.277015358209609985e-01
-2.667274475097656250e-01
-7.041695713996887207e-01
-2.993121743202209473e-01
-1.403584238141775131e-02
2.106632590293884277e-01
-1.664983332157135010e-01
2.495986670255661011e-01
-2.352489382028579712e-01
-2.699097096920013428e-01
-7.838482409715652466e-02
-6.158814951777458191e-02
-1.612860262393951416e-01
-1.871586963534355164e-02
1.623167693614959717e-01
-7.335033416748046875e-01
1.416046172380447388e-01
-1.110378503799438477e-01
3.176485002040863037e-02
-4.671036079525947571e-02
-2.820155322551727295e-01
1.016595885157585144e-01
-1.686190254986286163e-02
5.139005184173583984e-02
7.269693911075592041e-02
-7.507808506488800049e-02
-8.823042362928390503e-02
1.891422122716903687e-01
-2.251256555318832397e-01
-9.822321683168411255e-02
-5.832439661026000977e-01
-3.684941232204437256e-01
-5.179735422134399414e-01
1.473002582788467407e-01
2.079799026250839233e-02
2.121398784220218658e-02
-1.878098398447036743e-01
2.753260731697082520e-01
-3.361749947071075439e-01
-1.124768629670143127e-01
-1.611897945404052734e-01
-1.095488443970680237e-01
-6.068715360015630722e-03
-2.619859278202056885e-01
4.109015315771102905e-02
-2.642108500003814697e-02
-4.787364508956670761e-03
-5.368052124977111816e-01
-1.326288729906082153e-01
-3.206465542316436768e-01
1.018514335155487061e-01
1.296996921300888062e-01
8.441627025604248047e-03
-2.059523612260818481e-01
-1.035296078771352768e-02
4.295061901211738586e-02
6.944086402654647827e-02
2.404897212982177734e-01
-1.613668501377105713e-01
-8.185757994651794434e-01
1.430086195468902588e-01
9.131859242916107178e-02
-4.063985645771026611e-01
6.048017144203186035e-01
-4.181336760520935059e-01
-2.482583820819854736e-01
-2.362894266843795776e-01
-4.226521030068397522e-02
-1.081384122371673584e-01
2.626190483570098877e-01
2.545806765556335449e-01
3.756143152713775635e-01
1.599424332380294800e-01
2.624283544719219208e-02
-2.187368869781494141e-01
5.739502236247062683e-02
3.322078287601470947e-01
-1.674403101205825806e-01
8.823666721582412720e-02
7.120038270950317383e-01
4.176148176193237305e-01
-4.734567180275917053e-02
3.431395441293716431e-02
-4.216263294219970703e-01
3.553467094898223877e-01
-2.236509472131729126e-01
2.869891524314880371e-01
-2.318039983510971069e-01
3.219740986824035645e-01
1.725502163171768188e-01
4.918374717235565186e-01
1.522854119539260864e-01
-2.654206156730651855e-01
-1.965773105621337891e-01
1.704355925321578979e-01
-2.355405986309051514e-01
6.505958735942840576e-02
-3.575489521026611328e-01
6.686124205589294434e-02
1.739282160997390747e-01
-1.885342150926589966e-01
-7.131598889827728271e-02
1.542904824018478394e-01
-1.268021911382675171e-01
5.516962409019470215e-01
-1.121235117316246033e-01
-3.742318749427795410e-01
-4.856567084789276123e-01
2.248691171407699585e-01
3.374580293893814087e-02
-9.169459342956542969e-02
3.781415522098541260e-01
9.220818430185317993e-02
1.157398000359535217e-01
-1.758340150117874146e-01
1.650980114936828613e-01
-2.217477560043334961e-01
-4.930989444255828857e-01
6.215988844633102417e-02
-2.450886666774749756e-01
8.860661834478378296e-02
-1.423689574003219604e-01
-3.145481050014495850e-01
2.809542715549468994e-01
-2.993619441986083984e-02
-3.018983080983161926e-02
-1.517606675624847412e-01
1.415812671184539795e-01
-2.961819469928741455e-01
1.193213742226362228e-02
4.111142158508300781e-01
3.081377744674682617e-01
-6.580345332622528076e-02
3.445099294185638428e-01
-1.244193837046623230e-01
1.283973902463912964e-01
-3.006778471171855927e-02
-1.120004728436470032e-01
1.098661310970783234e-02
-3.980594873428344727e-01
8.847167342901229858e-02
-4.958644136786460876e-02
-3.382218778133392334e-01
-2.428831160068511963e-01
5.334345251321792603e-02
1.243636012077331543e-01
2.920615673065185547e-01
-4.101103842258453369e-01
-7.575139403343200684e-02
1.774624884128570557e-01
1.608619117178022861e-03
-2.874897420406341553e-01
1.801402121782302856e-01
1.029853299260139465e-01
2.802582979202270508e-01
3.063500523567199707e-01
-1.023466140031814575e-01
2.221292629837989807e-02
1.839509904384613037e-01
-3.104956746101379395e-01
-1.176226809620857239e-01
5.145528912544250488e-02
3.730937093496322632e-02
-7.389488071203231812e-02
-4.502828717231750488e-01
-9.467028826475143433e-02
9.499866515398025513e-02
3.866564035415649414e-01
-1.340653654187917709e-02
-1.547440439462661743e-01
2.003247290849685669e-01
3.033045828342437744e-01
6.156524643301963806e-02
1.682084947824478149e-01
2.582197189331054688e-01
2.631402611732482910e-01
2.494521252810955048e-02
1.558440476655960083e-01
2.458217591047286987e-01
2.350925467908382416e-02
4.698786437511444092e-01
2.047293260693550110e-02
-3.632711013779044151e-03
-2.601996660232543945e-01
1.974277347326278687e-01
-2.414834350347518921e-01
-1.230171993374824524e-01
1.005673632025718689e-01
-6.602368503808975220e-02
-5.821849405765533447e-02
1.118817627429962158e-01
-8.049798756837844849e-02
-2.006119191646575928e-01
-1.387292295694351196e-01
2.395724058151245117e-01
1.562973260879516602e-01
2.161906808614730835e-01
-3.685534745454788208e-02
2.378279417753219604e-01
2.956165969371795654e-01
1.340597867965698242e-01
1.320079863071441650e-01
2.900891900062561035e-01
-4.003954529762268066e-01
-1.736185699701309204e-02
3.719165325164794922e-01
-6.084746122360229492e-02
-2.057041376829147339e-01
-1.848459988832473755e-01
-7.597588747739791870e-02
1.336860656738281250e-01
2.173215895891189575e-01
1.077530980110168457e-01
-4.898944497108459473e-02
5.035547539591789246e-02
2.701990604400634766e-01
-1.858744025230407715e-01
-1.581159234046936035e-01
2.265827059745788574e-01
-9.788803756237030029e-02
-1.766095757484436035e-01
-8.760797977447509766e-02
-1.745420247316360474e-01
-2.952128276228904724e-02
-4.518332704901695251e-02
3.087721392512321472e-02
-8.217547833919525146e-02
3.188662827014923096e-01
9.295273572206497192e-02
1.013662740588188171e-01
9.914249181747436523e-02
2.891192138195037842e-01
1.729632169008255005e-01
9.683584421873092651e-02
2.590188682079315186e-01
-5.331810191273689270e-02
1.684251874685287476e-01
2.501770853996276855e-01
1.536366809159517288e-02
2.734738290309906006e-01
8.300978690385818481e-02
-2.644459009170532227e-01
-6.749098747968673706e-02
8.697345107793807983e-02
1.779506169259548187e-02
9.063584357500076294e-02
3.724347949028015137e-01
-1.000955924391746521e-01
7.841762900352478027e-02
9.123317152261734009e-02
-2.602676749229431152e-01
6.670890003442764282e-02
-1.772094219923019409e-01
9.310727566480636597e-02
-2.115793377161026001e-01
1.655162572860717773e-01
-1.675118952989578247e-01
1.954377144575119019e-01
1.602903567254543304e-02
3.676588237285614014e-01
-1.148697827011346817e-02
-1.007352843880653381e-01
1.630952060222625732e-01
-1.340628266334533691e-01
3.195504099130630493e-02
4.808534868061542511e-03
-5.825353786349296570e-02
-5.528235808014869690e-03
8.002980798482894897e-02
3.855445683002471924e-01
-1.002433672547340393e-01
5.317299962043762207e-01
-4.133845269680023193e-01
1.046349704265594482e-01
1.190279647707939148e-01
-7.489679753780364990e-02
1.091462075710296631e-01
-8.925069868564605713e-02
4.491405561566352844e-02
-2.360327392816543579e-01
4.707383513450622559e-01
-1.045418065041303635e-02
-6.640220433473587036e-02
-1.275166124105453491e-01
2.100384682416915894e-01
2.805315703153610229e-02
-4.916393756866455078e-01
-1.421649903059005737e-01
-3.563862442970275879e-01
-9.656038880348205566e-02
2.179894829168915749e-03
-2.081670314073562622e-01
-1.256436109542846680e-01
1.240286976099014282e-01
-3.761069104075431824e-02
3.516956865787506104e-01
-6.274972110986709595e-02
-3.237887024879455566e-01
3.357987105846405029e-02
2.649800619110465050e-03
-4.412906467914581299e-01
2.722118198871612549e-01
-7.804783433675765991e-02
1.590797603130340576e-01
-2.495351992547512054e-02
1.721604466438293457e-01
3.108536303043365479e-01
-1.638602167367935181e-01
2.530786395072937012e-01
1.772435754537582397e-01
-2.180626690387725830e-01
1.892040818929672241e-01
1.715198606252670288e-01
-2.211239933967590332e-01
3.526315093040466309e-01
-2.102374583482742310e-01
2.072609812021255493e-01
-2.123715579509735107e-01
3.421673923730850220e-02
-2.113687098026275635e-01
2.552970051765441895e-01
-5.469095110893249512e-01
-9.332370012998580933e-02
-3.748325109481811523e-01
-2.976146340370178223e-01
-1.139662712812423706e-01
-2.586757838726043701e-01
3.716155886650085449e-01
-2.280386686325073242e-01
-2.870724797248840332e-01
-3.639392256736755371e-01
-1.968511939048767090e-01
-3.962395787239074707e-01
-4.120943546295166016e-01
4.751852527260780334e-02
-9.126666188240051270e-02
-1.367071270942687988e-01
-4.536254107952117920e-01
-2.589393258094787598e-01
-5.527105927467346191e-01
-6.751307845115661621e-01
-1.662735082209110260e-02
2.389801442623138428e-01
-2.974030673503875732e-01
-6.300897598266601562e-01
-4.818274676799774170e-01
-8.665481209754943848e-02
-3.109437227249145508e-01
-5.321952700614929199e-01
-5.211939215660095215e-01
-2.605268657207489014e-01
-3.626470863819122314e-01
-6.601917743682861328e-01
-1.317086070775985718e-01
-3.312879502773284912e-01
1.454443931579589844e-01
-3.926192820072174072e-01
-4.621916413307189941e-01
-1.401879340410232544e-01
-1.769130229949951172e-01
2.413120418787002563e-01
-1.856583952903747559e-01
-6.652656942605972290e-02
3.528595566749572754e-01
-4.815575480461120605e-01
-6.938763260841369629e-01
-7.284383773803710938e-01
1.343497931957244873e-01
-5.588095188140869141e-01
-1.349886804819107056e-01
-8.114503026008605957e-01
-9.098820686340332031e-01
-5.090671181678771973e-01
-4.561153650283813477e-01
-1.007061228156089783e-01
-2.365664392709732056e-01
-5.298318862915039062e-01
-1.861695200204849243e-01
-4.266338646411895752e-01
-1.775568574666976929e-01
-2.965801656246185303e-01
2.723357975482940674e-01
8.932770229876041412e-03
-4.378653764724731445e-01
-7.509628534317016602e-01
-2.959590852260589600e-01
-7.090272754430770874e-02
-3.333383798599243164e-01
-2.913142740726470947e-01
-4.249835908412933350e-01
-1.992399543523788452e-01
-3.249697983264923096e-01
-7.831464707851409912e-02
-3.321018218994140625e-01
-1.448085904121398926e-01
2.047145664691925049e-01
-5.982098579406738281e-01
-1.515277475118637085e-01
-2.677837312221527100e-01
-4.219705611467361450e-02
-4.107676446437835693e-01
-4.521418809890747070e-01
-2.341092377901077271e-01
-3.683342039585113525e-01
-6.008744835853576660e-01
-4.890594780445098877e-01
-8.671743273735046387e-01
-3.680201172828674316e-01
-1.597865819931030273e-01
-8.482157588005065918e-01
-3.265894949436187744e-01
7.974773645401000977e-02
-1.869881302118301392e-01
-9.764426201581954956e-02
-3.168564438819885254e-01
3.996118009090423584e-01
-1.526291389018297195e-02
-4.637693464756011963e-01
-3.973277807235717773e-01
-2.110852897167205811e-01
-3.726068735122680664e-01
-2.130173705518245697e-02
-2.145033031702041626e-01
2.627043053507804871e-02
-1.847042143344879150e-01
-7.456969022750854492e-01
-4.769261479377746582e-01
-2.703766822814941406e-01
-7.228356599807739258e-02
-2.879075407981872559e-01
-2.663417756557464600e-01
-2.268487513065338135e-01
-5.098198652267456055e-01
-2.955392003059387207e-01
-5.366558432579040527e-01
-5.393986701965332031e-01
1.146619208157062531e-02
-7.533442974090576172e-01
-3.075904250144958496e-01
-5.572638511657714844e-01
-7.042515873908996582e-01
-5.850974917411804199e-01
-9.282270818948745728e-02
-2.560619413852691650e-01
-2.585409283638000488e-01
-6.449174880981445312e-01
-8.097263425588607788e-02
-2.098313868045806885e-01
8.669365197420120239e-02
-3.787152469158172607e-01
-1.735658049583435059e-01
-4.827036559581756592e-01
-2.026225030422210693e-01
-1.586355827748775482e-02
-8.049862831830978394e-02
-2.102762460708618164e-02
-4.257759153842926025e-01
-2.631649076938629150e-01
-1.354430019855499268e-01
-3.315470218658447266e-01
-3.688049614429473877e-01
1.184472888708114624e-01
-1.961092054843902588e-01
-6.568391323089599609e-01
-2.632831223309040070e-02
-3.316551148891448975e-01
-4.040980339050292969e-01
3.911743164062500000e-01
-1.329129785299301147e-01
-4.386090040206909180e-01
-5.618722438812255859e-01
2.104808092117309570e-01
-2.853687703609466553e-01
-3.393387794494628906e-01
-5.795564055442810059e-01
-4.946818947792053223e-01
1.705878227949142456e-02
-3.013204932212829590e-01
1.696790903806686401e-01
-6.041325330734252930e-01
-5.559353828430175781e-01
-3.852822184562683105e-01
-3.963953554630279541e-01
-4.187300205230712891e-01
9.686529636383056641e-02
-2.865953445434570312e-01
-2.697990238666534424e-01
-4.505281448364257812e-01
-6.922287940979003906e-01
3.460054099559783936e-02
-1.260752826929092407e-01
-1.637756377458572388e-01
-3.940347135066986084e-01
-2.470848262310028076e-01
-3.741309046745300293e-01
-1.533398777246475220e-01
3.292257338762283325e-02
2.680339813232421875e-01
-2.985545098781585693e-01
-6.298643946647644043e-01
-2.245923429727554321e-01
-4.830590188503265381e-01
-1.532513201236724854e-01
-2.632109820842742920e-01
-5.274703502655029297e-01
-3.780141472816467285e-01
-7.691317703574895859e-03
-3.827185630798339844e-01
-3.939895629882812500e-01
-5.942515134811401367e-01
-2.521530687808990479e-01
-4.626831114292144775e-01
-3.399377465248107910e-01
-4.034131169319152832e-01
-4.143407940864562988e-01
-3.729591071605682373e-01
-1.850973665714263916e-01
-5.595693588256835938e-01
-8.707252144813537598e-02
-2.456571906805038452e-01
-1.541576683521270752e-01
-3.010641634464263916e-01
-6.968681812286376953e-01
-3.845635652542114258e-01
-4.767850637435913086e-01
-2.229085266590118408e-01
-5.442201495170593262e-01
-3.306630253791809082e-01
-4.417474269866943359e-01
-4.848615825176239014e-01
-4.828937947750091553e-01
-3.944463431835174561e-01
-4.125551581382751465e-01
-7.334922999143600464e-02
-2.144922614097595215e-01
-1.012414768338203430e-01
6.237569451332092285e-02
-7.853615880012512207e-01
-1.023611649870872498e-01
9.794548153877258301e-03
-7.019072771072387695e-01
-5.458848476409912109e-01
-3.522375524044036865e-01
-3.423159420490264893e-01
-1.197887808084487915e-01
-6.277809739112854004e-01
-2.387268245220184326e-01
-1.630928181111812592e-02
-2.907746285200119019e-02
-6.220220327377319336e-01
-2.688364870846271515e-02
-4.579041898250579834e-01
-2.500553987920284271e-02
-2.626512944698333740e-01
-2.594712972640991211e-01
-5.563824772834777832e-01
1.286817491054534912e-01
-7.676453143358230591e-02
-7.898846268653869629e-02
-3.608974069356918335e-02
-2.255290001630783081e-01
4.235987085849046707e-03
-3.620022833347320557e-01
-4.211410135030746460e-02
-2.214957177639007568e-01
-1.918312013149261475e-01
-2.111946344375610352e-01
-2.441176772117614746e-01
-1.412157714366912842e-01
-4.396024048328399658e-01
-1.534794270992279053e-01
-5.808572173118591309e-01
1.033464670181274414e-01
-1.309417188167572021e-02
-4.216218590736389160e-01
-1.879427880048751831e-01
-3.064727783203125000e-01
