-2.134031057357788086e-01
-4.745025560259819031e-02
-3.891853094100952148e-01
-4.552168026566505432e-02
-2.309791147708892822e-01
1.314787715673446655e-01
-2.139206416904926300e-02
3.582800552248954773e-02
-3.275003135204315186e-01
3.049662411212921143e-01
-1.939797848463058472e-01
-4.098065197467803955e-01
-5.203515887260437012e-01
-2.768538296222686768e-01
-3.923643827438354492e-01
-1.385195106267929077e-01
-2.483876347541809082e-01
-4.563083350658416748e-01
-9.284886717796325684e-02
6.338656693696975708e-02
-1.147359609603881836e-01
-4.388332366943359375e-01
-3.478767871856689453e-01
1.326122228056192398e-02
1.484797894954681396e-01
-2.166206389665603638e-01
-1.015185043215751648e-01
-6.869042664766311646e-02
-3.072808980941772461e-01
-3.273210227489471436e-01
-3.234564065933227539e-01
-4.422026276588439941e-01
8.829448372125625610e-02
-2.092432975769042969e-02
-1.204343959689140320e-01
-5.437425896525382996e-02
-3.282556235790252686e-01
-2.389513403177261353e-01
-3.676673471927642822e-01
1.328662484884262085e-01
-3.524780645966529846e-02
2.960909903049468994e-02
3.151701018214225769e-02
-4.266699254512786865e-01
-4.891489446163177490e-01
1.904146192828193307e-04
-5.652075409889221191e-01
-4.802345037460327148e-01
-3.112141489982604980e-01
-4.073307514190673828e-01
2.167413383722305298e-01
-5.161896347999572754e-01
-3.196571767330169678e-01
-2.697580158710479736e-01
-1.996332108974456787e-01
2.753601968288421631e-01
-1.440557986497879028e-01
1.489306241273880005e-01
-9.783727675676345825e-02
-3.377802073955535889e-01
-7.320091873407363892e-02
-2.238491773605346680e-01
-8.279309608042240143e-03
-4.808221384882926941e-02
-3.660831153392791748e-01
4.222217798233032227e-01
-8.536410331726074219e-02
-8.832667768001556396e-02
-2.175011485815048218e-01
-5.765617489814758301e-01
-3.974346816539764404e-01
-1.380423903465270996e-01
-1.570049971342086792e-01
-3.212917745113372803e-01
7.205510139465332031e-02
-1.618538200855255127e-01
-8.518431335687637329e-02
-1.934496313333511353e-01
-1.249905452132225037e-01
-1.778637617826461792e-01
-6.736241281032562256e-02
-3.030526638031005859e-01
-1.899856701493263245e-02
-1.601588129997253418e-01
-1.188728660345077515e-01
-2.676506638526916504e-01
1.079433262348175049e-01
-1.171881631016731262e-01
-9.297019988298416138e-02
-1.547843962907791138e-02
-1.714341193437576294e-01
-3.947982490062713623e-01
-2.571043074131011963e-01
-4.431685432791709900e-02
2.036622762680053711e-01
-1.149574518203735352e-01
-1.984088271856307983e-01
-4.691436886787414551e-01
-1.444794386625289917e-01
-2.433930933475494385e-01
-2.513624727725982666e-01
-1.737910658121109009e-01
3.312507569789886475e-01
-3.538721501827239990e-01
2.228014618158340454e-01
-3.615066111087799072e-01
-3.159510791301727295e-01
-4.220429956912994385e-01
-3.860837519168853760e-01
-1.140446215867996216e-01
-4.532893598079681396e-01
-4.172931015491485596e-01
-3.668430745601654053e-01
-5.080906152725219727e-01
-2.349381595849990845e-01
-2.763019800186157227e-01
-3.727758526802062988e-01
-1.032580956816673279e-01
-2.743528485298156738e-01
-2.318168580532073975e-01
-4.446230828762054443e-01
-5.302174687385559082e-01
-9.900078922510147095e-02
-1.623832136392593384e-01
-1.524246782064437866e-01
-3.156077563762664795e-01
-4.652598500251770020e-01
-4.573932886123657227e-01
1.404943466186523438e-01
-1.772433072328567505e-01
3.758763372898101807e-01
-4.330785274505615234e-01
-4.166375994682312012e-01
1.644397377967834473e-01
2.958610653877258301e-01
-5.067582130432128906e-01
-5.687976479530334473e-01
-3.439493775367736816e-01
1.638111621141433716e-01
-1.938368529081344604e-01
-1.575234234333038330e-01
-1.722852289676666260e-01
-4.040700197219848633e-01
-3.438834547996520996e-01
-1.644750833511352539e-01
-4.832681417465209961e-01
-4.279917180538177490e-01
4.053463786840438843e-02
-3.626540005207061768e-01
-1.989657729864120483e-01
1.143105179071426392e-01
-2.800552174448966980e-02
-7.941359281539916992e-02
-2.955286800861358643e-01
-4.837960004806518555e-01
-1.842948943376541138e-01
-9.662146866321563721e-02
-4.329521656036376953e-01
-2.192510217428207397e-01
-2.823873758316040039e-01
-5.424186587333679199e-01
-1.504534482955932617e-01
-4.198651015758514404e-01
-2.645502090454101562e-01
-3.224728107452392578e-01
-1.328626275062561035e-01
-3.416424989700317383e-01
-3.607640266418457031e-01
-2.128740400075912476e-01
-8.196239173412322998e-02
-1.773820370435714722e-01
-4.082548618316650391e-01
7.543851621448993683e-03
-2.266007363796234131e-01
-1.883168965578079224e-01
-5.191506147384643555e-01
-2.002251148223876953e-02
-1.864172518253326416e-01
-3.674571812152862549e-01
-3.618683516979217529e-01
-3.830034732818603516e-01
-8.627906441688537598e-02
-1.545035839080810547e-01
-2.844254970550537109e-01
6.164867430925369263e-02
-2.977913320064544678e-01
-3.392142355442047119e-01
-3.982977569103240967e-01
-2.759501338005065918e-01
-4.346041381359100342e-01
-1.163856014609336853e-01
-3.132764399051666260e-01
-3.162592649459838867e-01
-4.753536880016326904e-01
-3.339924514293670654e-01
-3.486971259117126465e-01
-2.644611895084381104e-01
-2.184808999300003052e-01
-3.727223351597785950e-02
-4.500936269760131836e-01
-5.207612514495849609e-01
-2.156385481357574463e-01
-4.574517905712127686e-01
-1.969094723463058472e-01
-9.196466207504272461e-02
3.527189791202545166e-02
-3.577168285846710205e-01
-9.303138405084609985e-02
-1.419063061475753784e-01
5.932040512561798096e-02
4.234961047768592834e-02
-2.413435876369476318e-01
-2.484352439641952515e-01
-1.473622024059295654e-01
8.546625077724456787e-02
1.766953468322753906e-01
-9.554646909236907959e-02
-2.031006067991256714e-01
-4.118888974189758301e-01
-3.691501319408416748e-01
-4.092729985713958740e-01
-1.845344603061676025e-01
-3.049930930137634277e-01
-2.428227066993713379e-01
-2.581802904605865479e-01
-2.485039234161376953e-01
1.730233728885650635e-01
-6.238408386707305908e-02
1.383239496499300003e-02
-4.206091463565826416e-01
-3.069257736206054688e-01
-2.143246829509735107e-01
8.649940788745880127e-02
-1.775894314050674438e-01
-2.499893903732299805e-01
-1.636619865894317627e-01
-3.104118406772613525e-01
-2.507676184177398682e-01
-4.740524888038635254e-01
-4.114135801792144775e-01
-5.033782124519348145e-01
-1.383257806301116943e-01
5.775129422545433044e-02
-4.550820961594581604e-02
-3.994849920272827148e-01
2.864901348948478699e-02
-3.767530918121337891e-01
-3.734689652919769287e-01
4.422364011406898499e-02
-4.207600951194763184e-01
-6.115028858184814453e-01
-1.237937659025192261e-01
-1.764167696237564087e-01
-5.873152613639831543e-01
3.951760828495025635e-01
-2.503216862678527832e-01
2.603115558624267578e+00
3.187669277191162109e+00
2.706790924072265625e+00
3.041117906570434570e+00
2.830828666687011719e+00
3.124032258987426758e+00
3.161537408828735352e+00
2.977027893066406250e+00
2.699548006057739258e+00
3.082134723663330078e+00
2.879142522811889648e+00
2.396482944488525391e+00
2.334242343902587891e+00
3.105486869812011719e+00
2.297170877456665039e+00
2.841403007507324219e+00
2.381345748901367188e+00
2.885531663894653320e+00
2.873421192169189453e+00
3.191969633102416992e+00
3.086552381515502930e+00
3.147787809371948242e+00
2.974229335784912109e+00
3.150417566299438477e+00
3.336943149566650391e+00
2.180213689804077148e+00
3.260688781738281250e+00
3.448189020156860352e+00
2.936790466308593750e+00
2.912962913513183594e+00
2.976007461547851562e+00
3.234135150909423828e+00
2.574892044067382812e+00
2.907804965972900391e+00
3.011323690414428711e+00
2.633238077163696289e+00
3.147338151931762695e+00
2.822156906127929688e+00
2.434864044189453125e+00
3.135256528854370117e+00
2.971823692321777344e+00
3.179516315460205078e+00
2.949618339538574219e+00
2.997337579727172852e+00
2.863254308700561523e+00
3.015097379684448242e+00
3.029099464416503906e+00
2.844134092330932617e+00
2.542681694030761719e+00
2.811455249786376953e+00
2.976670026779174805e+00
2.816843748092651367e+00
2.640224933624267578e+00
3.045191764831542969e+00
2.958297252655029297e+00
2.826111078262329102e+00
2.917482614517211914e+00
2.995450019836425781e+00
3.041664123535156250e+00
2.437902212142944336e+00
2.813324689865112305e+00
3.072077751159667969e+00
2.901171684265136719e+00
3.425679922103881836e+00
2.608146667480468750e+00
3.051648378372192383e+00
3.188622474670410156e+00
2.682872295379638672e+00
2.818416595458984375e+00
2.835570573806762695e+00
2.786880254745483398e+00
2.976262331008911133e+00
2.977019071578979492e+00
2.784509658813476562e+00
2.603402614593505859e+00
2.935484647750854492e+00
2.965449810028076172e+00
2.999384880065917969e+00
2.886579990386962891e+00
2.636667013168334961e+00
3.160589933395385742e+00
2.799153089523315430e+00
3.012799739837646484e+00
2.704285621643066406e+00
2.878445625305175781e+00
2.970552444458007812e+00
3.071255683898925781e+00
2.843147754669189453e+00
2.954929351806640625e+00
2.610905885696411133e+00
2.999545335769653320e+00
3.191704034805297852e+00
3.038627862930297852e+00
3.073323965072631836e+00
3.074543714523315430e+00
3.093416452407836914e+00
2.757876634597778320e+00
2.490550994873046875e+00
3.097500085830688477e+00
2.484117984771728516e+00
3.045402288436889648e+00
3.204516887664794922e+00
3.103182077407836914e+00
2.813580513000488281e+00
3.041681528091430664e+00
2.569626331329345703e+00
2.995049715042114258e+00
2.548110961914062500e+00
2.695823192596435547e+00
3.167692422866821289e+00
2.513287782669067383e+00
2.695951461791992188e+00
2.870987176895141602e+00
3.126418113708496094e+00
2.684847831726074219e+00
2.389654159545898438e+00
2.925580024719238281e+00
3.006339073181152344e+00
3.033703804016113281e+00
2.755811929702758789e+00
2.640860795974731445e+00
2.618357896804809570e+00
2.983416795730590820e+00
2.622032403945922852e+00
3.275786876678466797e+00
2.962667703628540039e+00
3.135184049606323242e+00
3.073011636734008789e+00
3.297721385955810547e+00
2.950190305709838867e+00
2.866390943527221680e+00
2.638970375061035156e+00
3.128142356872558594e+00
3.219489097595214844e+00
3.114886283874511719e+00
2.646410703659057617e+00
2.430707216262817383e+00
2.714368343353271484e+00
2.927695751190185547e+00
2.772722959518432617e+00
2.896288871765136719e+00
2.711547136306762695e+00
2.840790033340454102e+00
3.072841882705688477e+00
3.073172569274902344e+00
2.557980060577392578e+00
3.162975311279296875e+00
3.051031827926635742e+00
2.616518020629882812e+00
2.979614496231079102e+00
3.211784124374389648e+00
2.874770402908325195e+00
2.659564256668090820e+00
2.834358215332031250e+00
2.486892461776733398e+00
3.080452919006347656e+00
3.057807922363281250e+00
2.608807802200317383e+00
2.706820964813232422e+00
3.087915658950805664e+00
2.625173330307006836e+00
2.929124116897583008e+00
2.734736919403076172e+00
2.837371349334716797e+00
2.801560163497924805e+00
2.902945756912231445e+00
2.720849514007568359e+00
2.877350568771362305e+00
2.809264659881591797e+00
3.177505731582641602e+00
2.891908645629882812e+00
2.866272687911987305e+00
3.222847700119018555e+00
2.893063783645629883e+00
3.141891002655029297e+00
2.511061668395996094e+00
3.010374784469604492e+00
2.958319187164306641e+00
3.012042284011840820e+00
2.572794675827026367e+00
2.572115421295166016e+00
2.959409713745117188e+00
2.893418312072753906e+00
2.725730419158935547e+00
2.941874027252197266e+00
3.054909944534301758e+00
2.946218967437744141e+00
2.492064952850341797e+00
2.752172946929931641e+00
2.881407976150512695e+00
3.031415462493896484e+00
2.873679876327514648e+00
2.751070261001586914e+00
2.284704446792602539e+00
2.646515607833862305e+00
2.997532606124877930e+00
3.181470155715942383e+00
2.790360927581787109e+00
3.212256193161010742e+00
2.826935529708862305e+00
2.767653465270996094e+00
2.966244935989379883e+00
2.934242963790893555e+00
2.867683649063110352e+00
2.945248126983642578e+00
3.156722545623779297e+00
2.270536899566650391e+00
3.082539796829223633e+00
2.933769226074218750e+00
3.024338245391845703e+00
2.912908792495727539e+00
2.706022977828979492e+00
3.064877033233642578e+00
3.032719850540161133e+00
3.012044191360473633e+00
3.081337690353393555e+00
2.919427394866943359e+00
2.952586650848388672e+00
3.206484317779541016e+00
2.723561286926269531e+00
2.963579177856445312e+00
2.438346385955810547e+00
2.655956983566284180e+00
2.486251115798950195e+00
3.116474866867065430e+00
2.976756572723388672e+00
3.048593997955322266e+00
2.778791189193725586e+00
3.239635944366455078e+00
2.703657150268554688e+00
2.867468118667602539e+00
2.786678075790405273e+00
2.863385438919067383e+00
2.943753242492675781e+00
2.791273355484008789e+00
2.990391254425048828e+00
2.952943086624145508e+00
2.966310501098632812e+00
2.458945751190185547e+00
2.822326898574829102e+00
2.675499916076660156e+00
3.063924074172973633e+00
3.148548126220703125e+00
3.013364791870117188e+00
2.832350015640258789e+00
2.977070808410644531e+00
3.008411169052124023e+00
3.022901296615600586e+00
3.266662597656250000e+00
2.870058536529541016e+00
2.212135791778564453e+00
3.171404123306274414e+00
3.079197168350219727e+00
2.611165285110473633e+00
3.558915853500366211e+00
2.574280738830566406e+00
-2.029128521680831909e-01
-1.939464062452316284e-01
3.176607564091682434e-02
-8.643785119056701660e-02
2.310086041688919067e-01
2.582449316978454590e-01
4.021344780921936035e-01
1.875746995210647583e-01
9.169440716505050659e-02
-1.382521837949752808e-01
4.363334178924560547e-02
3.333907425403594971e-01
-1.043424904346466064e-01
1.121148690581321716e-01
7.133760452270507812e-01
4.846816360950469971e-01
-4.217187687754631042e-02
7.098881155252456665e-02
-4.108965694904327393e-01
4.367205500602722168e-01
-1.757774800062179565e-01
2.904301285743713379e-01
-2.828599512577056885e-01
2.564111649990081787e-01
1.098715439438819885e-01
4.997753798961639404e-01
1.692259311676025391e-01
-2.054750174283981323e-01
-2.142284214496612549e-01
2.099457532167434692e-01
-2.789560258388519287e-01
9.325997531414031982e-02
-2.687847018241882324e-01
1.278243660926818848e-01
2.332818210124969482e-01
-2.565501630306243896e-01
-6.379576027393341064e-02
1.176628544926643372e-01
-1.042442619800567627e-01
5.816248059272766113e-01
-8.984337002038955688e-02
-3.246141970157623291e-01
-4.419549107551574707e-01
1.367041766643524170e-01
-1.823060959577560425e-02
-1.093107610940933228e-01
2.943641245365142822e-01
7.369832694530487061e-02
1.683423221111297607e-01
-1.107714623212814331e-01
1.565685272216796875e-01
-2.827186882495880127e-01
-4.864913225173950195e-01
3.165777400135993958e-02
-2.282625734806060791e-01
1.522578001022338867e-01
-1.387302279472351074e-01
-3.032634258270263672e-01
3.027706742286682129e-01
-4.225457087159156799e-02
-2.802129276096820831e-02
-1.343814432621002197e-01
6.772868335247039795e-02
-3.868552744388580322e-01
1.456119213253259659e-02
4.100725352764129639e-01
3.286232054233551025e-01
-9.015056490898132324e-02
4.056527316570281982e-01
-1.810078620910644531e-01
4.102420806884765625e-02
-1.079320162534713745e-02
-1.532032042741775513e-01
-3.071980550885200500e-02
-3.787401020526885986e-01
8.810735493898391724e-02
4.107813350856304169e-03
-3.481040596961975098e-01
-3.631405532360076904e-01
-3.788673505187034607e-02
6.521568447351455688e-02
3.068298995494842529e-01
-4.617836773395538330e-01
-4.476121440529823303e-02
1.721467971801757812e-01
-2.398897521197795868e-02
-2.768293619155883789e-01
1.270554661750793457e-01
1.260874718427658081e-01
2.855834364891052246e-01
2.594225108623504639e-01
-1.791768670082092285e-01
5.648283660411834717e-02
1.423369646072387695e-01
-2.405116111040115356e-01
-2.018647342920303345e-01
4.805383458733558655e-02
-5.476060509681701660e-02
-5.219209939241409302e-02
-5.155707597732543945e-01
-1.876490861177444458e-01
9.924162179231643677e-02
3.060283958911895752e-01
4.165838938206434250e-03
-4.817380011081695557e-02
2.482453882694244385e-01
1.963392049074172974e-01
5.098830163478851318e-02
1.492833495140075684e-01
2.385551929473876953e-01
2.043534219264984131e-01
6.436958163976669312e-02
7.132382690906524658e-02
1.994356364011764526e-01
1.036934927105903625e-01
4.390734434127807617e-01
6.427425146102905273e-02
1.881731674075126648e-02
-2.524603903293609619e-01
1.734211593866348267e-01
-2.227611988782882690e-01
-7.313085347414016724e-02
1.109440773725509644e-01
-4.626596346497535706e-02
-6.835485994815826416e-02
1.348332613706588745e-01
-9.843607991933822632e-02
-1.855671554803848267e-01
-2.823659218847751617e-02
2.653024196624755859e-01
1.997837871313095093e-01
2.514944672584533691e-01
-1.126126721501350403e-01
1.888716518878936768e-01
2.725332677364349365e-01
1.842308491468429565e-01
1.345875561237335205e-01
2.412139326333999634e-01
-3.703243434429168701e-01
-5.649418383836746216e-02
4.099507033824920654e-01
-1.042725294828414917e-01
-2.484915405511856079e-01
-2.727578878402709961e-01
-4.838032647967338562e-02
1.668125391006469727e-01
2.547711133956909180e-01
1.105067729949951172e-01
-7.212977856397628784e-02
3.431524708867073059e-02
2.943637967109680176e-01
-1.245850250124931335e-01
-1.454636007547378540e-01
2.232512533664703369e-01
7.904423400759696960e-03
-2.066148072481155396e-01
-9.999316185712814331e-02
-1.463094502687454224e-01
-3.683951869606971741e-02
-1.086989119648933411e-01
5.630413815379142761e-02
1.235403213649988174e-02
3.244475722312927246e-01
1.651916056871414185e-01
2.092023938894271851e-02
1.909956783056259155e-01
3.094199001789093018e-01
1.672438830137252808e-01
2.112687379121780396e-02
3.225733935832977295e-01
-3.350375220179557800e-02
1.084470450878143311e-01
2.527928054332733154e-01
7.011561840772628784e-02
2.403583377599716187e-01
6.723926216363906860e-02
-2.390542477369308472e-01
-8.982975035905838013e-02
1.897209137678146362e-01
-1.718443445861339569e-02
1.101403236389160156e-01
4.041308760643005371e-01
1.659001037478446960e-02
7.373423129320144653e-02
1.508628427982330322e-01
-2.367506176233291626e-01
7.824868708848953247e-02
-2.707757055759429932e-01
1.326187551021575928e-01
-2.074633240699768066e-01
1.691561043262481689e-01
-7.369550317525863647e-02
2.276860773563385010e-01
2.077157050371170044e-02
3.498286902904510498e-01
-1.007494553923606873e-01
-4.894154146313667297e-02
1.180333569645881653e-01
-5.310047045350074768e-02
-1.382648758590221405e-02
3.374268859624862671e-02
-1.170891057699918747e-02
9.726176410913467407e-02
1.865965425968170166e-01
2.849435806274414062e-01
-5.864887684583663940e-02
4.901751875877380371e-01
-3.985902965068817139e-01
1.035120561718940735e-01
9.294534474611282349e-02
-4.134215414524078369e-02
5.016200616955757141e-02
-1.378933489322662354e-01
1.092473939061164856e-01
-1.890466064214706421e-01
4.247689843177795410e-01
-5.443408712744712830e-02
1.623239717446267605e-03
-1.256283670663833618e-01
2.345499694347381592e-01
-9.201316162943840027e-03
-5.973316431045532227e-01
-6.473097950220108032e-02
-3.484008312225341797e-01
-1.966645717620849609e-01
1.568291522562503815e-02
-2.526476383209228516e-01
-1.271951198577880859e-01
1.407106220722198486e-01
-8.144994825124740601e-02
3.410755097866058350e-01
-4.949272796511650085e-02
-3.458385169506072998e-01
-5.591812357306480408e-02
-6.025497242808341980e-02
-3.957978487014770508e-01
2.587276995182037354e-01
-1.273888349533081055e-01
1.246345937252044678e-01
4.906241223216056824e-02
2.447199672460556030e-01
3.078112006187438965e-01
-1.779920756816864014e-01
2.800877094268798828e-01
1.952147781848907471e-01
-1.989704370498657227e-01
1.621938496828079224e-01
2.304402738809585571e-01
-2.221000045537948608e-01
3.669520616531372070e-01
-1.758050173521041870e-01
2.060431689023971558e-01
-2.619200646877288818e-01
8.582630753517150879e-02
-1.603594273328781128e-01
1.896716654300689697e-01
-5.143899917602539062e-01
-1.812312006950378418e-02
-3.796400427818298340e-01
-3.298661708831787109e-01
-1.053325906395912170e-01
-1.604805886745452881e-01
3.899411261081695557e-01
-1.564581692218780518e-01
-2.750238180160522461e-01
-3.388508856296539307e-01
-2.941096425056457520e-01
-3.508072793483734131e-01
-4.257386922836303711e-01
2.308901213109493256e-02
-9.980106353759765625e-02
-1.971268802881240845e-01
-4.799196720123291016e-01
-2.978254556655883789e-01
-5.186071395874023438e-01
-5.764436721801757812e-01
2.670453488826751709e-02
1.740600615739822388e-01
-2.348649501800537109e-01
-6.030673980712890625e-01
-4.812731742858886719e-01
-8.113766461610794067e-02
-2.796911597251892090e-01
-5.627053380012512207e-01
-5.832732915878295898e-01
-2.875682711601257324e-01
-3.755982220172882080e-01
-5.972975492477416992e-01
-1.398976743221282959e-01
-3.164280951023101807e-01
1.389017850160598755e-01
-4.193094372749328613e-01
-4.551284313201904297e-01
-6.072275713086128235e-02
-1.087393835186958313e-01
2.770107388496398926e-01
-1.760949343442916870e-01
-7.275176793336868286e-02
4.246805608272552490e-01
-4.480422735214233398e-01
-7.273212075233459473e-01
-8.433517813682556152e-01
1.104314923286437988e-01
-6.053003072738647461e-01
-9.419221431016921997e-02
-8.198411464691162109e-01
-9.107045531272888184e-01
-4.569776356220245361e-01
-4.903647005558013916e-01
-1.555961817502975464e-01
-1.550207436084747314e-01
-5.750350952148437500e-01
-2.161583006381988525e-01
-5.213782191276550293e-01
-1.912915557622909546e-01
-3.308846950531005859e-01
3.047370612621307373e-01
4.968860745429992676e-02
-5.145837068557739258e-01
-7.062681913375854492e-01
-2.856773734092712402e-01
-1.132709346711635590e-02
-3.688151538372039795e-01
-2.636026740074157715e-01
-4.827110469341278076e-01
-1.967264562845230103e-01
-3.572515845298767090e-01
-1.286070346832275391e-01
-2.718876898288726807e-01
-1.609591245651245117e-01
1.984520703554153442e-01
-6.068153977394104004e-01
-1.191062554717063904e-01
-2.782559394836425781e-01
7.350870408117771149e-03
-3.834134936332702637e-01
-4.700441360473632812e-01
-1.693200916051864624e-01
-2.616117894649505615e-01
-5.973469018936157227e-01
-4.315047264099121094e-01
-8.129489421844482422e-01
-3.810809552669525146e-01
-2.212511152029037476e-01
-8.481744527816772461e-01
-3.329509198665618896e-01
1.137449890375137329e-01
-8.796745538711547852e-02
1.435019075870513916e-02
-2.430907338857650757e-01
3.310824334621429443e-01
8.492723852396011353e-02
-5.250278115272521973e-01
-4.619860947132110596e-01
-2.147624790668487549e-01
-4.603105485439300537e-01
-4.217413440346717834e-02
-2.208542227745056152e-01
9.133583866059780121e-03
-2.225194275379180908e-01
-7.245314121246337891e-01
-4.874784946441650391e-01
-1.936874240636825562e-01
-1.004556342959403992e-01
-2.835717797279357910e-01
-2.285886853933334351e-01
-1.930062621831893921e-01
-5.056660771369934082e-01
-2.689639329910278320e-01
-5.336574912071228027e-01
-5.911037325859069824e-01
-1.884647086262702942e-02
-8.183904886245727539e-01
-3.640817403793334961e-01
-5.498287677764892578e-01
-7.258804440498352051e-01
-5.927439332008361816e-01
-1.113914251327514648e-01
-1.481962352991104126e-01
-2.513788640499114990e-01
-6.367972493171691895e-01
-1.128377094864845276e-01
-2.336013466119766235e-01
1.032690256834030151e-01
-3.527955412864685059e-01
-2.800354957580566406e-01
-4.789788424968719482e-01
-2.013775259256362915e-01
-1.023936197161674500e-01
-1.096368432044982910e-01
-4.130354896187782288e-02
-3.360490500926971436e-01
-1.837629228830337524e-01
-1.582527458667755127e-01
-2.126778066158294678e-01
-3.074041903018951416e-01
6.132815033197402954e-02
-2.412836700677871704e-01
-6.490480303764343262e-01
4.051344841718673706e-02
-2.899234890937805176e-01
-4.053135514259338379e-01
2.774561345577239990e-01
-1.297066509723663330e-01
-4.190997481346130371e-01
-6.070846319198608398e-01
1.585738211870193481e-01
-2.837174236774444580e-01
-4.052653312683105469e-01
-6.158588528633117676e-01
-4.397185444831848145e-01
-9.326162934303283691e-02
-3.818253278732299805e-01
2.724041938781738281e-01
-5.446023344993591309e-01
-5.059366226196289062e-01
-3.451349437236785889e-01
-3.619643449783325195e-01
-4.820989668369293213e-01
3.558638319373130798e-02
-2.673124372959136963e-01
-1.966540813446044922e-01
-4.664015769958496094e-01
-6.892873644828796387e-01
-4.169958829879760742e-02
-1.584487557411193848e-01
-1.854487061500549316e-01
-4.712617397308349609e-01
-3.129356801509857178e-01
-3.670594990253448486e-01
-1.582858264446258545e-01
-1.807702891528606415e-02
3.399218022823333740e-01
-3.282901346683502197e-01
-7.027720808982849121e-01
-2.262123227119445801e-01
-5.142477154731750488e-01
-1.753231883049011230e-01
-2.760966122150421143e-01
-5.570206046104431152e-01
-3.731326460838317871e-01
-1.781278103590011597e-02
-5.050459504127502441e-01
-4.433566629886627197e-01
-5.214102864265441895e-01
-2.443637400865554810e-01
-4.278372228145599365e-01
-2.466831952333450317e-01
-4.049568772315979004e-01
-4.551408886909484863e-01
-4.216503500938415527e-01
-2.205558866262435913e-01
-5.497543215751647949e-01
-6.420391052961349487e-02
-3.640647828578948975e-01
-1.934775412082672119e-01
-3.207553029060363770e-01
-7.545434832572937012e-01
-3.367652297019958496e-01
-5.058340430259704590e-01
-1.902494728565216064e-01
-5.477517247200012207e-01
-2.523711025714874268e-01
-4.324620366096496582e-01
-4.880774319171905518e-01
-4.557596743106842041e-01
-4.461563825607299805e-01
-5.229156017303466797e-01
-1.722803562879562378e-01
-2.241218686103820801e-01
-1.810502707958221436e-01
1.430311203002929688e-01
-7.673386335372924805e-01
-1.489561349153518677e-01
-2.392732538282871246e-03
-7.423877716064453125e-01
-6.180050969123840332e-01
-3.606308996677398682e-01
-3.485079407691955566e-01
-1.454764455556869507e-01
-6.193335056304931641e-01
-3.316923677921295166e-01
4.479283094406127930e-02
-9.200615435838699341e-02
-5.489752888679504395e-01
-1.254390478134155273e-01
-3.516201078891754150e-01
-3.265281766653060913e-02
-2.280784100294113159e-01
-2.908360064029693604e-01
-5.427325367927551270e-01
1.866934746503829956e-01
-1.345181763172149658e-01
-9.695473127067089081e-03
-1.154944971203804016e-01
-1.312370151281356812e-01
-8.648370206356048584e-02
-3.488207161426544189e-01
-4.682587459683418274e-02
-2.511628568172454834e-01
-1.325440704822540283e-01
-1.875054240226745605e-01
-2.762091159820556641e-01
-2.142025381326675415e-01
-4.846557378768920898e-01
-1.452781260013580322e-01
-6.207515597343444824e-01
1.712570711970329285e-02
-1.148703042417764664e-03
-4.555411934852600098e-01
-3.060836195945739746e-01
-2.994701266288757324e-01
