-3.825162053108215332e-01
-3.734728395938873291e-01
-4.495642781257629395e-01
-5.749523043632507324e-01
-2.226321101188659668e-01
-2.109443545341491699e-01
-1.864510178565979004e-01
-4.343002140522003174e-01
-1.999857574701309204e-01
-3.813543021678924561e-01
-3.442629575729370117e-01
-3.789001107215881348e-01
-1.356208771467208862e-01
-2.400221377611160278e-01
-1.056681945919990540e-01
-3.304877132177352905e-02
-2.873877584934234619e-01
-2.604523003101348877e-01
-5.133569240570068359e-03
-1.225826591253280640e-01
-2.648408114910125732e-01
-1.821091771125793457e-01
-3.164468705654144287e-01
-1.044472213834524155e-02
-3.504597842693328857e-01
-1.015304625034332275e-01
-4.494472742080688477e-01
8.474969863891601562e-02
-1.587371975183486938e-01
-8.024942874908447266e-02
-4.945701658725738525e-01
-1.656825542449951172e-01
-1.790182292461395264e-01
-3.510672748088836670e-01
-1.134596094489097595e-01
-9.360685944557189941e-02
-6.150260195136070251e-02
-2.475507557392120361e-01
-3.613980710506439209e-01
-1.113508418202400208e-01
2.574625909328460693e-01
-2.936800420284271240e-01
-1.285453140735626221e-01
-3.745712041854858398e-01
-1.509220451116561890e-01
-3.344326019287109375e-01
-1.684374809265136719e-01
-1.693611741065979004e-01
-2.158814817667007446e-01
-2.495979815721511841e-01
-2.968215048313140869e-01
-4.019644856452941895e-01
3.215762227773666382e-02
-2.136087715625762939e-01
1.670580543577671051e-02
-2.061423808336257935e-01
-1.894360631704330444e-01
-9.066210687160491943e-02
-1.731189340353012085e-01
-2.386137247085571289e-01
7.572654169052839279e-03
-1.858314312994480133e-02
-4.724668711423873901e-02
-2.816369831562042236e-01
-2.865888774394989014e-01
-8.994088321924209595e-02
-4.640620946884155273e-02
-2.387796640396118164e-01
-2.797104716300964355e-01
9.905654937028884888e-03
-3.229428529739379883e-01
-3.265508115291595459e-01
9.987685829401016235e-02
-1.565148383378982544e-01
-9.600573033094406128e-02
-1.665994971990585327e-01
-2.877296209335327148e-01
-1.726378202438354492e-01
-3.562461435794830322e-01
-2.084130048751831055e-01
-3.954416215419769287e-01
-4.738489985466003418e-01
-3.077088892459869385e-01
1.051016300916671753e-01
7.713375985622406006e-02
-2.763630747795104980e-01
-9.312680363655090332e-02
-1.295849829912185669e-01
-2.689256705343723297e-02
-2.080079019069671631e-01
-3.352009057998657227e-01
-2.182752341032028198e-01
-3.036919534206390381e-01
-3.006816506385803223e-01
-2.746264636516571045e-02
1.006207838654518127e-01
-2.733860909938812256e-01
-1.451845467090606689e-01
1.248438581824302673e-01
3.346247971057891846e-01
-3.432860365137457848e-03
1.548533327877521515e-02
-3.326947391033172607e-01
-7.853350043296813965e-02
-4.450373351573944092e-01
-2.392441481351852417e-01
-8.639603853225708008e-02
2.226227223873138428e-01
1.743611991405487061e-01
-4.325324594974517822e-01
-1.754045337438583374e-01
5.587111413478851318e-02
-1.528500318527221680e-01
-3.678065836429595947e-01
-1.208696588873863220e-01
-4.092105031013488770e-01
-2.562993466854095459e-01
-4.697005450725555420e-01
-2.375896722078323364e-01
2.490568906068801880e-03
-1.818358781747519970e-03
1.519465148448944092e-01
-5.051616430282592773e-01
4.327898845076560974e-02
-1.560271829366683960e-01
-5.399147868156433105e-01
-2.705642879009246826e-01
-2.736796438694000244e-01
1.371780335903167725e-01
-2.520975470542907715e-01
-2.469005584716796875e-01
-3.561609983444213867e-01
-2.132575362920761108e-01
-1.182784065604209900e-01
-8.519851416349411011e-02
9.594155848026275635e-02
-2.887478284537792206e-02
1.817131191492080688e-01
-8.525283634662628174e-02
-1.726393848657608032e-01
1.093809381127357483e-01
-8.918196894228458405e-03
-2.703981995582580566e-01
-1.884388625621795654e-01
-1.545158624649047852e-01
3.190226107835769653e-02
-3.000063598155975342e-01
1.048351153731346130e-01
-3.441833853721618652e-01
-1.543698832392692566e-02
3.305455744266510010e-01
-9.505683183670043945e-02
-5.753148719668388367e-02
-1.680088192224502563e-01
-8.540653437376022339e-02
-2.666558921337127686e-01
-2.955381870269775391e-01
-3.862687647342681885e-01
-2.430918365716934204e-01
-1.614801585674285889e-01
-3.503724932670593262e-01
-3.161457180976867676e-01
1.851475983858108521e-01
-2.054232507944107056e-01
-2.864884138107299805e-01
-6.895941495895385742e-02
-4.520606622099876404e-02
-4.629941657185554504e-02
-6.920403987169265747e-02
-3.722233176231384277e-01
-2.364707887172698975e-01
-3.363001644611358643e-01
2.949241697788238525e-01
3.946997225284576416e-02
-2.630098164081573486e-01
-3.212436437606811523e-01
-4.340226948261260986e-01
-1.067751869559288025e-01
-4.060622155666351318e-01
-3.169117569923400879e-01
-2.320213019847869873e-01
-1.626228392124176025e-01
9.623089432716369629e-02
-4.308903813362121582e-01
-1.889093965291976929e-01
9.256673976778984070e-03
-2.200569510459899902e-01
-1.427083462476730347e-01
-4.810028076171875000e-01
-2.777586877346038818e-01
-3.522209227085113525e-01
-3.644140958786010742e-01
-8.369777351617813110e-02
-3.972539901733398438e-01
-3.521634042263031006e-01
3.413546681404113770e-01
-4.218207299709320068e-01
1.096084192395210266e-01
4.352781921625137329e-02
-2.400955855846405029e-01
-1.537211537361145020e-01
-4.211302101612091064e-02
-3.112266361713409424e-01
-3.634554147720336914e-01
-1.444121897220611572e-01
-4.723151624202728271e-01
-1.154915690422058105e-01
-3.517970442771911621e-02
1.069848835468292236e-01
-2.981878817081451416e-01
-2.779866158962249756e-01
-9.318155795335769653e-02
-2.088911086320877075e-01
-1.842842698097229004e-01
-3.618941009044647217e-01
-9.481748938560485840e-02
-2.418191581964492798e-01
-2.693967819213867188e-01
-1.324953138828277588e-01
-1.530984640121459961e-01
-1.152587831020355225e-01
-3.795022368431091309e-01
-5.933141708374023438e-02
-4.315879940986633301e-01
-3.956502079963684082e-01
-3.284676671028137207e-01
-2.401553094387054443e-01
7.915976643562316895e-02
-1.198654398322105408e-01
5.738836526870727539e-01
-2.234262824058532715e-01
6.271827220916748047e-02
-1.844769865274429321e-01
-3.983108699321746826e-01
-4.466484189033508301e-01
-1.139648780226707458e-01
-2.590467333793640137e-01
-8.199255168437957764e-02
2.388124912977218628e-01
-5.522724613547325134e-02
-2.769284844398498535e-01
-2.502370476722717285e-01
1.448145657777786255e-01
-5.501951575279235840e-01
-1.968457698822021484e-01
-3.180936276912689209e-01
-3.018069267272949219e-01
-1.425738781690597534e-01
-3.529908955097198486e-01
-4.752969443798065186e-01
-3.490548431873321533e-01
-1.937085986137390137e-01
-2.733158171176910400e-01
-4.152272045612335205e-01
-2.491786330938339233e-01
-9.858689457178115845e-02
-2.731101810932159424e-01
-3.425424695014953613e-01
1.959319710731506348e-01
1.170990616083145142e-01
-1.522183865308761597e-01
-2.926912307739257812e-01
-1.177688911557197571e-01
-2.992088198661804199e-01
8.690714091062545776e-02
-1.282605975866317749e-01
-9.267189353704452515e-02
-4.110573828220367432e-01
4.608778282999992371e-02
-3.249650001525878906e-01
-1.134473979473114014e-01
-8.438466489315032959e-02
-1.093489080667495728e-01
1.168569773435592651e-01
-2.442503869533538818e-01
-4.019033908843994141e-02
-1.122809872031211853e-01
-4.474949240684509277e-01
-1.013840287923812866e-01
1.339050084352493286e-01
-2.308217734098434448e-01
-1.632155478000640869e-01
-3.261871635913848877e-01
-5.047690272331237793e-01
6.898780167102813721e-02
2.926724553108215332e-01
-1.322831064462661743e-01
2.178682573139667511e-02
-2.835871875286102295e-01
-4.865442812442779541e-01
7.597560435533523560e-02
9.821991622447967529e-02
-3.378679277375340462e-03
-2.504447400569915771e-01
-4.042577445507049561e-01
-1.128614544868469238e-01
1.386773586273193359e-01
-1.638879776000976562e-01
-3.957346677780151367e-01
-6.545302271842956543e-01
7.721664011478424072e-02
-4.453258514404296875e-01
-3.092864751815795898e-01
-2.241193056106567383e-01
-1.248065084218978882e-01
-3.049199879169464111e-01
1.918614357709884644e-01
-1.999149173498153687e-01
2.582601308822631836e-01
4.845506697893142700e-02
2.100579738616943359e-01
-2.065906524658203125e-01
2.059658169746398926e-01
-6.073545664548873901e-02
2.085736244916915894e-01
-7.935354113578796387e-02
1.699097305536270142e-01
-1.319929398596286774e-02
1.677509397268295288e-01
8.115458488464355469e-02
-2.671424746513366699e-01
9.707558155059814453e-02
-3.029053509235382080e-01
2.306047640740871429e-02
-3.435319364070892334e-01
9.648237377405166626e-02
-2.147458195686340332e-01
-3.429380953311920166e-01
2.047485262155532837e-01
-2.783792912960052490e-01
-4.618355631828308105e-02
-1.826952695846557617e-01
1.165223540738224983e-03
1.684424281120300293e-01
-4.265464842319488525e-01
-1.125507149845361710e-02
-6.187087893486022949e-01
-6.148922815918922424e-02
-4.933384656906127930e-01
-6.736037135124206543e-02
1.442830413579940796e-01
-2.044859826564788818e-01
-1.428745500743389130e-02
-2.144762873649597168e-01
-2.204235345125198364e-01
5.797344446182250977e-02
-4.744282364845275879e-01
2.547788619995117188e-01
5.914580821990966797e-02
1.113214809447526932e-02
-5.520415306091308594e-01
-4.086897522211074829e-02
-4.933538138866424561e-01
-4.168674349784851074e-01
-6.402225792407989502e-02
1.082604154944419861e-01
7.136915624141693115e-02
1.406274288892745972e-01
4.884933307766914368e-02
-6.773728132247924805e-02
1.610681228339672089e-02
-6.205526366829872131e-02
2.862409353256225586e-01
2.964877188205718994e-01
2.543433606624603271e-01
-2.556036710739135742e-01
-2.116087526082992554e-01
1.132838428020477295e-01
-2.658089436590671539e-02
-9.621509909629821777e-02
-4.807666689157485962e-02
-2.148763835430145264e-01
-1.220217347145080566e-01
-6.694502234458923340e-01
1.416314989328384399e-01
1.731661520898342133e-02
-3.713056445121765137e-03
3.083192408084869385e-01
-8.734034895896911621e-01
-9.871850162744522095e-02
-1.152085661888122559e-01
1.318711191415786743e-01
-4.039998948574066162e-01
-3.714411854743957520e-01
1.176235545426607132e-02
6.830544024705886841e-02
5.702105909585952759e-02
-4.734041094779968262e-01
1.479910910129547119e-01
-1.908860951662063599e-01
-1.932280808687210083e-01
4.572636261582374573e-02
-4.417349025607109070e-02
-1.721149310469627380e-02
-1.884587481617927551e-02
1.081551760435104370e-01
-1.896428763866424561e-01
7.595442980527877808e-02
-2.085001617670059204e-01
-2.993814088404178619e-02
-3.487798273563385010e-01
-3.184907510876655579e-02
-1.507613807916641235e-01
7.790168374776840210e-02
-3.925195634365081787e-01
1.665601730346679688e-01
2.946489155292510986e-01
-1.587796509265899658e-01
-8.001660555601119995e-02
3.935306146740913391e-02
8.796796202659606934e-02
-4.535709321498870850e-01
-2.656964957714080811e-01
-4.219238832592964172e-02
-8.880171179771423340e-02
-2.541924417018890381e-01
-1.918221116065979004e-01
-1.011504232883453369e-01
-3.698585927486419678e-02
2.189436703920364380e-01
1.933377087116241455e-01
4.614051058888435364e-02
-1.586987450718879700e-02
1.863423883914947510e-01
9.777265042066574097e-02
-4.234962761402130127e-01
3.260509669780731201e-02
9.804166853427886963e-02
3.671090900897979736e-01
-4.189022183418273926e-01
-3.031652569770812988e-01
-4.540499746799468994e-01
-2.159252166748046875e-01
-3.920192122459411621e-01
-1.424452960491180420e-01
-8.987495303153991699e-01
-1.834193617105484009e-01
2.925974503159523010e-02
1.381903141736984253e-01
2.132669836282730103e-01
-2.414670884609222412e-01
-1.993248611688613892e-01
-2.978929281234741211e-01
1.684415191411972046e-01
-6.534096598625183105e-01
-2.952709794044494629e-01
-5.380050539970397949e-01
-1.238616779446601868e-01
9.485913068056106567e-02
-5.744448304176330566e-01
-2.396517395973205566e-01
1.890072673559188843e-01
-1.420956104993820190e-01
-3.019262552261352539e-01
-4.224452748894691467e-02
-1.294308453798294067e-01
7.767803221940994263e-02
-3.311907351016998291e-01
-8.093782663345336914e-01
7.369152456521987915e-02
-1.634600311517715454e-01
-3.712242841720581055e-01
3.226126078516244888e-03
1.874023526906967163e-01
5.203434452414512634e-02
-1.927215307950973511e-01
1.500391662120819092e-01
8.009731769561767578e-02
1.270010471343994141e-01
-4.854409396648406982e-02
-2.327226847410202026e-01
-5.071174353361129761e-02
-3.315130621194839478e-02
7.526676356792449951e-02
1.319488324224948883e-02
8.823442459106445312e-02
-1.132018789649009705e-01
-1.973248422145843506e-01
4.419417306780815125e-02
-2.963438630104064941e-01
-3.783689439296722412e-01
-3.411607742309570312e-01
2.824391126632690430e-01
4.739314317703247070e-02
-1.922925701364874840e-03
9.017898887395858765e-02
-2.179352790117263794e-01
9.923096746206283569e-02
-8.366402387619018555e-01
-3.552425652742385864e-02
-1.069252118468284607e-01
1.106878519058227539e-01
-3.862562477588653564e-01
1.953108310699462891e-01
2.631686329841613770e-01
-2.725278437137603760e-01
-7.220436632633209229e-02
6.484486907720565796e-02
9.067924693226814270e-03
-1.625704914331436157e-01
-4.622965306043624878e-02
-4.946830868721008301e-02
-4.522086307406425476e-02
-2.224207520484924316e-01
-2.210007905960083008e-01
-5.343739390373229980e-01
-1.845388114452362061e-01
-6.833447813987731934e-01
-1.149017084389925003e-02
-3.565327823162078857e-01
2.199452742934226990e-02
8.817177265882492065e-02
-5.725928023457527161e-02
-3.095951080322265625e-01
2.449410557746887207e-01
1.393561065196990967e-02
-1.344794780015945435e-01
2.654814720153808594e-02
1.157289221882820129e-01
2.633737623691558838e-01
-5.717842653393745422e-02
8.393752574920654297e-02
1.581195443868637085e-01
1.714159101247787476e-01
-3.145847916603088379e-01
-9.916529059410095215e-03
9.196388721466064453e-02
-2.473845034837722778e-01
1.520924717187881470e-01
8.353390544652938843e-02
-2.059858888387680054e-01
-2.072821259498596191e-01
1.828697621822357178e-01
-3.805633485317230225e-01
1.349730696529150009e-02
-5.649779736995697021e-02
2.229748852550983429e-02
1.937298290431499481e-02
3.551913797855377197e-02
-3.028417825698852539e-01
2.920725382864475250e-02
-3.061071634292602539e-01
-1.260433048009872437e-01
2.162199318408966064e-01
7.124293595552444458e-02
-6.816653162240982056e-02
-3.529591262340545654e-01
3.161486983299255371e-01
-1.250771153718233109e-02
-6.059763953089714050e-02
-2.925304137170314789e-02
-5.918076261878013611e-03
-1.760780066251754761e-01
2.904989123344421387e-01
-6.757996231317520142e-02
-9.397628903388977051e-02
2.310129553079605103e-01
2.525400221347808838e-01
3.079505870118737221e-03
-3.822079673409461975e-02
-2.441417425870895386e-01
1.381780952215194702e-01
-1.206995174288749695e-02
1.872423738241195679e-01
3.549363017082214355e-01
1.668019592761993408e-01
-4.265081882476806641e-01
-2.368864715099334717e-01
1.272986233234405518e-01
-9.171719104051589966e-02
-1.137934997677803040e-01
-5.216056481003761292e-02
8.116533979773521423e-03
9.155558422207832336e-03
-3.442655503749847412e-01
6.357331573963165283e-02
1.776784360408782959e-01
-1.037929728627204895e-01
-4.009895622730255127e-01
-2.622185647487640381e-01
1.177823916077613831e-01
1.414629071950912476e-01
1.348997652530670166e-01
-9.278220683336257935e-02
-3.434804081916809082e-01
-1.655486971139907837e-02
5.793818831443786621e-02
-1.717049926519393921e-01
1.087274253368377686e-01
3.461692482233047485e-02
2.993230819702148438e-01
-4.758670181035995483e-02
4.339756816625595093e-02
-3.326353430747985840e-02
-7.382296025753021240e-02
4.720445349812507629e-02
2.825635718181729317e-03
4.041988775134086609e-02
1.392881125211715698e-01
1.001420896500349045e-02
-2.552390694618225098e-01
-3.026023805141448975e-01
2.163179777562618256e-02
3.633027076721191406e-01
2.117149978876113892e-01
-7.890133559703826904e-02
-4.492661356925964355e-01
4.890905320644378662e-02
3.365502133965492249e-02
-1.561599969863891602e-01
-2.218925058841705322e-01
-1.774006783962249756e-01
5.641342997550964355e-01
-5.308417230844497681e-02
1.788525134325027466e-01
-3.318088054656982422e-01
2.866243757307529449e-02
2.605691552162170410e-01
-2.199122309684753418e-01
-1.214291378855705261e-01
5.658020377159118652e-01
-1.195631027221679688e-01
-1.152732642367482185e-03
-2.037586271762847900e-01
-1.128714159131050110e-01
-2.155989259481430054e-01
2.232339531183242798e-01
-7.987475395202636719e-02
9.965314716100692749e-02
-2.396986633539199829e-01
-5.567480623722076416e-02
2.818437516689300537e-01
2.650326490402221680e-01
-5.592320114374160767e-02
-2.563270032405853271e-01
8.737464435398578644e-03
-1.577520817518234253e-01
-2.007666677236557007e-01
3.808931680396199226e-03
-7.054507732391357422e-02
2.450668364763259888e-01
3.948558121919631958e-02
-1.848736554384231567e-01
-2.136965990066528320e-01
2.624992132186889648e-01
-3.319644927978515625e-02
3.594196438789367676e-01
4.435663819313049316e-01
1.119590252637863159e-01
-2.532306015491485596e-01
-1.943166255950927734e-01
-2.362973093986511230e-01
1.070749666541814804e-02
2.265985161066055298e-01
-1.225782260298728943e-01
1.108095869421958923e-01
2.679585218429565430e-01
-2.337879836559295654e-01
-2.622485458850860596e-01
-2.314749658107757568e-01
8.124662190675735474e-02
-3.417382389307022095e-02
3.454806804656982422e-01
1.357432901859283447e-01
-2.523080110549926758e-01
3.241783380508422852e-01
1.366045176982879639e-01
1.851984560489654541e-01
3.727829158306121826e-01
1.946411132812500000e-01
1.050089150667190552e-01
-2.230056822299957275e-01
3.242850005626678467e-01
-4.797999188303947449e-02
1.318400446325540543e-02
-2.691826224327087402e-01
1.261642724275588989e-01
1.307375431060791016e-01
-4.221097230911254883e-01
-2.014892250299453735e-01
5.967697873711585999e-02
1.578489840030670166e-01
6.783372163772583008e-02
-6.936376541852951050e-02
4.084220826625823975e-01
8.970158547163009644e-02
-4.506604000926017761e-02
4.090399597771465778e-04
-1.188217848539352417e-02
1.258816570043563843e-01
-3.267353028059005737e-02
-5.092927813529968262e-01
2.344126254320144653e-01
-2.016406953334808350e-01
4.325721561908721924e-01
3.116134367883205414e-02
-1.347491592168807983e-01
1.146630868315696716e-01
5.957608669996261597e-02
-2.455631196498870850e-01
2.685867622494697571e-02
-9.877040982246398926e-02
5.484475567936897278e-02
-7.738091051578521729e-02
3.281204998493194580e-01
-2.162385545670986176e-02
2.682837843894958496e-01
4.928412735462188721e-01
1.282725483179092407e-01
-2.913882732391357422e-01
5.696338135749101639e-03
4.254797473549842834e-02
-1.577002853155136108e-01
-2.749684266746044159e-02
-1.681377887725830078e-01
2.090444564819335938e-01
5.638340115547180176e-02
8.458784967660903931e-02
-2.089930176734924316e-01
3.130197227001190186e-01
-1.249207854270935059e-01
3.975787013769149780e-02
1.644559204578399658e-01
4.592380821704864502e-01
-1.077438369393348694e-01
2.681312263011932373e-01
1.834587752819061279e-01
9.453280270099639893e-02
-1.188750192523002625e-01
-1.070892959833145142e-01
-1.019899733364582062e-02
-1.042863540351390839e-02
2.436886131763458252e-01
3.498464226722717285e-01
-4.035396575927734375e-01
-7.265189290046691895e-02
-1.458872407674789429e-01
-1.113627701997756958e-01
3.161883056163787842e-01
3.566416800022125244e-01
1.906673461198806763e-01
5.937412008643150330e-02
9.095368534326553345e-02
2.399050593376159668e-01
5.732084512710571289e-01
1.394706666469573975e-01
-1.128167510032653809e-01
2.610708773136138916e-01
-2.066930532455444336e-01
-2.519402503967285156e-01
-3.208017349243164062e-01
-3.906266763806343079e-02
-2.610551714897155762e-01
1.642683744430541992e-01
1.004793643951416016e-01
5.570745561271905899e-03
-2.583710253238677979e-01
1.115581542253494263e-01
1.591117680072784424e-01
1.134698390960693359e-01
-6.226250156760215759e-02
1.658840626478195190e-01
3.259074315428733826e-02
2.773613631725311279e-01
1.896775662899017334e-01
-2.043364346027374268e-01
1.481976062059402466e-01
-1.794081926345825195e-02
-3.312194049358367920e-01
-2.551546692848205566e-01
-4.040421843528747559e-01
1.153468638658523560e-01
-5.545814987272024155e-03
-3.885758221149444580e-01
-2.855114340782165527e-01
-3.429044783115386963e-01
-4.269823431968688965e-01
-5.257542058825492859e-02
-3.869324624538421631e-01
-3.680025339126586914e-01
2.671888843178749084e-02
-2.844982445240020752e-01
-6.309668719768524170e-02
-5.940877199172973633e-01
-5.343285799026489258e-01
-2.868574857711791992e-01
-3.742246031761169434e-01
-4.689427316188812256e-01
-5.839346647262573242e-01
-2.921642065048217773e-01
-4.314351081848144531e-01
-1.765621155500411987e-01
-2.661854326725006104e-01
-5.731639266014099121e-01
-2.087203413248062134e-01
-1.880400329828262329e-01
-6.133874654769897461e-01
-1.344911754131317139e-01
-3.003101646900177002e-01
1.422177255153656006e-01
-5.539731383323669434e-01
-3.103408813476562500e-01
-5.833020210266113281e-01
-2.279706150293350220e-01
-3.785049915313720703e-01
-5.662369728088378906e-01
1.549735385924577713e-02
-2.868004739284515381e-01
-7.343966960906982422e-01
-4.540750086307525635e-01
-3.206383883953094482e-01
-1.659722179174423218e-01
-2.356561422348022461e-01
6.568640470504760742e-02
-4.160965085029602051e-01
-2.579447627067565918e-01
-6.704127788543701172e-01
-1.425115168094635010e-01
1.530118435621261597e-01
1.315283626317977905e-01
-3.771058320999145508e-01
-2.101325094699859619e-01
-4.237873479723930359e-02
-1.702198982238769531e-01
-2.542042732238769531e-02
-5.183602571487426758e-01
-5.381385087966918945e-01
-2.202475816011428833e-01
-5.520780682563781738e-01
-1.625508069992065430e-01
-1.366260051727294922e-01
-1.568151861429214478e-01
-6.296496391296386719e-01
-2.779284492135047913e-02
-2.781185507774353027e-01
-7.076983451843261719e-01
-5.237377285957336426e-01
-3.281604647636413574e-01
-8.941678702831268311e-02
-2.376080006361007690e-01
-7.949333637952804565e-02
-4.975441694259643555e-01
-1.399964988231658936e-01
-5.620030164718627930e-01
-2.462835013866424561e-01
-4.855032265186309814e-01
-6.217516586184501648e-02
-3.762027621269226074e-01
-2.146049588918685913e-01
-2.121615558862686157e-01
-3.625968396663665771e-01
-4.288560152053833008e-01
-3.711304962635040283e-01
-1.761581152677536011e-01
-6.393077224493026733e-02
1.123627126216888428e-01
-5.789576768875122070e-01
2.192102223634719849e-01
-2.508135735988616943e-01
4.368430078029632568e-01
-2.044954150915145874e-01
-1.986026465892791748e-01
1.815218329429626465e-01
-5.399696826934814453e-01
-2.130159735679626465e-01
-5.105686783790588379e-01
-6.598586440086364746e-01
-6.306462883949279785e-01
-2.481418550014495850e-01
-6.219256520271301270e-01
-3.890431523323059082e-01
-3.185855224728584290e-02
-7.330711483955383301e-01
-4.156247377395629883e-01
-5.992770791053771973e-01
-4.596594572067260742e-01
3.954689204692840576e-01
-4.697962105274200439e-01
-5.093799829483032227e-01
-9.433998167514801025e-02
-2.555931508541107178e-01
-2.788190543651580811e-01
-8.672667294740676880e-02
-3.987182080745697021e-01
-2.684494853019714355e-01
-2.447429746389389038e-01
-6.104162931442260742e-01
-4.486115574836730957e-01
-1.354758888483047485e-01
-4.605771005153656006e-01
-3.255234658718109131e-01
-5.741314291954040527e-01
-1.205306872725486755e-01
-4.473608359694480896e-02
3.474808484315872192e-02
-4.125499129295349121e-01
-6.083049774169921875e-01
-1.370252221822738647e-01
-3.623318970203399658e-01
-1.853206455707550049e-01
-8.127229660749435425e-02
-4.041532278060913086e-01
-6.467412710189819336e-01
-4.740483760833740234e-01
-4.608997106552124023e-01
-4.591057368088513613e-04
-1.999811679124832153e-01
3.162257373332977295e-01
-7.215087413787841797e-01
-8.234594762325286865e-02
-1.060557290911674500e-01
-2.123046517372131348e-01
-4.514666795730590820e-01
-1.253000795841217041e-01
-5.513983368873596191e-01
4.509838297963142395e-02
-5.903100222349166870e-02
-2.284218966960906982e-01
-4.136718511581420898e-01
-3.302688300609588623e-01
-3.711568415164947510e-01
-5.936586856842041016e-01
-1.600014120340347290e-01
-4.509822428226470947e-01
-3.261422514915466309e-01
-4.881824851036071777e-01
-8.502606302499771118e-02
1.876757293939590454e-01
-5.690919756889343262e-01
-6.180621385574340820e-01
-4.944130480289459229e-01
-1.420041620731353760e-01
-3.690859377384185791e-01
-6.300820708274841309e-01
-2.518078386783599854e-01
-5.927873849868774414e-01
-2.964262962341308594e-01
3.927379846572875977e-02
-1.900116801261901855e-01
-4.814126193523406982e-01
6.897129416465759277e-01
-4.058343768119812012e-01
-1.247347295284271240e-01
-2.290762364864349365e-01
-4.831907525658607483e-02
-5.837503075599670410e-01
-2.164591550827026367e-01
-1.675364971160888672e-01
-6.620676517486572266e-01
-1.715821772813796997e-01
9.387650340795516968e-02
-5.452023744583129883e-01
-1.152500063180923462e-01
-2.158537954092025757e-01
-3.946367502212524414e-01
-6.660733222961425781e-01
-4.110469520092010498e-01
-4.756766259670257568e-01
-3.279911279678344727e-01
-2.731956839561462402e-01
-1.683111935853958130e-01
-3.506960347294807434e-03
-3.526606783270835876e-02
-4.034134447574615479e-01
-2.147204875946044922e-01
-4.463793337345123291e-01
-3.082935512065887451e-01
1.468989253044128418e-01
-3.040787279605865479e-01
-2.602501213550567627e-01
-2.156390696763992310e-01
-1.735614240169525146e-01
-4.955442249774932861e-01
-9.069640189409255981e-03
-5.629952549934387207e-01
4.532333016395568848e-01
-4.482681155204772949e-01
1.301202829927206039e-02
-4.695467054843902588e-01
5.311883613467216492e-02
-1.721509099006652832e-01
-2.119545787572860718e-01
-1.613555848598480225e-01
4.435607988853007555e-04
5.746812000870704651e-02
-3.748823404312133789e-01
-1.975967139005661011e-01
-8.315733075141906738e-02
-4.116226136684417725e-01
-3.220047354698181152e-01
-1.665332019329071045e-01
-3.138209283351898193e-01
-2.498341947793960571e-01
-3.167212009429931641e-01
3.238493502140045166e-01
-4.293856918811798096e-01
-2.090193703770637512e-02
-4.147527515888214111e-01
-3.750721365213394165e-02
-5.676676705479621887e-02
-6.635233014822006226e-02
7.761762291193008423e-02
-5.192765593528747559e-01
-6.525547504425048828e-01
1.138103101402521133e-02
-8.458001613616943359e-01
2.838894426822662354e-01
-5.510486960411071777e-01
1.134745329618453979e-01
8.814761042594909668e-02
-4.467377662658691406e-01
-1.023141518235206604e-01
-6.154627203941345215e-01
-6.455873847007751465e-01
-6.123606562614440918e-01
-2.760245800018310547e-01
-5.117929577827453613e-01
-2.102489769458770752e-01
-4.994235932826995850e-01
-1.781352758407592773e-01
-5.456805229187011719e-01
-4.101344645023345947e-01
-2.790391072630882263e-02
-6.751517653465270996e-01
