3.327466547489166260e-01 -2.665588557720184326e-01 -3.192995488643646240e-01 -1.118661016225814819e-01 1.025227531790733337e-01 -2.357476018369197845e-02 8.210905790328979492e-01 2.525201125536113977e-04 8.152591995894908905e-03 1.566442251205444336e-01 3.404507413506507874e-03 4.741731099784374237e-04 -8.323291689157485962e-02 9.664354324340820312e-01 1.907980442047119141e-01 -5.979095585644245148e-04 -2.864473965018987656e-03 -2.061093226075172424e-03 5.353429820388555527e-03 -7.129611968994140625e-01 -1.566760940477252007e-03 8.825024706311523914e-04 3.242483437061309814e-01 1.152824610471725464e-01 -4.845754206180572510e-01 -3.303647637367248535e-01 3.540865704417228699e-02 -1.116543292999267578e+00 -1.357562025077641010e-03 6.141721010208129883e-01 -2.140056109055876732e-03 1.605487614870071411e-02 2.950166463851928711e-01 1.858553150668740273e-03 -6.939776358194649220e-04 -1.796357450075447559e-03 -6.109676905907690525e-04 -2.114593684673309326e-01 -2.647763118147850037e-02 -3.542206585407257080e-01 -2.133807633072137833e-03 -7.329498766921460629e-04 -3.537395386956632137e-04 -8.244370110332965851e-04 -2.758605219423770905e-02 1.858960390090942383e-01 -8.511760272085666656e-03 2.665918469429016113e-01 1.528013795614242554e-01 2.165335416793823242e-01 5.000044703483581543e-01 -2.827083170413970947e-01 -1.266745179891586304e-01 -5.403301119804382324e-01 3.288051486015319824e-01 3.272019792348146439e-03 3.971484005451202393e-01 -1.548063941299915314e-03 -3.779208986088633537e-03 -1.274435043334960938e+00 6.069718860089778900e-03 -2.919675898738205433e-04 3.092032074928283691e-01 4.896535724401473999e-02 -3.576009185053408146e-04 5.459769815206527710e-02 3.866073489189147949e-02 -1.120071858167648315e-02 -1.240338206291198730e+00 4.900707602500915527e-01 4.025761187076568604e-01 4.094261825084686279e-01 -1.735588884912431240e-03 3.184790909290313721e-02 3.212682306766510010e-01 -2.999594807624816895e-01 7.529507577419281006e-02 -9.405232965946197510e-03 -1.099635958671569824e+00 1.196200493723154068e-03 1.370942443609237671e-01 -1.089682802557945251e-01 -3.371112979948520660e-03 -1.315899426117539406e-03 -1.054671779274940491e-02 -6.040056422352790833e-02 2.657839059829711914e-01 -7.328713312745094299e-03 1.695376588031649590e-03 -6.207845639437437057e-03 -2.630287706851959229e-01 3.920446150004863739e-03 8.109063655138015747e-02 6.358100473880767822e-02 -1.650196462869644165e-01 -3.919249773025512695e-02 -3.574526635929942131e-03 8.733277209103107452e-03 -1.292711310088634491e-02 2.487997263669967651e-01 1.534492592327296734e-03 4.993051886558532715e-01 2.803377283271402121e-04 -2.193990163505077362e-03 -2.124016406014561653e-03 -1.216065168380737305e+00 1.358137130737304688e+00 3.187599182128906250e-01 3.205544948577880859e-01 -2.585431793704628944e-03 -1.715934462845325470e-02 -5.813490133732557297e-03 -2.217148691415786743e-01 1.485962033271789551e+00 8.343229293823242188e-01 2.176338057324755937e-05 4.635766148567199707e-02 6.111740693449974060e-02 -5.231049060821533203e-01 -2.409575739875435829e-03 -7.602757960557937622e-02 -1.130912569351494312e-03 1.151656582951545715e-01 5.800478975288569927e-04 8.251568302512168884e-03 1.234871451742947102e-04 8.138479897752404213e-04 1.566932499408721924e-01 -1.393250096589326859e-02 2.420817967504262924e-03 7.941113710403442383e-01 -1.106130957603454590e+00 4.587452113628387451e-02 -1.344511061906814575e-01 -1.122309342026710510e-01 3.092931350693106651e-03 5.061080455780029297e-01 2.941110287792980671e-04 -4.996652305126190186e-01 6.483038421720266342e-03 -1.473054289817810059e-01 4.159644991159439087e-02 -4.173227846622467041e-01 5.909637808799743652e-01 1.900995671749114990e-01 -4.874416291713714600e-01 1.778278797864913940e-01 6.501048207283020020e-01 3.594035208225250244e-01 -8.028117418289184570e-01 -2.553050816059112549e-01 9.777787141501903534e-03 -4.557709675282239914e-03 1.408780738711357117e-02 5.821145176887512207e-01 -4.910138845443725586e-01 -3.546010702848434448e-03 -4.692151248455047607e-01 3.239815309643745422e-02 1.652444154024124146e-01 -1.036880612373352051e+00 6.564446091651916504e-01 -7.766265189275145531e-04 5.963131785392761230e-03 -3.965878277085721493e-04 3.356710309162735939e-03 -8.134118979796767235e-05 -2.410442568361759186e-03 -1.416440010070800781e-01 5.663068499416112900e-03 8.512293696403503418e-01 -2.333663962781429291e-02 7.157803047448396683e-03 -5.555132031440734863e-01 -6.277064085006713867e-01 4.084339141845703125e-01 4.377053081989288330e-01 9.130325913429260254e-02 1.096972450613975525e-01 -7.272118236869573593e-03 1.599650681018829346e-01 -7.362860441207885742e-02 3.087720542680472136e-04 -5.565894767642021179e-03 -5.453346967697143555e-01 7.457116153091192245e-03 -7.093170285224914551e-01 1.425136774778366089e-01 1.111609674990177155e-02 -4.816860891878604889e-03 -1.350544771412387490e-04 1.552167814224958420e-03 -4.242740273475646973e-01 2.031514653936028481e-03 -6.604284793138504028e-02 -6.533588282763957977e-03 1.450622081756591797e-01 1.697479784488677979e-01 -5.481786560267210007e-03 -3.716319054365158081e-02 -6.298738718032836914e-01 -3.703872561454772949e-01 -1.356744091026484966e-03 3.297824412584304810e-03 5.880562588572502136e-03 -7.987067103385925293e-01 7.059869170188903809e-02 -6.667446810752153397e-03 5.770080257207155228e-03 4.480329155921936035e-01 5.762175917625427246e-01 -5.021381005644798279e-02 6.600290071219205856e-03 -5.374636650085449219e-01 -6.389603018760681152e-01 -5.745589733123779297e-04 -3.983438480645418167e-03 7.563355844467878342e-03 -3.180884420871734619e-01 3.540208637714385986e-01 -1.545340928714722395e-04 6.628461927175521851e-02 7.298499811440706253e-03 8.360738866031169891e-03 -1.368982195854187012e+00 4.645473062992095947e-01 -2.176864743232727051e-01 5.199348926544189453e-01 8.088472485542297363e-01 5.320035293698310852e-02 -3.730293828994035721e-04 -1.727364957332611084e-02 -4.794001113623380661e-03 -2.430692166090011597e-01 1.080354675650596619e-01 -3.021205309778451920e-03 2.108565531671047211e-02 8.616193532943725586e-01 -3.284324426203966141e-03 4.864034056663513184e-01 -8.912628889083862305e-01 -6.600934267044067383e-01 1.755287987180054188e-03 1.036798730492591858e-01 -9.244098067283630371e-01 -7.259160280227661133e-02 5.030272603034973145e-01 3.541365498676896095e-03 1.848794668912887573e-01 -7.592356950044631958e-02 -3.765508830547332764e-01 4.089192021638154984e-03 1.474954769946634769e-03 -1.683907657861709595e-01 -5.319414138793945312e-01 2.316403985023498535e-01
