-4.003424942493438721e-01
-4.712572693824768066e-01
5.116034150123596191e-01
-2.584494650363922119e-01
-2.275132834911346436e-01
-1.812019795179367065e-01
1.345939636230468750e-01
-3.834252953529357910e-01
3.570867180824279785e-01
-1.591238975524902344e-01
-1.611265689134597778e-01
-9.470002353191375732e-02
-3.094412684440612793e-01
-3.697314262390136719e-01
-1.781992018222808838e-01
-2.748170793056488037e-01
-2.202098965644836426e-01
-2.663784325122833252e-01
-3.844436630606651306e-02
6.420392543077468872e-02
1.094976812601089478e-01
7.081889361143112183e-02
1.202892065048217773e-01
-1.157577037811279297e-01
-2.846796512603759766e-01
-2.035029530525207520e-01
-4.783048927783966064e-01
6.064806133508682251e-02
-3.955965936183929443e-01
-2.561188936233520508e-01
-1.850205659866333008e-01
-1.514734029769897461e-01
-3.355454206466674805e-01
-7.547325640916824341e-02
4.066205322742462158e-01
-2.976277843117713928e-02
-1.903095692396163940e-01
-5.048416852951049805e-01
-2.024528235197067261e-01
-9.830034524202346802e-02
-4.910639822483062744e-01
-3.516593873500823975e-01
3.025949299335479736e-01
-3.990895152091979980e-01
-4.219492673873901367e-01
1.427073311060667038e-02
-2.998528778553009033e-01
-2.269668430089950562e-01
-3.793964684009552002e-01
-1.110324338078498840e-01
-4.422070086002349854e-01
-3.920816481113433838e-01
-2.419992089271545410e-01
-3.976549804210662842e-01
4.238735884428024292e-02
-1.417565532028675079e-02
-8.778024464845657349e-02
-3.415336608886718750e-01
-3.178876638412475586e-01
2.561970986425876617e-02
5.516637116670608521e-02
-1.919325739145278931e-01
-3.222461342811584473e-01
-2.774021029472351074e-01
-1.411557313986122608e-03
-3.264444768428802490e-01
-1.615719944238662720e-01
-2.942392528057098389e-01
-3.058625757694244385e-01
-3.135593831539154053e-01
-2.923782467842102051e-01
-4.004374146461486816e-01
-2.797223627567291260e-01
-4.403044879436492920e-01
-4.101198911666870117e-01
-4.092220664024353027e-01
-4.794439673423767090e-01
-3.268632888793945312e-01
-7.984535396099090576e-02
-3.204117715358734131e-01
-8.704442530870437622e-02
9.362368844449520111e-03
4.873350262641906738e-02
-3.160896897315979004e-01
-3.753099143505096436e-01
-3.054103553295135498e-01
-8.555448800325393677e-02
-4.286339282989501953e-01
-9.695062786340713501e-02
-2.736172080039978027e-01
-7.455217838287353516e-02
-1.940290033817291260e-01
-3.213403224945068359e-01
5.046304464340209961e-01
-3.975622951984405518e-01
-2.694307863712310791e-01
-1.227428391575813293e-01
-3.565403521060943604e-01
-1.977946013212203979e-01
-3.673148453235626221e-01
-1.889384835958480835e-01
3.003972470760345459e-01
-1.863077282905578613e-01
-2.729883790016174316e-01
1.025788951665163040e-02
-1.238748431205749512e-01
-3.568012118339538574e-01
-3.225632309913635254e-01
-2.770121991634368896e-01
-3.299081921577453613e-01
9.435410797595977783e-02
3.300524055957794189e-01
-1.317632794380187988e-01
-6.324791908264160156e-02
-1.828633099794387817e-01
-1.770056933164596558e-01
-1.863980442285537720e-01
-1.443746387958526611e-01
-1.291963607072830200e-01
2.996482849121093750e-01
-6.074133515357971191e-01
-3.858880326151847839e-02
-1.211803704500198364e-01
7.500833272933959961e-02
-3.458874523639678955e-01
1.272277683019638062e-01
-3.242733776569366455e-01
-9.146995842456817627e-02
-3.292844891548156738e-01
2.898547798395156860e-02
-5.208666324615478516e-01
9.755606949329376221e-02
-3.868264332413673401e-02
1.553985178470611572e-01
-3.399527668952941895e-01
-4.796446263790130615e-01
-3.281716704368591309e-01
2.652511000633239746e-01
-6.427104026079177856e-02
3.480290621519088745e-02
-3.277464807033538818e-01
-3.808819055557250977e-01
-4.552999138832092285e-01
-1.695756167173385620e-01
1.540665328502655029e-02
-4.830202460289001465e-01
-3.108181953430175781e-01
-8.179555833339691162e-02
-3.204416334629058838e-01
-1.191668286919593811e-01
-3.843370079994201660e-02
-4.253249466419219971e-01
-5.490186810493469238e-01
-8.747613430023193359e-02
-3.362300992012023926e-01
-2.156551629304885864e-01
6.861602663993835449e-01
-1.758850663900375366e-01
-1.894950568675994873e-01
-2.424538284540176392e-01
-2.805359661579132080e-01
-8.479285240173339844e-02
-3.359582722187042236e-01
-3.330631554126739502e-01
-5.051687955856323242e-01
-1.700915098190307617e-01
6.420040130615234375e-02
-4.483838379383087158e-01
-3.400009572505950928e-01
-1.675709784030914307e-01
-2.428586333990097046e-01
-1.765196025371551514e-01
-2.681086063385009766e-01
-3.252153098583221436e-01
-1.837880909442901611e-01
-2.290678471326828003e-01
-2.225857675075531006e-01
-2.269213348627090454e-01
-4.542986154556274414e-01
-5.152405500411987305e-01
-3.399921059608459473e-01
-4.006909132003784180e-01
-2.268188893795013428e-01
-4.404633045196533203e-01
-2.144707739353179932e-01
-4.312997311353683472e-02
-5.142070055007934570e-01
-4.385739862918853760e-01
-2.767366468906402588e-01
8.285508304834365845e-02
-5.975822806358337402e-01
-5.637833476066589355e-02
-4.146327972412109375e-01
-5.393714085221290588e-02
-1.648902595043182373e-01
-2.971061170101165771e-01
-7.576681673526763916e-02
-2.073426730930805206e-02
-2.255884110927581787e-01
-1.806102097034454346e-01
-3.393828868865966797e-01
3.997675701975822449e-02
-1.627145707607269287e-02
-2.297614961862564087e-01
3.662548959255218506e-02
-5.304704308509826660e-01
-3.002414405345916748e-01
-4.890064895153045654e-01
-1.631736308336257935e-01
-1.185758486390113831e-01
-2.859047353267669678e-01
-2.953242324292659760e-02
-2.835200130939483643e-01
-2.396488487720489502e-01
3.571995496749877930e-01
-4.715107008814811707e-02
-3.999403119087219238e-01
2.897363342344760895e-02
-5.006739497184753418e-01
-3.626497685909271240e-01
-3.364433646202087402e-01
-2.496295273303985596e-01
-2.005712687969207764e-02
-4.745419919490814209e-01
-1.644421666860580444e-01
7.425770908594131470e-02
-3.458191752433776855e-01
-2.788436114788055420e-01
-3.660861253738403320e-01
-1.188829690217971802e-01
-2.015897631645202637e-02
-3.762585297226905823e-02
-7.698833197355270386e-02
-3.446734547615051270e-01
-1.878439188003540039e-01
2.256378382444381714e-01
-1.350523233413696289e-01
-1.521367877721786499e-01
-3.619786500930786133e-01
-5.453277826309204102e-01
-2.033319473266601562e-01
-2.273210883140563965e-01
-4.601202011108398438e-01
-1.269643008708953857e-01
-2.272260040044784546e-01
-4.048765897750854492e-01
9.142240881919860840e-02
-1.870362013578414917e-01
-6.497339904308319092e-02
-1.254526823759078979e-01
-5.793176889419555664e-01
-3.196081519126892090e-01
-9.578180313110351562e-02
5.752475000917911530e-03
-6.498447805643081665e-02
3.378889858722686768e-01
2.988355398178100586e+00
2.678529739379882812e+00
3.447674512863159180e+00
2.870402812957763672e+00
2.779742717742919922e+00
3.096552848815917969e+00
2.959685087203979492e+00
3.157078504562377930e+00
3.082271575927734375e+00
2.827625274658203125e+00
3.034364461898803711e+00
3.042720556259155273e+00
2.545748710632324219e+00
2.863712072372436523e+00
3.144286632537841797e+00
3.033839702606201172e+00
3.011307239532470703e+00
2.538539171218872070e+00
3.024652957916259766e+00
2.846689224243164062e+00
3.156023502349853516e+00
2.956101417541503906e+00
2.825457811355590820e+00
3.001399040222167969e+00
3.120387077331542969e+00
2.849796056747436523e+00
2.699165821075439453e+00
3.018663644790649414e+00
2.280308723449707031e+00
3.086972236633300781e+00
2.762736797332763672e+00
2.572778463363647461e+00
2.791246652603149414e+00
2.875575065612792969e+00
3.191208839416503906e+00
2.987387180328369141e+00
2.839803218841552734e+00
2.709178209304809570e+00
2.762310981750488281e+00
2.968720436096191406e+00
2.702154636383056641e+00
3.124078750610351562e+00
3.261242628097534180e+00
2.879258394241333008e+00
2.793390750885009766e+00
3.053128004074096680e+00
2.701844453811645508e+00
3.053825378417968750e+00
2.506242036819458008e+00
3.187812328338623047e+00
2.867425203323364258e+00
2.678546667098999023e+00
2.877557992935180664e+00
2.908744573593139648e+00
2.980773687362670898e+00
2.999902486801147461e+00
2.993585348129272461e+00
2.974418640136718750e+00
2.703840494155883789e+00
2.993102312088012695e+00
3.137577056884765625e+00
3.105047702789306641e+00
2.451149463653564453e+00
2.284936428070068359e+00
2.889412641525268555e+00
2.989561796188354492e+00
2.892683982849121094e+00
2.692220211029052734e+00
2.594836235046386719e+00
2.951604127883911133e+00
2.597949981689453125e+00
2.746856212615966797e+00
2.617582798004150391e+00
2.904465675354003906e+00
2.810737609863281250e+00
2.887305259704589844e+00
2.449126243591308594e+00
2.351309299468994141e+00
2.965475797653198242e+00
2.535483121871948242e+00
3.062721490859985352e+00
3.066521167755126953e+00
3.322943687438964844e+00
3.126960039138793945e+00
2.890222549438476562e+00
2.866615295410156250e+00
2.772793054580688477e+00
2.563025474548339844e+00
2.822966098785400391e+00
2.841381072998046875e+00
2.803497552871704102e+00
2.958206176757812500e+00
2.951032638549804688e+00
3.197952270507812500e+00
2.576067686080932617e+00
2.654804706573486328e+00
2.906140804290771484e+00
3.237305641174316406e+00
2.682548999786376953e+00
2.675966501235961914e+00
2.988807916641235352e+00
2.929022312164306641e+00
3.081342458724975586e+00
2.802580595016479492e+00
2.992131471633911133e+00
2.950242042541503906e+00
3.117496252059936523e+00
2.767751932144165039e+00
3.024121522903442383e+00
2.610877037048339844e+00
3.007761716842651367e+00
3.111304283142089844e+00
3.110995531082153320e+00
3.051912069320678711e+00
2.910039424896240234e+00
3.034807443618774414e+00
2.811212062835693359e+00
2.762571573257446289e+00
2.817049980163574219e+00
2.905524492263793945e+00
2.417424440383911133e+00
2.986888885498046875e+00
2.882480859756469727e+00
3.146406412124633789e+00
2.808181047439575195e+00
2.862096309661865234e+00
2.886856555938720703e+00
2.770369529724121094e+00
3.085938215255737305e+00
2.816184997558593750e+00
2.732641458511352539e+00
3.249257326126098633e+00
3.229604005813598633e+00
3.144386053085327148e+00
2.673488855361938477e+00
2.991339921951293945e+00
3.148078441619873047e+00
3.360660314559936523e+00
2.936371803283691406e+00
3.539674758911132812e+00
2.408307552337646484e+00
2.598903894424438477e+00
2.655197620391845703e+00
2.957525968551635742e+00
2.908049821853637695e+00
2.157390356063842773e+00
3.209427356719970703e+00
2.979267835617065430e+00
3.117398500442504883e+00
2.903320550918579102e+00
3.142418622970581055e+00
3.090047121047973633e+00
2.250615596771240234e+00
3.019347429275512695e+00
3.047629594802856445e+00
2.826000928878784180e+00
3.280741691589355469e+00
3.011055469512939453e+00
2.986563682556152344e+00
3.114212989807128906e+00
3.126273393630981445e+00
2.914230108261108398e+00
2.857444047927856445e+00
3.082298278808593750e+00
3.133198738098144531e+00
2.815986394882202148e+00
2.878720760345458984e+00
2.445135831832885742e+00
3.085440397262573242e+00
2.539033174514770508e+00
2.788804769515991211e+00
2.801662445068359375e+00
2.297863721847534180e+00
2.268284559249877930e+00
2.974845647811889648e+00
2.740513086318969727e+00
3.202581882476806641e+00
2.827578306198120117e+00
2.367819547653198242e+00
2.968811035156250000e+00
2.656461477279663086e+00
2.502557277679443359e+00
2.743733406066894531e+00
2.589209079742431641e+00
3.016518115997314453e+00
2.647762537002563477e+00
2.781178236007690430e+00
2.857622861862182617e+00
2.966426372528076172e+00
3.046205759048461914e+00
2.579835176467895508e+00
2.846125602722167969e+00
2.526106357574462891e+00
2.850113391876220703e+00
3.004946947097778320e+00
2.930978059768676758e+00
2.654147148132324219e+00
3.250687837600708008e+00
3.047190427780151367e+00
2.901205301284790039e+00
3.061268806457519531e+00
3.324782371520996094e+00
3.276693820953369141e+00
3.031592130661010742e+00
3.219025135040283203e+00
2.777362585067749023e+00
2.837328195571899414e+00
2.716899871826171875e+00
2.919248104095458984e+00
3.031169414520263672e+00
2.860566854476928711e+00
2.873439788818359375e+00
3.141786098480224609e+00
3.034809112548828125e+00
3.296476364135742188e+00
2.755946159362792969e+00
2.557870388031005859e+00
3.441299438476562500e+00
2.988625526428222656e+00
3.049635171890258789e+00
2.762120962142944336e+00
2.968442678451538086e+00
2.906551599502563477e+00
2.774714231491088867e+00
3.017435312271118164e+00
3.129472970962524414e+00
2.629316806793212891e+00
2.955656528472900391e+00
2.672589063644409180e+00
2.847995519638061523e+00
2.929267644882202148e+00
3.261128664016723633e+00
3.006317138671875000e+00
2.718901872634887695e+00
3.174643039703369141e+00
2.937021255493164062e+00
2.702898263931274414e+00
2.988370895385742188e+00
2.497241497039794922e+00
2.682798147201538086e+00
2.952595949172973633e+00
2.918708562850952148e+00
2.737345695495605469e+00
2.833875179290771484e+00
2.776505708694458008e+00
3.033257961273193359e+00
3.007740259170532227e+00
3.003370046615600586e+00
2.525495290756225586e+00
3.214407682418823242e+00
2.485055208206176758e+00
2.781317710876464844e+00
2.893452405929565430e+00
2.738687753677368164e+00
3.067429065704345703e+00
3.145062446594238281e+00
-1.537293791770935059e-01
-3.923233598470687866e-02
-3.432618081569671631e-01
-6.119403243064880371e-02
-2.503416314721107483e-02
-8.411153405904769897e-02
7.574272155761718750e-01
-3.199370503425598145e-01
8.315107822418212891e-01
1.829685121774673462e-01
1.357799172401428223e-01
1.440213918685913086e-01
-5.949277430772781372e-02
3.757394254207611084e-01
6.130302548408508301e-01
-9.035360813140869141e-02
-2.456719875335693359e-01
-2.036435902118682861e-02
-1.204796582460403442e-01
-2.259389758110046387e-01
3.628568947315216064e-01
-9.953281283378601074e-02
4.199901223182678223e-01
-2.524406090378761292e-02
-3.810966014862060547e-02
-2.019551116973161697e-03
-2.149135246872901917e-02
2.470571845769882202e-01
-6.546057760715484619e-03
6.338746100664138794e-02
-4.650460928678512573e-02
-6.136865019798278809e-01
-2.572695016860961914e-01
2.685349807143211365e-02
2.113694548606872559e-01
-2.204139083623886108e-01
1.639005914330482483e-02
5.170373618602752686e-02
2.662831246852874756e-01
-2.306756377220153809e-01
-2.989462316036224365e-01
2.594960927963256836e-01
-3.431995213031768799e-01
-1.341668218374252319e-01
1.654241383075714111e-01
2.312993258237838745e-01
1.312032341957092285e-01
3.662163019180297852e-02
-2.565381228923797607e-01
4.706424176692962646e-01
3.007186651229858398e-01
-4.197024181485176086e-02
-1.948741078376770020e-01
-9.914094954729080200e-02
4.486136138439178467e-01
-3.192046880722045898e-01
4.099366962909698486e-01
1.433665603399276733e-01
-2.837651371955871582e-01
5.073592662811279297e-01
4.050419628620147705e-01
2.707906961441040039e-01
3.113011457026004791e-02
4.302062690258026123e-01
5.299172401428222656e-01
-1.368206888437271118e-01
1.552575528621673584e-01
1.886224150657653809e-01
2.856300957500934601e-02
-2.910557016730308533e-02
4.923087731003761292e-02
-3.609551489353179932e-01
5.949708074331283569e-02
-2.004976868629455566e-01
8.278234302997589111e-02
5.739061534404754639e-02
4.283097013831138611e-02
-5.922204852104187012e-01
-3.256897330284118652e-01
-1.153615191578865051e-01
1.020231321454048157e-01
9.804258495569229126e-02
-3.732790946960449219e-01
1.827682740986347198e-02
-6.963068991899490356e-02
-3.944899141788482666e-01
1.299224048852920532e-01
-1.819145828485488892e-01
-1.177058741450309753e-01
1.473507285118103027e-01
4.658142924308776855e-01
3.185786008834838867e-01
-2.139330208301544189e-01
-6.182141304016113281e-01
1.516706645488739014e-01
-8.368355035781860352e-02
1.879562623798847198e-02
2.385445684194564819e-02
2.285624295473098755e-01
-2.521738782525062561e-02
1.249332260340452194e-02
2.917850613594055176e-01
2.526421248912811279e-01
3.784980773925781250e-01
2.072514146566390991e-01
-8.395128697156906128e-02
2.687178738415241241e-02
5.083809420466423035e-02
2.809238061308860779e-02
-1.611677110195159912e-01
1.284550875425338745e-01
-7.861329317092895508e-01
-3.391076922416687012e-01
-2.259422093629837036e-01
2.395621538162231445e-01
1.386463046073913574e-01
-1.934694945812225342e-01
-2.003915160894393921e-01
-5.334322899580001831e-02
-3.209392428398132324e-01
3.346979850903153419e-03
5.695356428623199463e-02
1.500396877527236938e-01
3.021907508373260498e-01
6.941816955804824829e-02
-6.600673496723175049e-02
-2.183270752429962158e-01
2.078643441200256348e-01
1.328029632568359375e-01
-2.616814672946929932e-01
-2.692816220223903656e-02
3.656597137451171875e-01
2.829911708831787109e-01
-1.108927577733993530e-01
-2.243108600378036499e-01
1.156216710805892944e-01
2.318099886178970337e-02
-4.684294760227203369e-01
-1.591900885105133057e-01
-1.529724597930908203e-01
-1.391097754240036011e-01
1.335532665252685547e-01
-1.036635860800743103e-01
-6.122754514217376709e-02
1.201796457171440125e-01
4.528842568397521973e-01
1.004546359181404114e-01
-3.017826378345489502e-01
2.517812885344028473e-02
3.696364462375640869e-01
-3.970360755920410156e-01
9.497091174125671387e-02
1.308726668357849121e-01
-1.254942715167999268e-01
-2.497459948062896729e-01
-7.047370076179504395e-02
-1.753303110599517822e-01
2.053116261959075928e-01
3.323252797126770020e-01
-3.425672352313995361e-01
1.852935254573822021e-01
2.085452526807785034e-01
-1.193353533744812012e-01
-1.318551450967788696e-01
-1.117969378829002380e-01
-2.362885512411594391e-02
-5.026132613420486450e-02
-2.734515964984893799e-01
-1.082036718726158142e-01
-2.761898562312126160e-02
4.428711161017417908e-02
1.954083740711212158e-01
-3.763074278831481934e-01
5.278251767158508301e-01
2.625439167022705078e-01
-2.239204794168472290e-01
2.859182059764862061e-01
2.916583418846130371e-01
-1.838296651840209961e-01
2.442590594291687012e-01
-2.270422279834747314e-01
5.324996542185544968e-03
2.850256301462650299e-02
4.261052235960960388e-02
2.884547412395477295e-01
-3.041334748268127441e-01
2.508239746093750000e-01
-3.230643570423126221e-01
-3.921968042850494385e-01
-2.173427790403366089e-01
4.782872647047042847e-02
2.748605608940124512e-01
-2.103231102228164673e-01
-3.812432587146759033e-01
1.852445155382156372e-01
2.849469892680644989e-02
-6.026830896735191345e-02
-4.190541505813598633e-01
-1.674851626157760620e-01
2.365708053112030029e-01
3.122642869129776955e-03
5.212577581405639648e-01
-2.344532012939453125e-01
-2.546284198760986328e-01
9.942802041769027710e-02
2.721678279340267181e-02
-9.280544472858309746e-04
-5.458581820130348206e-02
2.199850976467132568e-01
1.213200390338897705e-01
1.971347630023956299e-02
2.854443788528442383e-01
-2.771855294704437256e-01
-2.710880041122436523e-01
4.841068089008331299e-01
-2.013293653726577759e-01
-1.942393034696578979e-01
-2.596514225006103516e-01
5.063359439373016357e-02
-7.854931056499481201e-02
-1.417648941278457642e-01
7.765443623065948486e-02
-2.558958530426025391e-01
1.669414937496185303e-01
2.341845333576202393e-01
-3.120997548103332520e-01
4.341688007116317749e-02
-2.894485592842102051e-01
2.173869758844375610e-01
8.643676340579986572e-02
-1.817207485437393188e-01
1.251302063465118408e-01
2.413485348224639893e-01
-2.608939819037914276e-02
3.498173952102661133e-01
9.634646773338317871e-02
-4.958500340580940247e-02
-2.214451730251312256e-01
-3.322369977831840515e-02
6.340840365737676620e-03
2.487742751836776733e-01
1.186543703079223633e-01
1.543504297733306885e-01
-1.814318299293518066e-01
-3.420208767056465149e-02
1.810074895620346069e-01
1.521218121051788330e-01
-1.122838929295539856e-01
1.303872466087341309e-01
2.377349697053432465e-02
9.629517048597335815e-02
3.900208473205566406e-01
3.867677748203277588e-01
-3.122669160366058350e-01
-6.475418061017990112e-02
-2.717531025409698486e-01
-3.678874075412750244e-01
-3.189751803874969482e-01
-6.745456457138061523e-01
-7.319633662700653076e-02
-1.164591386914253235e-01
-7.452121973037719727e-01
-4.287159144878387451e-01
6.334308534860610962e-02
6.536446213722229004e-01
-1.972071826457977295e-01
-5.178416892886161804e-02
-4.899315536022186279e-01
-4.281745254993438721e-01
-3.592010140419006348e-01
2.482514232397079468e-01
-8.557030558586120605e-02
3.328264877200126648e-02
-6.256906688213348389e-02
-1.373185515403747559e-01
-8.237048387527465820e-01
2.856579422950744629e-01
-3.613637089729309082e-01
-6.472594738006591797e-01
-1.374134123325347900e-01
-7.216924428939819336e-01
-3.434404730796813965e-01
-6.256655454635620117e-01
-2.138372659683227539e-01
-1.952961385250091553e-01
-1.301300525665283203e-01
-2.754961550235748291e-01
1.829141080379486084e-01
6.289229542016983032e-02
-4.009853601455688477e-01
-5.116297006607055664e-01
1.153421774506568909e-01
-2.490729689598083496e-01
-4.954660832881927490e-01
-4.244654774665832520e-01
-5.684781074523925781e-01
-2.304814457893371582e-01
-1.652696132659912109e-01
-3.196186572313308716e-02
-3.867289125919342041e-01
-1.844175755977630615e-01
-4.030592143535614014e-01
-4.853977859020233154e-01
-1.448176354169845581e-01
-5.198658704757690430e-01
-2.934103906154632568e-01
-2.552688717842102051e-01
-1.566268801689147949e-01
-1.716383099555969238e-01
-4.784973263740539551e-01
2.262684702873229980e-02
-3.513756394386291504e-02
-1.358781903982162476e-01
-1.778018474578857422e-01
-5.094199180603027344e-01
-3.033019006252288818e-01
-2.774399220943450928e-01
-6.425851583480834961e-01
-6.326729804277420044e-02
-2.762460410594940186e-01
-1.509329527616500854e-01
-2.375070005655288696e-01
-6.648412346839904785e-01
-4.061800837516784668e-01
-5.652580857276916504e-01
-4.379650056362152100e-01
-2.746378183364868164e-01
-5.390009284019470215e-01
-3.308238387107849121e-01
-1.804507523775100708e-01
-5.163790583610534668e-01
-4.032265543937683105e-01
7.078828662633895874e-02
-1.037062406539916992e-01
-2.621963918209075928e-01
-2.871577143669128418e-01
-4.307683408260345459e-01
-4.282967746257781982e-01
-5.923414826393127441e-01
-5.667656064033508301e-01
-3.346519768238067627e-01
-7.531964182853698730e-01
-4.977100491523742676e-01
-2.426526546478271484e-01
-5.489047765731811523e-01
3.408620059490203857e-01
-5.938194990158081055e-01
-4.448493421077728271e-01
-2.003469914197921753e-01
6.625210642814636230e-01
-7.113444805145263672e-02
-5.508987903594970703e-01
-2.258696705102920532e-01
-2.536535263061523438e-01
2.576449327170848846e-02
-3.612691760063171387e-01
2.167652398347854614e-01
-4.733891487121582031e-01
5.838079005479812622e-02
-1.040403693914413452e-01
-5.810711979866027832e-01
-6.691588759422302246e-01
-1.549035459756851196e-01
-9.938718378543853760e-02
-1.103602200746536255e-01
-2.354105859994888306e-01
-1.902606934309005737e-01
1.176760271191596985e-01
-1.774165779352188110e-01
-2.176677137613296509e-01
-3.796254098415374756e-01
-2.053614556789398193e-01
-4.047799408435821533e-01
-2.927117049694061279e-01
-5.599878355860710144e-02
-4.808757007122039795e-01
-4.298319220542907715e-01
-3.015917837619781494e-01
-5.203936696052551270e-01
-1.691360771656036377e-02
-5.285657048225402832e-01
2.509128451347351074e-01
-3.121166825294494629e-01
-8.243088424205780029e-02
-3.167709708213806152e-01
-4.160739183425903320e-01
-2.510215044021606445e-01
1.431421190500259399e-01
-3.125112652778625488e-01
-5.773175954818725586e-01
-6.352865695953369141e-01
-2.363419830799102783e-01
-4.608958661556243896e-01
-5.779135227203369141e-01
-4.119428992271423340e-01
-5.956932902336120605e-01
-2.875535190105438232e-01
-2.309883013367652893e-02
-4.528527855873107910e-01
-5.740288496017456055e-01
-7.731483131647109985e-02
-1.343034207820892334e-01
6.389768328517675400e-03
1.523509919643402100e-01
-7.869870662689208984e-01
-2.186195105314254761e-01
-4.009512960910797119e-01
-1.850334554910659790e-01
-2.676540911197662354e-01
-4.930703639984130859e-01
-5.109615325927734375e-01
-4.395418763160705566e-01
-4.458145797252655029e-01
-1.715423464775085449e-01
2.291367202997207642e-01
-7.015565633773803711e-01
-3.663890063762664795e-01
-1.976134479045867920e-01
-6.475464701652526855e-01
-1.785940676927566528e-01
-2.520777285099029541e-01
-2.610476016998291016e-01
-1.251908689737319946e-01
-2.724380791187286377e-01
-3.339518308639526367e-01
-1.942617297172546387e-01
-4.020040929317474365e-01
-8.984182775020599365e-02
-8.789334446191787720e-02
-2.205464690923690796e-01
-2.516874074935913086e-01
-5.724738836288452148e-01
-3.844046890735626221e-01
-5.851008892059326172e-01
-3.565984368324279785e-01
-5.394161939620971680e-01
-2.483204752206802368e-01
-1.535825580358505249e-01
-1.925070732831954956e-01
-2.193738147616386414e-02
-2.158882170915603638e-01
-7.422281801700592041e-02
-3.261401057243347168e-01
-8.265248537063598633e-01
-3.979082107543945312e-01
-4.398076236248016357e-01
-6.355490684509277344e-01
-4.087826311588287354e-01
-6.934455037117004395e-02
-6.934762001037597656e-01
-1.928683370351791382e-02
1.768096117302775383e-03
-1.887045800685882568e-02
-3.395502567291259766e-01
-3.940255641937255859e-01
1.890159249305725098e-01
7.915722206234931946e-03
-3.706468045711517334e-01
-7.917985320091247559e-01
-2.771552503108978271e-01
-7.563697695732116699e-01
-5.592434406280517578e-01
-4.094606041908264160e-01
-1.974559575319290161e-01
1.924811005592346191e-01
8.705320209264755249e-02
-4.344795048236846924e-01
-5.394575595855712891e-01
3.180560171604156494e-01
-1.147377863526344299e-02
-2.448628991842269897e-01
-5.078163743019104004e-01
-1.638285666704177856e-01
-4.873177111148834229e-01
-3.243982493877410889e-01
-1.075409203767776489e-01
-5.384606719017028809e-01
-3.881142735481262207e-01
-8.802808821201324463e-02
-2.170605212450027466e-01
5.289225652813911438e-02
-7.447411864995956421e-02
7.747060805559158325e-02
-2.544450759887695312e-01
-3.188057541847229004e-01
-1.856060922145843506e-01
-1.303414553403854370e-01
-1.339478045701980591e-01
-5.584952235221862793e-01
-3.508720993995666504e-01
-5.061283335089683533e-02
-7.280014157295227051e-01
-3.320316672325134277e-01
3.730165213346481323e-02
-2.660424076020717621e-02
-3.546328544616699219e-01
-7.301126420497894287e-02
-4.650159180164337158e-01
-1.300032287836074829e-01
1.035150513052940369e-01
-3.205620944499969482e-01
1.610557921230792999e-02
-4.746873080730438232e-01
-4.898206293582916260e-01
-9.275899082422256470e-02
-4.366789460182189941e-01
-6.621667146682739258e-01
-3.892527520656585693e-01
4.855211973190307617e-01
-4.959695339202880859e-01
-4.483197033405303955e-01
-4.339519739151000977e-01
