-3.553513288497924805e-01
-3.694052696228027344e-01
-3.132579922676086426e-01
1.284213364124298096e-01
-3.641211986541748047e-01
-3.136852383613586426e-01
-2.577524781227111816e-01
-1.143021583557128906e-01
-2.380114644765853882e-01
-2.950676083564758301e-01
-2.874720096588134766e-01
-3.025320172309875488e-01
-4.877696037292480469e-01
3.345775231719017029e-02
-4.844041764736175537e-01
1.078513711690902710e-01
1.046082600951194763e-01
-9.528549760580062866e-02
2.007425427436828613e-01
-3.392266333103179932e-01
-4.318265616893768311e-01
-3.761712312698364258e-01
-3.180529773235321045e-01
-7.193119078874588013e-02
-2.157782018184661865e-01
-9.489841014146804810e-02
-1.697401106357574463e-01
-6.092105060815811157e-02
-6.314565986394882202e-02
-1.214460209012031555e-01
-3.470391333103179932e-01
1.964514702558517456e-01
-5.013094097375869751e-02
-6.421720385551452637e-01
-2.369592636823654175e-01
-2.297287136316299438e-01
-1.961119323968887329e-01
-4.211655855178833008e-01
-2.319803833961486816e-01
-1.900381147861480713e-01
-1.448204368352890015e-01
-4.169752895832061768e-01
-1.926631033420562744e-01
-8.251712471246719360e-02
-2.177520245313644409e-01
-4.119112789630889893e-01
-8.450730144977569580e-02
-1.749947667121887207e-01
-1.103888154029846191e-01
-2.294757515192031860e-01
-1.965224593877792358e-01
-5.635115504264831543e-01
-1.122089177370071411e-01
-4.513427913188934326e-01
-1.755329370498657227e-01
5.129479989409446716e-02
-3.491258323192596436e-01
-2.514045238494873047e-01
-3.145352005958557129e-01
1.636690795421600342e-01
1.052030697464942932e-01
-1.707392185926437378e-01
-2.719213962554931641e-01
-1.415535211563110352e-01
-4.844419956207275391e-01
-1.333891451358795166e-01
-3.122850656509399414e-01
-1.441930085420608521e-01
3.634477779269218445e-02
-1.073317527770996094e-01
1.651438921689987183e-01
-1.745861619710922241e-01
-5.630858540534973145e-01
-4.533948749303817749e-02
-2.354542165994644165e-01
-3.403505682945251465e-01
-3.126424252986907959e-01
-3.277035355567932129e-01
-1.446215808391571045e-01
-2.464130967855453491e-01
-3.588036596775054932e-01
-2.443529963493347168e-01
2.104444652795791626e-01
-1.516078412532806396e-01
-4.493474960327148438e-02
-1.923886537551879883e-01
-3.643248379230499268e-01
-5.479638576507568359e-01
-2.171358615159988403e-01
5.148262530565261841e-02
-3.967202901840209961e-01
-4.116132855415344238e-01
-5.402875319123268127e-02
-5.386711657047271729e-02
-3.237071633338928223e-01
-1.149059738963842392e-02
-1.127061024308204651e-01
-5.412126183509826660e-01
-1.346003860235214233e-01
-1.676441580057144165e-01
-2.561186552047729492e-01
-3.889541923999786377e-01
-4.488328397274017334e-01
-2.554366886615753174e-01
9.156019985675811768e-02
-3.771184682846069336e-01
3.398244455456733704e-02
-1.378419995307922363e-01
-3.897213935852050781e-01
-2.797437608242034912e-01
-4.418295919895172119e-01
9.128514677286148071e-02
-3.293403983116149902e-01
-2.421808540821075439e-01
-1.319686882197856903e-02
-2.845873534679412842e-01
-5.068737268447875977e-01
-5.366331934928894043e-01
-3.921220302581787109e-01
-8.316002041101455688e-02
-2.719715833663940430e-01
-4.583982229232788086e-01
-1.478405017405748367e-02
-2.074288278818130493e-01
-3.219243288040161133e-01
1.289249658584594727e-01
-2.806661128997802734e-01
-3.116052746772766113e-01
-1.987874060869216919e-01
-3.402732014656066895e-01
-2.005397379398345947e-01
-2.163833826780319214e-01
2.399713546037673950e-01
-1.159834787249565125e-01
-2.035253867506980896e-02
-2.989539504051208496e-01
-2.021641284227371216e-01
-4.125630557537078857e-01
-2.839748263359069824e-01
1.269570738077163696e-01
-2.378115952014923096e-01
-2.831980288028717041e-01
-3.923763334751129150e-01
-1.639335304498672485e-01
-4.734231531620025635e-01
2.080038040876388550e-01
-2.559330463409423828e-01
-6.120290756225585938e-01
-5.208916664123535156e-01
-4.322415888309478760e-01
-2.671048939228057861e-01
-3.497674763202667236e-01
-5.160626173019409180e-01
-2.554072439670562744e-01
-1.348876580595970154e-02
-3.756664395332336426e-01
-2.685830891132354736e-01
7.676789164543151855e-02
-5.291827321052551270e-01
-4.030281603336334229e-01
-2.726076543331146240e-01
-4.100939631462097168e-01
-4.699336886405944824e-01
-4.485881701111793518e-02
-1.991564780473709106e-01
2.753534913063049316e-01
1.900321841239929199e-01
1.745977671816945076e-03
1.388721019029617310e-01
-2.809607088565826416e-01
-2.740613222122192383e-01
-3.128173649311065674e-01
-2.232529222965240479e-01
1.026483848690986633e-01
-2.880561947822570801e-01
-1.809310466051101685e-01
-2.684129774570465088e-01
-2.298976480960845947e-01
-5.111045837402343750e-01
-1.704275161027908325e-01
-2.021037936210632324e-01
-2.166979908943176270e-01
5.333945900201797485e-02
-3.357639908790588379e-01
-3.675801455974578857e-01
-1.535342037677764893e-01
-4.735528528690338135e-01
-2.500834763050079346e-01
-3.751780092716217041e-01
-5.100700855255126953e-01
-2.229830920696258545e-01
-4.757174551486968994e-01
-5.048342943191528320e-01
3.338375687599182129e-01
-2.145269811153411865e-01
-3.080482482910156250e-01
2.677575051784515381e-01
-3.730607926845550537e-01
4.378474503755569458e-02
-2.907715737819671631e-01
1.379873156547546387e-01
-2.452419996261596680e-01
1.234355643391609192e-01
-2.346438914537429810e-01
-4.299907982349395752e-01
2.726268395781517029e-02
-1.558025181293487549e-01
-2.555629611015319824e-01
2.914303839206695557e-01
-4.446648061275482178e-01
-5.005900859832763672e-01
-3.456024825572967529e-01
4.741613939404487610e-02
-5.917451381683349609e-01
-3.728629350662231445e-01
-3.410862386226654053e-01
1.218612492084503174e-01
4.337239265441894531e-02
3.493252443149685860e-03
-2.060004770755767822e-01
-2.929012663662433624e-02
-4.023885130882263184e-01
-1.757518649101257324e-01
-5.788584947586059570e-01
-3.929182589054107666e-01
-4.649387896060943604e-01
-1.304589658975601196e-01
-2.309310883283615112e-01
-3.631077110767364502e-01
-7.563687115907669067e-02
-8.169298619031906128e-02
-2.226064950227737427e-01
5.751569569110870361e-02
-6.659831851720809937e-02
-1.465614289045333862e-01
-1.318649351596832275e-01
-2.155716568231582642e-01
-1.841123402118682861e-01
-2.457953989505767822e-01
-3.632010817527770996e-01
1.981721967458724976e-01
-1.682778149843215942e-01
-1.737398058176040649e-01
-1.727946847677230835e-01
-4.663974642753601074e-01
-7.414543535560369492e-03
-1.984867453575134277e-01
-2.306712269783020020e-01
-3.794325515627861023e-02
6.698177754878997803e-02
2.206068485975265503e-02
-3.679482638835906982e-01
-3.531860411167144775e-01
-1.670104563236236572e-01
-1.704608201980590820e-01
-4.193563461303710938e-01
3.033907413482666016e+00
2.816555500030517578e+00
2.157622337341308594e+00
3.140862464904785156e+00
3.018833160400390625e+00
2.597237586975097656e+00
2.714680433273315430e+00
2.997032403945922852e+00
2.973922491073608398e+00
2.880971908569335938e+00
3.106307506561279297e+00
2.722929716110229492e+00
2.691533565521240234e+00
2.972591638565063477e+00
2.862105131149291992e+00
3.119906663894653320e+00
3.579037189483642578e+00
2.985033035278320312e+00
3.201475381851196289e+00
2.945231676101684570e+00
2.901997804641723633e+00
2.822928428649902344e+00
3.036906480789184570e+00
2.695029735565185547e+00
3.118401765823364258e+00
2.841242551803588867e+00
2.855042695999145508e+00
2.860477447509765625e+00
3.093397378921508789e+00
2.772774457931518555e+00
3.198590993881225586e+00
3.074047088623046875e+00
3.248005151748657227e+00
3.188958883285522461e+00
2.704488277435302734e+00
2.854104995727539062e+00
2.898406744003295898e+00
2.958563804626464844e+00
2.799940347671508789e+00
2.893502712249755859e+00
2.986848592758178711e+00
2.777642488479614258e+00
2.864713668823242188e+00
3.179657936096191406e+00
2.620318174362182617e+00
2.507881164550781250e+00
2.938157320022583008e+00
2.670497655868530273e+00
3.252521753311157227e+00
2.816517353057861328e+00
3.103976249694824219e+00
2.174684524536132812e+00
3.191080331802368164e+00
2.639729499816894531e+00
2.919262886047363281e+00
3.130187273025512695e+00
2.935399055480957031e+00
2.817357301712036133e+00
2.702823638916015625e+00
2.942669153213500977e+00
2.705041408538818359e+00
3.018222570419311523e+00
2.860003948211669922e+00
3.186958789825439453e+00
2.568774700164794922e+00
2.842198133468627930e+00
2.283477067947387695e+00
2.854400873184204102e+00
3.131038665771484375e+00
2.971059083938598633e+00
3.339850187301635742e+00
2.475907087326049805e+00
2.536582946777343750e+00
3.124303579330444336e+00
2.755025148391723633e+00
3.067033767700195312e+00
2.572115659713745117e+00
2.891359567642211914e+00
3.168309926986694336e+00
3.031381130218505859e+00
2.600384712219238281e+00
2.881011962890625000e+00
2.961422681808471680e+00
2.414708375930786133e+00
2.947933673858642578e+00
2.683619976043701172e+00
3.006442070007324219e+00
2.873370170593261719e+00
2.850490093231201172e+00
3.064475774765014648e+00
3.035921812057495117e+00
2.810392379760742188e+00
2.822348594665527344e+00
2.986059904098510742e+00
2.776075124740600586e+00
2.772494316101074219e+00
3.094808340072631836e+00
2.620878458023071289e+00
2.980603933334350586e+00
3.032555818557739258e+00
2.777209281921386719e+00
2.695217609405517578e+00
2.976790904998779297e+00
3.012432098388671875e+00
2.768990516662597656e+00
2.762104749679565430e+00
3.162523269653320312e+00
2.977039575576782227e+00
2.786489486694335938e+00
2.982303619384765625e+00
2.153578758239746094e+00
3.121949672698974609e+00
3.031943798065185547e+00
2.294732809066772461e+00
3.200400114059448242e+00
2.988228559494018555e+00
2.805004835128784180e+00
2.692108154296875000e+00
2.298167228698730469e+00
3.039669752120971680e+00
2.811892747879028320e+00
2.546673536300659180e+00
3.019265651702880859e+00
2.885030508041381836e+00
2.626731634140014648e+00
3.279072284698486328e+00
2.829473495483398438e+00
2.859408378601074219e+00
2.755943775177001953e+00
3.051192998886108398e+00
2.921093463897705078e+00
2.951048374176025391e+00
3.141208410263061523e+00
2.771857500076293945e+00
3.050845623016357422e+00
2.648101091384887695e+00
3.126875638961791992e+00
2.807490587234497070e+00
2.929810762405395508e+00
3.087934970855712891e+00
3.155197858810424805e+00
3.009709835052490234e+00
2.964731454849243164e+00
2.462415456771850586e+00
2.860146045684814453e+00
3.344296455383300781e+00
2.882531881332397461e+00
3.087169647216796875e+00
2.605834722518920898e+00
2.975303649902343750e+00
2.656967163085937500e+00
2.482549905776977539e+00
2.748289346694946289e+00
2.824702262878417969e+00
3.072671651840209961e+00
3.121863603591918945e+00
2.907212018966674805e+00
2.756102085113525391e+00
2.679064035415649414e+00
2.778911590576171875e+00
2.841741800308227539e+00
3.203520298004150391e+00
3.102944850921630859e+00
2.956043720245361328e+00
3.139440536499023438e+00
2.891427040100097656e+00
3.157016277313232422e+00
2.341857910156250000e+00
3.122514963150024414e+00
2.952685594558715820e+00
3.032963037490844727e+00
2.684939622879028320e+00
2.890607118606567383e+00
2.984940290451049805e+00
3.101925134658813477e+00
2.740249156951904297e+00
3.064862966537475586e+00
2.955987930297851562e+00
2.762450695037841797e+00
2.936733245849609375e+00
2.987567424774169922e+00
2.523566246032714844e+00
2.852794170379638672e+00
2.972029924392700195e+00
3.163589239120483398e+00
2.909206867218017578e+00
2.946969270706176758e+00
3.107562541961669922e+00
2.959279060363769531e+00
2.725761175155639648e+00
2.903582334518432617e+00
2.689044713973999023e+00
2.643644094467163086e+00
3.049053192138671875e+00
3.114819288253784180e+00
2.962262868881225586e+00
3.047460317611694336e+00
3.122992277145385742e+00
2.898957729339599609e+00
3.152863502502441406e+00
3.357171297073364258e+00
2.887772560119628906e+00
3.100236177444458008e+00
2.518943309783935547e+00
3.079232215881347656e+00
2.958979368209838867e+00
2.521378517150878906e+00
2.802260637283325195e+00
3.196794271469116211e+00
2.488653421401977539e+00
2.860319137573242188e+00
2.689101934432983398e+00
3.056125879287719727e+00
2.607568264007568359e+00
2.828868865966796875e+00
3.069747924804687500e+00
3.210562467575073242e+00
3.246203899383544922e+00
2.504419565200805664e+00
2.839770317077636719e+00
3.176397800445556641e+00
2.601826190948486328e+00
2.859858512878417969e+00
2.804609537124633789e+00
2.775275945663452148e+00
3.087108612060546875e+00
2.983504295349121094e+00
2.778259515762329102e+00
2.849642515182495117e+00
2.944925069808959961e+00
2.923301458358764648e+00
2.901729106903076172e+00
2.904127120971679688e+00
2.883399963378906250e+00
3.099324226379394531e+00
2.889326095581054688e+00
2.878334999084472656e+00
2.980573892593383789e+00
2.866011857986450195e+00
2.944920539855957031e+00
3.228446722030639648e+00
3.130204439163208008e+00
2.912523031234741211e+00
2.817819833755493164e+00
2.736469030380249023e+00
3.111246585845947266e+00
2.923773765563964844e+00
2.908931493759155273e+00
2.887441635131835938e+00
3.235224485397338867e+00
2.942636013031005859e+00
2.541081190109252930e+00
3.171423673629760742e+00
2.990468978881835938e+00
2.932347774505615234e+00
2.716499090194702148e+00
-1.979201287031173706e-01
1.066231876611709595e-01
6.562442183494567871e-01
3.943787813186645508e-01
1.956797540187835693e-01
-6.171198934316635132e-02
1.385281682014465332e-01
-2.404896318912506104e-01
2.047939151525497437e-01
4.644815251231193542e-02
3.712944388389587402e-01
3.702853247523307800e-02
-4.736739210784435272e-03
1.936086565256118774e-01
9.937316179275512695e-02
2.389391064643859863e-01
3.074434995651245117e-01
-3.168303966522216797e-01
4.327876865863800049e-01
-1.830160170793533325e-01
-1.201853230595588684e-01
3.644560873508453369e-01
-3.001576662063598633e-01
-2.602484524250030518e-01
-2.149990014731884003e-02
-6.299821138381958008e-01
1.693487912416458130e-01
-1.679713875055313110e-01
-3.160828053951263428e-01
2.624900639057159424e-01
-7.258570939302444458e-02
5.467587709426879883e-01
3.860435187816619873e-01
9.088754653930664062e-02
-1.630149222910404205e-02
-2.732856869697570801e-01
-7.713545858860015869e-02
-1.776155829429626465e-02
2.673464119434356689e-01
2.772312611341476440e-02
-2.472957074642181396e-01
-7.747936528176069260e-03
-2.112303376197814941e-01
-2.479059547185897827e-01
2.769528925418853760e-01
-2.605979144573211670e-01
-3.195602893829345703e-01
-1.791850328445434570e-01
-1.840811371803283691e-01
3.477679193019866943e-01
-1.933028362691402435e-02
6.879700720310211182e-02
-2.277020514011383057e-01
-1.673343330621719360e-01
-1.318575739860534668e-01
3.889704495668411255e-02
-4.899527505040168762e-02
-9.446398913860321045e-02
1.646169275045394897e-01
3.980021774768829346e-01
-2.812627851963043213e-01
1.954917460680007935e-01
-2.862119376659393311e-01
-2.019081562757492065e-01
4.443412274122238159e-02
-1.088509187102317810e-01
-3.322497606277465820e-01
-1.326602846384048462e-01
-4.227741956710815430e-01
-1.858861744403839111e-01
4.834679663181304932e-01
-1.788803339004516602e-01
3.570320010185241699e-01
-3.010834753513336182e-01
1.097581386566162109e-01
-1.470731757581233978e-02
1.713520884513854980e-01
-1.044713556766510010e-01
2.461260408163070679e-01
7.216986268758773804e-02
-4.382237792015075684e-03
9.074364602565765381e-02
3.191636800765991211e-01
-7.181466817855834961e-01
-2.513414025306701660e-01
-7.286850363016128540e-02
-6.987792253494262695e-02
1.942775398492813110e-01
-4.048342108726501465e-01
-5.084717273712158203e-02
2.802280187606811523e-01
7.063145935535430908e-02
-2.507887780666351318e-02
2.066368609666824341e-01
-2.385450452566146851e-01
-3.227092623710632324e-01
-3.973605632781982422e-01
-2.469831556081771851e-01
6.536843627691268921e-02
8.521053940057754517e-02
2.083463519811630249e-01
1.800760030746459961e-01
-2.080808132886886597e-01
4.841396585106849670e-02
2.357052266597747803e-01
3.752892315387725830e-01
2.102756649255752563e-01
2.186816483736038208e-01
2.739210128784179688e-01
2.467876374721527100e-01
1.381489485502243042e-01
-2.646311223506927490e-01
-9.567532688379287720e-02
-2.991920150816440582e-02
-2.070390284061431885e-01
7.221765071153640747e-02
5.811542272567749023e-03
1.387826073914766312e-02
4.191870689392089844e-01
-3.951134383678436279e-01
2.557244002819061279e-01
-9.538830816745758057e-02
-2.160884737968444824e-01
1.799741387367248535e-01
-7.605785876512527466e-02
8.184927701950073242e-02
1.365570425987243652e-01
-5.640892684459686279e-02
9.495989233255386353e-02
2.047755271196365356e-01
8.048745244741439819e-02
-1.126352921128273010e-01
-4.438809752464294434e-01
-5.916756764054298401e-02
-1.827124059200286865e-01
5.586581677198410034e-02
-2.348130196332931519e-01
-1.227510944008827209e-01
-2.003695070743560791e-01
-7.537528872489929199e-02
3.208729624748229980e-01
8.573715388774871826e-02
-2.023051381111145020e-01
2.891797013580799103e-02
9.398670494556427002e-02
-3.691112995147705078e-01
2.103475779294967651e-01
1.236308068037033081e-01
-1.364132761955261230e-01
-2.069063857197761536e-02
2.251452766358852386e-02
-4.775329828262329102e-01
2.035220414400100708e-01
-4.741999804973602295e-01
8.615202456712722778e-02
3.344023600220680237e-02
-2.637045979499816895e-01
2.094258517026901245e-01
8.225995302200317383e-02
3.670291975140571594e-02
2.848934531211853027e-01
-2.121200114488601685e-01
-2.337414026260375977e-01
3.268482089042663574e-01
-1.653868705034255981e-01
3.999873995780944824e-02
-6.122457981109619141e-01
4.841462075710296631e-01
-4.545990228652954102e-01
-1.170174106955528259e-01
-1.564318984746932983e-01
3.124972879886627197e-01
-8.831173926591873169e-02
4.375303387641906738e-01
2.788287997245788574e-01
-1.115414947271347046e-01
-2.319615930318832397e-01
1.331652551889419556e-01
2.858494408428668976e-02
3.165621161460876465e-01
-2.486129403114318848e-01
5.922737717628479004e-01
-1.127787008881568909e-01
-9.738740511238574982e-03
1.606156080961227417e-01
-8.741436526179313660e-03
-1.617080867290496826e-01
1.595765203237533569e-01
-7.990108430385589600e-02
1.123677846044301987e-02
1.121106520295143127e-01
-2.690018117427825928e-01
8.172825910151004791e-03
-8.595318533480167389e-03
-2.956438362598419189e-01
1.593298614025115967e-01
3.205467462539672852e-01
1.071072518825531006e-01
-2.853628098964691162e-01
3.031069040298461914e-01
4.810955822467803955e-01
1.021437868475914001e-01
3.373866677284240723e-01
7.474227994680404663e-02
-3.595801442861557007e-02
-1.636394299566745758e-02
-5.236740112304687500e-01
6.836009025573730469e-02
-2.338944673538208008e-01
-2.195647060871124268e-01
1.452227383852005005e-01
-7.844107598066329956e-02
8.880220353603363037e-02
7.629170548170804977e-03
1.526897251605987549e-01
2.915202379226684570e-01
-6.231984496116638184e-01
-3.659819662570953369e-01
-3.790873885154724121e-01
1.576415747404098511e-01
2.909055948257446289e-01
-1.020134985446929932e-01
-2.850146293640136719e-01
-2.239301502704620361e-01
-3.194643855094909668e-01
-2.154214829206466675e-01
-6.762648373842239380e-02
-2.654271423816680908e-01
-4.372899234294891357e-01
1.524661928415298462e-01
3.760715574026107788e-02
-1.412514746189117432e-01
1.373873930424451828e-02
-3.400275409221649170e-01
-1.676969677209854126e-01
-1.778666675090789795e-01
-2.053464800119400024e-01
-3.158573061227798462e-02
-7.091508805751800537e-02
-1.244949623942375183e-01
-1.809750497341156006e-01
2.128556072711944580e-01
2.791692614555358887e-01
-2.819454073905944824e-01
-9.989970177412033081e-02
-3.930819928646087646e-01
1.065750196576118469e-01
2.075977325439453125e-01
7.010664045810699463e-02
-3.158622682094573975e-01
1.397675573825836182e-01
-1.755442619323730469e-01
2.153484374284744263e-01
-1.663068532943725586e-01
1.672520339488983154e-01
7.715754956007003784e-02
-9.424333274364471436e-02
-3.991391956806182861e-01
-8.157000690698623657e-02
3.193170726299285889e-01
-5.721299648284912109e-01
-2.604493685066699982e-02
-4.019353389739990234e-01
-6.794246435165405273e-01
-6.497697532176971436e-02
-2.359841205179691315e-02
-6.618516445159912109e-01
-4.679822027683258057e-01
-1.553268879652023315e-01
-7.923772931098937988e-01
-3.015013970434665680e-02
-3.037203252315521240e-01
-5.599335953593254089e-02
-1.724306643009185791e-01
-1.203255429863929749e-01
-3.590351343154907227e-01
-1.013440415263175964e-01
-9.459468722343444824e-02
-6.687182784080505371e-01
-1.638738214969635010e-01
-4.308217465877532959e-01
-1.530462503433227539e-01
1.220574136823415756e-02
-6.802703142166137695e-01
-5.495633482933044434e-01
-5.947910547256469727e-01
-1.842818595468997955e-02
1.111418381333351135e-01
-1.256627738475799561e-01
3.670613765716552734e-01
-4.775582253932952881e-01
-1.962199509143829346e-01
-4.268497824668884277e-01
-2.956504225730895996e-01
-7.595070600509643555e-01
-3.464721441268920898e-01
-3.538006842136383057e-01
-1.773760616779327393e-01
1.428903192281723022e-01
-8.307742327451705933e-02
-7.095183134078979492e-01
-4.771696627140045166e-01
-2.554917037487030029e-01
-5.254493355751037598e-01
-4.104102551937103271e-01
-7.036807537078857422e-01
-1.717748865485191345e-02
-5.700073242187500000e-01
-9.544298052787780762e-02
-2.120236754417419434e-01
-4.331685602664947510e-01
-6.259637475013732910e-01
-6.455567479133605957e-01
-4.765802621841430664e-01
-7.282712459564208984e-01
-5.654171109199523926e-01
-2.722051739692687988e-01
-1.976287215948104858e-01
-5.188895463943481445e-01
-4.714573323726654053e-01
-2.221820503473281860e-01
-2.717006206512451172e-01
-5.589499473571777344e-01
-1.765727698802947998e-01
-5.149088501930236816e-01
-6.714470386505126953e-01
3.041127622127532959e-01
-5.544407963752746582e-01
-5.831394791603088379e-01
2.110452055931091309e-01
-5.940740108489990234e-01
-1.836221963167190552e-01
-2.575522959232330322e-01
-4.678561985492706299e-01
2.634931504726409912e-01
-2.899919450283050537e-01
-2.757096588611602783e-01
-9.974870830774307251e-02
-2.782369554042816162e-01
-2.052502706646919250e-02
-5.546431541442871094e-01
-3.498521745204925537e-01
-3.832610845565795898e-01
-4.555899500846862793e-01
-2.469931989908218384e-01
-5.177712440490722656e-01
-6.678733229637145996e-01
-2.899417877197265625e-01
-5.547522902488708496e-01
-2.448738068342208862e-01
-5.322424173355102539e-01
1.097663864493370056e-01
-2.978512942790985107e-01
-3.743438720703125000e-01
3.596578910946846008e-02
-4.192031621932983398e-01
-4.086773991584777832e-01
-4.176037907600402832e-01
-7.128840684890747070e-01
-5.554046034812927246e-01
-1.951450407505035400e-01
-2.245591431856155396e-01
-1.868381649255752563e-01
-2.866513133049011230e-01
-3.153610825538635254e-01
-4.372482299804687500e-01
-4.921272099018096924e-01
-2.592799067497253418e-01
6.778315454721450806e-02
-2.827836275100708008e-01
-2.361606210470199585e-01
-4.361718893051147461e-01
-2.911976575851440430e-01
-4.729535877704620361e-01
-2.048671543598175049e-01
-3.951910138130187988e-01
-3.194231986999511719e-01
-2.155327051877975464e-01
-3.183588087558746338e-01
-1.410301327705383301e-01
3.168242871761322021e-01
-3.084611594676971436e-01
-6.025196909904479980e-01
-4.571366608142852783e-01
-5.369090437889099121e-01
1.656719595193862915e-01
-2.449575513601303101e-01
-3.577767908573150635e-01
-2.046110928058624268e-01
-9.041973203420639038e-02
-2.224748581647872925e-01
-2.984888553619384766e-01
-9.448052197694778442e-02
-5.285472869873046875e-01
-1.348689943552017212e-01
-3.619127869606018066e-01
-1.248623803257942200e-01
-2.760651409626007080e-01
-3.697293996810913086e-01
-6.836128979921340942e-02
-4.457594752311706543e-01
-2.991763353347778320e-01
-4.640741944313049316e-01
-2.880043685436248779e-01
-2.393135726451873779e-01
-5.592837333679199219e-01
-3.425476551055908203e-01
-4.728652238845825195e-01
-4.280799925327301025e-01
-2.887516021728515625e-01
-3.747519254684448242e-01
-4.780972376465797424e-02
-1.453449670225381851e-02
-6.404259800910949707e-01
-1.493975985795259476e-02
-5.673127174377441406e-01
-8.058895468711853027e-01
-4.325718060135841370e-02
1.859713196754455566e-01
7.513691484928131104e-02
-2.471781075000762939e-01
-5.812571644783020020e-01
-2.794317007064819336e-01
-1.263161599636077881e-01
4.051999747753143311e-02
-7.290788460522890091e-03
-1.924858540296554565e-01
6.470840424299240112e-03
-1.837838441133499146e-01
-2.361551523208618164e-01
-1.652214527130126953e-01
-3.519437909126281738e-01
-1.404458582401275635e-01
-2.741270065307617188e-01
-4.624718129634857178e-01
6.483929604291915894e-02
-1.825761049985885620e-01
-3.712943792343139648e-01
-1.239399611949920654e-01
-1.186485588550567627e-01
2.404195442795753479e-02
-5.540506914258003235e-03
-4.404678940773010254e-01
-3.265231847763061523e-01
-3.432114422321319580e-01
-3.929029405117034912e-02
-2.377538979053497314e-01
-4.569056332111358643e-01
-1.957491338253021240e-01
-7.479671239852905273e-01
2.008680701255798340e-01
-5.482121706008911133e-01
-3.661400377750396729e-01
-4.557681083679199219e-01
-6.895617842674255371e-01
-4.119033515453338623e-01
-3.987272083759307861e-01
-1.259715259075164795e-01
-1.845012456178665161e-01
-2.271886169910430908e-01
-1.392544060945510864e-01
-6.667136549949645996e-01
6.320326775312423706e-02
-4.437943398952484131e-01
2.166963368654251099e-01
-2.934170365333557129e-01
-1.976267546415328979e-01
-3.538256883621215820e-01
-4.426046013832092285e-01
-3.580987751483917236e-01
-1.608572453260421753e-01
-2.912345528602600098e-01
1.745132915675640106e-02
-4.306294918060302734e-01
2.187503725290298462e-01
-6.438603997230529785e-01
-6.939840912818908691e-01
-2.155210673809051514e-01
-2.986396430060267448e-03
1.493134051561355591e-01
-2.817849218845367432e-01
-3.220835626125335693e-01
-6.323003172874450684e-01
-7.607272267341613770e-01
-9.690402448177337646e-02
-9.235848188400268555e-01
-9.663964062929153442e-02
-3.117184340953826904e-01
-2.488341629505157471e-01
-5.416400432586669922e-01
-2.240458428859710693e-01
-4.998898506164550781e-01
1.407968252897262573e-01
-1.749225705862045288e-01
-2.167757302522659302e-01
-6.664794683456420898e-01
-1.922308951616287231e-01
-4.770272076129913330e-01
-5.442761778831481934e-01
-9.198838472366333008e-02
-3.126485049724578857e-01
-1.502900570631027222e-02
-1.070577558130025864e-02
-8.781442046165466309e-01
-6.685616374015808105e-01
-3.966279923915863037e-01
-1.731962338089942932e-02
3.256250347476452589e-04
6.476978957653045654e-02
6.496364623308181763e-02
-5.591771602630615234e-01
-4.798657298088073730e-01
