-2.421913892030715942e-01 -1.081454232335090637e-01 7.036561518907546997e-02 -1.622987212613224983e-03 4.166429862380027771e-03 3.741587102413177490e-01 7.346496451646089554e-03 -3.003992140293121338e-01 2.663179999217391014e-03 -3.755615616682916880e-04 -1.262962468899786472e-03 1.494292974472045898e+00 -3.593950066715478897e-03 6.346393823623657227e-01 1.995791122317314148e-02 -5.026758313179016113e-01 6.800251007080078125e-01 3.359263530001044273e-03 -6.913017481565475464e-02 -2.586515154689550400e-03 9.582210183143615723e-01 -3.996434509754180908e-01 1.327845156192779541e-01 2.668178640305995941e-03 1.972112208604812622e-01 -4.840903915464878082e-03 1.348796248435974121e+00 -2.646435517817735672e-03 -2.291013002395629883e-01 -4.483992978930473328e-02 1.566511578857898712e-02 1.534746773540973663e-02 2.059845626354217529e-01 -8.897391557693481445e-01 -1.215909957885742188e+00 1.190463826060295105e-01 -1.394096063449978828e-03 -1.419210582971572876e-01 2.630650699138641357e-01 -4.063092637807130814e-03 -4.809421300888061523e-01 4.224487543106079102e-01 -3.187021613121032715e-01 9.644814729690551758e-01 4.519626125693321228e-02 5.039183050394058228e-02 1.092955946922302246e+00 -5.506742000579833984e-01 -6.552684903144836426e-01 2.056013792753219604e-02 1.193374628201127052e-03 -2.184831909835338593e-02 3.116689026355743408e-01 6.088111083954572678e-03 -1.931694895029067993e-02 -9.275561897084116936e-04 3.218080848455429077e-03 -1.285029053688049316e-01 -1.851823627948760986e-01 2.298132516443729401e-03 -8.111135661602020264e-02 5.124356597661972046e-03 6.805571611039340496e-04 -9.248876012861728668e-03 5.292222499847412109e-01 -6.483027245849370956e-04 -7.612316012382507324e-01 -2.670345902442932129e-01 4.799721837043762207e-01 -1.797462347894906998e-03 -9.390173363499343395e-04 1.265246987342834473e+00 -1.553265377879142761e-02 -2.189696282148361206e-01 -5.287508014589548111e-03 -9.326193928718566895e-01 7.475764025002717972e-03 2.250226214528083801e-02 -7.369401454925537109e-01 2.375944145023822784e-02 5.817710161209106445e-01 1.126048155128955841e-02 7.067642807960510254e-01 -3.267373144626617432e-02 -1.456717215478420258e-02 1.677276641130447388e-01 3.718732157722115517e-03 2.296378836035728455e-03 -3.263964951038360596e-01 1.282576355151832104e-03 1.161285638809204102e+00 -4.244047158863395452e-04 -4.913947777822613716e-04 1.636238186620175838e-03 -5.633266642689704895e-03 5.726061463356018066e-01 4.525221586227416992e-01 -5.188390016555786133e-01 -4.739226400852203369e-01 -4.522343575954437256e-01 6.443144381046295166e-02 4.203090816736221313e-02 5.378862619400024414e-01 -1.374830119311809540e-02 -1.375269412994384766e+00 1.248092427849769592e-01 -4.269355833530426025e-01 -5.088929086923599243e-02 -9.211276192218065262e-04 -4.472779631614685059e-01 -8.586876839399337769e-02 1.843109959736466408e-03 1.612453488633036613e-03 -4.799928888678550720e-02 2.371247671544551849e-02 1.664305925369262695e-01 -1.094638835638761520e-02 -7.734584808349609375e-01 -1.694627851247787476e-01 1.912358999252319336e-01 1.277890615165233612e-02 1.318757515400648117e-02 -8.981821537017822266e-01 2.533363699913024902e-01 -1.926677301526069641e-02 1.077640615403652191e-02 5.247462540864944458e-03 7.630662918090820312e-01 5.619761347770690918e-01 -2.018385101109743118e-03 -3.504882156848907471e-01 -9.009412489831447601e-03 -4.216727335005998611e-03 6.169185042381286621e-01 1.017614245414733887e+00 1.355314403772354126e-01 3.902570158243179321e-02 3.529164474457502365e-03 -3.836767747998237610e-03 2.461087889969348907e-03 -3.976581692695617676e-01 9.667621925473213196e-03 -1.817961037158966064e-02 9.974748641252517700e-02 2.312180697917938232e-01 -5.771094188094139099e-02 -9.687785506248474121e-01 2.147033810615539551e-03 -1.606618016958236694e-01 5.299108568578958511e-03 9.069907478988170624e-03 -6.970930378884077072e-03 -4.760630130767822266e-01 7.640075683593750000e-01 -1.217917422764003277e-03 1.373180866241455078e+00 9.835262596607208252e-02 -1.355367064476013184e+00 9.753545746207237244e-03 9.900017175823450089e-04 4.048336148262023926e-01 -3.109543323516845703e-01 8.022336661815643311e-02 -1.782921887934207916e-02 4.595419019460678101e-02 3.829427361488342285e-01 -1.070642545819282532e-01 -1.473436653614044189e-01 -4.837954416871070862e-03 2.603994011878967285e-01 -4.101286083459854126e-02 5.623415112495422363e-02 4.005213850177824497e-04 -3.270226716995239258e-01 -3.174368664622306824e-02 2.699635624885559082e-01 1.305417418479919434e-01 9.033957719802856445e-01 -4.612879361957311630e-03 -7.012090682983398438e-01 1.047907948493957520e+00 -7.236572448164224625e-03 2.026797505095601082e-03 4.741246625781059265e-02 -4.656840115785598755e-03 3.118832409381866455e-02 -1.337968230247497559e+00 -2.389289289712905884e-01 -1.572955369949340820e+00 -6.654399633407592773e-01 1.049901127815246582e+00 4.665112495422363281e-02 -3.090959740802645683e-03 7.520111203193664551e-01 -2.353335497900843620e-03 1.944151073694229126e-01 3.893328905105590820e-01 -6.313509941101074219e-01 -3.833410446532070637e-04 2.289715455844998360e-03 8.073710487224161625e-04 -2.171227484941482544e-01 -4.484798610210418701e-01 4.513802006840705872e-02 -3.812953829765319824e-02 1.019249260425567627e-01 -1.186248362064361572e-01 -3.564156650099903345e-04 -1.376691162586212158e-01 2.910985052585601807e-02 1.411861032247543335e-01 1.011379878036677837e-03 -1.848985557444393635e-03 1.591190323233604431e-02 1.286339014768600464e-01 2.001091837882995605e-03 1.871827174909412861e-03 -6.043323501944541931e-02 -6.645916495472192764e-03 2.792766550555825233e-03 2.139719128608703613e-01 1.955908387899398804e-01 -1.672540232539176941e-02 -5.234392285346984863e-01 -7.532461732625961304e-02 -7.102132439613342285e-01 -3.026806516572833061e-04 3.132694661617279053e-01 3.243016544729471207e-03 3.386513888835906982e-02 9.529507224215194583e-05 -1.149995252490043640e-03 4.603652060031890869e-01 5.139660090208053589e-03 -4.000138938426971436e-01 4.907389581203460693e-01 -4.050728678703308105e-02 -9.468170404434204102e-01 5.103521398268640041e-04 -3.870922029018402100e-01 -1.514146663248538971e-02 -4.389734822325408459e-04 6.684893160127103329e-04 -3.615631461143493652e-01 -6.491011977195739746e-01 2.721614539623260498e-01 3.731176257133483887e-01 1.984314247965812683e-02 -8.763627847656607628e-04 -7.289555668830871582e-01 8.674428611993789673e-02 7.716139554977416992e-01 1.898702085018157959e-01 -3.517400026321411133e-01 -1.514659845270216465e-03 -2.968324124813079834e-01
