-3.038887977600097656e-01
6.196597963571548462e-02
-1.752473711967468262e-01
-9.193380922079086304e-02
6.683712126687169075e-05
-3.315931856632232666e-01
-5.071709156036376953e-01
-3.402609229087829590e-01
-2.770279943943023682e-01
-2.676916420459747314e-01
-3.558727502822875977e-01
-1.980968937277793884e-02
-2.937128245830535889e-01
-1.881536841392517090e-01
-9.098970890045166016e-02
-1.184472069144248962e-01
-1.664564162492752075e-01
-2.998262047767639160e-01
-4.010639190673828125e-01
-2.432698160409927368e-01
1.335728764533996582e-01
-2.311196923255920410e-01
5.569505691528320312e-02
-2.398672401905059814e-01
2.727279663085937500e-01
3.858444094657897949e-02
-1.393036693334579468e-01
-2.066230922937393188e-01
-4.194122254848480225e-01
-2.188213765621185303e-01
-3.436707258224487305e-01
-3.637349307537078857e-01
-2.312232553958892822e-01
-2.349979877471923828e-01
-9.973763674497604370e-02
-1.621547490358352661e-01
1.376538574695587158e-01
8.669027686119079590e-02
-3.214174211025238037e-01
-2.851662635803222656e-01
-1.464945673942565918e-01
-2.461966723203659058e-01
-3.705490827560424805e-01
7.942035049200057983e-02
-2.577543258666992188e-01
3.513467730954289436e-03
-2.003056108951568604e-01
-4.526078701019287109e-01
-1.315322071313858032e-01
-2.365370541810989380e-01
-1.944897770881652832e-01
-1.272122710943222046e-01
1.980912238359451294e-01
-1.219758167862892151e-01
-3.214494884014129639e-01
-1.555206626653671265e-01
-3.763250708580017090e-01
1.444650534540414810e-02
-4.584910869598388672e-01
-2.488808631896972656e-01
1.809473782777786255e-01
4.161548018455505371e-01
-3.865455985069274902e-01
-2.962498068809509277e-01
1.988282352685928345e-01
-4.586186110973358154e-01
3.329726457595825195e-01
4.611131250858306885e-01
-2.881934642791748047e-01
-1.594642251729965210e-01
-1.312714666128158569e-01
-6.461069732904434204e-02
-4.270549416542053223e-01
-2.152203023433685303e-01
-4.989006519317626953e-01
-3.074043393135070801e-01
5.644323676824569702e-02
1.894035522127524018e-04
6.819351762533187866e-02
-1.586021296679973602e-02
-3.348076045513153076e-01
-2.966685295104980469e-01
1.005282849073410034e-01
-1.341895908117294312e-01
-3.343059718608856201e-01
-2.504522502422332764e-01
-6.472125053405761719e-01
-3.039073348045349121e-01
-1.705796271562576294e-01
-2.945282757282257080e-01
-6.203617155551910400e-02
-1.152616292238235474e-01
-4.205100834369659424e-01
3.696389123797416687e-02
-4.167291522026062012e-01
-2.691970765590667725e-01
3.284285366535186768e-01
-4.686061441898345947e-01
-2.534835636615753174e-01
-4.593254923820495605e-01
-2.579903900623321533e-01
-2.470417022705078125e-01
-3.160338997840881348e-01
-2.324734479188919067e-01
-8.125375956296920776e-02
-3.184722065925598145e-01
-2.432812303304672241e-01
-7.313969731330871582e-02
-4.162850975990295410e-01
-1.968290209770202637e-01
3.255623579025268555e-02
-2.339790575206279755e-02
-2.099653929471969604e-01
-2.442019134759902954e-01
-2.417652159929275513e-01
-1.991793215274810791e-01
3.497463092207908630e-02
-2.992613241076469421e-02
-4.408647418022155762e-01
-1.047474145889282227e-01
-2.757854163646697998e-01
-2.571913599967956543e-01
-1.455326676368713379e-01
-7.600994408130645752e-02
-3.471658825874328613e-01
-6.552303582429885864e-02
7.219867408275604248e-02
2.985730171203613281e-01
1.599798202514648438e-01
-3.914398252964019775e-01
2.580913901329040527e-01
-2.876845896244049072e-01
9.097700566053390503e-02
2.159735262393951416e-01
-3.298972547054290771e-01
-8.814577944576740265e-03
-4.213388264179229736e-01
-2.323987185955047607e-01
-3.040050268173217773e-01
-2.549096643924713135e-01
-2.727836966514587402e-01
-4.022049009799957275e-01
-3.456749320030212402e-01
-2.985148429870605469e-01
-3.166891634464263916e-01
-6.461956351995468140e-02
-3.678844869136810303e-01
2.606667578220367432e-01
-3.178071379661560059e-01
-3.978429138660430908e-01
-1.837722808122634888e-01
-2.589361965656280518e-01
-1.781933158636093140e-01
-5.973378196358680725e-02
-4.995393753051757812e-01
-2.550564408302307129e-01
-1.665886864066123962e-02
-1.258283704519271851e-01
-9.890317916870117188e-02
-2.274650633335113525e-01
-1.329623460769653320e-01
-1.761702597141265869e-01
-2.463950365781784058e-01
-1.038800477981567383e-01
-1.603829562664031982e-01
-3.448777794837951660e-01
-3.265728950500488281e-01
-4.797788262367248535e-01
-2.525921165943145752e-01
-6.151194870471954346e-02
-3.016155362129211426e-01
-1.373172402381896973e-01
-4.164203107357025146e-01
-1.902840733528137207e-01
2.258568769320845604e-03
-1.990275382995605469e-01
4.298035427927970886e-02
5.126097798347473145e-01
-3.746216297149658203e-01
-2.300872355699539185e-01
-4.076144397258758545e-01
1.245342344045639038e-01
-1.576363742351531982e-01
4.225933924317359924e-02
-3.903438746929168701e-01
1.127500087022781372e-01
-3.522285521030426025e-01
-1.267196238040924072e-01
-4.325196146965026855e-01
-3.130603730678558350e-01
-7.728302851319313049e-03
-2.483980059623718262e-01
-2.273859232664108276e-01
-3.955098688602447510e-01
-3.785172998905181885e-01
-1.119085177779197693e-01
-3.969296813011169434e-01
1.540198475122451782e-01
-7.095079123973846436e-02
-4.004045426845550537e-01
-2.241918295621871948e-01
-4.567404091358184814e-01
-4.024194478988647461e-01
-3.063897192478179932e-01
5.798947066068649292e-02
-4.918010532855987549e-01
-2.262302339076995850e-01
-4.784133732318878174e-01
-3.015660047531127930e-01
-5.693097114562988281e-01
-1.338531225919723511e-01
3.410323262214660645e-01
-9.902860037982463837e-03
-1.858697384595870972e-01
-3.480274677276611328e-01
-3.974643051624298096e-01
-3.152056038379669189e-01
-3.826731145381927490e-01
2.802045345306396484e-01
-3.177165687084197998e-01
-1.509741246700286865e-01
-9.316654503345489502e-02
-6.979509443044662476e-02
-9.678270667791366577e-02
-6.240053176879882812e-01
-8.293081820011138916e-02
-1.453717052936553955e-01
-2.658335566520690918e-01
-4.725990295410156250e-01
-1.442870348691940308e-01
-6.752370297908782959e-02
3.220424950122833252e-01
-6.794890016317367554e-02
-2.339194267988204956e-01
-2.592272758483886719e-01
-3.365394771099090576e-01
-1.652022749185562134e-01
-2.930383682250976562e-01
-2.184686958789825439e-01
-1.648508310317993164e-01
-2.596022486686706543e-01
-7.643347233533859253e-02
-3.182319551706314087e-02
-2.335830628871917725e-01
-4.846515059471130371e-01
-1.301727443933486938e-01
-1.628042608499526978e-01
-2.336483299732208252e-01
7.443032413721084595e-02
-3.121203184127807617e-01
-1.452323645353317261e-01
-2.828757166862487793e-01
-2.620815038681030273e-01
-1.810081750154495239e-01
-3.637937903404235840e-01
-7.625693827867507935e-02
2.816384792327880859e+00
3.195790052413940430e+00
2.707856893539428711e+00
2.969467639923095703e+00
2.799418687820434570e+00
3.080802440643310547e+00
2.752057552337646484e+00
2.943296670913696289e+00
2.319260597229003906e+00
2.681202411651611328e+00
2.932729244232177734e+00
2.861248731613159180e+00
2.826819896697998047e+00
3.005269289016723633e+00
3.125555276870727539e+00
3.429752349853515625e+00
3.042950630187988281e+00
2.894398212432861328e+00
2.961462736129760742e+00
3.158601284027099609e+00
3.294116735458374023e+00
2.107213258743286133e+00
3.123744249343872070e+00
2.345632553100585938e+00
2.901101112365722656e+00
3.023591518402099609e+00
2.952436685562133789e+00
2.786385059356689453e+00
2.703790187835693359e+00
2.798091173171997070e+00
3.163789987564086914e+00
2.974337100982666016e+00
2.944669723510742188e+00
2.897645473480224609e+00
3.056496620178222656e+00
3.164350032806396484e+00
3.196736812591552734e+00
3.143052101135253906e+00
2.879429101943969727e+00
2.565287828445434570e+00
2.935781002044677734e+00
2.927480220794677734e+00
2.242599487304687500e+00
3.106121778488159180e+00
2.878237485885620117e+00
3.222720623016357422e+00
2.969548702239990234e+00
2.785237312316894531e+00
2.250302791595458984e+00
2.851626157760620117e+00
2.809441804885864258e+00
3.013539075851440430e+00
3.149036645889282227e+00
3.101620912551879883e+00
2.877355337142944336e+00
2.404937982559204102e+00
3.209946870803833008e+00
3.092355251312255859e+00
2.804292678833007812e+00
2.745169401168823242e+00
3.126776456832885742e+00
3.073330402374267578e+00
2.737529993057250977e+00
2.751737594604492188e+00
3.061375379562377930e+00
2.521112918853759766e+00
3.212965726852416992e+00
3.242029428482055664e+00
2.857467412948608398e+00
2.942143201828002930e+00
2.776889562606811523e+00
3.115651369094848633e+00
2.676351308822631836e+00
3.008140563964843750e+00
2.572491645812988281e+00
3.252660751342773438e+00
2.881467819213867188e+00
2.939970970153808594e+00
2.969568967819213867e+00
3.210461616516113281e+00
2.994472980499267578e+00
2.723290681838989258e+00
2.845237255096435547e+00
2.882756233215332031e+00
2.903097152709960938e+00
2.493910312652587891e+00
3.217275381088256836e+00
2.738498449325561523e+00
2.672576189041137695e+00
2.889311790466308594e+00
2.940076589584350586e+00
2.533355951309204102e+00
3.173933982849121094e+00
2.947866678237915039e+00
2.981110334396362305e+00
2.785596132278442383e+00
3.195904254913330078e+00
2.761240720748901367e+00
2.641535758972167969e+00
2.775816202163696289e+00
2.865000247955322266e+00
2.907390117645263672e+00
2.985906839370727539e+00
2.904608249664306641e+00
3.140629053115844727e+00
2.363135099411010742e+00
2.451070308685302734e+00
2.781435728073120117e+00
3.113819122314453125e+00
2.839178800582885742e+00
3.058548450469970703e+00
2.893749475479125977e+00
2.851902246475219727e+00
1.947991609573364258e+00
2.916146516799926758e+00
2.683947563171386719e+00
3.131098985671997070e+00
3.071657180786132812e+00
2.803686857223510742e+00
2.890312433242797852e+00
3.003338575363159180e+00
3.143129110336303711e+00
2.644048452377319336e+00
3.145877361297607422e+00
3.103674173355102539e+00
3.183474540710449219e+00
3.009102821350097656e+00
3.186446428298950195e+00
2.791360139846801758e+00
2.366467237472534180e+00
2.955651760101318359e+00
2.513396501541137695e+00
3.488517761230468750e+00
3.228165149688720703e+00
2.968291759490966797e+00
3.044863939285278320e+00
2.766048908233642578e+00
2.861796140670776367e+00
2.663979053497314453e+00
2.895235538482666016e+00
2.470576286315917969e+00
3.038493633270263672e+00
2.683654785156250000e+00
2.949579238891601562e+00
2.806399106979370117e+00
2.868927240371704102e+00
2.744718790054321289e+00
2.971901416778564453e+00
2.853943109512329102e+00
2.577898740768432617e+00
2.372714519500732422e+00
2.924325704574584961e+00
2.596051454544067383e+00
2.759046792984008789e+00
3.135969161987304688e+00
2.838244676589965820e+00
3.054601907730102539e+00
2.798994541168212891e+00
2.658696651458740234e+00
3.054288387298583984e+00
3.272638320922851562e+00
2.646997213363647461e+00
2.772440195083618164e+00
2.954192161560058594e+00
2.954045057296752930e+00
2.934124231338500977e+00
2.777595043182373047e+00
2.674253463745117188e+00
2.411986827850341797e+00
2.959462404251098633e+00
2.893134117126464844e+00
2.824247360229492188e+00
2.512221336364746094e+00
3.009553194046020508e+00
2.755621910095214844e+00
2.701108217239379883e+00
2.810862064361572266e+00
3.354869365692138672e+00
2.869941949844360352e+00
2.970729589462280273e+00
2.470941781997680664e+00
3.235475063323974609e+00
3.071825265884399414e+00
2.868732929229736328e+00
2.649605274200439453e+00
3.306192398071289062e+00
2.694458723068237305e+00
3.081461668014526367e+00
3.121050119400024414e+00
3.234791994094848633e+00
3.377945423126220703e+00
2.943049907684326172e+00
2.577988862991333008e+00
2.864955186843872070e+00
2.986283063888549805e+00
3.033429384231567383e+00
2.755684137344360352e+00
3.254049777984619141e+00
3.088162899017333984e+00
2.611790657043457031e+00
2.466814756393432617e+00
2.985811948776245117e+00
2.965063333511352539e+00
2.775132656097412109e+00
3.172919034957885742e+00
2.552594661712646484e+00
2.761532783508300781e+00
2.679327011108398438e+00
2.557534456253051758e+00
2.163037776947021484e+00
2.866928815841674805e+00
3.484081029891967773e+00
2.919686555862426758e+00
2.875656604766845703e+00
2.873822450637817383e+00
2.999587774276733398e+00
2.676714897155761719e+00
2.412268161773681641e+00
2.925605297088623047e+00
2.833096027374267578e+00
3.068901300430297852e+00
3.303149700164794922e+00
2.910030841827392578e+00
2.702692270278930664e+00
2.951552152633666992e+00
2.950091838836669922e+00
2.775839090347290039e+00
3.098049402236938477e+00
2.408659934997558594e+00
3.070677757263183594e+00
3.129199743270874023e+00
3.075398445129394531e+00
3.186013460159301758e+00
2.920952320098876953e+00
2.956218004226684570e+00
3.136562108993530273e+00
2.983728885650634766e+00
3.142253398895263672e+00
2.693771839141845703e+00
2.702106237411499023e+00
2.744014978408813477e+00
2.845770597457885742e+00
2.876899957656860352e+00
3.067056655883789062e+00
2.504718780517578125e+00
3.016564130783081055e+00
2.603946447372436523e+00
2.889558792114257812e+00
3.166272401809692383e+00
3.160195827484130859e+00
3.140532732009887695e+00
2.645337104797363281e+00
2.683198928833007812e+00
2.994204282760620117e+00
2.688588857650756836e+00
3.053029060363769531e+00
-1.237383559346199036e-01
3.334400057792663574e-01
1.557566821575164795e-01
7.391850464046001434e-03
2.351185530424118042e-01
3.006780147552490234e-02
-2.392349988222122192e-01
-1.041081771254539490e-01
6.005622744560241699e-01
1.390050649642944336e-01
2.055162787437438965e-01
4.318570196628570557e-01
1.771748512983322144e-01
1.807548552751541138e-01
3.675951659679412842e-01
-2.365316450595855713e-02
7.459346204996109009e-02
1.595665216445922852e-01
-2.274604439735412598e-01
-1.233447343111038208e-01
-2.413816452026367188e-01
-5.208387374877929688e-01
3.042888045310974121e-01
8.002655953168869019e-02
-4.223341941833496094e-01
1.522340923547744751e-01
1.259463578462600708e-01
-2.000002413988113403e-01
2.441785484552383423e-01
2.150322943925857544e-01
3.070221096277236938e-02
1.450263410806655884e-01
-5.428525805473327637e-02
-1.862592101097106934e-01
-9.608037769794464111e-02
-1.364111900329589844e-01
1.578304320573806763e-01
3.131609857082366943e-01
1.367928683757781982e-01
3.195595145225524902e-01
-1.108226180076599121e-01
3.323217332363128662e-01
5.569225759245455265e-04
5.226718187332153320e-01
2.543041668832302094e-02
1.345450133085250854e-01
-3.532835841178894043e-01
1.131984218955039978e-01
5.031766295433044434e-01
4.172348380088806152e-01
5.223843827843666077e-02
3.197926282882690430e-01
-4.317055642604827881e-02
2.587182521820068359e-01
3.063412606716156006e-01
5.498379003256559372e-03
3.622868955135345459e-01
6.471708416938781738e-01
1.955757588148117065e-01
-1.878635883331298828e-01
-2.159438282251358032e-01
4.554124772548675537e-01
2.461516112089157104e-02
5.600962042808532715e-02
9.831158071756362915e-02
-7.965460419654846191e-03
9.924334287643432617e-02
4.442504644393920898e-01
1.641011685132980347e-01
3.174594938755035400e-01
5.196384713053703308e-02
-3.375289738178253174e-01
-2.022797614336013794e-01
-1.044126823544502258e-01
9.144738316535949707e-02
-2.659667134284973145e-01
-4.009176492691040039e-01
-9.861870855093002319e-02
-4.018692374229431152e-01
4.158011972904205322e-01
1.341997832059860229e-01
-1.447803229093551636e-01
-3.427101671695709229e-01
2.301345318555831909e-01
-1.300395131111145020e-01
-3.857171535491943359e-01
6.687675416469573975e-02
3.548390418291091919e-02
-1.375194042921066284e-01
1.937035024166107178e-01
1.393491625785827637e-01
1.013605203479528427e-02
4.930234253406524658e-01
-1.642298698425292969e-01
7.183406502008438110e-02
6.616726517677307129e-02
-2.431358546018600464e-01
3.294319510459899902e-01
-2.161699905991554260e-02
-1.521490514278411865e-01
-2.185975760221481323e-01
-1.653258353471755981e-01
1.313263028860092163e-01
-8.707739412784576416e-02
-4.333259463310241699e-01
1.155107617378234863e-01
-3.460343554615974426e-02
-1.509826630353927612e-01
1.231628730893135071e-01
1.779200136661529541e-01
4.073804020881652832e-01
-5.140472203493118286e-03
1.199013665318489075e-01
3.662747144699096680e-01
-2.752020359039306641e-01
-2.511874400079250336e-02
-4.067864418029785156e-01
4.422864019870758057e-01
8.857917785644531250e-02
2.661746740341186523e-01
9.229565411806106567e-02
1.218855604529380798e-01
1.563370972871780396e-01
5.602321028709411621e-02
-2.374738156795501709e-01
1.881503313779830933e-01
-2.645325064659118652e-01
-4.316889047622680664e-01
-5.781974270939826965e-02
-2.529117465019226074e-01
-4.455018937587738037e-01
-1.256665587425231934e-01
4.618013799190521240e-01
-6.325704604387283325e-02
-1.275556385517120361e-01
2.332724332809448242e-01
-1.179048418998718262e-01
-3.548741936683654785e-01
9.594378620386123657e-02
1.563736647367477417e-01
4.438599944114685059e-02
-6.739050894975662231e-02
2.902764081954956055e-01
-2.293352633714675903e-01
1.420437097549438477e-01
-1.918948739767074585e-01
2.024069130420684814e-01
-1.532420050352811813e-02
-1.874652355909347534e-01
2.483714669942855835e-01
-6.895546801388263702e-03
-3.110405206680297852e-01
-1.264325082302093506e-01
-2.630679011344909668e-01
-1.059897150844335556e-02
3.558129444718360901e-02
-2.219381481409072876e-01
-1.889512687921524048e-01
1.203885674476623535e-01
-1.953500807285308838e-01
1.716992557048797607e-01
1.163017237558960915e-03
-1.955940723419189453e-01
2.228527069091796875e-01
1.202119514346122742e-01
2.075228542089462280e-01
4.279209971427917480e-01
-1.582070738077163696e-01
3.477821350097656250e-01
-8.566990494728088379e-02
-9.673481434583663940e-02
2.387818247079849243e-01
-1.073372289538383484e-01
-2.536446750164031982e-01
-4.829355329275131226e-02
1.618384122848510742e-01
-4.430897533893585205e-01
5.282164216041564941e-01
7.163757830858230591e-02
2.037675827741622925e-01
1.172377541661262512e-01
5.321909487247467041e-02
4.163421317934989929e-02
-2.770108580589294434e-01
1.834429986774921417e-02
-4.228554964065551758e-01
-2.634644508361816406e-01
4.648704230785369873e-01
-6.121763959527015686e-02
-1.412536948919296265e-01
2.658849954605102539e-01
-5.873220413923263550e-02
5.023037642240524292e-02
7.939700782299041748e-02
-5.712068080902099609e-02
1.838216781616210938e-01
-6.581139564514160156e-02
-2.422499805688858032e-01
-3.111361861228942871e-01
-5.584339424967765808e-02
-3.917386531829833984e-01
-2.145777940750122070e-01
-3.353453278541564941e-01
2.476889938116073608e-01
2.648967206478118896e-01
4.965461418032646179e-02
3.345347046852111816e-01
-3.081366419792175293e-01
-6.245238333940505981e-02
-5.646442770957946777e-01
9.801837056875228882e-02
-2.871910929679870605e-01
4.109418019652366638e-02
9.182871878147125244e-02
-2.147386521100997925e-01
-7.830598205327987671e-02
-1.447365386411547661e-03
-1.470309793949127197e-01
1.699487119913101196e-01
-1.529371589422225952e-01
1.020863354206085205e-01
-2.313427180051803589e-01
-5.611963570117950439e-03
-1.629845350980758667e-01
7.846178486943244934e-03
1.788929551839828491e-01
-1.156558375805616379e-02
-7.232414186000823975e-02
2.610731497406959534e-02
-1.426940113306045532e-01
-3.701017200946807861e-01
3.385573625564575195e-01
6.648631393909454346e-02
-7.864590734243392944e-02
9.953024238348007202e-02
1.704192012548446655e-01
1.992217004299163818e-01
-1.621761620044708252e-01
2.351082116365432739e-01
2.995637357234954834e-01
4.011510405689477921e-03
1.811511963605880737e-01
-1.713785678148269653e-01
-2.428239956498146057e-02
1.658750474452972412e-01
3.257596790790557861e-01
-7.101281732320785522e-02
-1.484923362731933594e-01
2.084714323282241821e-01
-1.283774971961975098e-01
-1.115038841962814331e-01
-2.747844755649566650e-01
3.032810986042022705e-01
-2.482990175485610962e-01
-8.884233236312866211e-02
6.811545044183731079e-02
-1.112113967537879944e-01
-6.221508383750915527e-01
-4.154873788356781006e-01
-5.909508466720581055e-01
1.306826621294021606e-01
-2.044310718774795532e-01
-4.329375922679901123e-01
-1.101016476750373840e-01
-2.959404885768890381e-01
-2.642325162887573242e-01
-1.585180498659610748e-02
-3.408133983612060547e-01
-4.527322649955749512e-01
-2.632067203521728516e-01
-1.257636696100234985e-01
-5.393520593643188477e-01
-1.347678601741790771e-01
-2.265933454036712646e-01
4.873836587648838758e-04
-1.997698843479156494e-01
-8.440186381340026855e-01
3.851130232214927673e-02
-3.023321330547332764e-01
-1.893526017665863037e-01
-3.077809214591979980e-01
-1.361375749111175537e-01
-5.565830469131469727e-01
-5.513266324996948242e-01
-6.913619637489318848e-01
2.017595171928405762e-01
-1.529870629310607910e-01
-3.930619060993194580e-01
-7.676850259304046631e-02
-9.285061806440353394e-02
-9.555289894342422485e-02
-4.143822789192199707e-01
-3.516723811626434326e-01
-2.004934549331665039e-01
-3.731816112995147705e-01
-1.578783839941024780e-01
-1.561794430017471313e-01
-2.376000136137008667e-01
-2.564179599285125732e-01
-6.997906416654586792e-02
-4.333058893680572510e-01
-4.515793919563293457e-01
7.782920449972152710e-02
-5.123713612556457520e-01
1.094301864504814148e-01
-1.713691949844360352e-01
-4.857103824615478516e-01
-8.767204731702804565e-02
-7.650860548019409180e-01
-1.248322054743766785e-01
-5.514700412750244141e-01
4.186587035655975342e-02
-5.154059529304504395e-01
2.760608196258544922e-01
-3.603251874446868896e-01
-4.841536283493041992e-01
-1.448164582252502441e-01
1.814909838140010834e-02
-2.820515036582946777e-01
-1.974756121635437012e-01
-3.209619522094726562e-01
-4.419613778591156006e-01
-1.850961446762084961e-01
-5.809441804885864258e-01
-6.737753748893737793e-01
-2.153109163045883179e-01
-3.802739679813385010e-01
-5.747613310813903809e-01
-4.033397138118743896e-01
-3.561875969171524048e-02
-4.918380677700042725e-01
2.536428868770599365e-01
-1.331722587347030640e-01
-4.925571978092193604e-01
-5.534365773200988770e-01
-2.214359305799007416e-02
-6.559813022613525391e-01
-1.175105273723602295e-01
-3.505684137344360352e-01
-4.602719247341156006e-01
-5.336394309997558594e-01
8.695457130670547485e-02
3.448611795902252197e-01
-1.168137341737747192e-01
-4.092702567577362061e-01
-5.277402997016906738e-01
-3.337966799736022949e-01
-1.999796777963638306e-01
-5.913395881652832031e-01
-2.394411861896514893e-01
-3.218159079551696777e-01
-4.164760410785675049e-01
-1.308875679969787598e-01
-1.690387725830078125e-01
-8.767645955085754395e-01
-2.805064618587493896e-01
-7.140659689903259277e-01
-4.021989107131958008e-01
-5.479646325111389160e-01
-7.925125956535339355e-01
7.325731962919235229e-02
-3.071086704730987549e-01
-9.032540023326873779e-02
-3.622218668460845947e-01
-4.929027333855628967e-02
-4.551061093807220459e-01
3.780019283294677734e-01
-1.967165172100067139e-01
-4.352044165134429932e-01
-2.641595005989074707e-01
-7.462023198604583740e-02
-2.187172025442123413e-01
-2.575069107115268707e-02
-1.665626019239425659e-01
-5.433507561683654785e-01
-4.721615016460418701e-01
-1.387832760810852051e-01
1.961400732398033142e-02
-1.726506799459457397e-01
-2.840165197849273682e-01
-2.628903388977050781e-01
-5.730044841766357422e-01
-5.587454438209533691e-01
7.680862396955490112e-02
-6.965721249580383301e-01
-4.487776756286621094e-01
-6.875985264778137207e-01
-1.719271540641784668e-01
-5.998570099472999573e-02
-4.486183524131774902e-01
-2.128353714942932129e-01
-4.846529662609100342e-01
-5.195001363754272461e-01
-6.625089049339294434e-01
-3.354182541370391846e-01
-2.040786296129226685e-01
5.368196219205856323e-02
-2.350934743881225586e-01
-2.568422257900238037e-01
-1.960607767105102539e-01
-1.942166090011596680e-01
-6.492004990577697754e-01
-5.776925683021545410e-01
-4.673251807689666748e-01
-4.422325640916824341e-03
-2.286026626825332642e-01
-4.317471086978912354e-01
-9.408143162727355957e-02
-2.776468694210052490e-01
-2.604779787361621857e-02
-2.520417049527168274e-02
-1.067730635404586792e-01
-6.258296966552734375e-01
-5.619887113571166992e-01
-6.374951004981994629e-01
-3.209927678108215332e-01
-1.253412216901779175e-01
-5.459051728248596191e-01
-6.094111204147338867e-01
-2.680671215057373047e-01
-3.137979805469512939e-01
-3.741551041603088379e-01
-6.375714540481567383e-01
-2.120064198970794678e-01
-1.540255248546600342e-01
-1.643168479204177856e-01
-5.317656993865966797e-01
-4.689045250415802002e-01
-1.178833395242691040e-01
4.560316726565361023e-02
-5.368047952651977539e-01
-2.924370765686035156e-01
-3.729536831378936768e-01
-1.500175446271896362e-01
-4.865970611572265625e-01
-3.884868323802947998e-01
-2.403625287115573883e-02
-2.732549309730529785e-01
-2.637563347816467285e-01
-6.221112608909606934e-01
-2.510489225387573242e-01
-6.036536693572998047e-01
-3.890848159790039062e-01
-1.690829545259475708e-01
-7.283492386341094971e-02
-2.077331990003585815e-01
-4.613728821277618408e-01
7.465577870607376099e-02
-3.830490410327911377e-01
-6.911247968673706055e-01
-1.353814005851745605e-01
-4.383759796619415283e-01
-2.159280776977539062e-01
-4.239610731601715088e-01
5.444400906562805176e-01
-2.444284409284591675e-01
-5.106242895126342773e-01
-3.324604928493499756e-01
3.710904717445373535e-02
-4.120768308639526367e-01
-5.586715936660766602e-01
3.175712749361991882e-02
1.548790633678436279e-01
-5.949497818946838379e-01
-3.186680078506469727e-01
-5.802835524082183838e-02
1.611109375953674316e-01
-2.949258089065551758e-01
-4.800737202167510986e-01
-2.884893715381622314e-01
1.590626686811447144e-01
1.225847229361534119e-01
4.621334373950958252e-02
-3.071180172264575958e-02
-6.940535306930541992e-01
4.345319867134094238e-01
-3.365609049797058105e-01
-2.493829876184463501e-01
-6.660944223403930664e-01
-5.772593244910240173e-02
-7.484509795904159546e-02
-4.498924911022186279e-01
-1.366321891546249390e-01
-2.973710000514984131e-02
-2.597253918647766113e-01
-2.216303348541259766e-01
-1.553107351064682007e-01
-4.764565080404281616e-02
-2.277960181236267090e-01
-2.578279078006744385e-01
-6.905548274517059326e-02
1.724996715784072876e-01
-2.314820289611816406e-01
-3.257746994495391846e-01
-6.171912327408790588e-02
-1.245118305087089539e-01
-3.550663590431213379e-01
-5.140466094017028809e-01
-3.898424804210662842e-01
-2.494090795516967773e-01
-1.913640275597572327e-02
-6.510143876075744629e-01
-4.752819538116455078e-01
-6.189972758293151855e-01
-5.615985989570617676e-01
-1.373882591724395752e-01
-5.303918123245239258e-01
-4.425526261329650879e-01
-9.193277359008789062e-02
-2.887355089187622070e-01
-2.731821537017822266e-01
-1.552788317203521729e-01
