-4.590537846088409424e-01
-3.162831664085388184e-01
-3.586730360984802246e-01
-5.562961697578430176e-01
-3.275398612022399902e-01
-2.360832691192626953e-01
-1.177657321095466614e-01
-4.644310772418975830e-01
-1.648548990488052368e-01
-3.673474490642547607e-01
-2.584009766578674316e-01
-4.565415978431701660e-01
-2.249770760536193848e-01
-2.467511147260665894e-01
-1.048617362976074219e-01
-2.623990923166275024e-02
-2.270955294370651245e-01
-3.248470127582550049e-01
1.305911596864461899e-02
-6.368868052959442139e-02
-2.782951295375823975e-01
-1.397513896226882935e-01
-2.915421128273010254e-01
-4.351265728473663330e-03
-3.349882960319519043e-01
-1.205972805619239807e-01
-4.071157276630401611e-01
6.103537231683731079e-02
-7.955451309680938721e-02
-3.548263572156429291e-03
-5.790235400199890137e-01
-2.416670322418212891e-01
-2.063208222389221191e-01
-3.202162981033325195e-01
-2.005116082727909088e-02
-5.175733566284179688e-02
-5.826558545231819153e-02
-2.988871037960052490e-01
-3.433299362659454346e-01
-1.261619925498962402e-01
2.811997234821319580e-01
-3.656799495220184326e-01
-1.052211597561836243e-01
-3.118287622928619385e-01
-2.363519370555877686e-01
-3.010341525077819824e-01
-1.971867233514785767e-01
-1.727141290903091431e-01
-2.040457725524902344e-01
-2.577460408210754395e-01
-4.068905413150787354e-01
-2.857975661754608154e-01
-6.985925883054733276e-02
-2.471909672021865845e-01
2.657378092408180237e-02
-2.045983970165252686e-01
-1.397502124309539795e-01
-4.788212478160858154e-02
-2.064669132232666016e-01
-2.639347016811370850e-01
7.860600203275680542e-02
1.536718918941915035e-03
-1.395916845649480820e-02
-3.011379837989807129e-01
-3.433169126510620117e-01
-7.066617161035537720e-02
2.317838929593563080e-02
-2.296236008405685425e-01
-2.744855582714080811e-01
-6.179669871926307678e-02
-2.254418134689331055e-01
-3.345682024955749512e-01
9.516730904579162598e-02
-1.150227412581443787e-01
-1.948260068893432617e-01
-1.653417348861694336e-01
-3.191460371017456055e-01
-2.201958149671554565e-01
-3.962710499763488770e-01
-2.655944228172302246e-01
-3.594661355018615723e-01
-4.046777784824371338e-01
-3.364478051662445068e-01
1.594916284084320068e-01
1.486122012138366699e-01
-2.666659653186798096e-01
-1.335218846797943115e-01
-1.738905906677246094e-01
-1.343709230422973633e-01
-1.830537170171737671e-01
-4.129017889499664307e-01
-2.615883946418762207e-01
-2.816440761089324951e-01
-3.159653246402740479e-01
7.056247442960739136e-02
1.516008526086807251e-01
-3.601083755493164062e-01
-2.488213628530502319e-01
3.670515120029449463e-02
3.255949020385742188e-01
6.310483813285827637e-02
3.920619562268257141e-02
-2.718709707260131836e-01
-5.207931995391845703e-02
-4.398231804370880127e-01
-2.125269472599029541e-01
1.350470166653394699e-02
2.734678983688354492e-01
1.671060621738433838e-01
-3.375990986824035645e-01
-8.384123444557189941e-02
1.373593211174011230e-01
-8.571410924196243286e-02
-3.780017197132110596e-01
-1.518902182579040527e-01
-3.070543706417083740e-01
-3.006018102169036865e-01
-5.208209753036499023e-01
-1.791971474885940552e-01
-5.107067525386810303e-02
1.234314125031232834e-02
1.707363873720169067e-01
-4.702008962631225586e-01
7.156872004270553589e-02
-9.740549325942993164e-02
-6.108508706092834473e-01
-2.267691493034362793e-01
-2.046669274568557739e-01
1.597097516059875488e-01
-3.316405713558197021e-01
-2.572607696056365967e-01
-4.178105294704437256e-01
-2.279655188322067261e-01
-1.808752715587615967e-01
-1.296921074390411377e-01
1.355752050876617432e-01
1.881415955722332001e-02
1.970545500516891479e-01
-8.947588503360748291e-02
-1.628012508153915405e-01
2.168905362486839294e-02
-1.365510374307632446e-02
-3.088892400264739990e-01
-1.089446172118186951e-01
-1.467406004667282104e-01
3.648373484611511230e-02
-2.322164624929428101e-01
4.949354752898216248e-02
-2.800861299037933350e-01
-4.068006947636604309e-02
4.312551617622375488e-01
-1.436850428581237793e-01
4.203216731548309326e-02
-2.577131986618041992e-01
-4.506928101181983948e-02
-2.722337245941162109e-01
-3.100316822528839111e-01
-3.305046558380126953e-01
-1.935664862394332886e-01
-1.154527738690376282e-01
-3.628823459148406982e-01
-2.269114553928375244e-01
1.693211942911148071e-01
-2.640362083911895752e-01
-3.074446320533752441e-01
-1.422677747905254364e-02
-9.440586715936660767e-02
-9.371930360794067383e-02
-7.464444637298583984e-02
-4.664902389049530029e-01
-2.500849068164825439e-01
-3.156456947326660156e-01
2.631290853023529053e-01
5.355667695403099060e-02
-2.790556252002716064e-01
-3.476229310035705566e-01
-4.710862040519714355e-01
-1.841078400611877441e-01
-4.086727499961853027e-01
-3.256145715713500977e-01
-2.903129756450653076e-01
-2.043749839067459106e-01
1.928829103708267212e-01
-3.324896395206451416e-01
-1.296805590391159058e-01
-2.060297131538391113e-02
-2.463772147893905640e-01
-8.049000054597854614e-02
-5.659150481224060059e-01
-2.554621994495391846e-01
-3.700091540813446045e-01
-3.921621441841125488e-01
-1.029986664652824402e-01
-3.977304399013519287e-01
-3.672678470611572266e-01
2.894354760646820068e-01
-3.409269750118255615e-01
1.093954145908355713e-01
6.471906602382659912e-02
-2.058299928903579712e-01
-1.845585554838180542e-01
1.231313124299049377e-02
-2.909078598022460938e-01
-3.834324777126312256e-01
-1.937511712312698364e-01
-4.901734888553619385e-01
-1.585311591625213623e-01
-9.845554828643798828e-02
1.050602123141288757e-01
-2.761475145816802979e-01
-3.088085055351257324e-01
-1.253419667482376099e-01
-2.112834900617599487e-01
-2.282284051179885864e-01
-3.471806943416595459e-01
-5.021669715642929077e-02
-2.435588687658309937e-01
-2.672141790390014648e-01
-1.027099639177322388e-01
-1.533627212047576904e-01
-1.871668696403503418e-01
-4.251031279563903809e-01
-1.461679860949516296e-02
-3.956438302993774414e-01
-4.425722956657409668e-01
-3.426710665225982666e-01
-1.714123636484146118e-01
7.452923804521560669e-02
-1.748796105384826660e-01
5.615245103836059570e-01
-2.050416022539138794e-01
6.042975187301635742e-02
-2.381246387958526611e-01
-3.782291412353515625e-01
-4.624294042587280273e-01
-1.431483030319213867e-01
-3.317688405513763428e-01
-6.580302119255065918e-02
1.241959929466247559e-01
1.743014901876449585e-02
-2.540896236896514893e-01
-2.724205255508422852e-01
8.600500226020812988e-02
-5.603117346763610840e-01
-1.349442750215530396e-01
-2.604107558727264404e-01
-3.390476703643798828e-01
-2.388474643230438232e-01
-4.389507770538330078e-01
-4.494877755641937256e-01
-3.673184514045715332e-01
-1.456115245819091797e-01
-3.208511769771575928e-01
-4.108066856861114502e-01
-1.649759262800216675e-01
-1.346472501754760742e-01
2.698325395584106445e+00
2.705101013183593750e+00
3.179972887039184570e+00
3.110370159149169922e+00
2.891835212707519531e+00
2.750835657119750977e+00
2.870107173919677734e+00
2.718752861022949219e+00
3.039426088333129883e+00
2.848304271697998047e+00
2.847802639007568359e+00
2.597448348999023438e+00
3.026804208755493164e+00
2.717169284820556641e+00
2.941372156143188477e+00
2.864379644393920898e+00
2.952103376388549805e+00
3.104259729385375977e+00
2.740639925003051758e+00
2.926559209823608398e+00
2.864008903503417969e+00
2.520331859588623047e+00
2.836213350296020508e+00
3.093500614166259766e+00
2.809860467910766602e+00
2.860539436340332031e+00
2.641559123992919922e+00
2.545998334884643555e+00
3.052536487579345703e+00
3.272560119628906250e+00
2.927383899688720703e+00
3.023938417434692383e+00
2.704119443893432617e+00
2.535012722015380859e+00
3.041185379028320312e+00
3.068591117858886719e+00
3.003969192504882812e+00
2.735385656356811523e+00
2.650629758834838867e+00
2.895697593688964844e+00
3.187304735183715820e+00
2.848575830459594727e+00
2.577101469039916992e+00
2.402857542037963867e+00
3.041621685028076172e+00
2.563340902328491211e+00
2.649123191833496094e+00
2.793143272399902344e+00
2.861987352371215820e+00
2.740051031112670898e+00
3.166817426681518555e+00
2.855565547943115234e+00
3.258732318878173828e+00
3.072871685028076172e+00
3.193903207778930664e+00
2.830296039581298828e+00
3.160238981246948242e+00
2.945770978927612305e+00
3.201717615127563477e+00
2.918695926666259766e+00
3.133296012878417969e+00
3.042203664779663086e+00
3.119194507598876953e+00
3.087838172912597656e+00
2.786611795425415039e+00
3.101026058197021484e+00
2.705305099487304688e+00
2.999279975891113281e+00
2.709446191787719727e+00
3.055623054504394531e+00
2.819127798080444336e+00
2.621294021606445312e+00
3.246252059936523438e+00
2.762288331985473633e+00
2.972764730453491211e+00
2.822023391723632812e+00
2.948890447616577148e+00
3.137901544570922852e+00
2.629700422286987305e+00
3.044497728347778320e+00
2.378191709518432617e+00
2.978379011154174805e+00
2.551427602767944336e+00
2.954579114913940430e+00
3.092185258865356445e+00
2.759985685348510742e+00
2.965224266052246094e+00
2.776696205139160156e+00
2.809534549713134766e+00
3.014060258865356445e+00
2.527688264846801758e+00
3.260007858276367188e+00
3.104166030883789062e+00
3.016159296035766602e+00
2.401193141937255859e+00
2.917244911193847656e+00
2.470459222793579102e+00
2.631226062774658203e+00
2.931506156921386719e+00
3.051632404327392578e+00
3.098676919937133789e+00
3.148775815963745117e+00
2.986586093902587891e+00
2.950510501861572266e+00
2.964008569717407227e+00
2.962968826293945312e+00
3.276631593704223633e+00
3.287568807601928711e+00
3.212460756301879883e+00
2.698256969451904297e+00
2.830532312393188477e+00
3.168672561645507812e+00
3.010637521743774414e+00
2.887109279632568359e+00
2.965507984161376953e+00
2.788642883300781250e+00
2.884456396102905273e+00
2.356155395507812500e+00
3.173058509826660156e+00
3.050566196441650391e+00
3.034905195236206055e+00
3.344508171081542969e+00
2.184896469116210938e+00
2.871996879577636719e+00
2.893470048904418945e+00
3.177799463272094727e+00
2.631687641143798828e+00
2.662178993225097656e+00
3.072943925857543945e+00
3.063592195510864258e+00
3.011605024337768555e+00
2.535504102706909180e+00
3.122217178344726562e+00
2.844187259674072266e+00
2.839290380477905273e+00
3.041361570358276367e+00
2.968471050262451172e+00
2.986507415771484375e+00
3.022818088531494141e+00
3.105043649673461914e+00
2.777065753936767578e+00
3.067895889282226562e+00
2.825182199478149414e+00
2.915975570678710938e+00
2.639461755752563477e+00
3.023065328598022461e+00
2.863411903381347656e+00
3.107719898223876953e+00
2.642697572708129883e+00
3.114471912384033203e+00
3.277219057083129883e+00
2.786158800125122070e+00
2.952830553054809570e+00
2.997577667236328125e+00
3.070775985717773438e+00
2.534227848052978516e+00
2.721935987472534180e+00
2.931929349899291992e+00
2.868005514144897461e+00
2.797805070877075195e+00
2.849178314208984375e+00
2.910597085952758789e+00
2.910356521606445312e+00
3.183904409408569336e+00
3.140008211135864258e+00
3.058125257492065430e+00
2.942105293273925781e+00
3.221787452697753906e+00
3.047244071960449219e+00
2.636742115020751953e+00
2.976233243942260742e+00
3.070685863494873047e+00
3.304895162582397461e+00
2.596148252487182617e+00
2.733058929443359375e+00
2.601925373077392578e+00
2.793120622634887695e+00
2.627549409866333008e+00
2.809492826461791992e+00
2.154186248779296875e+00
2.765103101730346680e+00
3.044927358627319336e+00
3.121047258377075195e+00
3.272460460662841797e+00
2.799528121948242188e+00
2.840201616287231445e+00
2.683951616287231445e+00
3.141977548599243164e+00
2.397107839584350586e+00
2.667432308197021484e+00
2.479705810546875000e+00
2.825389862060546875e+00
3.110671520233154297e+00
2.407122611999511719e+00
2.791350364685058594e+00
3.221374988555908203e+00
2.823504209518432617e+00
2.660029172897338867e+00
3.017741680145263672e+00
2.903747081756591797e+00
3.049482345581054688e+00
2.693421125411987305e+00
2.251448392868041992e+00
3.044556617736816406e+00
2.840653419494628906e+00
2.647959947586059570e+00
2.996435403823852539e+00
3.206965208053588867e+00
3.072466611862182617e+00
2.797463893890380859e+00
3.100912809371948242e+00
3.113894224166870117e+00
3.097415924072265625e+00
3.011485815048217773e+00
2.802500724792480469e+00
2.963197231292724609e+00
2.922263622283935547e+00
3.029438495635986328e+00
3.053473234176635742e+00
3.054805040359497070e+00
2.845990180969238281e+00
2.806756258010864258e+00
2.983198642730712891e+00
2.733433246612548828e+00
2.660055160522460938e+00
2.631491899490356445e+00
3.224951505661010742e+00
3.033058881759643555e+00
2.938106536865234375e+00
3.033812046051025391e+00
2.785691022872924805e+00
3.122574567794799805e+00
2.198858737945556641e+00
3.023120403289794922e+00
2.911984682083129883e+00
3.061597824096679688e+00
2.616781711578369141e+00
3.247625350952148438e+00
3.224844455718994141e+00
2.684744119644165039e+00
2.894835472106933594e+00
3.114066362380981445e+00
2.952046394348144531e+00
2.808623790740966797e+00
2.976898431777954102e+00
3.007705450057983398e+00
2.972668886184692383e+00
2.800767898559570312e+00
2.832340955734252930e+00
2.495610237121582031e+00
2.847140312194824219e+00
2.317759990692138672e+00
2.937017440795898438e+00
2.628968238830566406e+00
2.963308811187744141e+00
3.090147495269775391e+00
-1.125825941562652588e-01
-2.621550261974334717e-01
1.916240155696868896e-01
-8.807159028947353363e-03
-1.645397394895553589e-01
1.088574454188346863e-01
1.335386037826538086e-01
2.090745568275451660e-01
-2.168817678466439247e-03
1.851051114499568939e-02
1.301172524690628052e-01
8.777067810297012329e-02
-2.728551626205444336e-01
-1.462312648072838783e-03
1.170684248208999634e-01
-2.573309242725372314e-01
2.532131671905517578e-01
1.981158703565597534e-01
-1.213373839855194092e-01
-2.151987105607986450e-01
1.442340314388275146e-01
-3.096988797187805176e-01
-1.824326254427433014e-02
-7.490341365337371826e-02
-5.348642542958259583e-02
-3.664981201291084290e-02
5.580191500484943390e-03
-2.698822617530822754e-01
-6.413346529006958008e-02
-2.287176102399826050e-01
-7.089059799909591675e-02
1.613681018352508545e-01
1.720164567232131958e-01
-9.936720877885818481e-02
-2.970888316631317139e-01
3.561836779117584229e-01
-1.325189135968685150e-02
-1.231706738471984863e-01
-9.029728919267654419e-02
7.991963624954223633e-02
-1.484192460775375366e-01
3.542349636554718018e-01
-5.343265458941459656e-02
-1.445914357900619507e-01
2.991120517253875732e-01
1.396546661853790283e-01
-9.274809807538986206e-02
-5.248627066612243652e-02
-2.171684950590133667e-01
7.808036357164382935e-02
-8.486635051667690277e-03
1.741232424974441528e-01
3.551760911941528320e-01
1.045328229665756226e-01
-3.321715593338012695e-01
-1.433746963739395142e-01
2.363303154706954956e-01
-1.070756018161773682e-01
-1.244715526700019836e-01
-6.192480400204658508e-02
-2.752280607819557190e-02
4.241149872541427612e-02
-2.974189817905426025e-01
6.406550854444503784e-02
2.551632225513458252e-01
-1.777571439743041992e-01
-4.031049013137817383e-01
-3.518576025962829590e-01
1.845845580101013184e-01
1.730387210845947266e-01
1.129906550049781799e-01
-1.106664314866065979e-01
-3.309034705162048340e-01
1.924020797014236450e-02
1.051223836839199066e-02
-2.037292271852493286e-01
1.075063347816467285e-01
1.282261870801448822e-02
2.311194092035293579e-01
2.390851639211177826e-02
1.232379004359245300e-01
3.405772522091865540e-02
-5.325986072421073914e-02
1.226561814546585083e-01
-4.720991104841232300e-02
3.596877679228782654e-02
1.115046069025993347e-01
4.939645156264305115e-02
-3.147153258323669434e-01
-2.652447223663330078e-01
9.076739102602005005e-02
3.197252154350280762e-01
1.923779100179672241e-01
-8.821790665388107300e-02
-3.853234350681304932e-01
1.278864443302154541e-01
6.970641016960144043e-02
-1.646789908409118652e-01
-1.384943127632141113e-01
-1.229318529367446899e-01
5.612310171127319336e-01
-2.506281435489654541e-02
1.327541470527648926e-01
-3.169834017753601074e-01
-2.732293866574764252e-02
2.758469879627227783e-01
-1.865227818489074707e-01
-1.561931967735290527e-01
4.798874855041503906e-01
-7.265949249267578125e-02
-2.880710735917091370e-02
-1.744405329227447510e-01
-8.743713051080703735e-02
-2.382812649011611938e-01
1.610149741172790527e-01
1.124627422541379929e-02
5.332709476351737976e-02
-2.983337640762329102e-01
7.978396490216255188e-03
2.545513808727264404e-01
2.456889003515243530e-01
-3.163105994462966919e-02
-2.341817617416381836e-01
8.346837013959884644e-02
-7.751092314720153809e-02
-1.412455290555953979e-01
-4.877469688653945923e-02
3.178218379616737366e-03
3.394834399223327637e-01
9.871564060449600220e-02
-2.702496349811553955e-01
-1.508311182260513306e-01
1.447240412235260010e-01
-1.303252298384904861e-02
2.936966419219970703e-01
3.804353475570678711e-01
1.004588603973388672e-01
-2.068279087543487549e-01
-2.010586559772491455e-01
-1.369658261537551880e-01
1.407384173944592476e-03
1.493029147386550903e-01
-1.918546110391616821e-01
1.544052809476852417e-01
2.147694379091262817e-01
-3.082754015922546387e-01
-2.433969974517822266e-01
-2.341406196355819702e-01
1.641771346330642700e-01
-3.143195062875747681e-02
3.351782262325286865e-01
1.380065679550170898e-01
-1.842772364616394043e-01
2.107856869697570801e-01
1.216767802834510803e-01
1.016457900404930115e-01
3.207296431064605713e-01
1.527582108974456787e-01
2.504621818661689758e-02
-2.810385823249816895e-01
2.934509217739105225e-01
3.479958325624465942e-02
5.845751985907554626e-02
-2.910987138748168945e-01
1.783976703882217407e-01
1.449965834617614746e-01
-3.720561563968658447e-01
-1.906109005212783813e-01
7.041269540786743164e-02
1.315444260835647583e-01
4.342680424451828003e-02
-3.447887673974037170e-02
3.723043203353881836e-01
-1.683550886809825897e-02
6.053047720342874527e-03
4.283102974295616150e-02
3.214137256145477295e-02
6.265368312597274780e-02
-7.234061509370803833e-02
-5.766241550445556641e-01
1.807079613208770752e-01
-1.264424622058868408e-01
4.433369040489196777e-01
5.415471736341714859e-03
-1.418398171663284302e-01
7.813886553049087524e-02
-1.250444166362285614e-02
-2.488712668418884277e-01
1.184987723827362061e-01
-7.614278048276901245e-02
1.409206688404083252e-01
-4.563681781291961670e-03
3.480706214904785156e-01
-1.234212331473827362e-02
2.924863696098327637e-01
4.884493350982666016e-01
1.614406108856201172e-01
-2.522487640380859375e-01
3.998099640011787415e-02
1.109309718012809753e-01
-8.748956769704818726e-02
-5.089847743511199951e-02
-1.542744934558868408e-01
2.104387730360031128e-01
6.301177665591239929e-03
2.018202096223831177e-01
-1.725783497095108032e-01
3.470609784126281738e-01
-7.896970212459564209e-02
9.220035374164581299e-02
2.148810178041458130e-01
4.555245041847229004e-01
-1.421177238225936890e-01
2.379069030284881592e-01
1.344175487756729126e-01
1.271894872188568115e-01
-1.861017942428588867e-01
-2.656318061053752899e-02
2.072671777568757534e-04
2.378057129681110382e-02
2.967020273208618164e-01
2.457000911235809326e-01
-3.770333230495452881e-01
-9.804493933916091919e-02
-1.832648813724517822e-01
-9.572616219520568848e-02
2.898896336555480957e-01
2.980877161026000977e-01
1.633631736040115356e-01
3.172464296221733093e-02
8.008392900228500366e-02
1.843226104974746704e-01
5.513669848442077637e-01
3.885710611939430237e-02
-5.714692547917366028e-02
2.234366685152053833e-01
-1.848817020654678345e-01
-2.284719198942184448e-01
-3.205789625644683838e-01
-8.892484009265899658e-02
-2.084489315748214722e-01
1.522522270679473877e-01
6.486269086599349976e-02
2.556739002466201782e-02
-1.520077884197235107e-01
7.886172086000442505e-02
1.135534793138504028e-01
9.409242123365402222e-02
3.373270481824874878e-02
7.685808092355728149e-02
6.327503919601440430e-02
3.669053614139556885e-01
1.880286335945129395e-01
-1.587643474340438843e-01
1.660132855176925659e-01
-8.462974429130554199e-02
-2.204249501228332520e-01
-3.602887094020843506e-01
-3.843457996845245361e-01
1.085342243313789368e-01
-7.839354127645492554e-02
-3.748080730438232422e-01
-2.317878454923629761e-01
-3.307515978813171387e-01
-4.536295831203460693e-01
-5.627296119928359985e-02
-4.805949330329895020e-01
-3.955509960651397705e-01
1.259374916553497314e-01
-2.858685255050659180e-01
-1.139332354068756104e-01
-6.185400485992431641e-01
-4.781376719474792480e-01
-2.823777794837951660e-01
-4.269941151142120361e-01
-5.142183303833007812e-01
-6.091028451919555664e-01
-3.600669205188751221e-01
-4.239603579044342041e-01
-1.959100216627120972e-01
-3.399704396724700928e-01
-5.078368186950683594e-01
-2.156158536672592163e-01
-8.580037206411361694e-02
-6.375251412391662598e-01
-4.333185777068138123e-02
-3.615780770778656006e-01
8.733949065208435059e-02
-5.466135144233703613e-01
-3.124890029430389404e-01
-6.223400235176086426e-01
-2.476101517677307129e-01
-3.333035111427307129e-01
-6.262188553810119629e-01
2.795248664915561676e-02
-3.152878880500793457e-01
-8.306027054786682129e-01
-3.649776875972747803e-01
-3.218301832675933838e-01
-1.454102843999862671e-01
-2.967419922351837158e-01
7.627066969871520996e-02
-4.555070102214813232e-01
-2.583129703998565674e-01
-7.058104872703552246e-01
-1.686964780092239380e-01
1.175045967102050781e-01
1.202406585216522217e-01
-4.188309907913208008e-01
-1.930043101310729980e-01
-3.597039356827735901e-02
-2.402305305004119873e-01
-8.269812166690826416e-02
-5.015091300010681152e-01
-5.962020754814147949e-01
-2.141767144203186035e-01
-6.289293169975280762e-01
-1.580990552902221680e-01
-5.265564098954200745e-02
-2.113237828016281128e-01
-6.410105824470520020e-01
-3.435783833265304565e-02
-3.508877158164978027e-01
-6.770976185798645020e-01
-5.781806707382202148e-01
-3.474217951297760010e-01
-9.601023048162460327e-02
-2.334257066249847412e-01
-1.602878123521804810e-01
-5.668436288833618164e-01
-1.605567634105682373e-01
-6.671602129936218262e-01
-2.044000625610351562e-01
-4.501590728759765625e-01
-7.595991343259811401e-02
-3.000350296497344971e-01
-1.556836813688278198e-01
-2.230714410543441772e-01
-3.899306654930114746e-01
-4.638611376285552979e-01
-4.077320992946624756e-01
-2.253687679767608643e-01
-5.488495528697967529e-02
3.029912710189819336e-02
-6.665399670600891113e-01
1.414594352245330811e-01
-1.599721461534500122e-01
3.717137277126312256e-01
-2.588488161563873291e-01
-1.363163143396377563e-01
1.357596814632415771e-01
-5.367386341094970703e-01
-1.083503663539886475e-01
-5.205578804016113281e-01
-6.261695623397827148e-01
-6.290736198425292969e-01
-2.553340494632720947e-01
-5.469729304313659668e-01
-4.180369079113006592e-01
2.306837961077690125e-02
-6.779012084007263184e-01
-5.173538923263549805e-01
-5.623365044593811035e-01
-5.588445663452148438e-01
3.933225572109222412e-01
-5.830836892127990723e-01
-4.665564000606536865e-01
-9.423128515481948853e-02
-3.163027763366699219e-01
-3.225128054618835449e-01
-1.849309951066970825e-01
-4.393256604671478271e-01
-2.952728569507598877e-01
-3.238430321216583252e-01
-6.617454290390014648e-01
-5.041557550430297852e-01
-4.873628541827201843e-02
-4.408140480518341064e-01
-3.908897340297698975e-01
-6.797851920127868652e-01
-1.369960606098175049e-01
-2.304945327341556549e-02
8.252806216478347778e-02
-3.464136123657226562e-01
-5.064468383789062500e-01
-1.177452653646469116e-01
-3.687946498394012451e-01
-1.745187640190124512e-01
-9.282349050045013428e-02
-5.031210780143737793e-01
-5.935121178627014160e-01
-4.992438852787017822e-01
-4.937305450439453125e-01
-1.009373292326927185e-01
-1.802519708871841431e-01
2.678747177124023438e-01
-7.615358829498291016e-01
-3.601795434951782227e-02
-6.945937871932983398e-02
-1.363995373249053955e-01
-4.312039017677307129e-01
-1.212209835648536682e-01
-5.105113387107849121e-01
-2.123021148145198822e-02
-1.546851992607116699e-01
-1.584628224372863770e-01
-3.585692346096038818e-01
-3.322630226612091064e-01
-3.865099549293518066e-01
-5.055469870567321777e-01
-1.428719162940979004e-01
-4.351089000701904297e-01
-3.139359056949615479e-01
-5.864519476890563965e-01
-8.188615739345550537e-02
1.645838916301727295e-01
-6.164615154266357422e-01
-6.131659150123596191e-01
-5.171854496002197266e-01
-8.784918487071990967e-02
-3.213991224765777588e-01
-6.709222197532653809e-01
-2.978170216083526611e-01
-5.176222324371337891e-01
-2.872110903263092041e-01
1.249755080789327621e-02
-1.982719004154205322e-01
-4.961083829402923584e-01
6.910121440887451172e-01
-3.505075871944427490e-01
-1.381160318851470947e-01
-2.182800024747848511e-01
-1.501158922910690308e-01
-6.669487357139587402e-01
-2.697123885154724121e-01
-1.439579874277114868e-01
-6.394014954566955566e-01
-1.801949888467788696e-01
6.479706615209579468e-02
-4.833351075649261475e-01
-9.608194231986999512e-02
-2.873398959636688232e-01
-2.971751987934112549e-01
-6.375667452812194824e-01
-4.185302257537841797e-01
-4.481563866138458252e-01
-3.220022916793823242e-01
-2.362534701824188232e-01
-1.751851886510848999e-01
3.242222219705581665e-02
-3.636144474148750305e-02
-4.452007114887237549e-01
-3.070383667945861816e-01
-4.326812624931335449e-01
-4.061482846736907959e-01
2.035305351018905640e-01
-2.346801459789276123e-01
-2.863434255123138428e-01
-3.180221915245056152e-01
-1.792906224727630615e-01
-4.754377007484436035e-01
-7.969529181718826294e-02
-5.296134352684020996e-01
5.188655853271484375e-01
-4.063577055931091309e-01
-4.403745289891958237e-03
-4.473524689674377441e-01
1.259147077798843384e-01
-1.791747808456420898e-01
-1.408135592937469482e-01
-1.627416759729385376e-01
5.236264690756797791e-02
1.415404677391052246e-02
-2.837719321250915527e-01
-2.541971802711486816e-01
2.047221921384334564e-02
-4.103879034519195557e-01
-3.051439523696899414e-01
-1.363606005907058716e-01
-3.765315413475036621e-01
-2.945221364498138428e-01
-2.560195922851562500e-01
3.183250427246093750e-01
-4.806905686855316162e-01
-1.358696538954973221e-02
-5.122791528701782227e-01
4.535657539963722229e-02
2.375979349017143250e-02
-1.129405200481414795e-01
4.940192028880119324e-02
-5.614200830459594727e-01
-5.465900301933288574e-01
8.011611551046371460e-02
-7.857732772827148438e-01
3.525852859020233154e-01
-5.664934515953063965e-01
5.229743197560310364e-02
5.285333842039108276e-02
-4.504089355468750000e-01
-2.110224515199661255e-01
-6.049172878265380859e-01
-7.080542445182800293e-01
-6.824238300323486328e-01
-3.551904857158660889e-01
-5.229475498199462891e-01
-1.369827538728713989e-01
-4.049014747142791748e-01
-1.638164520263671875e-01
-5.084618926048278809e-01
-4.224594235420227051e-01
5.113569274544715881e-02
-6.743091344833374023e-01
