-7.871166467666625977e-01 1.763459295034408569e-01 5.986524224281311035e-01 -4.287963509559631348e-01 -1.065426841378211975e-01 -6.461995840072631836e-01 -1.374868154525756836e-01 -3.356375992298126221e-01 -7.223390936851501465e-01 7.000303864479064941e-01 -1.822069287300109863e-02 4.989061355590820312e-01 -2.502413690090179443e-01 -3.790842369198799133e-02 -1.439377572387456894e-02 -4.616269767284393311e-01 3.042938624275848269e-05 -3.147023320198059082e-01 -1.520820260047912598e-01 -7.909509353339672089e-03 6.316148042678833008e-01 6.615573540329933167e-03 -1.457397360354661942e-03 -5.482618231326341629e-03 -7.146991556510329247e-04 -1.642635345458984375e+00 5.137686617672443390e-03 4.170838743448257446e-02 -4.260645508766174316e-01 -1.032764792442321777e+00 -5.034264177083969116e-03 1.696283230558037758e-03 1.251229667104780674e-03 -6.603825688362121582e-01 2.433336973190307617e-01 -1.005118489265441895e-01 1.072185859084129333e-02 -7.351511716842651367e-02 1.002478957176208496e+00 -9.116559475660324097e-02 -1.645646095275878906e-01 3.840769059024751186e-04 9.114681184291839600e-02 1.063414942473173141e-02 5.776182413101196289e-01 1.989144366234540939e-03 2.624113485217094421e-02 2.018665708601474762e-02 1.016552746295928955e-01 5.805226042866706848e-02 5.750413052737712860e-03 -2.706571295857429504e-02 1.492609828710556030e-01 -1.841728808358311653e-03 8.321840316057205200e-03 -9.338057786226272583e-02 -1.487834937870502472e-02 1.533323666080832481e-04 2.334477305412292480e-01 2.427871571853756905e-03 4.473781287670135498e-01 5.002161953598260880e-03 -1.115043282508850098e+00 2.422559540718793869e-03 2.056644530966877937e-03 -4.252242743968963623e-01 1.187830138951539993e-02 -2.203593961894512177e-02 -3.243801416829228401e-03 1.007598824799060822e-02 1.571463346481323242e-01 -9.865547530353069305e-03 -1.305597722530364990e-01 -3.079995810985565186e-01 9.510574745945632458e-04 -2.501520216464996338e-01 -7.322169258259236813e-04 -2.754032053053379059e-02 -6.345284581184387207e-01 -1.184485969133675098e-03 2.913864254951477051e-01 -1.232241163961589336e-03 3.301823511719703674e-03 -3.239459693431854248e-01 -9.200845845043659210e-03 -8.819862455129623413e-02 -2.589401975274085999e-02 -1.089993566274642944e-01 6.682609319686889648e-01 -7.157495617866516113e-02 -2.125036120414733887e-01 4.162324666976928711e-01 8.663138747215270996e-02 -4.694722220301628113e-02 4.471198916435241699e-01 -5.157506559044122696e-03 6.176328659057617188e-02 3.921239823102951050e-02 4.039097130298614502e-01 -3.353711962699890137e-01 8.472886085510253906e-01 -2.200056478613987565e-04 -2.510612010955810547e-01 2.437736690044403076e-01 -3.288585841655731201e-01 -1.495904754847288132e-03 -4.448732361197471619e-03 5.673266649246215820e-01 4.089363217353820801e-01 4.276579618453979492e-01 1.315104658715426922e-03 -1.392258913256227970e-03 3.305677473545074463e-01 -2.055770746665075421e-04 1.232275068759918213e-01 -5.607578158378601074e-01 -1.049670949578285217e-02 -2.223648596554994583e-03 -1.115469694137573242e+00 1.070474386215209961e+00 1.199825882911682129e+00 1.098889391869306564e-02 2.771561034023761749e-02 -6.792219937779009342e-04 7.002464262768626213e-04 -1.838357420638203621e-03 5.979996919631958008e-01 1.736836507916450500e-02 -1.211517453193664551e+00 1.316244602203369141e+00 -6.084299646317958832e-03 3.215635195374488831e-02 1.345496904104948044e-02 1.386437267065048218e-01 5.901680588722229004e-01 2.979154465720057487e-03 1.743392199277877808e-01 -1.913932152092456818e-02 4.138683080673217773e-01 5.498623847961425781e-01 -4.563803970813751221e-02 1.402494031935930252e-02 4.414400160312652588e-01 -2.844294067472219467e-03 -1.191372275352478027e+00 -6.681825518608093262e-01 6.610727403312921524e-03 4.264005459845066071e-03 -8.723645471036434174e-03 1.963847549632191658e-03 -3.983995318412780762e-02 -2.163164764642715454e-01 -2.854023827239871025e-03 -1.507829688489437103e-02 7.670000195503234863e-01 -1.170071423985064030e-03 4.208168983459472656e-01 4.111269372515380383e-04 -6.446973681449890137e-01 -2.433271612972021103e-03 7.649209350347518921e-02 -4.106576088815927505e-03 -4.406937658786773682e-01 -4.248251207172870636e-04 1.259763957932591438e-03 -2.744568884372711182e-02 -1.257069408893585205e-03 1.210165023803710938e-01 1.950850635766983032e-01 -1.227743644267320633e-02 3.803811669349670410e-01 2.146472595632076263e-02 -3.323593363165855408e-02 5.224741064012050629e-03 7.415477186441421509e-02 -2.892335355281829834e-01 -2.615686273202300072e-03 -1.749117160215973854e-03 -6.346811652183532715e-01 6.349773406982421875e-01 3.579820096492767334e-01 -2.494014566764235497e-03 2.061195224523544312e-01 1.511512100696563721e-01 1.325479242950677872e-03 9.931084699928760529e-03 9.451445192098617554e-02 -7.619974613189697266e-01 -7.642987766303122044e-04 1.163687705993652344e+00 7.542226314544677734e-01 -5.946083366870880127e-02 -3.813920021057128906e-01 -1.057833075523376465e+00 1.697645895183086395e-02 -3.400040566921234131e-01 -9.659345149993896484e-01 -5.142894983291625977e-01 -9.907068014144897461e-01 -5.407136399298906326e-03 2.571201883256435394e-03 1.192953228950500488e+00 -6.112307906150817871e-01 -2.710679313167929649e-03 -1.188935518264770508e+00 6.325446963310241699e-01 -2.279769163578748703e-03 -9.892505407333374023e-02 7.079858332872390747e-04 -1.865961472503840923e-03 1.371071767061948776e-02 9.220399078913033009e-04 2.490843385457992554e-01 5.252715349197387695e-01 -1.957630040124058723e-03 1.063435301184654236e-01 2.674482762813568115e-02 -1.774445891380310059e+00 -2.494817133992910385e-03 3.691888559842482209e-05 -2.904200926423072815e-03 6.157184951007366180e-03 -8.274393677711486816e-01 5.405839085578918457e-01 -4.263950884342193604e-02 -1.865105004981160164e-03 2.960052341222763062e-03 -8.061474561691284180e-01 -3.469932675361633301e-01 2.757763564586639404e-01 -3.143766662105917931e-03 2.838134532794356346e-03 -1.944484305568039417e-03 -5.945321917533874512e-01 1.067465305328369141e+00 7.194609194993972778e-02 1.075615167617797852e+00 -2.086713444441556931e-03 4.192078486084938049e-03 6.830389611423015594e-03 1.754735247232019901e-03 9.848259389400482178e-02 -2.051352523267269135e-03 -9.813459515571594238e-01 1.068120151758193970e-01 -9.521701186895370483e-02 -8.439459837973117828e-03 3.218979537487030029e-01 -4.322630353271961212e-03 -4.114222824573516846e-01 -1.689327764324843884e-04 -1.841170899569988251e-02 8.328778669238090515e-03 3.235929086804389954e-02 2.405505441129207611e-02 1.552694141864776611e-01
